SVM-light Version V5.01-TK-1.5
5 # kernel type
3 # kernel parameter -d 
1 # kernel parameter -g 
1 # kernel parameter -s 
1 # kernel parameter -r 
empty# kernel parameter -u 
0.4 # kernel parameter -L 
1 # kernel parameter -T 
T # kernel parameter -C 
2 # kernel parameter -F 
1 # kernel parameter -S 
0.400000 # kernel parameter -M 
3 # kernel parameter -N 
S # kernel parameter -V 
S # kernel parameter -W 
0 # kernel parameter -U 
10 # highest feature index 
5451 # number of training documents 
2119 # number of support vectors plus 1 
1.2712617 # threshold b, each following line is a SV (starting with alpha*y)
-0.43806972205882122040065951296128  |BT| (ROOT (ROOT (SBARQ (WHNP (WDT (what))(NNS (film)))(SQ (VP (VBD (feature))(S (NP (DT (the))(NN (character)))(NP (NNP (popeye))(NNP (doyle))))))(. (?))))) |ET| 
-0.75628797501964561966758537892019  |BT| (ROOT (ROOT (SBARQ (WHNP (WP (what)))(SQ (VBZ (be))(NP (DT (the))(ADJP (RBS (most))(JJ (popular)))(NN (contact))(NN (lens))(NN (color))))(. (?))))) |ET| 
-0.026331806074873329026608814729116  |BT| (ROOT (ROOT (SBARQ (WHNP (WP (what)))(SQ (VBZ (be))(VP (VBN (consider))(NP (NP (DT (the))(JJS (costliest))(NN (disaster)))(SBAR (S (NP (DT (the))(NN (insurance))(NN (industry)))(VP (VBZ (have))(ADVP (RB (ever)))(VP (VBN (face)))))))))(. (?))))) |ET| 
-0.31996688240457804575100908550667  |BT| (ROOT (ROOT (SBARQ (WHNP (WP (who)))(SQ (VP (VBD (sing))(PP (IN (about))(NP (NP (NNP (desmond))(CC (and))(NNP (molly)))(NNP (jones))))))(. (?))))) |ET| 
-0.35641800859555394787037130299723  |BT| (ROOT (ROOT (SBARQ (WHNP (WP (what)))(SQ (VBZ (be))(NP (NP (DT (the))(JJ (second-most-used))(NN (vowel)))(PP (IN (in))(NP (NNP (english))))))(. (?))))) |ET| 
0.17759912789179488346036350776558  |BT| (ROOT (ROOT (SBARQ (WHADVP (WRB (how)))(SQ (VBD (do))(NP (NN (serfdom)))(VP (VP (VB (develop))(PP (IN (in))))(CC (and))(ADVP (RB (then)))(VP (VBP (leave))(NP (NNP (russia))))))(. (?))))) |ET| 
1  |BT| (ROOT (ROOT (SBARQ (WHADVP (WRB (how)))(SQ (MD (can))(NP (PRP (i)))(VP (VB (find))(NP (NP (DT (a))(NN (list)))(PP (IN (of))(NP (NP (NNS (celebrity))(POS (')))(JJ (real))(NNS (name)))))))(. (?))))) |ET| 
0.91166541062573436260407788722659  |BT| (ROOT (ROOT (SBARQ (WHNP (WP (what)))(SQ (VBP (be))(NP (NN (liver))(NNS (enzyme))))(. (?))))) |ET| 
0.42155048173535791811161743680714  |BT| (ROOT (ROOT (SBARQ (WHADVP (WRB (how)))(SQ (VBP (do))(NP (PRP (i)))(VP (VB (change))(NP (DT (a))(NN (file)))(PP (IN (from))(NP (DT (a))(NN (art))(NN (file))))(PP (TO (to))(NP (DT (a))(NP (NN (jpeg))(CC (or))(NN (bitmap)))(NN (file))))))(. (?))))) |ET| 
1  |BT| (ROOT (ROOT (SBARQ (WHNP (WP (what)))(SQ (VBD (do))(NP (DT (the))(JJ (only))(NP (NP (VBD (repeal))(NN (amendment)))(PP (TO (to))(NP (DT (the))(NNP (u.s.))(NNP (constitution))))))(VP (VB (deal))(PP (IN (with)))))(. (?))))) |ET| 
-0.57169759529830532773786444522557  |BT| (ROOT (ROOT (SBARQ (WHADVP (WRB (where)))(SQ (MD (can))(NP (PRP (i)))(VP (VB (get))(NP (NN (mailing))(NNS (list)))))(. (?))))) |ET| 
0.069965932566672411896391281516117  |BT| (ROOT (ROOT (SBARQ (WHADVP (WRB (how)))(SQ (VBD (do))(NP (JJ (former))(NP (NNP (wwf))(NN (wrestler))(NNP (rick))(NNP (rude))))(VP (VB (die))))(. (?))))) |ET| 
-0.17048281528739639423264407014358  |BT| (ROOT (ROOT (SBARQ (WHADVP (WRB (where)))(SQ (VBZ (be))(NP (NNP (natchitoches))(, (,))(NNP (louisiana))))(. (?))))) |ET| 
1  |BT| (ROOT (ROOT (SBARQ (WHNP (WP (what)))(SQ (VBZ (be))(NP (NP (DT (the))(JJ (cultural))(NN (origin)))(PP (IN (of))(NP (NP (DT (the))(NN (ceremony)))(PP (IN (of))(NP (NNP (potlatch))))))))(. (?))))) |ET| 
1  |BT| (ROOT (ROOT (SBARQ (WHNP (WP (what)))(SQ (VBZ (be))(NP (NP (DT (the))(JJ (economic))(NN (impact)))(PP (IN (of))(NP (NP (NN (unemployment)))(PP (IN (on))(NP (DT (the))(NN (economy))))))))(. (?))))) |ET| 
1  |BT| (ROOT (ROOT (SBARQ (WHNP (WP (what)))(SQ (VBZ (be))(NP (NP (DT (the))(NN (rathaus)))(PP (IN (in))(NP (NNP (frankfurt))))))(. (?))))) |ET| 
-0.0054696953838213602239193278364837  |BT| (ROOT (ROOT (SBARQ (WHNP (WHADJP (WRB (how))(JJ (many)))(ADJP (JJ (logarithmic)))(NNS (scale)))(SQ (VBP (be))(NP (EX (there)))(PP (IN (on))(NP (DT (a))(NN (slide))(NN (rule)))))(. (?))))) |ET| 
-0.01560041180183637313239053412417  |BT| (ROOT (ROOT (SBARQ (WHNP (WP (what)))(SQ (VBZ (do))(NP (NNP (ibm)))(VP (VB (stand))(PP (IN (for)))))(. (?))))) |ET| 
-0.14703869557849977289798459878511  |BT| (ROOT (ROOT (SBARQ (WHNP (WDT (what))(NNP (u.s.))(NN (congressman)))(SQ (VP (VBD (say))(: (:))(S (VP (`` (``))(VB (keep))(NP (DT (the))(NN (faith)))(, (,))(NP (NN (baby)))('' (''))))))(. (.))))) |ET| 
0.53566823843742183974825366021832  |BT| (ROOT (ROOT (SBARQ (WHADVP (WRB (how)))(SQ (VBZ (be))(NP (NNP (abigail))(NNP (arcane)))(ADJP (JJ (related))(PP (TO (to))(NP (NP (DT (the))(JJ (villainous))(NN (opponent)))(PP (IN (of))(NP (DT (the))(NNP (swamp))(NNP (thing))))))))(. (?))))) |ET| 
-0.053565686741704983397927009036721  |BT| (ROOT (ROOT (SBARQ (WHADVP (WRB (where)))(SQ (MD (can))(NP (PRP (i)))(VP (VB (get))(NP (NN (information))(CC (and))(NNS (statistics)))(PP (IN (on))(NP (NNS (country))(CC (and))(NNS (nation))))))(. (?))))) |ET| 
0.75346644472308699214124771970091  |BT| (ROOT (ROOT (SBARQ (WHADVP (WRB (how)))(SQ (MD (can))(NP (PRP (i)))(VP (VB (get))(NP (NP (DT (a))(JJ (comic))(NN (character)))(SBAR (S (NP (PRP (i)))(VP (VBD (make))(VP (VBN (copyright))(CC (and))(VBN (publish)))))))))(. (?))))) |ET| 
-1  |BT| (ROOT (ROOT (SBARQ (WHADVP (WRB (how)))(SQ (VBP (do))(NP (PRP (you)))(VP (VB (say))(SBAR (S (NP (PRP (i)))(VP (VBP (love))(NP (PRP (you)))(PP (IN (in))(NP (NNP (spanish)))))))))(. (?))))) |ET| 
-1  |BT| (ROOT (ROOT (SBARQ (WHADVP (WRB (how)))(SQ (VBP (do))(NP (PRP (you)))(VP (VB (say))(NP (CD (2)))(PP (IN (in))(NP (NNP (latin))))))(. (?))))) |ET| 
1  |BT| (ROOT (ROOT (SBARQ (WHNP (WP (what)))(SQ (VBZ (be))(NP (NP (DT (a))(NN (cake)))(PP (IN (of))(NP (NN (soap))))))(. (?))))) |ET| 
1  |BT| (ROOT (ROOT (SBARQ (WHNP (WP (what)))(SQ (VBZ (be))(NP (NP (DT (the))(NN (definition)))(PP (IN (of))(NP (NN (cosmology))))))(. (?))))) |ET| 
1  |BT| (ROOT (ROOT (SBARQ (WHNP (WP (what)))(SQ (VBZ (be))(NP (NP (DT (the))(NN (meaning)))(PP (IN (of))(NP (NN (thalassemia))))))(. (?))))) |ET| 
-1  |BT| (ROOT (ROOT (SBARQ (WHNP (WP (what)))(SQ (VBZ (be))(NP (NP (DT (the))(NN (wingspan)))(PP (IN (of))(NP (DT (a))(NN (condor))))))(. (?))))) |ET| 
-1  |BT| (ROOT (ROOT (SBARQ (WHNP (WP (what)))(SQ (VBZ (be))(NP (NP (DT (the))(NN (name)))(PP (IN (of))(NP (NP (DT (the))(NN (inventor)))(PP (IN (of))(NP (JJ (silly))(NN (putty))))))))(. (?))))) |ET| 
-1  |BT| (ROOT (ROOT (SBARQ (WHNP (WP (what)))(SQ (VBZ (be))(NP (NP (DT (the))(NN (name)))(PP (IN (of))(NP (NP (DT (the))(NN (gulf)))(PP (IN (between))(NP (NNP (sweden))(CC (and))(NNP (finland))))))))(. (?))))) |ET| 
0.37566914248415173016582002674113  |BT| (ROOT (ROOT (SBARQ (SBARQ (WHNP (WP (what)))(SQ (VBZ (be))(NP (NP (DT (the))(NN (origin)))(PP (IN (of))(NP (DT (the))(NN (term))(`` (``))(JJ (blue))(NN (moon))(, (,))('' ('')))))))(CC (and))(SBARQ (WHADVP (WRB (how))(RB (often)))(SQ (VBP (do))(NP (PRP (they)))(VP (VB (occur))))(. (?)))))) |ET| 
-0.33115977722000450311767849598255  |BT| (ROOT (ROOT (SBARQ (WHNP (WP (what)))(SQ (VBP (be))(NP (NP (DT (the))(NNS (statistics)))(PP (IN (for))(NP (NP (JJ (drunken))(NNS (driver)))(PP (IN (in))(NP (NNP (maryland))))))))(. (?))))) |ET| 
0.17298284215803783059328679883038  |BT| (ROOT (ROOT (SBARQ (WHADVP (WRB (how)))(SQ (VBP (do))(NP (PRP (you)))(VP (VB (determine))(NP (NN (heating))(NNS (requirement)))(PP (IN (for))(NP (PRP$ (you))(NN (home))))))(. (?))))) |ET| 
-1  |BT| (ROOT (ROOT (SBARQ (WHADVP (WRB (how)))(SQ (VBP (do))(NP (PRP (you)))(VP (VB (say))(NP (CD (2)))(PP (IN (in))(NP (NNP (latin))))))(. (?))))) |ET| 
-0.99245175101315852295158492779592  |BT| (ROOT (ROOT (SBARQ (WHADVP (WRB (how))(RB (fast)))(SQ (VBP (do))(NP (NNS (cheetah)))(VP (VB (run))))(. (?))))) |ET| 
-0.63206207581757634095254161366029  |BT| (ROOT (ROOT (SBARQ (WHADVP (WRB (when)))(SQ (VBD (do))(NP (NP (NNP (world))(NNP (war)))(NP (PRP (i))))(VP (VB (start))))(. (?))))) |ET| 
-0.58441913175120518975091954416712  |BT| (ROOT (ROOT (SBARQ (WHADVP (WRB (when)))(SQ (VBD (do))(NP (NN (swimming)))(VP (VBN (become))(NP (NN (commonplace)))))(. (?))))) |ET| 
1  |BT| (ROOT (ROOT (SBARQ (WHNP (WP (what)))(SQ (VBZ (be))(NP (NP (DT (the))(NN (origin)))(PP (IN (of))(NP (NP (DT (the))(NN (surname)))(PP (IN (of))(NP (NNP (braun))))))))(. (?))))) |ET| 
1  |BT| (ROOT (ROOT (SBARQ (WHNP (WP (what)))(SQ (VBZ (be))(NP (NP (DT (the))(NN (function)))(PP (IN (of))(NP (DT (the))(NN (appendix))))))(. (?))))) |ET| 
1  |BT| (ROOT (ROOT (SBARQ (WHNP (WP (what)))(SQ (VBZ (be))(NP (NP (DT (the))(NN (secret)))(PP (IN (of))(NP (DT (the))(NN (universe))))))(. (?))))) |ET| 
-1  |BT| (ROOT (ROOT (SBARQ (WHNP (WP (what)))(SQ (VBZ (be))(NP (NP (DT (the))(NN (habitat)))(PP (IN (of))(NP (DT (the))(NN (chickadee))))))(. (?))))) |ET| 
-1  |BT| (ROOT (ROOT (SBARQ (WHNP (WP (what)))(SQ (VBZ (be))(NP (NP (DT (the))(NN (home)))(PP (IN (of))(NP (DT (the))(NNPS (rockettes))))))(. (?))))) |ET| 
-1  |BT| (ROOT (ROOT (SBARQ (WHNP (WP (what)))(SQ (VBZ (be))(NP (NP (DT (the))(NN (speed)))(PP (IN (of))(NP (DT (the))(NNP (mississippi))(NNP (river))))))(. (?))))) |ET| 
1  |BT| (ROOT (ROOT (SBARQ (WHADVP (WRB (where)))(SQ (VBD (do))(NP (NN (marijuana)))(VP (VBN (come))(PP (IN (from)))))(. (?))))) |ET| 
1  |BT| (ROOT (ROOT (SBARQ (WHADVP (WRB (where)))(SQ (VBD (do))(NP (JJ (indian))(NN (pudding)))(VP (VBN (come))(PP (IN (from)))))(. (?))))) |ET| 
1  |BT| (ROOT (ROOT (SBARQ (WHADVP (WRB (where)))(SQ (VBP (do))(NP (NNS (chihuahua)))(VP (VB (come))(PP (IN (from)))))(. (?))))) |ET| 
-1  |BT| (ROOT (ROOT (SBARQ (WHADVP (WRB (where)))(SQ (VBZ (do))(NP (NN (chocolate)))(VP (VB (come))(PP (IN (from)))))(. (?))))) |ET| 
-0.068085193214213524104394537062035  |BT| (ROOT (ROOT (SBARQ (WHNP (WP (what)))(SQ (VBD (be))(NP (DT (the))(JJ (first))(JJ (domesticated))(NN (bird))))(. (?))))) |ET| 
-0.90150052220308796169234710760065  |BT| (ROOT (ROOT (SBARQ (WHADVP (WRB (where)))(SQ (VBZ (do))(NP (NN (dew)))(VP (VB (come))(PP (IN (from)))))(. (?))))) |ET| 
1  |BT| (ROOT (ROOT (SBARQ (WHNP (WP (what)))(SQ (VBZ (be))(NP (NP (DT (the))(NN (order)))(PP (IN (of))(NP (NP (DT (the))(NNP (arrow)))(PP (IN (in))(NP (NNP (boy))(NNS (scout))))))))(. (?))))) |ET| 
1  |BT| (ROOT (ROOT (SBARQ (WHNP (WP (what)))(SQ (VP (VBD (happen))(PP (IN (in))(NP (NP (DT (the))(NN (city)))(PP (IN (of))(NP (NNP (dogtown))))))(PP (IN (in))(NP (CD (1899))))))(. (?))))) |ET| 
1  |BT| (ROOT (ROOT (SBARQ (WHNP (WP (what)))(SQ (VBZ (be))(NP (NP (DT (the))(NN (executor)))(PP (IN (in))(NP (DT (a))(NN (will))))))(. (?))))) |ET| 
-0.3254977032908873413319383871567  |BT| (ROOT (ROOT (SBARQ (WHNP (WDT (what))(NNP (president)))(SQ (VP (VBD (have))(ADVP (RB (never)))(VP (VBN (hold))(NP (NP (DT (a))(VBN (elect))(NN (office)))(SBAR (IN (until))(S (NP (PRP (he)))(VP (VBD (be))(VP (VBN (elect))(PP (TO (to))(NP (DT (the))(NNP (white))(NNP (house))))))))))))(. (?))))) |ET| 
-1  |BT| (ROOT (ROOT (SBARQ (WHNP (WP (what)))(SQ (VBZ (be))(NP (NP (DT (the))(NN (term)))(PP (IN (for))(NP (NP (DT (a))(NN (group)))(PP (IN (of))(NP (NNS (goose))))))))(. (?))))) |ET| 
-0.5907982603701589230382751338766  |BT| (ROOT (ROOT (SBARQ (WHNP (WP (what)))(SQ (VBZ (be))(NP (NP (DT (the))(NN (term)))(PP (IN (for))(NP (NP (DT (the))(NN (sum)))(PP (IN (of))(NP (NP (DT (all))(JJ (genetic))(NN (material)))(PP (IN (in))(NP (DT (a))(VBN (give))(NN (organism))))))))))(. (?))))) |ET| 
0.70926599672047052624890284278081  |BT| (ROOT (ROOT (SBARQ (WHADVP (WRB (how)))(SQ (VBP (do))(NP (NNS (bird)))(VP (VB (find))(NP (PRP$ (they))(NN (way)))(ADVP (RB (back))(PP (TO (to))(NP (DT (the))(JJ (same))(NN (place)))))(NP-TMP (DT (every))(NN (year)))))(. (?))))) |ET| 
0.41253295894433905655063199446886  |BT| (ROOT (ROOT (SBARQ (WHADVP (WRB (why)))(SQ (VBD (do))(NP (NNP (david))(NNP (koresh)))(VP (VB (ask))(NP (NP (DT (the))(NNP (fbi)))(PP (IN (for))(NP (DT (a))(NN (word))(NN (processor)))))))(. (?))))) |ET| 
0.88748610431297869638456177199259  |BT| (ROOT (ROOT (SBARQ (WHADVP (WRB (how)))(SINV (VBD (do))(NP (NP (DT (the))(NN (jack-o))('' (')))(PRN (: (-))(NP (NN (lantern)))))(VP (VB (get))(SBAR (S (NP (PRP (it)))(VP (VBZ (be))(NP (NN (name))))))))(. (?))))) |ET| 
-1  |BT| (ROOT (ROOT (SBARQ (WHADVP (WRB (how)))(SQ (VBP (do))(NP (PRP (you)))(VP (VB (say))(ADJP (`` (``))(JJ (fresh))('' (''))(PP (IN (in))(NP (NNP (spanish)))))))(. (?))))) |ET| 
-1  |BT| (ROOT (ROOT (SBARQ (WHADVP (WRB (how)))(SQ (VBP (do))(NP (PRP (you)))(VP (VB (say))(, (,))(`` (``))(S (NP (PRP (i)))(VP (VBP (love))(NP (PRP (you)))('' (''))(PP (IN (in))(NP (JJ (other))(NNS (language))))))))(. (?))))) |ET| 
-1  |BT| (ROOT (ROOT (SBARQ (WHADVP (WRB (how)))(SQ (VBP (do))(NP (PRP (you)))(VP (VB (say))(NP (`` (``))(NNP (grandma))('' ('')))(PP (IN (in))(NP (NNP (irish))))))(. (?))))) |ET| 
1  |BT| (ROOT (ROOT (SBARQ (WHNP (WP (what)))(SQ (VBZ (be))(NP (NP (DT (the))(NN (motto)))(PP (IN (for))(NP (NP (DT (the))(NN (state)))(PP (IN (of))(NP (NNP (maryland))))))))(. (?))))) |ET| 
1  |BT| (ROOT (ROOT (SBARQ (WHNP (WP (what)))(SQ (VBZ (be))(NP (NP (DT (the))(NN (history)))(PP (IN (of))(NP (DT (the))(NN (hairdryer))))))(. (?))))) |ET| 
1  |BT| (ROOT (ROOT (SBARQ (WHNP (WP (what)))(SQ (VBZ (be))(NP (NP (DT (the))(NN (mystery)))(PP (IN (of))(NP (DT (the))(NNP (bermuda))(NNP (triangle))))))(. (?))))) |ET| 
-1  |BT| (ROOT (ROOT (SBARQ (WHNP (WP (what)))(SQ (VBZ (be))(NP (NP (DT (the))(NN (weight)))(PP (IN (of))(NP (NN (air))))))(. (?))))) |ET| 
-1  |BT| (ROOT (ROOT (SBARQ (WHNP (WP (what)))(SQ (VBZ (be))(NP (NP (DT (the))(NN (plural)))(PP (IN (of))(NP (NN (gulf))))))(. (?))))) |ET| 
-1  |BT| (ROOT (ROOT (SBARQ (WHNP (WP (what)))(SQ (VBZ (be))(NP (NP (DT (the))(NN (acreage)))(PP (IN (of))(NP (DT (the))(NNP (chappellet))(NN (vineyard))))))(. (?))))) |ET| 
1  |BT| (ROOT (ROOT (SBARQ (WHNP (WDT (what))(NN (information)))(SQ (MD (can))(NP (PRP (you)))(VP (VB (get))(NP (PRP (i)))(PP (IN (on))(NP (NP (NNP (fairground))(NNP (park)))(PP (IN (in))(NP (NNP (st.))(NNP (louis))))))))))) |ET| 
0.06552003173349635334332674574398  |BT| (ROOT (ROOT (SBARQ (WHADVP (WRB (how)))(SQ (VBP (do))(NP (PRP (i)))(VP (VB (register))(NP (DT (a))(NN (trade))(NN (name)))(PP (IN (in))(NP (NNP (north))(NNP (carolina))))))(. (?))))) |ET| 
1  |BT| (ROOT (ROOT (SBARQ (WHNP (WDT (what)))(SQ (SQ (VBP (have))(NP (PRP (you)))(VP (RB (not))(VB (let))(NP (DT (a))(NN (tennis))(NN (ball)))))(SQ (VBP (do))(PP (IN (if))(NP (PRP (you)))))(FRAG (NP (NN (volley)))))(. (?))))) |ET| 
-1  |BT| (ROOT (ROOT (SBARQ (WHADVP (WRB (where)))(SQ (MD (can))(NP (PRP (i)))(VP (VB (find))(NP (JJ (pictorial))(NNS (direction)))(PP (IN (on))(SBAR (WHADVP (WRB (how)))(S (VP (TO (to))(VP (VB (build))(NP (DT (a))(ADJP (RB (very))(JJ (simple)))(NN (treehouse))))))))))(. (?))))) |ET| 
-0.190479638719726007689558855418  |BT| (ROOT (ROOT (SBARQ (WHNP (WHADJP (WRB (how))(JJ (many)))(NNS (question)))(SQ (VBP (do))(NP (PRP (you)))(VP (VB (have))(PP (IN (on))(NP (PRP$ (you))(NN (database))))))(. (?))))) |ET| 
-0.21820821211302093844963678748172  |BT| (ROOT (ROOT (SBARQ (WHADJP (WRB (how))(RB (long)))(SQ (MD (should))(NP (PRP (you)))(VP (VB (feed))(S (NP (PRP$ (you))(NN (puppy)))(NP (NNP (purina))(NNP (puppy))(NNP (chow))))))(. (?))))) |ET| 
1  |BT| (ROOT (ROOT (SBARQ (WHNP (WP (what)))(SQ (VBZ (be))(NP (NP (DT (the))(NN (orgin)))(PP (IN (of))(NP (NN (xoxoxox))))))(. (?))))) |ET| 
1  |BT| (ROOT (ROOT (SBARQ (WHNP (WP (what)))(SQ (VBZ (be))(NP (NP (DT (the))(NN (hub)))(PP (IN (of))(NP (NNP (london))))))(. (?))))) |ET| 
1  |BT| (ROOT (ROOT (SBARQ (WHNP (WP (what)))(SQ (VBZ (be))(NP (NP (DT (the))(NN (half-life)))(PP (IN (of))(NP (NNP (p-32))))))(. (?))))) |ET| 
-1  |BT| (ROOT (ROOT (SBARQ (WHNP (WP (what)))(SQ (VBZ (be))(NP (NP (DT (the))(NN (mission)))(PP (IN (of))(NP (NNP (nike))))))(. (?))))) |ET| 
-0.75764622105768175686080212472007  |BT| (ROOT (ROOT (SBARQ (WHNP (WP (what)))(SQ (VBZ (be))(NP (NP (DT (the))(NN (population)))(PP (IN (of))(NP (NNP (ohio))))))(. (?))))) |ET| 
-1  |BT| (ROOT (ROOT (SBARQ (WHNP (WP (what)))(SQ (VBZ (be))(NP (NP (DT (the))(NN (frequency)))(PP (IN (of))(NP (NNP (vhf))))))(. (?))))) |ET| 
0.96412666398700297420987226360012  |BT| (ROOT (ROOT (SBARQ (WHADVP (WRB (how)))(SQ (MD (can))(NP (PRP (i)))(VP (VB (look))(PRT (RP (up)))(NP (NP (NP (NN (someone))(POS ('s)))(NN (e-mail))(NN (address)))(PP (IN (on))(NP (DT (the))(NN (internet)))))))(. (?))))) |ET| 
1  |BT| (ROOT (ROOT (SBARQ (WHADVP (WRB (where)))(SQ (VBP (do))(NP (NNS (rock)))(VP (VB (come))(PP (IN (from)))))(. (?))))) |ET| 
1  |BT| (ROOT (ROOT (SBARQ (WHADVP (WRB (where)))(SQ (VP (VBZ (do))(ADJP (`` (``))(JJ (bovine))('' (''))(SBAR (S (VP (VBN (come))(PP (IN (from)))))))))(. (?))))) |ET| 
-1  |BT| (ROOT (ROOT (SBARQ (WHADVP (WRB (where)))(SQ (VBD (do))(NP (DT (the))(NN (world)))(VP (VBN (come))(PP (IN (from)))))(. (?))))) |ET| 
-0.0267135057704204620376842171936  |BT| (ROOT (ROOT (SBARQ (WHADVP (WRB (where)))(SQ (VBZ (be))(NP (NNP (qatar))))(. (?))))) |ET| 
-0.053119800935527858309903592726187  |BT| (ROOT (ROOT (SBARQ (WHADJP (WRB (how))(RB (long)))(SQ (VBD (do))(NP (PRP (it)))(VP (VB (take))(S (NP (NNP (stanley)))(VP (TO (to))(VP (VB (find))(NP (NNP (livingstone))))))))(. (?))))) |ET| 
1  |BT| (ROOT (ROOT (SBARQ (WHNP (WP (what)))(SQ (VBZ (be))(NP (NP (DT (the))(NN (function)))(PP (IN (of))(NP (NNP (ram))))))(. (?))))) |ET| 
1  |BT| (ROOT (ROOT (SBARQ (WHNP (WP (what)))(SQ (VBZ (be))(NP (NP (DT (the))(NN (history)))(PP (IN (of))(NP (NNP (skateboarding))))))(. (?))))) |ET| 
1  |BT| (ROOT (ROOT (SBARQ (WHNP (WP (what)))(SQ (VBZ (be))(NP (NP (DT (the))(NN (theory)))(PP (IN (of))(NP (JJ (equivalence))(NNS (state))))))(. (?))))) |ET| 
-1  |BT| (ROOT (ROOT (SBARQ (WHNP (WP (what)))(SQ (VBZ (be))(NP (NP (DT (the))(NN (size)))(PP (IN (of))(NP (NNP (argentina))))))(. (?))))) |ET| 
-0.66836647515366287564120284514502  |BT| (ROOT (ROOT (SBARQ (WHNP (WP (what)))(SQ (VBZ (be))(NP (NP (DT (the))(NN (capital)))(PP (IN (of))(NP (NNP (iowa))))))(. (?))))) |ET| 
-0.66868712560976817371738434303552  |BT| (ROOT (ROOT (SBARQ (WHNP (WP (what)))(SQ (VBZ (be))(NP (NP (DT (the))(NN (capital)))(PP (IN (of))(NP (NNP (seattle))))))(. (?))))) |ET| 
1  |BT| (ROOT (ROOT (SBARQ (WHADVP (WRB (where)))(SQ (VBD (do))(NP (DT (the))(NN (term))(`` (``))(VBD (86e))('' ('')))(VP (VBN (come))(PP (IN (from)))))(. (?))))) |ET| 
1  |BT| (ROOT (ROOT (SBARQ (WHADVP (WRB (where)))(SQ (VBD (do))(NP (DT (the)))(VP (VBG (say))(NP (NP (`` (``))(NP (NN (rule)))(PP (IN (of))(NP (NN (thumb))))('' ('')))(VP (VBN (come))(PP (IN (from)))))))(. (?))))) |ET| 
1  |BT| (ROOT (ROOT (SBARQ (WHADVP (WRB (where)))(SINV (VBD (do))(NP (NP (DT (the))(NN (term)))(NP (`` (``))(NP (CD (86)))('' (''))(VP (VBN (come))(PP (IN (from)))))))(. (?))))) |ET| 
-1  |BT| (ROOT (ROOT (SBARQ (WHNP (WP (what)))(SQ (VBP (be))(NP (NP (CD (two))(NNS (plant)))(SBAR (WHNP (WDT (that)))(S (NP (NNS (clothes)))(VP (VBP (be))(VP (VBN (make))(PP (IN (from)))))))))(. (?))))) |ET| 
-0.15960664163818538696659743436612  |BT| (ROOT (ROOT (SBARQ (WHNP (WP (what)))(SQ (VBZ (be))(NP (NP (DT (the))(JJ (primary))(NN (language)))(PP (IN (of))(NP (DT (the))(NNPS (philippines))))))(. (?))))) |ET| 
-1  |BT| (ROOT (ROOT (SBARQ (WHADVP (WRB (how)))(SQ (ADVP (RB (long))(RB (ago)))(VP (VBD (do))(NP (DT (the))(JJ (anglican))(NN (church))(NN (part)))(PP (IN (from))(NP (DT (the))(NNP (vatican))))))(. (?))))) |ET| 
1  |BT| (ROOT (ROOT (SBARQ (WHNP (WP (what)))(SQ (VBZ (be))(NP (NP (DT (the))(NN (meaning)))(PP (IN (of))(NP (NNP (jesus))))))(. (?))))) |ET| 
1  |BT| (ROOT (ROOT (SBARQ (WHNP (WP (what)))(SQ (VBZ (be))(NP (NP (DT (the))(NN (meaning)))(PP (IN (of))(NP (NNP (uol))))))(. (?))))) |ET| 
1  |BT| (ROOT (ROOT (SBARQ (WHNP (WP (what)))(SQ (VBZ (be))(NP (NP (DT (the))(NN (definition)))(PP (IN (of))(NP (NNP (hazmat))))))(. (?))))) |ET| 
-1  |BT| (ROOT (ROOT (SBARQ (WHNP (WP (what)))(SQ (VBZ (be))(NP (NP (DT (the))(NN (nickname)))(PP (IN (of))(NP (NNP (pennsylvania))))))(. (?))))) |ET| 
-0.87674999489855642842428551375633  |BT| (ROOT (ROOT (SBARQ (WHNP (WP (what)))(SQ (VBZ (be))(NP (NP (DT (the))(NN (population)))(PP (IN (of))(NP (NNP (mexico))))))(. (?))))) |ET| 
-0.75764622105767509552265437378082  |BT| (ROOT (ROOT (SBARQ (WHNP (WP (what)))(SQ (VBZ (be))(NP (NP (DT (the))(NN (population)))(PP (IN (of))(NP (NNP (kansas))))))(. (?))))) |ET| 
1  |BT| (ROOT (ROOT (SBARQ (WHNP (WDT (what))(NN (personality))(NNS (trait)))(SQ (VBP (be))(NP (NNPS (capricorns)))(S (VP (VBD (say))(S (VP (TO (to))(VP (VB (have))))))))(. (?))))) |ET| 
1  |BT| (ROOT (ROOT (SBARQ (WHNP (WDT (what))(NNS (qualification)))(SQ (VP (VBP (be)))(NP (EX (there)))(PP (IN (for))(S (NP (NNS (individual)))(VP (VBG (donate))(NP (NN (blood)))))))(. (?))))) |ET| 
1  |BT| (ROOT (ROOT (SBARQ (WHNP (WDT (what))(NN (effect)))(SQ (VBZ (do))(NP (NN (friction)))(VP (VB (have))(PP (IN (on))(NP (JJ (perpetual))(NN (motion))))))(. (?))))) |ET| 
-0.18602895524499263313344954440254  |BT| (ROOT (ROOT (SBARQ (WHNP (WP (who)))(SQ (VP (VBD (send))(NP (DT (the))(JJ (brief))(NN (message)))(SBAR (S (`` (``))(S (NP (PRP (i)))(VP (VBD (come))))(, (,))(S (NP (PRP (i)))(VP (VBD (see))))(, (,))(S (NP (PRP (i)))(VP (VBD (conquer))))('' (''))))))(. (?))))) |ET| 
0.98578468896733528747944319547969  |BT| (ROOT (ROOT (SBARQ (WHNP (WP (what)))(SQ (VBZ (be))(NP (DT (the))(`` (``))(JJ (7-minute))(NN (cigarette))('' (''))))(. (?))))) |ET| 
-0.49179272302596366284177520356025  |BT| (ROOT (ROOT (SBARQ (WHNP (WP (what)))(SQ (VBZ (be))(NP (NP (DT (the))(NN (fahrenheit))(NN (equivalent)))(PP (IN (of))(NP (CD (zero))(NNS (degree))(NN (centigrade))))))(. (?))))) |ET| 
1  |BT| (ROOT (ROOT (SBARQ (WHNP (WP (what)))(SQ (VBZ (be))(NP (NP (DT (the))(NN (design)))(PP (IN (of))(NP (DT (the))(NN (ship))(NNP (titanic))))))(. (?))))) |ET| 
1  |BT| (ROOT (ROOT (SBARQ (WHNP (WP (what)))(SQ (VBZ (be))(NP (NP (DT (the))(NN (purpose)))(PP (IN (of))(NP (NNS (bio))))))(. (?))))) |ET| 
1  |BT| (ROOT (ROOT (SBARQ (WHNP (WP (what)))(SQ (VBZ (be))(NP (NP (DT (the))(NN (origin)))(PP (IN (of))(NP (DT (the))(NNP (christmas))(NN (tree))))))(. (?))))) |ET| 
-1  |BT| (ROOT (ROOT (SBARQ (WHNP (WP (what)))(SQ (VBZ (be))(NP (NP (DT (the))(NN (country)))(PP (IN (of))(NP (NP (NN (origin)))(PP (IN (for))(NP (DT (the))(NN (name))(NNP (thomas))))))))(. (?))))) |ET| 
-1  |BT| (ROOT (ROOT (SBARQ (WHNP (WP (what)))(SQ (VBZ (be))(NP (NP (DT (the))(NN (length)))(PP (IN (of))(NP (NP (NN (border)))(PP (IN (between))(NP (DT (the))(NNP (ukraine))(CC (and))(NNP (russia))))))))(. (?))))) |ET| 
-1  |BT| (ROOT (ROOT (SBARQ (WHNP (WP (what)))(SQ (VBZ (be))(NP (NP (DT (the))(NN (horsepower)))(PP (IN (of))(NP (DT (the))(NN (shuttle))(NNS (booster))))))(. (?))))) |ET| 
1  |BT| (ROOT (ROOT (S (VP (VB (define))(NP (NNP (spumante))))(. (.))))) |ET| 
1  |BT| (ROOT (ROOT (SBARQ (WHNP (WDT (what))(NN (motto)))(SQ (VP (VBD (end))(NP (NNP (merrie))(NNPS (melodies))(NNS (cartoon)))))(. (?))))) |ET| 
1  |BT| (ROOT (ROOT (SBARQ (WHNP (WP (what)))(SQ (VBP (do))(NP (PRP (you)))(VP (VB (say))(PP (TO (to))(NP (NP (DT (a))(NN (friend)))(SBAR (WHNP (WP (who)))(S (VP (VBZ (ignore))(NP (PRP (you)))(PP (IN (for))(NP (JJ (other))(NNS (friend)))))))))))(. (?))))) |ET| 
-0.37972233681391387438708306945045  |BT| (ROOT (ROOT (SBARQ (WHNP (WP (what)))(SQ (VBZ (be))(NP (NP (DT (the))(NN (nickname)))(PP (IN (of))(NP (NP (DT (the))(JJ (famous))(NN (flyer)))(SBAR (WHNP (WP (who)))(S (ADVP (RB (mistakenly)))(VP (VBD (fly))(PP (PP (TO (to))(NP (NNP (ireland))))(CONJP (RB (instead))(IN (of)))(PP (TO (to))(NP (NNP (los))(NNP (angeles))))))))))))(. (?))))) |ET| 
-0.36463818321477187156531840628304  |BT| (ROOT (ROOT (S (VP (VB (name))(NP (DT (a))(VBG (fly))(NN (mammal))))(. (.))))) |ET| 
0.48520947899284205817593829124235  |BT| (ROOT (ROOT (SBARQ (WHNP (WP (what)))(SQ (VBZ (be))(NP (NP (DT (the))(NN (difference)))(PP (IN (between))(NP (NP (JJ (neoclassical))(NN (art)))(CC (and))(NP (JJ (romanticism))(NN (art)))))))(. (?))))) |ET| 
1  |BT| (ROOT (ROOT (SBARQ (WHNP (WP (what)))(SQ (VBZ (be))(NP (NP (DT (the))(NN (difference)))(PP (IN (between))(NP (NP (DT (the))(NNP (koran)))(CC (and))(NP (DT (the))(NNP (bible)))))))(. (?))))) |ET| 
1  |BT| (ROOT (ROOT (SBARQ (WHNP (WP (what)))(SQ (VBZ (be))(NP (NP (JJ (new)))(PP (IN (in))(NP (NP (DT (the))(JJ (postal))(NN (world)))(PP (IN (in))(NP (CD (1999))))))))(. (?))))) |ET| 
1  |BT| (ROOT (ROOT (SBARQ (WHNP (WP (what)))(SQ (VBD (be))(NP (NP (DT (the))(NN (reason)))(PP (IN (for))(NP (NP (DT (the))(NN (partition)))(PP (IN (of))(NP (DT (the))(ADJP (JJ (anglican))(CC (and))(NNP (vatican)))(NNS (church))))))))(. (?))))) |ET| 
-1  |BT| (ROOT (ROOT (SBARQ (WHNP (WP (what)))(SQ (VBD (be))(NP (NP (DT (the))(NN (sequel)))(PP (TO (to))(NP (DT (the))(NNP (pink))(NN (panther))))))(. (?))))) |ET| 
-1  |BT| (ROOT (ROOT (SBARQ (WHNP (WP (what)))(SQ (VBZ (be))(NP (NP (NNP (ram)))(PP (IN (in))(NP (DT (the))(NN (computer))))))(. (?))))) |ET| 
-0.45390315606125364311651537718717  |BT| (ROOT (ROOT (SBARQ (WHNP (WP (what)))(SQ (VBZ (be))(NP (NP (DT (the))(JJS (weakest))(NN (bone)))(PP (IN (in))(NP (DT (the))(NN (body))))))(. (?))))) |ET| 
1  |BT| (ROOT (ROOT (S (VP (VB (describe))(NP (DT (the))(JJ (long))(NNP (march))))(. (.))))) |ET| 
1  |BT| (ROOT (ROOT (S (VP (VB (define))(NP (NNP (sinn))(NNP (fein))))(. (.))))) |ET| 
1  |BT| (ROOT (ROOT (S (VP (VB (describe))(NP (NP (DT (the))(JJ (finnish))(NN (music))(NN (personality))(NN (salonen))(POS ('s)))(NN (appearance))))(. (.))))) |ET| 
-0.18750620013851104772584221791476  |BT| (ROOT (ROOT (S (VP (VB (name))(NP (CD (four))(JJ (famous))(NN (cartoon))(NNS (cat))))(. (.))))) |ET| 
-0.12527027836104964730878918999224  |BT| (ROOT (ROOT (SBARQ (WHNP (WDT (what))(NNP (stephen))(NNP (sondheim))(NN (ballad)))(SQ (VP (VBZ (end))(: (:))(FRAG (INTJ (`` (``))(UH (well)))(, (,))(RB (maybe))(NP (JJ (next))(NN (year)))(. (.)))))))(ROOT (NP (. (.))))(ROOT (S (VP (. (.))('' ('')))))(ROOT (NP (. (?))))) |ET| 
0.40150404338821732430631072929827  |BT| (ROOT (ROOT (SBARQ (WHNP (WP (what)))(SQ (VBP (be))(NP (NNS (tannin))))(. (?))))) |ET| 
1  |BT| (ROOT (ROOT (SBARQ (WHNP (WP (what)))(SQ (VBZ (be))(NP (NP (DT (a))(NN (pig)))(PP (IN (in))(NP (DT (a))(NN (poke))))))(. (?))))) |ET| 
1  |BT| (ROOT (ROOT (SBARQ (WHNP (WP (what)))(SQ (VBZ (be))(NP (NP (DT (a))(NN (specimen)))(PP (IN (of))(NP (NNS (basidiomycete))))))(. (?))))) |ET| 
0.94025762667736834110598920233315  |BT| (ROOT (ROOT (SBARQ (WHNP (WP (what)))(SQ (VBZ (be))(NP (NNP (gymnophobia))))(. (?))))) |ET| 
-1  |BT| (ROOT (ROOT (SBARQ (WHNP (WP (what)))(SQ (VBZ (be))(NP (NN (sap))))(. (?))))) |ET| 
-1  |BT| (ROOT (ROOT (SBARQ (WHNP (WP (what)))(SQ (VBZ (be))(NP (NN (dsl))))(. (?))))) |ET| 
-1  |BT| (ROOT (ROOT (SBARQ (WHNP (WP (what)))(SQ (VBZ (be))(NP (NNP (bph))))(. (?))))) |ET| 
1  |BT| (ROOT (ROOT (SBARQ (WHNP (WP (what)))(S (VP (VBP (be))(NP (NP (NP (DT (the))(NNS (word)))(PP (TO (to))(NP (NP (NP (DT (the))(NN (cd)))(NP (NNP (eminem))(POS ('s))))(, (,))(CC (or))(NP (ADJP (JJ (slim))(JJ (shady))))(, (,)))))(`` (``))(S (NP (PRP$ (my)))(VP (VB (name))(VP (VBZ (be)))))('' ('')))))(. (?))))) |ET| 
1  |BT| (ROOT (ROOT (SBARQ (WHNP (WHNP (WDT (what))(NNS (feature)))(PP (IN (of))(NP (DT (the))(JJ (african))(NN (elephant)))))(SQ (VBP (be))(NP (NP (JJR (larger)))(PP (IN (than))(NP (NP (DT (those)))(PP (IN (of))(NP (DT (the))(JJ (indian))(NN (elephant))))))))(. (?))))) |ET| 
1  |BT| (ROOT (ROOT (SBARQ (WHNP (WDT (what))(NN (baseball))(NN (expression)))(SQ (VP (VBD (come))(PP (IN (from))(NP (NP (DT (the))(JJ (nautical))(NN (term)))(PP (IN (for))(NP (NNS (ship))))))(S (VP (VBG (sail))(PP (IN (between))(NP (DT (the))(NNP (atlantic))(CC (and))(NNP (pacific))))(PP (IN (before))(NP (DT (the))(NNP (panama))(NNP (canal))))))))(. (?))))) |ET| 
-0.22576017025808226001970524521312  |BT| (ROOT (ROOT (SBARQ (SBAR (WHADVP (WRB (when)))(S (VP (VBG (read))(NP (VBN (classify))(NNS (ad))))))(, (,))(WHNP (WP (what)))(SQ (VP (VBZ (do))(NP (NNP (eenty))))(: (:))(NP (NP (JJ (other))(NN (stand)))(PP (IN (for)))))(. (?))))) |ET| 
0.54657307920149733604375796858221  |BT| (ROOT (ROOT (SBARQ (WHNP (WP (what)))(SQ (VBZ (do))(NP (DT (the))(NN (name))(NNP (kelly)))(VP (VB (mean))))(. (?))))) |ET| 
-0.062607562938689437226358336374687  |BT| (ROOT (ROOT (SBARQ (WHADVP (WRB (where))(PP (IN (on))(NP (DT (the))(NN (internet)))))(SQ (MD (can))(NP (PRP (i)))(VP (VB (get))(NP (NP (NN (information)))(PP (IN (about))(NP (DT (the))(NNP (fifth))(NNP (amendment)))))(PP (IN (on))(NP (NP (DT (the))(JJ (american))(NNP (bill)))(PP (IN (of))(NP (NNPS (rights))))))))(. (?))))) |ET| 
0.089273223832690901113906534192211  |BT| (ROOT (ROOT (SBARQ (WHNP (WP (what)))(SQ (VBZ (be))(NP (NN (ethology))))(. (?))))) |ET| 
0.089207138309050221236518041223462  |BT| (ROOT (ROOT (SBARQ (WHNP (WP (what)))(SQ (VBZ (be))(NP (NN (titanium))))(. (?))))) |ET| 
0.089207138309064445969021051041636  |BT| (ROOT (ROOT (SBARQ (WHNP (WP (what)))(SQ (VBZ (be))(NP (NN (molybdenum))))(. (?))))) |ET| 
-1  |BT| (ROOT (ROOT (SBARQ (WHNP (WP (what)))(SQ (VBP (do))(NP (NNS (peacock)))(VP (VB (mate))(PP (IN (with)))))(. (?))))) |ET| 
-1  |BT| (ROOT (ROOT (SBARQ (WHNP (WP (what)))(SQ (VP (VBZ (do))(NP (DT (a))(NN (collier))(NN (mine)))))(. (?))))) |ET| 
-1  |BT| (ROOT (ROOT (SBARQ (WHNP (WP (what)))(SQ (VP (VBZ (do))(NP (DT (a))(NN (pedometer))(NN (measure)))))(. (?))))) |ET| 
1  |BT| (ROOT (ROOT (SBARQ (SBAR (WHNP (WDT (what)))(S (PP (VBG (accord))(PP (TO (to))(NP (DT (the))(NNP (kinsey))(NNP (institute)))))))(, (,))(SQ (VBZ (be))(NP (NP (DT (the))(JJ (sexual))(NN (preference)))(PP (IN (of))(NP (NP (CD (four))(NN (percent)))(PP (IN (of))(NP (JJ (american))(NNS (male))))))))(. (?))))) |ET| 
1  |BT| (ROOT (ROOT (SBARQ (WHADVP (WRB (why)))(SQ (VP (VBP (do))(SBAR (S (NP (NP (NNS (people)))(PP (IN (in))(NP (NP (DT (the))(JJ (upper))(NN (peninsula)))(PP (IN (of))(NP (NNP (michagin)))))))(VP (VBP (say))(VP (FRAG (INTJ (`` (``))(UH (eh))(. (?))('' (''))))))))))))(ROOT (NP (. (?))))) |ET| 
1  |BT| (ROOT (ROOT (SBARQ (WHADVP (WRB (how)))(SQ (VBD (do))(NP (NP (DT (the))(NNS (month)))(PP (IN (of))(NP (DT (the))(NN (year)))))(VP (VB (get))(S (NP (RB (there)))(VP (VB (name))))))(. (?))))) |ET| 
-0.082747344183209226020636606335756  |BT| (ROOT (ROOT (SBARQ (WHADVP (WRB (when)))(SQ (VBD (be))(NP (NNP (hurricane))(NNP (hugo))))(. (?))))) |ET| 
-0.6428999482168300527717974546249  |BT| (ROOT (ROOT (SBARQ (WHNP (WP (what)))(SQ (VBD (be))(NP (NP (NNP (einstein))(POS ('s)))(NNP (iq))))(. (?))))) |ET| 
-0.99475650943533411307839742221404  |BT| (ROOT (ROOT (SBARQ (WHNP (WP (what)))(SQ (VBZ (be))(NP (NP (DT (the))(JJ (only))(NN (primate)))(PP (TO (to))(NP (NP (NN (lack))(NN (pigment)))(PP (IN (in))(NP (NP (DT (the))(NNS (palm)))(PP (IN (of))(NP (PRP$ (its))(NNS (hand))))))))))(. (?))))) |ET| 
-0.0086751423810178217299604597201323  |BT| (ROOT (ROOT (SBARQ (WHNP (WP (who)))(SQ (VBZ (be))(NP (NNP (barbara))(NNP (jordan))))(. (?))))) |ET| 
0.95545713059400128042142341655563  |BT| (ROOT (ROOT (SBARQ (WHNP (WP (what)))(SQ (VP (VBZ (make))(NP (NN (thunder)))))(. (?))))) |ET| 
0.21129953475480015012699652743322  |BT| (ROOT (ROOT (SBARQ (WHNP (WP (what)))(SQ (VP (VBZ (cause))(NP (DT (a))(NN (earthquake)))))(. (?))))) |ET| 
-1  |BT| (ROOT (ROOT (SBARQ (WHNP (WP (what)))(SQ (VP (VBZ (do))(NP (DT (a))(JJ (heliologist))(NN (study)))))(. (?))))) |ET| 
0.1591756079705383686295760981011  |BT| (ROOT (ROOT (SBARQ (WHNP (WRB (how)))(SQ (VP (VBZ (be))(NP (`` (`))(FW (qigong))('' (')))(S (VP (ADVP (RB (properly)))(VBN (pronounce))))))(. (?))))) |ET| 
-0.16105075573065166794073377332097  |BT| (ROOT (ROOT (SBARQ (WHADVP (WRB (when)))(SINV (VBD (do))(NP (DT (the))(JJ (jurassic))(NN (period))(NN (end))))(. (?))))) |ET| 
1  |BT| (ROOT (ROOT (SBARQ (WHNP (WP (what)))(SQ (VBZ (be))(NP (NP (DT (the))(NN (origin)))(PP (IN (of))(NP (NP (DT (the))(NN (term)))(NP (`` (``))(NP (JJ (buffalo))(NNS (wing)))('' (''))(SBAR (WHNP (WDT (that)))(S (VP (VBZ (be))(VP (VBN (use))(PP (IN (as))(NP (NP (DT (a))(NN (menu))(NN (item)))(PP (IN (in))(NP (NNS (bar))))))(PP (IN (across))(NP (NP (DT (the))(NN (nation)))(PP (IN (for))(NP (NP (NN (chicken))(NNS (wing)))(PP (IN (in))(NP (DT (a))(NN (spicey))(NN (sauce)))))))))))))))))(. (?))))) |ET| 
1  |BT| (ROOT (ROOT (SBARQ (WHADVP (WRB (how)))(SQ (VBD (do))(NP (DT (the))(NNP (u.s.)))(VP (VB (come))(PP (IN (into))(NP (NP (DT (the))(NN (possession)))(PP (IN (of))(NP (NP (DT (a))(NN (empire)))(PP (IN (in))(NP (NP (DT (the))(NN (wake)))(PP (IN (of))(NP (DT (the))(JJ (spanish-american))(NN (war))))))))))))(. (?))))) |ET| 
1  |BT| (ROOT (ROOT (FRAG (SBAR (WHNP (WDT (what)))(S (NP (NNS (problem)))(VP (VBD (contribute))(PP (TO (to))(NP (NP (DT (the))(JJ (high))(NN (failure))(NN (rate)))(PP (IN (of))(NP (NNS (plain))(NNS (farmer))))))(PP (IN (in))(NP (DT (the))(CD (1800s)))))))(. (?))))) |ET| 
0.82546228151246991977529887662968  |BT| (ROOT (ROOT (SBARQ (WHNP (WP (what)))(SQ (VBZ (be))(NP (NNP (god))))(. (?))))) |ET| 
-0.70018533074911804003903625925886  |BT| (ROOT (ROOT (SBARQ (WHNP (WP (what)))(SQ (VBP (be))(NP (NP (DT (the))(JJ (top))(CD (10))(NNS (college)))(PP (IN (in))(NP (NP (DT (the))(NNP (united))(NNPS (states)))(PP (IN (in))(NP (NP (DT (the))(NN (field)))(PP (IN (of))(NP (NN (engineering))))))))))(. (?))))) |ET| 
-0.13212713363378883468790547794924  |BT| (ROOT (ROOT (FRAG (PP (IN (of))(NP (NP (NNS (child)))(PP (IN (between))(NP (NP (NP (DT (the))(NNS (age)))(PP (IN (of))(NP (NP (CD (two)))(CC (and))(NP (NNS (eleven))))))(, (,))(SBAR (WHNP (WDT (what)))(S (NP (NP (NN (percentage))(NN (watch)))(`` (``))(NP (DT (the))(NNP (simpsons)))('' ('')))))))))(. (?))))) |ET| 
1  |BT| (ROOT (ROOT (SBARQ (WHNP (WP (what)))(SQ (VBZ (be))(NP (DT (a))(JJ (first))(NNP (world))(NN (country))))(. (?))))) |ET| 
1  |BT| (ROOT (ROOT (SBARQ (WHNP (WP (what)))(SQ (VBZ (do))(NP (NNP (choo))(NNP (choo))(NNP (charlie)))(VP (VB (say))))(. (?))))) |ET| 
1  |BT| (ROOT (ROOT (SBARQ (WHNP (WP (what)))(SQ (VBP (do))(NP (NNPS (mormons)))(VP (VB (believe))))(. (?))))) |ET| 
-0.050598509795832580238084119628184  |BT| (ROOT (ROOT (SBARQ (WHNP (WP (what)))(SQ (VBD (do))(NP (NNS (brontosaurus)))(VP (VB (eat))))(. (?))))) |ET| 
-0.66148206069445869559331185882911  |BT| (ROOT (ROOT (SBARQ (WHNP (WP (what)))(SQ (VBZ (do))(NP (DT (a))(NN (spermologer)))(VP (VB (collect))))(. (?))))) |ET| 
-0.66148206069446313648541035945527  |BT| (ROOT (ROOT (SBARQ (WHNP (WP (what)))(SQ (VBZ (do))(NP (DT (a))(NN (philatelist)))(VP (VB (collect))))(. (?))))) |ET| 
1  |BT| (ROOT (ROOT (SBARQ (WHNP (WDT (what))(NN (incident)))(SQ (VP (VBD (cause))(NP (NP (DT (the))(NN (canning)))(PP (IN (of))(NP (NP (DT (a))(NN (summit))(NN (conference)))(PP (IN (between))(NP (NNP (eisenhower))(CC (and))(NNP (khrushchev)))))))))(. (?))))) |ET| 
1  |BT| (ROOT (ROOT (SBARQ (WHNP (WDT (what))(NNS (current)))(SQ (VP (VBP (affect))(NP (NP (NP (DT (the))(NN (area)))(PP (IN (of))(NP (DT (the))(NNP (shetland))(NNPS (islands)))))(CC (and))(NP (NP (NNP (orkney))(NNPS (islands)))(PP (IN (in))(NP (DT (the))(NNP (north))(NNP (sea))))))))(. (?))))) |ET| 
1  |BT| (ROOT (ROOT (SBARQ (WHNP (WDT (what))(NN (category)))(SQ (VP (VBZ (do))(NP (NP (DT (the))(NN (color))(JJ (pink))(NN (denote)))(PP (IN (in))(NP (DT (the))(JJ (trivial))(NN (pursuit))(NNP (baby))(NNP (boomer))(NNP (edition)))))))(. (?))))) |ET| 
-1  |BT| (ROOT (ROOT (SBARQ (WHNP (WDT (what))(NN (country)))(SQ (VP (VBD (see))(NP (NP (DT (the))(NN (origin)))(PP (IN (of))(NP (DT (the))(JJ (asian))(NN (flu)))))))(. (?))))) |ET| 
-1  |BT| (ROOT (ROOT (SBARQ (WHNP (WDT (what))(NN (country)))(SQ (VBZ (be))(NP (NP (DT (the))(NN (origin)))(PP (IN (of))(NP (NP (DT (the))(NN (band)))(NP (DT (the))(NNPS (creeps)))))))(. (?))))) |ET| 
-0.112010361513680364864420369031  |BT| (ROOT (ROOT (SBARQ (WHNP (WP (what)))(SQ (VBZ (do))(NP (NNP (ribavirin)))(VP (VB (consist))(PP (IN (of)))))(. (?))))) |ET| 
1  |BT| (ROOT (ROOT (SBARQ (WHNP (WP (what)))(SQ (VBZ (do))(NP (DT (a))(NN (emperor)))(VP (VB (do))))(. (?))))) |ET| 
0.56844321521112417539001171462587  |BT| (ROOT (ROOT (SBARQ (WHNP (WP (what)))(SQ (VBZ (do))(NP (NNP (elysium)))(VP (VB (mean))))(. (?))))) |ET| 
0.56844321521111307315976546306047  |BT| (ROOT (ROOT (SBARQ (WHNP (WP (what)))(SQ (VBZ (do))(NP (NNP (tiffany)))(VP (VB (mean))))(. (?))))) |ET| 
-1  |BT| (ROOT (ROOT (SBARQ (WHNP (WP (what)))(SQ (VBZ (do))(NP (NNP (necrosis)))(VP (VB (mean))))(. (?))))) |ET| 
-1  |BT| (ROOT (ROOT (SBARQ (WHNP (WP (what)))(SQ (VBZ (do))(NP (NNP (lol)))(VP (VB (mean))))(. (?))))) |ET| 
-1  |BT| (ROOT (ROOT (SBARQ (WHNP (WP (what)))(SQ (VBZ (do))(NP (NNP (jessica)))(VP (VB (mean))))(. (?))))) |ET| 
1  |BT| (ROOT (ROOT (SBARQ (WHADVP (WRB (how)))(SQ (VBD (be))(NP (NP (DT (the))(NNS (day)))(PP (IN (of))(NP (DT (the))(NN (week)))))(VP (VBN (name))))(. (?))))) |ET| 
1  |BT| (ROOT (ROOT (FRAG (SBAR (WHNP (WDT (what)))(S (ADVP (RB (exactly)))(VP (VBZ (be))(NP (NP (DT (the))(NN (purpose)))(PP (IN (of))(NP (DT (the))(NN (anteater))))))))(. (?))))) |ET| 
1  |BT| (ROOT (ROOT (SBARQ (WHNP (WDT (what))(NN (excuse)))(SQ (VBD (do))(NP (DT (the))(NNP (nato))(NNS (people)))(VP (VBP (give))(PP (IN (for))(S (VP (VBG (hit))(NP (DT (the))(JJ (chinese))(NN (embassy))))))))(. (?))))) |ET| 
-1  |BT| (ROOT (ROOT (SBARQ (WHADVP (WRB (how)))(SINV (ADVP (RB (far)))(MD (can))(NP (NP (DT (a))(NN (man))(NN (travel)))(PP (IN (in))(NP (JJ (outer))(NN (space))))))(. (?))))) |ET| 
-0.25932751138356896491998782039445  |BT| (ROOT (ROOT (SBARQ (WHNP (WDT (what))(NN (ice))(NNS (cream)))(SQ (VP (VBP (contain))(NP (NN (seaweed)))))(. (?))))) |ET| 
-1  |BT| (ROOT (ROOT (SBARQ (WHNP (WP (what)))(SQ (VBZ (be))(NP (NP (DT (the))(NN (fine)))(PP (IN (for))(S (VP (VBG (have))(NP (NP (DT (a))(NN (dog)))(PP (IN (on))(NP (DT (a))(NN (beach))))))))))(. (?))))) |ET| 
0.86755937340267874624544219841482  |BT| (ROOT (ROOT (SBARQ (WHNP (WP (what)))(SQ (VBZ (do))(NP (NNP (aaron)))(VP (VB (mean))))(. (?))))) |ET| 
0.37607133430879990942941049070214  |BT| (ROOT (ROOT (SBARQ (WHNP (WP (what)))(SQ (VBZ (do))(NP (NNP (melissa)))(VP (VB (mean))))(. (?))))) |ET| 
0.56862151485532397288125139311887  |BT| (ROOT (ROOT (SBARQ (WHNP (WP (what)))(SQ (VBZ (do))(NP (NNP (robert)))(VP (VB (mean))))(. (?))))) |ET| 
-1  |BT| (ROOT (ROOT (SBARQ (WHNP (WP (what)))(SQ (VBZ (do))(NP (NNP (btu)))(VP (VB (mean))))(. (?))))) |ET| 
-1  |BT| (ROOT (ROOT (SBARQ (WHNP (WP (what)))(SQ (VBZ (do))(NP (NNP (robin))(NNP (williams)))(VP (VB (do))))(. (?))))) |ET| 
1  |BT| (ROOT (ROOT (SBARQ (WHNP (WP (what)))(SQ (VBZ (be))(NP (NP (DT (the))(NN (use)))(PP (IN (of))(NP (NP (DT (a))(JJ (24-hour))(NN (clock)))(PP (RB (instead))(IN (of))(NP (DT (a))(JJ (12-hour))(NN (clock))))))))(. (?))))) |ET| 
1  |BT| (ROOT (ROOT (SBARQ (WHNP (WP (what)))(SQ (VBZ (be))(NP (NP (DT (the))(NN (difference)))(PP (IN (between))(NP (NP (DT (a))(NN (board)))(PP (IN (of))(NP (NP (NNS (director)))(CC (and))(NP (DT (a))(JJ (advisory))(NN (board)))))))))(. (?))))) |ET| 
1  |BT| (ROOT (ROOT (SBARQ (WHNP (WP (what)))(SQ (VBZ (be))(NP (NP (DT (the))(NN (setting)))(PP (IN (of))(NP (NP (NNP (john))(NNP (le))(NNP (carre))(POS ('s)))(NP (NP (DT (a))(JJ (small))(NN (town)))(PP (IN (in))(NP (NNP (germany)))))))))(. (?))))) |ET| 
-0.010432760292263476564755819708807  |BT| (ROOT (ROOT (SBARQ (WHNP (WP (who)))(SQ (VBZ (be))(NP (NNP (desmond))(NNP (tutu))))(. (?))))) |ET| 
-0.057102674990293103562954968310805  |BT| (ROOT (ROOT (SBARQ (WHNP (WP (what)))(SQ (VBD (do))(NP (NP (DT (the))(NNS (pyramid-builder)))(PP (IN (of))(NP (NNP (egypt)))))(ADVP (RB (mainly)))(VP (VB (eat))))(. (?))))) |ET| 
1  |BT| (ROOT (ROOT (SBARQ (WHNP (WDT (what))(NN (effect)))(SQ (VBZ (do))(NP (DT (a))(NN (prism)))(VP (VBP (have))(PP (IN (on))(NP (NN (light))))))(. (?))))) |ET| 
1  |BT| (ROOT (ROOT (SBARQ (WHNP (WDT (what))(NN (function)))(SQ (VBZ (do))(NP (NP (DT (a))(NN (community))(POS ('s)))(NN (water))(NN (tower)))(VP (VB (serve))))(. (?))))) |ET| 
1  |BT| (ROOT (ROOT (SBARQ (WHNP (WP (what)))(SQ (VBZ (do))(NP (DT (the))(NN (donation))(NN (process)))(VP (VB (entail))))(. (?))))) |ET| 
-0.42693601434607586497804732061923  |BT| (ROOT (ROOT (SBARQ (WHNP (WDT (what))(NN (animal)))(SQ (VBP (do))(NP (JJ (buffalo))(NNS (wing)))(VP (VBP (come))(PP (IN (from)))))(. (?))))) |ET| 
-0.15381545275120736548934985421511  |BT| (ROOT (ROOT (SBARQ (WHNP (WDT (what))(NN (color))(NNS (bottle)))(SQ (VBP (do))(NP (JJ (good))(NNP (rhine))(NNS (wine)))(VP (VBP (come))(PP (IN (in)))))(. (?))))) |ET| 
-1  |BT| (ROOT (ROOT (SBARQ (WHNP (WP (what)))(SQ (VBZ (do))(NP (DT (a))(JJ (topophobic))(NN (actor)))(VP (VBP (suffer))(PP (IN (from)))))(. (?))))) |ET| 
1  |BT| (ROOT (ROOT (SBARQ (WHNP (WP (what)))(SQ (VBZ (be))(NP (NP (DT (the))(NN (text)))(PP (IN (of))(NP (DT (the))(NNP (fifth))(NNP (amendment))))))(. (?))))) |ET| 
0.18282829600209005160849073945428  |BT| (ROOT (ROOT (SBARQ (WHNP (WP (what)))(SQ (VBZ (be))(NP (NP (DT (the))(NN (origin)))(PP (IN (of))(NP (DT (the))(NN (name))(NNP (katie))))))(. (?))))) |ET| 
0.18258297330122136292729351225717  |BT| (ROOT (ROOT (SBARQ (WHNP (WP (what)))(SQ (VBZ (be))(NP (NP (DT (the))(NN (origin)))(PP (IN (of))(NP (DT (the))(NN (name))(NNP (igor))))))(. (?))))) |ET| 
-0.97486230771617377044435670541134  |BT| (ROOT (ROOT (SBARQ (WHNP (WP (what)))(SQ (VBZ (be))(NP (NP (DT (the))(JJ (first))(NN (day)))(PP (IN (of))(NP (DT (the))(NN (week))))))(. (?))))) |ET| 
-1  |BT| (ROOT (ROOT (SBARQ (WHNP (WP (what)))(SQ (VBZ (be))(NP (NP (DT (the))(NN (abbreviation)))(PP (IN (of))(NP (NNP (general))(NNPS (motors))))))(. (?))))) |ET| 
-0.82448009578549319442686282854993  |BT| (ROOT (ROOT (SBARQ (WHNP (WP (what)))(SQ (VBZ (be))(NP (NP (DT (the))(NN (abbreviation)))(PP (IN (of))(NP (DT (the))(NNP (international))(NNP (olympic))(NNP (committee))))))(. (?))))) |ET| 
-0.20705732172599708440507981777046  |BT| (ROOT (ROOT (SBARQ (WHNP (WP (what)))(SQ (VBZ (be))(NP (NP (DT (the))(NN (abbreviation)))(PP (IN (of))(NP (NP (DT (the))(NNP (national))(NNP (bureau)))(PP (IN (of))(NP (NNP (investigation))))))))(. (?))))) |ET| 
0.7172736835227626617239593542763  |BT| (ROOT (ROOT (SBARQ (WHNP (WRB (how)))(SQ (VP (VBP (do))(S (NP (PRP (you)))(NP (NP (NN (box))(NN (train)))(NP (DT (a))(NN (cat)))))))(. (?))))) |ET| 
1  |BT| (ROOT (ROOT (SBARQ (WHNP (WP (what)))(SQ (VBP (do))(NP (JJ (christian))(NNS (scientist)))(VP (VBP (believe))(PP (IN (in)))))(. (?))))) |ET| 
1  |BT| (ROOT (ROOT (SBARQ (WHNP (WDT (what)))(SQ (VP (VBD (make))(S (NP (NNP (jane))(NNP (goodall)))(ADJP (JJ (famous))))))(. (?))))) |ET| 
-0.6036795550410147814801575805177  |BT| (ROOT (ROOT (SBARQ (WHNP (WDT (what))(NNP (sinatra)))(SQ (VP (VBD (hit))(SBAR (S (S (VP (VBD (do))(S (NP (PRP (he)))(VP (VB (dooby))(PRT (RP (dooby)))))))(VP (VBP (do))(PP (IN (in))))))))(. (?))))) |ET| 
-0.67265368375836998016126244692714  |BT| (ROOT (ROOT (SBARQ (WHNP (WRB (how))(RB (much)))(SQ (VP (VBP (do))(NP (NN (tuberculosis)))(S (VP (VBG (combat))(S (NP (NNS (drug)))(VP (VB (cost))))))))(. (?))))) |ET| 
-0.34205292281737892379211984916765  |BT| (ROOT (ROOT (SBARQ (WHNP (WDT (what))(NP (NN (writer-journalist))))(SQ (VP (VBD (make))(NP (PRP$ (he))(NN (mark)))(S (VP (VBG (describe))(NP (NP (JJ (colorful))(NNP (broadway)))(CC (and))(NP (NN (underworld))(NNS (character))))))))(. (?))))) |ET| 
1  |BT| (ROOT (ROOT (SBARQ (WHNP (WP (what)))(SQ (VBZ (be))(NP (NP (DT (the))(JJ (medical))(NN (condition)))(PP (IN (of))(NP (NN (hypertension))))))(. (?))))) |ET| 
1  |BT| (ROOT (ROOT (SBARQ (WHNP (WP (what)))(SQ (VBZ (be))(NP (NP (DT (the))(JJ (main))(NN (application)))(PP (IN (of))(NP (NN (sodium))(NN (hydrosulfite))))))(. (?))))) |ET| 
1  |BT| (ROOT (ROOT (SBARQ (WHNP (WP (what)))(SQ (VBZ (be))(NP (NP (DT (the))(JJS (largest))(NN (variety)))(PP (IN (of))(NP (NN (cactus))))))(. (?))))) |ET| 
-0.78611565468907540488174845449976  |BT| (ROOT (ROOT (SBARQ (WHNP (WP (what)))(SQ (VBZ (be))(NP (NP (DT (the))(JJ (main))(NN (ingredient)))(PP (IN (of))(NP (NN (yogurt))))))(. (?))))) |ET| 
-1  |BT| (ROOT (ROOT (SBARQ (WHNP (WP (what)))(SQ (VBZ (be))(NP (NP (DT (the))(JJ (singular)))(PP (IN (of))(NP (NNS (dice))))))(. (?))))) |ET| 
-1  |BT| (ROOT (ROOT (SBARQ (WHNP (WP (what)))(SQ (VBZ (be))(NP (NP (DT (the))(NN (location)))(PP (IN (of))(NP (NNP (mccarren))(NN (airport))))))(. (?))))) |ET| 
1  |BT| (ROOT (ROOT (SBARQ (WHADJP (WRB (how))(ADJP (JJ (effective))))(SQ (VBP (be))(NP (NP (NNS (condom)))(PP (IN (in))(S (VP (VBG (protect))(PP (IN (against))(NP (NNP (aids)))))))))(. (?))))) |ET| 
1  |BT| (ROOT (ROOT (SBARQ (WHNP (WDT (what))(JJ (facial))(NN (feature)))(SQ (VP (ADVP (RB (typically)))(VBZ (contain))(PP (IN (about))(NP (CD (55))(NNS (hair))))))(. (?))))) |ET| 
1  |BT| (ROOT (ROOT (SBARQ (WHPP (IN (for))(WHNP (WDT (what))(NP (NN (reason)))))(SQ (VBD (do))(NP (DT (some))(NNP (san))(NNP (diego))(NNS (school)))(VP (VB (stop))(S (VP (VBG (serve))(NP (NNS (apple)))))))(. (?))))) |ET| 
-0.82159849472003598780389665989787  |BT| (ROOT (ROOT (SBARQ (WHADVP (WRB (how))(NP (JJ (many))(NNS (bail))))(SQ (VBP (be))(NP (EX (there)))(PP (IN (in))(NP (DT (a))(NN (cricket))(NN (wicket)))))(. (?))))) |ET| 
-0.89624921721486139336576570713078  |BT| (ROOT (ROOT (SBARQ (WHADVP (WRB (how))(NP (JJ (many))(NNS (cullion))))(SQ (VBZ (do))(NP (DT (a))(NN (male)))(VP (VB (have))))(. (?))))) |ET| 
-0.52103389704458902276229537164909  |BT| (ROOT (ROOT (SBARQ (WHNP (WP (what)))(SQ (VBZ (be))(NP (NP (DT (the))(RBS (most))(JJ (efficient))(NN (way)))(S (VP (TO (to))(VP (VB (start))(NP (DT (a))(NN (barbeque))))))))(. (?))))) |ET| 
1  |BT| (ROOT (ROOT (SBARQ (WHNP (WP (what)))(SQ (VBZ (be))(NP (NP (DT (the))(NN (root)))(PP (IN (of))(NP (DT (all))(NN (evil))))))(. (?))))) |ET| 
1  |BT| (ROOT (ROOT (SBARQ (WHNP (WP (what)))(SQ (VBZ (be))(NP (NP (DT (the))(NN (state))(NN (motto)))(PP (IN (of))(NP (NNP (california))))))(. (?))))) |ET| 
1  |BT| (ROOT (ROOT (SBARQ (WHNP (WP (what)))(SQ (VBZ (be))(NP (NP (DT (the))(JJ (poetic))(NN (meter)))(PP (IN (of))(NP (JJ (blank))(NN (verse))))))(. (?))))) |ET| 
-0.60002987031237786652582144597545  |BT| (ROOT (ROOT (SBARQ (WHNP (WP (what)))(SQ (VBZ (be))(NP (NP (DT (the))(JJ (medical))(NN (term)))(PP (IN (for))(NP (NP (NN (cancer)))(PP (IN (of))(NP (DT (the))(NN (blood))))))))(. (?))))) |ET| 
-0.25637437503833582219670006452361  |BT| (ROOT (ROOT (SBARQ (WHNP (WP (what)))(SQ (VBZ (be))(NP (NP (DT (the))(NN (brand))(NN (name)))(PP (IN (of))(NP (DT (the))(NN (chemical))(NNP (daminozide))))))(. (?))))) |ET| 
-1  |BT| (ROOT (ROOT (SBARQ (WHNP (WP (what)))(SQ (VBZ (be))(NP (NP (DT (the))(NN (occupation)))(PP (IN (of))(NP (NNP (nicholas))(NNP (cage))))))(. (?))))) |ET| 
0.82364660700358016676148054102669  |BT| (ROOT (ROOT (SBARQ (WHADVP (WRB (how)))(SQ (VBP (do))(NP (PRP (i)))(VP (VB (find))(NP (DT (a))(NN (web))(NN (address)))(PP (IN (for))(NP (DT (a))(NN (company))))))(. (?))))) |ET| 
-0.53243195584812075260572328261333  |BT| (ROOT (ROOT (SBARQ (WHNP (WP (what)))(SQ (VBP (be))(NP (NP (DT (the))(NNS (title)))(PP (IN (of))(NP (DT (some))(JJ (r-rated))(NNP (sony))(NNP (playstation))(NNS (game))))))(. (?))))) |ET| 
0.22702181776243007815807573024358  |BT| (ROOT (ROOT (SBARQ (WHADVP (WRB (why)))(SQ (VBZ (be))(NP (NP (NNP (microsoft))(POS ('s)))(NP (NP (NNP (windows))(CD (3))(NN (software)))(ADJP (RB (so))(JJ (successful))))))(. (?))))) |ET| 
-0.077699785819824701560420976420573  |BT| (ROOT (ROOT (SBARQ (WHADVP (WRB (when)))(SQ (VBD (do))(NP (NNP (mount))(NNP (st.))(NNP (helen)))(VP (ADVP (RB (last)))(VP (VBP (have))(NP (DT (a))(JJ (significant))(NN (eruption))))))(. (?))))) |ET| 
-0.49723297921083092765215383224131  |BT| (ROOT (ROOT (SBARQ (WHADVP (WRB (when)))(SQ (VBD (do))(NP (NNP (mount))(NNP (st.))(NNP (helen)))(VP (ADVP (RB (last)))(VP (VBP (have))(NP (DT (a))(JJ (major))(NN (eruption))))))(. (?))))) |ET| 
-0.8055090546891081615399343718309  |BT| (ROOT (ROOT (SBARQ (WHADVP (WRB (when)))(SQ (VBD (do))(NP (PRP (they)))(VP (VBP (canonize))(NP (DT (the))(NNP (bible)))))(. (?))))) |ET| 
1  |BT| (ROOT (ROOT (SBARQ (WHNP (WP (what)))(SQ (VBZ (be))(NP (NP (DT (the))(JJ (proud))(NN (claim)))(PP (TO (to))(NP (NP (NN (fame)))(PP (IN (of))(NP (NP (DT (the))(JJ (young))(NNS (woman)))(SBAR (WHNP (WP (who)))(S (VP (VBD (form))(NP (NNP (kappa))(NNP (alpha))(NNP (theta))))))))))))(. (?))))) |ET| 
1  |BT| (ROOT (ROOT (SBARQ (WHNP (WP (what)))(SQ (VBZ (be))(NP (NP (DT (the))(NN (purpose)))(PP (IN (of))(NP (NP (DT (the))(NNP (sysrq))(NN (key)))(PP (IN (on))(NP (PRP$ (my))(NN (computer))(NN (keyboard))))))))(. (?))))) |ET| 
1  |BT| (ROOT (ROOT (SBARQ (WHNP (WP (what)))(SQ (VBZ (be))(NP (NP (NN (usenet)))(PP (IN (for))(NP (DT (the))(NN (internet))))))(. (?))))) |ET| 
-1  |BT| (ROOT (ROOT (SBARQ (WHNP (WP (what)))(SQ (VBZ (be))(NP (NP (DT (a))(NN (synonym)))(PP (IN (for))(NP (NN (aspartame))))))(. (?))))) |ET| 
-1  |BT| (ROOT (ROOT (SBARQ (WHNP (WP (what)))(SQ (VBZ (be))(NP (NP (DT (another))(NN (word)))(PP (IN (for))(NP (NN (diet))))))(. (?))))) |ET| 
-1  |BT| (ROOT (ROOT (SBARQ (WHNP (WP (what)))(SQ (VBZ (be))(NP (NP (JJ (bottled)))(PP (IN (in))(NP (NNS (jeroboam))))))(. (?))))) |ET| 
1  |BT| (ROOT (ROOT (SBARQ (WHNP (WHNP (WDT (what))(NN (type)))(PP (IN (of))(NP (NN (childhood)))))(SQ (VBD (do))(NP (NNP (jules))(NNP (verne)))(VP (VB (have))))(. (?))))) |ET| 
0.87404603303757855137234855646966  |BT| (ROOT (ROOT (SBARQ (WHADVP (WRB (why)))(SQ (VP (VBD (do))(NP (DT (the))(JJ (anglican))(NN (church))(NN (split)))(PP (IN (from))(NP (DT (the))(NNP (vatican))))))(. (?))))) |ET| 
1  |BT| (ROOT (ROOT (SBARQ (WHADVP (WRB (where)))(SQ (VBD (do))(NP (NP (DT (the))(NN (energy)))(PP (IN (for))(NP (DT (the))(NNP (big))(NNP (bang)))))(VP (VB (come))(PP (IN (from)))))(. (?))))) |ET| 
-0.19527460757002801372550493397284  |BT| (ROOT (ROOT (SBARQ (WHNP (WDT (what)))(SQ (VP (VBD (dangle))(PP (IN (over))(NP (DT (the))(NN (tongue))))(PP (IN (from))(NP (DT (the))(NN (palate))))))(. (?))))) |ET| 
0.0051112633589828829205892191112071  |BT| (ROOT (ROOT (SBARQ (WHADVP (WRB (why)))(SQ (VP (VBP (do))(NP (JJ (many))(JJ (native))(JJ (american))(NNS (student)))(PP (RB (not))(NP (JJ (complete))(NN (college))))))(. (?))))) |ET| 
-0.053910848223179208549282748208498  |BT| (ROOT (ROOT (SBARQ (WHADVP (WRB (where)))(SQ (VBD (do))(NP (NP (DT (the))(NN (battle)))(PP (IN (of))(NP (DT (the))(NNP (bulge)))))(VP (VB (take))(NP (NN (place)))))(. (?))))) |ET| 
1  |BT| (ROOT (ROOT (SBARQ (WHNP (WP (what)))(SQ (VBZ (be))(NP (NP (NN (fiber)))(PP (IN (in))(NP (NN (food))))))(. (?))))) |ET| 
0.94017177529742590458283757470781  |BT| (ROOT (ROOT (SBARQ (WHNP (WP (what)))(SQ (VBZ (be))(NP (NNP (paracetamol))))(. (?))))) |ET| 
0.94017177529744277997281187708722  |BT| (ROOT (ROOT (SBARQ (WHNP (WP (what)))(SQ (VBZ (be))(NP (NNP (olestra))))(. (?))))) |ET| 
-1  |BT| (ROOT (ROOT (SBARQ (WHNP (WP (what)))(SQ (VBZ (be))(NP (NNP (rcd))))(. (?))))) |ET| 
-1  |BT| (ROOT (ROOT (SBARQ (WHNP (WP (what)))(SQ (VBZ (be))(NP (NNP (html))))(. (?))))) |ET| 
-1  |BT| (ROOT (ROOT (SBARQ (WHNP (WP (what)))(SQ (VBZ (be))(NP (NNP (afs))))(. (?))))) |ET| 
1  |BT| (ROOT (ROOT (SBARQ (WHADVP (WRB (how)))(SQ (VBZ (do))(NP (NP (DT (the))(NN (speed)))(SBAR (S (NP (DT (the))(NN (magnet)))(VP (VBZ (spin))(PP (IN (in))(NP (DT (a))(NN (generator))))))))(VP (VB (affect))(NP (NP (DT (the))(NN (output)))(PP (IN (of))(NP (DT (the))(NN (generator)))))))(. (?))))) |ET| 
1  |BT| (ROOT (ROOT (SBARQ (WHNP (WDT (what))(NNS (effect)))(SQ (VBP (do))(NP (NNS (nitrate)))(VP (VB (have))(PP (IN (on))(NP (DT (the))(NN (environment))))))(. (?))))) |ET| 
1  |BT| (ROOT (ROOT (SBARQ (WHNP (WP (what)))(SQ (VBD (be))(NP (NP (DT (the))(NN (verdict)))(PP (IN (in))(NP (NP (DT (the))(NN (trial)))(PP (IN (of))(NP (NNP (lizzie))(NNP (borden))))))))(. (?))))) |ET| 
0.19003745667791016593639596976573  |BT| (ROOT (ROOT (SBARQ (WHNP (WP (what)))(SQ (VBZ (do))(NP (NNP (inuit))(CC (and))(NNP (eskimo)))(VP (VB (mean))))(. (?))))) |ET| 
-0.57547078890738745382549268470029  |BT| (ROOT (ROOT (SBARQ (WHNP (WP (what)))(SQ (VBZ (be))(NP (NNP (dr.)))(NP (NP (NP (NNP (seuss))('' (')))(ADJP (RBS (most))(JJ (popular))))(NN (book))))(. (?))))) |ET| 
-0.44695987822870925088025728655339  |BT| (ROOT (ROOT (SBARQ (WHNP (WHADJP (WRB (how))(JJ (much)))(NN (energy)))(SQ (VBZ (be))(VP (VBN (release))(SBAR (WHADVP (WRB (when)))(S (NP (NP (NN (oxygen)))(CC (and))(NP (NN (hydrogen))(NN (mix))))))))(. (?))))) |ET| 
0.94009139737039437711985101486789  |BT| (ROOT (ROOT (SBARQ (WHNP (WP (what)))(SQ (VBZ (be))(NP (NNP (plc))))(. (?))))) |ET| 
0.94017177529743745090229367633583  |BT| (ROOT (ROOT (SBARQ (WHNP (WP (what)))(SQ (VBZ (be))(NP (NNP (hebephrenia))))(. (?))))) |ET| 
0.94017177529743378716631241331925  |BT| (ROOT (ROOT (SBARQ (WHNP (WP (what)))(SQ (VBZ (be))(NP (NNP (tetrinet))))(. (?))))) |ET| 
-1  |BT| (ROOT (ROOT (SBARQ (WHNP (WP (what)))(SQ (VBZ (be))(NP (NNP (deet))))(. (?))))) |ET| 
-1  |BT| (ROOT (ROOT (SBARQ (WHNP (WP (what)))(SQ (VBZ (be))(NP (NNP (dtmf))))(. (?))))) |ET| 
-1  |BT| (ROOT (ROOT (SBARQ (WHNP (WP (what)))(SQ (VBZ (be))(NP (NNP (hdlc))))(. (?))))) |ET| 
1  |BT| (ROOT (ROOT (SBARQ (WHADVP (WRB (how)))(SQ (MD (can))(NP (PRP (i)))(VP (VB (find))(NP (NP (DT (a))(NN (list)))(PP (IN (of))(NP (NP (, (,))(NP (NN (fax))(CC (and))(CC (or))(NN (email)))(, (,))(NNS (address)))(PP (IN (for))(NP (JJ (human))(NN (resource))(NNS (department)))))))(PP (IN (in))(NP (NNP (massachusetts))))))(. (?))))) |ET| 
1  |BT| (ROOT (ROOT (S (VP (VB (give))(NP (DT (a))(NN (reason)))(PP (IN (for))(S (NP (JJ (american))(NNPS (indians)))(ADVP (RB (oftentimes)))(VP (VBG (drop))(PRT (IN (out)))(PP (IN (of))(NP (NN (school))))))))(. (.))))) |ET| 
1  |BT| (ROOT (ROOT (S (PP (IN (in))(NP (NP (NP (NNP (waugh))(POS ('s)))(NX (`` (``))(NP (DT (a))(NN (handful)))(PP (IN (of))(NP (NN (dust))))(, (,))('' (''))))(SBAR (WHNP (WP (what)))(S (VP (VBZ (do)))))))(NP (DT (the))(JJ (mad))(JJ (old))(NN (man)))(VP (VB (force))(NP (DT (the))(NN (hero))(S (VP (TO (to))(VP (VB (do))(NP (DT (every))(NN (afternoon))))))))(. (?))))) |ET| 
-0.70577519746526684585319344478194  |BT| (ROOT (ROOT (SBARQ (WHADJP (WRB (how))(RB (long)))(SQ (VBP (do))(NP (PRP (you)))(VP (VB (have))(S (VP (TO (to))(VP (VB (live))(PP (IN (in))(NP (DT (a))(NN (community)))))))(S (VP (TO (to))(VP (VB (vote)))))))(. (?))))) |ET| 
-0.62365081701089253307657145342091  |BT| (ROOT (ROOT (SBARQ (WHADVP (WRB (where)))(SQ (VBP (do))(NP (PRP (i)))(VP (VB (find))(NP (NP (NN (information)))(PP (IN (for))(NP (NN (foreclosure))(NNS (property)))))(PP (IN (on))(NP (DT (the))(NN (internet))))))(. (?))))) |ET| 
-0.82996610956890004562325202641659  |BT| (ROOT (ROOT (S (NP (NNP (shea))(CC (and))(NNP (gould)))(VP (VBD (have))(NP (NP (DT (a))(NN (office)))(PP (IN (in))(NP (NNP (los))(NNP (angeles)))))(WHPP (IN (for))(WHNP (WRB (how))(JJ (long))))(PP (IN (before))(S (VP (VBG (close))(NP (PRP (it)))))))(. (?))))) |ET| 
0.94009139737039437711985101486789  |BT| (ROOT (ROOT (SBARQ (WHNP (WP (what)))(SQ (VBZ (be))(NP (NNP (zionism))))(. (?))))) |ET| 
0.94009139737039792983352981536882  |BT| (ROOT (ROOT (SBARQ (WHNP (WP (what)))(SQ (VBZ (be))(NP (NNP (java))))(. (?))))) |ET| 
0.94009139737040681161772681662114  |BT| (ROOT (ROOT (SBARQ (WHNP (WP (what)))(SQ (VBZ (be))(NP (NNP (smartnet))))(. (?))))) |ET| 
-1  |BT| (ROOT (ROOT (SBARQ (WHNP (WP (what)))(SQ (VBZ (be))(NP (NNP (svhs))))(. (?))))) |ET| 
-1  |BT| (ROOT (ROOT (SBARQ (WHNP (WP (what)))(SQ (VBZ (be))(NP (NNP (lmds))))(. (?))))) |ET| 
1  |BT| (ROOT (ROOT (SBARQ (WHNP (WP (what)))(SQ (VBP (do))(NP (PRP (i)))(VP (VB (need))(S (VP (TO (to))(VP (VB (do))(S (VP (TO (to))(VP (VB (take))(NP (PRP$ (my))(NN (dog)))(PP (IN (with))(NP (PRP (i))))(S (VP (TO (to))(VP (VB (live))(PP (IN (in))(NP (NP (NNP (dominica)))(, (,))(NP (NP (NNP (west))(NNP (indies)))(PP (IN (for))(NP (DT (a))(NN (year))))))))))))))))))(. (?))))) |ET| 
1  |BT| (ROOT (ROOT (SBARQ (WHADVP (WRB (how)))(SQ (VBP (do))(NP (PRP (you)))(VP (VB (make))(NP (JJ (panoramic))(NN (sugar))(NNS (egg)))(PP (IN (for))(NP (NNP (easter))))))(: (-))(NP (NP (DT (the))(NNS (one)))(PP (IN (with))(NP (NP (DT (the))(NN (scene)))(PP (IN (inside))))))(. (?))))) |ET| 
1  |BT| (ROOT (ROOT (SBARQ (PP (IN (in))(NP (DT (the))(NN (song))(`` (``))(NNP (yankee))(NNP (doodle))))(, (,))('' (''))(WHADVP (WRB (why)))(SQ (VBD (do))(NP (NNP (yankee))(NNP (doodle)))(VP (VP (VB (stick))(NP (NP (DT (a))(NN (feather)))(PP (IN (in))(NP (PRP$ (he))(NN (cap))))))(CC (and))(VP (VB (call))(NP (PRP (it)))(NP (NN (macaroni))))))(. (?))))) |ET| 
-0.69727995475840665040578869593446  |BT| (ROOT (ROOT (SBARQ (WHNP (WP (what)))(SQ (VBP (do))(NP (PRP (i)))(VP (VB (call))(NP (NP (DT (the))(NNS (son))(CC (and))(NNS (daughter)))(PP (IN (of))(NP (PRP$ (my))(JJ (first))(NNS (cousin)))))))(. (?))))) |ET| 
-0.05530408915596397856351273958353  |BT| (ROOT (ROOT (SBARQ (WHNP (WHNP (WDT (what))(NN (kind)))(PP (IN (of))(NP (NN (education)))))(SQ (VBP (do))(NP (PRP (i)))(VP (VB (need))(S (VP (TO (to))(VP (VB (become))(NP (DT (a))(NN (flight))(NN (attendant))))))))(. (?))))) |ET| 
-0.34305282312507950903679443399596  |BT| (ROOT (ROOT (S (SBAR (WHNP (WDT (what))(NN (poem)))(S (VP (VBZ (contain))(NP (DT (the))(NN (line))))))(, (,))(VP (`` (``))(VB (grow))(ADJP (JJ (old)))(PP (IN (with))(NP (PRP (i))))(SBAR (S (NP (DT (the))(JJS (best)))(VP (VBZ (be))(ADVP (RB (yet)))(S (VP (TO (to))(VP (VB (be))('' ('')))))))))(. (.))))) |ET| 
0.94017177529744011543755277671153  |BT| (ROOT (ROOT (SBARQ (WHNP (WP (what)))(SQ (VBZ (be))(NP (NNP (doegs))))(. (?))))) |ET| 
0.94025762667734880118075579957804  |BT| (ROOT (ROOT (SBARQ (WHNP (WP (what)))(SQ (VBZ (be))(NP (NNP (linux))))(. (?))))) |ET| 
0.6813355596134655911555455531925  |BT| (ROOT (ROOT (SBARQ (WHNP (WP (what)))(SQ (VBZ (be))(NP (NNP (thalassemia))))(. (?))))) |ET| 
-1  |BT| (ROOT (ROOT (SBARQ (WHNP (WP (what)))(SQ (VBZ (be))(NP (NP (NNP (answers.com))(POS ('s)))(NN (address))))(. (?))))) |ET| 
-0.85769354420505194980250962544233  |BT| (ROOT (ROOT (SBARQ (WHNP (WP (what)))(SQ (VBZ (be))(NP (NP (NNP (drew))(NNP (barrymore))(POS ('s)))(NN (email))(NN (address))))(. (?))))) |ET| 
1  |BT| (ROOT (ROOT (SBARQ (WHNP (WHNP (WDT (what))(NN (kind)))(PP (IN (of))(NP (VBG (greet)))))(SQ (VP (VBZ (be))(ADJP (JJ (appropriate))(S (VP (TO (to))(VP (VB (send))(PP (IN (on))(NP (NNP (yom))(NNP (kippur))))))))))(. (?))))) |ET| 
1  |BT| (ROOT (ROOT (SBARQ (WHPP (IN (for))(WHNP (WDT (what))))(SQ (NP (NN (reason)))(VP (VBD (do))(S (NP (NP (DT (the))(NNP (shea)))(CC (&))(NP (NNP (gould))(NN (law))(NN (firm))))(VP (VB (close))(NP (PRP$ (they))(NNP (l.a.))(NN (office)))))))(. (?))))) |ET| 
1  |BT| (ROOT (ROOT (SBARQ (WHNP (WDT (what)))(SQ (VP (VBD (prompt))(NP (NP (DT (the))(NNS (co-pilot)))(PP (IN (of))(NP (DT (the))(JJ (enola))(NNS (gay)))))(S (VP (TO (to))(VP (VB (enter))(ADVP (RB (only)))(NP (`` (``))(PRP$ (my))(NNP (god))('' ('')))(PP (IN (in))(NP (PRP$ (he))(NN (log)))))))))(. (?))))) |ET| 
-0.62315810840893615107916048145853  |BT| (ROOT (ROOT (SBARQ (WHNP (WP (what)))(SQ (VBZ (be))(NP (NN (glass)))(VP (VBN (make))(PP (IN (of)))))(. (?))))) |ET| 
-1  |BT| (ROOT (ROOT (SBARQ (WHNP (WP (what)))(SQ (VBZ (be))(NP (NNP (jell-o)))(VP (VBN (make))(PP (IN (from)))))(. (?))))) |ET| 
-1  |BT| (ROOT (ROOT (SBARQ (WHNP (WP (what)))(SQ (VBP (be))(NP (NP (DT (the))(NNS (odds)))(PP (IN (of))(S (VP (VBG (give))(NP (NN (birth)))(PP (TO (to))(NP (NNS (twin)))))))))(. (?))))) |ET| 
1  |BT| (ROOT (ROOT (SBARQ (WHNP (WP (what)))(SQ (VBZ (be))(NP (NP (NNP (june))(POS ('s)))(NN (birthstone))))(. (?))))) |ET| 
1  |BT| (ROOT (ROOT (SBARQ (WHNP (WP (what)))(SQ (VBP (do))(NP (PRP (you)))(VP (VB (do))(SBAR (WHADVP (WRB (when)))(S (NP (PRP$ (you))(NN (mouse)))(VP (VBZ (be))(RB (not))(VP (VBG (work))(ADVP (ADVP (RB (as))(RB (fast)))(SBAR (IN (as))(S (NP (PRP (it)))(VP (VBZ (be))(VP (VBN (suppose))(S (VP (TO (to)))))))))))))))(. (?))))) |ET| 
1  |BT| (ROOT (ROOT (SBARQ (WHNP (WP (what)))(SQ (MD (must))(NP (DT (a))(NNP (las))(NNP (vegas))(NN (blackjack))(NN (dealer)))(VP (VBP (do))(SBAR (WHADVP (WRB (when)))(S (NP (PRP (he)))(VP (VBZ (reach))(NP (CD (16))))))))(. (?))))) |ET| 
-1  |BT| (ROOT (ROOT (SBARQ (PP (IN (in))(NP (DT (a))(NN (computer))))(, (,))(WHNP (WP (what)))(SQ (VBZ (do))(NP (NNP (scsi)))(VP (VB (mean))))(. (?))))) |ET| 
-1  |BT| (ROOT (ROOT (SBARQ (WHADVP (WRB (when)))(SQ (VP (VBP (do))(S (NP (PRP (you)))(VP (NN (plant))(NP (NN (winter))(NN (wheat)))))))(. (?))))) |ET| 
-0.72421271573704959489958810081589  |BT| (ROOT (ROOT (SBARQ (WHNP (WDT (what))(JJ (historical))(NN (event)))(SQ (VP (VBD (happen))(PP (IN (in))(NP (NNP (dogtown))))(PP (IN (in))(NP (CD (1899))))))(. (?))))) |ET| 
1  |BT| (ROOT (ROOT (SBARQ (WHNP (WP (what)))(SQ (VBZ (be))(NP (NNP (spaceball)))(VP (VBN (play))(PP (IN (on)))))(. (?))))) |ET| 
1  |BT| (ROOT (ROOT (SBARQ (WHNP (WP (what)))(SQ (VBP (be))(NP (NP (DT (the))(NNS (power))(CC (and))(NNS (weakness)))(PP (IN (of))(NP (NP (NNP (green))(NNP (lantern))(POS ('s)))(NN (ring))))))(. (?))))) |ET| 
1  |BT| (ROOT (ROOT (SBARQ (WHNP (WP (what)))(SQ (VBP (be))(NP (NP (DT (some))(NN (chemical))(NNS (property)))(PP (IN (of))(NP (NN (mendelevium))))))(. (?))))) |ET| 
-0.24249516654707720109129809316073  |BT| (ROOT (ROOT (SBARQ (WHNP (WP (what)))(SQ (VBP (be))(NP (NP (DT (some))(JJ (important))(NNS (event)))(PP (IN (of))(NP (NP (DT (the)))(NP (CD (1830))(POS ('s)))))))(. (?))))) |ET| 
-0.073232969432654934638371457822359  |BT| (ROOT (ROOT (SBARQ (WHNP (WP (who)))(SQ (VBZ (be))(NP (NP (NNP (john))(NNP (macarthur)))(, (,))(NP (CD (1767-1834)))))(. (?))))) |ET| 
-1  |BT| (ROOT (ROOT (SBARQ (WHNP (WP (what)))(SQ (VBZ (be))(NP (NP (NNP (november))(POS ('s)))(NN (birthstone))))(. (?))))) |ET| 
1  |BT| (ROOT (ROOT (SBARQ (WHNP (WDT (what))(NP (JJ (nuclear))(NN (process))))(SQ (VP (VBZ (take))(NP (NN (place)))(PP (IN (in))(NP (DT (a))(NN (h-bomb))))))(. (?))))) |ET| 
1  |BT| (ROOT (ROOT (SBARQ (WHNP (WP (what)))(SQ (VP (VBD (happen))(PP (IN (in))(NP (NNP (dogtown))))(PP (IN (in))(NP (CD (1899))))(S (VP (TO (to))(VP (VB (make))(NP (NP (DT (that))(NN (year)))(VP (VBN (remember)))))))))(. (?))))) |ET| 
1  |BT| (ROOT (ROOT (S (PP (IN (from))(NP (WDT (what))))(NP (NN (cause)))(VP (VBZ (do))(NP (NN (tuberculosis))(NN (stem))))(. (?))))) |ET| 
-0.54084829215164231808188333161524  |BT| (ROOT (ROOT (S (NP (NNP (hitler)))(VP (VBD (come))(PP (TO (to))(NP (NP (NN (power)))(PP (IN (in))(NP (NNP (germany))))))(PP (IN (in))(NP (WDT (what))(NN (year)))))(. (?))))) |ET| 
-0.79814444521991190217846678933711  |BT| (ROOT (ROOT (SBARQ (WHNP (WP (what)))(SQ (VBD (do))(NP (DT (a))(JJ (16th-century))(JJ (aztec))(NN (athlete)))(VP (VB (get))(PP (IN (for))(S (VP (VBG (put))(NP (DT (a))(NN (rubber))(NN (ball)))(PP (IN (through))(NP (DT (a))(NN (ring)))))))))(. (?))))) |ET| 
0.40150404338824396965890173305525  |BT| (ROOT (ROOT (SBARQ (WHNP (WP (what)))(SQ (VBP (be))(NP (NNS (chloroplast))))(. (?))))) |ET| 
1  |BT| (ROOT (ROOT (SBARQ (WHNP (WP (what)))(SQ (VBZ (be))(NP (NP (NNP (compaq))(POS ('s)))(NN (mission))(NN (statement))))(. (?))))) |ET| 
1  |BT| (ROOT (ROOT (SBARQ (WHNP (WP (what)))(SQ (VBZ (be))(NP (NP (NNP (megan))(POS ('s)))(NN (law))))(. (?))))) |ET| 
1  |BT| (ROOT (ROOT (SBARQ (WHNP (WP (what)))(SQ (VBZ (be))(NP (NP (DT (the))(JJ (last))(NN (line)))(PP (IN (of))(NP (NP (NNP (dickens))(POS ('s)))(NP (DT (a))(NX (NNP (christmas))(NNP (carol))))))))(. (?))))) |ET| 
-1  |BT| (ROOT (ROOT (SBARQ (WHNP (WP (what)))(SQ (VBZ (be))(NP (NP (NNP (california))(POS ('s)))(NN (state))(NN (bird))))(. (?))))) |ET| 
-1  |BT| (ROOT (ROOT (SBARQ (WHNP (WP (what)))(SQ (VBZ (be))(NP (PRP$ (she))(NN (profession))))(. (?))))) |ET| 
-1  |BT| (ROOT (ROOT (SBARQ (WHNP (WP (what)))(SQ (VBZ (be))(NP (NP (NNP (april))(POS ('s)))(NN (gemstone))))(. (?))))) |ET| 
1  |BT| (ROOT (ROOT (SBARQ (WHNP (WP (what)))(SQ (VBP (be))(NP (NP (PRP$ (my))(JJ (legal))(NNS (rights)))(PP (IN (in))(NP (NP (DT (a))(NN (automobile))(NN (repossession)))(PP (IN (in))(NP (NNP (california))))))))(. (?))))) |ET| 
1  |BT| (ROOT (ROOT (SBARQ (WHNP (WP (what)))(SQ (VBP (be))(NP (NP (DT (those))(JJ (little))(JJ (blue))(NNS (reflector)))(PP (IN (in))(NP (NP (DT (the))(NN (middle)))(PP (IN (of))(NP (NP (DT (the))(NN (road)))(PP (IN (for)))))))))(. (?))))) |ET| 
1  |BT| (ROOT (ROOT (SBARQ (WHADVP (WRB (how))(NP (RB (close))(DT (a))(NN (cousin))))(SQ (VBD (be))(NP (NP (NNP (franklin))(NNP (d.)))(PP (TO (to))(NP (NNP (theodore))(NNP (roosevelt))))))(. (?))))) |ET| 
-0.48037301264045789706003120045352  |BT| (ROOT (ROOT (SBARQ (WHNP (WP (what)))(SQ (VBD (be))(NP (NP (DT (the))(NN (name)))(PP (IN (of))(NP (NP (DT (the))(NN (computer)))(PP (IN (in))(`` (`))(NP (NP (CD (2001)))(: (:))(NP (DT (a))(NN (space))(NN (odyssey))))('' (')))))))(. (?))))) |ET| 
-0.29835205557261351705378160659166  |BT| (ROOT (ROOT (SBARQ (WHNP (WDT (what)))(SQ (VP (VBZ (determine))(NP (NP (DT (the))(NN (value)))(PP (IN (of))(NP (DT (the))(NN (pearl)))))))(. (?))))) |ET| 
-0.37252507133009366002696083342016  |BT| (ROOT (ROOT (SBARQ (WHNP (WP (what)))(SQ (VBZ (be))(NP (NP (DT (the))(NN (world))(POS ('s)))(JJS (best))(NN (selling))(NN (cookie))))(. (?))))) |ET| 
1  |BT| (ROOT (ROOT (SBARQ (WHNP (WP (what)))(SQ (VBZ (be))(NP (NP (NNP (occam))(POS ('s)))(NNP (razor))))(. (?))))) |ET| 
1  |BT| (ROOT (ROOT (SBARQ (WHNP (WP (what)))(SQ (VP (VBD (cause))(NP (NP (NNP (harry))(NNP (houdini))(POS ('s)))(NN (death)))))(. (?))))) |ET| 
1  |BT| (ROOT (ROOT (SBARQ (WHNP (WP (what)))(SQ (VBZ (be))(NP (NN (film))(JJ (noir))))(. (?))))) |ET| 
-1  |BT| (ROOT (ROOT (SBARQ (WHNP (WP (what)))(SQ (VBZ (be))(NP (PRP$ (you))(JJ (favorite))(NN (color))))(. (?))))) |ET| 
-1  |BT| (ROOT (ROOT (SBARQ (WHNP (WP (what)))(SQ (VBZ (be))(NP (DT (a))(JJ (common))(JJ (anti-aids))(NN (drug))))(. (?))))) |ET| 
-1  |BT| (ROOT (ROOT (SBARQ (WHNP (WP (what)))(SQ (VBZ (be))(NP (NP (NNP (japan))(POS ('s)))(JJS (largest))(NN (car))(NN (manufacturer))))(. (?))))) |ET| 
1  |BT| (ROOT (ROOT (SBARQ (WHNP (WP (what)))(SQ (VBZ (be))(NP (NP (DT (the))(NN (distinction)))(PP (IN (of))(NP (NP (NNP (erle))(NNP (stanley))(NNP (gardner))(POS ('s)))(NP (NP (DT (the))(NN (case)))(PP (IN (of))(NP (DT (the))(JJ (terrified))(NN (typist)))))))))(. (?))))) |ET| 
1  |BT| (ROOT (ROOT (SBARQ (WHNP (WP (what)))(SQ (VP (VBZ (be))(NP (`` (``))(NP (DT (the))(NN (computer)))(PP (IN (for))(NP (NP (DT (the))(NN (rest)))(PP (IN (of))(NP (PRP (we))))))('' ('')))))(. (?))))) |ET| 
1  |BT| (ROOT (ROOT (SBARQ (WHNP (WDT (what))(NN (function)))(SQ (VBZ (do))(NP (NN (homeostasis)))(VP (VB (have))(PP (IN (on))(NP (NP (DT (the))(NN (existence)))(PP (IN (of))(NP (DT (a))(NN (organism))))))))(. (?))))) |ET| 
-1  |BT| (ROOT (ROOT (SBARQ (WHNP (WP (what)))(SQ (VP (VBZ (be))(NP (`` (``))(NP (DT (the))(NN (bear)))(PP (IN (of))(NP (NNS (beer))))('' ('')))))(. (?))))) |ET| 
-1  |BT| (ROOT (ROOT (SBARQ (WHNP (WP (what)))(SQ (VP (VBZ (do))(NP (DT (a))(JJ (ashen-faced))(NN (eidologist))(NN (search)))(PP (IN (out))(NP (NP (DT (the))(NN (existence)))(PP (IN (of)))))))(. (?))))) |ET| 
-1  |BT| (ROOT (ROOT (SBARQ (WHNP (WP (what)))(SQ (VP (VBZ (be))(NP (`` (``))(NP (DT (the))(JJ (soft))(NN (drink)))(PP (IN (for))(NP (NNS (adult))))('' ('')))))(. (?))))) |ET| 
1  |BT| (ROOT (ROOT (SBARQ (WHNP (WDT (what))(NP (JJ (good))))(SQ (VBP (be))(NP (NNS (mosquito))))(. (?))))) |ET| 
1  |BT| (ROOT (ROOT (SBARQ (WHNP (WP (what)))(SQ (VBZ (be))(NP (DT (a))(JJ (aortic))(JJ (abdominal))(NN (aneurysm))))(. (?))))) |ET| 
1  |BT| (ROOT (ROOT (SBARQ (WHNP (WDT (what)))(SQ (MD (can))(VP (VB (be))(VP (VBN (do))(PP (IN (about))(S (VP (VBG (snore))))))))(. (?))))) |ET| 
-1  |BT| (ROOT (ROOT (SBARQ (WHNP (WDT (what))(NNS (card)))(SQ (VBP (be))(NP (NNS (bullet))))(. (?))))) |ET| 
-1  |BT| (ROOT (ROOT (SBARQ (WHNP (WP (what)))(SQ (VBP (be))(NP (NP (NP (NNP (john))(NNP (c.))(NNP (calhoun)))(CC (and))(NP (NNP (henry))(NNP (clay))))(VP (VBN (know))(PP (IN (as))))))(. (?))))) |ET| 
-1  |BT| (ROOT (ROOT (SBARQ (WHNP (WHADJP (WRB (how))(JJ (many)))(NN (url))(NNS (extension)))(SQ (VBP (be))(NP (EX (there))))(. (?))))(ROOT (SBARQ (CC (and))(WHNP (WP (what)))(SQ (VBP (be))(NP (PRP (they))))(. (?))))) |ET| 
1  |BT| (ROOT (ROOT (SBARQ (WHNP (WP (what)))(SQ (VP (VBD (be))(NP (NP (DT (the))(NN (v-8))(NN (juice))(NN (slogan)))(: (:))(NP (`` (``))(DT (the))(NN (tastebud))('' (''))))))(. (?))))) |ET| 
1  |BT| (ROOT (ROOT (SBARQ (WHNP (WP (what)))(SQ (VP (VBZ (be))(`` (``))(NP (NP (DT (the))(JJ (only))(NN (cigarette)))(VP (VBN (make))(PP (IN (with))(NP (DT (no))(NNS (leftovers))('' (''))))))))(. (?))))) |ET| 
1  |BT| (ROOT (ROOT (SBARQ (WHNP (WP (what)))(SQ (VP (VBD (be))(NP (NP (DT (the)))(NP (`` (``))(NP (JJ (dead))(NN (man))(POS ('s)))(NN (hand))('' (''))))))(. (?))))) |ET| 
-1  |BT| (ROOT (ROOT (SBARQ (WHNP (WP (what)))(SQ (VBZ (be))(NP (NP (DT (the))(JJ (islamic))(NN (counterpart)))(PP (TO (to))(NP (DT (the))(NNP (red))(NNP (cross))))))(. (?))))) |ET| 
-0.51804771867420607023291267978493  |BT| (ROOT (ROOT (SBARQ (WHNP (WP (what)))(SQ (VBD (be))(NP (NP (DT (the))(JJ (distinguishing))(NN (mark)))(PP (IN (on))(NP (DT (the))(`` (``))(JJ (little))(NNS (rascal))('' (''))(NN (dog))))))(. (?))))) |ET| 
-1  |BT| (ROOT (ROOT (SBARQ (WHNP (WP (what)))(SQ (VP (VBZ (be))(`` (``))(NP (NP (DT (the))(NN (taste)))(SBAR (WHNP (WDT (that)))(VP (VBZ (beat))(NP (DT (the))(NNS (other)))(ADJP (JJ (cold))('' (''))))))))(. (?))))) |ET| 
1  |BT| (ROOT (ROOT (SBARQ (WHNP (WP (what)))(SQ (VBP (be))(NP (NP (NNS (vermicillus)))(, (,))(NP (NN (rigatus)))(, (,))(NP (NN (zitonus)))(, (,))(CC (and))(NP (NNS (tubettus)))))(. (?))))) |ET| 
1  |BT| (ROOT (ROOT (S (NP (NNP (shea))(CC (and))(NNP (gould)))(VP (VBD (close))(NP (NP (PRP$ (they))(NNP (los))(NNP (angeles))(NN (office)))(WHPP (IN (for))(WHNP (WP (what))(NP (NN (reason)))))))(. (?))))) |ET| 
0.4770166741663421361430152956018  |BT| (ROOT (ROOT (SBARQ (WHNP (WP (what)))(SQ (VBP (be))(NP (NNS (value))))(. (?))))) |ET| 
-0.39878073528764995669959603219468  |BT| (ROOT (ROOT (SBARQ (WHNP (WDT (what))(NP (NP (NNP (president))(POS ('s)))(NP (NP (JJ (favorite)))(NP (JJ (biblical))(NN (quotation))))))(SQ (VBD (be))(: (:))(S (VP (`` (``))(VB (come))(ADVP (RB (now))))(, (,))(CC (and))(VP (VB (let))(S (NP (PRP (we)))(NP (NP (NN (reason)))(ADVP (RB (together))('' (''))))))))(. (.))))) |ET| 
-0.96399355565113764576778976334026  |BT| (ROOT (ROOT (SBARQ (WHNP (WP (what)))(SQ (VBZ (do))(NP (NNP (larry))(NNP (king)))(VP (VB (do))(PP (IN (for))(NP (DT (a))(NN (living))))))(. (?))))) |ET| 
-0.75377107531484921487674455420347  |BT| (ROOT (ROOT (SBARQ (WHNP (WP (what)))(SQ (VBZ (do))(NP (NN (hiv)))(VP (VB (stand))(PP (IN (for)))))(. (?))))) |ET| 
1  |BT| (ROOT (ROOT (SBARQ (WHNP (WP (what)))(SQ (VBD (be))(NP (NP (DT (the))(NN (filling)))(PP (IN (in))(NP (DT (the))(JJ (first))(NN (golf))(NNS (ball))))))(. (?))))) |ET| 
1  |BT| (ROOT (ROOT (SBARQ (WHNP (WP (what)))(SQ (VBD (be))(NP (NP (DT (the))(NN (outcome)))(PP (IN (of))(NP (DT (the))(CD (1945))(NNP (yalta))(NNP (conference))))))(. (?))))) |ET| 
1  |BT| (ROOT (ROOT (SBARQ (WHNP (WP (what)))(SQ (VBZ (be))(NP (NP (DT (the))(NN (weather)))(PP (IN (like))(PP (IN (on))(NP (DT (the))(NN (moon)))))))(. (?))))) |ET| 
-1  |BT| (ROOT (ROOT (SBARQ (WHNP (WP (what)))(SQ (VBD (be))(NP (NP (DT (the))(NN (role)))(PP (IN (of))(NP (DT (the))(JJ (medieval))(NN (guild))))))(. (?))))) |ET| 
-0.014379395303460218435986917029368  |BT| (ROOT (ROOT (SBARQ (WHNP (WDT (what))(NN (playing))(NN (card)))(SQ (VP (VBZ (symbolize))(NP (NN (death)))))(. (?))))) |ET| 
-0.9868965430535644456355726106267  |BT| (ROOT (ROOT (SBARQ (WHNP (WP (what)))(SQ (VBD (be))(NP (NP (DT (the))(NN (business)))(PP (IN (of))(NP (NP (DT (the))(JJ (animated))(NN (sky)))(NP (NNPS (hawks)))))))(. (?))))) |ET| 
1  |BT| (ROOT (ROOT (SBARQ (WHNP (WP (what)))(SQ (VBZ (do))(NP (NN (laser)))(VP (VB (stand))(PP (IN (for)))))(. (?))))) |ET| 
1  |BT| (ROOT (ROOT (SBARQ (WHNP (WP (what)))(SQ (VBZ (do))(NP (NNP (hazmat)))(VP (VB (stand))(PP (IN (for)))))(. (?))))) |ET| 
1  |BT| (ROOT (ROOT (SBARQ (WHNP (WP (what)))(SQ (VBZ (do))(NP (DT (a))(NN (echidna)))(VP (VB (look))(PP (IN (like)))))(. (?))))) |ET| 
-0.02480302603462872582107401342455  |BT| (ROOT (ROOT (SBARQ (WHNP (WP (what)))(SQ (VBZ (do))(NP (NNP (s.o.s.)))(VP (VB (stand))(PP (IN (for)))))(. (?))))) |ET| 
-0.024803026034630280133308488643706  |BT| (ROOT (ROOT (SBARQ (WHNP (WP (what)))(SQ (VBZ (do))(NP (NNP (nasdaq)))(VP (VB (stand))(PP (IN (for)))))(. (?))))) |ET| 
-0.024803026034628059687259238330626  |BT| (ROOT (ROOT (SBARQ (WHNP (WP (what)))(SQ (VBZ (do))(NP (NNP (g.m.t.)))(VP (VB (stand))(PP (IN (for)))))(. (?))))) |ET| 
1  |BT| (ROOT (ROOT (SBARQ (WHNP (WP (what)))(SQ (VBD (be))(NP (NP (DT (the))(JJ (infamous))(NN (feat)))(PP (IN (of))(NP (NP (NNP (germany))(POS ('s)))(NN (u-2))(NN (submarine))))))(. (?))))) |ET| 
1  |BT| (ROOT (ROOT (SBARQ (WHNP (WP (what)))(SQ (VBD (be))(NP (NP (DT (the))(NNS (cause)))(PP (IN (of))(NP (DT (the))(JJ (civil))(NN (war))))))(. (?))))) |ET| 
1  |BT| (ROOT (ROOT (SBARQ (WHNP (WP (what)))(SQ (VBD (be))(NP (NP (DT (the))(NN (importance)))(PP (IN (of))(NP (NNP (magellan))))))(. (?))))) |ET| 
-0.49655330669119657205357043494587  |BT| (ROOT (ROOT (SBARQ (WHNP (WP (what)))(SQ (VBD (be))(NP (NP (DT (the))(NN (ceremony))(NNS (tradition)))(PP (IN (like))(PP (IN (during))(NP (DT (the))(JJ (elizabethian))(NNS (time)))))))(. (?))))) |ET| 
-1  |BT| (ROOT (ROOT (SBARQ (WHNP (WP (what)))(SQ (VBP (be))(NP (NP (DT (the))(NNS (component)))(PP (IN (of))(NP (NN (polyester))))))(. (?))))) |ET| 
-0.49273144593458656492757086198253  |BT| (ROOT (ROOT (SBARQ (WHNP (WP (what)))(SQ (VBD (be))(NP (NP (DT (the))(NNS (species)))(PP (IN (of))(NP (NNP (winnie))(DT (the))(NNP (pooh))))))(. (?))))) |ET| 
1  |BT| (ROOT (ROOT (SBARQ (WHNP (WP (what))(RB (else)))(SQ (VBZ (have))(NP (DT (the))(NN (swastika)))(VP (VBD (stand))(PP (IN (for)))))(. (?))))) |ET| 
1  |BT| (ROOT (ROOT (SBARQ (WHNP (WP (what)))(SQ (VBZ (be))(NP (NNP (d.b.))(NNP (cooper)))(VP (VBN (know))(PP (IN (for)))))(. (?))))) |ET| 
1  |BT| (ROOT (ROOT (SBARQ (WHNP (WP (what)))(SQ (VBZ (be))(NP (NNP (margaret))(NNP (thatcher)))(VP (VBN (know))(PP (IN (for)))))(. (?))))) |ET| 
-1  |BT| (ROOT (ROOT (SBARQ (WHNP (WP (what)))(SQ (VBZ (be))(NP (NNP (shirley))(NNP (maclaine)))(VP (VBN (know))(PP (IN (as)))))(. (?))))) |ET| 
-0.879451694713321519003557114047  |BT| (ROOT (ROOT (SBARQ (WHNP (WP (what)))(SQ (VBZ (be))(NP (DT (a))(NN (film)))(VP (VBG (star))(NP (NNP (jude))(NNP (law)))))(. (?))))) |ET| 
-0.94655108923301223278201632638229  |BT| (ROOT (ROOT (SBARQ (WHNP (WP (what)))(SQ (VBZ (be))(NP (NP (DT (the))(NN (chemical))(NN (reactivity)))(PP (IN (of))(NP (NN (neon))))))(. (?))))) |ET| 
1  |BT| (ROOT (ROOT (SBARQ (WHNP (WP (what)))(SQ (VBD (be))(NP (NP (DT (the))(NN (claim)))(PP (TO (to))(NP (NP (NN (fame)))(PP (IN (of))(NP (NP (DT (the))(NN (football))(NN (game)))(SBAR (WHNP (WDT (that)))(S (VP (VBD (see))(S (NP (NNP (fordham)))(VP (VB (defeat))(NP (NNP (waynesburg))(NNP (state))(CD (12601)))(PP (IN (on))(NP (NNP (september))(CD (3))(, (,))(CD (1939)))))))))))))))(. (?))))) |ET| 
1  |BT| (ROOT (ROOT (SBARQ (WHNP (WP (what)))(SQ (VBD (be))(NP (NP (DT (the))(VBG (rally))(NN (cry)))(PP (IN (of))(NP (DT (the))(JJ (early))(JJ (american))(NNS (revolutionary))))))(. (?))))) |ET| 
1  |BT| (ROOT (ROOT (SBARQ (WHADVP (WRB (how)))(SQ (VBP (do))(NP (PRP (you)))(VP (VB (exterminate))(NP (NP (NNS (bee)))(SBAR (WHNP (WDT (that)))(S (VP (VBP (be))(PP (IN (in))(NP (NP (DT (the))(NNS (wall)))(PP (IN (of))(NP (PRP$ (you))(NN (home))))))))))))(. (?))))(ROOT (S (S (VP (MD (will))))(NP (NN (bee))(NNS (egg)))(VP (VBP (remain))(PP (IN (over))(NP (NN (winter)))))(. (?))))) |ET| 
-0.25111133733585316862857439446088  |BT| (ROOT (ROOT (SBARQ (WHNP (WHNP (WDT (what))(NN (army))(POS ('s)))(NN (motto)))(SQ (VBZ (be))(NP (NN (blood))(CC (and))(NN (fire))))(. (?))))) |ET| 
-0.7699457244313631099075223573891  |BT| (ROOT (ROOT (SBARQ (SBAR (WHADVP (WRB (when)))(S (NP (DT (the))(NNP (tutankhamun))(NN (exhibit)))(VP (VBD (be))(PP (IN (on))(NP (NP (NN (display)))(PP (IN (in))(NP (DT (the))(NNP (u.s.)))))))))(, (,))(WHNP (WP (what)))(S (VP (VBG (move))(SBAR (S (NP (NN (company)))(VP (VBD (transport))(NP (PRP (it))))))))(. (?))))) |ET| 
-0.11327423196921895809374802865932  |BT| (ROOT (ROOT (SBARQ (WHNP (WDT (what))(JJ (indian))(NN (tribe)))(SQ (VBZ (be))(NP (NN (f))(NN (troop)))(ADVP (RB (perpetually)))(VP (VBG (do))(NP (NN (battle)))(PP (IN (with)))))(. (?))))) |ET| 
1  |BT| (ROOT (ROOT (SBARQ (WHNP (WP (what)))(SQ (VBZ (do))(NP (DT (a))(NNP (nihilist)))(VP (VB (believe))(PP (IN (in)))))(. (?))))) |ET| 
1  |BT| (ROOT (ROOT (SBARQ (WHNP (WP (what)))(SQ (VBZ (be))(NP (PRP (he)))(VP (VBG (do))(ADVP (RB (now)))))(. (?))))) |ET| 
0.45051318886919483608366476801166  |BT| (ROOT (ROOT (SBARQ (WHNP (WP (what)))(SQ (VBZ (do))(NP (DT (the))(NN (name))(`` (``))(NNP (justin))('' ('')))(VP (VB (mean))))(. (?))))) |ET| 
-1  |BT| (ROOT (ROOT (SBARQ (WHNP (WP (what)))(SQ (VBZ (do))(NP (`` (``))(NNP (b.y.o.b.))('' ('')))(VP (VB (mean))))(. (?))))) |ET| 
-1  |BT| (ROOT (ROOT (SBARQ (WHNP (WP (what)))(SQ (VBZ (do))(NP (DT (the))(NN (word))(NN (laser)))(VP (VB (mean))))(. (?))))) |ET| 
-1  |BT| (ROOT (ROOT (SBARQ (WHNP (WP (what)))(SQ (VBZ (do))(NP (DT (the))(NN (acronym))(NNP (cpr)))(VP (VB (mean))))(. (?))))) |ET| 
1  |BT| (ROOT (ROOT (SBARQ (WHNP (WP (what)))(SQ (VBP (be))(NP (NP (DT (the))(NNS (requirement)))(PP (IN (for))(S (VP (VBG (become))(NP (NP (DT (a))(NN (citizen)))(PP (IN (of))(NP (NNP (australia))))))))))(. (?))))) |ET| 
1  |BT| (ROOT (ROOT (SBARQ (WHNP (WP (what)))(SQ (VBP (be))(NP (NP (DT (the))(RBS (most))(JJ (common))(NNS (cause)))(PP (IN (of))(NP (NP (NN (death)))(PP (IN (in))(NP (DT (the))(NNP (u.s.))))))))(. (?))))) |ET| 
1  |BT| (ROOT (ROOT (SBARQ (WHNP (WP (what)))(SQ (VBZ (be))(NP (NP (DT (the))(JJ (daily))(NN (requirement)))(PP (IN (of))(NP (NP (JJ (folic))(NN (acid)))(PP (IN (for))(NP (DT (a))(JJ (expectant))(NN (mother))))))))(. (?))))) |ET| 
-1  |BT| (ROOT (ROOT (SBARQ (WHNP (WP (what)))(SQ (VBZ (be))(NP (NP (DT (the))(NN (salary)))(PP (IN (of))(NP (DT (a))(NNP (u.s.))(NNP (representative))))))(. (?))))) |ET| 
-1  |BT| (ROOT (ROOT (SBARQ (WHNP (WP (what)))(SQ (VBZ (be))(NP (NP (DT (the))(NN (shape)))(PP (IN (of))(NP (NP (DT (a))(NN (camel))(POS ('s)))(NN (spine))))))(. (?))))) |ET| 
-1  |BT| (ROOT (ROOT (SBARQ (WHNP (WP (what)))(SQ (VBZ (be))(NP (NP (JJ (chronic))(NN (constipation)))(NP (NP (DT (a))(NN (symptom)))(PP (IN (of))))))(. (?))))) |ET| 
0.56074007400839831483096986630699  |BT| (ROOT (ROOT (SBARQ (WHNP (WP (what)))(SQ (VBZ (do))(NP (`` (``))(NNP (janelle))('' ('')))(VP (VB (mean))))(. (?))))) |ET| 
1  |BT| (ROOT (ROOT (SBARQ (WHNP (WP (what)))(SQ (VBZ (do))(NP (DT (the))(NN (word))(NN (terrorism)))(VP (VB (mean))))(. (?))))) |ET| 
0.55276663297103145744415542139905  |BT| (ROOT (ROOT (SBARQ (WHNP (WP (what)))(SQ (VBZ (do))(NP (DT (the))(NN (name))(NNP (billie)))(VP (VB (mean))))(. (?))))) |ET| 
-1  |BT| (ROOT (ROOT (SBARQ (WHNP (WP (what)))(SQ (VBZ (do))(NP (NNP (salk))(NN (vaccine)))(VP (VB (prevent))))(. (?))))) |ET| 
-1  |BT| (ROOT (ROOT (SBARQ (WHNP (WP (what)))(SQ (VBZ (do))(NP (NNP (knight))(NNP (ridder)))(VP (VB (publish))))(. (?))))) |ET| 
-1  |BT| (ROOT (ROOT (SBARQ (WHNP (WP (what)))(SQ (VBP (be))(NP (DT (the))(JJS (biggest))(JJ (indian))(NNS (airport))))(. (?))))) |ET| 
1  |BT| (ROOT (ROOT (SBARQ (WHNP (WP (what)))(SQ (VBZ (be))(NP (NP (DT (the))(NN (spectrum)))(PP (IN (of))(NP (DT (a))(NN (sine))(NN (wave))))))(. (?))))) |ET| 
1  |BT| (ROOT (ROOT (SBARQ (WHNP (WP (what)))(SQ (VBZ (be))(NP (NP (DT (the))(NN (history)))(PP (IN (of))(NP (NP (NNP (valentine))(POS ('s)))(NN (day))(NNS (card))))))(. (?))))) |ET| 
1  |BT| (ROOT (ROOT (SBARQ (WHNP (WP (what)))(SQ (VBZ (be))(NP (NP (DT (a))(NN (example)))(PP (IN (of))(NP (NP (DT (a))(JJ (actual))(NN (case)))(PP (IN (of))(S (VP (VBG (use))(NP (DT (the))(JJ (fourteenth))(NN (amendment))))))))))(. (?))))) |ET| 
-0.072778806992801939323989302010887  |BT| (ROOT (ROOT (SBARQ (WHADVP (WRB (where)))(SQ (VBD (do))(NP (NN (makeup)))(VP (VB (originate))))(. (?))))) |ET| 
-1  |BT| (ROOT (ROOT (SBARQ (WHNP (WP (what)))(SQ (VBZ (be))(NP (NP (DT (the))(JJ (full))(NN (classification)))(PP (IN (of))(NP (DT (a))(NN (lady))(NN (bug))))))(. (?))))) |ET| 
-1  |BT| (ROOT (ROOT (SBARQ (WHNP (WP (what)))(SQ (VBZ (be))(NP (NP (DT (the))(NN (weight)))(PP (IN (of))(NP (NP (DT (a))(NN (teaspoon)))(PP (IN (of))(NP (NP (NN (matter)))(PP (IN (in))(NP (DT (a))(JJ (black))(NN (hole))))))))))(. (?))))) |ET| 
1  |BT| (ROOT (ROOT (SBARQ (WHNP (WP (what)))(SQ (VBZ (do))(NP (NP (NNP (lloyd))(POS ('s)))(NP (NNP (lutine))(NNP (bell))))(VP (VB (announce))))(. (?))))) |ET| 
0.70332459840597305600340405362658  |BT| (ROOT (ROOT (SBARQ (WHNP (WP (what)))(SQ (VBZ (do))(NP (NNP (venus))(NNP (retrograde)))(VP (VB (mean))))(. (?))))) |ET| 
1  |BT| (ROOT (ROOT (SBARQ (WHNP (WP (what)))(SQ (VBZ (do))(NP (NNP (freddy))(NNP (freeman)))(VP (VBP (say))(S (VP (TO (to))(VP (VB (become))(NP (NNP (captain))(NNP (marvel))(NNP (jr.))))))))(. (?))))) |ET| 
-1  |BT| (ROOT (ROOT (SBARQ (WHNP (WP (what)))(SQ (VBZ (do))(NP (PRP (it)))(VP (VB (take))(S (VP (TO (to))(VP (VB (be))(NP (DT (a))(NN (hero))))))))(. (?))))) |ET| 
-1  |BT| (ROOT (ROOT (SBARQ (WHNP (WP (what)))(SQ (VBP (do))(NP (NNS (sailor)))(VP (VB (use))(S (VP (TO (to))(VP (VB (measure))(NP (NN (time))))))))(. (?))))) |ET| 
-1  |BT| (ROOT (ROOT (SBARQ (WHNP (WP (what)))(SQ (VBZ (do))(NP (PRP (it)))(VP (VB (take))(S (VP (TO (to))(VP (VB (become))(NP (DT (a))(NN (lawyer))))))))(. (?))))) |ET| 
1  |BT| (ROOT (ROOT (SBARQ (WHNP (WP (what)))(SQ (VBZ (be))(NP (NP (DT (the))(NN (origin)))(PP (IN (of))(NP (NP (DT (the))(NN (candy))(NN (cane)))(PP (IN (at))(NP (NNP (christmas))))))))(. (?))))) |ET| 
0.83157902047781029342132796955411  |BT| (ROOT (ROOT (SBARQ (WHNP (WP (what)))(SQ (VBZ (be))(NP (NP (DT (the))(NN (origin)))(PP (IN (of))(NP (NP (DT (the))(NN (proverb)))(`` (``))(S (NP (NP (DT (a))(NN (stitch)))(PP (IN (in))(NP (NN (time)))))(VP (VBZ (save))(NP (CD (nine)))))('' (''))))))(. (?))))) |ET| 
0.3796794637394232396765403336758  |BT| (ROOT (ROOT (SBARQ (WHNP (WP (what)))(SQ (VBZ (be))(NP (NP (DT (the))(NN (origin)))(PP (IN (of))(NP (NP (DT (the))(NN (word)))(, (,))(NP (NN (jj)))))))(. (.))))) |ET| 
-0.37410000971765960953163698832213  |BT| (ROOT (ROOT (SBARQ (WHNP (WP (what)))(SQ (VBZ (be))(NP (NP (DT (the))(NN (name)))(PP (IN (of))(NP (NP (DT (the))(NN (firm)))(SBAR (WHNP (WDT (that)))(S (VP (VBZ (make))(NP (NNP (spumante))))))))))(. (?))))) |ET| 
-1  |BT| (ROOT (ROOT (SBARQ (WHNP (WP (what)))(SQ (VBZ (be))(NP (NP (DT (the))(NN (date)))(PP (IN (of))(NP (NNP (boxing))(NNP (day))))))(. (?))))) |ET| 
-1  |BT| (ROOT (ROOT (SBARQ (WHNP (WP (what)))(SQ (VBZ (be))(NP (NP (DT (the))(NN (date)))(PP (IN (of))(NP (NNP (bastille))(NNP (day))))))(. (?))))) |ET| 
1  |BT| (ROOT (ROOT (SBARQ (WHNP (WP (what)))(SQ (VBP (do))(NP (PRP (i)))(VP (VB (need))(S (VP (TO (to))(VP (VB (learn))(S (VP (TO (to))(VP (VB (design))(NP (NN (web))(NNS (page)))))))))))(. (?))))) |ET| 
1  |BT| (ROOT (ROOT (SBARQ (WHNP (WP (what)))(SQ (MD (should))(NP (PRP (you)))(VP (VB (yell))(S (VP (TO (to))(VP (VB (hail))(NP (NP (DT (a))(NN (taxi)))(PP (IN (in))(NP (NNP (madrid))))))))))(. (?))))) |ET| 
1  |BT| (ROOT (ROOT (SBARQ (WHNP (WP (what)))(SQ (VBP (do))(NP (PRP (you)))(VP (VB (need))(S (VP (TO (to))(VP (VB (do))(S (VP (TO (to))(VP (VB (marry))(NP (NN (someone)))(PP (IN (in))(NP (NN (jail))))))))))))(. (?))))) |ET| 
-0.9083783314999060998218283202732  |BT| (ROOT (ROOT (SBARQ (WHNP (WP (what)))(SQ (VBP (be))(NP (NP (DT (the))(NN (world))(POS ('s)))(CD (four))(NNS (ocean))))(. (?))))) |ET| 
-1  |BT| (ROOT (ROOT (SBARQ (WHNP (WP (what)))(SQ (VBP (do))(NP (NN (goldfish)))(VP (VBP (lose))(SBAR (IN (if))(S (S (VP (VBN (keep))(PP (IN (in))(NP (NN (dimly-lit))))))(CC (or))(S (VP (VBG (run))(NP (NN (water)))))))))(. (?))))) |ET| 
0.44392876106917855683064999539056  |BT| (ROOT (ROOT (SBARQ (WHNP (WP (what)))(SQ (VBZ (do))(NP (DT (the))(NN (name))(`` (``))(NNP (sheri))('' ('')))(VP (VB (mean))))(. (?))))) |ET| 
1  |BT| (ROOT (ROOT (SBARQ (WHNP (WP (what)))(SQ (VBZ (be))(NP (NP (DT (the))(NN (origin)))(PP (IN (of))(NP (NNP (boxing))(NNP (day))))))(. (?))))) |ET| 
1  |BT| (ROOT (ROOT (SBARQ (WHNP (WP (what)))(SQ (VBZ (be))(NP (NP (DT (the))(JJ (historical))(NN (relationship)))(PP (IN (of))(NP (NNP (catholic))(NNP (church))(CC (and))(NNP (bingo))))))(. (?))))) |ET| 
1  |BT| (ROOT (ROOT (SBARQ (WHNP (WP (what)))(SQ (VBZ (be))(NP (NP (DT (the))(NNS (contents)))(PP (IN (of))(NP (NN (proposition))(CD (98))))))(. (?))))) |ET| 
-0.081052060054278535217164858295291  |BT| (ROOT (ROOT (SBARQ (WHNP (WP (what)))(SQ (VBZ (be))(NP (NP (DT (the))(JJ (official))(NN (animal)))(PP (IN (of))(NP (NNP (canada))))))(. (?))))) |ET| 
-0.11680177416694217940040800840507  |BT| (ROOT (ROOT (SBARQ (WHNP (WDT (what))(NP (JJ (feminist))))(SQ (VP (VBD (write))(NP (NNP (sexual))(NNP (politics))(CC (and))(NNP (flying)))))(. (?))))) |ET| 
0.23599355494298146496134904737119  |BT| (ROOT (ROOT (SBARQ (WHNP (WP (what)))(SQ (VBZ (be))(NP (NP (DT (the))(NN (origin)))(PP (IN (of))(NP (DT (the))(NN (expression))(`` (``))(JJ (four-letter))(NN (word))('' (''))))))(. (?))))) |ET| 
1  |BT| (ROOT (ROOT (SBARQ (WHNP (WDT (what))(NNS (step)))(SQ (MD (can))(VP (VB (be))(VP (VBN (take))(S (VP (TO (to))(VP (VB (prevent))(NP (NN (diabetes)))))))))(. (?))))) |ET| 
1  |BT| (ROOT (ROOT (SBARQ (WHNP (WRB (how)))(SQ (VP (VBP (come))(SBAR (S (NP (DT (a))(NN (doughnut)))(VP (VBZ (have))(NP (NP (DT (a))(NN (hole)))(PP (IN (in))(NP (PRP (it))))))))))(. (?))))) |ET| 
1  |BT| (ROOT (ROOT (SBARQ (WHNP (WP (what)))(SQ (VBP (be))(NP (PRP (you)))(VP (VBG (hear))(SBAR (WHADVP (WRB (when)))(S (NP (PRP (you)))(VP (VBP (put))(NP (DT (a))(NN (seashell)))(PP (TO (to))(NP (PRP$ (you))(NN (ear)))))))))(. (?))))) |ET| 
-1  |BT| (ROOT (ROOT (SBARQ (WHADVP (WRB (how)))(SQ (VBP (do))(NP (PRP (you)))(VP (VB (say))(VP (`` (``))(VB (eat))(NP (DT (the))(NN (day)))('' (''))(PP (IN (in))(NP (NNP (latin)))))))(. (?))))) |ET| 
-0.19118111194899839455629830808903  |BT| (ROOT (ROOT (SBARQ (WHNP (WDT (what))(NP (JJ (creative))(NN (genius))))(SQ (VP (VBD (say))(: (:))(S (`` (``))(NP (NN (everything)))(VP (VBZ (come))(PP (TO (to))(NP (NP (PRP (he)))(SBAR (WHNP (WP (who)))(S (VP (VBZ (hustle))(SBAR (IN (while))(S (NP (PRP (he)))(VP (VBZ (wait)))))))))))('' ('')))))(. (?))))) |ET| 
-1  |BT| (ROOT (ROOT (SBARQ (WHNP (WDT (what))(JJ (scottish))(NN (poet)))(SQ (VP (VBD (pen))(PP (PP (TO (to))(NP (DT (a))(NN (mouse))))(CC (and))(PP (TO (to))(NP (DT (a))(NNP (louse)))))))(. (?))))) |ET| 
1  |BT| (ROOT (ROOT (SBARQ (WHNP (WP (what)))(SQ (VBZ (be))(NP (NP (DT (the))(NN (vdrl))(NN (test)))(PP (IN (of))(NP (NN (blood))))))(. (?))))) |ET| 
1  |BT| (ROOT (ROOT (SBARQ (WHNP (WP (what)))(SQ (VBZ (be))(NP (DT (the))(NN (virus))(NN (hiv))))(. (?))))) |ET| 
1  |BT| (ROOT (ROOT (SBARQ (WHNP (WP (what)))(SQ (VBZ (be))(NP (NP (DT (the))(JJ (classic))(NN (definition)))(PP (IN (of))(NP (JJ (tragic))(NN (hero))))))(. (?))))) |ET| 
-1  |BT| (ROOT (ROOT (SBARQ (WHNP (WP (what)))(SQ (VBZ (be))(NP (DT (the))(NN (temperature))(NN (today))))(. (?))))) |ET| 
-1  |BT| (ROOT (ROOT (SBARQ (WHNP (WP (what)))(SQ (VBZ (be))(NP (DT (the))(JJ (second-lightest))(NN (element))))(. (?))))) |ET| 
-1  |BT| (ROOT (ROOT (SBARQ (WHNP (WP (what)))(SQ (VBZ (be))(NP (DT (the))(JJ (regular))(NN (price))))(. (?))))) |ET| 
0.23223305533549620793820622566273  |BT| (ROOT (ROOT (SBARQ (WHADVP (WRB (how)))(SQ (VBZ (do))(NP (DT (a))(NN (chick)))(VP (VB (breathe))(PP (IN (inside))(NP (DT (a))(NN (egg))))))(. (?))))) |ET| 
1  |BT| (ROOT (ROOT (SBARQ (WHNP (WDT (what))(NNS (characteristic)))(SQ (VP (VBP (contribute))(PP (TO (to))(NP (PRP$ (its))(`` (``))(NN (intelligence))('' (''))))))(. (?))))) |ET| 
0.93218233009540596434305825823685  |BT| (ROOT (ROOT (SBARQ (WHADVP (WRB (why)))(SQ (VBP (do))(NP (PRP (they)))(VP (VB (call))(NP (DT (a))(NN (hamburger)))(NP (NP (DT (a))(NN (hamburger)))(SBAR (WHADVP (WRB (when)))(S (NP (EX (there)))(VP (VBZ (be))(NP (DT (no))(NN (ham)))))))))(. (?))))) |ET| 
-0.23972617034502563537756714140414  |BT| (ROOT (ROOT (SBARQ (WHADVP (WRB (where)))(SQ (MD (can))(NP (PRP (i)))(VP (VB (find))(NP (NP (DT (a))(NN (list)))(PP (IN (of))(NP (NP (`` (``))(JJ (classic))('' (''))(NNS (book)))(SBAR (S (NP (ADJP (JJ (5th))(CC (and))(JJ (6th)))(NNS (grader)))(VP (MD (should))(VP (VB (read)))))))))))(. (?))))) |ET| 
-0.029360529569665574922687767411844  |BT| (ROOT (ROOT (SBARQ (WHADVP (WRB (when)))(SQ (VBD (be))(NP (NP (DT (the))(NN (ussr)))(SBAR (S (VP (VBD (dissolve)))))))(. (?))))) |ET| 
-0.13026826124776194615328961390333  |BT| (ROOT (ROOT (SBARQ (WHNP (WHNP (WDT (what))(JJ (russian))(NN (composer))(POS ('s)))(NP (NN (prelude))(PP (IN (in))(NP (NP (NN (c)))(ADJP (JJ (sharp))(JJ (minor)))))))(SQ (VP (VBD (bring))(NP (PRP (he)))(NP (NN (fame))(CC (and))(NN (fortune)))))(. (?))))) |ET| 
1  |BT| (ROOT (ROOT (SBARQ (WHNP (WP (what)))(SQ (VBZ (be))(NP (DT (the))(JJ (amish))(NN (religion))))(. (?))))) |ET| 
1  |BT| (ROOT (ROOT (SBARQ (WHNP (WP (what)))(SQ (VBZ (be))(NP (DT (the))(JJ (immaculate))(NN (conception))))(. (?))))) |ET| 
1  |BT| (ROOT (ROOT (SBARQ (WHNP (WP (what)))(SQ (VBZ (be))(NP (DT (the))(JJ (circumorbital))(NN (hematoma))))(. (?))))) |ET| 
-1  |BT| (ROOT (ROOT (SBARQ (WHNP (WP (what)))(SQ (VBZ (be))(NP (DT (the))(ADJP (RBS (most))(JJ (radioactive)))(NN (food))))(. (?))))) |ET| 
-1  |BT| (ROOT (ROOT (SBARQ (WHNP (WP (what)))(SQ (VBZ (be))(NP (DT (the))(JJ (longest-running))(NN (television))(NN (series))))(. (?))))) |ET| 
-1  |BT| (ROOT (ROOT (SBARQ (WHNP (WP (what)))(SQ (VBZ (be))(NP (DT (the))(JJ (second))(JJS (hardest))(NN (substance))))(. (?))))) |ET| 
1  |BT| (ROOT (ROOT (FRAG (SBARQ (WHADVP (WRB (why))(NP (NP (NN (didn))('' ('))(NN (t)))(NP (JJ (european))(NN (colonial)))))(SQ (NP (NN (rule))(NN (spread)))(PP (IN (until))(PP (IN (after))(NP (ADJP (DT (the))(JJ (first)))(CC (and))(NP (JJ (second))(JJ (industrial))(NNS (revolution)))))))(. (?)))))) |ET| 
1  |BT| (ROOT (ROOT (SBARQ (WHADVP (WRB (how)))(SQ (MD (can))(NP (PRP (i)))(VP (VB (enforce))(NP (JJ (new))(NNS (rule)))(PP (TO (to))(NP (NP (DT (a))(NN (group)))(PP (IN (of))(NP (NP (NNS (youngster)))(SBAR (WHNP (WP (who)))(S (VP (VBP (have))(VP (VBN (be))(VP (VBN (allow))(S (VP (TO (to))(VP (VB (do))(SBAR (IN (as))(S (NP (PRP (they)))(VP (VBP (please)))))))))))))))))))(. (.))))) |ET| 
1  |BT| (ROOT (ROOT (SBARQ (WHNP (WDT (what)))(SQ (MD (can))(NP (PRP (i)))(VP (VB (do))(S (VP (TO (to))(VP (VB (get))(PP (IN (into))(NP (DT (a))(NNP (ivy))(NNP (league))(NN (school)))))))))(. (?))))) |ET| 
-0.20992500235364544569627298642445  |BT| (ROOT (ROOT (SBARQ (WHNP (WDT (what))(NN (device)))(SQ (VP (VBD (provide))(NP (DT (a))(JJ (new))(NN (way)))(S (VP (TO (to))(VP (VB (listen))(PP (TO (to))(NP (NP (NN (music)))(PP (IN (in))(NP (CD (1963)))))))))))(. (?))))) |ET| 
-0.09542869236059789428416877399286  |BT| (ROOT (ROOT (SBARQ (WHNP (WP (who)))(SQ (VBZ (be))(NP (NNP (terrence))(NNP (malick))))(. (?))))) |ET| 
-0.71327230355364590330680130136898  |BT| (ROOT (ROOT (SBARQ (WHADVP (WRB (where)))(SQ (VP (VBD (be))(SBAR (S (`` (``))(S (NP (PRP (i)))(VP (VBP (have))(VP (VBN (fall)))))(, (,))(CC (and))(S (NP (PRP (i)))(VP (MD (can))))('' (')))))(NP (NN (t)))(VP (VB (get))(PRT (RP (up)))('' (''))(S (VP (VBD (say))(ADVP (RB (first)))))))(. (?))))) |ET| 
1  |BT| (ROOT (ROOT (SBARQ (WHNP (WP (what)))(SQ (VBZ (be))(NP (DT (the))(NNP (red))(NN (planet))))(. (?))))) |ET| 
0.73932767594031967295364893288934  |BT| (ROOT (ROOT (SBARQ (WHNP (WP (what)))(SQ (VBZ (be))(NP (DT (the))(NN (internet2))))(. (?))))) |ET| 
1  |BT| (ROOT (ROOT (SBARQ (WHNP (WP (what)))(SQ (VBZ (be))(NP (DT (the))(NNP (aim-54c))(NNP (phoenix))))(. (?))))) |ET| 
-1  |BT| (ROOT (ROOT (SBARQ (WHNP (WP (what)))(SQ (VBZ (be))(NP (DT (the))(ADJP (JJS (greatest))(VBG (hike)))(NP (NN (web))(NN (site)))))(. (?))))) |ET| 
-1  |BT| (ROOT (ROOT (SBARQ (WHNP (WP (what)))(SQ (VBZ (be))(NP (DT (the))(NNP (u.s.))(NNP (navy))(NN (hymn))))(. (?))))) |ET| 
-1  |BT| (ROOT (ROOT (SBARQ (WHNP (WP (what)))(SQ (VBZ (be))(NP (DT (the))(JJS (rarest))(NN (coin))))(. (?))))) |ET| 
1  |BT| (ROOT (ROOT (SBARQ (WHNP (WP (what)))(SQ (VBD (be))(NP (NP (DT (a))(NNP (mae))(NNP (west)))(PP (IN (on))(NP (DT (a))(NNP (world))(NNP (war))(NNP (ii))(NN (battleship))))))(. (?))))) |ET| 
1  |BT| (ROOT (ROOT (SBARQ (WHADVP (WRB (why)))(SQ (VBD (be))(NP (NP (NP (NP (NNP (henry))(NNP (ford))(POS ('s)))(JJ (first))(NN (automobile))(NN (calleda)))(NP (NNP (model))))(SBAR (S (NP (NP (NP (NN (t)))(CC (&))(NP (NP (PRP$ (he))(JJ (second))(NN (type)))(PP (IN (of))(NP (NN (automobile))))))(, (,))(VP (VBN (introduce))(PP (IN (in))(NP (CD (1928)))))(, (,)))(VP (VBD (call))(NP (DT (a))(NNP (model))(NNP (a))))))))(. (?))))) |ET| 
1  |BT| (ROOT (ROOT (SBARQ (WHNP (WDT (what)))(SQ (VP (ADVP (RB (ever)))(VBD (happen))(PP (TO (to))(NP (DT (the))(ADJP (RB (once))(JJ (popular)))(NNP (yale))(NNP (lock))(NNP (company))))))(. (?))))) |ET| 
-0.99588530120020246627632332092617  |BT| (ROOT (ROOT (SBARQ (WHNP (WP (what)))(SQ (VBD (be))(NP (NP (DT (a))(NNP (california))(NN (prayer))(NN (book)))(PP (TO (to))(NP (DT (a))(JJ (old))(NNP (west))(NN (gambler))))))(. (?))))) |ET| 
1  |BT| (ROOT (ROOT (SBARQ (WHNP (WP (what)))(SQ (VBZ (be))(NP (NP (DT (the))(NN (meaning)))(PP (IN (of))(NP (DT (the))(NN (name))(NNP (tatiana))))))(. (?))))) |ET| 
-0.4923168528482235739573980026762  |BT| (ROOT (ROOT (SBARQ (WHNP (WP (what)))(SQ (VBP (be))(NP (NP (JJ (new))(NN (computer))(NNS (game)))(PP (IN (for))(NP (NNP (windows))(CD (95))(CC (or))(CD (98))))))(. (?))))) |ET| 
1  |BT| (ROOT (ROOT (SBARQ (WHNP (WP (what)))(SQ (VBZ (be))(NP (DT (the))(ADJP (VBN (lose)))(NP (NNP (colony)))))(. (?))))) |ET| 
1  |BT| (ROOT (ROOT (SBARQ (WHNP (WP (what)))(SQ (VBZ (be))(NP (DT (the))(NNP (highest))(NNP (roman))(NN (numeral))))(. (?))))) |ET| 
0.97100938503862488371254357844009  |BT| (ROOT (ROOT (SBARQ (WHNP (WP (what)))(SQ (VBZ (be))(NP (NNP (australia))(NNP (day))))(. (?))))) |ET| 
-1  |BT| (ROOT (ROOT (SBARQ (WHNP (WP (what)))(SQ (VBZ (be))(NP (DT (the))(JJ (federal))(JJ (minimum))(NN (wage))))(. (?))))) |ET| 
-1  |BT| (ROOT (ROOT (SBARQ (WHNP (WP (what)))(SQ (VBZ (be))(NP (DT (the))(JJS (longest))(JJ (english))(NN (word))))(. (?))))) |ET| 
-1  |BT| (ROOT (ROOT (SBARQ (WHNP (WP (what)))(SQ (VBZ (be))(NP (DT (the))(JJS (dumbest))(JJ (domesticated))(NN (animal))))(. (?))))) |ET| 
1  |BT| (ROOT (ROOT (SBARQ (WHNP (WP (what)))(SQ (VBP (be))(NP (NP (NP (NP (NNP (christopher))(NNP (marlowe))(POS ('s)))(CC (and))(NP (NNP (shakespeare))(POS ('s))))(JJ (literary))(NNS (contribution)))(PP (TO (to))(NP (JJ (english))(NN (literature))))))(. (?))))) |ET| 
1  |BT| (ROOT (ROOT (SBARQ (WHNP (WP (what)))(SQ (VBD (be))(NP (DT (the))(JJ (first))(NNS (word)))(VP (VBN (speak))(PP (IN (on))(NP (DT (a))(NN (film))(NN (sound))(NN (track))))))(. (?))))) |ET| 
1  |BT| (ROOT (ROOT (SBARQ (WHNP (WP (what)))(SQ (VBZ (be))(VP (VBN (mean))(PP (IN (by))(NP (DT (the))(NN (term))))(`` (``))(NP (NN (yield)))(PP (TO (to))(NP (NN (maturity))))('' (''))(PP (IN (in))(NP (NP (NN (reference)))(PP (TO (to))(NP (NNS (bond))))))))(. (?))))) |ET| 
-1  |BT| (ROOT (ROOT (SBARQ (WHNP (WP (what)))(SQ (VBD (do))(NP (DT (the))(NNP (yalta))(NNP (conference)))(VP (VB (lead))(PP (TO (to)))))(. (?))))) |ET| 
-1  |BT| (ROOT (ROOT (SBARQ (WHNP (WP (what)))(SQ (VBP (be))(NP (NP (DT (some))(NNS (way)))(S (VP (TO (to))(VP (VB (help))(NP (NN (someone)))(PP (IN (with))(NP (NNP (chicken))(NNP (pox)))))))))(. (?))))) |ET| 
-1  |BT| (ROOT (ROOT (SBARQ (WHNP (WP (what)))(SQ (VP (VP (VBP (be))(NP (NP (DT (the))(NNS (conjugation)))(PP (IN (of))(NP (NN (wake))))))(CC (and))(VP (VBD (wake)))))(. (?))))) |ET| 
0.83975627890734072522604947153013  |BT| (ROOT (ROOT (SBARQ (WHNP (WP (what)))(SQ (VBZ (be))(NP (DT (a))(NN (plant))(NN (supplement))))(. (?))))) |ET| 
1  |BT| (ROOT (ROOT (SBARQ (WHNP (WP (what)))(SQ (VBZ (be))(NP (DT (a))(JJ (certified))(NN (nurse))(NN (midwife))))(. (?))))) |ET| 
1  |BT| (ROOT (ROOT (SBARQ (WHNP (WP (what)))(SQ (VBZ (be))(NP (DT (a))(JJ (leaky))(NN (heart))(NN (valve))))(. (?))))) |ET| 
-1  |BT| (ROOT (ROOT (SBARQ (WHNP (WP (what)))(SQ (VBZ (do))(NP (DT (a))(JJ (edentulous))(NN (smile))(NN (lack))))(. (?))))) |ET| 
-1  |BT| (ROOT (ROOT (SBARQ (WHNP (WP (what)))(SQ (VBZ (be))(NP (NP (DT (a))(NN (example)))(PP (IN (of))(NP (DT (a))(JJ (natural))(NN (acid-base))(NN (indicator))))))(. (?))))) |ET| 
-1  |BT| (ROOT (ROOT (SBARQ (WHNP (WP (what)))(SQ (VBZ (be))(NP (NP (DT (a))(JJ (perfect))(NN (score)))(PP (IN (in))(NP (DT (a))(NNS (gymnastics))(NN (exercise))))))(. (?))))) |ET| 
1  |BT| (ROOT (ROOT (SQ (VP (VB (define))(NP (DT (the))(NNP (pheonix))(NNP (club))))(. (?))))) |ET| 
1  |BT| (ROOT (ROOT (SBARQ (WHNP (WDT (what))(NP (NN (revelation))))(SQ (VBD (do))(NP (NNP (alexander))(NNP (butterfield)))(VP (VB (make))(PP (TO (to))(NP (DT (the))(NNP (senate))(NNP (watergate))(NN (committee))))))(. (?))))) |ET| 
1  |BT| (ROOT (ROOT (SBARQ (WHNP (WDT (what))(NP (NN (clause))(PP (IN (in))(NP (DT (the))(NNP (u.s.))(NNP (constitution))))))(SQ (VP (MD (may))(RB (not))(VP (VB (be))(VP (VBN (change))(, (,))(VBN (alter))(CC (or))(VBN (amend))))))(. (?))))) |ET| 
-1  |BT| (ROOT (ROOT (SBARQ (WHADVP (WRB (how))(RB (far))(RB (away)))(SQ (VBZ (be))(NP (DT (the))(NN (moon))))(. (?))))) |ET| 
-0.7403930033865692150740756005689  |BT| (ROOT (ROOT (SBARQ (WHNP (WDT (what))(NP (NP (NNS (appointment))(NN (secretary)))(PP (TO (to))(NP (NNP (richard))(NNP (nixon))))))(SQ (VP (VBD (go))(PP (TO (to))(NP (NN (jail))))))(. (?))))) |ET| 
-0.32421018597198630883937653379689  |BT| (ROOT (ROOT (S (NP (NP (DT (the))(JJ (italian))(NN (artist)))(, (,))(NP (NNP (maurizio))(NNP (pellegrin)))(, (,)))(VP (VBZ (be))(WHADJP (WRB (how))(JJ (old))))(. (?))))) |ET| 
1  |BT| (ROOT (ROOT (SBARQ (WHNP (WP (what)))(SQ (VBP (be))(NP (NP (DT (the))(NNS (benefit)))(PP (IN (of))(NP (DT (a))(NN (rowing))(NN (machine))))))(. (?))))) |ET| 
1  |BT| (ROOT (ROOT (SBARQ (WHNP (WP (what)))(SQ (VBZ (be))(NP (NP (DT (a))(`` (``))(NN (node))('' ('')))(PP (IN (in))(NP (NN (computer))(NNS (term))))))(. (?))))) |ET| 
1  |BT| (ROOT (ROOT (SBARQ (WHNP (WP (what)))(SQ (VBP (be))(NP (NP (DT (a))(NN (baseball))(NN (team))(POS ('s)))(NNS (fireman))))(. (?))))) |ET| 
-1  |BT| (ROOT (ROOT (SBARQ (WHNP (WP (what)))(SQ (VBP (be))(NP (DT (the))(JJ (main))(NN (blood))(NNS (vessel))))(. (?))))) |ET| 
-1  |BT| (ROOT (ROOT (SBARQ (WHNP (WP (what)))(SQ (VBP (be))(NP (DT (the))(JJ (nordic))(NNS (nation))))(. (?))))) |ET| 
-1  |BT| (ROOT (ROOT (SBARQ (WHNP (WP (what)))(SQ (VBP (be))(NP (NP (NNP (halloween))(POS ('s)))(NNS (color))))(. (?))))) |ET| 
1  |BT| (ROOT (ROOT (SBARQ (WHADJP (WRB (how))(JJ (successful)))(SQ (VBZ (be))(NP (NN (arometherapy))))(. (?))))) |ET| 
1  |BT| (ROOT (ROOT (SBARQ (WHNP (WP (what)))(SQ (VP (VBZ (happen))(PP (TO (to))(NP (DT (the))(JJ (female))(NN (body))))(PP (IN (with))(NP (NP (NN (lack)))(PP (IN (of))(NP (NN (sleep))(CC (and))(NN (food))))))))(. (?))))) |ET| 
1  |BT| (ROOT (ROOT (SBARQ (WHADVP (WRB (how)))(SQ (MD (can))(NP (PRP (i)))(VP (VB (find))(PRT (RP (out)))(SBAR (WHADJP (WRB (how))(JJ (much)))(S (NP (PRP (it)))(VP (VBZ (cost))(S (VP (TO (to))(VP (VB (raise))(NP (NP (DT (a))(NN (baby)))(PP (IN (for))(NP (CD (six))(NNS (month)))))))))))))(. (?))))) |ET| 
-0.55062791644185515860243640418048  |BT| (ROOT (ROOT (SBARQ (WHADJP (WRB (how))(JJ (fast)))(SQ (VBZ (be))(NP (NN (light))))(. (?))))) |ET| 
-0.25658414848377741890317338402383  |BT| (ROOT (ROOT (SBARQ (WHADJP (WRB (how))(JJ (big)))(SQ (VBZ (be))(NP (NNP (australia))))(. (?))))) |ET| 
-0.81160556699633112920366784237558  |BT| (ROOT (ROOT (SBARQ (WHADJP (WRB (how))(JJ (loud)))(SQ (VBZ (be))(NP (NN (thunder))))(. (?))))) |ET| 
1  |BT| (ROOT (ROOT (SBARQ (WHNP (WP (what)))(SQ (VBP (be))(NP (DT (the))(JJ (low))(NNS (country))))(. (?))))) |ET| 
1  |BT| (ROOT (ROOT (SBARQ (WHNP (WP (what)))(SQ (VBP (be))(NP (DT (the))(NNPS (poconos))))(. (?))))) |ET| 
1  |BT| (ROOT (ROOT (SBARQ (WHNP (WP (what)))(SQ (VBP (be))(NP (DT (the))(JJ (greek))(NNS (numeral))))(. (?))))) |ET| 
-1  |BT| (ROOT (ROOT (SBARQ (WHNP (WP (what)))(SQ (VBP (be))(NP (NP (DT (the))(NNS (dimension)))(PP (IN (of))(NP (DT (a))(NN (ice))(NN (hockey))(NN (goal))))))(. (?))))) |ET| 
-1  |BT| (ROOT (ROOT (SBARQ (WHNP (WP (what)))(SQ (VBP (be))(NP (NP (DT (the))(JJ (different))(NNS (type)))(PP (IN (of))(NP (NN (plastic))))))(. (?))))) |ET| 
