SVM-light Version V5.01-TK-1.5
5 # kernel type
3 # kernel parameter -d 
1 # kernel parameter -g 
1 # kernel parameter -s 
1 # kernel parameter -r 
empty# kernel parameter -u 
0.4 # kernel parameter -L 
1 # kernel parameter -T 
T # kernel parameter -C 
2 # kernel parameter -F 
1 # kernel parameter -S 
0.400000 # kernel parameter -M 
3 # kernel parameter -N 
S # kernel parameter -V 
S # kernel parameter -W 
0 # kernel parameter -U 
10 # highest feature index 
5451 # number of training documents 
2909 # number of support vectors plus 1 
0.45424091 # threshold b, each following line is a SV (starting with alpha*y)
0.70873010486390786155652676825412  |BT| (ROOT (ROOT (SBARQ (WHNP (WP (what)))(SQ (VBP (do))(NP (NNS (human)))(VP (VB (catch))(NP (NN (zoonose))(NNS (disease)))(PP (IN (from)))))(. (?))))) |ET| 
1  |BT| (ROOT (ROOT (SBARQ (WHNP (WDT (what))(NNP (muhammad))(NNP (ali))(NN (maneuver)))(SQ (VBD (be))(NP (NNP (george))(NNP (foreman)))(NP (NP (DT (the))(JJ (first))(NN (victim)))(PP (IN (of)))))(. (?))))) |ET| 
-0.48881294260425356412724795518443  |BT| (ROOT (ROOT (SBARQ (WHNP (WP (what)))(SQ (VBP (be))(NP (NN (liver))(NNS (enzyme))))(. (?))))) |ET| 
-0.70299133080398701345359313563677  |BT| (ROOT (ROOT (SBARQ (WHNP (WDT (what))(NN (incident)))(SQ (VP (VBD (cause))(NP (NP (DT (the))(NN (canning)))(PP (IN (of))(NP (NP (DT (a))(NN (summit))(NN (conference)))(PP (IN (between))(NP (NNP (eisenhower))(CC (and))(NNP (khrushchev)))))))))(. (?))))) |ET| 
-1  |BT| (ROOT (ROOT (SBARQ (WHNP (WP (what)))(SQ (VBD (do))(NP (DT (the))(JJ (only))(NP (NP (VBD (repeal))(NN (amendment)))(PP (TO (to))(NP (DT (the))(NNP (u.s.))(NNP (constitution))))))(VP (VB (deal))(PP (IN (with)))))(. (?))))) |ET| 
1  |BT| (ROOT (ROOT (SBARQ (WHNP (WDT (what))(NNS (film)))(SQ (VP (VBD (feature))(S (NP (DT (the))(NN (character)))(NP (NNP (popeye))(NNP (doyle))))))(. (?))))) |ET| 
1  |BT| (ROOT (ROOT (SBARQ (WHNP (WDT (what))(NN (fowl)))(SQ (VP (VBZ (grab))(NP (DT (the))(NN (spotlight)))(PP (IN (after))(NP (NP (DT (the))(JJ (chinese))(NN (year)))(PP (IN (of))(NP (DT (the))(NNP (monkey))))))))(. (?))))) |ET| 
1  |BT| (ROOT (ROOT (SBARQ (WHNP (WP (what)))(SQ (VBZ (be))(VP (VBN (consider))(NP (NP (DT (the))(JJS (costliest))(NN (disaster)))(SBAR (S (NP (DT (the))(NN (insurance))(NN (industry)))(VP (VBZ (have))(ADVP (RB (ever)))(VP (VBN (face)))))))))(. (?))))) |ET| 
1  |BT| (ROOT (ROOT (SBARQ (WHNP (WHNP (WDT (what))(NNS (article)))(PP (IN (of))(NP (NN (clothing)))))(SQ (VBP (be))(NP (NP (NNS (token)))(PP (IN (in))(NP (NNP (monopoly))))))(. (?))))) |ET| 
1  |BT| (ROOT (ROOT (SBARQ (WHNP (WP (what)))(SQ (VBZ (be))(NP (NP (DT (the))(JJ (second-most-used))(NN (vowel)))(PP (IN (in))(NP (NNP (english))))))(. (?))))) |ET| 
-0.047899976808741556721926713180437  |BT| (ROOT (ROOT (SBARQ (WHNP (WDT (what))(JJ (future))(NN (president)))(SQ (VP (VBD (become))(NP (NNP (senate))(NN (majority))(NN (whip)))(PP (IN (under))(NP (NNP (harry))(NNP (truman))))))(. (?))))) |ET| 
0.37737277018904924474895778985228  |BT| (ROOT (ROOT (SBARQ (WHNP (WDT (what))(NN (film)))(SQ (VBD (be))(NP (NNP (jude))(NNP (law)))(PP (IN (in))))(. (?))))) |ET| 
-0.74096792400042588155884004663676  |BT| (ROOT (ROOT (SBARQ (WHNP (WP (what)))(SQ (VBZ (be))(NP (NP (DT (the))(JJ (second-highest))(NN (mountain)))(PP (IN (in))(NP (DT (the))(NN (world))))))(. (?))))) |ET| 
1  |BT| (ROOT (ROOT (SBARQ (WHADVP (WRB (how)))(SQ (VBP (do))(NP (PRP (you)))(VP (VB (say))(NP (CD (2)))(PP (IN (in))(NP (NNP (latin))))))(. (?))))) |ET| 
1  |BT| (ROOT (ROOT (SBARQ (WHADVP (WRB (how)))(SQ (VBP (do))(NP (PRP (you)))(VP (VB (say))(, (,))(`` (``))(S (NP (PRP (i)))(VP (VBP (love))(NP (PRP (you)))('' (''))(PP (IN (in))(NP (JJ (other))(NNS (language))))))))(. (?))))) |ET| 
1  |BT| (ROOT (ROOT (SBARQ (WHADVP (WRB (how)))(SQ (VBP (do))(NP (PRP (you)))(VP (VB (say))(NP (CD (2)))(PP (IN (in))(NP (NNP (latin))))))(. (?))))) |ET| 
-0.52832313197047375830095461424207  |BT| (ROOT (ROOT (SBARQ (WHNP (WDT (what))(NN (group)))(SQ (VP (VBD (ask))(SBAR (S (NP (DT (the))(JJ (musical))(NN (question)))(VP (VBP (do))(S (NP (PRP (you)))(VP (VB (believe))(PP (IN (in))(NP (NNP (magic)))))))))))(. (?))))) |ET| 
-0.055204318176807654072746345264022  |BT| (ROOT (ROOT (SBARQ (WHNP (WDT (what))(JJ (famous))(NNP (new))(NNP (york))(NNP (city))(NN (mayor)))(SQ (VP (VBD (write))(NP (NP (DT (the))(NN (hit))(NN (song)))(, (,))(`` (``))(SINV (MD (will))(NP (PRP (you)))(VP (NNP (love))(PP (NP (PRP (i)))(IN (in))(NP (NP (NNP (december)))(SBAR (IN (as))(S (NP (PRP (you)))(VP (VBP (do))(PP (IN (in))(NP (NNP (may))))))))))))))(. (?))('' (''))))) |ET| 
-1  |BT| (ROOT (ROOT (SBARQ (WHNP (WHNP (WDT (what))(NN (kind)))(PP (IN (of))(NP (NNS (people)))))(SQ (VP (VBD (take))(NP (NN (part)))(PP (IN (in))(NP (NP (NP (NNP (shays))(POS (')))(NN (rebellion)))(PP (IN (in))(NP (NNP (massachusetts))))))(PP (IN (in))(NP (CD (1787))))))(. (?))))) |ET| 
1  |BT| (ROOT (ROOT (SBARQ (WHNP (WP (what)))(SQ (VBZ (be))(NP (NP (DT (the))(JJS (largest))(NN (snake)))(PP (IN (in))(NP (DT (the))(NN (world))))))(. (?))))) |ET| 
1  |BT| (ROOT (ROOT (SBARQ (WHNP (WP (what)))(SQ (VBZ (be))(NP (NP (DT (the))(JJS (fastest))(NN (fish)))(PP (IN (in))(NP (DT (the))(NN (world))))))(. (?))))) |ET| 
1  |BT| (ROOT (ROOT (SBARQ (WHNP (WP (what)))(SQ (VBZ (be))(NP (NP (DT (the))(JJS (largest))(NN (sculpture)))(PP (IN (in))(NP (DT (the))(NN (world))))))(. (?))))) |ET| 
-1  |BT| (ROOT (ROOT (SBARQ (WHNP (WP (what)))(SQ (VBZ (be))(NP (NP (DT (the))(JJS (largest))(NN (museum)))(PP (IN (in))(NP (DT (the))(NN (world))))))(. (?))))) |ET| 
-0.62443761789673268847167264539166  |BT| (ROOT (ROOT (SBARQ (WHNP (WDT (what))(NN (state)))(SQ (VBZ (be))(VP (VBN (know))(PP (IN (as))(NP (DT (the))(NNP (hawkeye))(NNP (state))))))(. (?))))) |ET| 
-0.58348481510379746062255890137749  |BT| (ROOT (ROOT (SBARQ (WHNP (WDT (what))(NN (river)))(SQ (VP (VBZ (run))(PP (IN (through))(NP (NNP (liverpool))))))(. (?))))) |ET| 
1  |BT| (ROOT (ROOT (SBARQ (WHNP (WDT (what))(NN (sport)))(SQ (MD (can))(NP (DT (a))(JJ (free-legged))(NN (pacer)))(VP (VB (compete))(PP (IN (in)))))(. (?))))) |ET| 
1  |BT| (ROOT (ROOT (SBARQ (WHPP (IN (on))(WHNP (WDT (which))(NN (flight))))(SQ (VBD (do))(NP (NNP (fawaz))(NNP (younis)))(VP (VB (commit))(NP (NP (NN (air))(NN (piracy))(CC (and))(NN (hostage)))(VP (VBG (take))))))(. (?))))) |ET| 
1  |BT| (ROOT (ROOT (S (VP (VB (name))(NP (DT (a))(JJ (gaelic))(NN (language))))(. (.))))) |ET| 
-1  |BT| (ROOT (ROOT (S (VP (VB (name))(NP (DT (a))(JJ (civil))(NN (war))(NN (battlefield))))(. (.))))) |ET| 
-0.59913996615716691440667318602209  |BT| (ROOT (ROOT (S (VP (VB (name))(NP (DT (a))(JJ (female))(NN (figure))(NN (skater))))(. (.))))) |ET| 
-1  |BT| (ROOT (ROOT (S (VP (VB (name))(NP (DT (a))(JJ (french))(JJ (fascist))(NN (party))))(. (.))))) |ET| 
1  |BT| (ROOT (ROOT (SBARQ (WHNP (WP (what)))(SQ (VBZ (be))(NP (NP (DT (the))(ADJP (RBS (most))(JJ (expensive)))(NN (car)))(PP (IN (in))(NP (DT (the))(NN (world))))))(. (?))))) |ET| 
1  |BT| (ROOT (ROOT (SBARQ (WHNP (WP (what)))(SQ (VBZ (be))(NP (NP (DT (the))(RBS (most))(JJ (common))(JJ (non-contagious))(NN (disease)))(PP (IN (in))(NP (DT (the))(NN (world))))))(. (?))))) |ET| 
1  |BT| (ROOT (ROOT (SBARQ (WHNP (WP (what)))(SQ (VBZ (be))(NP (NP (DT (the))(ADJP (RBS (most))(JJ (advanced)))(JJ (handheld))(NN (calculator)))(PP (IN (in))(NP (DT (the))(NN (world))))))(. (?))))) |ET| 
-1  |BT| (ROOT (ROOT (SBARQ (WHNP (WP (what)))(SQ (VBZ (be))(NP (NP (DT (the))(ADJP (RBS (most))(JJ (useful)))(NN (site)))(PP (IN (on))(NP (DT (the))(NN (internet))))))(. (?))))) |ET| 
-0.06912601712570447254346817089754  |BT| (ROOT (ROOT (SBARQ (WHNP (WP (what)))(SQ (VP (VBZ (do))(SBAR (S (NP (NNP (ms.))(, (,))(NNP (miss))(, (,))(CC (and))(NNP (mrs.)))(VP (VBP (stand))(PP (IN (for))))))))(. (?))))) |ET| 
-0.73500948943550670211521946839639  |BT| (ROOT (ROOT (SBARQ (WHNP (WP (what)))(SQ (VBZ (be))(NP (NP (DT (the))(ADJP (RBS (most))(JJ (populated)))(NN (city)))(PP (IN (in))(NP (DT (the))(NN (world))))))(. (?))))) |ET| 
1  |BT| (ROOT (ROOT (S (VP (VB (name))(NP (DT (a))(VBG (fly))(NN (mammal))))(. (.))))) |ET| 
1  |BT| (ROOT (ROOT (S (VP (VB (name))(NP (DT (a))(ADJP (NNP (salt))(NNP (lake)))(NNP (city))(NN (newspaper))))(. (.))))) |ET| 
1  |BT| (ROOT (ROOT (S (VP (VB (name))(NP (DT (a))(ADJP (JJ (american))(VBN (make)))(NN (motorcycle))))(. (.))))) |ET| 
-0.089993352699309192566090587206418  |BT| (ROOT (ROOT (S (VP (VB (define))(NP (NNP (sinn))(NNP (fein))))(. (.))))) |ET| 
-0.45196000473477559999935238010949  |BT| (ROOT (ROOT (SBARQ (WHNP (WP (what)))(SQ (VBZ (be))(NP (NP (DT (the))(JJ (biblical))(NN (meaning)))(PP (IN (of))(`` (`))(NP (NNS (stone)))(POS (')))))(. (?))))) |ET| 
-0.11000624320345907258822393259834  |BT| (ROOT (ROOT (SBARQ (WHADVP (WRB (how)))(SQ (VBD (do))(NP (NNP (u.s.a)))(VP (VB (become))(VP (VBN (involve))(PP (IN (in))(NP (DT (the))(NNP (barbary))(NNS (war)))))))))) |ET| 
1  |BT| (ROOT (ROOT (SBARQ (WHNP (WP (what)))(SQ (VBZ (be))(NP (NP (DT (the))(ADJP (RBS (most))(JJ (abundant)))(NN (element)))(PP (IN (in))(NP (DT (the))(NN (sun))))))(. (?))))) |ET| 
1  |BT| (ROOT (ROOT (SBARQ (WHNP (WP (what)))(SQ (VBZ (be))(NP (NP (DT (the))(JJS (weakest))(NN (bone)))(PP (IN (in))(NP (DT (the))(NN (body))))))(. (?))))) |ET| 
1  |BT| (ROOT (ROOT (SBARQ (WHNP (WP (what)))(SQ (VBZ (be))(NP (NP (DT (the))(ADJP (RBS (most))(JJ (powerful)))(NN (card)))(PP (IN (in))(NP (NNP (euchre))))))(. (?))))) |ET| 
-0.86640134244044719746824512185412  |BT| (ROOT (ROOT (SBARQ (WHNP (WP (what)))(SQ (VBZ (be))(NP (NP (DT (the))(JJS (highest))(NN (peak)))(PP (IN (in))(NP (NNP (africa))))))(. (?))))) |ET| 
-1  |BT| (ROOT (ROOT (SBARQ (WHNP (WP (what)))(SQ (VBZ (be))(NP (NP (DT (the))(JJS (tallest))(NN (building)))(PP (IN (in))(NP (NNP (japan))))))(. (?))))) |ET| 
-1  |BT| (ROOT (ROOT (SBARQ (WHNP (WP (what)))(SQ (VBZ (be))(NP (NP (DT (the))(JJS (longest))(NN (river)))(PP (IN (in))(NP (NNP (canada))))))(. (?))))) |ET| 
1  |BT| (ROOT (ROOT (S (VP (VB (name))(NP (CD (four))(JJ (famous))(NN (cartoon))(NNS (cat))))(. (.))))) |ET| 
1  |BT| (ROOT (ROOT (S (VP (VB (name))(S (NP (NP (NNP (li))(POS (')))(NP (NP (NN (l)))(NP (NP (NNP (abner))(POS ('s)))(JJ (favorite))(JJ (indian))(NN (drink)))))))(. (.))))) |ET| 
1  |BT| (ROOT (ROOT (S (VP (VB (name))(NP (DT (a))(NNP (sioux))(NN (language))))(. (.))))) |ET| 
-0.42116088907630361282130593281181  |BT| (ROOT (ROOT (S (VP (VB (name))(NP (CD (11))(JJ (famous))(NNS (martyr))))(. (.))))) |ET| 
1  |BT| (ROOT (ROOT (SBARQ (WHNP (WDT (what))(JJ (late-night))(NN (tv))(NN (show)))(SQ (VBZ (feature))(NP (NP (NNP (larry))(, (,))(NNP (bud))(, (,))(NNP (melman))(CC (and))(NNP (toast)))(PP (IN (on))(NP (DT (a))(NNP (stick))))))(. (?))))) |ET| 
-0.70518886037293537771830642668647  |BT| (ROOT (ROOT (S (VP (VB (name))(NP (NP (NNP (dondi))(POS ('s)))(JJ (adoptive))(NN (grandfather))))(. (.))))) |ET| 
1  |BT| (ROOT (ROOT (SBARQ (WHNP (WP (what)))(SQ (VBZ (be))(NP (NP (DT (the))(JJ (second-biggest-selling))(NN (magazine)))(PP (IN (in))(NP (NNP (america))))))(. (?))))) |ET| 
1  |BT| (ROOT (ROOT (SBARQ (WHNP (WP (what)))(SQ (VBZ (be))(NP (NP (DT (the))(JJ (official))(NN (animal)))(PP (IN (of))(NP (NNP (canada))))))(. (?))))) |ET| 
1  |BT| (ROOT (ROOT (SBARQ (WHNP (WP (what)))(SQ (VBZ (be))(NP (NP (DT (the))(JJS (highest))(NN (hand)))(PP (IN (in))(NP (JJ (straight))(NN (poker))))))(. (?))))) |ET| 
-1  |BT| (ROOT (ROOT (SBARQ (WHNP (WP (what)))(SQ (VBZ (be))(NP (NP (DT (the))(RBS (most))(JJ (common))(NN (surname)))(PP (IN (in))(NP (NNP (america))))))(. (?))))) |ET| 
-1  |BT| (ROOT (ROOT (SBARQ (WHNP (WP (what)))(SQ (VBZ (be))(NP (NP (DT (the))(JJ (full))(NN (name)))(PP (IN (of))(NP (DT (the))(NNP (plo))))))(. (?))))) |ET| 
-1  |BT| (ROOT (ROOT (SBARQ (WHNP (WP (what)))(SQ (VBZ (be))(NP (NP (DT (the))(ADJP (RBS (most))(JJ (common)))(NN (street))(NN (name)))(PP (IN (in))(NP (NNP (america))))))(. (?))))) |ET| 
1  |BT| (ROOT (ROOT (S (VP (VB (name))(NP (NP (DT (the))(NN (ship)))(SBAR (S (NP (NNP (beany))(CC (and))(NNP (cecil)))(VP (VBD (sail)))))))(. (.))))) |ET| 
1  |BT| (ROOT (ROOT (S (VP (VB (name))(NP (NP (DT (a))(NN (tiger)))(SBAR (WHNP (WDT (that)))(S (VP (VBZ (be))(ADJP (JJ (extinct))))))))(. (.))))) |ET| 
0.47634471398744099301936216761533  |BT| (ROOT (ROOT (S (VP (VB (name))(NP (NP (DT (a))(JJ (novel)))(VP (VBN (write))(PP (IN (by))(NP (NNP (john))(NNP (steinbeck)))))))(. (.))))) |ET| 
-1  |BT| (ROOT (ROOT (S (VP (VB (name))(NP (NP (DT (the))(NN (organization)))(SBAR (WHNP (WDT (that)))(S (VP (VBZ (be))(VP (VBN (preside))(PP (IN (by))(NP (DT (a))(NNP (security))(NNP (council))))))))))(. (.))))) |ET| 
-0.19242750736061708938251513245632  |BT| (ROOT (ROOT (S (VP (VB (name))(S (NP (DT (a))(JJ (canine))(NN (cartoon))(NN (character)))(ADJP (JJ (other))))(SBAR (IN (than))(S (NP (NNP (huckleberry))(NNP (hound)))(VP (TO (to))(VP (VB (have))(NP (DT (a))(NN (voice)))(PP (IN (by))(NP (NNP (daws))(NNP (butler)))))))))(. (.))))) |ET| 
-1  |BT| (ROOT (ROOT (S (VP (VB (name))(NP (NP (DT (a))(NN (band)))(SBAR (WHNP (WDT (which)))(S (VP (VBD (be))(ADJP (JJ (famous))(PP (IN (in))(NP (NP (DT (the)))(NP (CD (1960))(POS ('s)))))))))))(. (.))))) |ET| 
1  |BT| (ROOT (ROOT (SBARQ (WHNP (WP (what)))(SQ (VBZ (be))(NP (NP (DT (the))(JJ (former))(NN (name)))(PP (IN (of))(NP (NNP (zimbabwe))))))(. (?))))) |ET| 
1  |BT| (ROOT (ROOT (SBARQ (WHNP (WP (what)))(SQ (VBZ (be))(NP (NP (DT (the))(NN (sequel)))(PP (TO (to))(NP (NP (NP (NNP (alice))(POS ('s)))(NNS (adventure)))(PP (IN (in))(NP (NNP (wonderland))))))))(. (?))))) |ET| 
1  |BT| (ROOT (ROOT (SBARQ (WHNP (WP (what)))(SQ (VBZ (be))(NP (NP (JJ (bottled)))(PP (IN (in))(NP (NNS (jeroboam))))))(. (?))))) |ET| 
-1  |BT| (ROOT (ROOT (SBARQ (WHNP (WP (what)))(SQ (VBZ (be))(NP (NP (DT (the))(NN (weight)))(PP (IN (of))(NP (NN (air))))))(. (?))))) |ET| 
-0.11284324628866225503909248573109  |BT| (ROOT (ROOT (SBARQ (WHADVP (WRB (where)))(SQ (VBZ (be))(NP (NP (DT (the))(NN (world))(NN (championship))(NN (sled)))(SBAR (S (NP (NN (dog))(NN (race)))(VP (VBD (hold))(NP (DT (each)))(NP-TMP (NNP (february))))))))(. (?))))) |ET| 
-0.45093344941219865029680136103707  |BT| (ROOT (ROOT (SBARQ (WHNP (WRB (how))(RB (much)))(SQ (VBZ (do))(NP (PRP (it)))(VP (VP (VB (cost)))(, (,))(NP (NP (JJ (average)))(CC (or))(SBAR (WHNP (WDT (whatever)))(S (VP (VBZ (be))(ADJP (JJ (available)))(, (,))(S (TO (to))(VP (VB (produce))(CC (and))(VB (send))(NP (NN (junk))(NN (mail))(NNS (catalogue)))(PP (IN (in))(NP (DT (the))(NNP (us))))))))))))(. (?))))(ROOT (PRN (, (,))(NP (NNP (dt))(NNP (cd))(NNP (nn))(NNP (nn)))(, (,))))) |ET| 
1  |BT| (ROOT (ROOT (S (VP (VB (name))(NP (NP (DT (the))(NNS (man))(POS ('s)))(NN (cologne))(SBAR (WHNP (WDT (that)))(S (VP (VBZ (be))(VP (VBN (associate))(PP (IN (with))(NP (DT (the))(NN (sea))))))))))(. (.))))) |ET| 
1  |BT| (ROOT (ROOT (S (VP (VB (name))(NP (NP (DT (the))(NN (operating))(NN (system)))(SBAR (WHNP (WDT (that)))(S (VP (VBZ (run))(PP (IN (on))(NP (JJ (ibm-compatible))(NNS (machine)))))))))(. (.))))) |ET| 
1  |BT| (ROOT (ROOT (S (VP (VB (name))(NP (DT (the))(JJ (islamic))(NN (counterpart)))(PP (TO (to))(NP (DT (the))(NNP (red))(NNP (cross)))))(. (.))))) |ET| 
-1  |BT| (ROOT (ROOT (S (VP (VB (name))(NP (NP (DT (the))(NN (cartoon))(NN (genie)))(VP (VBN (conjure))(PP (IN (by))(NP (NP (DT (the))(JJ (magic))(NN (ring)))(VP (VBN (share))(PP (IN (by))(NP (NNP (nancy))(CC (and))(NNP (chuck))))))))))(. (.))))) |ET| 
-0.15093621110887567304814638191601  |BT| (ROOT (ROOT (SBARQ (WHNP (WP (what)))(SQ (VBZ (be))(NP (DT (a))(NN (stratocaster))))(. (?))))) |ET| 
-1  |BT| (ROOT (ROOT (S (VP (VB (name))(NP (DT (the))(JJS (highest))(NN (mountain))))(. (.))))) |ET| 
0.35059415033641899706040589990153  |BT| (ROOT (ROOT (SBARQ (WHNP (WP (what)))(SQ (VBZ (be))(NP (NP (DT (a))(NN (fear)))(PP (IN (of))(NP (NN (weakness))))))(. (?))))) |ET| 
0.61066135069531313206425693351775  |BT| (ROOT (ROOT (SBARQ (WHNP (WP (what)))(SQ (VBZ (be))(NP (NP (DT (a))(NN (fear)))(PP (IN (of))(NP (NN (thunder))))))(. (?))))) |ET| 
-0.40659796077757670573760151455645  |BT| (ROOT (ROOT (SBARQ (WHNP (WDT (what))(NNP (southern))(NNP (california))(NN (town)))(SQ (VBZ (be))(VP (VBN (name))(SBAR (IN (after))(S (NP (DT (a))(NN (character)))(VP (VBD (make))(ADJP (JJ (famous)))(PP (IN (by))(NP (NNP (edgar))(NNP (rice))(NNP (burroughs)))))))))(. (?))))) |ET| 
-1  |BT| (ROOT (ROOT (SBARQ (WHNP (WP (what)))(SQ (VBZ (be))(NP (NP (DT (a))(NN (cake)))(PP (IN (of))(NP (NN (soap))))))(. (?))))) |ET| 
-1  |BT| (ROOT (ROOT (SBARQ (WHNP (WP (what)))(SQ (VBZ (be))(NP (NP (DT (a))(NN (specimen)))(PP (IN (of))(NP (NNS (basidiomycete))))))(. (?))))) |ET| 
-0.39994066241564452113266270316672  |BT| (ROOT (ROOT (SBARQ (WHNP (WP (what)))(SQ (VBZ (be))(NP (DT (a))(JJ (handheld))(NN (pc))))(. (?))))) |ET| 
1  |BT| (ROOT (ROOT (S (VP (VB (name))(NP (NP (DT (the))(NN (vessel)))(VP (VBN (use))(PP (IN (by))(NP (NP (DT (the))(NNP (atari))(NNP (force)))(PP (IN (in))(NP (DT (the))(NN (dc))(NNS (comic)))))))))(. (.))))) |ET| 
1  |BT| (ROOT (ROOT (S (VP (VB (name))(NP (NP (DT (the))(JJ (only))(JJ (extant))(NN (trilogy)))(PP (IN (of))(NP (JJ (classical))(JJ (greek))(NNS (play))))))(. (.))))) |ET| 
1  |BT| (ROOT (ROOT (SBARQ (WHADVP (WRB (where)))(SQ (VBZ (do))(NP (PRP$ (you))(NN (hair)))(VP (VB (grow))(NP (DT (the))(JJS (fastest)))))(. (?))))) |ET| 
-1  |BT| (ROOT (ROOT (S (VP (VB (name))(NP (DT (the))(JJ (blind))(NN (sculptress)))(PP (IN (in))(NP (NP (NN (love)))(PP (IN (with))(NP (NP (DT (the))(NNP (fantastic))(NNP (four))(POS ('s)))(NNP (thing)))))))(. (.))))) |ET| 
-1  |BT| (ROOT (ROOT (S (VP (VB (name))(NP (NP (DT (the))(CD (four))(NNPS (horsemen)))(PP (IN (of))(NP (DT (the))(NNP (apocalypse))))))(. (.))))) |ET| 
-0.19007962373223941110467194448574  |BT| (ROOT (ROOT (S (VP (VB (name))(NP (NP (DT (the))(CD (two))(NN (actress))(NNS (daughter)))(PP (IN (of))(NP (NNP (john))(NNP (mills))))))(. (.))))) |ET| 
1  |BT| (ROOT (ROOT (SBARQ (WHNP (WP (what)))(SQ (VBZ (be))(NP (NP (DT (the))(NN (mission)))(PP (IN (of))(NP (NNP (nike))))))(. (?))))) |ET| 
1  |BT| (ROOT (ROOT (SBARQ (WHNP (WP (what)))(SQ (VBZ (be))(NP (NP (NNP (november))(POS ('s)))(NN (birthstone))))(. (?))))) |ET| 
1  |BT| (ROOT (ROOT (SBARQ (WHNP (WP (what)))(SQ (VBZ (be))(NP (NP (NNP (april))(POS ('s)))(NN (gemstone))))(. (?))))) |ET| 
-0.59359123608952257811210984073114  |BT| (ROOT (ROOT (SBARQ (WHNP (WP (what)))(SQ (VBZ (be))(NP (NP (NNP (june))(POS ('s)))(NN (birthstone))))(. (?))))) |ET| 
-0.16994000403239706287195076583885  |BT| (ROOT (ROOT (SBARQ (WHNP (WP (what)))(SQ (VBZ (be))(NP (NP (NNP (megan))(POS ('s)))(NN (law))))(. (?))))) |ET| 
-0.49917859891807381256256803681026  |BT| (ROOT (ROOT (SBARQ (WHNP (WDT (what))(JJ (19th-century))(NN (painter)))(SQ (VP (VBD (die))(PP (IN (in))(NP (DT (the))(NNP (marquesas))(NNPS (islands))))))(. (?))))) |ET| 
1  |BT| (ROOT (ROOT (S (VP (VB (name))(NP (NP (CD (one)))(PP (IN (of))(NP (NP (DT (the))(CD (seven))(NNS (wonder)))(PP (IN (of))(NP (DT (the))(NNP (ancient))(NNP (world))))))))(. (.))))) |ET| 
1  |BT| (ROOT (ROOT (S (VP (VB (name))(NP (DT (the))(JJ (french))(JJ (historical))(NN (period)))(PP (IN (during))(NP (NP (DT (the))(NN (reign)))(PP (IN (of))(NP (NNP (napoleon))(NNP (iii)))))))(. (.))))) |ET| 
1  |BT| (ROOT (ROOT (S (VP (VB (name))(NP (NP (DT (the))(CD (two))(JJ (mystical))(NNS (raven)))(SBAR (S (NP (NNP (odin)))(VP (VBZ (have))(VP (PP (IN (at))(NP (PRP$ (he))(NN (command))))))))))(. (.))))) |ET| 
-1  |BT| (ROOT (ROOT (S (VP (VB (name))(NP (NP (CD (one)))(PP (IN (of))(NP (NP (DT (the))(JJ (major))(NNS (god)))(PP (IN (of))(NP (NNP (hinduism))))))))(. (.))))) |ET| 
-1  |BT| (ROOT (ROOT (S (VP (VB (name))(NP (NP (DT (the))(NN (designer)))(PP (IN (of))(NP (NP (DT (the))(NN (shoe)))(SBAR (WHNP (WDT (that)))(S (VP (VBD (spawn))(NP (NP (NNS (million)))(PP (IN (of))(NP (NP (JJ (plastic))(NNS (imitation)))(, (,))(VP (VBN (know))(PP (IN (as))(`` (`))(NP (NNS (jelly))))))))(S (NP (POS (')))))))))))(. (.))))) |ET| 
-1  |BT| (ROOT (ROOT (S (VP (VB (name))(SBAR (S (NP (DT (the))(NN (child)))(VP (VBD (leave))(PP (IN (on))(NP (DT (a))(NN (doorstep))))(PP (IN (at))(NP (NP (DT (the))(NN (beginning)))(PP (IN (of))(NP (NN (gasoline))(NNP (alley))))))))))(. (.))))) |ET| 
1  |BT| (ROOT (ROOT (SBARQ (WHNP (WP (what)))(SQ (VBZ (be))(NP (NP (NNP (california))(POS ('s)))(NN (state))(NN (bird))))(. (?))))) |ET| 
1  |BT| (ROOT (ROOT (SBARQ (WHNP (WP (what)))(SQ (VBZ (be))(NP (NP (NP (NNP (dudley))(NNP (do-right))(POS ('s)))(NN (horse))(POS ('s)))(NN (name))))(. (?))))) |ET| 
1  |BT| (ROOT (ROOT (SBARQ (WHNP (WP (what)))(SQ (VBZ (be))(NP (NP (NNP (mississippi))(POS ('s)))(NN (state))(NN (animal))))(. (?))))) |ET| 
-0.83681944943561514804741818807088  |BT| (ROOT (ROOT (SBARQ (WHNP (WP (what)))(SQ (VBZ (be))(NP (NP (NNP (compaq))(POS ('s)))(NN (mission))(NN (statement))))(. (?))))) |ET| 
-0.65468096996697655587382769226679  |BT| (ROOT (ROOT (SBARQ (WHNP (WP (what)))(SQ (VBZ (be))(NP (NP (NP (NNP (michael))(NNP (jackson))(POS ('s)))(NN (father))(POS ('s)))(NN (name))))(. (?))))) |ET| 
-0.073573681824615322355498392425943  |BT| (ROOT (ROOT (SBARQ (WHNP (WP (what)))(SQ (VBZ (be))(NP (JJ (greek))(NN (pita))))(. (?))))) |ET| 
0.69972756657107559874475555261597  |BT| (ROOT (ROOT (S (VP (VB (name))(NP (NP (DT (a))(NN (product)))(SBAR (WHNP (WDT (that)))(S (VP (VBZ (control))(NP (NP (DT (the))(JJ (ripening)))(PP (IN (of))(NP (NNS (apple))))))))))(. (.))))) |ET| 
1  |BT| (ROOT (ROOT (S (VP (VB (name))(NP (NP (DT (the))(CD (5))(NNS (word)))(SBAR (WHNP (WDT (that)))(S (VP (VBP (use))(NP (NP (DT (all)))(PP (IN (of))(NP (NP (DT (the))(NNS (letter)))(PP (IN (in))(NP (NP (DT (the))(NN (alphabet)))(, (,))(PP (IN (except))(NP (NNP (q))))(, (,)))))))(PP (IN (with))(NP (DT (no))(NNS (repeat)))))))))(. (.))))) |ET| 
1  |BT| (ROOT (ROOT (SBARQ (WHNP (WP (what)))(SQ (VBD (be))(NP (NP (DT (the))(NN (name)))(PP (IN (of))(NP (NP (DT (the))(JJ (protestant))(NN (revolt)))(PP (IN (against))(NP (NP (DT (the))(NN (supremacy)))(PP (IN (of))(NP (DT (the))(NNP (pope))))))))))(. (?))))) |ET| 
-0.21383824652066360516577958605922  |BT| (ROOT (ROOT (S (VP (VB (name))(NP (NP (DT (the))(CD (five))(NNS (position)))(SBAR (WHNP (WP (who)))(S (VP (VBP (be))(PP (IN (in))(NP (NP (DT (the))(NN (line)))(PP (IN (of))(NP (NN (succession))))))(PP (TO (to))(NP (DT (the))(NN (presidency)))))))))(. (.))))) |ET| 
-1  |BT| (ROOT (ROOT (S (VP (VB (name))(NP (NP (DT (the))(NN (food))(NN (company)))(SBAR (WHNP (WDT (that)))(S (VP (VBD (travel))(PP (TO (to))(NP (JJ (soviet))(NNP (georgia))))(PP (TO (to))(NP (NN (film))))(NP (NP (DT (a))(NN (series)))(PP (IN (of))(NP (NNS (ad))))))))))(. (.))))) |ET| 
-0.58534061095169198640775221065269  |BT| (ROOT (ROOT (SBARQ (WHNP (WHNP (WHNP (WDT (what))(NN (state)))(ADJP (JJ (full))))(PP (IN (of))(NP (NN (milk))(CC (and))(NN (honey)))))(SQ (VBD (be))(NP (NP (DT (the))(NN (destination)))(PP (IN (in))(NP (NP (DT (the))(NNS (grape)))(PP (IN (of))(NP (NN (wrath))))))))(. (?))))) |ET| 
1  |BT| (ROOT (ROOT (SBARQ (WHNP (WP (what)))(SQ (VBZ (be))(NP (NP (NNP (bella))(NNP (abzug))(POS ('s)))(JJ (sartorial))(NN (trademark))))(. (?))))) |ET| 
1  |BT| (ROOT (ROOT (SBARQ (WHNP (WP (what)))(SQ (VBZ (be))(NP (NP (NNP (grenada))(POS ('s)))(JJ (main))(NN (commodity))(NN (export))))(. (?))))) |ET| 
1  |BT| (ROOT (ROOT (SBARQ (WHNP (WP (what)))(SQ (VBZ (be))(NP (NP (NNP (nebraska))(POS ('s)))(ADJP (JJS (most))(JJ (valuable)))(NN (resource))))(. (?))))) |ET| 
-0.20362712840433272454276902863057  |BT| (ROOT (ROOT (SBARQ (WHNP (WP (what)))(SQ (VBZ (be))(NP (NP (NNP (occam))(POS ('s)))(NNP (razor))))(. (?))))) |ET| 
0.370156285071568724731605470879  |BT| (ROOT (ROOT (SBARQ (WHNP (WDT (what))(JJ (english))(NN (word)))(SQ (VP (VBZ (contain))(NP (DT (the))(JJS (most))(NNS (letter)))))(. (?))))) |ET| 
-0.086961601726705195503086542885285  |BT| (ROOT (ROOT (SBARQ (WHNP (WHNP (WDT (what))(NN (city)))(PP (IN (in))(NP (DT (the))(NNP (u.s.)))))(SQ (VP (VBD (experience))(NP (DT (the))(JJS (most))(NN (growth)))(ADVP (RB (recently)))))(. (?))))) |ET| 
1  |BT| (ROOT (ROOT (S (VP (VB (name))(NP (DT (a))(NN (movie)))(SBAR (IN (that))(S (NP (NP (DT (the))(NN (actress)))(, (,))(NP (NNP (sandra))(NNP (bullock)))(, (,)))(VP (VBD (have))(NP (DT (a))(NN (role)))(PP (IN (in)))))))(. (.))))) |ET| 
1  |BT| (ROOT (ROOT (S (VP (VB (name))(NP (NP (DT (a))(NN (movie)))(PP (IN (about))(NP (DT (the))(NNP (sioux))(NNPS (indians)))))(S (VP (VBG (star))(NP (NNP (kevin))(NNP (costner))))))(. (.))))) |ET| 
-0.13671969677940726262121984291298  |BT| (ROOT (ROOT (SBARQ (WHNP (WP (what)))(SQ (VBZ (do))(NP (NP (DT (the))(NN (number))(CD (33)))(PP (IN (on))(NP (DT (the))(NNP (rolling))(NNP (rock))(NN (beer))(NN (bottle)))))(VP (VB (mean))))(. (?))))) |ET| 
-1  |BT| (ROOT (ROOT (SQ (VP (VB (name))(NP (NP (DT (a))(NN (country)))(SBAR (WHNP (WDT (that)))(S (VP (VBZ (be))(VP (VBG (develop))(NP (DT (a))(JJ (magnetic))(NN (levitation))(NN (railway))(NN (system)))))))))(. (?))))) |ET| 
-0.57879714850475905141280463794828  |BT| (ROOT (ROOT (SBARQ (WHADJP (WRB (how))(JJ (many)))(SQ (NP (NNS (claw)))(VP (VBZ (have))(NP (NP (DT (a))(NN (lobster)))(SBAR (S (VP (VBD (call))(NP (NP (DT (a))(NN (pistol)))(VP (VBN (lose))))))))))(. (?))))) |ET| 
-0.041930541132484164257299141809199  |BT| (ROOT (ROOT (SQ (VP (VB (name))(NP (NP (DT (a))(JJ (ballet))(NN (company)))(SBAR (S (NP (NNP (mikhail))(NNP (baryshnikov)))(VP (VBZ (have))(VP (VBN (dance))(PP (IN (for)))))))))(. (?))))) |ET| 
1  |BT| (ROOT (ROOT (SBARQ (WHNP (WP (what)))(SQ (VBZ (be))(NP (NP (DT (the))(NN (plural)))(PP (IN (of))(NP (NN (gulf))))))(. (?))))) |ET| 
1  |BT| (ROOT (ROOT (SBARQ (WHNP (WP (what)))(SQ (VBZ (be))(NP (DT (the))(JJ (longest-running))(NN (television))(NN (series))))(. (?))))) |ET| 
1  |BT| (ROOT (ROOT (SBARQ (WHNP (WP (what)))(SQ (VBZ (be))(NP (DT (the))(JJS (rarest))(NN (coin))))(. (?))))) |ET| 
1  |BT| (ROOT (ROOT (SQ (VP (VB (name))(NP (NP (DT (a))(NN (film)))(SBAR (WHNP (WDT (that)))(S (VP (VBZ (have))(VP (VBN (win))(NP (NP (DT (the))(NNP (golden))(NNP (bear)))(PP (IN (in))(NP (DT (the))(NNP (berlin))(NNP (film))(NNP (festival)))))))))))(. (?))))) |ET| 
0.36816267655220297205787005623279  |BT| (ROOT (ROOT (SQ (VP (VB (name))(NP (NP (DT (a))(NN (technique)))(VP (ADVP (RB (widely)))(VBN (use))(S (VP (TO (to))(VP (VB (detect))(NP (NN (birth))(NNS (defect)))))))))(. (?))))) |ET| 
0.94966021007152667809947388377623  |BT| (ROOT (ROOT (SQ (VP (VB (name))(NP (NP (DT (a))(NN (medicine)))(VP (ADVP (RB (commonly)))(VBN (use))(S (VP (TO (to))(VP (VB (combat))(NP (NN (aid)))))))))(. (?))))) |ET| 
1  |BT| (ROOT (ROOT (SQ (VP (VB (name))(PP (IN (of))(NP (NP (NNP (king))(NNP (arthur))(POS ('s)))(NN (sword)))))(. (?))))) |ET| 
-0.61708247426751361430774522887077  |BT| (ROOT (ROOT (SBARQ (WHPP (IN (in))(WHNP (WDT (what))(NN (year))))(SQ (VBD (be))(NP (NP (DT (the))(NN (movie)))(NP (DT (the))(CD (ten))(NNS (commandment))))(VP (VBN (release))))(. (?))))) |ET| 
-0.28916430962166300711047028926259  |BT| (ROOT (ROOT (S (VP (VB (describe))(NP (NP (DT (the))(JJ (finnish))(NN (music))(NN (personality))(NN (salonen))(POS ('s)))(NN (appearance))))(. (.))))) |ET| 
-0.1791067037679243689751729107229  |BT| (ROOT (ROOT (SBARQ (WHNP (WDT (what))(NN (state)))(SQ (VP (VBZ (have))(ADVP (DT (the))(RBS (most)))(NP (NNPS (indians)))))(. (?))))) |ET| 
0.63721201998884335893080788082443  |BT| (ROOT (ROOT (SBARQ (WHNP (WP (what)))(SQ (VBP (do))(NP (PRP (you)))(VP (VB (call))(NP (NP (DT (a))(NN (group)))(PP (IN (of))(NP (NNS (goose)))))))(. (?))))) |ET| 
1  |BT| (ROOT (ROOT (SBARQ (WHNP (WDT (what))(JJ (organic))(NN (fuel)))(SQ (VBP (do))(NP (NNS (bog-dweller)))(VP (VB (use))(NP (DT (a))(`` (``))(NN (slane))('' ('')))(S (VP (TO (to))(VP (VB (cut)))))))(. (?))))) |ET| 
1  |BT| (ROOT (ROOT (SBARQ (WHNP (WP (what)))(SQ (VBZ (be))(NP (NP (DT (a))(NN (example)))(PP (IN (of))(NP (DT (a))(JJ (natural))(NN (acid-base))(NN (indicator))))))(. (?))))) |ET| 
-1  |BT| (ROOT (ROOT (SBARQ (WHNP (WP (what)))(SQ (VBZ (be))(NP (NP (DT (a))(NN (example)))(PP (IN (of))(NP (NP (DT (a))(JJ (actual))(NN (case)))(PP (IN (of))(S (VP (VBG (use))(NP (DT (the))(JJ (fourteenth))(NN (amendment))))))))))(. (?))))) |ET| 
-1  |BT| (ROOT (ROOT (SBARQ (WHNP (WP (what)))(SQ (VBZ (be))(NP (NP (DT (a))(NN (pig)))(PP (IN (in))(NP (DT (a))(NN (poke))))))(. (?))))) |ET| 
-1  |BT| (ROOT (ROOT (SBARQ (WHNP (WP (what)))(SQ (VBZ (be))(NP (NP (DT (the))(JJ (approximate))(NN (weight)))(PP (IN (of))(NP (NP (DT (a))(NN (teaspoon)))(PP (IN (of))(NP (NP (NN (matter)))(PP (IN (in))(NP (DT (a))(JJ (black))(NN (hole))))))))))(. (?))))) |ET| 
1  |BT| (ROOT (ROOT (SBARQ (WHNP (WDT (what))(NN (religion)))(SQ (VP (VBZ (have))(ADVP (DT (the))(RBS (most)))(NP (NNS (member)))))(. (?))))) |ET| 
1  |BT| (ROOT (ROOT (SBARQ (WHPP (IN (in))(WHNP (WDT (what))(NN (religion))))(SQ (VBD (be))(NP (NNP (isis)))(NP (DT (the))(NN (nature))(NN (goddess))))(. (?))))) |ET| 
1  |BT| (ROOT (ROOT (SBARQ (WHPP (IN (in))(WHNP (WDT (what))(NN (war))))(SQ (VBD (be))(NP (DT (the))(JJ (first))(NN (submarine)))(VP (VBN (use))))(. (?))))) |ET| 
-0.061149627955239496679418209623691  |BT| (ROOT (ROOT (SBARQ (WHNP (WP (what)))(SQ (VP (VBZ (be))(ADJP (JJ (distinctive))(PP (IN (about))(NP (NP (DT (a))(NN (palmiped))(POS ('s)))(NNS (foot)))))))(. (?))))) |ET| 
-0.62157710660773735078521440300392  |BT| (ROOT (ROOT (SBARQ (WHNP (WDT (what))(NN (river)))(SQ (VBZ (be))(NP (NNP (pocahontas)))(VP (VBN (bury))(ADVP (IN (along)))))(. (?))))) |ET| 
-0.40017444340714791728430554940132  |BT| (ROOT (ROOT (SBARQ (WHPP (IN (in))(WHNP (WDT (what))(NN (year))))(SQ (VBD (do))(NP (DT (the))(NNP (bounty))(NN (mutiny)))(VP (VB (happen))))(. (?))))) |ET| 
1  |BT| (ROOT (ROOT (SBARQ (WHNP (WP (what)))(SQ (VBZ (be))(NP (NP (DT (the))(JJS (tallest))(NN (piece)))(PP (IN (on))(NP (DT (a))(NN (chessboard))))))(. (?))))) |ET| 
1  |BT| (ROOT (ROOT (SBARQ (WHNP (WP (what)))(SQ (VBZ (be))(NP (NP (DT (the))(NN (term)))(PP (IN (for))(NP (DT (a))(JJ (young))(NN (fox))))))(. (?))))) |ET| 
1  |BT| (ROOT (ROOT (SBARQ (WHNP (WP (what)))(SQ (VBZ (be))(NP (NP (DT (the))(NN (term)))(PP (IN (for))(NP (NP (DT (the))(NN (sum)))(PP (IN (of))(NP (NP (DT (all))(JJ (genetic))(NN (material)))(PP (IN (in))(NP (DT (a))(VBN (give))(NN (organism))))))))))(. (?))))) |ET| 
-0.046581811668516007185480987118353  |BT| (ROOT (ROOT (SBARQ (WHNP (WDT (what))(CD (two))(NNP (new))(NNP (york))(NNP (yankee))(NNS (pitcher)))(SQ (VP (VBD (swap))(NP (NNS (wife))(CC (and))(NNS (family)))))(. (?))))) |ET| 
-0.40096324517881398730168029942433  |BT| (ROOT (ROOT (SBARQ (WHNP (WP (what)))(SQ (VBZ (be))(NP (NP (DT (the))(NN (abbreviation)))(PP (IN (for))(NP (JJ (micro))))))(. (?))))) |ET| 
-1  |BT| (ROOT (ROOT (SBARQ (WHNP (WP (what)))(SQ (VBZ (be))(NP (NP (DT (the))(NN (temperature)))(PP (IN (for))(NP (NN (cooking))))))(. (?))))) |ET| 
-1  |BT| (ROOT (ROOT (SBARQ (WHNP (WP (what)))(SQ (VBZ (be))(NP (NP (DT (the))(NN (abbreviation)))(PP (IN (for))(NP (NN (trinitrotoluene))))))(. (?))))) |ET| 
1  |BT| (ROOT (ROOT (SBARQ (WHPP (IN (in))(WHNP (WDT (what))(NNP (olympic))(NNPS (games))))(SQ (VBD (do))(NP (NNP (nadia))(NNP (comaneci)))(VP (VB (become))(ADJP (JJ (popular)))))(. (?))))) |ET| 
1  |BT| (ROOT (ROOT (SBARQ (WHPP (IN (in))(WHNP (WDT (what))(NN (deodorant))(NN (commercial))))(SQ (VBD (do))(NP (NNS (tenant)))(VP (VBP (have))(NP (JJ (adjoining))(NN (medicine))(NNS (cabinet)))))(. (?))))) |ET| 
1  |BT| (ROOT (ROOT (SBARQ (WHNP (WDT (what))(NP (JJ (shape-shifting))(NN (menace))))(SQ (VBD (do))(NP (NNP (rom)))(VP (VB (come))(PP (TO (to))(NP (NNP (earth))))(S (VP (TO (to))(VP (VB (fight)))))))(. (?))))) |ET| 
-0.38403987253630184062203056782892  |BT| (ROOT (ROOT (SBARQ (WHNP (WP (what)))(SQ (VBZ (be))(NP (NP (DT (the))(JJ (average))(NN (salary)))(PP (IN (of))(NP (DT (a))(NN (paleontologist))))))(. (?))))) |ET| 
-1  |BT| (ROOT (ROOT (S (SBAR (WHADVP (WRB (when)))(S (VP (VBN (call))(PP (IN (upon))(NP (S (VP (TO (to))(VP (VB (surrender)))))(, (,))(SBAR (WHNP (WDT (what)))(S (NP (NNP (american))(JJ (general)))(VP (VBD (reply))(, (,))(S (`` (``))(NP (NNP (sir))))))))))))(, (,))(NP (PRP (i)))(VP (VBP (have))(RB (not))(ADVP (RB (yet)))(VP (VBN (begin))(S (VP (TO (to))(VP (VB (fight)))))))(. (.))('' (''))))(ROOT (NP (. (?))))) |ET| 
0.48461344509000275904142540639441  |BT| (ROOT (ROOT (SBARQ (WHNP (WDT (what))(JJ (african))(NNS (animal)))(SQ (VBP (be))(VP (VBN (know))(PP (IN (as))(NP (DT (the))(JJ (big))(CD (five))))))(. (?))))) |ET| 
1  |BT| (ROOT (ROOT (SBARQ (WHNP (WP (what)))(SQ (VBZ (be))(NP (NP (DT (the))(NN (treatment)))(PP (IN (for))(NP (NN (depression))))))(. (?))))) |ET| 
1  |BT| (ROOT (ROOT (SBARQ (WHNP (WP (what)))(SQ (VBZ (be))(NP (NP (DT (the))(NN (word)))(PP (IN (for))(NP (NP (NN (love)))(PP (IN (of))(NP (NN (pain))(CC (or))(NN (abuse))))))))(. (?))))) |ET| 
1  |BT| (ROOT (ROOT (SBARQ (WHNP (WP (what)))(SQ (VBZ (be))(NP (NP (DT (the))(NN (recipe)))(PP (IN (for))(NP (NNP (eggs))(NNP (benedict))))))(. (?))))) |ET| 
-0.36669997811391114028722881812428  |BT| (ROOT (ROOT (SBARQ (WHNP (WDT (what))(NN (sea)))(SQ (VBZ (be))(NP (NNP (bombay)))(PP (IN (on))))(. (?))))) |ET| 
-0.026311706451141329832221771312106  |BT| (ROOT (ROOT (SBARQ (WHNP (WP (what)))(SQ (VBZ (be))(NP (DT (a))(JJ (wet))(NN (dream))))(. (?))))) |ET| 
-1  |BT| (ROOT (ROOT (SBARQ (WHNP (WP (what)))(SQ (VBZ (be))(NP (NP (DT (the))(NN (acronym)))(PP (IN (for))(NP (NP (DT (the))(NN (rating))(NN (system)))(PP (IN (for))(NP (NN (air))(NN (conditioner))(NN (efficiency))))))))(. (?))))) |ET| 
1  |BT| (ROOT (ROOT (SBARQ (WHADVP (WRB (how)))(SQ (VBP (do))(NP (PRP (you)))(VP (VB (say))(SBAR (S (NP (PRP (i)))(VP (VBP (love))(NP (PRP (you)))(PP (IN (in))(NP (NNP (spanish)))))))))(. (?))))) |ET| 
1  |BT| (ROOT (ROOT (SBARQ (WHADVP (WRB (how)))(SQ (VBP (do))(NP (PRP (you)))(VP (VB (say))(ADJP (`` (``))(JJ (fresh))('' (''))(PP (IN (in))(NP (NNP (spanish)))))))(. (?))))) |ET| 
1  |BT| (ROOT (ROOT (SBARQ (WHADVP (WRB (how)))(SQ (VBP (do))(NP (PRP (you)))(VP (VB (say))(VP (`` (``))(VB (eat))(NP (DT (the))(NN (day)))('' (''))(PP (IN (in))(NP (NNP (latin)))))))(. (?))))) |ET| 
-0.2435924704296711373885386819893  |BT| (ROOT (ROOT (SBARQ (WHNP (WP (what)))(SQ (VBZ (be))(NP (NP (DT (the))(NN (frequency)))(PP (IN (of))(NP (NNP (vhf))))))(. (?))))) |ET| 
0.87185805162562213244115127963596  |BT| (ROOT (ROOT (SBARQ (WHNP (WP (what)))(SQ (VBZ (be))(NP (NP (DT (a))(NN (fear)))(PP (IN (of))(NP (JJ (strong))(NN (light))))))(. (?))))) |ET| 
-0.026311922855338620852450048914761  |BT| (ROOT (ROOT (SBARQ (WHNP (WDT (what))(ADJP (JJ (bestselling))(JJ (modern)))(NN (poet)))(SQ (VBD (be))(NP (NP (DT (the))(NN (co-founder)))(PP (IN (of))(NP (NP (DT (the))(JJ (famous))(NNP (city))(NNP (lights))(NNP (bookshop)))(PP (IN (in))(NP (NNP (san))(NNP (francisco))))))))(. (?))))) |ET| 
1  |BT| (ROOT (ROOT (SBARQ (WHNP (WP (what)))(SQ (VBZ (be))(NP (NP (DT (the))(NN (name)))(PP (IN (of))(NP (NP (DT (the))(NN (art)))(PP (IN (of))(NP (VBG (grow))(JJ (miniature))(NNS (tree))))))))(. (?))))) |ET| 
1  |BT| (ROOT (ROOT (SBARQ (WHNP (WP (what)))(SQ (VBZ (be))(NP (NP (DT (the))(NN (name)))(PP (IN (of))(NP (NP (DT (the))(NN (vaccine)))(PP (IN (for))(NP (NN (chicken))(NN (pox))))))))(. (?))))) |ET| 
1  |BT| (ROOT (ROOT (SBARQ (WHNP (WP (what)))(SQ (VBZ (be))(NP (NP (DT (the))(NN (name)))(PP (IN (of))(NP (DT (the))(JJ (jewish))(NN (alphabet))))))(. (?))))) |ET| 
-1  |BT| (ROOT (ROOT (SBARQ (WHNP (WP (what)))(SQ (VBZ (be))(NP (NP (DT (the))(NN (name)))(PP (IN (of))(NP (NP (DT (a))(NN (hotel)))(PP (IN (in))(NP (NNP (indianapolis))))))))(. (?))))) |ET| 
-1  |BT| (ROOT (ROOT (SBARQ (WHNP (WP (what)))(SQ (VBZ (be))(NP (NP (DT (the))(NN (name)))(PP (IN (of))(NP (NP (DT (the))(NN (inventor)))(PP (IN (of))(NP (JJ (silly))(NN (putty))))))))(. (?))))) |ET| 
-1  |BT| (ROOT (ROOT (SBARQ (WHNP (WP (what)))(SQ (VBD (be))(NP (NP (DT (the))(NN (name)))(PP (IN (of))(NP (NP (DT (the))(NN (cook)))(PP (IN (on))(NP (NNP (rawhide))))))))(. (?))))) |ET| 
1  |BT| (ROOT (ROOT (SBARQ (SBAR (WHADVP (WRB (when)))(S (NP (PRP (it)))(VP (VBZ (be))(NP (NN (time))(S (VP (TO (to))(VP (VB (relax)))))))))(, (,))(WHNP (WDT (what))(CD (one))(NN (beer)))(SQ (VP (VBZ (stand))(ADJP (JJ (clear)))))(. (?))))) |ET| 
1  |BT| (ROOT (ROOT (SBARQ (WHNP (WDT (what))(NN (soap)))(SQ (VBD (be))(VP (VBN (tout))(PP (IN (as))(S (VP (VBG (be))(`` (``))(PP (IN (for))(NP (NNS (people)))))))(SBAR (WHNP (WP (who)))(S (VP (VBP (like))(NP (NNS (people))('' (''))))))))(. (?))))) |ET| 
1  |BT| (ROOT (ROOT (SBARQ (WHNP (WDT (what))(NN (beer)))(SQ (VP (VBZ (be))(VP (`` (`))(VBG (rockin))('' ('))(NP (NNP (america))))))(. (?))('' (''))))) |ET| 
-1  |BT| (ROOT (ROOT (SBARQ (WHNP (WDT (what))(NN (singer)))(SQ (VP (VBZ (sing))(NP (INTJ (`` (``))(UH (oh)))(NP (NN (boy))('' (''))))))(. (?))))) |ET| 
-1  |BT| (ROOT (ROOT (SBARQ (WHNP (WDT (what))(NNS (characteristic)))(SQ (VP (VBP (contribute))(PP (TO (to))(NP (PRP$ (its))(`` (``))(NN (intelligence))('' (''))))))(. (?))))) |ET| 
-1  |BT| (ROOT (ROOT (SBARQ (WHNP (WDT (which))(JJ (classical))(JJ (spanish))(NN (writer)))(SQ (VP (VBD (say))(SBAR (S (NP (`` (``))(NP (DT (all)))(SBAR (WHNP (WDT (that)))(S (VP (VBZ (glitter))))))(VP (VBZ (be))(ADVP (RB (not)))(NP (JJ (gold)))('' ('')))))))(. (?))))) |ET| 
1  |BT| (ROOT (ROOT (SBARQ (WHNP (WP (what)))(SQ (VBZ (be))(NP (NP (DT (the))(NN (name)))(PP (IN (of))(NP (NP (DT (the))(NN (dog)))(PP (IN (on))(NP (DT (the))(NNP (cracker))(NNP (jack))(NN (box))))))))(. (?))))) |ET| 
1  |BT| (ROOT (ROOT (SBARQ (WHNP (WP (what)))(SQ (VBZ (be))(NP (NP (DT (the))(JJ (legal))(NN (blood))(NN (alcohol))(NN (limit)))(PP (IN (for))(NP (NP (DT (the))(NN (state)))(PP (IN (of))(NP (NNP (california))))))))(. (?))))) |ET| 
1  |BT| (ROOT (ROOT (SBARQ (WHNP (WP (what)))(SQ (VBZ (be))(NP (NP (DT (the))(NN (term)))(PP (IN (for))(NP (NP (DT (the))(NN (side)))(PP (IN (of))(NP (NP (DT (the))(NN (mountain)))(SBAR (WHNP (WDT (that)))(S (VP (VBZ (face))(NP (DT (the))(VBG (prevail))(NNS (wind))))))))))))(. (?))))) |ET| 
0.26386477790269613485918398509966  |BT| (ROOT (ROOT (SBARQ (WHNP (WDT (what))(NN (sport)))(SQ (VBZ (feature))(NP (NP (NNS (slotback)))(, (,))(NP (NNS (tailback)))(, (,))(CC (and))(NP (NNS (touchback)))))(. (?))))) |ET| 
-1  |BT| (ROOT (ROOT (FRAG (PP (IN (in))(NP (NP (DT (the))(NN (movie))(NNP (groundshog))(NNP (day)))(SBAR (WHNP (WP (what)))(S (VP (VBZ (be))(NP (NP (DT (the))(NN (name)))(PP (IN (of))(NP (NP (DT (the))(NN (character)))(VP (VBN (play))(PP (IN (by))(NP (NNP (andie))(NNP (macdowell)))))))))))))(. (?))))) |ET| 
-0.54900439230576114635340445602196  |BT| (ROOT (ROOT (SBARQ (WHNP (WP (what)))(SQ (VBZ (be))(NP (NP (DT (the))(JJ (principal))(NN (river)))(PP (IN (of))(NP (NNP (ireland))))))(. (?))))) |ET| 
0.98733130864056517506099908132455  |BT| (ROOT (ROOT (SBARQ (WHNP (WHNP (WDT (what))(NN (kind)))(PP (IN (of))(NP (NN (tree)))))(SQ (VP (VBZ (grace))(NP (NP (NNP (lebanon))(POS ('s)))(NN (flag)))))(. (?))))) |ET| 
1  |BT| (ROOT (ROOT (SBARQ (WHNP (WDT (which))(NN (mayonnaise)))(SQ (VP (VBZ (refer))(PP (TO (to))(NP (PRP (itself))))(PP (IN (as))(NP (`` (``))(JJ (real))('' (''))(NN (mayonnaise))))))(. (?))))) |ET| 
1  |BT| (ROOT (ROOT (SBARQ (WHNP (WDT (what))(NNP (sinatra)))(SQ (VP (VBD (hit))(SBAR (S (S (VP (VBD (do))(S (NP (PRP (he)))(VP (VB (dooby))(PRT (RP (dooby)))))))(VP (VBP (do))(PP (IN (in))))))))(. (?))))) |ET| 
-1  |BT| (ROOT (ROOT (SBARQ (WHNP (WDT (what))(ADJP (JJ (geological)))(NN (time)))(SQ (VBP (do))(NP (PRP (we)))(VP (VB (live))(PP (IN (in)))))(. (?))))) |ET| 
-0.39688504779952749057514438391081  |BT| (ROOT (ROOT (SBARQ (WHNP (WDT (what))(NN (century)))(SQ (VBZ (do))(NP (NNP (captain))(NNP (video)))(VP (VB (live))(PP (IN (in)))))(. (?))))) |ET| 
-0.0021808485749822310861834040451868  |BT| (ROOT (ROOT (SBARQ (WHNP (WHNP (WDT (what))(NN (company))(POS ('s)))(NN (logo)))(SQ (VBZ (be))(NP (NP (DT (a))(`` (``))(NN (w))('' ('')))(PP (IN (in))(NP (DT (a))(NN (circle))))))(. (?))))) |ET| 
1  |BT| (ROOT (ROOT (SBARQ (WHNP (WP (what)))(SQ (VBZ (be))(NP (NP (DT (the))(NN (nickname)))(PP (IN (of))(NP (DT (the))(NNP (cleveland))(NNPS (indians))))))(. (?))))) |ET| 
1  |BT| (ROOT (ROOT (SBARQ (WHNP (WP (what)))(SQ (VBZ (be))(NP (NP (DT (the))(NN (name)))(PP (IN (of))(NP (NP (DT (the))(JJS (largest))(NN (water))(NN (conservancy))(NN (project)))(PP (IN (in))(NP (NNP (china))))))))(. (?))))) |ET| 
1  |BT| (ROOT (ROOT (SBARQ (WHNP (WP (what)))(SQ (VBZ (be))(NP (NP (DT (the))(NN (name)))(PP (IN (of))(NP (NP (DT (a))(NN (golf))(NN (course)))(PP (IN (in))(NP (NNP (myrtle))(NNP (beach))))))))(. (?))))) |ET| 
-0.45809436962285154937291054011439  |BT| (ROOT (ROOT (S (NP (JJ (rotary))(NN (engine))(NNS (car)))(VP (VBD (be))(VP (VBN (make))(WHPP (IN (by))(WHNP (WDT (what))(NN (company))))))(. (?))))) |ET| 
-0.86748077047426042085476183274295  |BT| (ROOT (ROOT (SBARQ (WHNP (WP (what)))(SQ (VBZ (be))(NP (NP (DT (the))(JJ (first))(NN (day)))(PP (IN (of))(NP (DT (the))(NN (week))))))(. (?))))) |ET| 
1  |BT| (ROOT (ROOT (SBARQ (WHNP (WDT (which))(JJ (soft))(NN (drink)))(SQ (VBZ (do))(NP (NNP (madonna)))(VP (VB (advertise))(PP (IN (for)))))(. (?))))) |ET| 
1  |BT| (ROOT (ROOT (SBARQ (WHNP (WDT (what))(CD (four))(NNS (form)))(SQ (VBZ (do))(NP (NN (gold)))(VP (VB (occur))(PP (IN (in)))))(. (?))))) |ET| 
0.96280522574476534725107512713294  |BT| (ROOT (ROOT (SBARQ (WHNP (WDT (what))(JJ (musical))(NN (instrument)))(SQ (VBD (do))(NP (NNP (sherlock))(NNP (holmes)))(VP (VB (play))))(. (?))))) |ET| 
-1  |BT| (ROOT (ROOT (SBARQ (WHNP (WHNP (WDT (what))(NN (lake)))(PP (IN (in))(NP (NNP (scotland)))))(SQ (VBZ (be))(VP (VBN (say))(S (VP (TO (to))(VP (VB (hold))(NP (QP (CD (one))(CC (or))(JJR (more)))(NNS (monster))))))))(. (?))))) |ET| 
-1  |BT| (ROOT (ROOT (SBARQ (WHNP (WDT (what))(NP (NP (NN (television)))(NP (NN (network)))))(SQ (VP (VBD (flog))(NP (PRP$ (its))(NNS (sport))(NN (programming)))(PP (IN (on))(NP (NP (NNP (inga))(NNP (nielsen))(POS ('s)))(NN (body))))(PP (IN (in))(NP (CD (197))))))(. (?))))) |ET| 
-1  |BT| (ROOT (ROOT (S (VP (VB (name))(NP (DT (a))(NN (art))(NN (gallery)))(PP (IN (in))(NP (NNP (new))(NNP (york)))))(. (.))))) |ET| 
1  |BT| (ROOT (ROOT (SBARQ (WHNP (WP (what)))(SQ (VBD (be))(NP (NP (DT (the))(NN (food)))(PP (IN (of))(NP (DT (the))(JJ (greek))(NNS (god)))))(VP (VBN (call))))(. (?))))) |ET| 
1  |BT| (ROOT (ROOT (SBARQ (WHNP (WP (what)))(SQ (VBD (be))(NP (NP (DT (the))(NN (bridge)))(PP (IN (of))(NP (NP (NNP (san))(NNP (luis))(NNP (rey)))(VP (VBD (make))(PP (IN (of))))))))(. (?))))) |ET| 
1  |BT| (ROOT (ROOT (SBARQ (WHNP (WDT (what)))(SQ (VP (VBZ (determine))(NP (NP (DT (the))(NN (value)))(PP (IN (of))(NP (DT (the))(NN (pearl)))))))(. (?))))) |ET| 
-1  |BT| (ROOT (ROOT (SBARQ (WHNP (WP (what)))(SQ (VBZ (be))(NP (NP (DT (the))(JJ (first))(NN (day)))(PP (IN (of))(NP (DT (the))(NN (week))))))(. (?))))) |ET| 
-1  |BT| (ROOT (ROOT (SBARQ (WHNP (WP (what)))(SQ (VBD (be))(NP (NP (DT (the))(NN (name)))(PP (IN (of))(NP (NP (DT (the))(NN (director)))(PP (IN (of))(NP (DT (the))(NN (movie))(`` (``))(NNP (jaws))('' (''))))))))(. (?))))) |ET| 
-1  |BT| (ROOT (ROOT (SBARQ (WHNP (WP (what)))(SQ (VBD (be))(NP (NP (DT (the))(NN (role)))(PP (IN (of))(NP (DT (the))(JJ (medieval))(NN (guild))))))(. (?))))) |ET| 
-1  |BT| (ROOT (ROOT (SBARQ (WHNP (WP (what)))(SQ (VBD (be))(NP (NP (DT (the))(NN (name)))(PP (IN (of))(NP (NP (DT (the))(NNP (titanic))(POS ('s)))(NN (captain))))))(. (?))))) |ET| 
1  |BT| (ROOT (ROOT (SBARQ (WHNP (WDT (what))(NNP (stephen))(NNP (sondheim))(NN (ballad)))(SQ (VP (VBZ (end))(: (:))(FRAG (INTJ (`` (``))(UH (well)))(, (,))(RB (maybe))(NP (JJ (next))(NN (year)))(. (.)))))))(ROOT (NP (. (.))))(ROOT (S (VP (. (.))('' ('')))))(ROOT (NP (. (?))))) |ET| 
1  |BT| (ROOT (ROOT (S (VP (VB (name))(NP (DT (a))(NN (golf))(NN (course)))(PP (IN (in))(NP (NNP (myrtle))(NNP (beach)))))(. (.))))) |ET| 
1  |BT| (ROOT (ROOT (SBARQ (WHNP (WDT (what))(NN (program)))(SQ (VBP (do))(NP (PRP (i)))(VP (VB (need))(S (VP (TO (to))(VP (VB (run))(NP (DT (a))))))))(. (.))))(ROOT (S (NP (NN (tbk)))(VP (NN (file)))(. (?))))) |ET| 
-1  |BT| (ROOT (ROOT (SBARQ (WHNP (WDT (what))(NN (phone))(NN (number)))(SQ (MD (can))(NP (PRP (i)))(VP (VB (call))(S (VP (TO (to))(VP (VB (have))(NP (NP (DT (a))(NN (tree)))(VP (VBN (plant)))))))))(. (?))))) |ET| 
-0.96663316595724146917945063250954  |BT| (ROOT (ROOT (S (VP (VB (name))(NP (DT (the))(JJ (first))(JJ (russian))(NN (astronaut)))(S (VP (TO (to))(VP (VB (do))(NP (DT (a))(NN (spacewalk)))))))(. (.))))) |ET| 
-1  |BT| (ROOT (ROOT (SBARQ (WHNP (WDT (what)))(SQ (MD (can))(NP (PRP (i)))(VP (VB (do))(S (VP (TO (to))(VP (VB (get))(PP (IN (into))(NP (DT (a))(NNP (ivy))(NNP (league))(NN (school)))))))))(. (?))))) |ET| 
1  |BT| (ROOT (ROOT (SBARQ (WHNP (WP (what)))(SQ (VBD (be))(NP (NP (DT (the))(NN (name)))(PP (IN (of))(NP (NP (NNP (baretta))(POS ('s)))(NN (cockatoo))))))(. (?))))) |ET| 
1  |BT| (ROOT (ROOT (SBARQ (WHNP (WP (what)))(SQ (VBD (be))(NP (NP (DT (the))(NN (education))(NN (system)))(PP (IN (in))(NP (NP (DT (the)))(NP (CD (1960))(POS ('s)))))))(. (?))))) |ET| 
1  |BT| (ROOT (ROOT (SBARQ (WHNP (WP (what)))(SQ (VBD (be))(NP (NP (DT (the))(NN (name)))(PP (IN (of))(NP (NP (DT (the))(JJ (famous))(NN (battle)))(PP (IN (between))(NP (NNP (texas))(CC (and))(NNP (mexico))))))))(. (?))))) |ET| 
-1  |BT| (ROOT (ROOT (SBARQ (WHNP (WP (what)))(SQ (VBD (be))(NP (NP (DT (the))(NN (name)))(PP (IN (of))(NP (NP (NNP (darth))(NNP (vader))(POS ('s)))(NN (son))))))(. (?))))) |ET| 
-1  |BT| (ROOT (ROOT (SBARQ (WHNP (WP (what)))(SQ (VBD (be))(NP (NP (DT (the))(NN (name)))(PP (IN (of))(NP (NP (NNP (randy))(NNP (craft))(POS ('s)))(NN (lawyer))))))(. (?))))) |ET| 
-1  |BT| (ROOT (ROOT (SBARQ (WHNP (WP (what)))(SQ (VBD (be))(NP (NP (DT (the))(NN (name)))(PP (IN (of))(NP (NP (NP (NNP (humphrey))(NNP (bogart))(POS ('s)))(NN (club)))(PP (IN (in))(NP (NNP (casablanca))))))))(. (?))))) |ET| 
1  |BT| (ROOT (ROOT (SBARQ (WHNP (WDT (what))(NP (NN (food))))(SQ (MD (can))(NP (PRP (i)))(VP (VB (use))(S (VP (TO (to))(VP (VB (catch))(NP (DT (a))(NN (possum))))))))(. (?))))) |ET| 
1  |BT| (ROOT (ROOT (SBARQ (WHNP (WP (what)))(SQ (VBZ (be))(NP (NP (DT (a))(JJ (good))(NN (book)))(S (VP (TO (to))(VP (VB (read))(PP (IN (for))(NP (NP (NNS (people)))(SBAR (WHNP (WP (who)))(S (VP (VBP (hate))(S (VP (TO (to))(VP (VB (read)))))))))))))))(. (?))))) |ET| 
1  |BT| (ROOT (ROOT (SBARQ (WHNP (WP (what)))(SQ (VBZ (be))(NP (NP (DT (the))(RBS (most))(JJ (efficient))(NN (way)))(S (VP (TO (to))(VP (VB (start))(NP (DT (a))(NN (barbeque))))))))(. (?))))) |ET| 
-1  |BT| (ROOT (ROOT (SBARQ (WHNP (WP (what)))(SQ (VBP (do))(NP (PRP (i)))(VP (VB (need))(S (VP (TO (to))(VP (VB (learn))(S (VP (TO (to))(VP (VB (design))(NP (NN (web))(NNS (page)))))))))))(. (?))))) |ET| 
-1  |BT| (ROOT (ROOT (SBARQ (WHNP (WP (what)))(SQ (VBP (do))(NP (PRP (you)))(VP (VB (need))(S (VP (TO (to))(VP (VB (do))(S (VP (TO (to))(VP (VB (marry))(NP (NN (someone)))(PP (IN (in))(NP (NN (jail))))))))))))(. (?))))) |ET| 
-0.5692844888087084109784541396948  |BT| (ROOT (ROOT (SBARQ (WHNP (WDT (which))(NN (country)))(SQ (VBD (do))(NP (NNP (hitler)))(VP (VB (rule))))(. (?))))) |ET| 
1  |BT| (ROOT (ROOT (SBARQ (WHNP (WP (what)))(SQ (VBD (be))(NP (NP (DT (the))(NN (name)))(PP (IN (of))(NP (NP (NNP (captain))(NNP (bligh))(POS ('s)))(NN (ship))))))(. (?))))) |ET| 
1  |BT| (ROOT (ROOT (SBARQ (WHNP (WP (what)))(SQ (VBD (be))(NP (NP (DT (the))(NN (name)))(PP (IN (of))(NP (NP (NNP (aristotle))(NNP (onassis))(POS ('s)))(NN (yacht))))))(. (?))))) |ET| 
1  |BT| (ROOT (ROOT (SBARQ (WHNP (WP (what)))(SQ (VBD (be))(NP (NP (DT (the))(NN (name)))(PP (IN (of))(NP (NP (NNP (betty))(NNP (boop))(POS ('s)))(NN (dog))))))(. (?))))) |ET| 
-1  |BT| (ROOT (ROOT (SBARQ (WHNP (WP (what)))(SQ (VBZ (be))(NP (NP (DT (the))(NN (name)))(PP (IN (of))(NP (DT (a))(JJ (greek))(NN (god))))))(. (?))))) |ET| 
-1  |BT| (ROOT (ROOT (SBARQ (WHNP (WP (what)))(SQ (VBZ (be))(NP (NP (DT (the))(NN (name)))(PP (IN (of))(NP (NP (NNP (joan))(NNP (jett))(POS ('s)))(NN (band))))))(. (?))))) |ET| 
-1  |BT| (ROOT (ROOT (SBARQ (WHNP (WP (what)))(SQ (VBZ (be))(NP (NP (DT (the))(NN (name)))(PP (IN (of))(NP (NP (DT (the))(NN (gulf)))(PP (IN (between))(NP (NNP (sweden))(CC (and))(NNP (finland))))))))(. (?))))) |ET| 
1  |BT| (ROOT (ROOT (SBARQ (WHNP (WP (what)))(SQ (VBP (do))(NP (NNS (sailor)))(VP (VB (use))(S (VP (TO (to))(VP (VB (measure))(NP (NN (time))))))))(. (?))))) |ET| 
1  |BT| (ROOT (ROOT (SBARQ (WHNP (WP (what)))(SQ (VBP (do))(NP (PRP (you)))(VP (VB (get))(PP (IN (by))(S (VP (VBG (add))(NP (NN (lactobacillus))(NN (bulgaricus)))(PP (TO (to))(NP (NN (milk)))))))))(. (?))))) |ET| 
-0.39506575860356091256520016941067  |BT| (ROOT (ROOT (SBARQ (WHNP (WDT (what))(NN (city)))(SQ (VBZ (be))(NP (NP (DT (the))(NN (setting)))(PP (IN (for))(NP (NP (NNP (puccini))(POS ('s)))(NN (opera))(NNP (la))(NNP (boheme))))))(. (?))))) |ET| 
-1  |BT| (ROOT (ROOT (SBARQ (WHNP (WP (what)))(SQ (VBZ (do))(NP (NNP (choo))(NNP (choo))(NNP (charlie)))(VP (VB (say))))(. (?))))) |ET| 
-1  |BT| (ROOT (ROOT (SBARQ (WHNP (WP (what)))(SQ (VBP (do))(NP (PRP (you)))(VP (VB (say))(PP (TO (to))(NP (NP (DT (a))(NN (friend)))(SBAR (WHNP (WP (who)))(S (VP (VBZ (ignore))(NP (PRP (you)))(PP (IN (for))(NP (JJ (other))(NNS (friend)))))))))))(. (?))))) |ET| 
-1  |BT| (ROOT (ROOT (SBARQ (WHNP (WDT (which))(NN (college)))(SQ (VBD (do))(NP (NNP (dikembe))(NNP (mutombo)))(VP (VB (attend))))(. (?))))) |ET| 
1  |BT| (ROOT (ROOT (SBARQ (WHNP (WP (what)))(SQ (VBZ (be))(NP (NP (DT (the))(NN (name)))(PP (IN (of))(NP (NNP (jamiroquai))(JJ (new))(NN (album))))))(. (?))))) |ET| 
1  |BT| (ROOT (ROOT (SBARQ (WHNP (WP (what)))(SQ (VBZ (be))(NP (NP (DT (the))(NN (name)))(PP (IN (of))(NP (DT (the))(NNP (tokyo))(NNP (stock))(NNP (exchange))))))(. (?))))) |ET| 
1  |BT| (ROOT (ROOT (SBARQ (WHNP (WP (what)))(SQ (VBZ (be))(NP (NP (DT (the))(NN (name)))(PP (IN (of))(NP (DT (the))(NNP (tampa))(NN (newspaper))))))(. (?))))) |ET| 
-1  |BT| (ROOT (ROOT (SBARQ (WHNP (WP (what)))(SQ (VBZ (be))(NP (NP (DT (the))(NN (name)))(PP (IN (of))(NP (NP (DT (the))(JJ (deranged))(JJ (super-criminal))(NNP (otto))(NNP (octavius)))(VP (VBZ (use)))))))(. (?))))) |ET| 
-1  |BT| (ROOT (ROOT (SBARQ (WHNP (WP (what)))(SQ (VBZ (be))(NP (DT (the))(ADJP (RBS (most))(JJ (popular)))(JJ (last))(NN (name))))(. (?))))) |ET| 
-1  |BT| (ROOT (ROOT (FRAG (SBAR (WHNP (WDT (what)))(S (ADVP (RB (exactly)))(VP (VBZ (be))(NP (NN (radiation))))))(. (?))))) |ET| 
1  |BT| (ROOT (ROOT (SBARQ (WHADVP (WRB (how)))(SQ (VBP (do))(NP (PRP (you)))(VP (VB (say))(NP (`` (``))(NNP (grandma))('' ('')))(PP (IN (in))(NP (NNP (irish))))))(. (?))))) |ET| 
1  |BT| (ROOT (ROOT (SBARQ (WHNP (WDT (what))(NN (wheel)))(SQ (VBD (do))(NP (NNP (blaise))(NNP (pascal)))(VP (VB (invent))(PP (IN (in))(NP (NP (DT (a))(NN (search)))(PP (IN (for))(NP (JJ (perpetual))(NN (motion))))))))(. (?))))) |ET| 
1  |BT| (ROOT (ROOT (SBARQ (WHNP (WDT (what))(NN (gender)))(SQ (VP (VBZ (be))(RB (not))(VP (VBN (allow))(S (VP (TO (to))(VP (VB (vote))(PP (IN (in))(NP (NNP (kuwait))))))))))(. (?))))) |ET| 
-0.058487600965089051041623235960287  |BT| (ROOT (ROOT (SBARQ (WHNP (WDT (what))(NN (river)))(SQ (VP (VBZ (flow))(PP (IN (past))(NP (NP (DT (the))(NNP (temple)))(PP (IN (of))(NP (NNP (karnak))))))))(. (?))))) |ET| 
-0.0038397258847065324216529802470177  |BT| (ROOT (ROOT (SBARQ (WHNP (WDT (what))(NN (planet)))(SQ (VP (VBD (give))(NP (NN (bith)))(PP (TO (to))(NP (NNP (superman))))))(. (?))))) |ET| 
1  |BT| (ROOT (ROOT (SBARQ (WHNP (WP (what)))(SQ (VBZ (be))(NP (NP (DT (the))(NN (name)))(PP (IN (of))(NP (DT (the))(JJ (second))(NN (space))(NN (shuttle))))))(. (?))))) |ET| 
1  |BT| (ROOT (ROOT (SBARQ (WHNP (WP (what)))(SQ (VBZ (be))(NP (NP (DT (the))(NN (connection)))(PP (IN (between))(NP (NNP (new))(NNP (krypton))(CC (and))(NNP (daxam))))))(. (?))))) |ET| 
1  |BT| (ROOT (ROOT (SBARQ (WHNP (WP (what)))(SQ (VBZ (be))(NP (NP (DT (the))(JJS (softest))(NN (part)))(PP (IN (of))(NP (DT (the))(NN (body))))))(. (?))))) |ET| 
-1  |BT| (ROOT (ROOT (SBARQ (WHNP (WP (what)))(SQ (VBZ (be))(NP (NP (DT (the))(NN (origin)))(PP (IN (of))(NP (NP (DT (the))(NN (term)))(NP (`` (``))(NP (JJ (buffalo))(NNS (wing)))('' (''))(SBAR (WHNP (WDT (that)))(S (VP (VBZ (be))(VP (VBN (use))(PP (IN (as))(NP (NP (DT (a))(NN (menu))(NN (item)))(PP (IN (in))(NP (NNS (bar))))))(PP (IN (across))(NP (NP (DT (the))(NN (nation)))(PP (IN (for))(NP (NP (NN (chicken))(NNS (wing)))(PP (IN (in))(NP (DT (a))(NN (spicey))(NN (sauce)))))))))))))))))(. (?))))) |ET| 
-1  |BT| (ROOT (ROOT (SBARQ (WHNP (WP (what)))(SQ (VBZ (be))(NP (NP (DT (the))(JJS (largest))(NN (variety)))(PP (IN (of))(NP (NN (cactus))))))(. (?))))) |ET| 
-1  |BT| (ROOT (ROOT (SBARQ (WHNP (WP (what)))(SQ (VBZ (be))(NP (NP (DT (the))(JJS (farthest))(NN (planet)))(PP (IN (from))(NP (DT (the))(NN (sun))))))(. (?))))) |ET| 
1  |BT| (ROOT (ROOT (SBARQ (WHNP (WP (what)))(SQ (VBZ (do))(NP (NNP (knight))(NNP (ridder)))(VP (VB (publish))))(. (?))))) |ET| 
1  |BT| (ROOT (ROOT (SBARQ (WHNP (WP (what)))(SQ (VBZ (do))(NP (DT (the))(NNP (peugeot))(NN (company)))(VP (VB (manufacture))))(. (?))))) |ET| 
1  |BT| (ROOT (ROOT (SBARQ (WHNP (WHNP (WDT (what)))(ADJP (`` (``))(JJ (magic))('' (''))))(SQ (VBZ (do))(NP (NNP (mandrake)))(VP (VB (employ))))(. (?))))) |ET| 
-0.82637799978284909308001715544378  |BT| (ROOT (ROOT (SBARQ (WHNP (WDT (what))(NN (corporation)))(SQ (VBZ (do))(NP (NNP (madonna)))(VP (VB (advertise))(PP (IN (for)))))(. (?))))) |ET| 
-0.082117946998835927852056215670018  |BT| (ROOT (ROOT (SBARQ (WHNP (WP (what)))(SQ (VBZ (do))(NP (`` (``))(NNP (janelle))('' ('')))(VP (VB (mean))))(. (?))))) |ET| 
-0.082117946998834234761943662306294  |BT| (ROOT (ROOT (SBARQ (WHNP (WP (what)))(SQ (VBZ (do))(NP (`` (``))(NNP (b.y.o.b.))('' ('')))(VP (VB (mean))))(. (?))))) |ET| 
-0.020904748570126141515856943442486  |BT| (ROOT (ROOT (SBARQ (WHNP (WP (what)))(SQ (VBZ (do))(NP (NNP (venus))(NNP (retrograde)))(VP (VB (mean))))(. (?))))) |ET| 
1  |BT| (ROOT (ROOT (SBARQ (WHNP (WP (what)))(SQ (VBZ (be))(NP (NP (DT (the))(JJ (medical))(NN (term)))(PP (IN (for))(NP (NP (NN (cancer)))(PP (IN (of))(NP (DT (the))(NN (blood))))))))(. (?))))) |ET| 
1  |BT| (ROOT (ROOT (SBARQ (WHNP (WP (what)))(SQ (VBZ (be))(NP (NP (DT (the))(RBS (most))(JJ (common))(NN (kind)))(PP (IN (of))(NP (NP (NN (skin))(NN (cancer)))(PP (IN (in))(NP (DT (the))(NNP (u.s.))))))))(. (?))))) |ET| 
1  |BT| (ROOT (ROOT (SBARQ (WHNP (WP (what)))(SQ (VBZ (be))(NP (NP (DT (the))(NN (name)))(PP (IN (of))(NP (NP (DT (the))(NN (song)))(SBAR (WHNP (WDT (that)))(S (NP (NNP (dracula)))(VP (VBZ (play))(PP (IN (on))(NP (DT (the))(NN (organ)))))))))))(. (?))))) |ET| 
-1  |BT| (ROOT (ROOT (SBARQ (WHNP (WP (what)))(SQ (VBZ (be))(NP (NP (DT (the))(NN (name)))(PP (IN (of))(NP (NP (DT (the))(NNP (wilkes))(NN (plantation)))(PP (IN (in))(ADJP (VBN (go))(PP (IN (with))(NP (DT (the))(NN (wind))))))))))(. (?))))) |ET| 
-1  |BT| (ROOT (ROOT (SBARQ (WHNP (WP (what)))(SQ (VBZ (be))(NP (NP (DT (the))(NN (name)))(PP (IN (of))(NP (NP (DT (the))(NN (temple)))(SBAR (WHNP (WDT (that)))(S (VP (VBZ (be))(ADJP (JJ (located))(PP (IN (near))(NP (NP (DT (the))(NN (capital))(NN (city)))(PP (IN (of))(NP (NNP (laos))))))))))))))(. (?))))) |ET| 
-1  |BT| (ROOT (ROOT (SBARQ (WHNP (WP (what)))(SQ (VBZ (be))(NP (NP (DT (the))(NN (name)))(PP (IN (of))(NP (NP (DT (the))(NN (managing))(NN (director)))(PP (IN (of))(NP (NNP (apricot))(NNP (computer))))))))(. (?))))) |ET| 
1  |BT| (ROOT (ROOT (SBARQ (WHNP (WP (what)))(SQ (VBZ (do))(NP (DT (a))(JJ (topophobic))(NN (actor)))(VP (VBP (suffer))(PP (IN (from)))))(. (?))))) |ET| 
1  |BT| (ROOT (ROOT (SBARQ (WHNP (WP (what)))(SQ (VBZ (do))(NP (NNP (ribavirin)))(VP (VB (consist))(PP (IN (of)))))(. (?))))) |ET| 
1  |BT| (ROOT (ROOT (SBARQ (WHNP (WP (what)))(SQ (VBZ (do))(NP (DT (a))(NN (spermologer)))(VP (VB (collect))))(. (?))))) |ET| 
-1  |BT| (ROOT (ROOT (SBARQ (WHNP (WP (what)))(SQ (VBZ (do))(NP (DT (a))(NN (emperor)))(VP (VB (do))))(. (?))))) |ET| 
-1  |BT| (ROOT (ROOT (SBARQ (WHNP (WP (what)))(SQ (VBZ (do))(NP (DT (a))(NN (echidna)))(VP (VB (look))(PP (IN (like)))))(. (?))))) |ET| 
-0.66843932240651071641224234554102  |BT| (ROOT (ROOT (SBARQ (WHNP (WP (what)))(SQ (VBZ (do))(NP (DT (a))(NNP (nihilist)))(VP (VB (believe))(PP (IN (in)))))(. (?))))) |ET| 
1  |BT| (ROOT (ROOT (SBARQ (WHNP (WP (what)))(SQ (VBZ (be))(NP (NP (DT (the))(NN (name)))(PP (IN (of))(NP (NP (NP (DT (the))(NNS (kid))(POS (')))(NN (show)))(PP (IN (from))(NP (NNP (canadian))(NNP (public))(NN (tv))))(PP (IN (with))(NP (DT (the))(NN (singing))(NN (pineapple))))))))(. (?))))) |ET| 
1  |BT| (ROOT (ROOT (SBARQ (WHNP (WP (what)))(SQ (VBZ (be))(NP (NP (DT (the))(NN (brand))(NN (name)))(PP (IN (of))(NP (DT (the))(NN (chemical))(NNP (daminozide))))))(. (?))))) |ET| 
1  |BT| (ROOT (ROOT (SBARQ (WHNP (WP (what)))(SQ (VBZ (be))(NP (NP (DT (the))(NN (brand))(NN (name)))(PP (IN (of))(NP (NNP (daminozide))))))(. (?))))) |ET| 
-1  |BT| (ROOT (ROOT (SBARQ (WHNP (WP (what)))(SQ (VBZ (be))(NP (NP (DT (the))(NN (vdrl))(NN (test)))(PP (IN (of))(NP (NN (blood))))))(. (?))))) |ET| 
-0.25809047543276764091757513597258  |BT| (ROOT (ROOT (SBARQ (WHNP (WDT (what))(NP (NP (NN (diamond)))(NP (NN (producer)))))(SQ (VP (VBZ (control))(PP (IN (about))(NP (NP (CD (80))(NN (%)))(PP (IN (of))(NP (NP (DT (the))(NN (world))(POS ('s)))(NNS (diamond))))))))(. (?))))) |ET| 
-1  |BT| (ROOT (ROOT (SBARQ (WHNP (WP (what)))(SQ (VBZ (be))(NP (NP (DT (the))(NN (chemical))(NN (reactivity)))(PP (IN (of))(NP (NN (neon))))))(. (?))))) |ET| 
1  |BT| (ROOT (ROOT (SBARQ (WHNP (WP (what)))(SQ (VBZ (do))(NP (DT (a))(NN (woman)))(VP (VB (want))))(. (?))))) |ET| 
1  |BT| (ROOT (ROOT (SBARQ (WHNP (WP (what)))(SQ (VBZ (do))(NP (DT (a))(NN (chiropodist)))(VP (VB (treat))))(. (?))))) |ET| 
0.61902318599950345578974975069286  |BT| (ROOT (ROOT (SBARQ (WHNP (WP (what)))(SQ (VBZ (do))(NP (DT (a))(NN (tarantula)))(VP (VB (eat))))(. (?))))) |ET| 
-0.017526653602819207422580660704625  |BT| (ROOT (ROOT (SBARQ (WHNP (WHADJP (WRB (how))(JJ (much)))(NN (caffeine)))(SQ (VBZ (be))(PP (IN (in))(NP (NP (DT (a))(ADJP (CD (16))(NN (oz)))(NN (cup)))(PP (IN (of))(NP (NN (coffee)))))))(. (?))))) |ET| 
-0.53103317971171215550185706888442  |BT| (ROOT (ROOT (SBARQ (WHNP (WDT (what))(JJ (high))(NN (school)))(SQ (VBZ (do))(NP (NNP (archie)))(VP (VB (attend))))(. (?))))) |ET| 
-0.19798580602758186763878711644793  |BT| (ROOT (ROOT (SBARQ (WHADJP (WRB (how))(RB (long)))(SQ (VBZ (do))(NP (DT (a))(NN (dog)))(VP (VB (sleep))))(. (?))))) |ET| 
1  |BT| (ROOT (ROOT (SBARQ (WHNP (WP (what)))(SQ (VBZ (be))(NP (NP (DT (the))(NN (chemical))(NN (symbol)))(PP (IN (for))(NP (NN (nitrogen))))))(. (?))))) |ET| 
1  |BT| (ROOT (ROOT (SBARQ (WHNP (WP (what)))(SQ (VBZ (be))(NP (NP (DT (the))(JJ (main))(NN (ingredient)))(PP (IN (of))(NP (NN (yogurt))))))(. (?))))) |ET| 
1  |BT| (ROOT (ROOT (SBARQ (WHNP (WP (what)))(SQ (VBZ (be))(NP (NP (DT (the))(JJ (chemical))(NN (formulum)))(PP (IN (for))(NP (NN (napalm))))))(. (?))))) |ET| 
-1  |BT| (ROOT (ROOT (SBARQ (WHNP (WP (what)))(SQ (VBD (be))(NP (NP (DT (the))(JJ (previous))(NN (name)))(PP (IN (for))(NP (DT (the))(NNP (commonwealth))))))(. (?))))) |ET| 
-1  |BT| (ROOT (ROOT (SBARQ (WHNP (WP (what)))(SQ (VBZ (be))(NP (NP (DT (the))(JJ (main))(NN (application)))(PP (IN (of))(NP (NN (sodium))(NN (hydrosulfite))))))(. (?))))) |ET| 
-1  |BT| (ROOT (ROOT (SBARQ (WHNP (WP (what)))(SQ (VBZ (be))(NP (NP (DT (the))(JJ (medical))(NN (condition)))(PP (IN (of))(NP (NN (hypertension))))))(. (?))))) |ET| 
1  |BT| (ROOT (ROOT (SBARQ (WHNP (WDT (which))(NN (leg)))(SQ (VP (VBZ (do))(NP (DT (a))(NN (cat))(NN (move)))(PP (IN (with))(NP (NP (PRP$ (its))(JJ (left))(JJ (front))(NN (leg)))(SBAR (WHADVP (WRB (when)))(S (VP (VBG (walk)))))))))(: (-))(NP (NP (PRP$ (its))(JJ (left))(NN (rear)))(CC (or))(NP (JJ (right))(JJ (rear))(NN (leg))))(. (?))))) |ET| 
1  |BT| (ROOT (ROOT (SBARQ (WHNP (WDT (what))(NN (disease)))(SQ (VBZ (do))(NP (NP (NNP (katharine))(NNP (hepburn)))(SBAR (S (VP (VBP (have))(VP (ADVP (IN (that)))(VBZ (make))(NP (PRP$ (she))(NN (voice))))))))(VP (VB (shake))))(. (?))))) |ET| 
1  |BT| (ROOT (ROOT (SBARQ (WHNP (WDT (what))(NN (product)))(SQ (VBZ (do))(NP (`` (``))(NNP (mrs.))(NNP (olsen))('' ('')))(VP (VB (promote))))(. (?))))) |ET| 
-1  |BT| (ROOT (ROOT (SBARQ (WHNP (WDT (what))(NN (sea)))(SQ (VP (VBZ (separate))(NP (NNP (naples))(CC (and))(NNP (algiers)))))(. (?))))) |ET| 
1  |BT| (ROOT (ROOT (SBARQ (WHNP (WP (what)))(SQ (VBZ (be))(NP (NP (DT (the))(JJ (full))(NN (classification)))(PP (IN (of))(NP (DT (a))(NN (lady))(NN (bug))))))(. (?))))) |ET| 
-1  |BT| (ROOT (ROOT (SBARQ (WHNP (WDT (what))(NN (function)))(SQ (VBZ (do))(NP (NP (DT (a))(NN (community))(POS ('s)))(NN (water))(NN (tower)))(VP (VB (serve))))(. (?))))) |ET| 
-1  |BT| (ROOT (ROOT (SBARQ (WHNP (WDT (what))(NN (woman)))(SQ (VP (VBZ (have))(VP (VBN (carry))(S (NP (NP (DT (the))(RBS (most))(JJ (multiple))(NNS (birth)))(, (,))(NP (NP (NNS (twin)))(, (,))(NP (NNS (triplet)))(, (,))(FW (etc.)))(, (,)))))))(. (?))))) |ET| 
1  |BT| (ROOT (ROOT (SBARQ (WHNP (WP (what)))(SQ (VBZ (be))(VP (VBN (know))(PP (IN (as))(NP (NP (DT (the))(NN (queen)))(PP (IN (of))(NP (NNPS (drinks))))))))(. (?))))) |ET| 
1  |BT| (ROOT (ROOT (SBARQ (WHNP (WP (what)))(SQ (VBZ (be))(NP (NP (DT (the))(JJS (lowest))(NN (level)))(PP (IN (of))(NP (DT (the))(JJ (american))(NN (judiciary))))))(. (?))))) |ET| 
-1  |BT| (ROOT (ROOT (SBARQ (WHNP (WP (what)))(SQ (VBD (do))(NP (NNP (lenny))(NNP (bruce)))(VP (VBP (say))(SBAR (IN (that))(S (VP (VBD (get))(SBAR (S (NP (PRP (he)))(VP (VBN (arrest))))))))))(. (?))))) |ET| 
-1  |BT| (ROOT (ROOT (SBARQ (WHNP (WP (what)))(SQ (VBD (be))(NP (DT (the))(NN (name)))(VP (VBN (give))(NP (NP (DT (the))(CD (6)))(, (,))(NP (NP (CD (500))(JJ (german))(NN (airforce))(NNS (troops)))(SBAR (WHNP (WDT (that)))(S (VP (VBD (use))(NP (DT (the))(NNP (spanish))(NNP (civil))(NNP (war)))(PP (IN (as))(NP (DT (a))(NN (training))(NN (exercise)))))))))))(. (?))))) |ET| 
-1  |BT| (ROOT (ROOT (S (VP (VB (name))(NP (NP (NNP (alvin))(POS ('s)))(NNS (brother))))))) |ET| 
1  |BT| (ROOT (ROOT (SBARQ (WHNP (WP (what)))(SQ (VBZ (be))(VP (VBN (celebrate))(PP (IN (during))(NP (NP (DT (the))(NN (week)))(PP (IN (of))(NP (NNP (february))(CD (21-27))))))))(. (?))))) |ET| 
1  |BT| (ROOT (ROOT (SBARQ (WHNP (WDT (what))(NN (tragedy)))(SQ (VP (VBD (befall))(NP (NP (DT (the))(NN (city)))(PP (IN (of))(NP (NNP (dogtown)))))(PP (IN (in))(NP (CD (1899))))))(. (?))))) |ET| 
1  |BT| (ROOT (ROOT (SBARQ (WHNP (WP (who)))(SQ (VBD (be))(NP (NP (DT (the))(JJ (first))(NN (animal)))(PP (IN (into))(NP (NN (space))))))(. (?))))) |ET| 
-0.79118093576572756653320084296865  |BT| (ROOT (ROOT (SBARQ (WHNP (WP (what)))(SQ (VBZ (be))(NP (NP (DT (the))(JJ (economic))(NN (impact)))(PP (IN (of))(NP (NP (NN (unemployment)))(PP (IN (on))(NP (DT (the))(NN (economy))))))))(. (?))))) |ET| 
-1  |BT| (ROOT (ROOT (SBARQ (WHNP (WP (what)))(SQ (VBZ (be))(NP (NP (DT (the))(JJ (third))(NN (month)))(PP (IN (of))(NP (DT (the))(NNP (gregorian))(NN (calendar))))))(. (?))))) |ET| 
-0.88360329443211771405231047538109  |BT| (ROOT (ROOT (SBARQ (WHNP (WP (what)))(SQ (VBZ (be))(NP (NP (DT (the))(NN (acreage)))(PP (IN (of))(NP (DT (the))(NNP (chappellet))(NN (vineyard))))))(. (?))))) |ET| 
1  |BT| (ROOT (ROOT (SBARQ (WHNP (WDT (which))(NN (mammal)))(SQ (VP (VP (VBZ (live))(, (,))(S (NP (NP (NNS (breed)))(, (,))(VP (VBZ (eat)))(, (,)))))(CC (and))(VP (VBZ (sleep)))(NP (NN (underground)))))(. (?))))) |ET| 
1  |BT| (ROOT (ROOT (SBARQ (WHNP (WDT (what))(JJ (common))(NN (plant)))(SQ (VP (VBZ (have))(NP (NP (DT (a))(NN (button)))(, (,))(NP (NN (cap)))(, (,))(NP (NN (cup)))(, (,))(NP (NNS (gill)))(, (,))(CC (and))(NP (NN (ring))))))(. (?))))) |ET| 
1  |BT| (ROOT (ROOT (SBARQ (WHNP (WDT (what))(NN (shampoo)))(SQ (VP (VBZ (prevent))(NP (NN (eczema))(, (,))(NN (seborrhea))(, (,))(CC (and))(NN (psoriasis)))))(. (?))))) |ET| 
-0.87149789599876148482593407607055  |BT| (ROOT (ROOT (SBARQ (WHNP (WDT (what))(NN (river)))(SQ (VP (VBZ (run))(PP (IN (through))(NP (NNP (colorado))(, (,))(NNP (kansas))(, (,))(CC (and))(NNP (oklahoma))))))(. (?))))) |ET| 
-1  |BT| (ROOT (ROOT (SBARQ (WHNP (WDT (what))(NN (island))(NN (group)))(SQ (VP (VBZ (contain))(NP (NNP (jersey))(, (,))(NNP (guernsey))(, (,))(NNP (sark))(CC (and))(NNP (herm)))))(. (?))))) |ET| 
0.0038773239001282377991230987390736  |BT| (ROOT (ROOT (SBARQ (WHNP (WP (what)))(SQ (VBZ (be))(NP (NP (DT (the))(JJ (only))(NN (animal)))(SBAR (WHNP (WDT (that)))(S (VP (MD (can))(VP (VB (turn))(NP (PRP$ (its))(NN (stomach)))(PP (IN (inside))(ADVP (IN (out))))))))))(. (?))))) |ET| 
1  |BT| (ROOT (ROOT (SBARQ (WHNP (WP (what)))(SQ (VBZ (be))(NP (NP (DT (the))(NN (name)))(PP (IN (of))(NP (NP (DT (the))(NNP (family))(NNP (circus))(POS ('s)))(NN (dog))))))(. (?))))) |ET| 
1  |BT| (ROOT (ROOT (SBARQ (WHNP (WP (what)))(SQ (VBZ (be))(NP (NP (DT (the))(JJ (predominant))(NN (color)))(PP (IN (of))(NP (DT (the))(NNP (tab))(NN (label))))))(. (?))))) |ET| 
1  |BT| (ROOT (ROOT (SBARQ (WHNP (WP (what)))(SQ (VBZ (be))(NP (NP (DT (the))(NN (shape)))(PP (IN (of))(NP (NP (DT (a))(NN (camel))(POS ('s)))(NN (spine))))))(. (?))))) |ET| 
0.4630996833828807668353988447052  |BT| (ROOT (ROOT (SBARQ (WHNP (WHNP (WDT (what))(NN (kind)))(PP (IN (of))(NP (NN (substance)))))(SQ (VBZ (be))(VP (VBN (dextropropoxyphen))(NP (NN (napsylate)))))(. (?))))) |ET| 
-1  |BT| (ROOT (ROOT (SBARQ (WHNP (WP (what)))(SQ (VBZ (be))(NP (NP (DT (the))(JJ (correct))(NN (way)))(S (VP (TO (to))(VP (VB (abbreviate))(NP (NN (cc))))))))(. (.))))(ROOT (FRAG (PP (IN (at))(NP (NP (DT (the))(NN (bottom)))(PP (IN (of))(NP (DT (a))(NN (business))(NN (letter))))))(. (?))))) |ET| 
-0.17603614296151115503619166702265  |BT| (ROOT (ROOT (SBARQ (WHNP (WDT (what))(NN (tv))(NN (sitcom))(NN (character)))(SQ (VP (VBD (have))(NP (DT (the))(JJ (maiden))(NN (name))(NNP (ethel))(NNP (potter)))))(. (?))))) |ET| 
1  |BT| (ROOT (ROOT (SBARQ (WHNP (WDT (what))(NN (tv))(NN (station)))(SQ (VP (VBD (do))(NP (NNP (mary))(NNP (richards))(NN (work)))(PP (IN (for)))))(. (?))))) |ET| 
1  |BT| (ROOT (ROOT (SBARQ (WHNP (WDT (what))(NN (handicraft)))(SQ (VP (VBZ (require))(S (NP (PRP (you)))(VP (TO (to))(VP (VB (interlace))(NP (PRP$ (you))(NN (warp))(CC (and))(NN (weft))))))))(. (?))))) |ET| 
1  |BT| (ROOT (ROOT (SBARQ (WHNP (WDT (what))(NN (basketball))(NN (maneuver)))(SQ (VBD (do))(NP (NNP (bert))(NNP (loomis)))(VP (VB (invent))))(. (?))))) |ET| 
-1  |BT| (ROOT (ROOT (SBARQ (WHNP (WDT (what))(NN (tv))(NN (detective)))(SQ (VBD (do))(NP (NNP (craig))(NNP (stevens)))(VP (VB (play))))(. (?))))) |ET| 
-1  |BT| (ROOT (ROOT (SBARQ (WHNP (WDT (what))(NN (radio))(NN (station)))(SQ (VP (VBD (do))(NP (NNP (paul))(NNP (harvey))(NN (work)))(PP (IN (for)))))(. (?))))) |ET| 
-0.28817675428969991013872231633286  |BT| (ROOT (ROOT (SBARQ (WHNP (WDT (what))(NP (NNP (pope))))(SQ (VBD (inaugurate))(NP (NNP (vatican)))(NP (NNP (international))(NNP (radio))))(. (?))))) |ET| 
1  |BT| (ROOT (ROOT (SBARQ (WHNP (WP (what)))(SQ (VBZ (be))(NP (NP (DT (the))(NN (name)))(PP (IN (of))(NP (NP (DT (the))(JJ (islamic))(NN (counterpart)))(PP (TO (to))(NP (DT (the))(NNP (red))(NNP (cross))))))))(. (?))))) |ET| 
1  |BT| (ROOT (ROOT (SBARQ (WHNP (WP (what)))(SQ (VBZ (be))(NP (NP (DT (the))(JJ (traditional))(NN (drink)))(PP (IN (at))(NP (DT (the))(NNP (kentucky))(NNP (derby))))))(. (?))))) |ET| 
1  |BT| (ROOT (ROOT (SBARQ (WHNP (WP (what)))(SQ (VBZ (be))(NP (NP (DT (the))(JJ (first))(NN (book)))(PP (IN (of))(NP (DT (the))(NNP (old))(NN (testament))))))(. (?))))) |ET| 
-0.60722013434443700141684985283064  |BT| (ROOT (ROOT (SBARQ (WHNP (WP (what)))(SQ (VBZ (be))(NP (NP (DT (the))(NN (horsepower)))(PP (IN (of))(NP (DT (the))(NN (shuttle))(NNS (booster))))))(. (?))))) |ET| 
-1  |BT| (ROOT (ROOT (SBARQ (WHNP (WP (what)))(SQ (VBZ (be))(NP (NP (DT (the))(JJ (seafaring))(NN (name)))(PP (IN (for))(NP (NP (DT (the))(JJ (southern))(NN (tip)))(PP (IN (of))(NP (NNP (south))(NNP (america))))))))(. (?))))) |ET| 
-1  |BT| (ROOT (ROOT (SBARQ (WHNP (WP (what)))(SQ (VBZ (be))(NP (NP (DT (the))(JJ (classic))(NN (definition)))(PP (IN (of))(NP (JJ (tragic))(NN (hero))))))(. (?))))) |ET| 
-1  |BT| (ROOT (ROOT (SBARQ (WHNP (WP (what)))(SQ (VBZ (be))(NP (NP (DT (the))(JJ (poetic))(NN (meter)))(PP (IN (of))(NP (JJ (blank))(NN (verse))))))(. (?))))) |ET| 
1  |BT| (ROOT (ROOT (SBARQ (WHNP (WDT (what))(JJ (caribbean))(NN (cult)))(SQ (VBD (do))(NP (NNP (marcus))(NNP (garvey)))(VP (VB (originate))))(. (?))))) |ET| 
1  |BT| (ROOT (ROOT (FRAG (WHNP (WHNP (WDT (what)))(PP (NP (ADJP (NNP (morris))(NNP (west))(JJ (novel)))(NNS (deal)))(IN (with))(NP (JJ (russian))(NN (bishop)))))(SBAR (WHNP (WP (who)))(S (VP (VBZ (become))(NP (NNP (pope))))))(. (?))))) |ET| 
1  |BT| (ROOT (ROOT (SBARQ (WHNP (WDT (what))(NN (tv))(NN (show)))(SQ (VBD (do))(NP (NNP (john))(NNP (sebastian)))(VP (VB (sing))(NP (DT (the))(NN (theme)))(PP (IN (for)))))(. (?))))) |ET| 
-1  |BT| (ROOT (ROOT (SBARQ (WHNP (WHNP (WDT (what))(NN (police)))(NP (NN (force))))(SQ (VBD (do))(NP (NNP (mack))(NNP (sennett)))(VP (VB (create))))(. (?))))) |ET| 
-0.94476641223113833056856947223423  |BT| (ROOT (ROOT (SBARQ (WHNP (WDT (what))(JJ (dumb-but-loveable))(NN (character)))(SQ (VBD (do))(NP (NNP (maurice))(NNP (gosfield)))(VP (VB (play))(PP (IN (on))(NP (DT (the))(NNP (phil))(NNP (silvers))(NNP (show))))))(. (?))))) |ET| 
-1  |BT| (ROOT (ROOT (SBARQ (WHNP (WDT (what))(JJ (first))(NN (name)))(SQ (VBD (be))(NP (NNP (nipsy))(NNP (russell)))(VP (VBN (give))(PP (IN (at))(NP (NN (birth))))))(. (?))))) |ET| 
1  |BT| (ROOT (ROOT (SBARQ (WHNP (WP (what)))(SQ (VBZ (be))(NP (NP (NN (state))(NN (tree)))(PP (IN (of))(NP (NNP (nebraska))))))(. (?))))) |ET| 
1  |BT| (ROOT (ROOT (SBARQ (WHNP (WP (what)))(SQ (VBZ (be))(NP (NP (DT (the))(JJ (common))(NN (name)))(PP (IN (for))(NP (JJ (acetylsalicylic))(NN (acid))))))(. (?))))) |ET| 
1  |BT| (ROOT (ROOT (SBARQ (WHNP (WP (what)))(SQ (VBZ (be))(NP (NP (DT (the))(NN (chemical))(NN (composition)))(PP (IN (of))(NP (DT (a))(NNP (barbie))))))(. (?))))) |ET| 
-0.058754867856166043127430498316244  |BT| (ROOT (ROOT (SBARQ (WHNP (WP (what)))(SQ (VBZ (be))(NP (NP (DT (the))(NN (chemical))(NN (reactivity)))(PP (IN (of))(NP (NNP (argon))))))(. (?))))) |ET| 
-0.0022256657425057252419620112959819  |BT| (ROOT (ROOT (SBARQ (WHNP (WP (what)))(SQ (VBZ (be))(NP (NP (DT (the))(NN (chemical))(NN (reactivity)))(PP (IN (of))(NP (NNP (helium))))))(. (?))))) |ET| 
-1  |BT| (ROOT (ROOT (SBARQ (WHNP (WP (what)))(SQ (VBZ (be))(NP (NP (NP (NN (nature))(POS ('s)))(NN (purpose)))(PP (IN (for))(NP (NNS (tornado))))))(. (?))))) |ET| 
1  |BT| (ROOT (ROOT (SBARQ (WHNP (WDT (what))(NN (war)))(SQ (VBD (do))(NP (NP (NNP (johnny))(NNP (reb)))(CC (and))(NP (NNP (billy))(NNP (yank))))(VP (VB (fight))))(. (?))))) |ET| 
1  |BT| (ROOT (ROOT (SBARQ (WHNP (WDT (what))(NN (movie)))(SQ (VBD (do))(NP (NNP (steven))(NNP (spielberg)))(VP (VB (direct))(PP (IN (in))(NP (CD (1975))))))(. (?))))) |ET| 
1  |BT| (ROOT (ROOT (SBARQ (WHNP (WDT (what))(NN (game)))(SQ (VBZ (do))(NP (NNP (garry))(NNP (kasparov)))(VP (VB (play))))(. (?))))) |ET| 
-1  |BT| (ROOT (ROOT (SBARQ (WHNP (WDT (what))(NN (planet)))(SQ (VBD (do))(NP (NNP (percival))(NNP (lovell)))(VP (VB (discover))))(. (?))))) |ET| 
-0.17280000196965450420805154863046  |BT| (ROOT (ROOT (SBARQ (WHNP (WP (what)))(SQ (VBP (be))(NP (NP (NN (tourist))(NNS (attraction)))(PP (IN (in))(NP (NNP (reims))))))(. (?))))) |ET| 
-1  |BT| (ROOT (ROOT (SBARQ (WHNP (WDT (what))(NN (room)))(SQ (VBD (do))(NP (NNP (w.c.))(NNP (fields)))(VP (VB (keep))(NP (PRP$ (he))(NN (library)))(PP (IN (in)))))(. (?))))) |ET| 
1  |BT| (ROOT (ROOT (SBARQ (WHNP (WP (what)))(SQ (VBZ (be))(NP (NP (DT (the))(JJ (singular)))(PP (IN (of))(NP (NNS (dice))))))(. (?))))) |ET| 
1  |BT| (ROOT (ROOT (SBARQ (WHNP (WP (what)))(SQ (VBZ (be))(NP (NP (DT (the))(VBN (color))(NN (part)))(PP (IN (of))(NP (NP (DT (the))(NN (eye)))(VP (VBN (call)))))))(. (?))))) |ET| 
1  |BT| (ROOT (ROOT (SBARQ (WHNP (WP (what)))(SQ (VBZ (be))(NP (NP (DT (the))(JJ (organizational))(NN (structure)))(PP (IN (of))(NP (DT (the))(NNP (new))(NNP (delhi))(NNP (indira))(NNP (gandhi))(NN (airport))))))(. (?))))) |ET| 
-0.33417751295682340817450040049152  |BT| (ROOT (ROOT (SBARQ (WHNP (WP (what)))(SQ (VBZ (be))(NP (NP (DT (the))(NN (difference)))(PP (IN (between))(NP (NP (DT (a))(JJ (classical)))(CC (and))(NP (DT (a))(JJ (acoustic))(NN (guitar)))))))(. (?))))) |ET| 
-0.1553313563614026893144881569242  |BT| (ROOT (ROOT (SBARQ (WHADVP (WRB (where)))(SQ (VBZ (do))(NP (NNP (buzz))(NNP (aldrin)))(VP (VBP (want))(S (VP (TO (to))(VP (VB (build))(NP (DT (a))(JJ (permanent))(, (,))(JJ (manned))(NN (space))(NN (station))))))))(. (?))))) |ET| 
-1  |BT| (ROOT (ROOT (SBARQ (WHNP (WP (what)))(SQ (VBZ (be))(NP (NP (DT (the))(NN (meaning)))(PP (IN (of))(NP (DT (the))(JJ (zoological))(NN (term))(NN (ruminant))))))(. (?))))) |ET| 
-0.18047685937199681172060650169442  |BT| (ROOT (ROOT (SBARQ (WHNP (WP (what)))(SQ (VBZ (be))(NP (NP (DT (the))(NN (difference)))(PP (IN (between))(NP (NP (JJ (classical))(NN (conditioning)))(CC (and))(NP (JJ (operant))(NN (conditioning)))))))(. (?))))) |ET| 
1  |BT| (ROOT (ROOT (SBARQ (WHNP (WDT (what))(NN (horse)))(SQ (VBD (do))(NP (NNP (zorro)))(VP (VB (ride))))(. (?))))) |ET| 
1  |BT| (ROOT (ROOT (SBARQ (WHNP (WDT (what))(NN (novel)))(SQ (VBD (do))(NP (NNP (ian))(NNP (fleming)))(VP (VB (introduce))(NP (NNP (james))(NNP (bond)))(PP (IN (in)))))(. (?))))) |ET| 
-1  |BT| (ROOT (ROOT (SBARQ (WHNP (WDT (what))(NN (actor)))(SQ (VP (ADVP (RB (first)))(VBD (portray))(NP (NNP (james))(NNP (bond)))))(. (?))))) |ET| 
-1  |BT| (ROOT (ROOT (SBARQ (WHNP (WDT (what))(NN (count)))(SQ (VBD (do))(NP (NNP (alexandre))(NNP (dumas)))(VP (VB (write))(PP (IN (about)))))(. (?))))) |ET| 
-0.91659128314838589357549381020362  |BT| (ROOT (ROOT (SBARQ (WHNP (WDT (what))(NN (state)))(SQ (VBZ (do))(NP (NNP (charles))(NNP (robb)))(VP (VB (represent))))(. (?))))) |ET| 
1  |BT| (ROOT (ROOT (SBARQ (WHNP (WP (what)))(SQ (VBZ (be))(NP (NP (DT (the))(NN (mascot)))(PP (IN (for))(NP (NNP (notre))(NNP (dame))(NNP (university))))))(. (?))))) |ET| 
1  |BT| (ROOT (ROOT (SBARQ (WHNP (WP (what)))(SQ (VBZ (be))(NP (NP (DT (the))(NN (symbol)))(PP (IN (for))(NP (DT (the))(JJ (zodiacal))(NN (sign))(NNP (gemini))))))(. (?))))) |ET| 
1  |BT| (ROOT (ROOT (SBARQ (WHNP (WP (what)))(SQ (VBZ (be))(NP (NP (DT (the))(NN (term)))(PP (IN (for))(NP (DT (any))(JJ (four-sided))(NN (figure))))))(. (?))))) |ET| 
-1  |BT| (ROOT (ROOT (SBARQ (WHNP (WP (what)))(SQ (VBZ (be))(NP (NP (DT (the))(NN (website)))(PP (IN (for))(NP (DT (the))(NNP (usa))(NN (journal))))))(. (?))))) |ET| 
-0.12439561958100400773652438601857  |BT| (ROOT (ROOT (SBARQ (WHNP (WDT (what))(NN (catch-22))(NN (character)))(SQ (VBZ (be))(VP (VBN (elect))(NP (NP (NN (mayor)))(PP (IN (of))(NP (QP (PDT (half))(DT (a))(NN (dozen)))(JJ (italian))(NNS (city)))))))(. (?))))) |ET| 
1  |BT| (ROOT (ROOT (SBARQ (WHNP (WDT (what))(NN (color)))(SQ (VBP (be))(NP (NN (school))(NNS (bus))))(. (?))))) |ET| 
1  |BT| (ROOT (ROOT (SBARQ (WHNP (WDT (what))(NN (disease)))(SQ (VP (VBD (plague))(NP (NNP (europe))(, (,))(NNP (africa))(CC (and))(NNP (asia)))))(. (?))))) |ET| 
1  |BT| (ROOT (ROOT (SBARQ (WHNP (WDT (what))(NN (alloy)))(SQ (VP (VBP (do))(NP (NP (NN (copper))(CC (and))(NN (tin)))(NN (form)))))(. (?))))) |ET| 
-1  |BT| (ROOT (ROOT (SBARQ (WHNP (WP (what)))(SQ (VBZ (be))(VP (VBN (measure))(PP (IN (in))(NP (NNS (curie))))))(. (?))))) |ET| 
-1  |BT| (ROOT (ROOT (SBARQ (WHNP (WDT (what))(NN (direction)))(SQ (VBP (do))(NP (DT (the))(JJS (best))(NN (surfing))(NNS (beach)))(VP (VB (face))))(. (?))))) |ET| 
-0.5970260380249006182395987707423  |BT| (ROOT (ROOT (SBARQ (WHNP (WDT (what))(NN (comedian)))(SQ (VBD (be))(VP (VBN (bear))(NP (NNP (allen))(NNP (stewart))(NNP (konigsberg)))))(. (?))))) |ET| 
1  |BT| (ROOT (ROOT (SBARQ (WHNP (WP (what)))(SQ (VBZ (do))(NP (NNP (god)))(VP (VB (create))(PP (IN (in))(NP (NP (DT (the))(JJ (first))(NN (sentence)))(PP (IN (of))(NP (DT (the))(NNP (bible))))))))(. (?))))) |ET| 
1  |BT| (ROOT (ROOT (SBARQ (WHNP (WP (what)))(SQ (VBD (do))(NP (NNP (walter))(NNP (huston)))(VP (VB (remove))(S (VP (TO (to))(VP (VB (perform))(PP (IN (in))(NP (DT (the))(NN (movie))))(NP (NP (DT (the))(NN (treasure)))(PP (IN (of))(NP (DT (the))(NNP (sierra))(NNP (madre))))))))))(. (?))))) |ET| 
1  |BT| (ROOT (ROOT (SBARQ (WHNP (WP (what)))(SQ (VP (VBD (do))(NP (NP (DT (the))(JJ (chinese))(NN (emperor)))(ADJP (JJ (present))(PP (TO (to))(NP (DT (the))(NNP (english))(NN (soldier))(NNP (gordon))))))(PP (IN (in))(NP (NP (NN (recognition)))(PP (IN (of))(NP (PRP$ (he))(NNS (service))))))(PP (IN (in))(NP (NN (quelling))(NNS (rebellion))))))(. (?))))) |ET| 
-1  |BT| (ROOT (ROOT (SBARQ (WHNP (WHNP (WDT (what))(NNS (feature)))(PP (IN (of))(NP (DT (the))(JJ (african))(NN (elephant)))))(SQ (VBP (be))(NP (NP (JJR (larger)))(PP (IN (than))(NP (NP (DT (those)))(PP (IN (of))(NP (DT (the))(JJ (indian))(NN (elephant))))))))(. (?))))) |ET| 
-0.69201133934185032892116851144237  |BT| (ROOT (ROOT (SBARQ (WHNP (WHNP (WDT (what))(NN (actress))(POS ('s)))(NN (autobiography)))(SQ (VBZ (be))(VP (VBN (title))(NP (NP (NNP (shelley)))(: (:))(VP (ADVP (RB (also)))(VBN (know))(PP (IN (as))(NP (NNP (shirley))))))))(. (?))))) |ET| 
-0.77052630250196640915305579255801  |BT| (ROOT (ROOT (SBARQ (WHNP (WDT (what))(NNS (current)))(SQ (VP (VBP (affect))(NP (NP (NP (DT (the))(NN (area)))(PP (IN (of))(NP (DT (the))(NNP (shetland))(NNPS (islands)))))(CC (and))(NP (NP (NNP (orkney))(NNPS (islands)))(PP (IN (in))(NP (DT (the))(NNP (north))(NNP (sea))))))))(. (?))))) |ET| 
1  |BT| (ROOT (ROOT (SBARQ (WHNP (WDT (what))(NP (JJ (ill-fated))(NN (craft))))(SQ (VBD (be))(VP (VBN (captain))(PP (IN (by))(NP (NNP (ernst))(NNP (lehmann))))))(. (?))))) |ET| 
1  |BT| (ROOT (ROOT (S (NP (NNP (mississippi)))(VP (VBZ (be))(VP (VBN (nickname))(NP (WP (what)))))(. (?))))) |ET| 
1  |BT| (ROOT (ROOT (SBARQ (WHNP (WDT (what))(JJ (civil))(NN (war)))(SQ (VBD (be))(VP (VBN (fight))(PP (IN (between))(NP (CD (1936))(CC (and))(CD (1939))))))(. (?))))) |ET| 
-0.71706350328906109936610846489202  |BT| (ROOT (ROOT (S (NP (NNP (hazmat)))(VP (VBZ (stand))(WHPP (IN (for))(WHNP (WP (what)))))(. (?))))) |ET| 
-1  |BT| (ROOT (ROOT (S (NP (NP (DT (the))(NNP (olympic))(NNPS (games)))(WHPP (IN (in))(WHNP (WDT (which))(NN (year)))))(VP (VBD (allow))(S (NP (NNP (nadia))(NNP (comaneci)))(VP (TO (to))(VP (VB (become))(ADJP (JJ (popular)))))))(. (?))))) |ET| 
-0.31193595708662713583692038810113  |BT| (ROOT (ROOT (S (NP (NNP (colin))(NNP (powell)))(VP (VBZ (be))(ADJP (RBS (most))(JJ (famous))(WHPP (IN (for))(WHNP (WP (what))))))(. (?))))) |ET| 
1  |BT| (ROOT (ROOT (SBARQ (WHNP (WP (what)))(SQ (VBD (be))(NP (NP (DT (the))(NN (name)))(PP (IN (of))(NP (NP (DT (the))(NNP (u.s.))(NNP (navy))(NN (gunboat)))(PP (IN (in))(NP (NP (DT (the))(NN (film)))(NP (DT (the))(NNP (sand))(NNP (pebbles)))))))))(. (?))))) |ET| 
1  |BT| (ROOT (ROOT (SBARQ (WHNP (WP (what)))(SQ (VBD (be))(NP (NP (DT (the))(NN (name)))(PP (IN (of))(NP (NP (NNP (sergeant))(NNP (preston)))(PP (IN (of))(NP (NP (DT (the))(NNP (yukon))(POS ('s)))(NN (lead))(NN (dog))))))))(. (?))))) |ET| 
-0.040434468983676474795885269486462  |BT| (ROOT (ROOT (SBARQ (WHNP (WP (what)))(SQ (VBZ (be))(NP (DT (the))(ADJP (VBN (lose)))(NP (NNP (colony)))))(. (?))))) |ET| 
-1  |BT| (ROOT (ROOT (SBARQ (WHNP (WP (what)))(SQ (VBD (be))(NP (NP (DT (the))(NN (name)))(PP (IN (of))(NP (`` (``))(DT (the))(NNPS (muppets))('' (''))(NN (creator))))))(. (?))))) |ET| 
-1  |BT| (ROOT (ROOT (SBARQ (WHNP (WP (what)))(SQ (VBD (be))(NP (NP (DT (the))(NN (name)))(PP (IN (of))(NP (NP (DT (the))(NNS (187)))(NP (NP (JJ (irish))(JJ (terrorist))(NN (group)))(PP (IN (in))(NP (NNP (pennsylvania))(NN (mining))(NNS (area)))))))))(. (?))))) |ET| 
-1  |BT| (ROOT (ROOT (SBARQ (WHNP (WP (what)))(SQ (VBD (be))(NP (NP (DT (the))(NN (name)))(PP (IN (of))(NP (NP (NNP (randy))(NNP (steven))(NNP (craft))(POS ('s)))(NN (lawyer))))))(. (?))))) |ET| 
0.96142059066714968817990438765264  |BT| (ROOT (ROOT (S (NP (NNP (madonna)))(VP (VBZ (advertise))(WHPP (IN (for))(WHNP (WP (what))(NP (JJ (soft))(NN (drink))))))(. (?))))) |ET| 
0.59451782328864044568916824573535  |BT| (ROOT (ROOT (S (NP (NNP (ray))(NNP (charles)))(VP (VBZ (play))(WHNP (WDT (which))(NN (instrument))))(. (?))))) |ET| 
1  |BT| (ROOT (ROOT (S (NP (NNP (ray))(NNP (charles)))(VP (VBZ (be))(ADVP (RB (best)))(VP (VBN (know))(PP (IN (for))(S (VP (VBG (play))(WHNP (WDT (what))(NN (instrument))))))))(. (?))))) |ET| 
-0.9229821076269424384719286535983  |BT| (ROOT (ROOT (S (NP (NNP (boxing))(NNP (day)))(VP (VBZ (be))(VP (VBN (celebrate))(WHPP (IN (on))(WHNP (WDT (what))(NN (date))))))(. (?))))) |ET| 
-1  |BT| (ROOT (ROOT (SBARQ (WHNP (WDT (what))(NP (ADJP (JJ (wild))(CC (and))(JJ (crazy)))(NN (guy))))(SQ (VP (VBD (write))(NP (NP (DT (a))(NN (book)))(VP (VBN (call))(NP (NNP (cruel))(NNP (shoes)))))))(. (?))))) |ET| 
-0.72399186472786403179213721159613  |BT| (ROOT (ROOT (SBARQ (WHNP (WDT (what))(JJ (former))(JJ (major-league))(JJ (left-handed))(NN (baseball))(NN (pitcher)))(SQ (VBD (be))(VP (VBN (know))(PP (IN (as))(NP (`` (``))(NN (space))(NN (man))('' (''))))))(. (?))))) |ET| 
1  |BT| (ROOT (ROOT (SBARQ (WHNP (WP (what)))(SQ (VBD (be))(NP (NP (DT (the))(NN (name)))(PP (IN (of))(NP (NP (NNP (robert))(NNP (fulton))(POS ('s)))(ADJP (RBS (most))(JJ (famous)))(NN (steamboat))))))(. (?))))) |ET| 
1  |BT| (ROOT (ROOT (SBARQ (WHNP (WP (what)))(SQ (VBD (be))(NP (NP (DT (the))(NN (sequel)))(PP (TO (to))(NP (NP (DT (the))(NNP (moon))(POS ('s)))(NNP (balloon))))))(. (?))))) |ET| 
1  |BT| (ROOT (ROOT (SBARQ (WHNP (WP (what)))(SQ (VBD (be))(NP (NP (DT (the))(NN (sister))(NN (ship)))(PP (IN (of))(NP (DT (the))(NNP (olympic))))))(. (?))))) |ET| 
-0.49634952419107247756357992329868  |BT| (ROOT (ROOT (SBARQ (WHNP (WP (what)))(SQ (VBD (be))(NP (NP (DT (the))(VBG (rally))(NN (cry)))(PP (IN (of))(NP (DT (the))(JJ (early))(JJ (american))(NNS (revolutionary))))))(. (?))))) |ET| 
-1  |BT| (ROOT (ROOT (SBARQ (WHNP (WP (what)))(SQ (VBD (be))(NP (NP (DT (the))(JJ (minimum))(NN (wage)))(PP (IN (in))(NP (CD (1991))))))(. (?))))) |ET| 
-1  |BT| (ROOT (ROOT (SBARQ (WHNP (WP (what)))(SQ (VBD (be))(NP (NP (DT (the))(NN (filling)))(PP (IN (in))(NP (DT (the))(JJ (first))(NN (golf))(NNS (ball))))))(. (?))))) |ET| 
1  |BT| (ROOT (ROOT (SBARQ (WHNP (WDT (what))(NN (cooking))(NN (oil)))(SQ (VBZ (have))(NP (`` (``))(NN (corn))(NN (goodness))('' (''))))(. (?))))) |ET| 
1  |BT| (ROOT (ROOT (SBARQ (WHNP (WDT (what))(NN (gaming))(NNS (device)))(SQ (VBD (be))(VP (VBN (dub))(NP (NP (`` (``))(NNP (mississippi))(NNS (marble))('' ('')))(CC (and))(NP (`` (``))(NNP (memphis))(NNS (domino))('' (''))))))(. (?))))) |ET| 
1  |BT| (ROOT (ROOT (SBARQ (WHNP (WDT (what))(NP (NP (NNP (george))(NNP (harrison)))(NP (NN (tune)))))(SQ (VP (VBD (sound))(ADVP (RB (too))(RB (much)))(SBAR (IN (like))(S (NP (PRP (he)))(VP (VBZ (be))(ADJP (RB (so))(JJ (fine))(PP (IN (by))(NP (DT (the))(NNPS (chiffons))))))))))(. (?))))) |ET| 
-1  |BT| (ROOT (ROOT (SBARQ (WHNP (WDT (what))(NP (NP (NN (radio))(, (,))(NN (tv))(CC (and))(NN (movie)))(NP (NN (character)))))(SQ (VBD (do))(NP (NP (NNP (jackie))(NNP (gleason)))(CC (and))(NP (NNP (william))(NNP (bendix))))(VP (VB (play))))(. (?))))) |ET| 
-1  |BT| (ROOT (ROOT (SBARQ (WHNP (WDT (what))(NP (NP (JJ (famous))(NN (film)))(CC (and))(NP (NN (tv))(NN (cowboy)))))(SQ (VP (VBD (lend))(NP (PRP$ (he))(NN (name)))(PP (TO (to))(NP (DT (a))(JJ (fast))(NN (food))(NN (chain))))))(. (?))))) |ET| 
-1  |BT| (ROOT (ROOT (SBARQ (WHNP (WDT (what)))(SQ (VP (VBZ (attract))(NP (NNS (tourist)))(PP (TO (to))(NP (NNP (reims))))))(. (?))))) |ET| 
1  |BT| (ROOT (ROOT (SBARQ (WHNP (WP (what)))(SQ (VBD (be))(NP (NP (DT (the))(JJS (longest))(NN (war)))(PP (IN (in))(NP (NNP (u.s.))(NN (history))))))(. (?))))) |ET| 
1  |BT| (ROOT (ROOT (SBARQ (WHNP (WP (what)))(SQ (VBD (be))(NP (NP (DT (the))(CD (five))(NN (opening))(NNS (word)))(PP (IN (on))(NP (NNP (ben))(NNP (casey))))))(. (?))))) |ET| 
1  |BT| (ROOT (ROOT (SBARQ (WHNP (WP (what)))(SQ (VBD (be))(NP (NP (DT (the))(JJ (eighth))(NN (day)))(PP (VBG (follow))(NP (NP (DT (the))(NNPS (nones)))(PP (IN (in))(NP (NP (DT (each))(NN (month)))(PP (IN (of))(NP (DT (the))(NNP (roman))(NN (calendar)))))))))(VP (VBN (call))))(. (?))))) |ET| 
-0.8196881287247905767401334742317  |BT| (ROOT (ROOT (SBARQ (WHNP (WP (what)))(SQ (VBZ (be))(NP (NP (DT (the))(JJ (american))(NN (dollar))(NN (equivalent)))(PP (IN (for))(NP (NP (CD (8))(NNS (pound)))(PP (IN (in))(NP (DT (the))(NNP (u.k.))))))))(. (?))))) |ET| 
-1  |BT| (ROOT (ROOT (SBARQ (WHNP (WP (what)))(SQ (VBZ (be))(NP (NP (DT (the))(NN (history)))(PP (IN (of))(NP (DT (the))(JJ (soft))(NN (drink))(NNP (mr.))(NNP (pibb))))))(. (?))))) |ET| 
-1  |BT| (ROOT (ROOT (SBARQ (WHNP (WP (what)))(SQ (VBZ (be))(NP (NP (DT (the))(NN (cost)))(PP (IN (of))(NP (DT (the))(NNS (drug)))))(VP (VBN (use))(PP (IN (in))(NP (NN (tuberculosis))(NNS (treatment))))))(. (?))))) |ET| 
-0.42249116428608218809515051361814  |BT| (ROOT (ROOT (SBARQ (WHNP (WDT (what))(NN (detective)))(SQ (VP (VP (VBZ (live))(PP (IN (on))(NP (NNP (punchbowl))(NNP (hill)))))(CC (and))(VP (VBZ (have))(NP (CD (11))(NNS (child))))))(. (?))))) |ET| 
1  |BT| (ROOT (ROOT (SBARQ (WHNP (WDT (what))(NNP (hermann))(NNP (hesse))(NN (book)))(SQ (VP (VBD (give))(NP (PRP$ (its))(NN (name)))(PP (TO (to))(NP (DT (a))(NN (rock))(NN (group))))))(. (?))))) |ET| 
1  |BT| (ROOT (ROOT (SBARQ (WHNP (WDT (what)))(SQ (VP (VBD (kill))(NP (NNP (bob))(NNP (marley)))))(. (?))))) |ET| 
1  |BT| (ROOT (ROOT (SBARQ (WHNP (WDT (what))(ADJP (JJ (non-mechanical)))(NN (sport)))(SQ (VP (VBZ (achieve))(NP (DT (the))(JJS (highest))(NNS (speed)))))(. (?))))) |ET| 
-0.99644957836748204726973199285567  |BT| (ROOT (ROOT (SBARQ (WHNP (WDT (what))(NN (university)))(SQ (VP (VBD (fire))(NP (NNP (angela))(NNP (davis)))))(. (?))))) |ET| 
-1  |BT| (ROOT (ROOT (SBARQ (WHNP (WDT (what))(NN (explorer)))(SQ (VBD (be))(VP (VBN (nickname))(NP (NP (NNP (iberia))(POS ('s)))(NN (pilot)))))(. (?))))) |ET| 
-0.39087182832768380125187945850485  |BT| (ROOT (ROOT (SBARQ (WHNP (WDT (what))(NN (group)))(SQ (VP (VBD (kidnap))(NP (NNP (patricia))(NNP (hearst)))))(. (?))))) |ET| 
1  |BT| (ROOT (ROOT (SBARQ (WHNP (WP (what)))(SQ (VBZ (be))(NP (NP (DT (the))(JJ (second-most-used))(NN (murder))(NN (weapon)))(PP (IN (in))(NP (DT (the))(NNP (u.s.))))))(. (?))))) |ET| 
1  |BT| (ROOT (ROOT (SBARQ (WHNP (WP (what)))(SQ (VBZ (be))(NP (NP (DT (the))(NN (lens)))(PP (IN (behind))(NP (NP (DT (the))(NN (iris)))(PP (IN (in))(NP (DT (the))(NN (eye)))))))(VP (VBN (call))))(. (?))))) |ET| 
1  |BT| (ROOT (ROOT (SBARQ (WHNP (WP (what)))(SQ (VBZ (be))(NP (NP (DT (the))(NN (no.))(CD (1))(NN (killer)))(PP (IN (in))(NP (JJ (industrialized))(NNS (country))))))(. (?))))) |ET| 
-1  |BT| (ROOT (ROOT (SBARQ (WHNP (WP (what)))(SQ (VBZ (be))(NP (NP (DT (the))(JJS (longest))(NN (place))(NN (name)))(PP (IN (in))(NP (DT (the))(NNP (u.s.))))))(. (?))))) |ET| 
-1  |BT| (ROOT (ROOT (SBARQ (WHNP (WP (what)))(SQ (VBZ (do))(NP (DT (the))(JJ (double-o)))(VP (VBP (indicate))(PP (IN (in))(NP (CD (007))))))(. (?))))) |ET| 
-0.98381945715659235851546782214427  |BT| (ROOT (ROOT (SBARQ (WHNP (WP (what)))(SQ (VBD (be))(NP (NP (DT (the))(NN (target))(NN (rate)))(PP (IN (for))(NP (NP (NN (m3))(NN (growth)))(PP (IN (in))(NP (CD (1992))))))))(. (?))))) |ET| 
1  |BT| (ROOT (ROOT (SBARQ (WHNP (WDT (what))(NN (film)))(SQ (VP (VBD (feature))(NP (NP (DT (a))(JJ (snarly))(NN (character)))(VP (VBN (name))(NP (NNP (kid))(NNP (shelleen)))))))(. (?))))) |ET| 
1  |BT| (ROOT (ROOT (SBARQ (WHNP (WDT (what))(NN (scale)))(SQ (VP (VBZ (measure))(NP (NNS (earthquake)))))(. (?))))) |ET| 
1  |BT| (ROOT (ROOT (SBARQ (WHNP (WDT (what))(NN (letter)))(SQ (VP (VBZ (do))(NP (NP (NNP (gorbachev))(POS ('s)))(JJ (middle))(NN (name))(NN (start)))(PP (IN (with)))))(. (?))))) |ET| 
-1  |BT| (ROOT (ROOT (SBARQ (WHNP (WDT (what))(NNP (u.s.))(NN (government))(NN (agency)))(SQ (VP (VBZ (register))(NP (NNS (trademark)))))(. (?))))) |ET| 
-0.74117835588199265650644065317465  |BT| (ROOT (ROOT (SBARQ (WHNP (WDT (what))(NN (company)))(SQ (VP (VBZ (market))(NP (NP (DT (a))(NN (shampoo)))(`` (``))(PP (IN (for))(NP (NP (NNS (brunette)))(ADVP (RB (only))('' (''))))))))(. (?))))) |ET| 
-0.66528965317858057559874396247324  |BT| (ROOT (ROOT (SBARQ (WHNP (WDT (what))(NN (comedian)))(SQ (VP (VBZ (have))(NP (NP (DT (a))(JJ (legendary))(NN (reputation)))(PP (IN (for))(S (VP (VBG (steal))(NP (NNS (joke)))))))))(. (?))))) |ET| 
1  |BT| (ROOT (ROOT (SBARQ (WHNP (WP (what)))(SQ (VBD (be))(NP (NP (JJ (popular))(NNS (song))(CC (and))(NNS (type)))(PP (IN (of))(NP (NP (NNS (song)))(PP (IN (in))(NP (DT (the))(CD (1920s))))))))(. (?))))) |ET| 
1  |BT| (ROOT (ROOT (SBARQ (WHNP (WP (what)))(SQ (VBP (be))(NP (NP (DT (the))(JJ (top))(NN (vegetable))(NNS (crop)))(PP (IN (in))(NP (DT (the))(NN (world))))))(. (?))))) |ET| 
1  |BT| (ROOT (ROOT (SBARQ (WHNP (WP (what)))(SQ (VP (VBD (do))(NP (NP (NNP (esquire))(NN (name))(NNP (ash))(NNP (hole)))(PP (IN (of))(NP (NP (DT (the))(NN (year)))(PP (IN (for))(NP (CD (1980)))))))))(. (?))))) |ET| 
-0.38672865644636822413104937368189  |BT| (ROOT (ROOT (SBARQ (WHNP (WP (what)))(SQ (VBP (be))(NP (NP (NP (DT (the))(NNS (character))(POS (')))(NNS (name)))(PP (IN (in))(NP (DT (the))(NNP (scooby-doo))(NN (cartoon))))))(. (?))))) |ET| 
-0.93542948681569215718667464898317  |BT| (ROOT (ROOT (SBARQ (WHNP (WP (what)))(SQ (VBP (be))(NP (NP (DT (the))(JJS (largest))(NNS (brewery)))(PP (IN (in))(NP (DT (the))(NN (world))))))(. (?))))) |ET| 
-0.22442867874076566359065054712119  |BT| (ROOT (ROOT (SBARQ (WHNP (WP (what)))(SQ (VBP (be))(NP (NP (DT (the))(JJS (largest))(NNS (desert)))(PP (IN (in))(NP (DT (the))(NN (world))))))(. (?))))) |ET| 
1  |BT| (ROOT (ROOT (SBARQ (WHNP (WDT (what))(NP (NP (NN (snack)))(NP (NN (food)))))(SQ (VP (VBZ (have))(NP (NNS (ridge)))))(. (?))))) |ET| 
1  |BT| (ROOT (ROOT (SBARQ (WHPP (IN (in))(WHNP (WDT (what))(NN (medium))))(SQ (VBZ (be))(NP (NNP (stuart))(NNP (hamblen)))(VP (VBN (consider))(S (VP (TO (to))(VP (VB (be))(NP (DT (the))(JJ (first))(NN (singing))(NN (cowboy))))))))(. (?))))) |ET| 
1  |BT| (ROOT (ROOT (SBARQ (WHNP (WDT (what))(NP (NP (NNS (holiday)))(CC (or))(NP (NNS (observance)))))(SQ (VBP (be))(VP (VBN (celebrate))(PP (IN (in))(NP (NNP (italy))))))(. (?))))) |ET| 
-0.1074525383487281993133422020037  |BT| (ROOT (ROOT (SBARQ (WHADJP (WRB (how))(JJ (fast)))(SQ (VP (MD (must)))(NP (DT (a))(NN (spacecraft)))(NP (NP (NN (travel)))(S (VP (TO (to))(VP (VB (escape))(NP (NP (NNP (earth))(POS ('s)))(NN (gravity))))))))(. (?))))) |ET| 
-1  |BT| (ROOT (ROOT (SBARQ (WHNP (WHNP (WDT (what))(NN (kind)))(PP (IN (of))(NP (NNS (woman)))))(SQ (VP (VBD (give))(NP (NNP (sigmund))(NNP (freud)))(NP (JJ (erotic))(NNS (dream)))))(. (?))))) |ET| 
-0.36720380044002676189762723879539  |BT| (ROOT (ROOT (SBARQ (WHNP (WDT (what))(NP (NN (frenchman))))(SQ (VP (VBD (claim))(NP (DT (the))(VBG (follow)))))(. (?))))(ROOT (S (SBAR (IN (if))(S (NP (NNP (god)))(VP (VBD (do))(RB (not))(VP (VB (exist))))))(, (,))(NP (PRP (it)))(VP (MD (would))(VP (VB (be))(ADJP (JJ (necessary))(S (VP (TO (to))(VP (VB (invent))(NP (PRP (he)))))))))(. (.))('' (''))))) |ET| 
1  |BT| (ROOT (ROOT (SBARQ (WHNP (WP (what)))(SQ (VBP (be))(NP (NP (DT (the))(CD (seven))(NNS (wonder)))(PP (IN (of))(NP (DT (the))(NN (world))))))(. (?))))) |ET| 
1  |BT| (ROOT (ROOT (SBARQ (WHNP (WP (what)))(SQ (VBP (be))(NP (NP (DT (the))(NNS (name)))(PP (IN (of))(NP (DT (the))(JJ (different))(NNS (toe))))))(. (?))))) |ET| 
1  |BT| (ROOT (ROOT (SBARQ (WHNP (WP (what)))(SQ (VBP (be))(NP (NP (DT (the))(ADJP (RBS (most))(JJ (common)))(NN (breeding))(NNS (bird)))(PP (IN (in))(NP (DT (the))(NNP (u.s.))))))(. (?))))) |ET| 
-1  |BT| (ROOT (ROOT (SBARQ (WHNP (WP (what)))(SQ (VBP (be))(NP (NP (DT (the))(RBS (most))(JJ (common))(NNS (cause)))(PP (IN (of))(NP (NP (NN (death)))(PP (IN (in))(NP (DT (the))(NNP (u.s.))))))))(. (?))))) |ET| 
-1  |BT| (ROOT (ROOT (SBARQ (WHNP (WP (what)))(SQ (VBP (be))(NP (NP (DT (the))(NNS (length)))(PP (IN (of))(NP (NN (pearl))(NNS (necklace))))))(. (?))))) |ET| 
-1  |BT| (ROOT (ROOT (SBARQ (WHNP (WP (what)))(SQ (VBP (be))(NP (NP (DT (the))(NNS (name)))(PP (IN (of))(NP (NP (NNP (jacques))(NNP (cousteau))(POS ('s)))(CD (two))(NNS (son))))))(. (?))))) |ET| 
1  |BT| (ROOT (ROOT (SBARQ (WHNP (WDT (what))(NN (spider)))(SQ (VP (VBZ (make))(NP (NP (DT (a))(ADJP (JJ (superb)))(NN (pet)))(, (,))(SBAR (RB (even))(S (VP (VBD (say))(S (VP (TO (to))(VP (VB (recognize))(NP (PRP$ (its))(NN (master))))))))))))(. (?))))) |ET| 
1  |BT| (ROOT (ROOT (SBARQ (WHNP (WDT (what))(NNP (world))(NNP (war))(NNP (i))(NN (battle)))(SQ (VP (VBD (see))(NP (NP (CD (6)))(, (,))(NP (NP (CD (0))(NNS (troops)))(VP (VBN (kill))(PP (IN (in))(NP (CD (one))(NN (day)))))))))(. (?))))) |ET| 
1  |BT| (ROOT (ROOT (SBARQ (WHNP (WDT (what))(NN (kennedy)))(SQ (VBD (be))(VP (VBN (marry))(PP (TO (to))(NP (NNP (ethel))))))(. (?))))) |ET| 
-0.93753472070279619821064898133045  |BT| (ROOT (ROOT (SBARQ (WHNP (WDT (what))(NN (bay)))(SQ (VP (VBZ (sparkle))(ADVP (JJ (next)))(PP (TO (to))(NP (NNP (miami))(, (,))(NNP (florida))))))(. (?))))) |ET| 
-0.31667579753118418883772733352089  |BT| (ROOT (ROOT (SBARQ (WHNP (WDT (what))(JJ (famous))(NN (model)))(SQ (VBD (be))(VP (VBN (marry))(PP (TO (to))(NP (NNP (billy))(NNP (joel))))))(. (?))))) |ET| 
-1  |BT| (ROOT (ROOT (SBARQ (WHNP (WDT (what))(CD (1920s))(NN (cowboy))(NN (star)))(SQ (VP (VBD (ride))(S (NP (NNP (tony)))(NP (DT (the))(JJ (wonder))(NN (horse))))))(. (?))))) |ET| 
1  |BT| (ROOT (ROOT (SBARQ (WHNP (WP (what)))(SQ (VBP (be))(NP (NP (DT (the))(NNS (component)))(PP (IN (of))(NP (NN (polyester))))))(. (?))))) |ET| 
1  |BT| (ROOT (ROOT (SBARQ (WHNP (WP (what)))(SQ (VBP (be))(NP (NP (DT (the))(NNS (ingredient)))(PP (IN (of))(NP (NNP (coca-cola))))))(. (?))))) |ET| 
1  |BT| (ROOT (ROOT (SBARQ (WHNP (WP (what)))(SQ (VBP (be))(NP (NP (DT (the))(NNS (snake)))(PP (IN (of))(NP (NNP (new))(NNP (england))))))(. (?))))) |ET| 
-1  |BT| (ROOT (ROOT (SBARQ (WHNP (WP (what)))(SQ (VBP (be))(NP (NP (DT (the))(NNS (benefit)))(PP (IN (of))(NP (DT (a))(NN (rowing))(NN (machine))))))(. (?))))) |ET| 
-0.80723983807703592052718022387126  |BT| (ROOT (ROOT (SBARQ (WHNP (WP (what)))(SQ (VBP (be))(NP (NP (DT (the))(NNS (dimension)))(PP (IN (of))(NP (DT (a))(NN (ice))(NN (hockey))(NN (goal))))))(. (?))))) |ET| 
-0.14278567534628683333153276180383  |BT| (ROOT (ROOT (SBARQ (WHNP (WP (what)))(SQ (VBP (be))(NP (NP (DT (the))(NNS (benefit)))(PP (IN (of))(NP (NN (home))(NN (school))))))(. (?))))) |ET| 
1  |BT| (ROOT (ROOT (SBARQ (WHNP (WP (what)))(SQ (VBZ (be))(NP (NP (DT (the))(JJS (largest))(NN (letter)))(PP (IN (in))(NP (NP (NNP (salvador))(NNP (dali))(POS ('s)))(NN (signature))))))(. (?))))) |ET| 
1  |BT| (ROOT (ROOT (SBARQ (WHNP (WDT (what))(JJ (famous))(NNS (event)))(SQ (VP (VBP (have))(VP (VBN (happen))(PP (IN (on))(NP (NNP (march))(CD (27)))))))(. (?))))) |ET| 
1  |BT| (ROOT (ROOT (SBARQ (WHNP (WDT (what))(NN (line)))(SQ (VP (VBD (divide))(NP (DT (the))(NNP (north))(CC (and))(NNP (south)))(PP (IN (in))(NP (DT (the))(NNP (u.s.))(NNP (civil))(NNP (war))))))(. (?))))) |ET| 
-1  |BT| (ROOT (ROOT (SBARQ (WHNP (WDT (what))(NP (NP (JJ (argentine)))(ADJP (JJ (revolutionary)))))(SQ (VP (VP (VBN (fight))(PP (IN (with))(NP (NNP (castro)))))(CC (and))(VP (VBD (die))(PP (IN (in))(NP (NNP (bolivia))))(PP (IN (in))(NP (NP (NNP (may)))(, (,))(NP (CD (1979))))))))(. (?))))) |ET| 
-1  |BT| (ROOT (ROOT (SBARQ (WHNP (WDT (what))(JJ (polynesian))(NNS (people)))(SQ (VP (VBP (inhabit))(NP (NNP (new))(NNP (zealand)))))(. (?))))) |ET| 
-1  |BT| (ROOT (ROOT (SBARQ (WHPP (IN (in))(WHNP (WHNP (WDT (what))(NN (part)))(PP (IN (of))(NP (NNP (africa))))))(SQ (VBZ (be))(NP (NNP (mozambique)))(VP (VBN (locate))))(. (?))))) |ET| 
1  |BT| (ROOT (ROOT (SBARQ (WHNP (WP (what)))(SQ (VBP (be))(NP (NP (DT (the))(NNS (sign)))(PP (IN (of))(NP (NP (DT (a))(NN (country)))(VP (VBG (go))(PP (IN (into))(NP (DT (a))(NN (recession)))))))))(. (?))))) |ET| 
1  |BT| (ROOT (ROOT (SBARQ (WHNP (WP (what)))(SQ (VBP (be))(NP (NP (DT (the))(JJ (developmental))(NNS (stage)))(PP (IN (of))(NP (DT (a))(NN (swimmer))))))(. (?))))) |ET| 
1  |BT| (ROOT (ROOT (SBARQ (WHNP (WP (what)))(SQ (VBP (be))(NP (NP (DT (the))(JJ (first))(CD (six))(NNS (word)))(PP (IN (of))(NP (NP (NNP (dickens))(POS ('s)))(NP (NP (DT (a))(NN (tale)))(PP (IN (of))(NP (CD (two))(NNS (city)))))))))(. (?))))) |ET| 
-0.69631170712914070008991984650493  |BT| (ROOT (ROOT (SBARQ (WHNP (WP (what)))(SQ (VBD (be))(NP (NP (DT (the))(NNS (city)))(PP (IN (of))(NP (NP (NNP (dickens))(POS ('s)))(NP (NP (DT (a))(NN (tale)))(PP (IN (of))(NP (CD (two))(NNS (city)))))))))(. (?))))) |ET| 
-1  |BT| (ROOT (ROOT (SBARQ (WHNP (WP (what)))(SQ (VBP (be))(NP (NP (DT (the))(JJ (side))(NNS (effect)))(PP (IN (of))(NP (NN (mevacor))))))(. (?))))) |ET| 
-1  |BT| (ROOT (ROOT (SBARQ (WHNP (WDT (what))(NP (NP (JJ (onetime))(NN (member)))(PP (IN (of))(NP (NP (NNP (ronald))(NNP (reagan))(POS ('s)))(NN (cabinet))))))(SQ (VP (VBD (call))(NP (JJ (federal))(NN (policy)))(PP (IN (toward))(NP (NP (NNPS (indians)))(NP (`` (``))(NP (DT (a))(NN (example)))(PP (IN (of))(NP (NP (DT (the))(NN (failure)))(PP (IN (of))(NP (NN (socialism))))))('' ('')))))))(. (?))))) |ET| 
1  |BT| (ROOT (ROOT (SBARQ (WHNP (WP (what)))(SQ (VBZ (do))(NP (NNP (el))(NNP (nino)))(VP (VB (mean))(PP (IN (in))(NP (NNP (spanish))))))(. (?))))) |ET| 
1  |BT| (ROOT (ROOT (SBARQ (WHNP (WDT (what))(CD (two))(JJ (major))(NN (world))(NNS (religion)))(SQ (VP (VBD (begin))(PP (IN (in))(NP (NNP (india))))))(. (?))))) |ET| 
1  |BT| (ROOT (ROOT (SBARQ (WHNP (WDT (what)))(SQ (MD (can))(NP (PRP (one)))(VP (VB (see))(PP (IN (in))(NP (NNP (reims))))))(. (?))))) |ET| 
-1  |BT| (ROOT (ROOT (SBARQ (WHNP (WDT (what)))(SQ (MD (can))(NP (PRP (you)))(VP (VB (be))(VP (VBN (fine))(PP (IN (for))(S (VP (VBG (have))(NP (NP (DT (a))(NN (dog)))(PP (IN (on))(NP (DT (a))(NN (beach)))))))))))(. (?))))) |ET| 
-0.28840889975179356818912879134587  |BT| (ROOT (ROOT (SBARQ (WHNP (WP (what)))(SQ (VBZ (do))(NP (DT (the))(NN (e)))(VP (VB (stand))(PP (IN (for))(IN (in))(NP (NP (DT (the))(NN (equation))(NN (e)))(NP (JJ (=))(NN (mc2)))))))(. (?))))) |ET| 
-1  |BT| (ROOT (ROOT (SBARQ (WHNP (WDT (what))(NN (arch)))(SQ (MD (can))(NP (PRP (you)))(VP (VB (see))(PP (IN (from))(NP (DT (the))(NNP (place))(FW (de))(FW (la))(NNP (concorde))))))(. (?))))) |ET| 
1  |BT| (ROOT (ROOT (SBARQ (WHNP (WP (what)))(SQ (VBZ (be))(NP (NP (CD (one)))(PP (IN (of))(NP (NP (DT (the))(NNS (language)))(PP (IN (of))(NP (DT (the))(NNP (sioux))))))))(. (?))))) |ET| 
1  |BT| (ROOT (ROOT (SBARQ (WHNP (WP (what)))(SQ (VBD (be))(NP (NP (DT (the))(NN (name)))(PP (IN (of))(NP (NP (DT (the))(JJ (crimean))(NN (meeting)))(PP (IN (of))(NP (NNP (roosevelt))(, (,))(NNP (churchill))(, (,))(CC (and))(NNP (stalin))))))))(. (?))))) |ET| 
1  |BT| (ROOT (ROOT (SBARQ (WHNP (WHNP (WDT (which)))(PP (IN (of))(NP (JJ (many)))))(SQ (VP (VBD (number))(SBAR (S (NP (NP (NNS (vat)))(PP (IN (of))(NP (NNP (scotch)))))(VP (VBD (be))(VP (VBN (judge))(ADVP (RB (best)))(PP (IN (by))(NP (NP (DT (a))(NN (panel)))(PP (IN (of))(NP (NP (NNS (expert)))(PP (IN (in))(NP (CD (1863))))))))))))))(. (?))))) |ET| 
-1  |BT| (ROOT (ROOT (SBARQ (WHNP (WP (what)))(SQ (VP (VBD (happen))(PP (IN (during))(NP (NP (DT (the))(NNP (blackhawk))(NNP (indian))(NN (war)))(PP (IN (of))(NP (CD (1832))))))))(. (?))))) |ET| 
-1  |BT| (ROOT (ROOT (SBARQ (WHNP (WDT (what))(NN (brand))(NN (number)))(SQ (VP (VBZ (grace))(NP (NP (DT (the))(JJ (black))(NN (label)))(PP (IN (of))(NP (NP (DT (a))(NN (bottle)))(PP (IN (of))(NP (NNP (jack))(NNP (daniel))(POS ('s)))))))))(. (?))))) |ET| 
-0.91516392612928054717258419259451  |BT| (ROOT (ROOT (SBARQ (WHNP (WP (what)))(SQ (VP (VBZ (do))(NP (NP (DT (each)))(PP (IN (of))(NP (DT (the))(NNS (utility))(NN (cost)))))(PP (IN (in))(NP (NNP (monopoly))))))(. (?))))) |ET| 
1  |BT| (ROOT (ROOT (SBARQ (WHNP (WDT (what))(NN (toy)))(SQ (MD (can))(NP (PRP (you)))(VP (VB (make))(VP (VB (sleep)))))(. (?))))) |ET| 
1  |BT| (ROOT (ROOT (SBARQ (WHNP (WHNP (WDT (what))(NN (product)))(PP (IN (on))(NP (DT (the))(NN (market)))))(SQ (VBZ (be))(ADJP (JJ (good))(PP (IN (for))(S (VP (VBG (hide))(NP (JJ (facial))(NNS (scar))))))))(. (?))))) |ET| 
1  |BT| (ROOT (ROOT (SBARQ (WHNP (WDT (what))(NN (dog)))(SQ (VBD (be))(VP (VBN (dub))(NP (DT (the))(NN (mortgage))(NN (lifter)))))(. (?))))) |ET| 
-1  |BT| (ROOT (ROOT (SBARQ (WHNP (WDT (what))(NN (president)))(SQ (VBD (be))(VP (VBN (assassinate))(PP (IN (by))(NP (NNP (charles))(NNP (j.))(NNP (guiteau))))))(. (?))))) |ET| 
