SVM-light Version V5.01-TK-1.5
5 # kernel type
3 # kernel parameter -d 
1 # kernel parameter -g 
1 # kernel parameter -s 
1 # kernel parameter -r 
empty# kernel parameter -u 
0.4 # kernel parameter -L 
1 # kernel parameter -T 
T # kernel parameter -C 
2 # kernel parameter -F 
1 # kernel parameter -S 
0.400000 # kernel parameter -M 
3 # kernel parameter -N 
S # kernel parameter -V 
S # kernel parameter -W 
0 # kernel parameter -U 
10 # highest feature index 
5451 # number of training documents 
1843 # number of support vectors plus 1 
0.80982829 # threshold b, each following line is a SV (starting with alpha*y)
0.49001353751811299597207494116446  |BT| (ROOT (ROOT (SBARQ (WHNP (WDT (what))(NNP (u.s.))(NN (state)))(SQ (VP (VBD (live))(PP (IN (under))(NP (CD (six))(NNS (flag))))))(. (?))))) |ET| 
-0.64246277986250921454569606794394  |BT| (ROOT (ROOT (SBARQ (WHADVP (WRB (how)))(SQ (MD (can))(NP (PRP (i)))(VP (VB (find))(NP (NP (DT (a))(NN (list)))(PP (IN (of))(NP (NP (NNS (celebrity))(POS (')))(JJ (real))(NNS (name)))))))(. (?))))) |ET| 
-0.016184234387972590285542651145079  |BT| (ROOT (ROOT (SBARQ (WHNP (WP (what)))(SQ (VBD (be))(NP (NP (DT (the))(JJ (first))(NNP (gilbert)))(CC (and))(NP (NNP (sullivan))(NN (opera)))))(. (?))))) |ET| 
-0.30139552310584205585541894834023  |BT| (ROOT (ROOT (SBARQ (WHADVP (WRB (why)))(SQ (VBP (be))(NP (DT (the))(NNP (u.s.))(JJ (presidential))(NNS (election)))(VP (VBN (hold))(PP (IN (in))(NP (NNP (november))))))(. (?))))) |ET| 
-0.075418807545223232047248984599719  |BT| (ROOT (ROOT (SBARQ (WHNP (WP (what)))(SQ (VBD (do))(NP (DT (the))(JJ (only))(NP (NP (VBD (repeal))(NN (amendment)))(PP (TO (to))(NP (DT (the))(NNP (u.s.))(NNP (constitution))))))(VP (VB (deal))(PP (IN (with)))))(. (?))))) |ET| 
0.92121386624564471912179897117312  |BT| (ROOT (ROOT (SBARQ (WHNP (WDT (what))(JJ (sprawling))(NNP (u.s.))(NN (state)))(SQ (VP (VBZ (boast))(NP (NP (DT (the))(RBS (most)))(NP (NNS (airport))))))(. (?))))) |ET| 
1  |BT| (ROOT (ROOT (SBARQ (WHNP (WP (what)))(SQ (VBZ (be))(NP (NP (DT (the))(JJS (highest))(NN (waterfall)))(PP (IN (in))(NP (DT (the))(NNP (united))(NNPS (states))))))(. (?))))) |ET| 
1  |BT| (ROOT (ROOT (SBARQ (WHNP (WDT (which))(CD (two))(NNS (state)))(SQ (VP (VB (enclose))(NP (NNP (chesapeake))(NNP (bay)))))(. (?))))) |ET| 
1  |BT| (ROOT (ROOT (SBARQ (WHADVP (WRB (where)))(SQ (VBP (do))(NP (NP (DT (the))(NNS (adventure)))(PP (IN (of))(`` (``))(NP (DT (the))(JJ (swiss))(NNP (family))(NNP (robinson)))('' (''))))(VP (VB (take))(NP (NN (place)))))(. (?))))) |ET| 
-0.012866614614185572368354470995655  |BT| (ROOT (ROOT (SBARQ (WHNP (WDT (what))(NP (NP (JJ (famed))(NN (gangland)))(NP (NN (slaughter)))))(SQ (VP (VBD (cut))(PP (IN (into))(NP (NP (DT (the))(NN (membership)))(PP (IN (of))(NP (NP (NNP (bugs))(NNP (moran))(POS ('s)))(NN (outfit))))))))(. (?))))) |ET| 
-1  |BT| (ROOT (ROOT (SBARQ (WHNP (WDT (what))(NN (plant)))(SQ (VP (VBZ (have))(NP (DT (the))(JJS (largest))(NN (seed)))))(. (?))))) |ET| 
-0.017107051094420386294636671209446  |BT| (ROOT (ROOT (SBARQ (WHNP (WP (what)))(SQ (VBD (be))(NP (NP (DT (the))(NN (top))(NN (box))(NN (office))(NN (movie)))(PP (IN (in))(NP (NNP (april))(CD (1998))))))(. (?))))) |ET| 
-0.39946078673714419116080875937769  |BT| (ROOT (ROOT (SBARQ (WHNP (WDT (what))(NN (animal)))(SQ (VP (VBZ (migrate))(NP (DT (the))(JJS (farthest)))))(. (?))))) |ET| 
-0.055623443741061345813037064544915  |BT| (ROOT (ROOT (S (NP (NNP (hazmat)))(VP (VBZ (stand))(WHPP (IN (for))(WHNP (WP (what)))))(. (?))))) |ET| 
0.40469381461145037537363577939686  |BT| (ROOT (ROOT (SBARQ (WHADVP (WRB (where)))(SQ (MD (can))(NP (PRP (i)))(VP (VB (find))(NP (DT (a))(NN (lesson))(NN (plan)))(PP (IN (for))(S (VP (VBG (teach))(NP (DT (the))(JJ (metric))(NN (system))(NN (conversion)))(PP (TO (to))(NP (JJ (american))(NN (standard)))))))))(. (?))))) |ET| 
-0.038563229006340946081188292282604  |BT| (ROOT (ROOT (SBARQ (WHNP (WP (what)))(SQ (VBZ (be))(NP (NNP (smartnet))))(. (?))))) |ET| 
-0.17831718125251386219964899737533  |BT| (ROOT (ROOT (SBARQ (WHNP (WDT (what))(NN (author)))(SQ (VP (VBD (land))(NP (DT (a))(JJ (468-pound))(NN (marlin)))(PP (IN (without))(NN (harness)))(PP (IN (in))(NP (NP (DT (the))(JJ (early)))(NP (CD (193))(POS ('s)))))))(. (?))))) |ET| 
0.12249720185116540205338964142356  |BT| (ROOT (ROOT (SBARQ (WHNP (WDT (what))(JJ (famed))(NN (river)))(SQ (VP (VBZ (flow))(PP (IN (through))(NP (NNP (bagdad))))))(. (?))))) |ET| 
-1  |BT| (ROOT (ROOT (SBARQ (SBARQ (WHNP (WP (what)))(SQ (VBZ (be))(NP (NP (DT (the))(JJ (all-time))(NN (stock))(NN (high)))(PP (IN (of))(NP (NNP (apple))(NNP (computer)))))))(, (,))(CC (and))(SBARQ (WHADVP (WRB (where)))(SQ (MD (can))(NP (PRP (i)))(VP (VB (find))(NP (DT (this))(NN (information)))))(. (?)))))) |ET| 
0.51615225345276749546741257290705  |BT| (ROOT (ROOT (SBARQ (WHNP (WDT (what))(NN (river)))(SQ (VP (VBZ (run))(PP (IN (through))(NP (NNP (liverpool))))))(. (?))))) |ET| 
1  |BT| (ROOT (ROOT (SBARQ (WHNP (WDT (what))(NN (sea)))(SQ (VP (VBZ (separate))(NP (NNP (naples))(CC (and))(NNP (algiers)))))(. (?))))) |ET| 
0.49906633399567973397026321435987  |BT| (ROOT (ROOT (SBARQ (WHNP (WDT (what))(NNP (new))(NNP (england))(NN (state)))(SQ (VP (VBZ (cover))(NP (CD (5.9))(JJ (square))(NNS (mile)))))(. (?))))) |ET| 
-1  |BT| (ROOT (ROOT (SBARQ (WHNP (WDT (what))(NN (occupation)))(SQ (VP (VBZ (have))(NP (DT (the))(JJS (highest))(NN (divorce))(NN (rate)))))(. (?))))) |ET| 
-0.51000852255151141179112528334372  |BT| (ROOT (ROOT (SBARQ (WHNP (WDT (what))(NN (scale)))(SQ (VP (VBZ (measure))(NP (NNS (earthquake)))))(. (?))))) |ET| 
-0.10135292129210057843202719141118  |BT| (ROOT (ROOT (SBARQ (WHNP (WDT (what))(NN (movie)))(SQ (VP (VBZ (have))(VP (VBN (make))(NP (NP (DT (the))(RBS (most)))(NP (NN (money)))))))(. (?))))) |ET| 
1  |BT| (ROOT (ROOT (SBARQ (WHNP (WP (what)))(SQ (VBZ (be))(NP (NP (DT (the))(NN (web))(NN (address)))(PP (IN (of))(NP (NP (DT (the))(NN (list)))(PP (IN (of))(NP (NP (JJ (e-mail))(NNS (address)))(PP (IN (of))(NP (NP (NNS (member)))(PP (IN (of))(NP (NP (DT (the))(NNP (house)))(PP (IN (of))(NP (NNPS (representatives))))))))))))))(. (?))))) |ET| 
1  |BT| (ROOT (ROOT (SBARQ (WHNP (WP (what)))(SQ (VBP (be))(NP (NP (DT (the))(NNS (name)))(PP (IN (of))(NP (NP (DT (the))(NN (tourist))(NNS (attraction)))(PP (IN (in))(NP (NNP (reims))))))))(. (?))))) |ET| 
1  |BT| (ROOT (ROOT (S (VP (VB (name))(NP (DT (a))(JJ (civil))(NN (war))(NN (battlefield))))(. (.))))) |ET| 
-0.071631753465307118622362736459763  |BT| (ROOT (ROOT (SBARQ (WHNP (WP (what)))(SQ (VBZ (be))(NP (NP (DT (the))(NN (mascot)))(PP (IN (for))(NP (NNP (notre))(NNP (dame))(NNP (university))))))(. (?))))) |ET| 
0.33839184056822346757797959071468  |BT| (ROOT (ROOT (SBARQ (WHNP (WDT (what))(NN (city)))(SQ (VBD (be))(NP (NNP (martin))(NNP (luther))(NNP (king))(NNP (jr.)))(VP (VBN (assassinate))(PP (IN (in)))))(. (?))))) |ET| 
-0.4560633576371170283536571332661  |BT| (ROOT (ROOT (SBARQ (WHNP (WP (what)))(SQ (VBD (be))(NP (NP (DT (the))(NN (name)))(PP (IN (of))(NP (NP (NNP (hitler))(POS ('s)))(JJ (unsuccessful))(NN (attempt))(S (VP (TO (to))(VP (VB (overthrow))(NP (NP (DT (the))(JJ (bavarian))(NN (government)))(PP (IN (in))(NP (NNP (munich)))))(PP (IN (in))(NP (CD (1923)))))))))))(. (?))))) |ET| 
1  |BT| (ROOT (ROOT (SBARQ (WHNP (WDT (what))(NN (desert)))(SQ (VP (VBZ (have))(NP (DT (the))(JJS (highest))(NN (sand))(NNS (dune)))))(. (?))))) |ET| 
-0.15106121256266241692500784665754  |BT| (ROOT (ROOT (SBARQ (WHNP (WDT (what))(NNP (tom))(NNP (wolfe))(NN (book)))(SQ (VBZ (be))(PP (IN (about))(NP (DT (the))(NNP (mercury))(NNS (astronaut)))))(. (?))))) |ET| 
1  |BT| (ROOT (ROOT (SBARQ (WHNP (WDT (what))(NN (planet)))(SQ (VP (VBD (give))(NP (NN (bith)))(PP (TO (to))(NP (NNP (superman))))))(. (?))))) |ET| 
-0.46049797051837582095856760133756  |BT| (ROOT (ROOT (SBARQ (WHNP (WDT (which))(CD (two))(NNS (inventor)))(SQ (VP (VBD (invent))(NP (NNPS (post-its)))))(. (?))))) |ET| 
-1  |BT| (ROOT (ROOT (SBARQ (WHNP (WDT (what))(JJ (french))(NN (leader)))(SQ (VP (VBD (sell))(NP (NNP (louisiana)))(PP (TO (to))(NP (DT (the))(NNP (united))(NNPS (states))))))(. (?))))) |ET| 
-1  |BT| (ROOT (ROOT (SBARQ (WHNP (WDT (what))(NN (store)))(SQ (VP (VBZ (claim))(S (VP (TO (to))(VP (VB (be))(NP (NP (DT (the))(NN (world))(POS ('s)))(JJS (largest))(NN (department))(NN (store))))))))(. (?))))) |ET| 
1  |BT| (ROOT (ROOT (SBARQ (WHNP (WP (what)))(SQ (VBZ (be))(NP (NP (DT (the))(NN (name)))(PP (IN (of))(NP (NP (DT (a))(NN (hotel)))(PP (IN (in))(NP (NNP (indianapolis))))))))(. (?))))) |ET| 
1  |BT| (ROOT (ROOT (SBARQ (WHNP (WP (what)))(SQ (VBZ (be))(NP (NP (DT (the))(NN (name)))(PP (IN (of))(NP (NP (DT (the))(NN (gulf)))(PP (IN (between))(NP (NNP (sweden))(CC (and))(NNP (finland))))))))(. (?))))) |ET| 
1  |BT| (ROOT (ROOT (SBARQ (WHNP (WP (what)))(SQ (VBZ (be))(NP (NP (DT (the))(NN (nickname)))(PP (IN (for))(NP (NP (DT (the))(NN (state)))(PP (IN (of))(NP (NNP (mississippi))))))))(. (?))))) |ET| 
-1  |BT| (ROOT (ROOT (SBARQ (WHNP (WP (what)))(SQ (VBZ (be))(NP (NP (DT (the))(NN (motto)))(PP (IN (for))(NP (NP (DT (the))(NN (state)))(PP (IN (of))(NP (NNP (maryland))))))))(. (?))))) |ET| 
-0.020313715271247215210514980299195  |BT| (ROOT (ROOT (SBARQ (WHNP (WP (what)))(SQ (VBZ (be))(NP (NNP (srpska))(NNP (krajina))))(. (?))))) |ET| 
-0.0066202336534259276223934875815758  |BT| (ROOT (ROOT (SBARQ (WHNP (WP (what)))(SQ (VBZ (be))(NP (NP (DT (the))(VBN (color))(NN (part)))(PP (IN (of))(NP (NP (DT (the))(NN (eye)))(VP (VBN (call)))))))(. (?))))) |ET| 
1  |BT| (ROOT (ROOT (SBARQ (WHNP (WDT (what))(NN (ocean)))(SQ (VBD (do))(NP (DT (the))(NNP (titanic)))(VP (VB (sink))(PP (IN (in)))))(. (?))))) |ET| 
1  |BT| (ROOT (ROOT (SBARQ (WHNP (WDT (what))(NN (room)))(SQ (VBD (do))(NP (NNP (w.c.))(NNP (fields)))(VP (VB (keep))(NP (PRP$ (he))(NN (library)))(PP (IN (in)))))(. (?))))) |ET| 
1  |BT| (ROOT (ROOT (SBARQ (WHNP (WDT (what))(JJ (russian))(NN (city)))(SQ (VP (VBN (use))(S (VP (TO (to))(VP (VB (be))(VP (VBN (call))(NP (NNP (st.))(NNP (petersburg))(CC (and))(NNP (petrograd)))))))))(. (?))))) |ET| 
-0.47597682280389574938084251698456  |BT| (ROOT (ROOT (SBARQ (WHNP (WDT (what))(NN (novel)))(SQ (VBD (do))(NP (NNP (ian))(NNP (fleming)))(VP (VB (introduce))(NP (NNP (james))(NNP (bond)))(PP (IN (in)))))(. (?))))) |ET| 
1  |BT| (ROOT (ROOT (SBARQ (WHNP (WP (what)))(SQ (VBZ (be))(NP (NP (DT (the))(NN (habitat)))(PP (IN (of))(NP (DT (the))(NN (chickadee))))))(. (?))))) |ET| 
-0.086092672532408737184894675920077  |BT| (ROOT (ROOT (SBARQ (WHNP (WP (what)))(SQ (VBZ (be))(NP (NP (DT (the))(JJ (abbreviated))(NN (expression)))(PP (IN (for))(NP (NP (DT (the))(NNP (national))(NNP (bureau)))(PP (IN (of))(NP (NNP (investigation))))))))(. (?))))) |ET| 
-0.60698256690315055550399847561494  |BT| (ROOT (ROOT (SBARQ (WHNP (WDT (what))(NN (war)))(SQ (VBD (do))(NP (NNP (florence))(NNP (nightingale)))(VP (VB (tend))(NP (DT (the))(NNS (troops)))(PP (IN (in)))))(. (?))))) |ET| 
1  |BT| (ROOT (ROOT (SBARQ (WHNP (WP (what)))(SQ (VBZ (be))(NP (NP (DT (the))(JJ (seafaring))(NN (name)))(PP (IN (for))(NP (NP (DT (the))(JJ (southern))(NN (tip)))(PP (IN (of))(NP (NNP (south))(NNP (america))))))))(. (?))))) |ET| 
1  |BT| (ROOT (ROOT (SBARQ (WHNP (WP (what)))(SQ (VBZ (be))(NP (NP (NN (website)))(PP (IN (of))(NP (NP (DT (the))(NNP (international))(NNP (court)))(PP (IN (of))(NP (NNP (justice))))))))(. (?))))) |ET| 
-0.029122395452942040350308161578141  |BT| (ROOT (ROOT (SBARQ (WHNP (WDT (what))(NN (fuel)))(SQ (VBP (do))(NP (NNS (airplane)))(VP (VB (use))))(. (?))))) |ET| 
-0.22679018914145945839955231804197  |BT| (ROOT (ROOT (SBARQ (WHNP (WDT (what))(NNS (manufacturer)))(SQ (VBP (be))(NP (EX (there)))(PP (IN (in))(NP (NNP (texas)))))(. (?))))) |ET| 
-0.321392920189591813073803905354  |BT| (ROOT (ROOT (SBARQ (WHNP (WDT (what))(NN (explosive)))(SQ (VBP (do))(NP (PRP (you)))(VP (VB (get))(PP (IN (by))(S (VP (VBG (mix))(NP (NN (charcoal))(, (,))(NN (sulfur))(CC (and))(NN (saltpeter))))))))(. (?))))) |ET| 
1  |BT| (ROOT (ROOT (SBARQ (WHNP (WP (what)))(SQ (VBD (be))(NP (NP (DT (the))(NN (nationality)))(PP (IN (of))(NP (NNP (jackson))(NNP (pollock))))))(. (?))))) |ET| 
1  |BT| (ROOT (ROOT (SBARQ (WHNP (WP (what)))(SQ (VBD (be))(NP (NP (DT (the))(JJ (former))(NN (residence)))(PP (IN (of))(NP (NP (JJ (scottish))(NNS (king)))(PP (IN (in))(NP (NNP (edinburgh))))))))(. (?))))) |ET| 
1  |BT| (ROOT (ROOT (SBARQ (WHNP (WP (what)))(SQ (VBD (be))(NP (NP (DT (the))(NN (birthplace)))(PP (IN (of))(NP (NNP (edgar))(NNP (allen))(NNP (poe))))))(. (?))))) |ET| 
-0.04138259909725434948501998633219  |BT| (ROOT (ROOT (SBARQ (WHNP (WDT (which))(JJ (infectious))(NN (disease)))(SQ (VP (VBZ (kill))(NP (DT (the))(JJS (most))(NNS (people)))(ADVP (RB (worldwide)))))(. (?))))) |ET| 
1  |BT| (ROOT (ROOT (SBARQ (WHNP (WDT (what))(NN (planet)))(SQ (VBD (do))(NP (NNP (percival))(NNP (lovell)))(VP (VB (discover))))(. (?))))) |ET| 
0.36449442986476959793762375738879  |BT| (ROOT (ROOT (SBARQ (WHNP (WDT (what))(NN (country)))(SQ (VP (MD (will))(VP (VB (hit))(NP (DT (the))(NN (year))(CD (2)))(ADVP (RB (first))))))(. (?))))) |ET| 
-1  |BT| (ROOT (ROOT (SBARQ (WHNP (WP (what)))(SQ (VBZ (be))(NP (NP (DT (the))(NN (population)))(PP (IN (of))(NP (NNP (mozambique))))))(. (?))))) |ET| 
1  |BT| (ROOT (ROOT (SBARQ (WHNP (WDT (what))(NN (sound)))(SQ (VBZ (do))(NP (NP (NNP (olympia)))(, (,))(NP (NNP (washington)))(, (,)))(VP (VB (overlook))))(. (?))))) |ET| 
0.45523290847652025936653785720409  |BT| (ROOT (ROOT (SBARQ (WHNP (WDT (what))(NN (state)))(SQ (VBD (do))(NP (NNP (helen))(NNP (keller)))(VP (VB (call))(NP (NN (home)))))(. (?))))) |ET| 
-0.018818980439488930400671051756945  |BT| (ROOT (ROOT (SBARQ (WHNP (WP (what)))(SQ (VBD (be))(NP (NP (DT (the))(NN (name)))(PP (IN (of))(NP (NP (DT (the))(JJ (famous))(NN (battle)))(PP (IN (between))(NP (NNP (texas))(CC (and))(NNP (mexico))))))))(. (?))))) |ET| 
-0.13151494442482442037700707260228  |BT| (ROOT (ROOT (SBARQ (WHNP (WDT (what))(CD (1966))(NN (boob))(NN (tube))(NN (bomb)))(SQ (VP (VBD (take))(NP (NNS (astronaut)))(ADVP (RB (back))(PP (TO (to))(NP (JJ (prehistoric))(NNS (time)))))))(. (?))))) |ET| 
-0.14844148794942732538792995455879  |BT| (ROOT (ROOT (FRAG (WHNP (WDT (what)))(PP (NP (NNP (vladimir))(NNP (nabokov))(JJ (novel))(NNS (feature)))(PP (NP (NNP (professor))(NNP (humbert)))(IN (in))(NP (NP (NN (love)))(PP (IN (with))(NP (DT (a))(JJ (12-year-old))(NN (girl)))))))(. (?))))) |ET| 
1  |BT| (ROOT (ROOT (S (VP (VB (name))(NP (DT (a))(NN (art))(NN (gallery)))(PP (IN (in))(NP (NNP (new))(NNP (york)))))(. (.))))) |ET| 
1  |BT| (ROOT (ROOT (SBARQ (WHNP (WDT (what))(JJ (former))(NN (royal))(NN (palace)))(SQ (VP (VBZ (have))(VP (VBN (serve))(PP (IN (as))(NP (NP (DT (a))(NN (granary))(, (,))(NN (prison))(, (,))(NN (arsenal))(, (,))(JJR (leper))(NN (colony)))(, (,))(NP (NN (mint)))(, (,))(NP (NN (telegraph))(NN (station)))(CC (and))(NP (NN (whorehouse)))))(PP (IN (before))(S (VP (VBG (become))(NP (DT (a))(NN (art))(NN (museum)))))))))(. (?))))) |ET| 
1  |BT| (ROOT (ROOT (SBARQ (WHNP (WDT (which))(NN (way)))(SQ (VBP (do))(NP (PRP (you)))(VP (VB (turn))(NP (PRP$ (you))(NN (bic))(S (VP (TO (to))(VP (VB (increase))(NP (DT (the))(NN (flame)))))))))(: (-))(ADJP (JJ (clockwise))(CC (or))(JJ (counterclockwise)))(. (?))))) |ET| 
-0.24675999342407828329726271476829  |BT| (ROOT (ROOT (S (VP (VB (name))(NP (DT (a))(NN (golf))(NN (course)))(PP (IN (in))(NP (NNP (myrtle))(NNP (beach)))))(. (.))))) |ET| 
-0.10311134927780306325129089373149  |BT| (ROOT (ROOT (FRAG (SBAR (WHNP (WP$ (whose))(NNS (husband)))(S (VP (VBP (have))(VP (VBN (include))(NP (NP (NNP (conrad))(NNP (hilton))(NNP (jr.)))(, (,))(CC (and))(NP (NNP (michael))(NNP (wilding))))))))(. (?))))) |ET| 
-0.076189407943615616858323846827261  |BT| (ROOT (ROOT (FRAG (PP (IN (in))(NP (NP (NP (NNP (dana))(POS ('s)))(NX (`` (``))(NP (CD (two))(NNS (year)))(PP (IN (before))(NP (DT (the))(NN (mast))))(, (,))('' (''))))(SBAR (WHNP (WDT (what)))(S (NP (NNS (seafarer)))(VP (VBD (live))(PP (IN (in))(NP (NP (DT (a))(VBN (abandon))(NN (oven)))(PP (IN (on))(NP (NP (DT (the))(NN (beach)))(PP (IN (at))(NP (NNP (san))(NNP (diego)))))))))))))(. (?))))) |ET| 
1  |BT| (ROOT (ROOT (SBARQ (WHNP (WP (what)))(SQ (VBZ (be))(NP (NP (DT (the))(NN (capital)))(PP (IN (of))(NP (NNP (iowa))))))(. (?))))) |ET| 
1  |BT| (ROOT (ROOT (SBARQ (WHNP (WP (what)))(SQ (VBZ (be))(NP (NP (DT (the))(NN (capital)))(PP (IN (of))(NP (NNP (seattle))))))(. (?))))) |ET| 
1  |BT| (ROOT (ROOT (SBARQ (WHNP (WP (what)))(SQ (VBZ (be))(NP (NP (DT (the))(NN (capital)))(PP (IN (of))(NP (NNP (taiwan))))))(. (?))))) |ET| 
-0.12410437208026880995248575345613  |BT| (ROOT (ROOT (SBARQ (WHNP (WP (what)))(SQ (VBZ (be))(NP (NP (DT (the))(NN (history)))(PP (IN (of))(NP (NNP (skateboarding))))))(. (?))))) |ET| 
-0.81460139549446441975533161894418  |BT| (ROOT (ROOT (SBARQ (WHNP (WP (what)))(SQ (VBZ (be))(NP (NP (DT (the))(NN (meaning)))(PP (IN (of))(NP (NNP (jesus))))))(. (?))))) |ET| 
-0.40111145508291734529393579578027  |BT| (ROOT (ROOT (SBARQ (WHNP (WP (what)))(SQ (VBZ (be))(NP (NP (DT (the))(NN (function)))(PP (IN (of))(NP (NNP (ram))))))(. (?))))) |ET| 
1  |BT| (ROOT (ROOT (S (VP (VB (name))(NP (DT (the))(JJS (highest))(NN (mountain))))(. (.))))) |ET| 
1  |BT| (ROOT (ROOT (SBARQ (WHNP (WDT (what))(NN (direction)))(SQ (VBP (do))(NP (DT (the))(JJS (best))(NN (surfing))(NNS (beach)))(VP (VB (face))))(. (?))))) |ET| 
1  |BT| (ROOT (ROOT (SBARQ (WHNP (WDT (what))(NN (stadium)))(SQ (VBP (do))(NP (DT (the))(NNP (miami))(NNPS (dolphins)))(VP (VBP (play))(NP (PRP$ (they))(NN (home))(NNS (game)))(PP (IN (in)))))(. (?))))) |ET| 
-0.31164657213771851385075706275529  |BT| (ROOT (ROOT (SBARQ (WHNP (WP (what)))(SQ (VBZ (be))(NP (NP (DT (the))(JJ (highest-ranking))(NN (suit)))(PP (IN (in))(NP (NN (bridge))))))(. (?))))) |ET| 
-0.04572603486593071475674321391125  |BT| (ROOT (ROOT (SBARQ (WHNP (WP (who)))(SQ (VBZ (be))(NP (NP (NNP (karenna))(NNP (gore)))(, (,))(NP (NP (NNP (al))(NNP (gore))(POS ('s)))(JJS (oldest))(NN (daughter)))(, (,)))(VP (VBN (marry))(S (VP (TO (to))))))(. (?))))) |ET| 
-0.11820531305864236115699128504275  |BT| (ROOT (ROOT (S (VP (VB (name))(NP (NP (NNP (dick))(NNP (tracy))(POS ('s)))(CD (two))(NNS (child))))(. (.))))) |ET| 
1  |BT| (ROOT (ROOT (SBARQ (WHNP (WP (what)))(SQ (VBZ (be))(NP (NP (DT (the))(NN (nickname)))(PP (IN (of))(NP (NNP (pennsylvania))))))(. (?))))) |ET| 
1  |BT| (ROOT (ROOT (SBARQ (WHNP (WP (what)))(SQ (VBZ (be))(NP (NP (DT (the))(NN (location)))(PP (IN (of))(NP (NNP (mccarren))(NN (airport))))))(. (?))))) |ET| 
1  |BT| (ROOT (ROOT (SBARQ (WHNP (WP (what)))(SQ (VBZ (be))(NP (NP (DT (the))(NN (location)))(PP (IN (of))(NP (NNP (edinburgh))(, (,))(NNP (scotland))))))(. (?))))) |ET| 
-1  |BT| (ROOT (ROOT (SBARQ (WHNP (WP (what)))(SQ (VBZ (be))(NP (NP (DT (the))(JJS (best))(NN (college)))(PP (IN (in))(NP (DT (the))(NN (country))))))(. (?))))) |ET| 
-1  |BT| (ROOT (ROOT (SBARQ (WHNP (WP (what)))(SQ (VBZ (be))(NP (NP (DT (the))(JJS (highest))(NN (hand)))(PP (IN (in))(NP (JJ (straight))(NN (poker))))))(. (?))))) |ET| 
-1  |BT| (ROOT (ROOT (SBARQ (WHNP (WP (what)))(SQ (VBZ (be))(NP (NP (DT (the))(NN (nickname)))(PP (IN (of))(NP (DT (the))(NNP (cleveland))(NNPS (indians))))))(. (?))))) |ET| 
0.49974548503076210437257032026537  |BT| (ROOT (ROOT (S (VP (VB (name))(NP (NP (DT (the))(NN (country)))(SBAR (WHNP (WDT (which)))(S (NP (NNP (honecker)))(VP (VBD (live))(PP (IN (in))))))))(. (.))))) |ET| 
0.60574175422588871775531060848152  |BT| (ROOT (ROOT (SBARQ (WHNP (WDT (what))(NN (country)))(SQ (VBZ (be))(ADJP (JJ (located))(PP (IN (at))(NP (NP (ADJP (NP (CD (13))(NNS (degree)))(JJ (north)))(NN (latitude)))(CC (and))(NP (ADJP (NP (CD (10))(NNS (degree)))(JJ (east)))(NN (longitude)))))))(. (?))))) |ET| 
1  |BT| (ROOT (ROOT (SBARQ (WHADVP (WRB (where)))(SQ (VBD (be))(NP (NNP (richard))(NNP (nixon)))(SBAR (WHADVP (WRB (when)))(S (NP (NNP (gerald))(NNP (ford)))(VP (VBD (become))(NP (NN (president)))))))(. (?))))) |ET| 
-1  |BT| (ROOT (ROOT (SBARQ (WHADVP (WRB (where)))(SQ (VBZ (do))(NP (PRP$ (you))(NN (hair)))(VP (VB (grow))(NP (DT (the))(JJS (fastest)))))(. (?))))) |ET| 
-0.053990510147606522728391809096138  |BT| (ROOT (ROOT (S (VP (VB (name))(NP (NP (DT (a))(NN (band)))(SBAR (WHNP (WDT (which)))(S (VP (VBD (be))(ADJP (JJ (famous))(PP (IN (in))(NP (NP (DT (the)))(NP (CD (1960))(POS ('s)))))))))))(. (.))))) |ET| 
-1  |BT| (ROOT (ROOT (SBARQ (WHNP (WDT (what))(NN (year)))(SQ (VBD (be))(NP (NP (DT (the))(NNP (olympic))(NNPS (games)))(SBAR (S (VP (VBD (play))(PP (IN (in))(SBAR (WHADVP (WRB (where)))(S (NP (NNP (nadia))(NNP (comaneci)))(VP (VBD (become))(ADJP (JJ (popular))))))))))))(. (?))))) |ET| 
1  |BT| (ROOT (ROOT (SBARQ (WHNP (WP (what)))(SQ (VBZ (be))(NP (NP (DT (the))(JJ (sacred))(NN (river)))(PP (IN (of))(NP (NNP (india))))))(. (?))))) |ET| 
1  |BT| (ROOT (ROOT (SBARQ (WHNP (WP (what)))(SQ (VBZ (be))(NP (NP (DT (the))(JJ (principal))(NN (river)))(PP (IN (of))(NP (NNP (ireland))))))(. (?))))) |ET| 
1  |BT| (ROOT (ROOT (SBARQ (WHNP (WP (what)))(SQ (VBZ (be))(NP (NP (DT (the))(NN (home)))(PP (IN (of))(NP (DT (the))(NNPS (rockettes))))))(. (?))))) |ET| 
-0.88045914211606390864517379668541  |BT| (ROOT (ROOT (SBARQ (WHNP (WP (what)))(SQ (VBZ (be))(NP (NP (DT (the))(JJ (former))(NN (name)))(PP (IN (of))(NP (NNP (zimbabwe))))))(. (?))))) |ET| 
-0.98730240991432416386430759303039  |BT| (ROOT (ROOT (SBARQ (WHNP (WP (what)))(SQ (VBZ (be))(NP (NP (DT (the))(JJ (per-capita))(NN (income)))(PP (IN (of))(NP (NP (NNP (colombia)))(, (,))(NP (NNP (south))(NNP (america)))(, (,))))))(. (?))))) |ET| 
-0.17175963096051660716767628400703  |BT| (ROOT (ROOT (SBARQ (WHNP (WP (what)))(SQ (VBZ (be))(NP (NP (DT (the))(JJ (official))(NN (language)))(PP (IN (of))(NP (NNP (algeria))))))(. (?))))) |ET| 
0.70794240964487831213602930802153  |BT| (ROOT (ROOT (SBARQ (WHADVP (WRB (where)))(SQ (MD (can))(NP (PRP (i)))(VP (VB (find))(NP (JJ (pictorial))(NNS (direction)))(PP (IN (on))(SBAR (WHADVP (WRB (how)))(S (VP (TO (to))(VP (VB (build))(NP (DT (a))(ADJP (RB (very))(JJ (simple)))(NN (treehouse))))))))))(. (?))))) |ET| 
1  |BT| (ROOT (ROOT (SBARQ (WHNP (WDT (what))(JJ (famed))(NN (library)))(SQ (MD (can))(NP (PRP (you)))(VP (VB (reach))(PP (IN (by))(S (VP (VBG (dial))(NP (CD (22-287-5))))))))(. (?))))) |ET| 
0.25627118103814805483153804743779  |BT| (ROOT (ROOT (SBARQ (WHADVP (WRB (where)))(SQ (VBZ (be))(NP (NP (DT (the))(NN (location)))(PP (IN (of))(NP (DT (the))(NNP (orange))(NNP (bowl))))))(. (?))))) |ET| 
-1  |BT| (ROOT (ROOT (SBARQ (WHADVP (WRB (where)))(SQ (VBD (do))(NP (NN (marijuana)))(VP (VBN (come))(PP (IN (from)))))(. (?))))) |ET| 
-1  |BT| (ROOT (ROOT (SBARQ (WHADVP (WRB (where)))(SQ (VBD (do))(NP (JJ (indian))(NN (pudding)))(VP (VBN (come))(PP (IN (from)))))(. (?))))) |ET| 
-0.2563124639873979315751739704865  |BT| (ROOT (ROOT (SBARQ (WHPP (IN (for))(WHNP (WDT (what))))(SQ (NP (NN (reason)))(VP (VBD (do))(S (NP (NP (DT (the))(NNP (shea)))(CC (&))(NP (NNP (gould))(NN (law))(NN (firm))))(VP (VB (close))(NP (PRP$ (they))(NNP (l.a.))(NN (office)))))))(. (?))))) |ET| 
1  |BT| (ROOT (ROOT (SBARQ (WHNP (WP (what)))(SQ (VBZ (be))(NP (NP (DT (the))(JJ (second-largest))(NN (island)))(PP (IN (in))(NP (DT (the))(NN (world))))))(. (?))))) |ET| 
1  |BT| (ROOT (ROOT (SBARQ (WHNP (WP (what)))(SQ (VBZ (be))(NP (NP (DT (the))(JJ (second-highest))(NN (mountain)))(PP (IN (in))(NP (DT (the))(NN (world))))))(. (?))))) |ET| 
1  |BT| (ROOT (ROOT (SBARQ (WHNP (WP (what)))(SQ (VBZ (be))(NP (NP (NP (NNP (britain))(POS ('s)))(NN (possession)))(PP (IN (on))(NP (DT (the))(JJ (chinese))(NN (mainland))))))(. (?))))) |ET| 
-1  |BT| (ROOT (ROOT (SBARQ (WHNP (WP (what)))(SQ (VBZ (be))(NP (NP (DT (the))(ADJP (RBS (most))(JJ (expensive)))(NN (car)))(PP (IN (in))(NP (DT (the))(NN (world))))))(. (?))))) |ET| 
-1  |BT| (ROOT (ROOT (SBARQ (WHNP (WP (what)))(SQ (VBZ (be))(NP (NP (DT (the))(JJS (largest))(NN (snake)))(PP (IN (in))(NP (DT (the))(NN (world))))))(. (?))))) |ET| 
-1  |BT| (ROOT (ROOT (SBARQ (WHNP (WP (what)))(SQ (VBZ (be))(NP (NP (DT (the))(JJS (largest))(NN (sculpture)))(PP (IN (in))(NP (DT (the))(NN (world))))))(. (?))))) |ET| 
1  |BT| (ROOT (ROOT (SBARQ (WHADVP (WRB (where)))(SQ (VBD (do))(NP (DT (the))(NN (world)))(VP (VBN (come))(PP (IN (from)))))(. (?))))) |ET| 
-0.29671516028408817522432627811213  |BT| (ROOT (ROOT (SBARQ (WHNP (WP (what)))(SQ (VBP (be))(NP (NP (NNPS (kythnos)))(, (,))(NP (NNPS (siphnos))(, (,))(NNPS (seriphos))(CC (and))(NNPS (mykonos)))))(. (?))))) |ET| 
0.53829151718227863376853292720625  |BT| (ROOT (ROOT (SBARQ (WHADVP (WRB (where))(PP (IN (in))(NP (DT (the))(NNP (united))(NNPS (states)))))(SQ (VBP (do))(NP (NNS (people)))(VP (VB (live))(NP (DT (the))(JJS (longest)))))(. (?))))) |ET| 
-1  |BT| (ROOT (ROOT (SBARQ (WHADVP (WRB (where)))(SQ (VBP (do))(NP (NNS (chihuahua)))(VP (VB (come))(PP (IN (from)))))(. (?))))) |ET| 
-1  |BT| (ROOT (ROOT (SBARQ (WHADVP (WRB (where)))(SQ (VBP (do))(NP (NNS (rock)))(VP (VB (come))(PP (IN (from)))))(. (?))))) |ET| 
-0.069941339391726808916160962326103  |BT| (ROOT (ROOT (SBARQ (WHNP (WDT (what))(ADJP (JJ (daily)))(NN (newspaper)))(SQ (VP (MD (will))(`` (``))(VP (VB (help))(S (NP (PRP (you)))(VP (VB (see))(ADJP (ADJP (JJR (clearer)))(PP (IN (across))(NP (DT (the))(NNP (usa))('' (''))))))))))(. (?))))) |ET| 
1  |BT| (ROOT (ROOT (SBARQ (WHNP (WP (what)))(SQ (VBZ (be))(NP (NP (DT (the))(JJS (largest))(NN (museum)))(PP (IN (in))(NP (DT (the))(NN (world))))))(. (?))))) |ET| 
0.47046439351953300844755290199828  |BT| (ROOT (ROOT (SBARQ (WHNP (WDT (what))(NN (city)))(SQ (VBZ (be))(VP (VBN (grace))(PP (IN (by))(NP (NP (DT (the))(NNP (arch)))(PP (IN (of))(NP (NNP (titus))))))))(. (?))))) |ET| 
1  |BT| (ROOT (ROOT (SBARQ (WHNP (WP (what)))(SQ (VBZ (be))(NP (NP (DT (the))(JJS (largest))(NN (county)))(PP (IN (in))(NP (NP (NN (size)))(PP (IN (in))(NP (NNP (massachusetts))))))))(. (?))))) |ET| 
-1  |BT| (ROOT (ROOT (SBARQ (WHNP (WP (what)))(SQ (VBZ (be))(NP (NP (DT (the))(JJS (fastest))(NN (fish)))(PP (IN (in))(NP (DT (the))(NN (world))))))(. (?))))) |ET| 
-1  |BT| (ROOT (ROOT (SBARQ (WHNP (WP (what)))(SQ (VBZ (be))(NP (NP (JJ (new)))(PP (IN (in))(NP (NP (DT (the))(JJ (postal))(NN (world)))(PP (IN (in))(NP (CD (1999))))))))(. (?))))) |ET| 
-1  |BT| (ROOT (ROOT (SBARQ (WHNP (WP (what)))(SQ (VBZ (be))(NP (NP (DT (the))(JJ (second-biggest-selling))(NN (magazine)))(PP (IN (in))(NP (NNP (america))))))(. (?))))) |ET| 
0.10043741555785558328128814764568  |BT| (ROOT (ROOT (SBARQ (WHADVP (WRB (where)))(SQ (VBZ (do))(NP (NN (chocolate)))(VP (VB (come))(PP (IN (from)))))(. (?))))) |ET| 
0.16840567039338472099530008563306  |BT| (ROOT (ROOT (SBARQ (WHADVP (WRB (where)))(SQ (VBZ (do))(NP (NN (tuberculosis)))(VP (VB (come))(PP (IN (from)))))(. (?))))) |ET| 
0.099315738295411556957326126848784  |BT| (ROOT (ROOT (SBARQ (WHADVP (WRB (where)))(SQ (VBZ (do))(NP (NN (dew)))(VP (VB (come))(PP (IN (from)))))(. (?))))) |ET| 
-0.47668026604480451258183393292711  |BT| (ROOT (ROOT (SBARQ (WHADVP (WRB (when)))(SQ (VBZ (do))(NP (NN (menstruation)))(VP (VB (begin))))(. (?))))) |ET| 
-1  |BT| (ROOT (ROOT (SBARQ (WHADVP (WRB (where)))(SQ (VBD (do))(NP (NP (DT (the))(NN (energy)))(PP (IN (for))(NP (DT (the))(NNP (big))(NNP (bang)))))(VP (VB (come))(PP (IN (from)))))(. (?))))) |ET| 
-1  |BT| (ROOT (ROOT (SBARQ (WHADVP (WRB (where)))(SQ (VBD (do))(NP (DT (the)))(VP (VBG (say))(NP (NP (`` (``))(NP (NN (rule)))(PP (IN (of))(NP (NN (thumb))))('' ('')))(VP (VBN (come))(PP (IN (from)))))))(. (?))))) |ET| 
1  |BT| (ROOT (ROOT (SBARQ (WHNP (WP (what)))(SQ (VBZ (be))(NP (NP (DT (the))(ADJP (RBS (most))(JJ (important)))(NN (nation)))(PP (IN (in))(NP (NP (DT (the))(NN (world)))(, (,))(ADVP (RB (historically)))))))(. (?))))) |ET| 
1  |BT| (ROOT (ROOT (SBARQ (WHNP (WP (what)))(SQ (VBZ (be))(NP (NP (DT (the))(JJS (tallest))(NN (building)))(PP (IN (in))(NP (NNP (japan))))))(. (?))))) |ET| 
1  |BT| (ROOT (ROOT (SBARQ (WHNP (WP (what)))(SQ (VBZ (be))(NP (NP (DT (the))(ADJP (RBS (most))(JJ (populated)))(NN (city)))(PP (IN (in))(NP (DT (the))(NN (world))))))(. (?))))) |ET| 
-1  |BT| (ROOT (ROOT (SBARQ (WHNP (WP (what)))(SQ (VBZ (be))(NP (NP (DT (the))(ADJP (RBS (most))(JJ (advanced)))(JJ (handheld))(NN (calculator)))(PP (IN (in))(NP (DT (the))(NN (world))))))(. (?))))) |ET| 
-1  |BT| (ROOT (ROOT (SBARQ (WHNP (WP (what)))(SQ (VBZ (be))(NP (NP (DT (the))(ADJP (RBS (most))(JJ (powerful)))(NN (card)))(PP (IN (in))(NP (NNP (euchre))))))(. (?))))) |ET| 
-0.85978340661885410689535547135165  |BT| (ROOT (ROOT (SBARQ (WHNP (WP (what)))(SQ (VBZ (be))(NP (NP (DT (the))(RBS (most))(JJ (common))(JJ (non-contagious))(NN (disease)))(PP (IN (in))(NP (DT (the))(NN (world))))))(. (?))))) |ET| 
0.138201002627208441309036857092  |BT| (ROOT (ROOT (SBARQ (WHADVP (WRB (where)))(SQ (VBD (be))(NP (NP (DT (the))(CD (196))(NN (summer)))(NP (NNPS (olympics))))(VP (VBN (hold))))(. (?))))) |ET| 
0.35067933328752914912129767799343  |BT| (ROOT (ROOT (SBARQ (WHADVP (WRB (where)))(SQ (VBP (do))(NP (NN (quality))(NNS (drink)))(VP (VB (begin))))(. (?))))) |ET| 
-0.12021376539781523928862583261434  |BT| (ROOT (ROOT (SBARQ (WHNP (WP (what)))(SQ (VBD (be))(NP (DT (the))(JJ (24-disc))(NNP (john))(NNP (gabel))(NNP (entertainer)))(NP (NP (DT (the))(JJ (first))(NN (example)))(PP (PP (IN (of)))(, (,))(PP (IN (in))(NP (CD (1960)))))))(. (?))))) |ET| 
-1  |BT| (ROOT (ROOT (SBARQ (WHADVP (WRB (where)))(SQ (VBZ (be))(NP (NP (DT (the))(JJ (human))(NN (skin)))(ADJP (JJS (least))(JJ (sensitive)))))(. (?))))) |ET| 
-1  |BT| (ROOT (ROOT (SBARQ (WHADVP (WRB (where)))(SQ (VBZ (do))(NP (NP (DT (the))(NNP (u.s.))(NN (rank)))(PP (IN (among))(NP (NP (NN (world))(NNS (country)))(PP (IN (in))(NP (NN (area))))))))(. (?))))) |ET| 
1  |BT| (ROOT (ROOT (SBARQ (WHNP (WP (what)))(SQ (VBZ (be))(NP (NP (DT (the))(NN (name)))(PP (IN (of))(NP (NP (DT (the))(NNP (wilkes))(NN (plantation)))(PP (IN (in))(ADJP (VBN (go))(PP (IN (with))(NP (DT (the))(NN (wind))))))))))(. (?))))) |ET| 
1  |BT| (ROOT (ROOT (SBARQ (WHNP (WP (what)))(SQ (VBZ (be))(NP (NP (DT (the))(ADJP (JJS (fastest))(VBG (grow)))(NN (state)))(PP (IN (in))(NP (NP (DT (the))(NNP (u.s.a.)))(PP (IN (in))(NP (CD (1998))))))))(. (?))))) |ET| 
1  |BT| (ROOT (ROOT (SBARQ (WHNP (WP (what)))(SQ (VBZ (be))(NP (NP (DT (the))(ADJP (RBS (most))(JJ (common)))(NN (street))(NN (name)))(PP (IN (in))(NP (NNP (america))))))(. (?))))) |ET| 
-1  |BT| (ROOT (ROOT (SBARQ (WHNP (WP (what)))(SQ (VBZ (be))(NP (NP (DT (the))(NN (theory)))(PP (IN (of))(NP (JJ (equivalence))(NNS (state))))))(. (?))))) |ET| 
-0.83766120813942701595067319431109  |BT| (ROOT (ROOT (SBARQ (WHNP (WDT (what))(NN (effect)))(SQ (VBZ (do))(NP (NNP (lsd)))(VP (VB (have))(PP (IN (on))(NP (DT (the))(NN (brain))))))(. (?))))) |ET| 
-0.94450355591213996930832763609942  |BT| (ROOT (ROOT (SBARQ (WHNP (WDT (what))(NN (fruit)))(SQ (VBZ (do))(NP (DT (the))(NN (ficus)))(VP (VB (produce))))(. (?))))) |ET| 
1  |BT| (ROOT (ROOT (SBARQ (WHADVP (WRB (where)))(SQ (VP (VBD (do)))(NP (NP (NNP (king))(NNP (francis)))(SBAR (S (NP (PRP (i)))(VP (VBP (hang))))))(NP-TMP (NP (DT (the))(`` (``))(NNP (mona))(NNP (lisa))('' ('')))(SBAR (WHADVP (WRB (when)))(S (NP (PRP (he)))(VP (VBD (own))(NP (PRP (it))))))))(. (?))))) |ET| 
0.65785491681647623174455929984106  |BT| (ROOT (ROOT (SBARQ (WHADVP (WRB (where)))(SQ (VBZ (be))(NP (NP (DT (the))(JJ (19th))(NN (hole)))(PP (IN (on))(NP (DT (a))(NN (golf))(NN (course))))))(. (?))))) |ET| 
-0.037584193846250862902635958562314  |BT| (ROOT (ROOT (SBARQ (WHNP (WP (what)))(SQ (VBZ (be))(NP (NP (DT (the))(JJ (traditional))(NN (drink)))(PP (IN (at))(NP (DT (the))(NNP (kentucky))(NNP (derby))))))(. (?))))) |ET| 
-1  |BT| (ROOT (ROOT (SBARQ (WHADVP (WRB (where)))(SQ (VBZ (do))(NP (NP (DT (the))(NNP (u.s.))(NN (rank)))(PP (IN (among))(NP (NP (NN (world))(NNS (country)))(PP (IN (in))(NP (NN (area))))))))(. (?))))) |ET| 
-1  |BT| (ROOT (ROOT (SBARQ (SBARQ (WHADVP (WRB (how))(RB (far)))(SQ (VBZ (be))(NP (NP (DT (the))(JJS (longest))(NN (hole)))(PP (IN (in))(NP (NP (CD (1)))(PP (IN (on))(NP (DT (any))(NN (golf))(NN (course)))))))))(CC (and))(SBARQ (WHADVP (WRB (where)))(SQ (VBD (do))(NP (PRP (it)))(VP (VB (happen))))(. (?)))))) |ET| 
-0.03420388626513505558879302270725  |BT| (ROOT (ROOT (SBARQ (WHNP (WDT (what))(NN (part)))(SQ (VBD (do))(NP (NNP (john))(NNP (peter))(NNP (zenger)))(VP (VB (play))(PP (IN (in))(NP (NP (DT (the))(NN (deveopment)))(PP (IN (of))(NP (NP (DT (the))(NN (newspaper)))(PP (IN (in))(NP (NNP (america))))))))))(. (?))))) |ET| 
-0.72991250272230756568347942447872  |BT| (ROOT (ROOT (SBARQ (WHADJP (WRB (how))(JJ (much)))(SQ (VBZ (be))(NP (NNP (clara))(NNP (peller)))(VP (VBG (be))(VP (VBN (pay))(PP (IN (by))(NP (NNP (wendy))(POS ('s))))(S (VP (TO (to))(VP (VB (say))(`` (``))(SBAR (WHADVP (WRB (where)))(S (VP (VBZ (be))(NP (DT (the))(NN (beef))('' (''))))))))))))(. (?))))) |ET| 
1  |BT| (ROOT (ROOT (SBARQ (WHNP (WDT (what))(NN (town)))(SQ (VBD (be))(NP (NP (DT (the))(NN (setting)))(PP (IN (for))(NP (DT (the))(NN (music))(NN (man))))))(. (?))))) |ET| 
1  |BT| (ROOT (ROOT (SBARQ (WHNP (WDT (what))(NN (nationality)))(SQ (VBD (be))(NP (NP (DT (the))(CD (123))(NNS (people)))(SBAR (WHNP (WP (who)))(S (VP (VBD (die))(PP (IN (in))(NP (NP (DT (the))(JJ (black))(NN (hole)))(PP (IN (of))(NP (NNP (calcutta)))))))))))(. (?))))) |ET| 
1  |BT| (ROOT (ROOT (SBARQ (WHNP (WP (what)))(SQ (VBP (do))(NP (PRP (we)))(VP (VB (call))(NP (DT (the))(JJ (imaginary))(NN (line)))(PP (IN (along))(NP (NP (DT (the))(NN (top)))(PP (IN (of))(NP (DT (the))(NNP (rocky))(NNPS (mountains))))))))(. (?))))) |ET| 
-0.30315138617084325112216447450919  |BT| (ROOT (ROOT (SBARQ (WHNP (WP (what)))(SQ (VBZ (be))(NP (NP (DT (the))(JJS (best))(NN (way)))(S (VP (TO (to))(VP (VB (remove))(NP (NN (wallpaper))))))))(. (?))))) |ET| 
0.55479842233445897381471922926721  |BT| (ROOT (ROOT (SBARQ (WHNP (WDT (what))(NNP (u.s.))(NN (state)))(SQ (VBZ (do))(NP (DT (the))(NNP (continental)))(VP (VB (divide))(NP (NN (leave)))(S (VP (TO (to))(VP (VB (enter))(NP (NNP (canada))))))))(. (?))))) |ET| 
-0.34876187264919367159166085912148  |BT| (ROOT (ROOT (SBARQ (WHNP (WP (who)))(SQ (VBP (be))(NP (NP (DT (the))(JJ (top))(CD (10))(JJS (richest))(NNS (people)))(PP (IN (in))(NP (DT (the))(NN (world))))))(. (?))))) |ET| 
1  |BT| (ROOT (ROOT (SBARQ (WHNP (WDT (what))(NN (province)))(SQ (VBZ (be))(NP (NNP (edmonton)))(VP (VBN (locate))(PP (IN (in)))))(. (?))))) |ET| 
1  |BT| (ROOT (ROOT (SBARQ (WHNP (WP (what)))(SQ (VBP (be))(NP (NP (DT (some))(JJ (good))(JJ (medical))(NNS (site)))(PP (IN (for))(NP (NN (information))))))(. (?))))) |ET| 
1  |BT| (ROOT (ROOT (SBARQ (WHNP (WP (what)))(SQ (VBP (be))(NP (NP (DT (some))(JJ (good))(JJ (fractal))(NN (web)))(NP (NNS (site)))))(. (?))))) |ET| 
-1  |BT| (ROOT (ROOT (SBARQ (WHNP (WDT (what)))(SQ (MD (can))(NP (PRP (one)))(VP (VB (see))(PP (IN (in))(NP (NNP (reims))))))(. (?))))) |ET| 
0.1594399138436701779397708378383  |BT| (ROOT (ROOT (SBARQ (WHNP (WDT (what))(NN (city)))(SQ (VP (VBZ (be))))(. (.))))(ROOT (FRAG (NP (NNP (kdge))(NNP (radio)))(ADJP (JJ (located)))(ADVP (IN (in)))(. (?))))) |ET| 
1  |BT| (ROOT (ROOT (S (VP (VB (name))(NP (NP (DT (the))(NN (country)))(PP (IN (of))(NP (NP (NNS (giant)))(PP (NP (CD (twelve))(NNS (time)))(PP (NP (NP (DT (the))(NN (size)))(PP (IN (of))(NP (NN (man)))))(IN (in))(NP (NP (`` (``))(NNP (gulliver))(POS ('s)))(NNS (travels)))))))))(. (.))('' (''))))) |ET| 
1  |BT| (ROOT (ROOT (SBARQ (WHNP (WP (what)))(SQ (VBD (be))(NP (NP (DT (the))(NNS (city)))(PP (IN (of))(NP (NP (NNP (dickens))(POS ('s)))(NP (NP (DT (a))(NN (tale)))(PP (IN (of))(NP (CD (two))(NNS (city)))))))))(. (?))))) |ET| 
1  |BT| (ROOT (ROOT (SBARQ (WHNP (WDT (what))(NN (island)))(SQ (VBD (be))(NP (NP (DT (the))(NN (target)))(PP (IN (of))(NP (NP (DT (the))(NNP (u.s.))(POS ('s)))(NNP (operation))(NNP (urgent))(NN (fury))))))(. (?))))) |ET| 
-1  |BT| (ROOT (ROOT (SBARQ (WHNP (WP (what)))(SQ (VBP (be))(NP (NP (DT (the))(JJ (first))(CD (six))(NNS (word)))(PP (IN (of))(NP (NP (NNP (dickens))(POS ('s)))(NP (NP (DT (a))(NN (tale)))(PP (IN (of))(NP (CD (two))(NNS (city)))))))))(. (?))))) |ET| 
-0.37787654812346982424742236617021  |BT| (ROOT (ROOT (SBARQ (WHNP (WP (what)))(SQ (VBP (be))(NP (NP (DT (the))(NNS (benefit)))(PP (IN (of))(NP (NN (home))(NN (school))))))(. (?))))) |ET| 
-0.17590607429330035182957203687693  |BT| (ROOT (ROOT (S (VP (VB (name))(NP (NP (DT (the))(NNS (man))(POS ('s)))(NN (cologne))(SBAR (WHNP (WDT (that)))(S (VP (VBZ (be))(VP (VBN (associate))(PP (IN (with))(NP (DT (the))(NN (sea))))))))))(. (.))))) |ET| 
1  |BT| (ROOT (ROOT (SBARQ (WHNP (WDT (what))(NP (JJ (botanical))))(SQ (VP (VB (marvel))(SBAR (SINV (VBD (do))(NP (NNP (nebuchadnezzar)))(VP (VB (build)))))))(. (?))))) |ET| 
1  |BT| (ROOT (ROOT (SBARQ (WHNP (WDT (what)))(SQ (VP (VBZ (attract))(NP (NNS (tourist)))(PP (TO (to))(NP (NNP (reims))))))(. (?))))) |ET| 
1  |BT| (ROOT (ROOT (SBARQ (WHNP (WP (what)))(SQ (VBD (be))(NP (DT (the))(JJ (first))(NNS (body)))(VP (VBN (visit))(PP (IN (by))(NP (NN (spacecraft))))))(. (?))))) |ET| 
-0.4192118293917459492803345710854  |BT| (ROOT (ROOT (SBARQ (WHNP (WDT (what))(NP (NNP (pope))))(SQ (VBD (inaugurate))(NP (NNP (vatican)))(NP (NNP (international))(NNP (radio))))(. (?))))) |ET| 
-1  |BT| (ROOT (ROOT (SBARQ (WHNP (WDT (what))(NN (character)))(SQ (VP (VBZ (narrate))(NP (NNP (treasure))(NNP (island)))))(. (?))))) |ET| 
-1  |BT| (ROOT (ROOT (SBARQ (WHNP (WDT (what))(NN (newspaper)))(SQ (VP (VBZ (serve))(S (ADJP (NNP (salt))(NNP (lake))(NNP (city))))))(. (?))))) |ET| 
-1  |BT| (ROOT (ROOT (SBARQ (WHNP (WDT (what))(JJ (english))(NN (playwright)))(SQ (VP (VBN (pen))(: (:))(`` (``))(SBAR (WHADVP (WRB (where)))(S (NP (DT (the))(NN (bee)))(VP (VBZ (suck))(, (,))(SBAR (RB (so))(S (VP (MD (shall))(VP (NP (PRP (i))('' (''))))))))))))(. (?))))) |ET| 
1  |BT| (ROOT (ROOT (SBARQ (WHNP (WP (what)))(SQ (VBP (be))(NP (NP (PDT (all))(DT (the))(JJ (southern))(NNS (state)))(PP (IN (of))(NP (DT (the))(NNP (u.s.))))))(. (?))))) |ET| 
1  |BT| (ROOT (ROOT (SBARQ (WHNP (WP (what)))(SQ (VBP (be))(NP (NP (DT (the))(JJS (largest))(NNS (brewery)))(PP (IN (in))(NP (DT (the))(NN (world))))))(. (?))))) |ET| 
1  |BT| (ROOT (ROOT (SBARQ (WHNP (WP (what)))(SQ (VBP (be))(NP (NP (DT (the))(JJS (largest))(NNS (desert)))(PP (IN (in))(NP (DT (the))(NN (world))))))(. (?))))) |ET| 
-0.61805126030108104018268022628035  |BT| (ROOT (ROOT (SBARQ (WHNP (WP (what)))(SQ (VBP (be))(NP (NP (DT (the))(JJ (top))(NN (boy))(NNS (name)))(PP (IN (in))(NP (DT (the))(NNP (u.s.))))))(. (?))))) |ET| 
-1  |BT| (ROOT (ROOT (SBARQ (WHNP (WP (what)))(SQ (VBP (be))(NP (NP (DT (the))(JJ (top))(NN (vegetable))(NNS (crop)))(PP (IN (in))(NP (DT (the))(NN (world))))))(. (?))))) |ET| 
-0.69279477716396109521213020343566  |BT| (ROOT (ROOT (SBARQ (WHNP (WP (what)))(SQ (VBP (be))(NP (NP (DT (the))(CD (three))(NN (winter))(NNS (month)))(PP (IN (in))(NP (DT (the))(JJ (southern))(NN (hemisphere))))))(. (?))))) |ET| 
1  |BT| (ROOT (ROOT (SBARQ (WHNP (WDT (what))(NN (park)))(SQ (VP (VBZ (contain))(NP (NP (NNP (firehole))(NNP (river)))(CC (and))(NP (NNP (fairy))(NNP (falls))))))(. (?))))) |ET| 
1  |BT| (ROOT (ROOT (SBARQ (WHNP (WDT (what))(NN (bay)))(SQ (VP (VBZ (divide))(NP (NP (NP (NNP (maryland))(POS ('s)))(NNP (eastern)))(CC (and))(NP (NNP (western))(NNP (shores))))))(. (?))))) |ET| 
1  |BT| (ROOT (ROOT (SBARQ (WHNP (WDT (what))(ADJP (JJ (celestial)))(NN (body)))(SQ (VP (VBZ (have))(NP (NP (DT (a))(NN (diameter)))(PP (IN (of))(NP (NP (CD (864)))(, (,))(NP (CD (000))(NNS (mile))))))))(. (?))))) |ET| 
-1  |BT| (ROOT (ROOT (SBARQ (WHNP (WDT (what))(NNP (u.s.))(NN (university)))(SQ (VP (VBZ (boast))(NP (DT (the))(JJS (largest))(NN (library)))))(. (?))))) |ET| 
-0.24241527892843980906967260580132  |BT| (ROOT (ROOT (SBARQ (WHNP (WDT (what))(NN (sport)))(SQ (VP (VBZ (feature))(NP (NP (NNS (snatch)))(CC (and))(NP (JJ (clean))(NNS (jerk))))))(. (?))))) |ET| 
-0.85892354378256130509328158950666  |BT| (ROOT (ROOT (SBARQ (WHNP (WDT (what))(NN (detective)))(SQ (VP (VP (VBZ (live))(PP (IN (on))(NP (NNP (punchbowl))(NNP (hill)))))(CC (and))(VP (VBZ (have))(NP (CD (11))(NNS (child))))))(. (?))))) |ET| 
1  |BT| (ROOT (ROOT (SBARQ (WHNP (WP (what)))(SQ (VBP (be))(NP (NP (DT (the))(JJ (top))(CD (five))(JJ (oil-producing))(NNS (country)))(PP (IN (in))(NP (DT (the))(NN (world))))))(. (?))))) |ET| 
1  |BT| (ROOT (ROOT (SBARQ (WHNP (WP (what)))(SQ (VBP (be))(NP (NP (DT (the))(CD (five))(JJS (richest))(NNS (country)))(PP (IN (in))(NP (DT (the))(NN (world))))))(. (?))))) |ET| 
1  |BT| (ROOT (ROOT (SBARQ (WHNP (WP (what)))(SQ (VBP (be))(NP (NP (DT (the))(JJ (top))(CD (5))(JJS (tallest))(NNS (building)))(PP (IN (in))(NP (DT (the))(NN (world))))))(. (?))))) |ET| 
-1  |BT| (ROOT (ROOT (SBARQ (WHNP (WP (what)))(SQ (VBP (be))(NP (NP (DT (the))(CD (seven))(NNS (wonder)))(PP (IN (of))(NP (DT (the))(NN (world))))))(. (?))))) |ET| 
-0.32465300499462357297630887842388  |BT| (ROOT (ROOT (SBARQ (WHNP (WP (what)))(SQ (VBZ (be))(NP (NP (DT (the))(NN (lens)))(PP (IN (behind))(NP (NP (DT (the))(NN (iris)))(PP (IN (in))(NP (DT (the))(NN (eye)))))))(VP (VBN (call))))(. (?))))) |ET| 
-0.25056746096725235339874870987842  |BT| (ROOT (ROOT (SBARQ (WHNP (WP (what)))(SQ (VBZ (be))(NP (NP (DT (the))(NN (sequel)))(PP (TO (to))(NP (NP (NP (NNP (alice))(POS ('s)))(NNS (adventure)))(PP (IN (in))(NP (NNP (wonderland))))))))(. (?))))) |ET| 
1  |BT| (ROOT (ROOT (SBARQ (WHNP (WDT (which))(NN (area)))(SQ (VP (VBZ (produce))(NP (DT (the))(JJS (least))(JJ (acidic))(NN (coffee)))))(. (?))))) |ET| 
1  |BT| (ROOT (ROOT (SBARQ (WHNP (WDT (what))(NNP (tokyo))(NN (street)))(SQ (VP (VBZ (glitter))(PP (IN (with))(NP (JJ (famed))(NN (department))(NNS (store))(CC (and))(NNS (nightclub))))))(. (?))))) |ET| 
1  |BT| (ROOT (ROOT (SBARQ (WHNP (WDT (what))(NN (canal)))(SQ (VP (VBZ (do))(NP (DT (the))(NNP (thatcher))(NN (ferry))(NN (bridge))(NN (span)))))(. (?))))) |ET| 
-0.65822105929582175321002068812959  |BT| (ROOT (ROOT (SBARQ (WHNP (WDT (what))(NN (company)))(SQ (VP (VBZ (produce))(NP (NNP (spumante)))))(. (?))))) |ET| 
-1  |BT| (ROOT (ROOT (SBARQ (WHNP (WDT (what))(JJ (former))(JJ (african))(NN (leader)))(SQ (VP (VBD (hold))(NP (NP (PRP$ (he))(NN (country))(POS ('s)))(NN (boxing))(NN (title)))(PP (IN (for))(NP (CD (nine))(NNS (year))))))(. (?))))) |ET| 
-0.1179623971006059923727349314504  |BT| (ROOT (ROOT (SBARQ (WHNP (WHNP (WDT (what))(NN (hall)))(PP (IN (of))(NP (NNP (fame))(NN (pitcher)))))(SQ (VP (VBD (start))(NP (CD (three))(NNP (world))(NNP (series))(NNPS (games)))(PP (IN (for))(NP (DT (the))(NNP (new))(NNP (york))(NNPS (yankees))))(PP (IN (in))(NP (CD (1962))))))(. (?))))) |ET| 
1  |BT| (ROOT (ROOT (SBARQ (WHNP (WP (what)))(SQ (VBZ (be))(NP (NP (DT (the))(NN (address)))(PP (IN (of))(NP (DT (the))(JJ (famous))(JJ (mexican))(NN (star))(`` (``))(NNP (thalia))('' (''))))))(. (?))))) |ET| 
1  |BT| (ROOT (ROOT (SBARQ (WHNP (WP (what)))(SQ (VBZ (be))(NP (NP (CD (one)))(PP (IN (of))(NP (NP (DT (the))(NNS (city)))(SBAR (IN (that))(S (NP (NP (DT (the))(NNP (university)))(PP (IN (of))(NP (NNP (minnesota)))))(VP (VBZ (be))(ADJP (JJ (located))(PP (IN (in)))))))))))(. (?))))) |ET| 
1  |BT| (ROOT (ROOT (SBARQ (WHNP (WP (what)))(SQ (VBZ (be))(NP (NP (DT (the))(NNP (u.s.))(NN (location)))(PP (IN (of))(NP (NP (NNP (procter))(CC (&))(NNP (gamble)))(JJ (corporate))(NNS (office))))))(. (?))))) |ET| 
-0.64755683717029843826651358540403  |BT| (ROOT (ROOT (SBARQ (WHNP (WP (what)))(SQ (VBZ (be))(NP (NP (DT (the))(JJ (full))(NN (name)))(PP (IN (of))(NP (DT (the))(NNP (plo))))))(. (?))))) |ET| 
-1  |BT| (ROOT (ROOT (SBARQ (WHNP (WP (what)))(SQ (VBZ (be))(NP (NP (DT (the))(NN (size)))(PP (IN (of))(NP (DT (the))(JJS (largest))(NN (akita))))))(. (?))))) |ET| 
-1  |BT| (ROOT (ROOT (SBARQ (WHNP (WP (what)))(SQ (VBZ (be))(NP (NP (DT (the))(NN (speed)))(PP (IN (of))(NP (DT (the))(NNP (mississippi))(NNP (river))))))(. (?))))) |ET| 
1  |BT| (ROOT (ROOT (SBARQ (WHNP (WDT (what))(NN (arch)))(SQ (MD (can))(NP (PRP (you)))(VP (VB (see))(PP (IN (from))(NP (DT (the))(NNP (place))(FW (de))(FW (la))(NNP (concorde))))))(. (?))))) |ET| 
1  |BT| (ROOT (ROOT (SBARQ (WHNP (WDT (what))(NN (lake)))(SQ (VBZ (be))(NP (NNP (sheboygan)))(PP (IN (on))))(. (?))))) |ET| 
1  |BT| (ROOT (ROOT (SBARQ (WHNP (WDT (what))(NN (ocean)))(SQ (VBD (be))(NP (NNP (amelia))(NNP (earhart)))(VP (VBG (fly))(PP (IN (over))(SBAR (WHADVP (WRB (when)))(S (NP (PRP (she)))(VP (VBD (disappear))))))))(. (?))))) |ET| 
-0.57182143890675929398526022851001  |BT| (ROOT (ROOT (SBARQ (WHNP (WDT (which))(NN (ear)))(SQ (MD (can))(NP (JJS (most))(NNS (people)))(VP (VB (hear))(NP (JJR (better)))(PP (IN (with)))))(. (?))))) |ET| 
-0.68833651987607824551673729729373  |BT| (ROOT (ROOT (SBARQ (WHPP (IN (on))(WHNP (WDT (what))(NN (day))))(SQ (VBD (be))(NP (NP (NNP (john))(NN (f)))(CC (and))(NP (NNP (jackie))(NNP (kennedy))))(VP (VBN (marry))))(. (?))))) |ET| 
-0.48294629620126622304709940181056  |BT| (ROOT (ROOT (SBARQ (WHNP (WDT (what))(JJ (famous))(NNP (new))(NNP (york))(NNP (city))(NN (mayor)))(SQ (VP (VBD (write))(NP (NP (DT (the))(NN (hit))(NN (song)))(, (,))(`` (``))(SINV (MD (will))(NP (PRP (you)))(VP (NNP (love))(PP (NP (PRP (i)))(IN (in))(NP (NP (NNP (december)))(SBAR (IN (as))(S (NP (PRP (you)))(VP (VBP (do))(PP (IN (in))(NP (NNP (may))))))))))))))(. (?))('' (''))))) |ET| 
1  |BT| (ROOT (ROOT (SBARQ (WHNP (WP (what)))(SQ (VBZ (be))(NP (NP (DT (the))(JJS (deepest))(NN (area)))(PP (IN (of))(NP (DT (the))(NNP (arctic))(NNP (ocean))))))(. (?))))) |ET| 
1  |BT| (ROOT (ROOT (SBARQ (WHNP (WP (what)))(SQ (VBZ (be))(NP (NP (DT (the))(NN (website)))(PP (IN (for))(NP (DT (the))(NNP (usa))(NN (journal))))))(. (?))))) |ET| 
1  |BT| (ROOT (ROOT (SBARQ (WHNP (WP (what)))(SQ (VBZ (be))(NP (NP (DT (the))(JJS (farthest))(NN (planet)))(PP (IN (from))(NP (DT (the))(NN (sun))))))(. (?))))) |ET| 
-1  |BT| (ROOT (ROOT (SBARQ (WHNP (WP (what)))(SQ (VBZ (be))(NP (NP (DT (the))(JJS (softest))(NN (part)))(PP (IN (of))(NP (DT (the))(NN (body))))))(. (?))))) |ET| 
-1  |BT| (ROOT (ROOT (SBARQ (WHNP (WP (what)))(SQ (VBZ (be))(NP (DT (the))(NNP (red))(NN (planet))))(. (?))))) |ET| 
-1  |BT| (ROOT (ROOT (SBARQ (WHNP (WP (what)))(SQ (VBZ (be))(NP (NP (DT (the))(JJS (weakest))(NN (bone)))(PP (IN (in))(NP (DT (the))(NN (body))))))(. (?))))) |ET| 
1  |BT| (ROOT (ROOT (SBARQ (WHPP (IN (in))(WHNP (WHNP (WDT (what))(NN (part)))(PP (IN (of))(NP (NNP (africa))))))(SQ (VBZ (be))(NP (NNP (mozambique)))(VP (VBN (locate))))(. (?))))) |ET| 
1  |BT| (ROOT (ROOT (SBARQ (WHPP (IN (on))(WHNP (WDT (what))(NN (continent))))(SQ (VBZ (be))(NP (NNP (mozambique))))(. (?))))) |ET| 
1  |BT| (ROOT (ROOT (FRAG (SBARQ (WHNP (WDT (what))(NP (NP (NN (nation))(NNS (boarder)))(NP (NNP (mozambique)))))(. (?)))))) |ET| 
-0.68000569411338063208205539922346  |BT| (ROOT (ROOT (SBARQ (WHPP (IN (on))(WHNP (WDT (what))(NN (t.v.))(NN (show))))(SQ (MD (could))(NP (NNP (tom))(NNP (terrific)))(VP (VB (be))(VP (VBN (find)))))(. (?))))) |ET| 
-1  |BT| (ROOT (ROOT (SBARQ (WHPP (IN (in))(WHNP (WDT (what))(NN (medium))))(SQ (VBZ (be))(NP (NNP (stuart))(NNP (hamblen)))(VP (VBN (consider))(S (VP (TO (to))(VP (VB (be))(NP (DT (the))(JJ (first))(NN (singing))(NN (cowboy))))))))(. (?))))) |ET| 
-0.32591906182415725234946535238123  |BT| (ROOT (ROOT (S (NP (NNP (boxing))(NNP (day)))(VP (VBZ (be))(VP (VBN (celebrate))(WHPP (IN (on))(WHNP (WDT (what))(NN (date))))))(. (?))))) |ET| 
1  |BT| (ROOT (ROOT (SBARQ (WHNP (WP (what)))(SQ (VBZ (be))(NP (NP (DT (the))(JJS (longest))(NN (river)))(PP (IN (in))(NP (DT (the))(NN (world))))))(. (?))))) |ET| 
1  |BT| (ROOT (ROOT (SBARQ (WHNP (WP (what)))(SQ (VBZ (be))(NP (NP (DT (the))(NN (name)))(PP (IN (of))(NP (NP (DT (the))(JJS (tallest))(NN (mountain)))(PP (IN (in))(NP (DT (the))(NN (world))))))))(. (?))))) |ET| 
1  |BT| (ROOT (ROOT (SBARQ (WHNP (WP (what)))(SQ (VBZ (be))(NP (NP (DT (the))(JJS (longest))(NN (place))(NN (name)))(PP (IN (in))(NP (DT (the))(NNP (u.s.))))))(. (?))))) |ET| 
-0.13843954974356420528636135713896  |BT| (ROOT (ROOT (SBARQ (WHNP (WP (what)))(SQ (VBZ (be))(NP (NP (DT (the))(NN (telephone))(NN (number)))(PP (IN (for))(NP (NP (DT (the))(NNP (university)))(PP (IN (of))(NP (NNP (kentucky))))))))(. (?))))) |ET| 
-0.58886994695197358851146418601274  |BT| (ROOT (ROOT (SBARQ (WHNP (WP (what)))(SQ (VBZ (be))(NP (NP (DT (the))(NN (world))(NN (record)))(PP (IN (for))(NP (DT (the))(JJS (longest))(NN (hair))))))(. (?))))) |ET| 
-0.19435506943593550133186909079086  |BT| (ROOT (ROOT (SBARQ (WHNP (WP (what)))(SQ (VBZ (be))(NP (NP (DT (the))(NN (acronym)))(PP (IN (for))(NP (NP (DT (the))(NNP (national))(NNP (bureau)))(PP (IN (of))(NP (NNP (investigation))))))))(. (?))))) |ET| 
1  |BT| (ROOT (ROOT (SBARQ (WHNP (WDT (what))(NNP (georgia))(NN (town)))(SQ (VBD (do))(NP (NP (NNP (scarlett))(NNP (o)))(NP (`` (`))(NNP (hara))))(VP (VB (condemn))(PP (IN (as))(S (VP (VBG (be))(ADJP (JJ (full))(PP (IN (of))(NP (JJ (pushy))(NNS (people))))))))))(. (?))))) |ET| 
1  |BT| (ROOT (ROOT (SBARQ (WHNP (WDT (what))(JJ (french))(NN (seaport)))(SQ (VP (VBZ (claim))(S (VP (TO (to))(VP (VB (be))(NP (NP (DT (the))(NN (home)))(PP (IN (of))(NP (NNS (wine))))))))))(. (?))))) |ET| 
1  |BT| (ROOT (ROOT (SBARQ (WHNP (WDT (what))(NP (NP (NNP (new))(NNP (hampshire)))(NP (NN (hamlet)))))(SQ (VP (VBZ (rise))(ADJP (JJ (early))(S (VP (TO (to))(VP (VB (vote))(ADVP (RB (first)))(PP (IN (in))(NP (NNP (u.s.))(JJ (presidential))(NNS (election))))))))))(. (?))))) |ET| 
-0.70881527027175172950279602446244  |BT| (ROOT (ROOT (SBARQ (WHNP (WDT (what))(JJ (astronomical))(NN (phenomenon)))(SQ (VP (VBZ (take))(NP (NN (place)))(PP (IN (in))(NP (NNP (jan.))(CD (1999))))))(. (?))))) |ET| 
-0.039833159248215677106230714343837  |BT| (ROOT (ROOT (SBARQ (WHNP (WDT (what))(NN (term)))(SQ (VP (VBZ (do))(NP (DT (a))(JJ (czech))(NN (use))(S (VP (TO (to))(VP (VB (describe))(NP (DT (a))(NNP (pole)))))))))(. (?))))) |ET| 
-0.49441023926098004448448364200885  |BT| (ROOT (ROOT (SBARQ (WHNP (WDT (what))(JJ (famous))(NN (soldier)))(SQ (VP (VP (VBD (be))(VP (VBN (bear))(PP (IN (in))(NP (NNP (europe))))))(, (,))(VP (VBD (die))(PP (IN (in))(NP (NNP (asia)))))(, (,))(CC (and))(VP (VBD (be))(VP (VBN (lay))(S (VP (TO (to))(VP (VB (rest))(PP (IN (in))(NP (NNP (africa)))))))))))(. (?))))) |ET| 
1  |BT| (ROOT (ROOT (SBARQ (WHNP (WP (what)))(SQ (VBZ (be))(NP (NP (DT (the))(JJS (best)))(PP (NN (online))(NP (NNS (game))(NN (site))))))(. (?))))) |ET| 
1  |BT| (ROOT (ROOT (SBARQ (WHNP (WP (what)))(SQ (VBZ (be))(NP (NP (DT (the))(NN (state))(NN (nickname)))(PP (IN (of))(NP (NNP (mississippi))))))(. (?))))) |ET| 
1  |BT| (ROOT (ROOT (SBARQ (WHNP (WP (what)))(SQ (VBZ (be))(NP (NP (DT (the))(JJ (geographical))(NN (center)))(PP (IN (of))(NP (NP (DT (the))(NNP (us)))(PP (VBG (include))(NP (NNP (alaska))(CC (and))(NNP (hawaii))))))))(. (?))))) |ET| 
-1  |BT| (ROOT (ROOT (SBARQ (WHNP (WP (what)))(SQ (VBZ (be))(NP (NP (DT (the))(NN (state))(NN (motto)))(PP (IN (of))(NP (NNP (california))))))(. (?))))) |ET| 
-1  |BT| (ROOT (ROOT (SBARQ (WHNP (WP (what)))(SQ (VBZ (be))(NP (NP (NN (state))(NN (tree)))(PP (IN (of))(NP (NNP (nebraska))))))(. (?))))) |ET| 
-0.039877577958204443731027311059734  |BT| (ROOT (ROOT (SBARQ (WHADVP (WRB (when)))(SQ (VBD (be))(NP (NP (NP (NP (NNP (london))(POS ('s)))(NNPS (docklands))(NNP (light)))(NP (NN (railway))))(VP (VBN (construct)))))(. (?))))) |ET| 
1  |BT| (ROOT (ROOT (SBARQ (WHNP (WDT (what))(NN (constellation)))(SQ (VP (VBZ (represent))(NP (DT (a))(NN (hunter)))(PP (IN (with))(NP (NN (club))(CC (and))(NN (shield))))))(. (?))))) |ET| 
1  |BT| (ROOT (ROOT (SBARQ (WHNP (WDT (what)))(SQ (VP (VBZ (erupt))(NP (DT (every))(NN (hour)))(PP (IN (at))(NP (NNP (yellowstone))(NNP (national))(NNP (park))))))(. (?))))) |ET| 
1  |BT| (ROOT (ROOT (SBARQ (WHNP (WDT (what))(JJ (european))(NN (capital)))(SQ (VP (VBD (celebrate))(NP (PRP$ (its))(CD (2))(, (,))(JJ (000th))(NN (anniversary)))(PP (IN (in))(NP (CD (1951))))))(. (?))))) |ET| 
-0.53336508727461739987063538137591  |BT| (ROOT (ROOT (SBARQ (WHNP (WDT (what))(NNP (ivy))(NNP (league))(NN (school)))(SQ (VP (VBZ (play))(NP (PRP$ (its))(NN (home))(NNS (game)))(PP (IN (at))(NP (NNP (palmer))(NNP (stadium))))))(. (?))))) |ET| 
-1  |BT| (ROOT (ROOT (SBARQ (WHNP (WDT (what))(NN (president)))(SQ (VBD (be))(VP (VBN (bury))(PP (IN (at))(NP (PRP$ (he))(JJ (ancestral))(NN (home))))(S (VP (VBG (overlook))(NP (DT (the))(NNP (hudson))(NNP (river)))(PP (IN (at))(NP (NP (NNP (hyde))(NNP (park)))(, (,))(NP (NNP (new))(NNP (york)))))))))(. (?))))) |ET| 
-0.56637679685802122531157465346041  |BT| (ROOT (ROOT (SBARQ (WHNP (WDT (what))(NN (game)))(SQ (VBZ (be))(NP (NNP (garry))(NNP (kasparov)))(ADJP (RB (really))(JJ (good))(PP (IN (at)))))(. (?))))) |ET| 
1  |BT| (ROOT (ROOT (SBARQ (WHNP (WP (what)))(SQ (VBZ (be))(NP (NP (NNP (bill))(NNP (gates)))(PP (IN (of))(NP (NNP (microsoft))(NN (e-mail))(NN (address))))))(. (?))))) |ET| 
1  |BT| (ROOT (ROOT (SBARQ (WHNP (WP (what)))(SQ (VBZ (be))(NP (NP (DT (the))(NN (capital)))(PP (IN (of))(NP (NNP (california))))))(. (?))))) |ET| 
1  |BT| (ROOT (ROOT (SBARQ (WHNP (WP (what)))(SQ (VBZ (be))(NP (NP (DT (the))(NN (address)))(PP (IN (for))(NP (NP (DT (the))(JJ (main))(NN (government))(NN (office)))(PP (IN (in))(NP (NNP (rome))(, (,))(NNP (italy))))))))(. (?))))) |ET| 
-1  |BT| (ROOT (ROOT (SBARQ (WHNP (WP (what)))(SQ (VBZ (be))(NP (NP (DT (the))(NN (term)))(PP (IN (for))(NP (NP (DT (the))(NN (side)))(PP (IN (of))(NP (NP (DT (the))(NN (mountain)))(SBAR (WHNP (WDT (that)))(S (VP (VBZ (face))(NP (DT (the))(VBG (prevail))(NNS (wind))))))))))))(. (?))))) |ET| 
-0.17652959454912542369697803223971  |BT| (ROOT (ROOT (SBARQ (WHNP (WP (what)))(SQ (VBZ (be))(NP (NP (DT (the))(NN (name)))(PP (IN (of))(NP (DT (the))(NNP (tokyo))(NNP (stock))(NNP (exchange))))))(. (?))))) |ET| 
-0.018378177351046458276595529923725  |BT| (ROOT (ROOT (SBARQ (WHNP (WP (what)))(SQ (VBZ (be))(NP (NP (DT (the))(NN (nickname)))(PP (IN (of))(NP (NN (oddsmaker))(NNP (jimmy))(NNP (snyder))))))(. (?))))) |ET| 
1  |BT| (ROOT (ROOT (SBARQ (WHPP (IN (in))(WHNP (WDT (what))(NN (state))))(SQ (VBD (be))(NP (EX (there)))(NP (DT (a))(ADJP (QP (CD (11))(CD (million)))(NN (gallon)))(NN (oil))(NN (spill))))(. (?))))) |ET| 
1  |BT| (ROOT (ROOT (SBARQ (WHPP (IN (on))(WHNP (WDT (which))(JJ (hawaiian))(NN (island))))(SQ (VBZ (be))(NP (NNP (pearl))(NNP (harbor))))(. (?))))) |ET| 
1  |BT| (ROOT (ROOT (SBARQ (WHNP (WHNP (WDT (what))(NN (landmark)))(JJ (italian))(NN (restaurant)))(SQ (MD (can))(VP (VB (be))(VP (VBN (find))(PP (IN (at))(NP (NP (CD (239))(NNP (west))(NNP (48th))(NNP (street)))(, (,))(NP (NNP (new))(NNP (york))(NNP (city))))))))(. (?))))) |ET| 
-0.66732494717136414674740763075533  |BT| (ROOT (ROOT (SBARQ (WHNP (WDT (what))(NN (journalist)))(SQ (MD (can))(VP (VB (be))(VP (VBN (find))(PP (IN (in))(CC (and))(IN (around))(NP (NNP (walden))(NNP (puddle)))))))(. (?))))) |ET| 
-0.63298107133123304723909541280591  |BT| (ROOT (ROOT (SBARQ (WHNP (WDT (what))(NN (day)))(SQ (VBD (be))(NP (NNP (pearl))(NNP (harbor)))(VP (VBN (attack))(PP (IN (in))(NP (CD (1942))))))(. (?))))) |ET| 
-0.45514812436584467514322227543744  |BT| (ROOT (ROOT (SBARQ (WHPP (IN (in))(WHNP (WDT (what))(NNS (way))))(SQ (VP (VBD (do))(S (NP (NNP (ivan)))(NP (CD (iv))(NN (support))(JJ (russian))(NN (expansion))))))(. (?))))) |ET| 
1  |BT| (ROOT (ROOT (SBARQ (WHNP (WP (what)))(SQ (VBZ (be))(NP (NP (DT (the))(NN (country)))(PP (IN (of))(NP (NP (NN (origin)))(PP (IN (for))(NP (DT (the))(NN (name))(NNP (thomas))))))))(. (?))))) |ET| 
1  |BT| (ROOT (ROOT (SBARQ (WHNP (WP (what)))(SQ (VBZ (be))(NP (NP (DT (the))(NN (name)))(PP (IN (of))(NP (NP (DT (the))(NN (planet)))(SBAR (IN (that))(S (NP (DT (the))(NNPS (ewoks)))(VP (VBP (live))(PP (IN (on))))))))))(. (?))))) |ET| 
-1  |BT| (ROOT (ROOT (SBARQ (WHNP (WP (what)))(SQ (VBZ (be))(NP (NP (DT (the))(JJS (tallest))(NN (piece)))(PP (IN (on))(NP (DT (a))(NN (chessboard))))))(. (?))))) |ET| 
-0.38681534206512158124979805506882  |BT| (ROOT (ROOT (SBARQ (WHNP (WP (what)))(SQ (VBZ (be))(NP (NP (DT (the))(NN (origin)))(PP (IN (of))(NP (DT (the))(NN (name))(NNP (katie))))))(. (?))))) |ET| 
-0.38681534206512191431670544261578  |BT| (ROOT (ROOT (SBARQ (WHNP (WP (what)))(SQ (VBZ (be))(NP (NP (DT (the))(NN (origin)))(PP (IN (of))(NP (DT (the))(NN (name))(NNP (igor))))))(. (?))))) |ET| 
1  |BT| (ROOT (ROOT (SBARQ (WHNP (WP (what)))(SQ (VBD (be))(NP (NP (NNP (einstein))(POS ('s)))(NN (birthplace))))(. (?))))) |ET| 
1  |BT| (ROOT (ROOT (SBARQ (WHNP (WDT (what))(NN (cathedral)))(SQ (VBD (be))(NP (NNP (thomas))(NNP (becket)))(VP (VBN (murder))(PP (IN (in)))))(. (?))))) |ET| 
0.93587057723052935465091195510468  |BT| (ROOT (ROOT (SBARQ (WHNP (WDT (what))(NN (state)))(SQ (VBZ (do))(NP (NNP (charles))(NNP (robb)))(VP (VB (represent))))(. (?))))) |ET| 
1  |BT| (ROOT (ROOT (SBARQ (WHNP (WP (what)))(SQ (VBZ (be))(NP (NP (DT (the))(NN (name)))(PP (IN (of))(NP (NP (DT (the))(NN (planet)))(SBAR (IN (that))(S (NP (DT (the))(NNPS (ewoks)))(VP (VBP (live))(PP (IN (on))))))))))(. (?))))) |ET| 
-0.35152400076037332299350168796082  |BT| (ROOT (ROOT (SBARQ (WHNP (WDT (what))(NN (format)))(SQ (VBD (be))(NP (NP (NNP (vhs))(POS ('s)))(JJ (main))(NN (competition))))(. (?))))) |ET| 
-1  |BT| (ROOT (ROOT (SBARQ (WHNP (WDT (what))(NN (century)))(SQ (VBZ (do))(NP (NNP (captain))(NNP (video)))(VP (VB (live))(PP (IN (in)))))(. (?))))) |ET| 
-0.065455337151761966429930339472776  |BT| (ROOT (ROOT (SBARQ (WHNP (WP (what)))(SQ (VBP (be))(NP (JJ (shooting))(NNS (star))))(. (?))))) |ET| 
1  |BT| (ROOT (ROOT (SBARQ (WHNP (WP (what)))(SQ (VBZ (be))(NP (NP (DT (the))(JJS (oldest))(NN (website)))(PP (IN (on))(NP (DT (the))(NN (internet))))))(. (?))))) |ET| 
-1  |BT| (ROOT (ROOT (SBARQ (WHPP (IN (on))(WHNP (WDT (which))(NN (date))))(SQ (VBZ (be))(NP (NP (DT (the))(NNPS (ukrainians))(POS (')))(NNP (christmas))))(. (?))))) |ET| 
-0.1493471105908106277837532616104  |BT| (ROOT (ROOT (SBARQ (WHNP (WP (what)))(SQ (VBZ (be))(NP (NP (DT (the))(NN (proof)))(SBAR (IN (that))(S (NP (NNS (houseplant)))(VP (VBZ (metabolize))(NP (NNS (carcinogen))))))))(. (?))))) |ET| 
-1  |BT| (ROOT (ROOT (SBARQ (WHNP (WP (what)))(SQ (VBZ (be))(NP (DT (the))(NN (music)))(VP (VBN (use))(PP (IN (in))(NP (NP (DT (the))(JJ (new))(NNP (vw))(NNP (beetle))(JJ (commercial)))(SBAR (WHADVP (WRB (where)))(S (NP (DT (the))(NN (car)))(VP (VBZ (spin))(CC (and))(VBZ (change))(NP (NNS (color))))))))))(. (?))))) |ET| 
1  |BT| (ROOT (ROOT (SBARQ (WHNP (WHNP (WDT (what))(NN (body)))(PP (IN (of))(NP (NN (water)))))(SQ (VBZ (do))(NP (DT (the))(NNP (yukon))(NNP (river)))(VP (VB (empty))(PP (IN (into)))))(. (?))))) |ET| 
1  |BT| (ROOT (ROOT (SBARQ (WHNP (WDT (what))(NN (desert)))(SQ (VP (VBZ (have))(VP (VBN (be))(VP (VBN (call))(NP (NP (DT (the))(NN (garden)))(PP (IN (of))(NP (NNP (allah)))))))))(. (?))))) |ET| 
1  |BT| (ROOT (ROOT (SBARQ (WHNP (WDT (what))(NN (building)))(SQ (VP (VBD (build))(PP (IN (in))(NP (NP (CD (18)))(SBAR (S (VP (VBZ (contain))(NP (NP (CD (327))(NNS (mile)))(PP (IN (of))(NP (NN (book))(NNS (shelf))))))))))))(. (?))))) |ET| 
1  |BT| (ROOT (ROOT (SBARQ (WHNP (WP (what)))(SQ (VBZ (be))(NP (NP (DT (the))(JJS (oldest))(NN (website)))(PP (IN (on))(NP (DT (the))(NN (internet))))))(. (?))))) |ET| 
-1  |BT| (ROOT (ROOT (SBARQ (WHNP (WDT (what))(NP (NP (NNP (pulitzer)))(NP (JJ (prize-winning))(NN (novelist)))))(SQ (VP (VBD (run))(PP (IN (for))(NP (NP (NN (mayor)))(PP (IN (of))(NP (NNP (new))(NNP (york))(NNP (city))))))))(. (?))))) |ET| 
0.11447949639474618022116914062281  |BT| (ROOT (ROOT (SBARQ (WHADVP (WRB (where)))(SQ (MD (can))(NP (PRP (i)))(VP (VB (look))(PP (IN (at))(NP (DT (a))(JJ (perpetual))(NN (calendar))))))(. (?))))) |ET| 
-0.048753394813525051387781417133738  |BT| (ROOT (ROOT (SBARQ (WHNP (WDT (what))(NP (NN (film))(CC (or))(NNS (film))))(SQ (VBZ (have))(NP (NNP (jude))(NNP (law)))(VP (VBD (appear))(PP (IN (in)))))(. (?))))) |ET| 
1  |BT| (ROOT (ROOT (SBARQ (WHNP (WP (what)))(SQ (VBZ (be))(NP (DT (the))(NNP (homelite))(NNP (inc.))(NN (home))(NN (page))))(. (?))))) |ET| 
-1  |BT| (ROOT (ROOT (SBARQ (WHNP (WP (what)))(SQ (VBZ (be))(NP (NP (NN (usenet)))(PP (IN (for))(NP (DT (the))(NN (internet))))))(. (?))))) |ET| 
-1  |BT| (ROOT (ROOT (SBARQ (WHNP (WP (what)))(SQ (VBZ (be))(NP (DT (a))(JJ (first))(NNP (world))(NN (country))))(. (?))))) |ET| 
-0.43261661717877708532853375800187  |BT| (ROOT (ROOT (SBARQ (WHNP (WP (what)))(SQ (VBZ (be))(NP (NP (DT (the))(JJ (economic))(NN (impact)))(PP (IN (of))(NP (NP (NN (unemployment)))(PP (IN (on))(NP (DT (the))(NN (economy))))))))(. (?))))) |ET| 
1  |BT| (ROOT (ROOT (SBARQ (WHADVP (WRB (where)))(SQ (MD (can))(NP (DT (a))(JJ (individual)))(VP (VB (get))(NP (NP (DT (a))(NN (contact))(NN (lens)))(VP (VBN (test))(SBAR (IN (that))(S (VP (VBN (burn))(NP (NP (DT (the))(JJ (entire))(NN (surface)))(PP (IN (of))(NP (NN (eye))))))))))))(FRAG (WHADVP (WRB (when)))(ADJP (JJ (new))))(. (?))))) |ET| 
1  |BT| (ROOT (ROOT (SBARQ (WHNP (WDT (which))(NN (continent)))(SQ (VP (VBZ (have))(ADVP (DT (the))(RBS (most)))(NP (NNS (rose)))))(. (?))))) |ET| 
1  |BT| (ROOT (ROOT (SBARQ (WHNP (WDT (what))(CD (two))(NNS (country)))(SQ (VP (VBD (fight))(NP (NP (DT (the))(NNP (hundred))(NNS (year))(POS (')))(NN (war)))))(. (?))))) |ET| 
1  |BT| (ROOT (ROOT (SBARQ (WHNP (WP (what)))(SQ (VBZ (be))(NP (DT (the))(NNP (homelite))(NNP (inc.))(NN (home))(NN (page))))(. (?))))) |ET| 
-1  |BT| (ROOT (ROOT (SBARQ (WHNP (WDT (what))(NN (religion)))(SQ (VP (VBZ (have))(ADVP (DT (the))(RBS (most)))(NP (NNS (member)))))(. (?))))) |ET| 
-0.38282031641876357319631551945349  |BT| (ROOT (ROOT (SBARQ (WHNP (WDT (which))(NN (language)))(SQ (VP (VBZ (have))(ADVP (DT (the))(RBS (most)))(NP (NNS (word)))))(. (?))))) |ET| 
-1  |BT| (ROOT (ROOT (SBARQ (WHNP (WHNP (WDT (what))(NN (chapter)))(PP (IN (of))(NP (DT (the))(NNP (bible)))))(SQ (VP (VBZ (have))(ADVP (DT (the))(RBS (most)))(NP (NNS (verse)))))(. (?))))) |ET| 
1  |BT| (ROOT (ROOT (SBARQ (WHNP (WP (what)))(SQ (VBZ (be))(NP (NP (NNP (drew))(NNP (barrymore))(POS ('s)))(NN (email))(NN (address))))(. (?))))) |ET| 
1  |BT| (ROOT (ROOT (SBARQ (WHNP (WP (what)))(SQ (VBZ (be))(NP (NP (NNP (george))(NNP (lucas))(POS ('s)))(JJ (e-mail))(NN (address))))(. (?))))) |ET| 
1  |BT| (ROOT (ROOT (SBARQ (WHNP (WP (what)))(SQ (VBZ (be))(NP (NP (NNP (mark))(NNP (mcgwire))(POS ('s)))(JJ (e-mail))(NN (address))))(. (?))))) |ET| 
-0.4094021711851406619686599697161  |BT| (ROOT (ROOT (SBARQ (WHNP (WP (what)))(SQ (VBZ (be))(NP (NP (NNP (drew))(NNP (barrymore))(POS ('s)))(JJ (middle))(NN (name))))(. (?))))) |ET| 
-1  |BT| (ROOT (ROOT (SBARQ (WHNP (WP (what)))(SQ (VBZ (be))(NP (NP (NNP (california))(POS ('s)))(NN (state))(NN (bird))))(. (?))))) |ET| 
-0.25989772086685791752103114049532  |BT| (ROOT (ROOT (SBARQ (WHNP (WP (what)))(SQ (VBZ (be))(NP (NP (NNP (michael))(NNP (jackson))(POS ('s)))(JJ (middle))(NN (name))))(. (?))))) |ET| 
0.7599031006732087645261231045879  |BT| (ROOT (ROOT (SBARQ (WHNP (WDT (what))(NN (country)))(SQ (VP (VBZ (boast))(ADVP (DT (the))(RBS (most)))(NP (NP (NNS (car)))(PP (IN (per))(NP (NP (NN (mile)))(PP (IN (of))(NP (NN (road)))))))))(. (?))))) |ET| 
1  |BT| (ROOT (ROOT (SBARQ (WHNP (WHNP (WDT (what))(NN (state)))(PP (IN (in))(NP (DT (the))(NNP (u.s.)))))(SQ (VP (VBZ (have))(ADVP (DT (the))(RBS (most)))(NP (NNS (black)))))(. (?))))) |ET| 
1  |BT| (ROOT (ROOT (SBARQ (WHNP (WHNP (WHNP (WDT (what))(NN (state)))(ADJP (JJ (full))))(PP (IN (of))(NP (NN (milk))(CC (and))(NN (honey)))))(SQ (VBD (be))(NP (NP (DT (the))(NN (destination)))(PP (IN (in))(NP (NP (DT (the))(NNS (grape)))(PP (IN (of))(NP (NN (wrath))))))))(. (?))))) |ET| 
-0.52859965721185808718018961371854  |BT| (ROOT (ROOT (SBARQ (WHNP (WHNP (WDT (what))(NN (kind)))(PP (IN (of))(NP (NN (puzzle)))))(SQ (VP (ADVP (RB (first)))(VBD (appear))(PP (IN (in))(NP (NP (DT (the))(NNP (u.s.)))(PP (IN (in))(NP (DT (the))(NNP (new))(NNP (york))(NNP (world))))))(PP (IN (on))(NP (NNP (december))(CD (21))(, (,))(CD (1913))))))(. (?))))) |ET| 
-0.46063846299226285374572853470454  |BT| (ROOT (ROOT (SBARQ (WHNP (WDT (what)))(SQ (VP (VBD (become))(NP (NP (DT (the))(JJS (biggest))(NN (cash))(NN (crop)))(PP (IN (in))(NP (DT (the))(NNP (u.s.)))))(PP (IN (in))(NP (CD (1983))))(, (,))(VP (VBG (surpass))(NP (NN (corn))))))(. (?))))) |ET| 
-0.22543868338225181435774402416428  |BT| (ROOT (ROOT (SBARQ (WHNP (WHNP (WDT (which))(NN (member)))(PP (IN (of))(NP (DT (the))(NNPS (micronauts)))))(SQ (VP (VBD (spend))(NP (CD (1))(NNS (year)))(S (VP (VBG (travel))(NP (NP (DT (the))(NNP (microverse)))(PP (IN (in))(NP (DT (the))(NNP (marvel))(NNS (comic)))))))))(. (?))))) |ET| 
0.80435386280140752646161672601011  |BT| (ROOT (ROOT (SBARQ (WHNP (WP (what)))(SQ (VBZ (be))(NP (NP (NNP (stefan))(NNP (edberg))(POS ('s)))(JJ (native))(NN (country))))(. (?))))) |ET| 
1  |BT| (ROOT (ROOT (SBARQ (WHNP (WP (what)))(SQ (VBZ (be))(NP (NP (NNP (california))(POS ('s)))(NN (capital))))(. (?))))) |ET| 
1  |BT| (ROOT (ROOT (SBARQ (WHNP (WP (what)))(SQ (VBZ (be))(NP (NP (NNP (new))(NNP (england))(POS ('s)))(JJS (highest))(NN (mountain))))(. (?))))) |ET| 
-0.014229220521789119613398355568279  |BT| (ROOT (ROOT (SBARQ (WHNP (WP (what)))(SQ (VBZ (do))(NP (DT (the))(NN (acronym))(NNP (cpr)))(VP (VB (mean))))(. (?))))) |ET| 
-0.17504730857687067491212928871391  |BT| (ROOT (ROOT (SBARQ (WHNP (WP (what)))(SQ (VBZ (be))(NP (NP (NNP (november))(POS ('s)))(NN (birthstone))))(. (?))))) |ET| 
-0.11925651208763032862236741493689  |BT| (ROOT (ROOT (SBARQ (WHNP (WP (what)))(SQ (VBZ (be))(NP (NP (NNP (april))(POS ('s)))(NN (gemstone))))(. (?))))) |ET| 
1  |BT| (ROOT (ROOT (SBARQ (WHNP (WHNP (WDT (which))(NN (city)))(PP (IN (in))(NP (NNP (china)))))(SQ (VP (VBZ (have))(NP (NP (DT (the))(JJS (largest))(NN (number)))(PP (IN (of))(NP (JJ (foreign))(JJ (financial))(NNS (company)))))))(. (?))))) |ET| 
1  |BT| (ROOT (ROOT (SBARQ (WHNP (WHNP (WDT (which))(NN (one)))(PP (IN (of))(NP (DT (the))(NNP (great))(NNP (lakes)))))(SQ (VP (VBZ (be))(ADVP (RB (entirely)))(PP (IN (within))(NP (NNP (u.s.))(NN (territory))))))(. (?))))) |ET| 
1  |BT| (ROOT (ROOT (SBARQ (WHNP (WDT (what))(NP (JJ (general))(NN (direction))))(SQ (VBZ (do))(NP (NP (DT (the))(NN (journey)))(PP (IN (in))(PP (IN (around))(NP (NP (DT (the))(NN (world)))(PP (IN (in))(NP (CD (80))(NNS (day))))))))(VP (VB (proceed))(PP (IN (in)))))(. (?))))) |ET| 
-1  |BT| (ROOT (ROOT (SBARQ (WHNP (WDT (what))(NNS (current)))(SQ (VP (VBP (affect))(NP (NP (NP (DT (the))(NN (area)))(PP (IN (of))(NP (DT (the))(NNP (shetland))(NNPS (islands)))))(CC (and))(NP (NP (NNP (orkney))(NNPS (islands)))(PP (IN (in))(NP (DT (the))(NNP (north))(NNP (sea))))))))(. (?))))) |ET| 
-1  |BT| (ROOT (ROOT (SBARQ (WHNP (WDT (what))(JJ (19th-century))(NN (writer)))(SQ (VP (VBD (have))(NP (NP (DT (a))(NN (country))(NN (estate)))(PP (IN (on))(NP (NP (DT (the))(NNP (hudson)))(VP (VBN (dub))(NP (NNP (sunnyside)))))))))(. (?))))) |ET| 
-0.98487438717390418663200080118258  |BT| (ROOT (ROOT (SBARQ (WHNP (WDT (what))(JJ (european))(NN (race)))(SQ (VP (VBZ (see))(SBAR (S (NP (NP (DT (the))(NN (winner)))(PP (IN (of))(NP (PRP$ (its))(NN (mountain))(NN (stage)))))(VP (VBD (award))(NP (DT (a))(NN (jersey)))(PP (IN (with))(NP (JJ (large))(JJ (red))(NN (polka))(NNS (dot)))))))))(. (?))))) |ET| 
1  |BT| (ROOT (ROOT (SBARQ (WHNP (WP (what)))(SQ (VBZ (be))(NP (NP (NNP (answers.com))(POS ('s)))(NN (address))))(. (?))))) |ET| 
1  |BT| (ROOT (ROOT (SBARQ (WHNP (WP (what)))(SQ (VBZ (be))(NP (DT (the))(ADJP (JJS (greatest))(VBG (hike)))(NP (NN (web))(NN (site)))))(. (?))))) |ET| 
1  |BT| (ROOT (ROOT (SBARQ (WHNP (WDT (what))(NN (nationality)))(SQ (VBZ (be))(NP (NNP (pope))(NNP (john))(NNP (paul))(NNP (ii))))(. (?))))) |ET| 
-0.44121170933873599118157926568529  |BT| (ROOT (ROOT (SBARQ (WHNP (WDT (what))(NN (author)))(SQ (VBD (be))(VP (VBN (appoint))(NP (NNP (u.s.))(NN (ambassador)))(PP (TO (to))(NP (NNP (spain))))(PP (IN (in))(NP (NNP (1842))))))(. (?))))) |ET| 
-1  |BT| (ROOT (ROOT (SBARQ (WHNP (WP (what)))(SQ (VBZ (be))(NP (DT (the))(NNP (west))(NNP (virginia))(NN (state))(NN (animal))))(. (?))))) |ET| 
1  |BT| (ROOT (ROOT (SBARQ (WHNP (WDT (what))(JJ (russian))(NN (seaport)))(SQ (VP (VBZ (have))(S (NP (DT (a))(NN (name))(NN (meaning)))(`` (``))(NP (NP (NNP (lord)))(PP (IN (of))(NP (DT (the))(NNP (east)))))('' ('')))))(. (?))))) |ET| 
1  |BT| (ROOT (ROOT (SBARQ (WHNP (WDT (what))(CD (two))(JJ (european))(NNS (country)))(SQ (VP (VBD (enter))(NP (NP (DT (the))(NN (war)))(PP (IN (of))(NP (JJ (american))(NN (independence)))))(PP (IN (against))(NP (DT (the))(NNP (british))))))(. (?))))) |ET| 
1  |BT| (ROOT (ROOT (SBARQ (WHNP (WP (what)))(SQ (VBZ (be))(NP (NP (DT (the))(JJS (oldest))(NN (website)))(PP (IN (on))(NP (DT (the))(NN (internet))))))(. (?))))) |ET| 
-1  |BT| (ROOT (ROOT (SBARQ (WHNP (WDT (what))(CD (2))(NNS (statue)))(SQ (VBD (do))(NP (NNP (france)))(VP (VB (give))(PP (TO (to))(NP (JJ (other))(NNS (country))))))(. (?))))) |ET| 
-1  |BT| (ROOT (ROOT (SBARQ (WHADVP (WRB (where)))(SQ (VP (VBZ (do))(ADJP (`` (``))(JJ (bovine))('' (''))(SBAR (S (VP (VBN (come))(PP (IN (from)))))))))(. (?))))) |ET| 
-0.26877352268942189539302489720285  |BT| (ROOT (ROOT (SBARQ (WHNP (WDT (what))(NN (author)))(SQ (VBD (do))(NP (NNP (photographer))(NNP (yousuf))(NNP (karsh)))(VP (VB (call))(NP (NP (`` (``))(DT (the))(JJS (shiest))(NN (man)))(SBAR (S (NP (PRP (i)))(ADVP (RB (ever)))(VP (VBD (meet))('' (''))))))))(. (?))))) |ET| 
1  |BT| (ROOT (ROOT (SBARQ (WHNP (WP (what)))(SQ (VBD (be))(VP (VBN (know))(PP (IN (as))(NP (DT (the))(NN (spice))(NN (island))))))(. (?))))) |ET| 
1  |BT| (ROOT (ROOT (SBARQ (WHNP (WP (what)))(SQ (VBD (be))(NP (NP (DT (the))(JJ (first))(CD (three))(NNS (city)))(S (VP (TO (to))(VP (VB (have))(NP (NP (DT (a))(NN (population)))(PP (IN (of))(NP (QP (XS (JJR (more))(IN (than)))(DT (a))(CD (million)))))))))))(. (?))))) |ET| 
-1  |BT| (ROOT (ROOT (SBARQ (WHNP (WP (what)))(SQ (VBP (be))(NP (NP (DT (the))(NNS (resident)))(PP (IN (of))(NP (NP (DT (the))(NN (island)))(PP (IN (of))(NP (NNP (lesbos)))))))(VP (VBN (call))))(. (?))))) |ET| 
-0.26832854531260608155207592062652  |BT| (ROOT (ROOT (SBARQ (WHNP (WP (what)))(SQ (VBD (be))(NP (NP (DT (the))(NN (name)))(PP (IN (of))(NP (NP (DT (the))(NNP (u.s.))(NNP (navy))(NN (gunboat)))(PP (IN (in))(NP (NP (DT (the))(NN (film)))(NP (DT (the))(NNP (sand))(NNP (pebbles)))))))))(. (?))))) |ET| 
-1  |BT| (ROOT (ROOT (SBARQ (WHNP (WP (what)))(SQ (VBZ (be))(NP (NP (DT (the))(NN (population)))(PP (IN (of))(NP (DT (the))(JJS (largest))(JJ (chilean))(NN (city))))))))) |ET| 
0.68390105627398534160477083787555  |BT| (ROOT (ROOT (SBARQ (WHADVP (WRB (where)))(SQ (VBD (do))(NP (NNP (dikembe))(NNP (mutombo)))(VP (VB (go))(PP (TO (to))(NP (NN (college))))))(. (?))))) |ET| 
1  |BT| (ROOT (ROOT (SBARQ (WHADVP (WRB (where)))(SQ (VBD (do))(NP (NP (NNP (freidreich))(NNP (wilhelm))(NNP (ludwig))(NNP (leichhardt)))(, (,))(NP (JJ (prussian))(VBN (bear))(NN (explorer)))(, (,)))(VP (VB (go))(PP (TO (to))(NP (NN (school))))))(. (?))))) |ET| 
1  |BT| (ROOT (ROOT (SBARQ (WHADVP (WRB (where)))(SQ (VBD (do))(NP (NNP (luther)))(VP (VB (display))(NP (PRP$ (he))(`` (``))(CD (ninety-five))(NNS (thesis))('' ('')))))(. (?))))) |ET| 
1  |BT| (ROOT (ROOT (SBARQ (WHNP (WDT (what))(JJ (russian))(NN (seaport)))(SQ (VP (VBZ (have))(S (NP (DT (a))(NN (name))(NN (meaning)))(`` (``))(NP (NP (NNP (lord)))(PP (IN (of))(NP (DT (the))(NNP (east)))))('' ('')))))(. (?))))) |ET| 
1  |BT| (ROOT (ROOT (SBARQ (WHNP (WP (what)))(SQ (VBD (be))(NP (NP (DT (the))(JJ (first))(CD (three))(NNS (city)))(S (VP (TO (to))(VP (VB (have))(NP (NP (DT (a))(NN (population)))(PP (IN (of))(NP (QP (XS (JJR (more))(IN (than)))(DT (a))(CD (million)))))))))))(. (?))))) |ET| 
-0.30614600885578924227559127757559  |BT| (ROOT (ROOT (SBARQ (WHNP (WDT (what))(JJ (argentine))(NN (boxer)))(SQ (VBD (be))(VP (VBN (shoot))(ADJP (JJ (dead))(PP (IN (outside))(NP (DT (a))(NNP (nevada))(NN (brothel)))))(PP (IN (in))(NP (NNP (may))))))(. (?))))) |ET| 
-1  |BT| (ROOT (ROOT (SBARQ (WHADVP (WRB (where)))(SQ (VBD (do))(NP (DT (the))(NN (marriage))(NN (ceremony)))(VP (VBN (come))(PP (IN (from)))))(. (?))))) |ET| 
-1  |BT| (ROOT (ROOT (SBARQ (WHADVP (WRB (where)))(SQ (VBD (do))(NP (DT (the))(NN (term))(NN (fireplug)))(VP (VBN (come))(PP (IN (from)))))(. (?))))) |ET| 
1  |BT| (ROOT (ROOT (SBARQ (WHNP (WDT (what))(NN (lake)))(SQ (VBZ (be))(NP (NP (DT (the))(NN (source)))(PP (IN (of))(NP (DT (the))(NNP (white))(NNP (nile))))))(. (?))))) |ET| 
1  |BT| (ROOT (ROOT (SBARQ (WHNP (WDT (what))(NN (building)))(SQ (VP (ADVP (RB (appropriately))(RB (enough)))(VBZ (be))(VP (VBN (depict))(PP (IN (on))(NP (NP (DT (the))(NN (back)))(PP (IN (of))(NP (DT (the))(JJ (1-dollar))(NN (bill)))))))))(. (?))))) |ET| 
0.39736897293436157507784400877426  |BT| (ROOT (ROOT (SBARQ (WHPP (IN (in))(WHNP (WDT (what))(NN (city))))(SQ (VBZ (be))(NP (NP (DT (the))(NN (headquarters)))(PP (IN (of))(NP (NNP (sinn))(NNP (fein))))))(. (?))))) |ET| 
-1  |BT| (ROOT (ROOT (SBARQ (WHNP (WDT (what))(NN (tragedy)))(SQ (VP (VBD (befall))(NP (NP (DT (the))(NN (city)))(PP (IN (of))(NP (NNP (dogtown)))))(PP (IN (in))(NP (CD (1899))))))(. (?))))) |ET| 
-0.61993616054157918426881224149838  |BT| (ROOT (ROOT (SBARQ (WHNP (WDT (what))(NN (color)))(SQ (VBZ (be))(NP (NP (DT (the))(NN (cross)))(PP (IN (on))(NP (NP (NNP (switzerland))(POS ('s)))(NN (flag))))))(. (?))))) |ET| 
-1  |BT| (ROOT (ROOT (SBARQ (WHNP (WP (what)))(SQ (VBZ (be))(NP (NP (DT (the))(JJS (largest))(NN (letter)))(PP (IN (in))(NP (NP (NNP (salvador))(NNP (dali))(POS ('s)))(NN (signature))))))(. (?))))) |ET| 
0.82332313829641556868210727770929  |BT| (ROOT (ROOT (SBARQ (WHADVP (WRB (where)))(SQ (VBD (do))(NP (DT (the))(NNP (wright))(NNS (brother)))(VP (VBP (make))(NP (PRP$ (they))(JJ (first))(NN (flight)))))(. (?))))) |ET| 
0.43375813923276224093328323760943  |BT| (ROOT (ROOT (SBARQ (WHADVP (WRB (where)))(SQ (VBP (do))(NP (PRP (you)))(VP (VB (find))(NP (DT (the))(NNS (answer)))(PP (IN (for))(NP (PDT (all))(DT (these))(NNS (question))))))(. (?))))) |ET| 
1  |BT| (ROOT (ROOT (SBARQ (WHADVP (WRB (where)))(SQ (MD (can))(NP (PRP (i)))(VP (VB (take))(NP (NP (DT (a))(NN (test)))(SBAR (WHNP (WDT (that)))(S (VP (MD (will))(VP (VB (tell))(NP (PRP (i)))(SBAR (WHNP (WP (what)))(S (NP (PRP (i)))(VP (MD (should))(VP (VB (be))(SBAR (WHADVP (WRB (when)))(S (NP (PRP (i)))(VP (VBP (grow))(PRT (RP (up)))))))))))))))))(. (?))))) |ET| 
-0.78559724190987167968813764673541  |BT| (ROOT (ROOT (SBARQ (WHADVP (WRB (how)))(SQ (MD (can))(NP (PRP (i)))(VP (VB (get))(NP (NP (NN (someone))(POS ('s)))(NN (email))(NN (address)))))(. (?))))) |ET| 
-0.26854833444177067525160396144202  |BT| (ROOT (ROOT (SBARQ (WHADVP (WRB (why)))(SQ (VBP (be))(NP (NP (DT (the))(NNS (rooftop)))(PP (IN (in))(NP (NNP (canada)))))(ADJP (JJ (green))))(. (?))))) |ET| 
-0.16371611461008359067470507852704  |BT| (ROOT (ROOT (SBARQ (WHNP (WP$ (whose))(NN (image)))(SQ (VBZ (be))(VP (VBN (allege))(S (VP (TO (to))(VP (VB (be))(PP (IN (on))(NP (NP (DT (the))(NN (shroud)))(PP (IN (of))(NP (NNP (turin)))))))))))(. (?))))) |ET| 
1  |BT| (ROOT (ROOT (SBARQ (WHNP (WP (what)))(SQ (VBZ (be))(NP (NP (DT (the))(JJS (largest))(JJ (natural))(NN (lake)))(PP (IN (in))(NP (NNP (pennsylvania))))))(. (?))))) |ET| 
1  |BT| (ROOT (ROOT (SBARQ (WHNP (WP (what)))(SQ (VP (VBP (do))(S (NP (JJS (most))(NNS (tourist)))(NP (NP (NN (visit)))(PP (IN (in))(NP (NNP (reims))))))))(. (?))))) |ET| 
1  |BT| (ROOT (ROOT (SBARQ (WHNP (WP (what)))(SQ (VBZ (be))(NP (NP (DT (the))(ADJP (JJS (largest))(CC (and))(ADJP (RBS (most))(JJ (expensive))))(NN (freeway))(NN (construction))(NN (project)))(PP (IN (in))(NP (NP (DT (the))(NNP (u.s.))(NN (right)))(ADVP (RB (now)))))))(. (?))))) |ET| 
-0.6420031027927142197597731865244  |BT| (ROOT (ROOT (SBARQ (WHNP (WP (what)))(SQ (VBZ (be))(NP (DT (a))(JJ (virtual))(NNP (ip))(NN (address))))(. (?))))) |ET| 
-1  |BT| (ROOT (ROOT (SBARQ (WHNP (WP (what)))(SQ (VBZ (be))(NP (NP (DT (the))(ADJP (RBS (most))(JJ (abundant)))(NN (element)))(PP (IN (in))(NP (DT (the))(NN (sun))))))(. (?))))) |ET| 
-1  |BT| (ROOT (ROOT (SBARQ (WHNP (WP (what)))(SQ (VBZ (be))(NP (NP (DT (the))(JJS (highest))(JJ (possible))(NN (bid)))(PP (IN (in))(NP (NNP (contract))(NNP (bridge))))))(. (?))))) |ET| 
-0.99310704392733373246926475985674  |BT| (ROOT (ROOT (SBARQ (WHNP (WP (what)))(SQ (VBZ (be))(NP (NP (DT (the))(JJ (second-most-used))(NN (murder))(NN (weapon)))(PP (IN (in))(NP (DT (the))(NNP (u.s.))))))(. (?))))) |ET| 
1  |BT| (ROOT (ROOT (SBARQ (WHNP (WDT (what))(NNP (u.s.))(NN (state)))(SQ (VBZ (have))(NP (DT (a))(NN (element)))(VP (VBN (name))(PP (IN (for))(NP (PRP (it))))))(. (?))))) |ET| 
1  |BT| (ROOT (ROOT (SBARQ (WHNP (WDT (what))(NNS (island)))(SQ (VP (VBD (get))(NP (PRP$ (they))(NN (name)))(PP (IN (from))(NP (NP (DT (the))(JJ (spanish))(FW (baja))(FW (mar)))(, (,))(VP (VBG (mean))(NP (JJ (shallow))(NN (water))))))))(. (?))))) |ET| 
1  |BT| (ROOT (ROOT (SBARQ (WHNP (WDT (what))(NN (city)))(SQ (VP (VBD (gain))(NP (NN (renown)))(PP (IN (for))(NP (PRP$ (its))(JJ (pea-soup))(NNS (fog))))))(. (?))))) |ET| 
-1  |BT| (ROOT (ROOT (SBARQ (WHNP (WDT (what))(NN (golfer)))(SQ (VP (VBZ (have))(VP (VBN (be))(VP (VBN (call))(NP (NNP (ohio))(NNP (fats))(CC (and))(NNP (blobbo)))))))(. (?))))) |ET| 
-0.0079705569519045397358647520036357  |BT| (ROOT (ROOT (SBARQ (WHNP (WDT (what)))(SQ (VP (VBZ (fossilize))(S (VP (TO (to))(VP (VB (form))(NP (NN (coprolite))))))))(. (?))))) |ET| 
-0.4351184153270329368901059297059  |BT| (ROOT (ROOT (SBARQ (WHNP (WHNP (WDT (what))(NN (percentage)))(PP (IN (of))(NP (NNPS (americans)))))(SQ (VP (VBP (own))(NP (PRP$ (they))(NNS (home)))))(. (?))))) |ET| 
0.99100426858261392304427772614872  |BT| (ROOT (ROOT (SBARQ (WHNP (WP (what)))(SQ (VBZ (be))(NP (NP (DT (the))(ADJP (RBS (most))(JJ (powerful)))(NN (country)))(PP (IN (in))(NP (DT (the))(NN (world))))))(. (?))))) |ET| 
1  |BT| (ROOT (ROOT (SBARQ (WHNP (WP (what)))(SQ (VBZ (be))(NP (NP (DT (the))(JJS (best))(NN (hospital)))(PP (IN (for))(NP (NP (NNS (orthopedic)))(PP (IN (in))(NP (DT (the))(NN (country))))))))(. (?))))) |ET| 
1  |BT| (ROOT (ROOT (SBARQ (WHNP (WP (what)))(SQ (VBZ (be))(NP (NP (DT (the))(JJS (highest))(NN (peak)))(PP (IN (in))(NP (NNP (africa))))))(. (?))))) |ET| 
-1  |BT| (ROOT (ROOT (SBARQ (WHNP (WP (who)))(SQ (VBZ (be))(NP (NP (DT (the))(JJS (richest))(NN (woman)))(PP (IN (in))(NP (DT (the))(NN (world))))))(. (?))))) |ET| 
-1  |BT| (ROOT (ROOT (SBARQ (WHNP (WP (who)))(SQ (VBZ (be))(NP (NP (DT (the))(JJS (richest))(NN (person)))(PP (IN (in))(NP (DT (the))(NN (world))))))(. (?))))) |ET| 
-1  |BT| (ROOT (ROOT (SBARQ (WHNP (WP (what)))(SQ (VBZ (be))(NP (NP (DT (the))(JJS (highest))(NN (number)))(PP (IN (of))(NP (NP (NN (home))(NNS (run)))(PP (IN (on))(NP (NP (NN (record)))(PP (IN (for))(NP (DT (any))(CD (one))(NN (game))))))))))(. (?))))) |ET| 
1  |BT| (ROOT (ROOT (SBARQ (WHNP (WDT (what))(NN (sea)))(SQ (VP (VBZ (surround))(NP (DT (the))(NNP (cayman))(NNPS (islands)))))(. (?))))) |ET| 
1  |BT| (ROOT (ROOT (SBARQ (WHNP (WDT (what))(NN (direction)))(SQ (VP (VBP (do))(SBAR (S (NP (JJS (most))(NN (baseball))(NNS (pitcher)))(VP (VBP (pitch))(PP (IN (toward))))))))(. (?))))) |ET| 
1  |BT| (ROOT (ROOT (SBARQ (WHNP (WDT (what))(NN (sea)))(SQ (VBD (do))(NP (DT (the))(NNPS (romans)))(VP (VBP (call))(NP (NN (mare))(NN (nostrum)))))(. (?))))) |ET| 
-1  |BT| (ROOT (ROOT (SBARQ (WHNP (WDT (what))(NN (college)))(SQ (VP (VBZ (enliven))(NP (NP (NNP (hanover)))(, (,))(NP (NNP (new))(NNP (hampshire))))))(. (?))))) |ET| 
-1  |BT| (ROOT (ROOT (SBARQ (WHNP (WDT (what))(NN (year)))(SQ (VBD (do))(NP (NNP (montana)))(VP (VB (become))(NP (DT (a))(NN (state)))))(. (?))))) |ET| 
-1  |BT| (ROOT (ROOT (SBARQ (WHNP (WDT (what)))(SQ (VP (VBD (make))(NP (DT (the))(NNP (finger))(NNP (lakes)))(PP (IN (in))(NP (JJ (western))(NNP (new))(NNP (york))(NN (state))))))(. (?))))) |ET| 
1  |BT| (ROOT (ROOT (SBARQ (WHNP (WP (what)))(SQ (VBZ (be))(NP (NP (DT (the))(NN (web))(NN (address)))(SBAR (WHPP (IN (at))(WHNP (WDT (which))))(S (NP (PRP (i)))(VP (MD (can))(VP (VB (find))(NP (NP (DT (the))(JJ (e-mail))(NN (address)))(PP (IN (of))(NP (NP (DT (a))(NN (member)))(PP (IN (of))(NP (NP (DT (the))(NNP (us))(NNP (house)))(PP (IN (of))(NP (NNPS (representatives)))))))))))))))(. (?))))) |ET| 
1  |BT| (ROOT (ROOT (SBARQ (WHNP (WP (what)))(SQ (VBZ (be))(NP (NP (DT (the))(JJS (richest))(NN (state)))(PP (IN (in))(NP (DT (the))(NNP (u.s.))))))(. (?))))) |ET| 
1  |BT| (ROOT (ROOT (SBARQ (WHNP (WP (what)))(SQ (VBZ (be))(NP (NP (DT (the))(JJS (largest))(NN (shopping))(NN (mall)))(PP (IN (in))(NP (DT (the))(NN (world))))))(. (?))))) |ET| 
-1  |BT| (ROOT (ROOT (SBARQ (WHNP (WP (what)))(SQ (VBZ (be))(NP (NP (DT (the))(NN (name)))(PP (IN (of))(NP (NP (DT (the))(JJS (largest))(NN (water))(NN (conservancy))(NN (project)))(PP (IN (in))(NP (NNP (china))))))))(. (?))))) |ET| 
-1  |BT| (ROOT (ROOT (SBARQ (WHNP (WP (what)))(SQ (VBZ (be))(NP (NP (DT (the))(JJS (lowest))(NN (level)))(PP (IN (of))(NP (DT (the))(JJ (american))(NN (judiciary))))))(. (?))))) |ET| 
-1  |BT| (ROOT (ROOT (SBARQ (WHNP (WP (what)))(SQ (VBZ (be))(NP (NP (DT (the))(JJS (largest))(NN (variety)))(PP (IN (of))(NP (NN (cactus))))))(. (?))))) |ET| 
1  |BT| (ROOT (ROOT (SBARQ (WHNP (WDT (what))(NN (prison)))(SQ (VBZ (be))(VP (VBN (find))(PP (IN (in))(NP (NP (NNP (ossining)))(, (,))(NP (NNP (new))(NNP (york)))))))(. (?))))) |ET| 
1  |BT| (ROOT (ROOT (SBARQ (WHNP (WDT (what))(NN (gate)))(SQ (VP (VBD (open))(PP (IN (on))(NP (NP (NNP (east))(CC (and))(NNP (west)))(NNP (berlin))))))(. (?))))) |ET| 
1  |BT| (ROOT (ROOT (SBARQ (WHNP (WDT (what))(NN (river)))(SQ (VP (VBZ (run))(PP (IN (through))(NP (NNP (liverpool))))))(. (?))))) |ET| 
-1  |BT| (ROOT (ROOT (SBARQ (WHNP (WDT (what))(NN (flag)))(SQ (VP (VBZ (fly))(PP (IN (over))(NP (NNP (wake))(NNP (island))))))(. (?))))) |ET| 
-0.81059775433408010059110893053003  |BT| (ROOT (ROOT (SBARQ (WHNP (WDT (what))(NN (condiment)))(SQ (VP (VBP (do))(S (NP (DT (the))(JJ (dutch))(NN (dip)))(NP (NP (PRP$ (they))(JJ (french))(NNS (fries)))(PP (IN (in)))))))(. (?))))) |ET| 
-0.44872045575935431971359435010527  |BT| (ROOT (ROOT (SBARQ (WHNP (WDT (what))(NN (lawyer)))(SQ (VP (VBD (win))(NP (NP (NP (DT (the))(JJS (largest))(NN (divorce))(NN (settlement)))(, (,))(NP (QP ($ ($))(CD (85))(CD (million)))))(, (,))(PP (IN (in))(NP (NNP (u.s.))(NN (history)))))(PP (IN (for))(NP (NNP (sheika))(NNP (dena))(NNP (al-farri))))))(. (?))))) |ET| 
1  |BT| (ROOT (ROOT (SBARQ (WHNP (WP (what)))(SQ (VBZ (be))(NP (NP (DT (the))(JJS (nearest))(NN (star)))(PP (TO (to))(NP (NNP (earth))))))(. (?))))) |ET| 
1  |BT| (ROOT (ROOT (SBARQ (WHNP (WP (what)))(SQ (VBZ (be))(NP (NP (DT (the))(NN (capital)))(PP (IN (of))(NP (NNP (burkina))(NNP (faso))))))(. (?))))) |ET| 
1  |BT| (ROOT (ROOT (SBARQ (WHNP (WP (what)))(SQ (VBZ (be))(NP (NP (DT (the))(JJS (largest))(NN (lake)))(PP (IN (in))(NP (NNP (north))(NNP (america))))))(. (?))))) |ET| 
-1  |BT| (ROOT (ROOT (SBARQ (WHNP (WP (what)))(SQ (VBZ (be))(VP (VBN (mean))(PP (IN (by))(NP (`` (``))(NN (capital))(NN (market))('' (''))))))(. (?))))) |ET| 
-1  |BT| (ROOT (ROOT (SBARQ (WHNP (WP (what)))(SQ (VBZ (be))(NP (DT (the))(JJS (oldest))(NN (profession))))(. (?))))) |ET| 
-0.87650074689688672879839259621804  |BT| (ROOT (ROOT (SBARQ (WHNP (WP (what)))(SQ (VBZ (be))(NP (NP (DT (the))(JJS (best))(NN (internet))(NN (business)))(S (VP (TO (to))(VP (VB (go))(PP (IN (into))))))))(. (?))))) |ET| 
1  |BT| (ROOT (ROOT (SBARQ (WHNP (WHNP (WDT (what))(NN (city))(POS ('s)))(PP (NP (DT (the))(NN (kickoff))(NN (point)))(PP (IN (for)))))(SQ (VP (VBZ (climb))(PP (IN (of))(NP (NNP (mount))(NNP (everest))))))(. (?))))) |ET| 
1  |BT| (ROOT (ROOT (SBARQ (WHNP (WDT (what))(NNP (las))(NNP (vegas))(NN (hotel)))(SQ (VP (VBN (burn))(PP (IN (in))(NP (NP (NNP (november)))(, (,))(NP (CD (1980)))(, (,))))(PP (IN (with))(NP (NP (DT (the))(NN (loss)))(PP (IN (of))(NP (CD (84))(NNS (life))))))))(. (?))))) |ET| 
1  |BT| (ROOT (ROOT (SBARQ (WHNP (WHNP (WDT (what))(NN (continent))(POS ('s)))(NN (name)))(SQ (VP (VBZ (appear))(PP (IN (on))(NP (NP (DT (the))(JJ (upper))(JJ (left))(NN (corner)))(PP (IN (of))(NP (DT (a))(NNP (budweiser))(NN (label))))))))(. (?))))) |ET| 
-0.99907629585116675130507246649358  |BT| (ROOT (ROOT (SBARQ (WHNP (WDT (what))(NNP (nobel))(NN (laureate)))(SQ (VBD (be))(VP (VBN (expel))(PP (IN (from))(NP (DT (the))(NNPS (philippines))))(PP (IN (before))(NP (NP (DT (the))(NN (conference)))(PP (IN (on))(NP (NNP (east))(NNP (timor))))))))(. (?))))) |ET| 
-0.94821243697649759685219805760426  |BT| (ROOT (ROOT (SBARQ (WHNP (WHNP (WDT (what))(JJ (civil))(NN (war)))(ADJP (JJ (general))))(SQ (VP (VBD (wreak))(NP (NN (havoc)))(PP (IN (on))(NP (DT (the))(NN (south))))(PP (IN (by))(S (VP (VBG (march))(PP (IN (through))(NP (NP (NNP (georgia)))(PP (IN (on))(NP (PRP$ (he))(NN (way))))))(PP (TO (to))(NP (DT (the))(NN (sea)))))))))(. (?))))) |ET| 
-0.10902120934429240795005000563833  |BT| (ROOT (ROOT (FRAG (WHNP (WDT (what)))(PP (NP (JJ (literary))(JJ (classic))(NNS (center)))(PP (IN (on))(NP (NP (DT (the))(NN (search)))(PP (IN (for))(NP (NP (NP (DT (a))(NN (treasure)))(PP (IN (in))(NP (NP (NN (gold)))(ADJP (JJ (worth))(NP-TMP (CD (7)))))))(, (,))(NP (CD (0))(NNS (pound))))))))(. (?))))) |ET| 
1  |BT| (ROOT (ROOT (SBARQ (WHNP (WP (what)))(SQ (VBZ (be))(NP (DT (the))(JJS (highest))(NN (continent))))(. (?))))) |ET| 
1  |BT| (ROOT (ROOT (SBARQ (WHNP (WP (what)))(SQ (VBZ (be))(NP (DT (the))(JJS (tallest))(NN (mountain))))(. (?))))) |ET| 
1  |BT| (ROOT (ROOT (SBARQ (WHNP (WP (what)))(SQ (VBZ (be))(NP (NP (DT (the))(NN (world))(POS ('s)))(JJS (longest))(NN (suspension))(NN (bridge))))(. (?))))) |ET| 
-0.60322828057557675851541034717229  |BT| (ROOT (ROOT (SBARQ (WHNP (WP (what)))(SQ (VBZ (be))(NP (NP (DT (the))(NN (world))(POS ('s)))(JJS (best))(NN (selling))(NN (cookie))))(. (?))))) |ET| 
-0.044812514350316356992465216535493  |BT| (ROOT (ROOT (SBARQ (WHNP (WP (what)))(SQ (VBZ (be))(NP (NNP (gymnophobia))))(. (?))))) |ET| 
-0.044812514350320464817656329614692  |BT| (ROOT (ROOT (SBARQ (WHNP (WP (what)))(SQ (VBZ (be))(NP (NNP (paracetamol))))(. (?))))) |ET| 
0.82729977366186180365303926009801  |BT| (ROOT (ROOT (SBARQ (WHADVP (WRB (where)))(SQ (MD (can))(NP (PRP (i)))(VP (VB (find))(NP (NN (info)))(PP (IN (on))(NP (NP (NN (research)))(VP (VBG (be))(VP (VBN (do))(PP (IN (on))(NP (NP (NNS (oilseed)))(VP (VBP (thru))(NP (NNS (genetics))))))))))))(. (?))))) |ET| 
0.52769725262064470783229808148462  |BT| (ROOT (ROOT (SBARQ (WHADVP (WRB (where)))(SQ (MD (could))(NP (PRP (i)))(VP (VB (go))(S (VP (TO (to))(VP (VB (take))(NP (DT (a))(NN (ride)))(PP (IN (on))(NP (DT (a))(NN (steam))(NN (locomotive)))))))))(. (?))))) |ET| 
0.20034709037102735318391921737202  |BT| (ROOT (ROOT (SBARQ (WHADVP (WRB (where)))(SQ (MD (can))(NP (PRP (i)))(VP (VB (buy))(NP (DT (a))(NN (pony)))(PP (IN (on))(NP (NP (DT (the))(NNP (big))(NNP (island)))(PP (IN (for))(NP (PRP$ (my))(NN (daughter))))))))(. (?))))) |ET| 
-0.5173226014834991781654593978601  |BT| (ROOT (ROOT (SQ (VP (VB (name))(NP (NP (DT (the))(NN (poet)))(PP (IN (of))(NP (NP (DT (the))(NN (poem)))(SBAR (WHNP (WDT (which)))(S (VP (VP (VBZ (begin))(: (:))(S (S (NP (PRP (i)))(VP (VBP (do))(RB (not))(VP (VB (know))(ADJP (JJ (much)))(PP (IN (about))(NP (NNS (god)))))))(: (;))(CC (but))(S (NP (PRP (i)))(VP (VBP (think))(SBAR (IN (that))(S (NP (DT (the))(NN (river)))(VP (VBZ (be))(NP (DT (a))(JJ (strong))(JJ (brown))(NN (god-sullen))))))))))(, (,))(CC (and))(VP (VBZ (untame))))))))))(. (?))))) |ET| 
-1  |BT| (ROOT (ROOT (SBARQ (WHNP (WDT (what))(NN (information)))(SQ (MD (can))(NP (PRP (you)))(VP (VB (get))(NP (PRP (i)))(PP (IN (on))(NP (NP (NNP (fairground))(NNP (park)))(PP (IN (in))(NP (NNP (st.))(NNP (louis))))))))))) |ET| 
-0.94955369544534229397925173543626  |BT| (ROOT (ROOT (SBARQ (S (VP (TO (to))(VP (VB (get))(NP (DT (the))(JJS (most))(NN (caffeine))))))(, (,))(WHNP (WDT (what))(NN (soda)))(SQ (MD (should))(NP (PRP (i)))(VP (VB (drink))))(. (?))))) |ET| 
1  |BT| (ROOT (ROOT (SBARQ (WHNP (WP (what)))(SQ (VBP (be))(NP (DT (the))(JJ (nordic))(NNS (nation))))(. (?))))) |ET| 
1  |BT| (ROOT (ROOT (SBARQ (WHNP (WP (what)))(SQ (VBP (be))(NP (DT (the))(CD (seven))(NNS (sea))))(. (?))))) |ET| 
1  |BT| (ROOT (ROOT (SBARQ (WHNP (WDT (what))(NN (nationality)))(SQ (VBZ (be))(NP (NNP (gorbachev))))(. (?))))) |ET| 
-1  |BT| (ROOT (ROOT (SBARQ (WHNP (WP (what)))(SQ (VBP (be))(NP (DT (the))(JJ (low))(NNS (country))))(. (?))))) |ET| 
-0.28080715278966827952444873517379  |BT| (ROOT (ROOT (SBARQ (WHNP (WP (what)))(SQ (VBP (be))(NP (DT (the))(CD (seven))(NNS (virtue))))(. (?))))) |ET| 
-1  |BT| (ROOT (ROOT (SBARQ (WHNP (WP (what)))(SQ (VBP (be))(NP (DT (the))(NNPS (poconos))))(. (?))))) |ET| 
1  |BT| (ROOT (ROOT (FRAG (PP (IN (in))(NP (NP (NP (NNP (sinclair))(NNP (lewis))(POS (')))(`` (``))(NNP (main))(NNP (street)))(, (,))('' (''))(SBAR (WHNP (WP (what)))(S (VP (VBD (be))(NP (NP (DT (the))(NN (name)))(PP (IN (of))(NP (DT (the))(JJ (typical))(JJ (american))(NN (town))))))))))(. (?))))) |ET| 
1  |BT| (ROOT (ROOT (SBARQ (WHADVP (WRB (where)))(SQ (VP (VBD (be))(SBAR (S (`` (``))(S (NP (PRP (i)))(VP (VBP (have))(VP (VBN (fall)))))(, (,))(CC (and))(S (NP (PRP (i)))(VP (MD (can))))('' (')))))(NP (NN (t)))(VP (VB (get))(PRT (RP (up)))('' (''))(S (VP (VBD (say))(ADVP (RB (first)))))))(. (?))))) |ET| 
1  |BT| (ROOT (ROOT (SBARQ (WHNP (WP (what)))(SQ (VBZ (be))(NP (NP (DT (the))(JJS (best))(NN (place)))(S (VP (TO (to))(VP (VB (live))(PP (IN (in))(NP (NP (DT (the))(NN (world)))(, (,))(NP (NP (VBG (consider))(NN (climate)))(, (,))(NP (NN (civilization)))))))))))(. (?))))) |ET| 
-1  |BT| (ROOT (ROOT (SBARQ (WHNP (WHNP (WDT (what))(NN (mammal)))(PP (IN (of))(NP (NNP (north))(NNP (america)))))(SQ (VBZ (be))(NP (NP (NP (DT (the))(NN (world))(POS ('s)))(JJ (longest-lived)))(PP (IN (for))(NP (PRP$ (its))(NN (size))))))(. (?))))) |ET| 
-0.71015126111465654012988579779631  |BT| (ROOT (ROOT (SBARQ (WHNP (WDT (what))(NN (creature)))(SQ (VBZ (be))(NP (NP (DT (the))(JJ (absolute))(JJS (fastest)))(PP (IN (in))(S (VP (VBG (move))(PP (IN (in))(NP (NP (DT (the))(NN (world)))(, (,))(NP (NNS (bird)))(, (,))(NP (NNS (mammal)))(, (,))(FW (etc.))(, (,)))))))))(. (?))))) |ET| 
-0.11427015811572957537656236581824  |BT| (ROOT (ROOT (SBARQ (PP (IN (in))(NP (NN (ad))(CD (999))))(, (,))(WHNP (WDT (what))(NP (NN (sort))(PP (IN (of))(NP (NP (NNS (celebration)))(, (,))(NP (NNS (fear)))(, (,))))))(SQ (VBD (be))(NP (EX (there))))(. (?))))) |ET| 
1  |BT| (ROOT (ROOT (SBARQ (WHNP (WP (what)))(SQ (VBP (be))(NP (DT (the))(JJS (biggest))(JJ (indian))(NNS (airport))))(. (?))))) |ET| 
1  |BT| (ROOT (ROOT (SBARQ (WHNP (WP (what)))(SQ (VBP (be))(NP (NP (DT (the))(JJ (only))(CD (two))(NNS (state)))(SBAR (WHNP (WDT (that)))(S (VP (VBP (incorporate))(NP (NP (DT (the))(JJ (confederate))(NN (battle))(NN (flag)))(PP (IN (in))(NP (PRP$ (they))(NNS (flag))))))))))(. (?))))) |ET| 
1  |BT| (ROOT (ROOT (SBARQ (WHNP (WP (what)))(SQ (VBP (be))(NP (DT (the))(NNP (benelux))(NNS (country))))(. (?))))) |ET| 
-0.56025353152854695526485784284887  |BT| (ROOT (ROOT (SBARQ (WHNP (WP (what)))(SQ (VBP (be))(NP (DT (the))(NNP (valdez))(NNS (principle))))(. (?))))) |ET| 
-1  |BT| (ROOT (ROOT (SBARQ (WHNP (WP (what)))(SQ (VBP (be))(NP (NP (DT (the))(CD (two))(JJS (largest))(NNS (bird)))(PP (IN (on))(NP (NN (earth))))))(. (?))))) |ET| 
-0.047913724193360707204192294739187  |BT| (ROOT (ROOT (SBARQ (WHNP (WP (what)))(SQ (VBP (be))(NP (DT (the))(NNS (ural))))(. (?))))) |ET| 
1  |BT| (ROOT (ROOT (SBARQ (WHNP (WHNP (WDT (what))(NN (part)))(PP (IN (of))(NP (NNP (britain)))))(SQ (VP (VBZ (comprise))(NP (NP (DT (the))(NNPS (highlands)))(, (,))(NP (NNP (central))(NNPS (lowlands)))(, (,))(CC (and))(NP (NNP (southern))(NNPS (uplands))))))(. (?))))) |ET| 
1  |BT| (ROOT (ROOT (SBARQ (WHNP (WDT (what))(NNP (london))(NN (museum)))(SQ (VBZ (feature))(NP (NP (DT (a))(NNP (chamber)))(PP (IN (of))(NP (NNP (horrors))))))(. (?))))) |ET| 
1  |BT| (ROOT (ROOT (SBARQ (WHNP (WHNP (WDT (what))(JJ (famed))(NN (strip)))(PP (IN (of))(NP (NN (land)))))(SQ (VBZ (be))(NP (NP (DT (a))(JJ (15-minute))(NN (boat))(NN (trip)))(PP (IN (across))(NP (NP (DT (the))(NNP (venetian))(NN (lagoon)))(PP (IN (from))(NP (NNP (venice))))))))(. (?))))) |ET| 
-1  |BT| (ROOT (ROOT (SBARQ (WHNP (WDT (what))(JJ (japanese))(NNS (electronics))(NN (company)))(SQ (VBD (be))(VP (VBN (name))(PP (IN (for))(NP (NP (DT (a))(JJ (coastal))(NN (city))(NN (northeast)))(PP (IN (of))(NP (NNP (tokyo))))))))(. (?))))) |ET| 
-0.6923652791269809814167501826887  |BT| (ROOT (ROOT (SBARQ (WHNP (WHNP (WDT (what))(CD (two))(NNS (president)))(PP (IN (of))(NP (DT (the))(NNP (u.s.)))))(SQ (VP (VBN (publish))(NP (NP (NNS (book)))(PP (IN (of))(NP (NN (poetry)))))))(. (?))))) |ET| 
-1  |BT| (ROOT (ROOT (SBARQ (WHNP (WDT (what))(NNP (california))(NN (governor)))(SQ (VP (VBD (say))(: (:))(S (`` (``))(NP (NNP (inaction)))(VP (MD (may))(VP (VB (be))(NP (NP (DT (the))(JJS (highest))(NN (form)))(PP (IN (of))(NP (NN (action)))))))('' ('')))))(. (?))))) |ET| 
1  |BT| (ROOT (ROOT (SBARQ (WHNP (WP (what)))(SQ (VBP (be))(NP (NP (DT (the))(NN (world))(POS ('s)))(CD (four))(NNS (ocean))))(. (?))))) |ET| 
1  |BT| (ROOT (ROOT (SBARQ (WHNP (WP (what)))(SQ (VBP (be))(NP (DT (some))(NN (mythology))(NNS (website))))(. (?))))) |ET| 
1  |BT| (ROOT (ROOT (SBARQ (WHNP (WP (what)))(SQ (VBZ (be))(NP (NP (DT (the))(NN (world))(POS ('s)))(JJS (largest))(NN (cathedral))))(. (?))))) |ET| 
-0.3893869967751785177156875761284  |BT| (ROOT (ROOT (SBARQ (WHNP (WP (what)))(SQ (VBZ (be))(NP (NP (DT (the))(NN (world))(POS ('s)))(ADJP (RBS (most))(JJ (common)))(NN (compound))))(. (?))))) |ET| 
-0.44498384906503263280797000334132  |BT| (ROOT (ROOT (SBARQ (WHNP (WP (what)))(SQ (VBP (be))(NP (DT (the))(NN (wolverine))(NNS (habit))))(. (?))))) |ET| 
-0.36921878587419304507122319591872  |BT| (ROOT (ROOT (SBARQ (WHNP (WP (what)))(SQ (VBZ (be))(NP (DT (the))(ADJP (VBN (lose)))(NP (NNP (colony)))))(. (?))))) |ET| 
1  |BT| (ROOT (ROOT (SBARQ (WHNP (WHNP (WDT (what))(NN (kind)))(PP (IN (of))(NP (NN (habitat)))))(SQ (VBZ (do))(NP (DT (the))(NN (scorpion)))(VP (VB (live))(PP (IN (in)))))(. (?))))) |ET| 
1  |BT| (ROOT (ROOT (SBARQ (WHNP (WDT (what))(NNP (u.s.))(NN (city)))(SQ (VBD (be))(VP (VBN (name))(PP (IN (for))(NP (NP (NNP (st.))(NNP (francis)))(PP (IN (of))(NP (NNP (assisi))))))))(. (?))))) |ET| 
1  |BT| (ROOT (ROOT (SBARQ (WHNP (WDT (what))(JJ (asian))(NN (country)))(SQ (VP (VBZ (have))(NP (NP (DT (a))(NN (bill)))(PP (IN (of))(NP (NP (NNS (rights)))(PP (IN (for))(NP (NNS (cow)))))))))(. (?))))) |ET| 
-0.83707301749608453711459787882632  |BT| (ROOT (ROOT (SBARQ (WHADVP (WRB (why)))(SQ (VP (VBP (do))(RB (not)))(NP (PRP (you)))(NP (NP (NNS (guy)))(SBAR (S (VP (VBP (have))(NP (NP (DT (some))(NN (sort)))(PP (IN (of))(NP (NN (contest))))(SBAR (SBAR (WHADVP (WRB (where)))(S (NP (PRP (you)))(VP (VBP (ask))(NP (DT (a))(NN (question))))))(CC (and))(SBAR (WHNP (WP (whoever)))(S (VP (VBZ (find))(SBAR (S (NP (DT (the))(NNS (answer)))(VP (VBZ (win))(NP (DT (a))(NN (prize))))))))))))))))(. (?))))) |ET| 
-0.18230221277578156913179441289685  |BT| (ROOT (ROOT (SBARQ (WHNP (WDT (what))(JJ (scottish))(NN (poet)))(SQ (VP (VBD (pen))(PP (PP (TO (to))(NP (DT (a))(NN (mouse))))(CC (and))(PP (TO (to))(NP (DT (a))(NNP (louse)))))))(. (?))))) |ET| 
-0.48152328074777550614982146726106  |BT| (ROOT (ROOT (SBARQ (WHNP (WDT (what))(NNS (overalls)))(SQ (VBP (be))(VP (VBN (name))(PP (IN (for))(NP (NP (NNP (dungri)))(, (,))(NP (NP (DT (a))(NN (suburb)))(PP (IN (of))(NP (NNP (bombay)))))))))(. (?))))) |ET| 
1  |BT| (ROOT (ROOT (SBARQ (WHNP (WP (what)))(SQ (VBZ (be))(NP (DT (the))(JJS (closest))(NN (g2))(NN (spectrum))(NP (NP (JJ (yellow))(NN (dwarf)))(PP (TO (to))(NP (NNP (earth)))))))(. (?))))) |ET| 
1  |BT| (ROOT (ROOT (SBARQ (WHNP (WP (what)))(SQ (VBZ (be))(NP (NP (DT (the))(ADJP (RBS (most))(JJ (useful)))(NN (site)))(PP (IN (on))(NP (DT (the))(NN (internet))))))(. (?))))) |ET| 
1  |BT| (ROOT (ROOT (SBARQ (WHNP (WP (what)))(SQ (VBZ (be))(NP (NP (DT (the))(JJ (northernmost))(NNP (u.s.))(NN (state)))(PP (RB (apart))(IN (from))(NP (NNP (alaska))))))(. (?))))) |ET| 
-1  |BT| (ROOT (ROOT (SBARQ (WHNP (WP (what)))(SQ (VBZ (be))(NP (NP (DT (the))(JJS (longest))(NN (word)))(PP (IN (in))(NP (DT (the))(NNP (english))(NN (language))))))(. (?))))) |ET| 
-0.86606468587619189758441962112556  |BT| (ROOT (ROOT (SBARQ (WHNP (WP (what)))(SQ (VBZ (be))(NP (NP (DT (the))(RBS (most))(JJ (common))(NN (surname)))(PP (IN (in))(NP (NNP (america))))))(. (?))))) |ET| 
-1  |BT| (ROOT (ROOT (SBARQ (WHNP (WP (what)))(SQ (VBZ (be))(NP (NP (DT (the))(NN (no.))(CD (1))(NN (killer)))(PP (IN (in))(NP (JJ (industrialized))(NNS (country))))))(. (?))))) |ET| 
1  |BT| (ROOT (ROOT (SBARQ (WHNP (WDT (what))(NNP (southern))(NNP (california))(NN (town)))(SQ (VBZ (be))(VP (VBN (name))(SBAR (IN (after))(S (NP (DT (a))(NN (character)))(VP (VBD (make))(ADJP (JJ (famous)))(PP (IN (by))(NP (NNP (edgar))(NNP (rice))(NNP (burroughs)))))))))(. (?))))) |ET| 
1  |BT| (ROOT (ROOT (SBARQ (WHNP (WDT (what))(NN (planet)))(SQ (MD (would))(NP (PRP (you)))(VP (VB (visit))(S (VP (TO (to))(VP (VB (see))(NP (NNP (bebrenia))(, (,))(NNP (arcadia))(, (,))(CC (and))(NNP (amazonis))))))))(. (?))))) |ET| 
1  |BT| (ROOT (ROOT (SBARQ (WHNP (WP (what)))(SQ (VBP (be))(NP (NP (DT (the))(CD (two))(NNS (city)))(PP (IN (in))(NP (NP (NNP (dicken))(POS ('s)))(`` (``))(NX (NP (DT (a))(NN (tale)))(PP (IN (of))(NP (CD (two))(NNPS (cities)))))('' (''))))))(. (?))))) |ET| 
-0.34343720918238640482655910091125  |BT| (ROOT (ROOT (SBARQ (WHNP (WHNP (WDT (what))(NN (kind)))(PP (IN (of))(NP (NN (hat)))))(SQ (VBZ (do))(NP (NNP (bat))(NNP (masterson)))(VP (VB (wear))))(. (?))))) |ET| 
-1  |BT| (ROOT (ROOT (SBARQ (WHNP (WP (what)))(SQ (VBZ (be))(NP (NP (NNP (franz))(NNP (kafka))(POS ('s)))(NP (NP (JJ (short))(NN (story)))(NP (`` (``))(DT (a))(NN (country))(NN (doctor))('' ('')))))(VP (VBG (try))(S (VP (TO (to))(VP (VB (tell))(NP (PRP (we))))))))(. (?))))) |ET| 
-0.41511231691085082040615361620439  |BT| (ROOT (ROOT (SBARQ (WHNP (WDT (what))(NN (actor)))(SQ (VP (VBZ (have))(NP (NP (DT (a))(NN (tattoo)))(PP (IN (on))(NP (PRP$ (he))(JJ (right))(NN (wrist))(NN (reading))(NNP (scotland))(NNP (forever)))))))(. (?))))) |ET| 
1  |BT| (ROOT (ROOT (SBARQ (WHNP (WP (what)))(SQ (VBZ (be))(NP (NP (DT (the))(JJS (largest))(NN (island)))(PP (IN (in))(NP (DT (the))(NNP (west))(NNP (indies))))))(. (?))))) |ET| 
1  |BT| (ROOT (ROOT (SBARQ (WHNP (WP (what)))(SQ (VBZ (be))(NP (NP (DT (the))(JJS (largest))(NN (island)))(PP (IN (in))(NP (DT (the))(NNP (mediterranean))(NNP (sea))))))(. (?))))) |ET| 
1  |BT| (ROOT (ROOT (SBARQ (WHNP (WP (what)))(SQ (VBZ (be))(ADJP (JJ (worth))(S (VP (VBG (see))(PP (IN (in))(NP (NNP (reims))))))))(. (?))))) |ET| 
-1  |BT| (ROOT (ROOT (S (NP (NNP (italy)))(VP (VBZ (be))(NP (NP (DT (the))(JJS (largest))(NN (producer)))(PP (IN (of))(NP (WP (what))))))(. (?))))) |ET| 
-0.54717103062759275822202198469313  |BT| (ROOT (ROOT (SBARQ (WHNP (WP (what)))(SQ (VBZ (be))(NP (NP (DT (the))(JJS (greatest))(NN (source)))(PP (IN (of))(NP (NP (`` (``))(JJ (white))('' (''))(NN (magic)))(PP (IN (in))(NP (DT (the))(NNP (marvel))(NNP (universe))))))))(. (?))))) |ET| 
-1  |BT| (ROOT (ROOT (SBARQ (WHNP (WP (what)))(SQ (VBZ (be))(NP (NP (NP (DT (the))(JJS (best))(NN (art)))(CC (and))(NP (NN (design))(NN (school))))(PP (IN (in))(NP (DT (the))(NN (world))))))(. (?))))) |ET| 
1  |BT| (ROOT (ROOT (SBARQ (WHNP (WDT (what))(NNS (country)))(SQ (VP (VBP (have))(NP (DT (the))(ADJP (RBS (most))(JJ (auto)))(NNS (theft)))))(. (?))))) |ET| 
1  |BT| (ROOT (ROOT (SBARQ (WHNP (WDT (what))(NNS (country)))(SQ (VP (VBP (earn))(NP (DT (the))(RBS (most)))(PP (IN (from))(NP (NN (tourism))))))(. (?))))) |ET| 
0.83740146096509093798232470362564  |BT| (ROOT (ROOT (SBARQ (WHNP (WDT (what))(NNS (state)))(SQ (VP (VBP (do))(RB (not))(VP (VB (have))(NP (NN (state))(NN (income))(NN (tax))))))(. (?))))) |ET| 
-0.18135759891888877937127233508363  |BT| (ROOT (ROOT (SBARQ (WHNP (WDT (what))(NNS (food)))(SQ (VP (VBP (contain))(NP (NN (vitamin))(NN (b12)))))(. (?))))) |ET| 
-0.40483536419984988974363204761175  |BT| (ROOT (ROOT (SBARQ (WHNP (WDT (what))(NNS (food)))(SQ (VBP (contain))(NP (DT (the))(NP (RBS (most)))(NN (protein))))(. (?))))) |ET| 
-0.17032012779525276813252787633246  |BT| (ROOT (ROOT (SBARQ (WHNP (WDT (what))(NNS (event)))(SQ (VP (VBD (happen))(NP-TMP (NNP (january))(CD (26))(, (,))(CD (1978)))))(. (?))))) |ET| 
