SVM-light Version V5.01-TK-1.5
5 # kernel type
3 # kernel parameter -d 
1 # kernel parameter -g 
1 # kernel parameter -s 
1 # kernel parameter -r 
empty# kernel parameter -u 
0.4 # kernel parameter -L 
1 # kernel parameter -T 
T # kernel parameter -C 
1 # kernel parameter -F 
1 # kernel parameter -S 
0.400000 # kernel parameter -M 
3 # kernel parameter -N 
S # kernel parameter -V 
S # kernel parameter -W 
0 # kernel parameter -U 
10 # highest feature index 
14608 # number of training documents 
3294 # number of support vectors plus 1 
1.302769 # threshold b, each following line is a SV (starting with alpha*y)
-0.15728578185499841879391169641167  |BT| (ROOT (S (SBAR (WHNP (WDT (What))(JJ (French))(NN (designer)))(S (VP (VBD (declared)))))(: (:))(`` (``))(FOCUS-NP (DT (The))(FOCUS-NN (jean)))(VP (VBZ (is))(NP (DT (the))(NN (destructor))))(. (!)))(S (NP (PRP (It)))(VP (VBZ (is))(NP (DT (a))(NN (dictator))))(. (!)))(S (NP (PRP (It)))(VP (VBZ (is))(VP (VBG (destroying))(NP (NN (creativity)))))(. (.)))(S (NP (DT (The))(NN (jean)))(VP (MD (must))(VP (VB (be))(VP (VBN (stopped)))))(. (!))('' ('')))(NP (. (?)))) |ET| 
-0.18859857605146371217763601180195  |BT| (ROOT (SBARQ (WHNP (WP (What)))(SQ (VBZ (is))(NP (DT (the))(FOCUS-ADJP (RBS (most))(FOCUS-RB (heavily))(VBN (caffeinated)))(NP (JJ (soft))(NN (drink))))))) |ET| 
-0.27959172040196667019529286335455  |BT| (ROOT (SBARQ (WHPP (IN (In))(WHNP (WDT (what))(NNP (Olympic))(NNPS (Games))))(SQ (VBD (did))(FOCUS-NP (NNP (Nadia))(FOCUS-NNP (Comaneci)))(VP (VB (become))(ADJP (JJ (popular))))))) |ET| 
-0.41231587428105126447164252567745  |BT| (ROOT (SBARQ (WHADVP (WRB (where)))(SQ (VBP (are))(NP (FOCUS-NP (DT (the))(FOCUS-JJS (best))(NNS (spots)))(S (VP (TO (to))(VP (VB (dine))(PP (IN (near))(NP (NN (time))(JJ (square))(NN (nyc)))))))))(. (?)))) |ET| 
0.63261380725787053069808507643756  |BT| (ROOT (SBARQ (FOCUS-WHNP (WDT (What))(FOCUS-NN (war)))(SQ (VP (VBD (saw))(S (NP (NP (DT (a))(JJ (naval))(NN (battle)))(PP (IN (between))(NP (DT (the))(NN (luxury))(NNS (liners)))))(NP (NP (NNP (Cap))(NNP (Trafalgar)))(CC (and))(NP (DT (the))(NNP (Carmania)))))))(. (?)))) |ET| 
-0.30822119940140690896868136405828  |BT| (ROOT (SQ (FOCUS-VP (FOCUS-VB (Name))(NP (DT (the))(NNP (Marvel))(NN (team)))(ADVP (RB (loosely)))(PP (VBN (based))(PP (IN (on))(NP (NP (NP (NN (DC))(POS ('s)))(NNP (Justice))(NNP (League)))(PP (IN (of))(NP (NNP (America))))))))(. (?)))) |ET| 
-0.19939813441275330840873891702358  |BT| (ROOT (SBARQ (WHNP (WP (what)))(SQ (VBZ (is))(NP (FOCUS-NP (DT (a))(JJ (great))(FOCUS-NN (seafood))(NN (restaurant)))(PP (IN (in))(NP (JJ (new))(NNS (orleans))))))(. (?)))) |ET| 
-0.33231028856019839690105754925753  |BT| (ROOT (SBARQ (WHNP (WP (What)))(SQ (VBD (was))(NP (NP (DT (the))(JJ (first))(NN (town)))(S (VP (TO (to))(VP (VB (be))(FOCUS-ADJP (FOCUS-VBN (chartered))(PP (IN (in))(NP (NNP (Vermont))))))))))(. (?)))) |ET| 
-1  |BT| (ROOT (SBARQ (WHNP (WP (What)))(SQ (VBP (are))(NP (FOCUS-NP (DT (the))(FOCUS-CD (three))(NNS (animals)))(PP (IN (in))(NP (NP (NNP (Sheila))(NNP (Burnford))(POS ('s)))(NP (DT (The))(JJ (Incredible))(NN (Journey)))))))(. (?)))) |ET| 
0.45933908012653473784681068536884  |BT| (ROOT (SBARQ (FOCUS-WHNP (WDT (which))(FOCUS-NNS (states)))(SQ (VBP (have))(NP (NNS (cities)))(VP (VBN (named))(NP (NN (austin)))))(. (?)))) |ET| 
-0.12567051383500393857417520848685  |BT| (ROOT (SBARQ (WHNP (WDT (What))(NN (species)))(SQ (VBZ (is))(FOCUS-NP (DT (a))(FOCUS-NN (colt)))))) |ET| 
-0.73898013400102979808536929340335  |BT| (ROOT (SBARQ (WHADVP (WRB (where)))(SQ (VBP (are))(NP (NP (DT (some))(JJ (cool))(NNS (bars)))(PP (IN (near))(NP (NP (NN (forest))(NN (park))(NN (area)))(PP (IN (in))(NP (NN (st))))))))(. (.)))(NP (FOCUS-NP (FOCUS-NNS (louis)))(NP (CD (0))(NN (mo)))(. (?)))) |ET| 
1.6602685598943562883533786589396  |BT| (ROOT (SQ (VP (VB (recommend))(S (NP (PRP (me)))(NP (FOCUS-NP (DT (an))(JJ (affordable))(FOCUS-NN (hotel)))(PP (IN (in))(NP (NN (torquay))))))(SBAR (IN (for))(SINV (VP (MD (may)))(NP (CD (2012))))))(. (?)))) |ET| 
-0.021028510252240426720016230888177  |BT| (ROOT (S (VP (VB (Name))(S (NP (FOCUS-NP (NNP (Li))(FOCUS-POS (')))(NP (NP (NN (l)))(NP (NP (NNP (Abner))(POS ('s)))(JJ (favorite))(JJ (Indian))(NN (drink)))))))(. (.)))) |ET| 
-0.097121191959370356538983060090686  |BT| (ROOT (SBARQ (WHNP (WP (What)))(SQ (VBZ (is))(NP (NP (DT (the))(NN (name)))(PP (IN (of))(NP (FOCUS-NP (DT (the))(JJ (Islamic))(FOCUS-NN (counterpart)))(PP (TO (to))(NP (DT (the))(NNP (Red))(NNP (Cross))))))))(. (?)))) |ET| 
0.23921962156868437077150701952633  |BT| (ROOT (SBARQ (WHNP (WP (What)))(SQ (VBZ (is))(NP (FOCUS-NP (DT (the))(FOCUS-NN (origin)))(PP (IN (of))(S (VP (VB (thank))(S (NP (PRP (you)))(NP (NNS (notes)))))))))(. (?)))) |ET| 
-1  |BT| (ROOT (SBARQ (WHNP (WP (Who)))(SQ (VBD (was))(NP (NP (DT (the))(NNP (Secretary)))(PP (IN (of))(NP (NP (NNP (War)))(PP (IN (in))(NP (NP (DT (the))(JJ (Civil))(NN (War)))(PP (IN (during))(NP (FOCUS-NP (DT (the))(FOCUS-NN (Battle)))(PP (IN (of))(NP (NNP (Gettysburg))))))))))))(. (?)))) |ET| 
-1  |BT| (ROOT (SBARQ (WHNP (WDT (What))(NN (tragedy)))(SQ (VP (VBD (befell))(NP (FOCUS-NP (DT (the))(FOCUS-NN (city)))(PP (IN (of))(NP (NNP (Dogtown)))))(PP (IN (in))(NP (CD (1899))))))(. (?)))) |ET| 
-0.88446304637929373804183796892175  |BT| (ROOT (SBARQ (WHNP (WDT (What))(CD (two))(NNS (commanders)))(SQ (VP (VBD (directed))(NP (DT (the))(NNS (forces)))(PP (IN (in))(NP (FOCUS-NP (DT (the))(FOCUS-NN (Battle)))(PP (IN (of))(NP (NNP (El))(NNP (Alamein))))))))(. (?)))) |ET| 
2.1535873172760391369706667319406  |BT| (ROOT (SBARQ (FOCUS-WHNP (WDT (what))(NNS (states))(FOCUS-NN (capital)))(SQ (VBZ (is))(NP (NN (dover))))(. (?)))) |ET| 
1.0539178003021651974790984240826  |BT| (ROOT (SBARQ (WHNP (WP (What)))(SQ (VBP (are))(FOCUS-NP (NP (NNP (Halloween))(POS ('s)))(FOCUS-NNS (colors)))))) |ET| 
2.0799822663115996590477152494714  |BT| (ROOT (SBARQ (WHNP (WP (What)))(SQ (VBZ (is))(NP (FOCUS-NP (DT (a))(JJ (reliable))(FOCUS-NN (site)))(SBAR (WHNP (WDT (that)))(S (NP (PRP (I)))(VP (MD (can))(VP (VB (download))(NP (NNP (Heretic))(CD (2)))))))))(. (?)))) |ET| 
-0.83642017151063308144642860497697  |BT| (ROOT (SBARQ (WHNP (WP (What)))(SQ (VBZ (is))(NP (FOCUS-NP (FOCUS-DT (a))(JJ (reliable))(NN (site)))(SBAR (WHNP (WDT (that)))(S (NP (PRP (I)))(VP (MD (can))(VP (VB (download))(NP (NNP (Heretic))(CD (2)))))))))(. (?)))) |ET| 
-1  |BT| (ROOT (SBARQ (WHNP (WP (What)))(SQ (VBZ (is))(NP (FOCUS-NP (DT (a))(FOCUS-JJ (reliable))(NN (site)))(SBAR (WHNP (WDT (that)))(S (NP (PRP (I)))(VP (MD (can))(VP (VB (download))(NP (NNP (Heretic))(CD (2)))))))))(. (?)))) |ET| 
-1  |BT| (ROOT (SBARQ (WHNP (WP (What)))(SQ (VBZ (is))(FOCUS-NP (FOCUS-PRP$ (her))(NN (profession)))))) |ET| 
2.700000000000000177635683940025  |BT| (ROOT (SBARQ (WHNP (WP (Who)))(SQ (VBD (was))(NP (FOCUS-NP (DT (the))(FOCUS-NNP (Secretary)))(PP (IN (of))(NP (NP (NNP (War)))(PP (IN (in))(NP (NP (DT (the))(JJ (Civil))(NN (War)))(PP (IN (during))(NP (NP (DT (the))(NN (Battle)))(PP (IN (of))(NP (NNP (Gettysburg))))))))))))(. (?)))) |ET| 
2.700000000000000177635683940025  |BT| (ROOT (SBARQ (FOCUS-WHNP (WDT (What))(CD (two))(FOCUS-NNS (commanders)))(SQ (VP (VBD (directed))(NP (DT (the))(NNS (forces)))(PP (IN (in))(NP (NP (DT (the))(NN (Battle)))(PP (IN (of))(NP (NNP (El))(NNP (Alamein))))))))(. (?)))) |ET| 
-0.080985424300538136344052020376694  |BT| (ROOT (SBARQ (WHNP (WDT (what))(NP (NP (NNS (5-stars))(NNS (hotels)))(PP (IN (in))(NP (NN (santa))(NN (cruz))))))(SQ (FOCUS-VP (FOCUS-MD (ca))))(. (?)))) |ET| 
-0.18058225229232927055988966458244  |BT| (ROOT (SBARQ (FOCUS-WHNP (WDT (Which))(FOCUS-NN (operating))(NN (system)))(SQ (VP (VBZ (runs))(PP (IN (on))(NP (JJ (IBM-compatible))(NNS (machines))))))(. (?)))) |ET| 
0.18466714276210410838885422890598  |BT| (ROOT (SBARQ (WHNP (WP (What)))(SQ (VBZ (is))(NP (FOCUS-NP (DT (the))(FOCUS-NN (origin)))(PP (IN (of))(NP (NP (`` (``))(NN (jiggy))('' ('')))(PP (IN (as))(PP (IN (in))(S (VP (VBG (getting))(NP (NN (jiggy)))(PP (IN (with))(NP (PRP (it))))))))))))(. (?)))) |ET| 
-0.22902303572638463280419784950936  |BT| (ROOT (SBARQ (FOCUS-WHNP (FOCUS-WDT (What))(NNP (Apollo))(CD (11))(NN (astronaut)))(SQ (VP (VBD (minded))(NP (DT (the))(NN (store)))(SBAR (IN (while))(S (NP (NNP (Armstrong))(CC (and))(NNP (Aldrin)))(VP (VBD (made))(NP (NN (history))))))))(. (?)))) |ET| 
2.5015424446854046536259374988731  |BT| (ROOT (SBARQ (WHNP (WP (What)))(SQ (VBZ ('s))(NP (FOCUS-NP (DT (another))(FOCUS-NN (word)))(SBAR (WHNP (WDT (that)))(S (VP (VBZ (means))(SBAR (S (VP (`` (``))(VBZ (knows))(NP (DT (all)))('' (''))))))))))(. (?)))) |ET| 
0.12628711321887381435757902181649  |BT| (ROOT (SBARQ (WHNP (WP (What)))(SQ (VBZ ('s))(NP (FOCUS-NP (DT (the))(JJ (only))(FOCUS-NN (mammal)))(SBAR (WHNP (WDT (that)))(S (VP (MD (can))(VP ('' ('))(NP-TMP (NN (t))(NN (jump)))))))))(. (?)))) |ET| 
2.700000000000000177635683940025  |BT| (ROOT (SBARQ (WHNP (WP (Who)))(SQ (VBZ (is))(NP (FOCUS-NP (NNP (Imam))(NNP (Hussain))(NNP (Ben))(FOCUS-NNP (Ali)))(SBAR (WHNP (WP (whom)))(S (NP (JJ (Shia))(NNS (people)))(VP (VBP (believe))(PP (IN (in))))))))(. (?)))) |ET| 
-1  |BT| (ROOT (SBARQ (WHNP (WP (What)))(SQ (VBZ ('s))(NP (FOCUS-NP (FOCUS-DT (another))(NN (word)))(SBAR (WHNP (WDT (that)))(S (VP (VBZ (means))(SBAR (S (VP (`` (``))(VBZ (knows))(NP (DT (all)))('' (''))))))))))(. (?)))) |ET| 
-1  |BT| (ROOT (SBARQ (WHNP (WP (Who)))(SQ (VBZ (is))(NP (FOCUS-NP (FOCUS-NNP (Imam))(NNP (Hussain))(NNP (Ben))(NNP (Ali)))(SBAR (WHNP (WP (whom)))(S (NP (JJ (Shia))(NNS (people)))(VP (VBP (believe))(PP (IN (in))))))))(. (?)))) |ET| 
-1  |BT| (ROOT (SBARQ (WHNP (WP (Who)))(SQ (VBZ (is))(NP (FOCUS-NP (NNP (Imam))(FOCUS-NNP (Hussain))(NNP (Ben))(NNP (Ali)))(SBAR (WHNP (WP (whom)))(S (NP (JJ (Shia))(NNS (people)))(VP (VBP (believe))(PP (IN (in))))))))(. (?)))) |ET| 
2.700000000000000177635683940025  |BT| (ROOT (SBARQ (WHNP (WP (What)))(SQ (VBZ (is))(NP (FOCUS-NP (DT (the))(NN (web))(FOCUS-NN (address)))(PP (IN (of))(NP (NP (DT (the))(NN (list)))(PP (IN (of))(NP (NP (JJ (e-mail))(NNS (addresses)))(PP (IN (of))(NP (NP (NNS (members)))(PP (IN (of))(NP (NP (DT (the))(NNP (House)))(PP (IN (of))(NP (NNPS (Representatives)))))))))))))))) |ET| 
1.1851291325592161474133945375797  |BT| (ROOT (SBARQ (FOCUS-WHNP (WDT (What))(FOCUS-NN (color)))(SQ (VBZ (is))(NP (NP (DT (the))(NN (stripe)))(PP (IN (along))(NP (NP (DT (each))(NN (side)))(PP (IN (of))(NP (DT (a))(NNP (Coho))(NN (salmon))))))))(. (?)))) |ET| 
2.700000000000000177635683940025  |BT| (ROOT (SBARQ (WHNP (WP (Who)))(SQ (VBD (was))(NP (FOCUS-NP (DT (the))(FOCUS-NN (author)))(PP (IN (of))(NP (NP (DT (the))(NN (book)))(PP (IN (about))(NP (NN (computer))(NNS (hackers)))))))(VP (VBN (called))(S (NP (NP (DT (The))(NN (Cuckoo))(POS ('s)))(NN (Egg)))(: (:))(VP (VBG (Tracking))(S (NP (DT (a))(NN (Spy)))(PP (IN (Through))(NP (NP (DT (the))(NN (Maze)))(PP (IN (of))(NP (NN (Computer))(NN (Espionage))))))))))))) |ET| 
-1  |BT| (ROOT (SBARQ (WHNP (WP (What)))(SQ (VBZ (is))(NP (FOCUS-NP (DT (the))(FOCUS-NN (web))(NN (address)))(PP (IN (of))(NP (NP (DT (the))(NN (list)))(PP (IN (of))(NP (NP (JJ (e-mail))(NNS (addresses)))(PP (IN (of))(NP (NP (NNS (members)))(PP (IN (of))(NP (NP (DT (the))(NNP (House)))(PP (IN (of))(NP (NNPS (Representatives)))))))))))))))) |ET| 
-0.48195991456294468013865639477444  |BT| (ROOT (SBARQ (WHNP (WP (What)))(SQ (VBZ (is))(NP (FOCUS-NP (FOCUS-DT (the))(NN (web))(NN (address)))(PP (IN (of))(NP (NP (DT (the))(NN (list)))(PP (IN (of))(NP (NP (JJ (e-mail))(NNS (addresses)))(PP (IN (of))(NP (NP (NNS (members)))(PP (IN (of))(NP (NP (DT (the))(NNP (House)))(PP (IN (of))(NP (NNPS (Representatives)))))))))))))))) |ET| 
-1  |BT| (ROOT (SBARQ (WHNP (WP (What)))(SQ (VBZ (is))(NP (NP (DT (the))(NN (web))(NN (address)))(PP (IN (of))(NP (FOCUS-NP (DT (the))(FOCUS-NN (list)))(PP (IN (of))(NP (NP (JJ (e-mail))(NNS (addresses)))(PP (IN (of))(NP (NP (NNS (members)))(PP (IN (of))(NP (NP (DT (the))(NNP (House)))(PP (IN (of))(NP (NNPS (Representatives)))))))))))))))) |ET| 
2.700000000000000177635683940025  |BT| (ROOT (SBARQ (WHNP (WP (what)))(SQ (VBZ (is))(NP (FOCUS-NP (DT (an))(JJ (original))(FOCUS-NN (restaurant))(NN (idea)))(SBAR (IN (if))(S (NP (FW (i)))(VP (VBP (am))(PP (IN (in))(NP (NN (venice)))))))))(. (?)))) |ET| 
2.700000000000000177635683940025  |BT| (ROOT (SBARQ (WHNP (WP (Who)))(SQ (VP (VBD (killed))(NP (NP (JJR (more))(NNS (people)))(, (,))(FOCUS-NP (FOCUS-NNP (Hitler)))(CC (or))(NP (NNP (Stalin))))))(. (?)))) |ET| 
1.6026453233684472277076338286861  |BT| (ROOT (SBARQ (WHNP (WP (Who)))(SQ (VBD (was))(FOCUS-NP (NP (NNP (Gerald))(NNP (Ford))(POS ('s)))(NN (vice))(FOCUS-NN (president))))(. (?)))) |ET| 
-0.92076426157654989168577230884694  |BT| (ROOT (SBARQ (WHNP (WP (Who)))(SQ (VBZ (is))(FOCUS-NP (FOCUS-NNP (Samuel))(NNP (Pickering))))(. (?)))) |ET| 
-0.92079645463206916122800294033368  |BT| (ROOT (SBARQ (WHNP (WP (Who)))(SQ (VBZ (is))(FOCUS-NP (FOCUS-NNP (Nicolo))(NNP (Paganini))))(. (?)))) |ET| 
-0.92005365435829522535726709975279  |BT| (ROOT (SBARQ (WHNP (WP (Who)))(SQ (VBZ (is))(FOCUS-NP (FOCUS-NNP (Dear))(NNP (Abby))))(. (?)))) |ET| 
2.700000000000000177635683940025  |BT| (ROOT (S (VP (VB (Name))(NP (NP (CD (one)))(PP (IN (of))(NP (FOCUS-NP (DT (the))(CD (Seven))(FOCUS-NNS (Wonders)))(PP (IN (of))(NP (DT (the))(NNP (Ancient))(NNP (World))))))))(. (.)))) |ET| 
2.700000000000000177635683940025  |BT| (ROOT (SBARQ (WHNP (WP (What)))(SQ (VBZ (is))(NP (FOCUS-NP (DT (the))(NN (student))(FOCUS-NN (population)))(PP (IN (at))(NP (NP (DT (the))(NNP (University)))(PP (IN (of))(NP (NP (NNP (Massachusetts)))(PP (IN (in))(NP (NNP (Amherst)))))))))))) |ET| 
2.700000000000000177635683940025  |BT| (ROOT (SBARQ (WHNP (WP (What)))(SQ (VBP (are))(NP (NP (DT (some)))(PP (IN (of))(NP (FOCUS-NP (DT (the))(JJ (significant))(JJ (historical))(FOCUS-NNS (events)))(PP (IN (of))(NP (DT (the))(NNS (1990s)))))))))) |ET| 
-0.18653834995059187518151588847104  |BT| (ROOT (SBARQ (WHNP (WDT (What))(NNP (Dickens))(NN (novel)))(SQ (VP (VBZ (has))(NP (NP (NNP (David)))(VP (VBG (carrying))(NP (FOCUS-NP (DT (the))(NN (message))(FOCUS-`` (``))(NX (S (NP (NNP (Barkis)))(VP (VBZ (is))(ADJP (JJ (willin))))))('' ('')))(PP (TO (to))(NP (NNP (Peggy)))))))))(. (?)))) |ET| 
-1  |BT| (ROOT (SBARQ (FOCUS-WHNP (WDT (What))(FOCUS-CD (two))(NNS (commanders)))(SQ (VP (VBD (directed))(NP (DT (the))(NNS (forces)))(PP (IN (in))(NP (NP (DT (the))(NN (Battle)))(PP (IN (of))(NP (NNP (El))(NNP (Alamein))))))))(. (?)))) |ET| 
-1  |BT| (ROOT (SBARQ (WHNP (WDT (What))(NN (color)))(SQ (VBZ (is))(NP (FOCUS-NP (DT (the))(FOCUS-NN (stripe)))(PP (IN (along))(NP (NP (DT (each))(NN (side)))(PP (IN (of))(NP (DT (a))(NNP (Coho))(NN (salmon))))))))(. (?)))) |ET| 
1.3545738381596490462754900363507  |BT| (ROOT (SBARQ (WHNP (WP (Who)))(SQ (VBZ (is))(FOCUS-NP (NNP (Samuel))(FOCUS-NNP (Pickering))))(. (?)))) |ET| 
1.3547517634801271579902959274477  |BT| (ROOT (SBARQ (WHNP (WP (Who)))(SQ (VBZ (is))(FOCUS-NP (NNP (Nicolo))(FOCUS-NNP (Paganini))))(. (?)))) |ET| 
1.3547517634801238273212220519781  |BT| (ROOT (SBARQ (WHNP (WP (Who)))(SQ (VBZ (is))(FOCUS-NP (NNP (Dear))(FOCUS-NNP (Abby))))(. (?)))) |ET| 
-1  |BT| (ROOT (SBARQ (WHNP (WP (Who)))(SQ (VBD (was))(FOCUS-NP (NP (NNP (Gerald))(NNP (Ford))(POS ('s)))(FOCUS-NN (vice))(NN (president))))(. (?)))) |ET| 
-1  |BT| (ROOT (SBARQ (WHNP (WP (What)))(SQ (VBZ (is))(FOCUS-NP (NP (NNP (California))(POS ('s)))(FOCUS-NN (state))(NN (bird))))(. (?)))) |ET| 
-1  |BT| (ROOT (SBARQ (WHNP (WP (What)))(SQ (VBZ (is))(FOCUS-NP (NP (NNP (Columbia))(NNP (Tristar))(POS ('s)))(FOCUS-NN (phone))(NN (number))))(. (?)))) |ET| 
1.5250109474529047748347920787637  |BT| (ROOT (FRAG (WHNP (WDT (what)))(PP (FOCUS-NP (JJ (italian))(FOCUS-NNS (restaurants)))(PP (IN (in))(NP (NP (DT (the))(NN (area)))(PP (IN (of))(NP (NNS (reimes)))))))(. (?)))) |ET| 
0.33758175382873623071589008759474  |BT| (ROOT (SBARQ (FOCUS-WHNP (WDT (What))(FOCUS-NN (part)))(SQ (VBD (did))(NP (NNP (John))(NNP (Peter))(NNP (Zenger)))(VP (VB (play))(PP (IN (in))(NP (NP (DT (the))(NN (deveopment)))(PP (IN (of))(NP (NP (DT (the))(NN (newspaper)))(PP (IN (in))(NP (NNP (America)))))))))))) |ET| 
-0.93741058773076180177241667479393  |BT| (ROOT (FRAG (WHNP (WDT (what)))(PP (FOCUS-NP (FOCUS-JJ (italian))(NNS (restaurants)))(PP (IN (in))(NP (NP (DT (the))(NN (area)))(PP (IN (of))(NP (NNS (reimes)))))))(. (?)))) |ET| 
-1  |BT| (ROOT (SBARQ (WHNP (WP (Who)))(SQ (VBD (was))(NP (NP (DT (the))(NN (author)))(PP (IN (of))(NP (FOCUS-NP (DT (the))(FOCUS-NN (book)))(PP (IN (about))(NP (NN (computer))(NNS (hackers)))))))(VP (VBN (called))(S (NP (NP (DT (The))(NN (Cuckoo))(POS ('s)))(NN (Egg)))(: (:))(VP (VBG (Tracking))(S (NP (DT (a))(NN (Spy)))(PP (IN (Through))(NP (NP (DT (the))(NN (Maze)))(PP (IN (of))(NP (NN (Computer))(NN (Espionage))))))))))))) |ET| 
-1  |BT| (ROOT (SBARQ (WHNP (WP (Who)))(SQ (VBD (was))(NP (NP (DT (the))(NN (author)))(PP (IN (of))(NP (NP (DT (the))(NN (book)))(PP (IN (about))(NP (NN (computer))(NNS (hackers)))))))(VP (VBN (called))(S (NP (NP (DT (The))(NN (Cuckoo))(POS ('s)))(NN (Egg)))(: (:))(VP (VBG (Tracking))(S (NP (DT (a))(NN (Spy)))(PP (IN (Through))(NP (FOCUS-NP (DT (the))(FOCUS-NN (Maze)))(PP (IN (of))(NP (NN (Computer))(NN (Espionage))))))))))))) |ET| 
1.5003110396171008833476889776648  |BT| (ROOT (SBARQ (WHNP (WP (What)))(SQ (VBZ (is))(FOCUS-NP (NP (NNP (California))(POS ('s)))(NN (state))(FOCUS-NN (bird))))(. (?)))) |ET| 
1.1464124470259580146347389018047  |BT| (ROOT (SBARQ (WHNP (WP (What)))(SQ (VBZ (is))(FOCUS-NP (NP (NNP (Columbia))(NNP (Tristar))(POS ('s)))(NN (phone))(FOCUS-NN (number))))(. (?)))) |ET| 
0.64169377067507504808219209735398  |BT| (ROOT (SBARQ (WHNP (WP (What)))(SQ (VBZ (is))(FOCUS-NP (NP (NNP (Larry))(NNP (King))(POS ('s)))(FOCUS-NN (job))))(. (?)))) |ET| 
-0.96272288980537190639097389066592  |BT| (ROOT (SBARQ (WHNP (WP (What)))(SQ (VBZ (is))(FOCUS-NP (DT (the))(FOCUS-JJS (longest))(JJ (English))(NN (word)))))) |ET| 
-0.63255549163634727793947831742116  |BT| (ROOT (SBARQ (WHNP (WP (What)))(SQ (VBZ (is))(NP (NP (NN (damage)))(PP (TO (to))(FOCUS-NP (FOCUS-NN (business))(CC (and))(NN (government)))))(VP (VBN (caused))(PP (IN (by))(NP (NN (bureaucracy))))))(. (?)))) |ET| 
-1  |BT| (ROOT (SBARQ (WHNP (WP (What)))(SQ (VBZ (is))(FOCUS-NP (NP (NNP (George))(NNP (Lucas))(POS ('s)))(FOCUS-JJ (e-mail))(NN (address))))(. (?)))) |ET| 
2.700000000000000177635683940025  |BT| (ROOT (SQ (VP (VB (suggest))(FOCUS-NP (DT (any))(JJ (good))(FOCUS-NNS (movies)))(PP (IN (by))(NP (NP (NN (george))(NNS (lucas)))(SBAR (WHNP (WDT (that)))(S (VP (VBP (are))(ADVP (RB (out)))(PP (IN (in))(NP (NP (DT (the))(NN (cinema)))(PP (IN (at))(NP (DT (the))(NN (moment))))))))))))(. (?)))) |ET| 
1.6545354518174744118397256897879  |BT| (ROOT (S (NP (FOCUS-NP (DT (any))(JJ (good))(NN (wine))(FOCUS-NNS (places)))(PP (IN (in))(NP (NP (DT (the))(NN (area)))(PP (IN (of))(NP (NN (san))(NN (bernardino))(CD (0)))))))(VP (MD (ca)))(. (?)))) |ET| 
2.700000000000000177635683940025  |BT| (ROOT (FRAG (WHNP (WDT (What)))(PP (FOCUS-NP (JJ (literary))(FOCUS-JJ (classic))(NNS (centers)))(PP (IN (on))(NP (NP (DT (the))(NN (search)))(PP (IN (for))(NP (NP (NP (DT (a))(NN (treasure)))(PP (IN (in))(NP (NP (NN (gold)))(ADJP (JJ (worth))(NP-TMP (CD (7)))))))(, (,))(NP (CD (0))(NNS (pounds))))))))(. (?)))) |ET| 
-1  |BT| (ROOT (FRAG (WHNP (WDT (What)))(PP (FOCUS-NP (FOCUS-JJ (literary))(JJ (classic))(NNS (centers)))(PP (IN (on))(NP (NP (DT (the))(NN (search)))(PP (IN (for))(NP (NP (NP (DT (a))(NN (treasure)))(PP (IN (in))(NP (NP (NN (gold)))(ADJP (JJ (worth))(NP-TMP (CD (7)))))))(, (,))(NP (CD (0))(NNS (pounds))))))))(. (?)))) |ET| 
-1  |BT| (ROOT (FRAG (WHNP (WDT (What)))(PP (FOCUS-NP (JJ (literary))(JJ (classic))(FOCUS-NNS (centers)))(PP (IN (on))(NP (NP (DT (the))(NN (search)))(PP (IN (for))(NP (NP (NP (DT (a))(NN (treasure)))(PP (IN (in))(NP (NP (NN (gold)))(ADJP (JJ (worth))(NP-TMP (CD (7)))))))(, (,))(NP (CD (0))(NNS (pounds))))))))(. (?)))) |ET| 
-0.92738356000757404817846918376745  |BT| (ROOT (SQ (VP (VB (suggest))(FOCUS-NP (FOCUS-DT (any))(JJ (good))(NNS (movies)))(PP (IN (by))(NP (NP (NN (george))(NNS (lucas)))(SBAR (WHNP (WDT (that)))(S (VP (VBP (are))(ADVP (RB (out)))(PP (IN (in))(NP (NP (DT (the))(NN (cinema)))(PP (IN (at))(NP (DT (the))(NN (moment))))))))))))(. (?)))) |ET| 
1.0904833777520583915077168057906  |BT| (ROOT (SBARQ (WHNP (WP (What)))(SQ (VBZ (is))(FOCUS-NP (DT (the))(JJ (federal))(JJ (minimum))(FOCUS-NN (wage))))(. (?)))) |ET| 
1.5790270048377803568939725664677  |BT| (ROOT (SBARQ (WHNP (WP (What)))(SQ (VBZ (is))(FOCUS-NP (DT (the))(JJS (highest))(JJ (Roman))(FOCUS-NN (numeral))))(. (?)))) |ET| 
-0.09205905272563170982369484818264  |BT| (ROOT (SBARQ (WHNP (WP (What)))(SQ (VBD (were))(NP (DT (the))(NNS (trials)))(VP (VBN (called))(SBAR (WHNP (WDT (which)))(S (VP (VBD (followed))(S (FOCUS-ADJP (FOCUS-NNP (World))(NNP (War))(NNP (II)))))))))(. (?)))) |ET| 
-1  |BT| (ROOT (SBARQ (WHNP (WP (What)))(SQ (VBZ (is))(FOCUS-NP (DT (the))(FOCUS-JJS (highest))(JJ (Roman))(NN (numeral))))(. (?)))) |ET| 
-1  |BT| (ROOT (SBARQ (WHNP (WP (What)))(SQ (VBZ (is))(FOCUS-NP (DT (the))(JJS (highest))(FOCUS-JJ (Roman))(NN (numeral))))(. (?)))) |ET| 
-0.080457308714458525278345746301056  |BT| (ROOT (SBARQ (WHNP (WP (What)))(SQ (VBZ (is))(FOCUS-NP (DT (the))(FOCUS-JJ (regular))(NN (price))))(. (?)))) |ET| 
2.4504514784796276316569674236234  |BT| (ROOT (NP (FOCUS-NP (NN (rock))(FOCUS-NNS (concerts)))(PP (IN (with))(NP (NN (sum))(CD (41))))(PP (IN (of))(NP (NP (DT (this))(NN (summer)))(PP (IN (in))(ADVP (RB (italy))))))(. (?)))) |ET| 
0.94927175956322606964477017754689  |BT| (ROOT (FRAG (FOCUS-NP (FOCUS-NNS (things)))(S (VP (TO (to))(VP (VB (see))(PP (IN (in))(NP (NP (NN (yorkshire)))(PP (IN (over))(NP (DT (the))(NN (weekend)))))))))(. (?)))) |ET| 
0.42510301274197304088886539830128  |BT| (ROOT (SBARQ (FOCUS-WHNP (WDT (What))(JJ (Asian))(FOCUS-NN (country)))(SQ (VP (VBZ (has))(NP (NP (DT (a))(NN (bill)))(PP (IN (of))(NP (NP (NNS (rights)))(PP (IN (for))(NP (NNS (cows))))))))))) |ET| 
-0.92312681742720348321284973280854  |BT| (ROOT (FOCUS-FRAG (NP (NNS (things)))(S (VP (TO (to))(VP (VB (do))(PP (IN (in))(NP (NP (NN (malaysia)))(PP (IN (in))(NP (NNP (August)))))))))(FOCUS-. (?)))) |ET| 
-0.16209721561108117460214828042808  |BT| (ROOT (FOCUS-FRAG (NP (NNS (things)))(S (VP (TO (to))(VP (VB (see))(PP (IN (in))(NP (NP (NN (yorkshire)))(PP (IN (over))(NP (DT (the))(NN (weekend)))))))))(FOCUS-. (?)))) |ET| 
-1  |BT| (ROOT (S (NP (FOCUS-NP (DT (any))(JJ (good))(FOCUS-NN (wine))(NNS (places)))(PP (IN (in))(NP (NP (DT (the))(NN (area)))(PP (IN (of))(NP (NN (san))(NN (bernardino))(CD (0)))))))(VP (MD (ca)))(. (?)))) |ET| 
2.5764079719628125708652532921406  |BT| (ROOT (SBARQ (WHNP (WP (Who)))(SQ (VBZ (is))(FOCUS-NP (DT (the))(FOCUS-NNP (Pope))))(. (?)))) |ET| 
1.4766634644452332203456990100676  |BT| (ROOT (SBARQ (WHNP (WP (What)))(SQ (VBZ (is))(FOCUS-NP (NP (DT (the))(NN (world))(POS ('s)))(JJS (highest))(FOCUS-NN (peak))))(. (?)))) |ET| 
-0.085048007300606867642223107850441  |BT| (ROOT (SBARQ (WHNP (WP (what)))(SQ (VBZ (is))(NP (FOCUS-NP (DT (the))(FOCUS-NN (population))(NN (density)))(PP (IN (of))(NP (NNS (texas))))))(. (?)))) |ET| 
-0.72664881628217958819959676475264  |BT| (ROOT (SBARQ (WHNP (WP (Who)))(SQ (VBZ (is))(FOCUS-NP (DT (the))(FOCUS-JJS (fastest))(NN (guitarist))))(. (?)))) |ET| 
-1  |BT| (ROOT (SBARQ (WHNP (WP (Who)))(SQ (VBZ (is))(FOCUS-NP (DT (the))(FOCUS-NNP (Voyager))(NN (project))(NN (manager))))(. (?)))) |ET| 
-1  |BT| (ROOT (SBARQ (WHNP (WP (Who)))(SQ (VBZ (is))(FOCUS-NP (DT (the))(NNP (Voyager))(FOCUS-NN (project))(NN (manager))))(. (?)))) |ET| 
1.5468373303288494025053978475626  |BT| (ROOT (FRAG (FOCUS-NP (FOCUS-NNS (things)))(S (VP (TO (to))(VP (VB (do))(PP (IN (in))(NP (NP (NN (malaysia)))(PP (IN (in))(NP (NNP (August)))))))))(. (?)))) |ET| 
2.2562034642448041132922753604362  |BT| (ROOT (S (FOCUS-NP (ADJP (JJ (nice))(CC (and))(JJ (cheap)))(FOCUS-NNS (places)))(VP (TO (to))(VP (VB (eat))(PP (IN (near))(NP (NP (NN (pantheon)))(PP (IN (in))(NP (NN (rome))))))))(. (?)))) |ET| 
-0.13186950910556391458605673960847  |BT| (ROOT (S (NP (FOCUS-ADJP (FOCUS-JJ (nice))(CC (and))(JJ (cheap)))(NNS (places)))(VP (TO (to))(VP (VB (eat))(PP (IN (near))(NP (NP (NN (pantheon)))(PP (IN (in))(NP (NN (rome))))))))(. (?)))) |ET| 
-0.19789133378280232555823658913141  |BT| (ROOT (S (NP (FOCUS-ADJP (JJ (nice))(FOCUS-CC (and))(JJ (cheap)))(NNS (places)))(VP (TO (to))(VP (VB (eat))(PP (IN (near))(NP (NP (NN (pantheon)))(PP (IN (in))(NP (NN (rome))))))))(. (?)))) |ET| 
-0.56303324219829919972113430048921  |BT| (ROOT (S (NP (FOCUS-ADJP (JJ (nice))(CC (and))(FOCUS-JJ (cheap)))(NNS (places)))(VP (TO (to))(VP (VB (eat))(PP (IN (near))(NP (NP (NN (pantheon)))(PP (IN (in))(NP (NN (rome))))))))(. (?)))) |ET| 
1.9177025079133849239099163241917  |BT| (ROOT (SBARQ (WHNP (WP (Who)))(SQ (VBZ (is))(FOCUS-NP (DT (the))(NNP (Voyager))(NN (project))(FOCUS-NN (manager))))(. (?)))) |ET| 
2.700000000000000177635683940025  |BT| (ROOT (SBARQ (WHNP (WP (Who)))(SQ (VBZ (is))(FOCUS-NP (FOCUS-NNP (Coronado)))))) |ET| 
2.4358418727192483466126304847421  |BT| (ROOT (SBARQ (WHNP (WP (Who)))(SQ (VBZ (is))(FOCUS-NP (DT (the))(JJ (current))(NNP (UN))(NNP (Secretary))(FOCUS-NNP (General))))(. (?)))) |ET| 
-1  |BT| (ROOT (SBARQ (WHNP (WP (What)))(SQ (VBP (are))(FOCUS-NP (NP (DT (the))(NN (world))(POS ('s)))(FOCUS-CD (four))(NNS (oceans)))))) |ET| 
-0.12582505460540840958039154884318  |BT| (ROOT (SBARQ (WHNP (WP (Who)))(SQ (VBP (are))(NP (NP (DT (the))(CD (two))(NNS (sons)))(PP (IN (of))(NP (FOCUS-NP (NNP (Ozzie))(CC (and))(FOCUS-NNP (Harriet)))(NNP (Nelson)))))))) |ET| 
-0.64829666692725751442338832930545  |BT| (ROOT (SBARQ (WHNP (WP (What)))(SQ (VBP (are))(FOCUS-NP (DT (the))(FOCUS-JJ (Nordic))(NNS (nations)))))) |ET| 
1.8502194764451171948849150794558  |BT| (ROOT (FRAG (ADJP (RB (best))(SBAR (S (FOCUS-VP (FOCUS-VBZ (places))(S (VP (TO (to))(VP (VB (eat))(PP (IN (in))(NP (NN (acapulco)))))))))))(. (?)))) |ET| 
2.4139028670592725944743506261148  |BT| (ROOT (SBARQ (WHNP (WP (what)))(SQ (VBP (are))(NP (FOCUS-NP (JJ (good))(FOCUS-NNS (things)))(S (VP (TO (to))(VP (VB (do))(PP (IN (in))(NP (NP (NN (melbourne)))(PP (IN (in))(NP (NN (march)))))))))))(. (?)))) |ET| 
2.700000000000000177635683940025  |BT| (ROOT (S (VP (VBG (looking))(PP (IN (for))(FOCUS-NP (DT (a))(JJ (nice))(FOCUS-NN (place))))(S (VP (TO (to))(VP (VB (sleep))(PP (IN (for))(NP (NP (CD (one))(NN (night)))(PP (IN (in))(NP (NP (NN (germany))(CD (0)))(PP (IN (near))(NP (NN (berlin))))))))))))(. (?)))) |ET| 
-1  |BT| (ROOT (S (FOCUS-VP (FOCUS-VBG (looking))(PP (IN (for))(NP (DT (a))(JJ (nice))(NN (place))))(S (VP (TO (to))(VP (VB (sleep))(PP (IN (for))(NP (NP (CD (one))(NN (night)))(PP (IN (in))(NP (NP (NN (germany))(CD (0)))(PP (IN (near))(NP (NN (berlin))))))))))))(. (?)))) |ET| 
-0.34741762537019321710474173414696  |BT| (ROOT (SBARQ (WHNP (WP (Who)))(SQ (VBD (was))(NP (NP (NN (chairman)))(PP (IN (of))(NP (FOCUS-NP (DT (the))(NNP (Senate))(JJ (select))(FOCUS-NN (committee)))(SBAR (WHNP (WDT (that)))(S (VP (VBD (tried))(S (VP (TO (to))(VP (VB (get))(PP (TO (to))(NP (NP (DT (the))(NN (bottom)))(PP (IN (of))(NP (NNP (Watergate)))))))))))))))))) |ET| 
-1  |BT| (ROOT (S (VP (VBG (looking))(FOCUS-PP (FOCUS-IN (for))(NP (DT (a))(JJ (nice))(NN (place))))(S (VP (TO (to))(VP (VB (sleep))(PP (IN (for))(NP (NP (CD (one))(NN (night)))(PP (IN (in))(NP (NP (NN (germany))(CD (0)))(PP (IN (near))(NP (NN (berlin))))))))))))(. (?)))) |ET| 
1.8244458653944461978824165271362  |BT| (ROOT (SBARQ (WHNP (WP (What)))(SQ (VBP (are))(FOCUS-NP (DT (the))(NNP (Benelux))(FOCUS-NNS (countries)))))) |ET| 
-0.21588908365998488170234281824378  |BT| (ROOT (SBARQ (WHNP (WP (Who)))(SQ (VP (VBD (served))(PP (IN (as))(NP (NN (inspiration))))(PP (IN (for))(NP (NP (DT (the))(NN (schoolteacher)))(VP (VBN (portrayed))(PP (IN (by))(NP (NP (NNP (Robin))(NNP (Williams)))(PP (IN (in))(`` (``))(NP (NP (JJ (Dead))(NNS (Poets)))(FOCUS-NP (FOCUS-NNP (Society))))('' (''))))))))))(. (?)))) |ET| 
0.29847741254493931339908385780291  |BT| (ROOT (SBARQ (WHNP (WP (What)))(SQ (VBP (are))(FOCUS-NP (DT (the))(CD (seven))(FOCUS-NNS (virtues)))))) |ET| 
-1  |BT| (ROOT (SBARQ (WHNP (WP (What)))(SQ (VBP (are))(FOCUS-NP (DT (the))(FOCUS-NNP (Benelux))(NNS (countries)))))) |ET| 
-0.85595962200287134535869881801773  |BT| (ROOT (SBARQ (WHNP (WP (What)))(SQ (VBP (are))(FOCUS-NP (DT (the))(FOCUS-CD (seven))(NNS (virtues)))))) |ET| 
-0.20315271082372210464939144003438  |BT| (ROOT (SQ (MD (can))(NP (PRP (you)))(FOCUS-VP (FOCUS-VB (recommend))(NP (DT (a))(JJ (decent))(NN (place)))(PP (IN (for))(NP (NP (NP (NP (NN (brunch)))(PP (IN (near))(NP (NNS (times)))))(JJ (square)))(CC (or))(NP (NP (NN (hell))(POS ('s)))(NN (kitchen))))))(. (?)))) |ET| 
2.700000000000000177635683940025  |BT| (ROOT (S (NP (NNP (Woodrow))(NNP (Wilson)))(VP (VBD (served))(PP (IN (as))(NP (NP (NN (president)))(PP (IN (of))(NP (WP (what))))))(FOCUS-NP (FOCUS-NN (university)))))) |ET| 
2.700000000000000177635683940025  |BT| (ROOT (NP (FOCUS-NP (JJ (nice))(FOCUS-NN (hostel)))(PP (IN (in))(NP (NNS (leeds))))(ADVP (RB (close))(PP (TO (to))(NP (NP (DT (a))(NN (railway))(NN (station)))(PP (IN (with))(NP (JJ (low))(NNS (prices)))))))(. (?)))) |ET| 
2.5949698817767927749855516594835  |BT| (ROOT (NP (FOCUS-NP (JJS (closest))(NN (subway))(FOCUS-NN (station)))(PP (IN (near))(NP (NN (naraina))(CD (0))(NNS (delhi))))(. (?)))) |ET| 
-0.53016085486529640480313219086383  |BT| (ROOT (FRAG (ADJP (RB (best))(SBAR (S (VP (VBZ (places))(S (FOCUS-VP (FOCUS-TO (to))(VP (VB (eat))(PP (IN (in))(NP (NN (acapulco)))))))))))(. (?)))) |ET| 
-0.25929020552513787345461082622933  |BT| (ROOT (FRAG (ADJP (RB (best))(SBAR (S (VP (VBZ (places))(S (VP (TO (to))(FOCUS-VP (FOCUS-VB (eat))(PP (IN (in))(NP (NN (acapulco)))))))))))(. (?)))) |ET| 
-1  |BT| (ROOT (NP (FOCUS-NP (FOCUS-NN (rock))(NNS (concerts)))(PP (IN (with))(NP (NN (sum))(CD (41))))(PP (IN (of))(NP (NP (DT (this))(NN (summer)))(PP (IN (in))(ADVP (RB (italy))))))(. (?)))) |ET| 
0.54347170662011956565606851654593  |BT| (ROOT (SBARQ (WHNP (WP (What)))(SQ (VBP (are))(FOCUS-NP (DT (the))(JJ (Nordic))(FOCUS-NNS (nations)))))) |ET| 
2.2347100376443371771983947837725  |BT| (ROOT (SBARQ (WHNP (WP (What)))(SQ (VBP (are))(FOCUS-NP (NP (DT (the))(NN (world))(POS ('s)))(CD (four))(FOCUS-NNS (oceans)))))) |ET| 
1.0495580101040729026351527863881  |BT| (ROOT (SBARQ (WHNP (WP (What)))(SQ (VBZ (is))(FOCUS-NP (DT (the))(NNP (Kashmir))(FOCUS-NN (issue)))))) |ET| 
-1  |BT| (ROOT (SBARQ (WHNP (WP (Who)))(SQ (VBZ (is))(FOCUS-NP (DT (the))(FOCUS-NNP (Queen))(NNP (Mother)))))) |ET| 
-1  |BT| (ROOT (SBARQ (WHNP (WP (What)))(SQ (VBZ (is))(FOCUS-NP (DT (the))(FOCUS-NNP (Kashmir))(NN (issue)))))) |ET| 
-1  |BT| (ROOT (SBARQ (WHNP (WP (What)))(SQ (VBZ (is))(FOCUS-NP (DT (the))(JJ (longest-running))(FOCUS-NN (television))(NN (series)))))) |ET| 
2.700000000000000177635683940025  |BT| (ROOT (FRAG (ADJP (RB (best))(SBAR (S (FOCUS-VP (FOCUS-VBZ (places))(S (VP (TO (to))(VP (VB (see))(PP (IN (between))(NP (NNS (texas))(CC (and))(NN (colombia)))))))))))(. (?)))) |ET| 
2.6574676709017590603423286665929  |BT| (ROOT (NP (FOCUS-NP (NN (washington))(NN (dc))(FOCUS-NN (hotel)))(PP (IN (with))(NP (NN (fireplace))))(PP (IN (in))(NP (DT (the))(NN (room))))(. (?)))) |ET| 
-1  |BT| (ROOT (NP (FOCUS-NP (FOCUS-NN (washington))(NN (dc))(NN (hotel)))(PP (IN (with))(NP (NN (fireplace))))(PP (IN (in))(NP (DT (the))(NN (room))))(. (?)))) |ET| 
-1  |BT| (ROOT (NP (FOCUS-NP (NN (washington))(FOCUS-NN (dc))(NN (hotel)))(PP (IN (with))(NP (NN (fireplace))))(PP (IN (in))(NP (DT (the))(NN (room))))(. (?)))) |ET| 
-1  |BT| (ROOT (SBARQ (WHNP (WP (what)))(SQ (VBP (are))(NP (FOCUS-NP (FOCUS-JJ (good))(NNS (things)))(S (VP (TO (to))(VP (VB (do))(PP (IN (in))(NP (NP (NN (melbourne)))(PP (IN (in))(NP (NN (march)))))))))))(. (?)))) |ET| 
2.700000000000000177635683940025  |BT| (ROOT (SBARQ (WHNP (WP (What)))(SQ (VBZ (is))(FOCUS-NP (PRP$ (her))(FOCUS-NN (profession)))))) |ET| 
1.0478110394382713632666082048672  |BT| (ROOT (SBARQ (WHNP (WP (What)))(SQ (VBZ (is))(FOCUS-NP (DT (the))(JJ (longest-running))(NN (television))(FOCUS-NN (series)))))) |ET| 
2.0262135359213178098514163139043  |BT| (ROOT (SBARQ (WHNP (WP (What)))(SQ (VBZ (is))(FOCUS-NP (DT (the))(JJ (second))(JJS (hardest))(FOCUS-NN (substance)))))) |ET| 
-1  |BT| (ROOT (SBARQ (WHNP (WP (What)))(SQ (VBZ (is))(FOCUS-NP (NP (NNP (Grenada))(POS ('s)))(FOCUS-JJ (main))(NN (commodity))(NN (export)))))) |ET| 
-1  |BT| (ROOT (SBARQ (WHNP (WP (What)))(SQ (VBZ (is))(FOCUS-NP (NP (NNP (Grenada))(POS ('s)))(JJ (main))(FOCUS-NN (commodity))(NN (export)))))) |ET| 
-1  |BT| (ROOT (SBARQ (WHNP (WP (What)))(SQ (VBZ (is))(FOCUS-NP (DT (the))(FOCUS-JJ (second))(JJS (hardest))(NN (substance)))))) |ET| 
2.700000000000000177635683940025  |BT| (ROOT (NP (NP (NN (name)))(NP (FOCUS-NP (PDT (all))(DT (the))(FOCUS-NNS (rivers)))(PP (IN (in))(NP (NN (colorado)))))(. (?)))) |ET| 
2.3642398954666230537213778006844  |BT| (ROOT (NP (FOCUS-NP (DT (any))(JJ (good))(NN (comedy))(FOCUS-NN (movie)))(PP (IN (with))(NP (NN (affleck))))(PP (IN (in))(NP (NP (DT (the))(NNS (theaters)))(PP (IN (of))(NP (NN (atlanta))))))(. (?)))) |ET| 
-0.063774549100789987288173676915903  |BT| (ROOT (SQ (VBZ (is))(NP (EX (there)))(NP (FOCUS-NP (FOCUS-DT (any))(NN (attraction)))(PP (IN (in))(NP (NN (portland))(CD (0))(NN (oregon)))))(. (?)))) |ET| 
-1  |BT| (ROOT (NP (FOCUS-NP (DT (any))(JJ (good))(FOCUS-NN (comedy))(NN (movie)))(PP (IN (with))(NP (NN (affleck))))(PP (IN (in))(NP (NP (DT (the))(NNS (theaters)))(PP (IN (of))(NP (NN (atlanta))))))(. (?)))) |ET| 
-0.80475402753909885955607705909642  |BT| (ROOT (NP (FOCUS-NP (FOCUS-DT (any))(JJ (good))(NN (comedy))(NN (movie)))(PP (IN (with))(NP (NN (affleck))))(PP (IN (in))(NP (NP (DT (the))(NNS (theaters)))(PP (IN (of))(NP (NN (atlanta))))))(. (?)))) |ET| 
-0.58595576754936617991376124336966  |BT| (ROOT (NP (FOCUS-NP (DT (any))(FOCUS-JJ (good))(NN (comedy))(NN (movie)))(PP (IN (with))(NP (NN (affleck))))(PP (IN (in))(NP (NP (DT (the))(NNS (theaters)))(PP (IN (of))(NP (NN (atlanta))))))(. (?)))) |ET| 
1.7460261067053850503327794285724  |BT| (ROOT (SBARQ (WHNP (WP (What)))(SQ (VBZ (is))(FOCUS-NP (NP (NNP (Grenada))(POS ('s)))(JJ (main))(NN (commodity))(FOCUS-NN (export)))))) |ET| 
0.57678675345195085100158394197933  |BT| (ROOT (SBARQ (WHNP (WP (What)))(SQ (VBZ (is))(FOCUS-NP (NP (NNP (November))(POS ('s)))(FOCUS-NN (birthstone)))))) |ET| 
0.018315508892883809732854416552073  |BT| (ROOT (SBARQ (WHNP (WP (What)))(SQ (VBZ (is))(FOCUS-NP (DT (the))(JJS (rarest))(FOCUS-NN (coin)))))) |ET| 
1.3619790898553494340461611500359  |BT| (ROOT (SBARQ (WHNP (WP (What)))(SQ (VBD (was))(NP (FOCUS-NP (DT (the))(FOCUS-NN (number)))(PP (IN (of))(NP (NP (NNS (people)))(SBAR (WHNP (WDT (that)))(S (NP (NNP (Randy))(NNP (Steven))(NNP (Craft)))(VP (VBD (was))(VP (VBN (convicted))(PP (IN (of))(NP (NN (killing)))))))))))))) |ET| 
-1  |BT| (ROOT (SBARQ (WHNP (WP (What)))(SQ (VBZ (is))(NP (FOCUS-NP (FOCUS-NNP (Repulic)))(PP (IN (of))(NP (NP (NNP (China))(POS ('s)))(NN (president))))))(. (?)))) |ET| 
-0.34591966889068748169933087410755  |BT| (ROOT (SBARQ (WHNP (WDT (What))(JJ (infectious))(NN (disease)))(SQ (VBZ (is))(FOCUS-NP (NP (DT (the))(NN (world))(POS ('s)))(FOCUS-JJS (deadliest)))))) |ET| 
2.700000000000000177635683940025  |BT| (ROOT (NP (FOCUS-NP (JJ (trendy))(NN (bar))(FOCUS-NN (lounge)))(PP (IN (with))(NP (NN (bottle))(NN (service))))(PP (IN (in))(NP (NNS (poitiers))))(. (?)))) |ET| 
2.700000000000000177635683940025  |BT| (ROOT (NP (FOCUS-NP (JJ (multiplex))(FOCUS-NNS (cinemas)))(PP (IN (with))(NP (DT (an))(NN (action))(NN (movie))))(PP (IN (by))(NP (NP (NNS (cassavetes)))(PP (IN (in))(NP (NN (st))))))(. (.)))(NP (NNS (louis))(. (?)))) |ET| 
2.4139057082767489958996520726942  |BT| (ROOT (NP (FOCUS-NP (DT (any))(JJ (sci-fi))(FOCUS-NN (movie)))(PP (IN (with))(NP (NN (dicaprio))))(PP (IN (in))(NP (NP (DT (the))(NNS (theaters)))(PP (IN (of))(NP (NN (smithfield))(CD (0))(NN (ri))))(NP-TMP (DT (this))(NN (week)))))(. (?)))) |ET| 
-1  |BT| (ROOT (NP (FOCUS-NP (FOCUS-JJ (trendy))(NN (bar))(NN (lounge)))(PP (IN (with))(NP (NN (bottle))(NN (service))))(PP (IN (in))(NP (NNS (poitiers))))(. (?)))) |ET| 
-1  |BT| (ROOT (NP (FOCUS-NP (JJ (trendy))(FOCUS-NN (bar))(NN (lounge)))(PP (IN (with))(NP (NN (bottle))(NN (service))))(PP (IN (in))(NP (NNS (poitiers))))(. (?)))) |ET| 
-1  |BT| (ROOT (NP (FOCUS-NP (FOCUS-JJ (multiplex))(NNS (cinemas)))(PP (IN (with))(NP (DT (an))(NN (action))(NN (movie))))(PP (IN (by))(NP (NP (NNS (cassavetes)))(PP (IN (in))(NP (NN (st))))))(. (.)))(NP (NNS (louis))(. (?)))) |ET| 
2.1813773408903109896073146956041  |BT| (ROOT (SBARQ (WHNP (WP (What)))(SQ (VBZ (is))(FOCUS-NP (NP (NNP (Nebraska))(POS ('s)))(ADJP (JJS (most))(JJ (valuable)))(FOCUS-NN (resource)))))) |ET| 
2.0172386411852327725569011818152  |BT| (ROOT (SBARQ (WHNP (WP (Who)))(SQ (VBZ (is))(FOCUS-NP (DT (the))(NNP (Queen))(FOCUS-NNP (Mother)))))) |ET| 
2.2700512908671108824876228027279  |BT| (ROOT (SBARQ (WHNP (WP (What)))(SQ (VBZ (is))(FOCUS-NP (DT (the))(JJS (busiest))(NN (air))(NN (travel))(FOCUS-NN (season)))))) |ET| 
-1  |BT| (ROOT (SBARQ (WHNP (WP (What)))(SQ (VBZ (is))(FOCUS-NP (DT (the))(JJ (second))(FOCUS-JJS (hardest))(NN (substance)))))) |ET| 
-1  |BT| (ROOT (SBARQ (WHNP (WP (What)))(SQ (VBZ (is))(FOCUS-NP (DT (the))(FOCUS-JJS (busiest))(NN (air))(NN (travel))(NN (season)))))) |ET| 
-1  |BT| (ROOT (SBARQ (WHNP (WP (What)))(SQ (VBZ (is))(FOCUS-NP (DT (the))(JJS (busiest))(FOCUS-NN (air))(NN (travel))(NN (season)))))) |ET| 
2.700000000000000177635683940025  |BT| (ROOT (SBARQ (WHNP (WDT (What))(NN (city)))(SQ (VBZ (is))(VP (VBN (found))(PP (IN (in))(NP (FOCUS-NP (DT (the))(FOCUS-NN (city)))(PP (IN (of))(NP (NNP (OZ))))))))(. (?)))) |ET| 
2.700000000000000177635683940025  |BT| (ROOT (NP (NP (FOCUS-NP (DT (any))(FOCUS-NNS (suggestions)))(PP (IN (for))(NP (DT (a))(NN (thriller))(NN (movie)))))(SBAR (S (NP (FW (i)))(VP (MD (could))(VP (VB (watch))(PP (IN (with))(NP (PRP$ (my))(NNS (friends))))(NP (NP (RB (tonight)))(PP (IN (in))(NP (NP (NN (eindhoven)))(PP (IN (in))(NP (DT (the))(NN (town))(NN (center)))))))))))(. (?)))) |ET| 
2.2265108690638144572915280150482  |BT| (ROOT (NP (FOCUS-NP (JJ (nice))(NN (dance))(FOCUS-NNS (spots)))(PP (IN (in))(NP (NP (NNP (la)))(CC (and))(NP (NN (hollywood)))))(PP (IN (for))(NP (NN (tonight))))(. (?)))) |ET| 
-1  |BT| (ROOT (NP (NP (FOCUS-NP (FOCUS-DT (any))(NNS (suggestions)))(PP (IN (for))(NP (DT (a))(NN (thriller))(NN (movie)))))(SBAR (S (NP (FW (i)))(VP (MD (could))(VP (VB (watch))(PP (IN (with))(NP (PRP$ (my))(NNS (friends))))(NP (NP (RB (tonight)))(PP (IN (in))(NP (NP (NN (eindhoven)))(PP (IN (in))(NP (DT (the))(NN (town))(NN (center)))))))))))(. (?)))) |ET| 
-1  |BT| (ROOT (NP (NP (NP (DT (any))(NNS (suggestions)))(PP (IN (for))(NP (DT (a))(NN (thriller))(NN (movie)))))(SBAR (S (NP (FW (i)))(VP (MD (could))(VP (VB (watch))(PP (IN (with))(NP (PRP$ (my))(NNS (friends))))(NP (FOCUS-NP (FOCUS-RB (tonight)))(PP (IN (in))(NP (NP (NN (eindhoven)))(PP (IN (in))(NP (DT (the))(NN (town))(NN (center)))))))))))(. (?)))) |ET| 
-1  |BT| (ROOT (NP (NP (NP (DT (any))(NNS (suggestions)))(PP (IN (for))(FOCUS-NP (DT (a))(NN (thriller))(FOCUS-NN (movie)))))(SBAR (S (NP (FW (i)))(VP (MD (could))(VP (VB (watch))(PP (IN (with))(NP (PRP$ (my))(NNS (friends))))(NP (NP (RB (tonight)))(PP (IN (in))(NP (NP (NN (eindhoven)))(PP (IN (in))(NP (DT (the))(NN (town))(NN (center)))))))))))(. (?)))) |ET| 
0.91812893713881527091302814369556  |BT| (ROOT (SBARQ (WHNP (WP (What)))(SQ (VBZ (is))(FOCUS-NP (DT (the))(JJS (longest))(JJ (English))(FOCUS-NN (word)))))) |ET| 
2.1058041360340991055011272692354  |BT| (ROOT (SBARQ (WHNP (WP (What)))(SQ (VBZ (is))(NP (DT (the))(ADJP (RBS (most))(RB (heavily))(VBN (caffeinated)))(FOCUS-NP (JJ (soft))(FOCUS-NN (drink))))))) |ET| 
2.5819791759000207953533845284255  |BT| (ROOT (SBARQ (WHNP (WP (What)))(SQ (VBZ ('s))(FOCUS-NP (DT (the))(JJS (slowest))(JJ (Olympic))(NN (swimming))(FOCUS-NN (stroke)))))) |ET| 
-1  |BT| (ROOT (SBARQ (WHNP (WP (What)))(SQ (VBZ (is))(NP (DT (the))(ADJP (RBS (most))(RB (heavily))(VBN (caffeinated)))(FOCUS-NP (FOCUS-JJ (soft))(NN (drink))))))) |ET| 
-1  |BT| (ROOT (SBARQ (WHNP (WP (What)))(SQ (VBZ ('s))(FOCUS-NP (DT (the))(FOCUS-JJS (slowest))(JJ (Olympic))(NN (swimming))(NN (stroke)))))) |ET| 
-1  |BT| (ROOT (SBARQ (WHNP (WP (What)))(SQ (VBZ ('s))(FOCUS-NP (DT (the))(JJS (slowest))(FOCUS-JJ (Olympic))(NN (swimming))(NN (stroke)))))) |ET| 
2.700000000000000177635683940025  |BT| (ROOT (FRAG (SBAR (WHNP (WDT (What)))(FRAG (NP (NP (FOCUS-NP (NNP (Vladimir))(NNP (Nabokov))(FOCUS-JJ (novel))(NNS (features)))(NP (NNP (Professor))(NNP (Humbert))))(PP (IN (in))(NP (NP (NN (love)))(PP (IN (with))(NP (DT (a))(JJ (12-year-old))(NN (girl))))))))))) |ET| 
2.700000000000000177635683940025  |BT| (ROOT (SBARQ (WHNP (FOCUS-WHNP (WDT (what))(JJ (comic))(FOCUS-NN (film)))(PP (IN (with))(NP (NN (john))(NN (travolta)))))(SQ (MD (can))(NP (FW (i)))(VP (VB (go))(CC (and))(VB (see))(PP (IN (at))(NP (NP (DT (the))(NN (cinema))(NN (tomorrow))(NN (evening)))(PP (IN (in))(NP (NN (houston))))))))(. (?)))) |ET| 
2.4576251661759207500779211841291  |BT| (ROOT (SBARQ (WHPP (IN (In))(FOCUS-WHNP (WDT (what))(FOCUS-NN (year))))(SQ (VBD (was))(NP (NP (DT (the))(JJ (first))(NN (patent)))(PP (IN (for))(NP (NP (DT (the))(JJ (pull-tab))(NN (opener)))(PP (IN (on))(NP (NNS (cans)))))))(VP (VBN (obtained))))(. (?)))) |ET| 
-1  |BT| (ROOT (SBARQ (WHNP (WP (Who)))(SQ (VBD (was))(NP (FOCUS-NP (FOCUS-DT (the))(NNP (Secretary)))(PP (IN (of))(NP (NP (NNP (War)))(PP (IN (in))(NP (NP (DT (the))(JJ (Civil))(NN (War)))(PP (IN (during))(NP (NP (DT (the))(NN (Battle)))(PP (IN (of))(NP (NNP (Gettysburg))))))))))))(. (?)))) |ET| 
-1  |BT| (ROOT (SBARQ (WHNP (WP (Who)))(SQ (VBD (was))(NP (NP (DT (the))(NNP (Secretary)))(PP (IN (of))(NP (NP (NNP (War)))(PP (IN (in))(NP (FOCUS-NP (DT (the))(JJ (Civil))(FOCUS-NN (War)))(PP (IN (during))(NP (NP (DT (the))(NN (Battle)))(PP (IN (of))(NP (NNP (Gettysburg))))))))))))(. (?)))) |ET| 
-1  |BT| (ROOT (SBARQ (WHNP (FOCUS-WHNP (WDT (what))(FOCUS-JJ (comic))(NN (film)))(PP (IN (with))(NP (NN (john))(NN (travolta)))))(SQ (MD (can))(NP (FW (i)))(VP (VB (go))(CC (and))(VB (see))(PP (IN (at))(NP (NP (DT (the))(NN (cinema))(NN (tomorrow))(NN (evening)))(PP (IN (in))(NP (NN (houston))))))))(. (?)))) |ET| 
1.8921629382783646811105882079573  |BT| (ROOT (SBARQ (WHNP (WP (What)))(SQ (VBZ ('s))(FOCUS-NP (DT (the))(NNP (Olympic))(FOCUS-NN (motto)))))) |ET| 
2.1911854920185538375676514988299  |BT| (ROOT (SBARQ (WHNP (WP (What)))(SQ (VBD (was))(FOCUS-NP (DT (the))(JJ (first))(NNP (Lifesaver))(FOCUS-NN (flavor)))))) |ET| 
2.700000000000000177635683940025  |BT| (ROOT (SBARQ (WHNP (WP (What)))(SQ (VBZ (is))(NP (DT (the)))(VP (VBG (leading))(FOCUS-NP (ADJP (NN (pecan))(CC (and))(NN (peanut))(VBG (growing)))(FOCUS-NN (state))))))) |ET| 
-0.84681626582330193908632054444752  |BT| (ROOT (SBARQ (WHNP (WP (What)))(SQ (VBZ (is))(NP (DT (a))(NN (film)))(VP (VBG (starring))(FOCUS-NP (NNP (Jude))(FOCUS-NNP (Law))))))) |ET| 
-1  |BT| (ROOT (SBARQ (WHNP (WP (What)))(SQ (VBD (was))(FOCUS-NP (DT (the))(JJ (first))(FOCUS-NNP (Lifesaver))(NN (flavor)))))) |ET| 
-0.59511340466175566277229336265009  |BT| (ROOT (SBARQ (WHNP (WP (What)))(SQ (VBZ (is))(NP (DT (the)))(VP (VBG (leading))(NP (FOCUS-ADJP (FOCUS-NN (pecan))(CC (and))(NN (peanut))(VBG (growing)))(NN (state))))))) |ET| 
1.4935611922317730826392789822421  |BT| (ROOT (SBARQ (WHNP (WP (what)))(SQ (VBZ (is))(NP (FOCUS-NP (DT (the))(FOCUS-NN (population)))(PP (IN (of))(NP (NP (DT (the))(NN (capital)))(PP (IN (of))(NP (DT (the))(JJS (smallest))(NN (state))))))))(. (?)))) |ET| 
0.88907275953982822791488160873996  |BT| (ROOT (SBARQ (WHNP (WP (What)))(SQ (VBD (was))(NP (FOCUS-NP (DT (the))(FOCUS-NN (name)))(PP (IN (of))(NP (NP (DT (the))(JJ (Protestant))(NN (revolt)))(PP (IN (against))(NP (NP (DT (the))(NN (supremacy)))(PP (IN (of))(NP (DT (the))(NNP (Pope))))))))))(. (?)))) |ET| 
-1  |BT| (ROOT (FRAG (WHNP (WDT (what)))(PP (NP (JJ (italian))(NNS (restaurants)))(PP (IN (in))(NP (FOCUS-NP (DT (the))(FOCUS-NN (area)))(PP (IN (of))(NP (NNS (reimes)))))))(. (?)))) |ET| 
-1  |BT| (ROOT (SBARQ (WHPP (IN (In))(WHNP (WDT (what))(NN (year))))(SQ (VBD (was))(NP (FOCUS-NP (DT (the))(JJ (first))(FOCUS-NN (patent)))(PP (IN (for))(NP (NP (DT (the))(JJ (pull-tab))(NN (opener)))(PP (IN (on))(NP (NNS (cans)))))))(VP (VBN (obtained))))(. (?)))) |ET| 
-1  |BT| (ROOT (SBARQ (WHNP (WP (what)))(SQ (VBP (are))(NP (NP (DT (the))(JJS (best))(NNS (restaurants)))(PP (IN (around))(NP (FOCUS-NP (DT (the))(FOCUS-NN (city)))(PP (IN (of))(NP (NN (hamburg))(NN (germany))))))))(. (?)))) |ET| 
0.90671615510396885717625536926789  |BT| (ROOT (SBARQ (WHNP (WP (What)))(SQ (VBZ (is))(FOCUS-NP (DT (a))(FOCUS-NN (film)))(VP (VBG (starring))(NP (NNP (Jude))(NNP (Law))))))) |ET| 
1.5480753620580642859749787021428  |BT| (ROOT (SBARQ (WHNP (WP (What)))(SQ (VBD (was))(NP (JJ (American))(NN (folk))(NN (hero)))(FOCUS-NP (NP (NNP (John))(NNP (Chapman))(POS ('s)))(FOCUS-NN (nickname)))))) |ET| 
2.6216513517866140148271369980648  |BT| (ROOT (SBARQ (WHNP (WP (What)))(SQ (VBD (was))(FOCUS-NP (NN (football))(NN (star))(NP (NNP (Elroy))(NNP (Hirsch))(POS ('s)))(FOCUS-NN (nickname))))(. (?)))) |ET| 
-0.26850186861545971561682222272793  |BT| (ROOT (SBARQ (WHNP (WP (What)))(SQ (VBP (are))(NP (NP (FOCUS-NP (DT (the))(FOCUS-NNS (characters))(POS (')))(NNS (names)))(PP (IN (in))(NP (DT (the))(NNP (Scooby-Doo))(NN (cartoon))))))(. (?)))) |ET| 
-0.68286311877367955602835536410566  |BT| (ROOT (SBARQ (WHNP (WP (What)))(SQ (VBZ (is))(NP (DT (the)))(FOCUS-VP (FOCUS-VBG (leading))(NP (ADJP (NN (pecan))(CC (and))(NN (peanut))(VBG (growing)))(NN (state))))))) |ET| 
-0.48736344261431019386776597457356  |BT| (ROOT (SBARQ (WHNP (WP (What)))(SQ (VBZ (is))(NP (FOCUS-NP (FOCUS-NNP (Nebraska))(POS ('s)))(ADJP (JJS (most))(JJ (valuable)))(NN (resource)))))) |ET| 
2.700000000000000177635683940025  |BT| (ROOT (FRAG (PP (IN (Of))(NP (NP (NNS (children)))(PP (IN (between))(NP (NP (NP (DT (the))(NNS (ages)))(PP (IN (of))(NP (NP (CD (two)))(CC (and))(NP (NNS (eleven))))))(, (,))(SBAR (WHNP (WDT (what)))(S (NP (FOCUS-NP (FOCUS-NN (percentage))(NN (watch)))(`` (``))(NP (DT (The))(NNP (Simpsons)))('' ('')))))))))(. (?)))) |ET| 
2.700000000000000177635683940025  |BT| (ROOT (S (NP (DT (The))(NN (corpus))(NN (callosum)))(VP (VBZ (is))(PP (IN (in))(NP (FOCUS-NP (WP (what))(FOCUS-NN (part)))(PP (IN (of))(NP (DT (the))(NN (body))))))))) |ET| 
0.51312166390952385075507891087909  |BT| (ROOT (SBARQ (WHNP (WP (what)))(SQ (VBP (are))(NP (FOCUS-NP (DT (the))(JJS (best))(FOCUS-NNS (restaurants)))(PP (IN (around))(NP (NP (DT (the))(NN (city)))(PP (IN (of))(NP (NN (hamburg))(NN (germany))))))))(. (?)))) |ET| 
-1  |BT| (ROOT (FRAG (PP (IN (Of))(NP (NP (NNS (children)))(PP (IN (between))(NP (NP (NP (DT (the))(NNS (ages)))(PP (IN (of))(NP (NP (CD (two)))(CC (and))(NP (NNS (eleven))))))(, (,))(SBAR (WHNP (WDT (what)))(S (NP (FOCUS-NP (NN (percentage))(FOCUS-NN (watch)))(`` (``))(NP (DT (The))(NNP (Simpsons)))('' ('')))))))))(. (?)))) |ET| 
-1  |BT| (ROOT (FRAG (PP (IN (Of))(NP (NP (NNS (children)))(PP (IN (between))(NP (NP (NP (DT (the))(NNS (ages)))(PP (IN (of))(NP (NP (CD (two)))(CC (and))(NP (NNS (eleven))))))(, (,))(SBAR (WHNP (WDT (what)))(S (NP (NP (NN (percentage))(NN (watch)))(`` (``))(FOCUS-NP (DT (The))(FOCUS-NNP (Simpsons)))('' ('')))))))))(. (?)))) |ET| 
-1  |BT| (ROOT (FRAG (PP (IN (Of))(NP (NP (NNS (children)))(PP (IN (between))(NP (NP (FOCUS-NP (DT (the))(FOCUS-NNS (ages)))(PP (IN (of))(NP (NP (CD (two)))(CC (and))(NP (NNS (eleven))))))(, (,))(SBAR (WHNP (WDT (what)))(S (NP (NP (NN (percentage))(NN (watch)))(`` (``))(NP (DT (The))(NNP (Simpsons)))('' ('')))))))))(. (?)))) |ET| 
0.34779065725989893875791381105955  |BT| (ROOT (SBARQ (WHNP (WP (What)))(SQ (VBZ (is))(NP (FOCUS-NP (DT (the))(FOCUS-NN (temperature)))(PP (IN (for))(S (VP (VBG (baking))(NP (JJ (Peachy))(NN (Oat))(NNS (Muffins)))))))))) |ET| 
-0.15837111524638436410583608449087  |BT| (ROOT (SBARQ (WHNP (WHNP (WDT (What))(NN (continent))(POS ('s)))(NN (name)))(SQ (VP (VBZ (appears))(PP (IN (on))(NP (FOCUS-NP (DT (the))(JJ (upper))(JJ (left))(FOCUS-NN (corner)))(PP (IN (of))(NP (DT (a))(NNP (Budweiser))(NN (label))))))))(. (?)))) |ET| 
0.87196651373235778414994001650484  |BT| (ROOT (SBARQ (WHNP (WP (What)))(SQ (VBZ (is))(FOCUS-NP (DT (the))(JJ (Jewish))(FOCUS-NN (bible)))(VBG (called))))) |ET| 
-0.35631684956301135080991571157938  |BT| (ROOT (SBARQ (WHNP (WP (What)))(SQ (VBZ ('s))(FOCUS-NP (DT (the))(FOCUS-JJS (closest))(NN (G2))(NN (Spectrum))(NP (NP (JJ (Yellow))(NN (Dwarf)))(PP (TO (to))(NP (NNP (Earth))))))))) |ET| 
-0.41071233406391416398406590815284  |BT| (ROOT (SBARQ (WHNP (WP (What)))(SQ (VBZ (is))(NP (DT (a))(NN (language)))(FOCUS-VP (FOCUS-VBN (spoken))(PP (IN (by))(NP (DT (the))(NNP (Sioux)))))))) |ET| 
-1  |BT| (ROOT (SBARQ (WHNP (WP (what)))(SQ (VBZ (is))(NP (FOCUS-NP (DT (an))(JJ (original))(NN (restaurant))(FOCUS-NN (idea)))(SBAR (IN (if))(S (NP (FW (i)))(VP (VBP (am))(PP (IN (in))(NP (NN (venice)))))))))(. (?)))) |ET| 
1.0004070982060278005576492432738  |BT| (ROOT (SBARQ (FOCUS-WHNP (WDT (What))(FOCUS-NN (percentage)))(SQ (VP (ADVP (IN (of))(NP (NP (NNS (children)))(PP (IN (between))(NP (NP (DT (the))(NNS (ages)))(PP (IN (of))(NP (NP (CD (two)))(CC (and))(NP (NNS (eleven)))))))))(VBP (watch))(`` (`))(NP (DT (The))(NX (NNP (Simpsons))(POS ('))))))(. (?)))) |ET| 
2.700000000000000177635683940025  |BT| (ROOT (SBARQ (FOCUS-WHNP (WDT (What))(NN (baseball))(FOCUS-NN (outcome)))(SQ (VP (VBD (required))(NP (NP (NP (CD (nine))(NNS (balls)))(PP (IN (in))(NP (NNS (1879)))))(, (,))(NP (NP (CD (eight))(NNS (balls)))(PP (IN (in))(NP (NNP (1880)))))(CC (and))(NP (NP (CD (seven))(NNS (balls)))(PP (IN (in))(NP (CD (1881))))))))(. (?)))) |ET| 
2.700000000000000177635683940025  |BT| (ROOT (SBAR (WHNP (WDT (Which)))(S (FOCUS-NP (NN (killer))(FOCUS-NN (whale)))(VP (VBD (died))(PP (IN (at))(NP (NP (NNP (Sea))(NNP (World)))(PP (IN (of))(NP (DT (a))(JJ (fungal))(NN (infection)))))))))) |ET| 
-1  |BT| (ROOT (SBAR (WHNP (WDT (Which)))(S (FOCUS-NP (FOCUS-NN (killer))(NN (whale)))(VP (VBD (died))(PP (IN (at))(NP (NP (NNP (Sea))(NNP (World)))(PP (IN (of))(NP (DT (a))(JJ (fungal))(NN (infection)))))))))) |ET| 
-1  |BT| (ROOT (SBARQ (FOCUS-WHNP (WDT (What))(FOCUS-NN (baseball))(NN (outcome)))(SQ (VP (VBD (required))(NP (NP (NP (CD (nine))(NNS (balls)))(PP (IN (in))(NP (NNS (1879)))))(, (,))(NP (NP (CD (eight))(NNS (balls)))(PP (IN (in))(NP (NNP (1880)))))(CC (and))(NP (NP (CD (seven))(NNS (balls)))(PP (IN (in))(NP (CD (1881))))))))(. (?)))) |ET| 
-1  |BT| (ROOT (SBARQ (FOCUS-WHNP (FOCUS-WDT (What))(NN (baseball))(NN (outcome)))(SQ (VP (VBD (required))(NP (NP (NP (CD (nine))(NNS (balls)))(PP (IN (in))(NP (NNS (1879)))))(, (,))(NP (NP (CD (eight))(NNS (balls)))(PP (IN (in))(NP (NNP (1880)))))(CC (and))(NP (NP (CD (seven))(NNS (balls)))(PP (IN (in))(NP (CD (1881))))))))(. (?)))) |ET| 
2.1299351983547465394508435565513  |BT| (ROOT (SBARQ (WHNP (WP (What)))(SQ (VBZ (is))(NP (FOCUS-NP (DT (the))(RBS (most))(JJ (efficient))(FOCUS-NN (way)))(S (VP (TO (to))(VP (VB (start))(NP (DT (a))(NN (barbeque))))))))(. (?)))) |ET| 
2.6064470190775415048278773610946  |BT| (ROOT (SBARQ (WHNP (WP (What)))(SQ (VBZ (is))(NP (FOCUS-NP (DT (the))(JJS (best))(NN (Internet))(FOCUS-NN (business)))(S (VP (TO (to))(VP (VB (go))(PP (IN (into))))))))(. (?)))) |ET| 
2.5335237593529553734583714685868  |BT| (ROOT (SBARQ (WHNP (WP (What)))(SQ (VBZ (is))(NP (FOCUS-NP (DT (the))(FOCUS-NN (proof)))(SBAR (IN (that))(S (NP (NNS (houseplants)))(VP (VBZ (metabolize))(NP (NNS (carcinogens))))))))(. (?)))) |ET| 
-1  |BT| (ROOT (SBARQ (WHNP (WP (What)))(SQ (VBZ (is))(NP (FOCUS-NP (DT (the))(JJS (best))(FOCUS-NN (Internet))(NN (business)))(S (VP (TO (to))(VP (VB (go))(PP (IN (into))))))))(. (?)))) |ET| 
-1  |BT| (ROOT (SBARQ (WHNP (WP (What)))(SQ (VBZ (is))(NP (FOCUS-NP (DT (the))(FOCUS-JJS (best))(NN (Internet))(NN (business)))(S (VP (TO (to))(VP (VB (go))(PP (IN (into))))))))(. (?)))) |ET| 
-1  |BT| (ROOT (SBARQ (WHNP (WP (What)))(SQ (VBZ (is))(NP (FOCUS-NP (DT (the))(RBS (most))(FOCUS-JJ (efficient))(NN (way)))(S (VP (TO (to))(VP (VB (start))(NP (DT (a))(NN (barbeque))))))))(. (?)))) |ET| 
2.700000000000000177635683940025  |BT| (ROOT (SBARQ (FOCUS-WHNP (WDT (What))(JJ (longtime))(FOCUS-NN (game))(NN (show))(NN (host)))(SQ (VP (VBD (dropped))(ADJP (JJ (dead))(PP (IN (while))(NP (NN (jogging)))))(PP (IN (in))(NP (NP (NNP (Central))(NNP (Park)))(PP (IN (in))(NP (CD (1984)))))))))) |ET| 
2.700000000000000177635683940025  |BT| (ROOT (SBARQ (FOCUS-WHNP (WDT (What))(NNP (Hollywood))(FOCUS-NN (dog)))(SQ (VP (VBD (died))(PP (IN (in))(NP (NP (DT (the))(NNS (arms)))(PP (IN (of))(NP (NNP (Jean))(NNP (Harlow))))))(PP (IN (in))(NP (CD (1932)))))))) |ET| 
-1  |BT| (ROOT (S (NP (DT (The))(NN (corpus))(NN (callosum)))(VP (VBZ (is))(PP (IN (in))(NP (NP (WP (what))(NN (part)))(PP (IN (of))(FOCUS-NP (DT (the))(FOCUS-NN (body))))))))) |ET| 
-1  |BT| (ROOT (S (NP (NNP (Woodrow))(NNP (Wilson)))(VP (VBD (served))(PP (IN (as))(NP (FOCUS-NP (FOCUS-NN (president)))(PP (IN (of))(NP (WP (what))))))(NP (NN (university)))))) |ET| 
-1  |BT| (ROOT (SBARQ (FOCUS-WHNP (WDT (What))(FOCUS-NNP (Hollywood))(NN (dog)))(SQ (VP (VBD (died))(PP (IN (in))(NP (NP (DT (the))(NNS (arms)))(PP (IN (of))(NP (NNP (Jean))(NNP (Harlow))))))(PP (IN (in))(NP (CD (1932)))))))) |ET| 
2.700000000000000177635683940025  |BT| (ROOT (SBARQ (WHNP (WP (What)))(SQ (VBZ (is))(NP (FOCUS-NP (DT (a))(JJ (good))(FOCUS-NN (book)))(S (VP (TO (to))(VP (VB (read))(PP (IN (for))(NP (NP (NNS (people)))(SBAR (WHNP (WP (who)))(S (VP (VBP (hate))(S (VP (TO (to))(VP (VB (read)))))))))))))))(. (?)))) |ET| 
2.700000000000000177635683940025  |BT| (ROOT (SBARQ (WHNP (WDT (Which)))(SQ (VBZ (is))(NP (FOCUS-NP (DT (the))(JJ (only))(NNP (Dick))(NNP (Tracy))(FOCUS-NN (villain)))(S (VP (TO (to))(VP (VB (appear))(NP (CD (three))(NNS (times))))))))(. (?)))) |ET| 
-1  |BT| (ROOT (SBARQ (WHNP (WP (What)))(SQ (VBZ (is))(NP (FOCUS-NP (FOCUS-DT (a))(JJ (good))(NN (book)))(S (VP (TO (to))(VP (VB (read))(PP (IN (for))(NP (NP (NNS (people)))(SBAR (WHNP (WP (who)))(S (VP (VBP (hate))(S (VP (TO (to))(VP (VB (read)))))))))))))))(. (?)))) |ET| 
-0.71206244576137889268352409999352  |BT| (ROOT (SBARQ (WHNP (WP (What)))(SQ (VBZ (is))(NP (FOCUS-NP (DT (a))(FOCUS-JJ (good))(NN (book)))(S (VP (TO (to))(VP (VB (read))(PP (IN (for))(NP (NP (NNS (people)))(SBAR (WHNP (WP (who)))(S (VP (VBP (hate))(S (VP (TO (to))(VP (VB (read)))))))))))))))(. (?)))) |ET| 
-1  |BT| (ROOT (SBARQ (WHNP (WP (What)))(SQ (VBZ (is))(NP (NP (DT (a))(JJ (good))(NN (book)))(S (VP (TO (to))(VP (VB (read))(PP (IN (for))(NP (FOCUS-NP (FOCUS-NNS (people)))(SBAR (WHNP (WP (who)))(S (VP (VBP (hate))(S (VP (TO (to))(VP (VB (read)))))))))))))))(. (?)))) |ET| 
2.700000000000000177635683940025  |BT| (ROOT (SINV (FRAG (FOCUS-WHNP (WDT (What))(JJ (Russian))(NN (master))(FOCUS-NN (spy))))(VP (VBD (lived))(PP (IN (in))(NP (DT (the))(NNP (U.S.))))(PP (IN (under))(NP (DT (the))(NN (name)))))(NP (NNP (Emil))(NNP (Goldfus))))) |ET| 
2.700000000000000177635683940025  |BT| (ROOT (SBARQ (FOCUS-WHNP (WDT (Which))(JJ (Japanese))(NN (car))(FOCUS-NN (maker)))(SQ (VP (VBD (had))(NP (NP (PRP$ (its))(JJS (biggest))(NN (percentage)))(PP (IN (of))(NP (NN (sale)))))(PP (IN (in))(NP (DT (the))(JJ (domestic))(NN (market)))))))) |ET| 
2.700000000000000177635683940025  |BT| (ROOT (S (NP (DT (The))(NNPS (Iraqis)))(VP (VBD (launched))(NP (PRP$ (their))(NN (attack)))(PP (IN (on))(NP (NNP (Kuwait))))(PP (IN (on))(NP (WP (what))))(FOCUS-NP-TMP (FOCUS-NN (day))))(. (?)))) |ET| 
0.34309581044574699593141531295259  |BT| (ROOT (SBARQ (WHNP (WP (What)))(SQ (VBD (was))(NP (FOCUS-NP (DT (the))(FOCUS-NN (name)))(PP (IN (of))(NP (NP (DT (the))(NN (daughter)))(PP (IN (of))(NP (DT (the))(NNP (Virginia))(NN (chief))(NNP (Powhatan))))(SBAR (WHNP (WDT (that)))(S (VP (VBD (married))(NP (NNP (John))(NNP (Rolfe)))))))))))) |ET| 
-1  |BT| (ROOT (SINV (FRAG (WHNP (WDT (What))(JJ (Russian))(NN (master))(NN (spy))))(VP (VBD (lived))(PP (IN (in))(NP (DT (the))(NNP (U.S.))))(PP (IN (under))(FOCUS-NP (DT (the))(FOCUS-NN (name)))))(NP (NNP (Emil))(NNP (Goldfus))))) |ET| 
-1  |BT| (ROOT (SBARQ (WHNP (WP (what)))(SQ (VBP (are))(NP (FOCUS-NP (DT (the))(FOCUS-JJS (cheapest))(NNS (hostels)))(PP (IN (in))(NP (NN (chihuahua))(CD (0))(NN (mexico))))))(. (?)))) |ET| 
0.73071725948910726256002590162097  |BT| (ROOT (FRAG (NP (FOCUS-NP (DT (some))(JJ (good))(JJ (cheap))(FOCUS-NNS (places)))(SBAR (S (VP (TO (to))(VP (VB (eat))(PP (IN (near))(NP (NN (irmo))(NN (sc)))))))))(. (?)))) |ET| 
2.700000000000000177635683940025  |BT| (ROOT (FRAG (ADVP (RB (best)))(NP (FOCUS-NP (FOCUS-NNS (resorts)))(SBAR (S (VP (TO (to))(VP (VB (stay))(PP (IN (in))(PP (IN (on))(NP (NNS (barbados))))))))))(. (?)))) |ET| 
2.6346499182350573420308137428947  |BT| (ROOT (FRAG (NP (FOCUS-NP (JJ (free))(JJ (interesting))(FOCUS-NNS (places)))(SBAR (S (VP (TO (to))(VP (VB (see))(PP (IN (in))(NP (JJ (central))(NN (london)))))))))(. (?)))) |ET| 
-1  |BT| (ROOT (SBARQ (WHNP (WDT (Which)))(SQ (VBZ (is))(NP (FOCUS-NP (DT (the))(JJ (only))(FOCUS-NNP (Dick))(NNP (Tracy))(NN (villain)))(S (VP (TO (to))(VP (VB (appear))(NP (CD (three))(NNS (times))))))))(. (?)))) |ET| 
-1  |BT| (ROOT (SBARQ (WHNP (WDT (Which)))(SQ (VBZ (is))(NP (FOCUS-NP (DT (the))(JJ (only))(NNP (Dick))(FOCUS-NNP (Tracy))(NN (villain)))(S (VP (TO (to))(VP (VB (appear))(NP (CD (three))(NNS (times))))))))(. (?)))) |ET| 
-1  |BT| (ROOT (SBARQ (WHNP (WDT (Which)))(SQ (VBZ (is))(NP (FOCUS-NP (DT (the))(FOCUS-JJ (only))(NNP (Dick))(NNP (Tracy))(NN (villain)))(S (VP (TO (to))(VP (VB (appear))(NP (CD (three))(NNS (times))))))))(. (?)))) |ET| 
1.3413985310095335456992415856803  |BT| (ROOT (SBARQ (WHNP (WP (what)))(SQ (VBP (are))(NP (FOCUS-NP (DT (the))(JJS (cheapest))(FOCUS-NNS (hostels)))(PP (IN (in))(NP (NN (chihuahua))(CD (0))(NN (mexico))))))(. (?)))) |ET| 
2.356106479228353478561075462494  |BT| (ROOT (SBARQ (WHNP (WP (What)))(SQ (VBP (are))(NP (FOCUS-NP (DT (the))(ADJP (RBS (most))(JJ (common)))(NN (breeding))(FOCUS-NNS (birds)))(PP (IN (in))(NP (DT (the))(NNP (U.S.)))))))) |ET| 
2.1711643459092822006084588792874  |BT| (ROOT (SBARQ (WHNP (WP (What)))(SQ (VBP (are))(NP (FOCUS-NP (DT (the))(CD (five))(ADJP (RBS (most))(JJ (expensive)))(FOCUS-NNS (cities)))(PP (IN (in))(NP (DT (the))(NN (world)))))))) |ET| 
-0.08331249073022903295360208630882  |BT| (ROOT (SBARQ (WHNP (WDT (What))(CD (two))(ADJP (JJ (South))(JJ (American)))(NNS (countries)))(SQ (FOCUS-VP (VBP (do))(FOCUS-RB (n't))(VP (VB (border))(NP (NNP (Brazil)))))))) |ET| 
-1  |BT| (ROOT (SBARQ (WHNP (WP (What)))(SQ (VBP (are))(NP (FOCUS-NP (DT (the))(FOCUS-NN (living))(NNS (conditions)))(PP (IN (in))(NP (NNP (Cuba)))))))) |ET| 
-1  |BT| (ROOT (SBARQ (WHNP (WP (What)))(SQ (VBP (are))(NP (FOCUS-NP (FOCUS-DT (some)))(PP (IN (of))(NP (NP (DT (the))(JJ (significant))(JJ (historical))(NNS (events)))(PP (IN (of))(NP (DT (the))(NNS (1990s)))))))))) |ET| 
-1  |BT| (ROOT (SBARQ (WHNP (WP (What)))(SQ (VBP (are))(NP (FOCUS-NP (DT (the))(ADJP (RBS (most))(JJ (common)))(FOCUS-NN (breeding))(NNS (birds)))(PP (IN (in))(NP (DT (the))(NNP (U.S.)))))))) |ET| 
1.0309740291134359413405263694585  |BT| (ROOT (SBARQ (FOCUS-WHNP (WDT (What))(NN (auto))(FOCUS-NN (race)))(SQ (VBD (was))(NP (NNP (Wilbur))(NNP (Reed)))(NP (NP (DT (the))(JJ (first)))(S (VP (TO (to))(VP (VB (win))(NP (CD (three))(NNS (times)))))))))) |ET| 
1.1769935561633435572304051675019  |BT| (ROOT (SBARQ (WHNP (WDT (which)))(SQ (FOCUS-VP (FOCUS-VBZ (states))(NP (NN (border))(NN (arizona)))))(. (?)))) |ET| 
1.204987867880086938043859845493  |BT| (ROOT (SBARQ (WHNP (WDT (which)))(SQ (FOCUS-VP (FOCUS-VBZ (states))(NP (NN (border))(NN (kentucky)))))(. (?)))) |ET| 
-1  |BT| (ROOT (SBARQ (WHNP (WDT (which)))(SQ (FOCUS-VP (FOCUS-VBZ (states))(NP (NN (border))(NNS (texas)))))(. (?)))) |ET| 
-1  |BT| (ROOT (SBARQ (FOCUS-WHNP (WDT (What))(FOCUS-NN (auto))(NN (race)))(SQ (VBD (was))(NP (NNP (Wilbur))(NNP (Reed)))(NP (NP (DT (the))(JJ (first)))(S (VP (TO (to))(VP (VB (win))(NP (CD (three))(NNS (times)))))))))) |ET| 
-0.9503920965301669854241595203348  |BT| (ROOT (FRAG (NP (FOCUS-NP (JJ (free))(FOCUS-JJ (interesting))(NNS (places)))(SBAR (S (VP (TO (to))(VP (VB (see))(PP (IN (in))(NP (JJ (central))(NN (london)))))))))(. (?)))) |ET| 
1.5741945198677291806177436228609  |BT| (ROOT (SBARQ (WHNP (WP (What)))(SQ (VBP (are))(NP (FOCUS-NP (DT (the))(NN (living))(FOCUS-NNS (conditions)))(PP (IN (in))(NP (NNP (Cuba)))))))) |ET| 
0.441069191500750967804833635455  |BT| (ROOT (SBARQ (WHNP (WP (What)))(SQ (VBP (are))(NP (FOCUS-NP (DT (the))(FOCUS-NNS (names)))(PP (IN (of))(NP (NP (DT (the))(NN (tourist))(NNS (attractions)))(PP (IN (in))(NP (NNP (Reims)))))))))) |ET| 
2.700000000000000177635683940025  |BT| (ROOT (SBARQ (WHNP (WP (What)))(SQ (VBP (are))(NP (FOCUS-NP (DT (the))(CD (three))(NN (winter))(FOCUS-NNS (months)))(PP (IN (in))(NP (DT (the))(JJ (southern))(NN (hemisphere)))))))) |ET| 
-1  |BT| (ROOT (SBARQ (WHNP (WP (What)))(SQ (VBP (are))(NP (FOCUS-NP (DT (the))(FOCUS-CD (three))(NN (winter))(NNS (months)))(PP (IN (in))(NP (DT (the))(JJ (southern))(NN (hemisphere)))))))) |ET| 
-1  |BT| (ROOT (SBARQ (WHNP (WP (What)))(SQ (VBP (are))(NP (FOCUS-NP (DT (the))(CD (three))(FOCUS-NN (winter))(NNS (months)))(PP (IN (in))(NP (DT (the))(JJ (southern))(NN (hemisphere)))))))) |ET| 
-1  |BT| (ROOT (SBARQ (WHNP (WP (What)))(SQ (VBP (are))(NP (NP (DT (the))(NNS (names)))(PP (IN (of))(NP (FOCUS-NP (DT (the))(NN (tourist))(FOCUS-NNS (attractions)))(PP (IN (in))(NP (NNP (Reims)))))))))) |ET| 
2.3056139115095368730123936984455  |BT| (ROOT (SBARQ (WHNP (WDT (which)))(SQ (FOCUS-VP (FOCUS-VBZ (states))(NP (NN (border))(JJ (new))(NN (york)))))(. (?)))) |ET| 
2.700000000000000177635683940025  |BT| (ROOT (S (VP (VB (Name))(NP (FOCUS-NP (DT (a))(FOCUS-NN (technique)))(VP (ADVP (RB (widely)))(VBN (used))(S (VP (TO (to))(VP (VB (detect))(NP (NN (birth))(NNS (defects))))))))))) |ET| 
2.700000000000000177635683940025  |BT| (ROOT (SBARQ (SBAR (WHADVP (WRB (When)))(S (NP (PRP (it)))(VP (VBZ ('s))(NP (NN (time))(S (VP (TO (to))(VP (VB (relax)))))))))(, (,))(FOCUS-WHNP (WDT (what))(CD (one))(FOCUS-NN (beer)))(SQ (VP (VBZ (stands))(ADJP (JJ (clear)))))(. (?)))) |ET| 
-1  |BT| (ROOT (SBARQ (SBAR (WHADVP (WRB (When)))(S (NP (PRP (it)))(VP (VBZ ('s))(NP (NN (time))(S (VP (TO (to))(VP (VB (relax)))))))))(, (,))(FOCUS-WHNP (WDT (what))(FOCUS-CD (one))(NN (beer)))(SQ (VP (VBZ (stands))(ADJP (JJ (clear)))))(. (?)))) |ET| 
-0.30615734758237445056749947980279  |BT| (ROOT (SBARQ (SBAR (WHADVP (WRB (When)))(S (NP (PRP (it)))(VP (VBZ ('s))(NP (NN (time))(S (VP (TO (to))(VP (VB (relax)))))))))(, (,))(FOCUS-WHNP (FOCUS-WDT (what))(CD (one))(NN (beer)))(SQ (VP (VBZ (stands))(ADJP (JJ (clear)))))(. (?)))) |ET| 
-0.43885937146203429781721183644549  |BT| (ROOT (SBARQ (WHNP (WDT (What))(NN (phone))(NN (number)))(SQ (MD (can))(NP (PRP (I)))(VP (VB (call))(S (VP (TO (to))(VP (VB (have))(NP (FOCUS-NP (DT (a))(FOCUS-NN (tree)))(VP (VBN (planted)))))))))(. (?)))) |ET| 
2.2836206041922655352038873388665  |BT| (ROOT (SBARQ (WHNP (WP (What)))(SQ (VBP (are))(NP (FOCUS-NP (DT (the))(JJ (distinct))(JJ (physical))(FOCUS-NNS (characteristics)))(PP (IN (of))(NP (DT (the))(JJ (Arabian))(NN (horse)))))))) |ET| 
2.1715651699128151186357627011603  |BT| (ROOT (SBARQ (WHNP (WP (What)))(SQ (VBP (are))(NP (FOCUS-NP (DT (the))(JJ (top))(CD (ten))(ADJP (RBS (most))(JJ (common)))(NN (girl))(FOCUS-NNS (names)))(PP (IN (in))(NP (DT (the))(NNP (US)))))))) |ET| 
1.2426250426287708261696707268129  |BT| (ROOT (SBARQ (WHNP (WP (What)))(SQ (VBP (are))(NP (FOCUS-NP (DT (the))(CD (7))(FOCUS-NNS (articles)))(PP (IN (of))(NP (DT (the))(NN (constitution)))))))) |ET| 
-1  |BT| (ROOT (SBARQ (WHNP (WP (What)))(SQ (VBP (are))(NP (FOCUS-NP (DT (the))(FOCUS-JJ (distinct))(JJ (physical))(NNS (characteristics)))(PP (IN (of))(NP (DT (the))(JJ (Arabian))(NN (horse)))))))) |ET| 
-1  |BT| (ROOT (SBARQ (WHNP (WP (What)))(SQ (VBP (are))(NP (FOCUS-NP (DT (the))(JJ (distinct))(FOCUS-JJ (physical))(NNS (characteristics)))(PP (IN (of))(NP (DT (the))(JJ (Arabian))(NN (horse)))))))) |ET| 
-1  |BT| (ROOT (SBARQ (WHNP (WP (What)))(SQ (VBP (are))(NP (FOCUS-NP (DT (the))(FOCUS-CD (five))(ADJP (RBS (most))(JJ (expensive)))(NNS (cities)))(PP (IN (in))(NP (DT (the))(NN (world)))))))) |ET| 
0.49066744868070277796334721642779  |BT| (ROOT (SBARQ (FOCUS-WHNP (WDT (What))(NN (phone))(FOCUS-NN (number)))(SQ (MD (can))(NP (PRP (I)))(VP (VB (call))(S (VP (TO (to))(VP (VB (have))(NP (NP (DT (a))(NN (tree)))(VP (VBN (planted)))))))))(. (?)))) |ET| 
2.700000000000000177635683940025  |BT| (ROOT (SBAR (WHNP (WDT (Which)))(S (NP (FOCUS-NP (FOCUS-NN (mosquito))(POS ('s)))(NN (bite)))(VP (VBZ (draws))(NP (NN (blood))))))) |ET| 
2.700000000000000177635683940025  |BT| (ROOT (SBARQ (WHNP (WDT (Which))(NNP (Ventura))(NNP (County))(NN (police)))(SQ (FOCUS-NP (FOCUS-NN (department)))(VP (VBD (seized))(SBAR (S (NP (NP (DT (the))(JJS (largest))(NN (cocaine))(NN (shipment)))(PP (IN (in))(NP (PRP (it)))))(VP (VBZ ('s))(NP (NN (history)))))))))) |ET| 
-1  |BT| (ROOT (SBARQ (FOCUS-WHNP (FOCUS-WDT (which)))(SQ (VP (VBZ (states))(NP (NN (border))(JJ (new))(NN (york)))))(. (?)))) |ET| 
-0.60269536346822194516903437033761  |BT| (ROOT (SBARQ (FOCUS-WHNP (WDT (Which))(FOCUS-NNP (Ventura))(NNP (County))(NN (police)))(SQ (NP (NN (department)))(VP (VBD (seized))(SBAR (S (NP (NP (DT (the))(JJS (largest))(NN (cocaine))(NN (shipment)))(PP (IN (in))(NP (PRP (it)))))(VP (VBZ ('s))(NP (NN (history)))))))))) |ET| 
-0.38882786768206967220606884438894  |BT| (ROOT (SBARQ (FOCUS-WHNP (WDT (Which))(NNP (Ventura))(FOCUS-NNP (County))(NN (police)))(SQ (NP (NN (department)))(VP (VBD (seized))(SBAR (S (NP (NP (DT (the))(JJS (largest))(NN (cocaine))(NN (shipment)))(PP (IN (in))(NP (PRP (it)))))(VP (VBZ ('s))(NP (NN (history)))))))))) |ET| 
0.42144842699562123922163436873234  |BT| (ROOT (SBARQ (WHNP (WP (What)))(SQ (VBP (are))(NP (FOCUS-NP (DT (the))(JJ (different))(FOCUS-NNS (approaches)))(PP (IN (of))(NP (NNS (systems))(NN (analysis)))))))) |ET| 
-0.064184421618948009347072058972117  |BT| (ROOT (SQ (VBP (are))(NP (EX (there)))(PP (NP (DT (any))(NN (sport))(NNS (events)))(PP (NP (DT (this))(NN (month)))(IN (in))(FOCUS-NP (FOCUS-NN (panama)))))(. (?)))) |ET| 
0.38752492746865818684653959280695  |BT| (ROOT (SBARQ (WHNP (WP (What)))(SQ (VBP (are))(NP (FOCUS-NP (DT (the))(JJ (developmental))(FOCUS-NNS (stages)))(PP (IN (of))(NP (DT (a))(NN (swimmer)))))))) |ET| 
-0.90603950808323585608405892344308  |BT| (ROOT (SBARQ (WHNP (WP (What)))(SQ (VBP (are))(NP (FOCUS-NP (DT (the))(FOCUS-JJ (developmental))(NNS (stages)))(PP (IN (of))(NP (DT (a))(NN (swimmer)))))))) |ET| 
-0.47249868057980509705728877634101  |BT| (ROOT (SBARQ (WHNP (WP (What)))(SQ (VBP (are))(NP (FOCUS-NP (DT (the))(FOCUS-JJ (different))(NNS (approaches)))(PP (IN (of))(NP (NNS (systems))(NN (analysis)))))))) |ET| 
-0.22595177570339750050543159431982  |BT| (ROOT (SBARQ (WHNP (WP (What)))(SQ (VBP (are))(NP (FOCUS-NP (DT (the))(FOCUS-JJ (different))(NNS (types)))(PP (IN (of))(NP (NN (plastic)))))))) |ET| 
2.700000000000000177635683940025  |BT| (ROOT (SBARQ (FOCUS-WHNP (WDT (Which))(NN (hair))(NN (care))(FOCUS-NN (product)))(SQ (VBD (told))(NP (PRP (us)))(VP (VB (hate))(S (NP (DT (that))(JJ (gray))(NN (wash)))(NP (PRP (it))))(ADVP (RB (away))))))) |ET| 
2.700000000000000177635683940025  |BT| (ROOT (SBARQ (WHNP (WDT (what))(NP (NP (NNS (3-stars)))(FOCUS-NP (FOCUS-NN (hotel)))))(SQ (VP (VBZ (has))(NP (NP (DT (the))(JJS (lowest))(NNS (prices)))(PP (IN (in))(NP (NN (bristol)))))))(. (?)))) |ET| 
2.700000000000000177635683940025  |BT| (ROOT (S (SBAR (FOCUS-WHNP (WDT (What))(JJ (French))(FOCUS-NN (designer)))(S (VP (VBD (declared)))))(: (:))(`` (``))(NP (DT (The))(NN (jean)))(VP (VBZ (is))(NP (DT (the))(NN (destructor))))(. (!)))(S (NP (PRP (It)))(VP (VBZ (is))(NP (DT (a))(NN (dictator))))(. (!)))(S (NP (PRP (It)))(VP (VBZ (is))(VP (VBG (destroying))(NP (NN (creativity)))))(. (.)))(S (NP (DT (The))(NN (jean)))(VP (MD (must))(VP (VB (be))(VP (VBN (stopped)))))(. (!))('' ('')))(NP (. (?)))) |ET| 
-0.57412630996630642510325515104341  |BT| (ROOT (FRAG (FOCUS-ADVP (FOCUS-RB (best)))(NP (NP (NNS (resorts)))(SBAR (S (VP (TO (to))(VP (VB (stay))(PP (IN (in))(PP (IN (on))(NP (NNS (barbados))))))))))(. (?)))) |ET| 
-0.7441177363434421376808813874959  |BT| (ROOT (FRAG (SBAR (WHNP (WDT (What)))(FRAG (NP (NP (FOCUS-NP (FOCUS-NNP (Vladimir))(NNP (Nabokov))(JJ (novel))(NNS (features)))(NP (NNP (Professor))(NNP (Humbert))))(PP (IN (in))(NP (NP (NN (love)))(PP (IN (with))(NP (DT (a))(JJ (12-year-old))(NN (girl))))))))))) |ET| 
-0.74411773634344680061758481315337  |BT| (ROOT (FRAG (SBAR (WHNP (WDT (What)))(FRAG (NP (NP (FOCUS-NP (NNP (Vladimir))(FOCUS-NNP (Nabokov))(JJ (novel))(NNS (features)))(NP (NNP (Professor))(NNP (Humbert))))(PP (IN (in))(NP (NP (NN (love)))(PP (IN (with))(NP (DT (a))(JJ (12-year-old))(NN (girl))))))))))) |ET| 
-0.15248535320913142454557487326383  |BT| (ROOT (SBARQ (SBAR (WHADVP (WRB (When)))(S (FOCUS-NP (NNP (Mighty))(FOCUS-NN (Mouse)))(VP (VBD (was))(VP (VBN (conceived))))))(, (,))(WHNP (WP (what)))(SQ (VBD (was))(NP (PRP$ (his))(JJ (original))(NN (name))))(. (?)))) |ET| 
2.2861098634480647717737156199291  |BT| (ROOT (SBARQ (WHNP (WP (What)))(SQ (VBP (are))(NP (FOCUS-NP (DT (the))(JJ (first))(FOCUS-NNS (names)))(PP (IN (of))(NP (NP (NNP (Rowan))(CC (and))(NNP (Martin)))(NP (NP (DT (the))(NNS (stars)))(PP (IN (of))(NP (NP (NN (TV))(POS ('s)))(NNP (Laugh-In))))))))))) |ET| 
-1  |BT| (ROOT (SBARQ (WHNP (WP (What)))(SQ (VBP (are))(NP (NP (DT (the))(JJ (first))(NNS (names)))(PP (IN (of))(NP (NP (NNP (Rowan))(CC (and))(NNP (Martin)))(NP (FOCUS-NP (DT (the))(FOCUS-NNS (stars)))(PP (IN (of))(NP (NP (NN (TV))(POS ('s)))(NNP (Laugh-In))))))))))) |ET| 
-1  |BT| (ROOT (SBARQ (WHNP (WP (What)))(SQ (VBP (are))(NP (FOCUS-NP (DT (the))(FOCUS-CD (7))(NNS (articles)))(PP (IN (of))(NP (DT (the))(NN (constitution)))))))) |ET| 
-0.45489505261239499001035824221617  |BT| (ROOT (SBARQ (WHNP (WP (What)))(SQ (VBZ (is))(NP (FOCUS-NP (DT (the))(FOCUS-NN (goat))(NN (population)))(PP (IN (of))(NP (DT (the))(NN (world))))))(. (?)))) |ET| 
2.700000000000000177635683940025  |BT| (ROOT (FRAG (SBAR (WHNP (WDT (What)))(FRAG (NP (NP (FOCUS-NP (NNP (U.S.))(FOCUS-NN (state))(NNS (borders)))(NP (NNP (Illinois))))(PP (TO (to))(NP (DT (the))(NN (north))))))))) |ET| 
2.700000000000000177635683940025  |BT| (ROOT (FRAG (WHNP (WDT (What)))(PP (NP (NNP (Marx))(NNPS (Brothers)))(PP (FOCUS-NP (FOCUS-NN (movie))(NNS (centers)))(IN (on))(NP (DT (a))(JJ (stolen))(NN (painting)))))(. (?)))) |ET| 
2.700000000000000177635683940025  |BT| (ROOT (SBARQ (WHADVP (WRB (where)))(SQ (MD (can))(NP (FW (i)))(VP (VB (find))(FOCUS-NP (DT (a))(FOCUS-NN (room))(S (VP (TO (to))(VP (VB (spend))(NP (NP (DT (some))(RB (quite))(NN (time)))(PP (IN (in))(NP (NN (madrid)))))))))))(. (?)))) |ET| 
-1  |BT| (ROOT (FRAG (WHNP (WDT (What)))(PP (NP (NNP (Marx))(NNPS (Brothers)))(PP (NP (NN (movie))(NNS (centers)))(IN (on))(FOCUS-NP (DT (a))(JJ (stolen))(FOCUS-NN (painting)))))(. (?)))) |ET| 
-0.34771590534366281222133920891793  |BT| (ROOT (SBARQ (FOCUS-WHNP (FOCUS-WDT (Which))(NN (hair))(NN (care))(NN (product)))(SQ (VBD (told))(NP (PRP (us)))(VP (VB (hate))(S (NP (DT (that))(JJ (gray))(NN (wash)))(NP (PRP (it))))(ADVP (RB (away))))))) |ET| 
-1  |BT| (ROOT (SBARQ (FOCUS-WHNP (WDT (Which))(FOCUS-NN (hair))(NN (care))(NN (product)))(SQ (VBD (told))(NP (PRP (us)))(VP (VB (hate))(S (NP (DT (that))(JJ (gray))(NN (wash)))(NP (PRP (it))))(ADVP (RB (away))))))) |ET| 
2.700000000000000177635683940025  |BT| (ROOT (SBARQ (WHNP (WP (What)))(SQ (VBZ ('s))(NP (FOCUS-NP (DT (the))(VBN (colored))(FOCUS-NN (part)))(PP (IN (of))(NP (NP (DT (the))(NN (eye)))(VP (VBN (called))))))))) |ET| 
2.700000000000000177635683940025  |BT| (ROOT (SBARQ (WHNP (WP (What)))(SQ (VBZ (is))(NP (DT (the))(JJ (normal))(NP (FOCUS-NP (VBG (resting))(NN (heart))(FOCUS-NN (rate)))(PP (IN (of))(NP (DT (a))(JJ (healthy))(NN (adult))))))))) |ET| 
-0.41235779041258674437742115514993  |BT| (ROOT (SBARQ (WHNP (WDT (What))(NNP (Dickens))(NN (novel)))(SQ (FOCUS-VP (FOCUS-VBZ (has))(NP (NP (NNP (David)))(VP (VBG (carrying))(NP (NP (DT (the))(NN (message))(`` (``))(NX (S (NP (NNP (Barkis)))(VP (VBZ (is))(ADJP (JJ (willin))))))('' ('')))(PP (TO (to))(NP (NNP (Peggy)))))))))(. (?)))) |ET| 
-1  |BT| (ROOT (SBARQ (WHNP (WP (What)))(SQ (VBZ ('s))(NP (FOCUS-NP (DT (the))(FOCUS-VBN (colored))(NN (part)))(PP (IN (of))(NP (NP (DT (the))(NN (eye)))(VP (VBN (called))))))))) |ET| 
-1  |BT| (ROOT (SBARQ (WHNP (WP (What)))(SQ (VBZ (is))(NP (DT (the))(JJ (normal))(NP (FOCUS-NP (FOCUS-VBG (resting))(NN (heart))(NN (rate)))(PP (IN (of))(NP (DT (a))(JJ (healthy))(NN (adult))))))))) |ET| 
-1  |BT| (ROOT (SBARQ (WHNP (WP (What)))(SQ (VBZ (is))(NP (DT (the))(JJ (normal))(NP (FOCUS-NP (VBG (resting))(FOCUS-NN (heart))(NN (rate)))(PP (IN (of))(NP (DT (a))(JJ (healthy))(NN (adult))))))))) |ET| 
2.700000000000000177635683940025  |BT| (ROOT (FRAG (SBARQ (WHNP (WHNP (WDT (Which))(NN (radio)))(NP (FOCUS-NP (FOCUS-NNS (stations))(NN (air)))(NP (DT (the))(NNP (Jim))(NNP (Bohannon))(NNP (Radio))(NN (Talk))(NN (Show)))))(. (?))))) |ET| 
2.700000000000000177635683940025  |BT| (ROOT (SBARQ (WHNP (FOCUS-WHNP (WDT (What))(FOCUS-NN (president))(POS ('s)))(JJ (favorite))(JJ (Biblical))(NN (quotation)))(SQ (VBD (was))(: (:))(S (VP (`` (``))(VB (Come))(ADVP (RB (now))))(, (,))(CC (and))(VP (VB (let))(S (NP (PRP (us)))(NP (NP (NN (reason)))(ADVP (RB (together))('' (''))))))))(. (.)))) |ET| 
2.700000000000000177635683940025  |BT| (ROOT (SBARQ (WHPP (IN (For))(WHNP (WDT (what))(FOCUS-NP (FOCUS-NN (reason)))))(SQ (VBD (did))(NP (DT (some))(NNP (San))(NNP (Diego))(NNS (schools)))(VP (VB (stop))(S (VP (VBG (serving))(NP (NNS (apples)))))))(. (?)))) |ET| 
-1  |BT| (ROOT (FRAG (SBARQ (WHNP (FOCUS-WHNP (WDT (Which))(FOCUS-NN (radio)))(NP (NP (NNS (stations))(NN (air)))(NP (DT (the))(NNP (Jim))(NNP (Bohannon))(NNP (Radio))(NN (Talk))(NN (Show)))))(. (?))))) |ET| 
-1  |BT| (ROOT (SBARQ (WHPP (IN (For))(WHNP (WDT (what))(NP (NN (reason)))))(SQ (VBD (did))(NP (DT (some))(NNP (San))(NNP (Diego))(NNS (schools)))(VP (VB (stop))(S (VP (VBG (serving))(FOCUS-NP (FOCUS-NNS (apples)))))))(. (?)))) |ET| 
-1  |BT| (ROOT (NP (FOCUS-NP (FOCUS-JJS (closest))(NN (subway))(NN (station)))(PP (IN (near))(NP (NN (naraina))(CD (0))(NNS (delhi))))(. (?)))) |ET| 
-0.26383105469326662007034656198812  |BT| (ROOT (SQ (VP (VB (Name))(PP (IN (of))(NP (NN (scholar))))(PP (IN (on))(SBAR (WHNP (WP$ (whose))(NP (FOCUS-NP (FOCUS-JJ (literal))(NNS (translations)))(PP (IN (from))(NP (DT (the))(JJ (Chinese))(CC (and))(JJ (Japanese))))))(S (NP (NNP (Ezra))(NNP (Pound)))(VP (VBD (depended)))))))(. (?)))) |ET| 
2.700000000000000177635683940025  |BT| (ROOT (SBARQ (WHNP (WP (Who)))(SQ (VBZ (is))(NP (FOCUS-NP (DT (the))(FOCUS-JJS (youngest)))(PP (IN (of))(NP (DT (the))(NNS (Beatles)))))))) |ET| 
-0.27964861187996664648736100389215  |BT| (ROOT (SBARQ (WHNP (WP (What)))(SQ (VBP (are))(NP (NP (DT (the))(NNS (words)))(FOCUS-PP (TO (to))(`` (``))(NP (PRP$ (My))(NN (Way)))(FOCUS-'' (''))))(VP (VBN (written))(PP (IN (by))(NP (NNP (Paul))(NNP (Anka))))))(. (?)))) |ET| 
-1  |BT| (ROOT (SBARQ (WHNP (WP (What)))(SQ (VBZ (is))(NP (FOCUS-NP (DT (the))(FOCUS-NN (state))(NN (nickname)))(PP (IN (of))(NP (NNP (Mississippi)))))))) |ET| 
-1  |BT| (ROOT (SBARQ (WHNP (WP (Who)))(SQ (VBZ (is))(NP (FOCUS-NP (FOCUS-DT (the))(JJS (youngest)))(PP (IN (of))(NP (DT (the))(NNS (Beatles)))))))) |ET| 
-0.24587151613899449476008385317982  |BT| (ROOT (SBARQ (WHNP (WP (What)))(SQ (VBZ ('s))(NP (FOCUS-NP (DT (the))(FOCUS-JJS (tallest))(NN (piece)))(PP (IN (on))(NP (DT (a))(NN (chessboard)))))))) |ET| 
-0.12236342893128192288454414438092  |BT| (ROOT (SBARQ (SBAR (FOCUS-WHADVP (FOCUS-WRB (When)))(S (NP (DT (the))(NNP (Tutankhamun))(NN (exhibit)))(VP (VBD (was))(PP (IN (on))(NP (NP (NN (display)))(PP (IN (in))(NP (DT (the))(NNP (U.S.)))))))))(, (,))(WHNP (WP (what)))(S (VP (VBG (moving))(SBAR (S (NP (NN (company)))(VP (VBD (transported))(NP (PRP (it))))))))(. (?)))) |ET| 
-0.59106759150426391169474982234533  |BT| (ROOT (SBARQ (WHNP (WP (Who)))(SQ (VP (VBD (served))(PP (IN (as))(NP (NN (inspiration))))(PP (IN (for))(NP (NP (DT (the))(NN (schoolteacher)))(VP (VBN (portrayed))(PP (IN (by))(NP (FOCUS-NP (NNP (Robin))(FOCUS-NNP (Williams)))(PP (IN (in))(`` (``))(NP (NP (JJ (Dead))(NNS (Poets)))(NP (NNP (Society))))('' (''))))))))))(. (?)))) |ET| 
-0.018110899576716681103061290514233  |BT| (ROOT (SBARQ (WHNP (WP (What)))(FOCUS-SQ (FOCUS-VBZ (is))(NP (DT (the)))(VP (VBG (leading))(NP (ADJP (NN (pecan))(CC (and))(NN (peanut))(VBG (growing)))(NN (state))))))) |ET| 
-0.59753392026029539252363065315876  |BT| (ROOT (SBARQ (WHPP (IN (For))(FOCUS-WHNP (FOCUS-WDT (what))(NP (NN (reason)))))(SQ (VBD (did))(NP (DT (some))(NNP (San))(NNP (Diego))(NNS (schools)))(VP (VB (stop))(S (VP (VBG (serving))(NP (NNS (apples)))))))(. (?)))) |ET| 
-1  |BT| (ROOT (SBARQ (WHNP (WDT (What))(NNP (Judith))(NNP (Rossner))(NN (novel)))(SQ (VBD (was))(VP (VBN (made))(PP (IN (into))(NP (FOCUS-NP (DT (a))(FOCUS-NN (film)))(VP (VBG (starring))(NP (NNP (Diane))(NNP (Keaton)))))))))) |ET| 
-0.27379141515479682444933473561832  |BT| (ROOT (SBARQ (WHNP (WDT (What))(NN (singer)))(SQ (VP (VP (VBD (became))(JJ (despondent))(PP (IN (over))(NP (FOCUS-NP (DT (the))(FOCUS-NN (death)))(PP (IN (of))(NP (NNP (Freddie))(NNP (Prinze)))))))(, (,))(VP (VBD (quit))(NP (NN (show))(NN (business))))(, (,))(CC (and))(VP (ADVP (RB (then)))(VB (quit))(NP (DT (the))(NN (business))))))(. (?)))) |ET| 
0.33010900438380891275258477435273  |BT| (ROOT (SBARQ (WHNP (WP (What)))(SQ (VBZ (is))(NP (FOCUS-NP (DT (the))(NN (state))(FOCUS-NN (nickname)))(PP (IN (of))(NP (NNP (Mississippi)))))))) |ET| 
2.700000000000000177635683940025  |BT| (ROOT (SBARQ (WHNP (WP (What)))(SQ (VBZ (is))(NP (NP (NNP (Repulic)))(PP (IN (of))(FOCUS-NP (NP (NNP (China))(POS ('s)))(FOCUS-NN (president))))))(. (?)))) |ET| 
2.0125887419391403909685323014855  |BT| (ROOT (SBARQ (WHNP (WP (Who)))(SQ (VBZ (is))(NP (FOCUS-NP (DT (the))(VBG (leading))(FOCUS-NN (competitor)))(PP (IN (of))(NP (NNP (Trans))(NNP (Union))(NNP (Company)))))))) |ET| 
-0.70040577531384717868689904207713  |BT| (ROOT (SBARQ (WHADVP (WRB (where)))(SQ (VBZ (is))(NP (FOCUS-NP (DT (a))(JJ (nice))(FOCUS-JJ (indian))(NN (restaurant)))(PP (IN (with))(NP (JJ (low))(NNS (prices))))))(. (?)))) |ET| 
-1  |BT| (ROOT (SBARQ (WHNP (WP (Who)))(SQ (VBZ (is))(NP (FOCUS-NP (DT (the))(FOCUS-VBG (leading))(NN (competitor)))(PP (IN (of))(NP (NNP (Trans))(NNP (Union))(NNP (Company)))))))) |ET| 
-1  |BT| (ROOT (SBARQ (WHNP (WP (what)))(SQ (VBZ (is))(NP (FOCUS-NP (DT (a))(JJ (good))(FOCUS-NN (nightlife))(NN (location)))(PP (IN (in))(NP (NP (NNP (chicago)))(PP (IN (in))(NP (NNP (November))))))))(. (?)))) |ET| 
2.6171423609000310506189634907059  |BT| (ROOT (SBARQ (FOCUS-WHNP (WDT (What))(NNP (Judith))(NNP (Rossner))(FOCUS-NN (novel)))(SQ (VBD (was))(VP (VBN (made))(PP (IN (into))(NP (NP (DT (a))(NN (film)))(VP (VBG (starring))(NP (NNP (Diane))(NNP (Keaton)))))))))) |ET| 
2.700000000000000177635683940025  |BT| (ROOT (S (NP (WDT (which)))(FOCUS-VP (FOCUS-NN (state))(NP (NP (NNS (borders)))(SBAR (S (NP (RBS (most))(NNS (states)))))))(. (?)))) |ET| 
2.700000000000000177635683940025  |BT| (ROOT (SBARQ (FOCUS-WHNP (WDT (What))(JJ (new))(JJ (middle))(FOCUS-NN (school)))(SQ (VBD (was))(VP (VBN (built))(PP (IN (in))(NP (NNP (Philadelphia))(NNP (Pennsylvania))))(NP-TMP (JJ (last))(NN (year))))))) |ET| 
-1  |BT| (ROOT (SBARQ (FOCUS-WHNP (WDT (What))(JJ (new))(FOCUS-JJ (middle))(NN (school)))(SQ (VBD (was))(VP (VBN (built))(PP (IN (in))(NP (NNP (Philadelphia))(NNP (Pennsylvania))))(NP-TMP (JJ (last))(NN (year))))))) |ET| 
-1  |BT| (ROOT (S (SBAR (FOCUS-WHNP (WDT (What))(FOCUS-JJ (French))(NN (designer)))(S (VP (VBD (declared)))))(: (:))(`` (``))(NP (DT (The))(NN (jean)))(VP (VBZ (is))(NP (DT (the))(NN (destructor))))(. (!)))(S (NP (PRP (It)))(VP (VBZ (is))(NP (DT (a))(NN (dictator))))(. (!)))(S (NP (PRP (It)))(VP (VBZ (is))(VP (VBG (destroying))(NP (NN (creativity)))))(. (.)))(S (NP (DT (The))(NN (jean)))(VP (MD (must))(VP (VB (be))(VP (VBN (stopped)))))(. (!))('' ('')))(NP (. (?)))) |ET| 
-1  |BT| (ROOT (S (VP (VB (Name))(NP (NP (DT (the))(NN (university)))(SBAR (WHPP (IN (of))(WHNP (WDT (which))))(S (NP (NNP (Woodrow))(NNP (Wilson)))(VP (VBD (was))(FOCUS-NP (FOCUS-NN (president))))))))(. (.)))) |ET| 
2.0659393096174114567986634938279  |BT| (ROOT (SBARQ (WHNP (WP (what)))(SQ (VBZ (is))(NP (FOCUS-NP (DT (the))(JJS (largest))(NN (state))(FOCUS-NN (capital)))(PP (IN (in))(NP (NN (population))))))(. (?)))) |ET| 
2.700000000000000177635683940025  |BT| (ROOT (SBARQ (WHNP (WP (What)))(SQ (VBZ ('s))(NP (FOCUS-NP (DT (the))(NN (No.))(CD (1))(FOCUS-NN (killer)))(PP (IN (in))(NP (JJ (industrialized))(NNS (countries))))))(. (?)))) |ET| 
1.3093557528275066026424156007124  |BT| (ROOT (SBARQ (WHNP (WP (what)))(SQ (VBZ (is))(NP (FOCUS-NP (DT (a))(JJ (good))(NN (nightlife))(FOCUS-NN (location)))(PP (IN (in))(NP (NP (NNP (chicago)))(PP (IN (in))(NP (NNP (November))))))))(. (?)))) |ET| 
-0.74737098862838347024251106631709  |BT| (ROOT (SBARQ (WHNP (WP (what)))(SQ (VBZ (is))(NP (NP (DT (the))(NN (population)))(PP (IN (of))(NP (FOCUS-NP (DT (the))(JJ (major))(FOCUS-NNS (cities)))(PP (IN (in))(NP (NN (wisconsin))))))))(. (?)))) |ET| 
-1  |BT| (ROOT (SBARQ (WHNP (WP (What)))(SQ (VBZ ('s))(NP (FOCUS-NP (DT (the))(FOCUS-NN (No.))(CD (1))(NN (killer)))(PP (IN (in))(NP (JJ (industrialized))(NNS (countries))))))(. (?)))) |ET| 
-1  |BT| (ROOT (SBARQ (WHNP (WP (What)))(SQ (VBZ ('s))(NP (FOCUS-NP (DT (the))(NN (No.))(FOCUS-CD (1))(NN (killer)))(PP (IN (in))(NP (JJ (industrialized))(NNS (countries))))))(. (?)))) |ET| 
2.5962716993124552722349562827731  |BT| (ROOT (S (VP (VB (Name))(FOCUS-NP (CD (11))(JJ (famous))(FOCUS-NNS (martyrs))))(. (.)))) |ET| 
0.8436375822066983776181814391748  |BT| (ROOT (S (VP (VB (Name))(NP (FOCUS-NP (DT (the))(FOCUS-NN (university)))(SBAR (WHPP (IN (of))(WHNP (WDT (which))))(S (NP (NNP (Woodrow))(NNP (Wilson)))(VP (VBD (was))(NP (NN (president))))))))(. (.)))) |ET| 
2.0710144490701658526177197927609  |BT| (ROOT (S (VP (VB (Name))(FOCUS-NP (CD (four))(JJ (famous))(NN (cartoon))(FOCUS-NNS (cats))))(. (.)))) |ET| 
-1  |BT| (ROOT (S (VP (VB (Name))(FOCUS-NP (CD (four))(JJ (famous))(FOCUS-NN (cartoon))(NNS (cats))))(. (.)))) |ET| 
-1  |BT| (ROOT (S (VP (VB (Name))(NP (FOCUS-NP (DT (the))(CD (two))(FOCUS-JJ (mystical))(NNS (ravens)))(SBAR (S (NP (NNP (Odin)))(VP (VBZ (has))(VP (PP (IN (at))(NP (PRP$ (his))(NN (command))))))))))(. (.)))) |ET| 
-0.88758170029229299657913543342147  |BT| (ROOT (S (VP (VB (Name))(FOCUS-NP (CD (four))(FOCUS-JJ (famous))(NN (cartoon))(NNS (cats))))(. (.)))) |ET| 
2.700000000000000177635683940025  |BT| (ROOT (SBARQ (WHNP (WP (What)))(SQ (VBZ ('s))(NP (FOCUS-NP (DT (the))(RBS (most))(JJ (common))(JJ (non-contagious))(FOCUS-NN (disease)))(PP (IN (in))(NP (DT (the))(NN (world))))))(. (?)))) |ET| 
1.4056995635324820437261905681225  |BT| (ROOT (SBARQ (WHNP (WP (What)))(SQ (VBZ ('s))(NP (FOCUS-NP (DT (the))(ADJP (RBS (most))(JJ (abundant)))(FOCUS-NN (element)))(PP (IN (in))(NP (DT (the))(NN (sun))))))(. (?)))) |ET| 
0.7699752715323997520613374945242  |BT| (ROOT (SBARQ (WHNP (WP (What)))(SQ (VBZ ('s))(NP (FOCUS-NP (DT (the))(ADJP (RBS (most))(JJ (popular)))(FOCUS-NN (form)))(PP (IN (of))(NP (NN (bridge))))))(. (?)))) |ET| 
-1  |BT| (ROOT (SBARQ (WHNP (WP (What)))(SQ (VBZ ('s))(NP (FOCUS-NP (DT (the))(RBS (most))(JJ (common))(FOCUS-JJ (non-contagious))(NN (disease)))(PP (IN (in))(NP (DT (the))(NN (world))))))(. (?)))) |ET| 
-1  |BT| (ROOT (SBARQ (WHNP (WP (What)))(SQ (VBZ ('s))(NP (FOCUS-NP (DT (the))(RBS (most))(FOCUS-JJ (common))(JJ (non-contagious))(NN (disease)))(PP (IN (in))(NP (DT (the))(NN (world))))))(. (?)))) |ET| 
-1  |BT| (ROOT (SBARQ (WHNP (WP (What)))(SQ (VBZ ('s))(NP (FOCUS-NP (DT (the))(RBS (most))(FOCUS-JJ (common))(NN (surname)))(PP (IN (in))(NP (NNP (America))))))(. (?)))) |ET| 
2.700000000000000177635683940025  |BT| (ROOT (S (VP (VB (Name))(NP (FOCUS-NP (DT (the))(CD (two))(JJ (mystical))(FOCUS-NNS (ravens)))(SBAR (S (NP (NNP (Odin)))(VP (VBZ (has))(VP (PP (IN (at))(NP (PRP$ (his))(NN (command))))))))))(. (.)))) |ET| 
1.2789045403829850666710399309522  |BT| (ROOT (S (VP (VB (Name))(FOCUS-NP (NP (NNP (Alvin))(POS ('s)))(FOCUS-NNS (brothers))))(. (.)))) |ET| 
0.045382679885253865426086861134536  |BT| (ROOT (S (VP (VB (Name))(FOCUS-NP (DT (a))(JJ (Gaelic))(FOCUS-NN (language))))(. (.)))) |ET| 
-1  |BT| (ROOT (S (VP (VB (Name))(NP (FOCUS-NP (DT (the))(FOCUS-CD (two))(JJ (mystical))(NNS (ravens)))(SBAR (S (NP (NNP (Odin)))(VP (VBZ (has))(VP (PP (IN (at))(NP (PRP$ (his))(NN (command))))))))))(. (.)))) |ET| 
-1  |BT| (ROOT (S (VP (VB (Name))(S (NP (NP (NNP (Li))(POS (')))(NP (FOCUS-NP (FOCUS-NN (l)))(NP (NP (NNP (Abner))(POS ('s)))(JJ (favorite))(JJ (Indian))(NN (drink)))))))(. (.)))) |ET| 
-1  |BT| (ROOT (S (VP (VB (Name))(FOCUS-NP (FOCUS-CD (11))(JJ (famous))(NNS (martyrs))))(. (.)))) |ET| 
1.0240132334645140055329193273792  |BT| (ROOT (SBARQ (WHNP (WP (What)))(SQ (VBZ ('s))(NP (FOCUS-NP (DT (the))(RBS (most))(JJ (common))(FOCUS-NN (surname)))(PP (IN (in))(NP (NNP (America))))))(. (?)))) |ET| 
-0.92651678573071816202855188748799  |BT| (ROOT (SBARQ (FOCUS-WHNP (FOCUS-WDT (What))(NN (country)))(SQ (VP (VBD (was))(ADJP (JJ (first))(S (VP (TO (to))(VP (VB (use))(NP (DT (the))(NN (airplane)))(PP (IN (as))(NP (NP (DT (a))(NN (weapon)))(PP (IN (of))(NP (NN (war))))))(, (,))(PP (IN (against))(NP (DT (the))(NNPS (Turks))))))))(PP (IN (in))(NP (NNP (Libya))))))(. (?)))) |ET| 
2.700000000000000177635683940025  |BT| (ROOT (SBARQ (WHNP (WP (What)))(SQ (VBZ (is))(NP (FOCUS-NP (DT (the))(JJ (second))(JJS (highest))(NN (mountain))(FOCUS-NN (peak)))(PP (IN (in))(NP (DT (the))(NN (world))))))(. (?)))) |ET| 
-0.59511000963993909707028251432348  |BT| (ROOT (SBARQ (WHNP (WP (What)))(SQ (VBZ (is))(NP (FOCUS-NP (DT (the))(FOCUS-JJS (oldest))(NN (website)))(PP (IN (on))(NP (DT (the))(NN (Internet))))))(. (?)))) |ET| 
-1  |BT| (ROOT (SBARQ (WHNP (WP (What)))(SQ (VBZ (is))(NP (FOCUS-NP (DT (the))(JJS (largest))(FOCUS-JJ (natural))(NN (lake)))(PP (IN (in))(NP (NNP (Pennsylvania))))))(. (?)))) |ET| 
-0.15837176021098825495769801818824  |BT| (ROOT (SBARQ (WHNP (WP (What)))(SQ (VBZ (is))(NP (FOCUS-NP (DT (the))(FOCUS-JJS (tallest))(NN (building)))(PP (IN (in))(NP (NNP (Japan))))))(. (?)))) |ET| 
2.700000000000000177635683940025  |BT| (ROOT (S (VP (VB (Name))(S (NP (NP (NNP (Li))(POS (')))(NP (NP (NN (l)))(FOCUS-NP (NP (NNP (Abner))(POS ('s)))(JJ (favorite))(JJ (Indian))(FOCUS-NN (drink)))))))(. (.)))) |ET| 
2.700000000000000177635683940025  |BT| (ROOT (S (VP (VB (Name))(NP (FOCUS-NP (DT (the))(NNP (On))(NNP (Stage))(FOCUS-NN (character)))(SBAR (WHNP (WP$ (whose))(NN (face)))(S (VP (VBD (was))(VP (ADVP (RB (never)))(VBN (seen))))))))(. (.)))) |ET| 
-1  |BT| (ROOT (S (VP (VB (Name))(NP (FOCUS-NP (DT (the))(FOCUS-NNP (On))(NNP (Stage))(NN (character)))(SBAR (WHNP (WP$ (whose))(NN (face)))(S (VP (VBD (was))(VP (ADVP (RB (never)))(VBN (seen))))))))(. (.)))) |ET| 
-1  |BT| (ROOT (S (VP (VB (Name))(NP (FOCUS-NP (DT (the))(NNP (On))(FOCUS-NNP (Stage))(NN (character)))(SBAR (WHNP (WP$ (whose))(NN (face)))(S (VP (VBD (was))(VP (ADVP (RB (never)))(VBN (seen))))))))(. (.)))) |ET| 
-1  |BT| (ROOT (SBAR (WHNP (WDT (Which)))(S (FOCUS-NP (NP (NN (mosquito))(POS ('s)))(FOCUS-NN (bite)))(VP (VBZ (draws))(NP (NN (blood))))))) |ET| 
1.8199236678926018484503401850816  |BT| (ROOT (SBARQ (WHNP (WP (What)))(SQ (VBZ (is))(NP (FOCUS-NP (DT (the))(JJS (largest))(JJ (natural))(FOCUS-NN (lake)))(PP (IN (in))(NP (NNP (Pennsylvania))))))(. (?)))) |ET| 
-0.10827478926668547554168497981664  |BT| (ROOT (SBARQ (WHNP (WDT (What))(NN (year)))(FOCUS-SQ (FOCUS-VBD (did))(NP (NNP (Degas)))(VP (VB (create))(NP (NP (DT (the))(NN (bronze))(NN (sculpture)))(, (,))(`` (``))(NP (JJ (Fourth))(NN (Position))(NN (Front))))))(. (?))('' ('')))) |ET| 
-0.23965268775520029431724822188698  |BT| (ROOT (SBARQ (WHNP (WP (What)))(SQ (VBZ (is))(NP (FOCUS-NP (FOCUS-DT (the))(NN (origin)))(PP (IN (of))(NP (NP (DT (the))(NN (term)))(`` (``))(NP (DT (The))(NNP (Brooklyn))(NN (Side)))('' (''))(PP (IN (in))(NP (NN (bowling))))))))(. (?)))) |ET| 
-1  |BT| (ROOT (SBARQ (WHNP (WP (What)))(SQ (VBZ (is))(NP (FOCUS-NP (DT (the))(JJ (second))(JJS (highest))(FOCUS-NN (mountain))(NN (peak)))(PP (IN (in))(NP (DT (the))(NN (world))))))(. (?)))) |ET| 
-1  |BT| (ROOT (SBARQ (WHNP (WP (What)))(SQ (VBZ (is))(NP (FOCUS-NP (DT (the))(JJS (largest))(FOCUS-NN (shopping))(NN (mall)))(PP (IN (in))(NP (DT (the))(NN (world))))))(. (?)))) |ET| 
-0.90887448382633306831479558240972  |BT| (ROOT (SBARQ (WHNP (WP (What)))(SQ (VBZ ('s))(NP (FOCUS-NP (DT (the))(FOCUS-RBS (most))(JJ (common))(NN (surname)))(PP (IN (in))(NP (NNP (America))))))(. (?)))) |ET| 
2.700000000000000177635683940025  |BT| (ROOT (SBAR (WHNP (WDT (What)))(S (FOCUS-NP (NNP (United))(NNPS (States))(FOCUS-NNP (President)))(VP (VBD (had))(VP (VBN (dreamed))(SBAR (IN (that))(S (NP (PRP (he)))(VP (VBD (was))(VP (VBN (assassinated))))))))))) |ET| 
1.6873885045150560646476378678926  |BT| (ROOT (S (VP (VB (Name))(NP (FOCUS-NP (DT (the))(NN (operating))(FOCUS-NN (system)))(SBAR (WHNP (WDT (that)))(S (VP (VBZ (runs))(PP (IN (on))(NP (JJ (IBM-compatible))(NNS (machines)))))))))(. (.)))) |ET| 
2.700000000000000177635683940025  |BT| (ROOT (S (VP (VB (Name))(NP (FOCUS-NP (DT (the))(NN (food))(FOCUS-NN (company)))(SBAR (WHNP (WDT (that)))(S (VP (VBD (traveled))(PP (TO (to))(NP (JJ (Soviet))(NNP (Georgia))))(PP (TO (to))(NP (NN (film))))(NP (NP (DT (a))(NN (series)))(PP (IN (of))(NP (NNS (ads))))))))))(. (.)))) |ET| 
-1  |BT| (ROOT (SBAR (WHNP (WDT (What)))(S (FOCUS-NP (FOCUS-NNP (United))(NNPS (States))(NNP (President)))(VP (VBD (had))(VP (VBN (dreamed))(SBAR (IN (that))(S (NP (PRP (he)))(VP (VBD (was))(VP (VBN (assassinated))))))))))) |ET| 
-1  |BT| (ROOT (SBAR (WHNP (WDT (What)))(S (FOCUS-NP (NNP (United))(FOCUS-NNPS (States))(NNP (President)))(VP (VBD (had))(VP (VBN (dreamed))(SBAR (IN (that))(S (NP (PRP (he)))(VP (VBD (was))(VP (VBN (assassinated))))))))))) |ET| 
-1  |BT| (ROOT (S (VP (VB (Name))(NP (NP (DT (the))(NN (food))(NN (company)))(SBAR (WHNP (WDT (that)))(S (VP (VBD (traveled))(PP (TO (to))(NP (JJ (Soviet))(NNP (Georgia))))(PP (TO (to))(NP (NN (film))))(NP (FOCUS-NP (DT (a))(FOCUS-NN (series)))(PP (IN (of))(NP (NNS (ads))))))))))(. (.)))) |ET| 
1.2510973180214610689375831498182  |BT| (ROOT (SBARQ (WHNP (WP (What)))(SQ (VBZ (is))(NP (FOCUS-NP (DT (the))(JJS (largest))(NN (shopping))(FOCUS-NN (mall)))(PP (IN (in))(NP (DT (the))(NN (world))))))(. (?)))) |ET| 
1.0337798999761163010191467037657  |BT| (ROOT (SBARQ (WHNP (WP (What)))(SQ (VBP (are))(NP (FOCUS-NP (DT (the))(JJS (largest))(FOCUS-NNS (breweries)))(PP (IN (in))(NP (DT (the))(NN (world))))))(. (?)))) |ET| 
-0.26619946833343899328383486135863  |BT| (ROOT (SBARQ (WHNP (WP (what)))(SQ (VBZ (is))(NP (FOCUS-NP (DT (the))(FOCUS-JJ (total))(NN (population)))(PP (IN (of))(NP (NP (DT (the))(NNS (states)))(SBAR (WHNP (WDT (that)))(S (VP (VBP (border))(NP (NNS (texas))))))))))(. (?)))) |ET| 
-1  |BT| (ROOT (SBARQ (WHNP (WP (What)))(SQ (VBP (are))(NP (FOCUS-NP (DT (the))(FOCUS-JJS (largest))(NNS (breweries)))(PP (IN (in))(NP (DT (the))(NN (world))))))(. (?)))) |ET| 
-1  |BT| (ROOT (SBARQ (WHNP (WP (What)))(SQ (VBZ (is))(NP (FOCUS-NP (DT (the))(ADJP (RBS (most))(JJ (advanced)))(FOCUS-JJ (handheld))(NN (calculator)))(PP (IN (in))(NP (DT (the))(NN (world)))))))) |ET| 
-1  |BT| (ROOT (SBARQ (WHNP (WP (What)))(SQ (VBZ (is))(NP (FOCUS-NP (DT (the))(FOCUS-JJS (largest))(NN (shopping))(NN (mall)))(PP (IN (in))(NP (DT (the))(NN (world))))))(. (?)))) |ET| 
2.700000000000000177635683940025  |BT| (ROOT (S (VP (VBP (are))(S (NP (EX (there)))(NP (FOCUS-NP (FOCUS-NNS (cinemas)))(PP (IN (in))(NP (NP (NN (montreal)))(SBAR (WHNP (WDT (that)))(S (VP (VBP (show))(NP (NN (comedy))(NNS (movies)))(PP (IN (with))(NP (NN (carrey))(NN (tonight))))))))))))(. (?)))) |ET| 
2.4927083058849541785662040638272  |BT| (ROOT (SQ (VP (VB (Name))(FOCUS-NP (DT (a))(ADJP (JJ (South))(JJ (African)))(NN (diamond))(FOCUS-NN (producer))))(. (?)))) |ET| 
2.6494861426033109452760072599631  |BT| (ROOT (SBARQ (FOCUS-WHNP (WDT (What))(NN (baseball))(FOCUS-NN (star)))(SQ (VP (VBD (turned))(PRT (RP (down)))(NP (DT (a))(ADJP ($ ($))(CD (1)))(JJ (000-a-year))(NN (contract)))(SBAR (IN (because))(S (NP (PRP (he)))(VP (VBD (felt))(SBAR (S (NP (PRP (he)))(VP (VBD (had))(RB (n't))(VP (VBN (earned))(NP (PRP (it)))))))))))))) |ET| 
-1  |BT| (ROOT (SBARQ (FOCUS-WHNP (WDT (What))(FOCUS-NN (baseball))(NN (star)))(SQ (VP (VBD (turned))(PRT (RP (down)))(NP (DT (a))(ADJP ($ ($))(CD (1)))(JJ (000-a-year))(NN (contract)))(SBAR (IN (because))(S (NP (PRP (he)))(VP (VBD (felt))(SBAR (S (NP (PRP (he)))(VP (VBD (had))(RB (n't))(VP (VBN (earned))(NP (PRP (it)))))))))))))) |ET| 
-1  |BT| (ROOT (S (VP (VBP (are))(S (NP (EX (there)))(NP (NP (NNS (cinemas)))(PP (IN (in))(NP (FOCUS-NP (FOCUS-NN (montreal)))(SBAR (WHNP (WDT (that)))(S (VP (VBP (show))(NP (NN (comedy))(NNS (movies)))(PP (IN (with))(NP (NN (carrey))(NN (tonight))))))))))))(. (?)))) |ET| 
-1  |BT| (ROOT (SBARQ (FOCUS-WHNP (FOCUS-WDT (What))(NN (baseball))(NN (star)))(SQ (VP (VBD (turned))(PRT (RP (down)))(NP (DT (a))(ADJP ($ ($))(CD (1)))(JJ (000-a-year))(NN (contract)))(SBAR (IN (because))(S (NP (PRP (he)))(VP (VBD (felt))(SBAR (S (NP (PRP (he)))(VP (VBD (had))(RB (n't))(VP (VBN (earned))(NP (PRP (it)))))))))))))) |ET| 
2.5051633172746661237795251508942  |BT| (ROOT (SBARQ (WHNP (WP (What)))(SQ (VBZ (is))(NP (FOCUS-NP (DT (the))(ADJP (RBS (most))(JJ (advanced)))(JJ (handheld))(FOCUS-NN (calculator)))(PP (IN (in))(NP (DT (the))(NN (world)))))))) |ET| 
-0.083468260895304263735638983234821  |BT| (ROOT (SBARQ (FOCUS-WHNP (FOCUS-WP (what)))(SQ (VP (MD (would))(VP (VB (be))(NP (DT (a))(JJ (nice))(NN (place))(S (VP (TO (to))(VP (VB (go))(ADVP (RB (close))(PP (TO (to))(NP (NN (como))))))))))))(. (?)))) |ET| 
-0.44224032885547154281269399689336  |BT| (ROOT (SBARQ (FOCUS-WHNP (FOCUS-WP (What)))(SQ (VBZ (is))(NP (NP (NNP (Nebraska))(POS ('s)))(ADJP (JJS (most))(JJ (valuable)))(NN (resource)))))) |ET| 
-1  |BT| (ROOT (SBARQ (WHNP (WDT (What))(NN (mountain))(NN (range)))(SQ (VBZ (is))(VP (VBN (traversed))(PP (IN (by))(NP (FOCUS-NP (DT (the))(JJS (highest))(FOCUS-NN (railroad)))(PP (IN (in))(NP (DT (the))(NN (world)))))))))) |ET| 
-0.27246028593849797028170200974273  |BT| (ROOT (SBARQ (WHNP (WP (Who)))(SQ (VBZ (is))(NP (NP (DT (the))(JJ (only))(JJ (prime))(NN (minister)))(PP (IN (of))(NP (NNP (Canada))))(S (VP (TO (to))(VP (VB (serve))(NP (CD (22))(NNS (years)))(PRN (CC (but))(FOCUS-ADVP (RB (not))(FOCUS-RB (necessarily)))(ADVP (RB (consecutively))))))))))) |ET| 
-1  |BT| (ROOT (SBARQ (WHNP (WP (What)))(SQ (VBZ (is))(NP (NP (DT (the))(NN (origin)))(PP (IN (of))(NP (FOCUS-NP (DT (the))(FOCUS-NN (name)))(NP (NNP (Scarlett))(POS ('))))))))) |ET| 
2.700000000000000177635683940025  |BT| (ROOT (SBARQ (FOCUS-WHNP (WDT (What))(CD (1966))(NN (boob))(NN (tube))(FOCUS-NN (bomb)))(SQ (VP (VBD (took))(NP (NNS (astronauts)))(ADVP (RB (back))(PP (TO (to))(NP (JJ (prehistoric))(NNS (times))))))))) |ET| 
2.700000000000000177635683940025  |BT| (ROOT (SBARQ (FOCUS-WHNP (WDT (What))(NNP (Nantucket))(FOCUS-NN (shipwreck)))(SQ (VP (VBD (killed))(ADVP (RBR (more)))(NP (NP (NNS (divers)))(VP (VBG (exploring))(NP (PRP (it)))(PP (IN (than))(NP (DT (the))(CD (52))(NNS (people))))(SBAR (S (NP (PRP (it)))(VP (VBD (sank))(PP (IN (with))))))))))(. (?)))) |ET| 
2.700000000000000177635683940025  |BT| (ROOT (SBARQ (WHPP (IN (In))(FOCUS-WHNP (WDT (what))(FOCUS-NN (sport))))(SQ (VBP (are))(NP (NP (DT (these)))(PP (VBG (following))(NP (NP (NP (NP (NNS (numbers)))(ADJP (JJ (relevant))))(: (:))(NP (NP (CD (118))(CD (126)))(NP (QP (CD (134))(CD (142))))))(NP (NP (CD (15))(CD (158)))(NP (QP (CD (167))(CD (177)))))(CC (and))(NP (CD (19))))))))) |ET| 
-1  |BT| (ROOT (SBARQ (FOCUS-WHNP (WDT (What))(FOCUS-NNP (Nantucket))(NN (shipwreck)))(SQ (VP (VBD (killed))(ADVP (RBR (more)))(NP (NP (NNS (divers)))(VP (VBG (exploring))(NP (PRP (it)))(PP (IN (than))(NP (DT (the))(CD (52))(NNS (people))))(SBAR (S (NP (PRP (it)))(VP (VBD (sank))(PP (IN (with))))))))))(. (?)))) |ET| 
-1  |BT| (ROOT (SBARQ (FOCUS-WHNP (WDT (What))(FOCUS-CD (1966))(NN (boob))(NN (tube))(NN (bomb)))(SQ (VP (VBD (took))(NP (NNS (astronauts)))(ADVP (RB (back))(PP (TO (to))(NP (JJ (prehistoric))(NNS (times))))))))) |ET| 
-1  |BT| (ROOT (SBARQ (FOCUS-WHNP (WDT (What))(CD (1966))(FOCUS-NN (boob))(NN (tube))(NN (bomb)))(SQ (VP (VBD (took))(NP (NNS (astronauts)))(ADVP (RB (back))(PP (TO (to))(NP (JJ (prehistoric))(NNS (times))))))))) |ET| 
2.558831804924311281723703359603  |BT| (ROOT (SBARQ (WHNP (WP (what)))(SQ (VBZ (is))(NP (FOCUS-NP (DT (the))(JJS (highest))(FOCUS-NN (point)))(PP (IN (in))(NP (NP (DT (the))(NN (state)))(PP (IN (with))(NP (NP (DT (the))(NN (capital)))(NP (FW (des))(FW (moines)))))))))(. (?)))) |ET| 
1.5116488242380154982669182572863  |BT| (ROOT (SBARQ (WHNP (WP (What)))(SQ (VBZ (is))(NP (FOCUS-NP (DT (the))(FOCUS-NN (belt)))(PP (IN (of))(NP (NP (JJ (low))(NN (pressure)))(PP (IN (around))(NP (DT (the))(NN (equator)))))))(VP (VBN (called)))))) |ET| 
2.700000000000000177635683940025  |BT| (ROOT (SBARQ (WHNP (WP (What)))(SQ (VBP (are))(FOCUS-NP (DT (the))(FOCUS-NNS (rites)))(VP (VBG (accompanying))(SBAR (S (NP (NP (DT (the))(NN (circumcision)))(PP (IN (of))(NP (NP (DT (a))(ADJP (RB (newly))(JJ (born-child))))(PP (IN (in))(NNP (Judaism))))))(VP (VBD (called))))))))) |ET| 
-1  |BT| (ROOT (SBARQ (WHNP (WP (What)))(SQ (VBP (are))(NP (DT (the))(NNS (rites)))(VP (VBG (accompanying))(SBAR (S (NP (FOCUS-NP (DT (the))(FOCUS-NN (circumcision)))(PP (IN (of))(NP (NP (DT (a))(ADJP (RB (newly))(JJ (born-child))))(PP (IN (in))(NNP (Judaism))))))(VP (VBD (called))))))))) |ET| 
-1  |BT| (ROOT (SBARQ (WHNP (WP (What)))(SQ (VBP (are))(NP (DT (the))(NNS (rites)))(FOCUS-VP (FOCUS-VBG (accompanying))(SBAR (S (NP (NP (DT (the))(NN (circumcision)))(PP (IN (of))(NP (NP (DT (a))(ADJP (RB (newly))(JJ (born-child))))(PP (IN (in))(NNP (Judaism))))))(VP (VBD (called))))))))) |ET| 
-0.084814009237436760457740092533641  |BT| (ROOT (SBARQ (WHNP (WP (What)))(FOCUS-SQ (FOCUS-VBP (are))(NP (DT (the))(NNS (rites)))(VP (VBG (accompanying))(SBAR (S (NP (NP (DT (the))(NN (circumcision)))(PP (IN (of))(NP (NP (DT (a))(ADJP (RB (newly))(JJ (born-child))))(PP (IN (in))(NNP (Judaism))))))(VP (VBD (called))))))))) |ET| 
1.9872936018893601062274001378682  |BT| (ROOT (SBARQ (FOCUS-WHNP (WDT (What))(CD (2))(FOCUS-NNS (statues)))(SQ (VBD (did))(NP (NNP (France)))(VP (VB (give))(PP (TO (to))(NP (JJ (other))(NNS (countries)))))))) |ET| 
1.7195295282305853579174481637892  |BT| (ROOT (SBARQ (FOCUS-WHNP (WDT (What))(JJ (Polynesian))(FOCUS-NNS (people)))(SQ (VP (VBP (inhabit))(NP (NNP (New))(NNP (Zealand))))))) |ET| 
-1  |BT| (ROOT (SBARQ (WHNP (WP (what)))(SQ (VBZ (is))(NP (FOCUS-NP (DT (an))(FOCUS-JJ (original))(NN (restaurant))(NN (idea)))(SBAR (IN (if))(S (NP (FW (i)))(VP (VBP (am))(PP (IN (in))(NP (NN (venice)))))))))(. (?)))) |ET| 
-1  |BT| (ROOT (SBARQ (WHNP (WP (what)))(SQ (VBZ (is))(NP (FOCUS-NP (FOCUS-DT (an))(JJ (original))(NN (restaurant))(NN (idea)))(SBAR (IN (if))(S (NP (FW (i)))(VP (VBP (am))(PP (IN (in))(NP (NN (venice)))))))))(. (?)))) |ET| 
-1  |BT| (ROOT (SBARQ (FOCUS-WHNP (WDT (What))(FOCUS-JJ (Polynesian))(NNS (people)))(SQ (VP (VBP (inhabit))(NP (NNP (New))(NNP (Zealand))))))) |ET| 
