SVM-light Version V5.01-TK-1.5
5 # kernel type
3 # kernel parameter -d 
1 # kernel parameter -g 
1 # kernel parameter -s 
1 # kernel parameter -r 
empty# kernel parameter -u 
0.4 # kernel parameter -L 
1 # kernel parameter -T 
T # kernel parameter -C 
2 # kernel parameter -F 
1 # kernel parameter -S 
0.400000 # kernel parameter -M 
3 # kernel parameter -N 
S # kernel parameter -V 
S # kernel parameter -W 
0 # kernel parameter -U 
10 # highest feature index 
5451 # number of training documents 
509 # number of support vectors plus 1 
1.0064971 # threshold b, each following line is a SV (starting with alpha*y)
-0.10897616844176527539644894204685  |BT| (ROOT (ROOT (SBARQ (WHNP (WP (what)))(SQ (VBZ (be))(NP (NP (`` (`))(JJ (last))(NN (chance)))(PP (IN (for))(NP (NNS (animal))(POS ('))))))(. (?))))) |ET| 
-0.19480789028696138265317472360039  |BT| (ROOT (ROOT (SBARQ (WHNP (WDT (what))(NP (NP (NNP (george))(NNP (harrison)))(NP (NN (tune)))))(SQ (VP (VBD (sound))(ADVP (RB (too))(RB (much)))(SBAR (IN (like))(S (NP (PRP (he)))(VP (VBZ (be))(ADJP (RB (so))(JJ (fine))(PP (IN (by))(NP (DT (the))(NNPS (chiffons))))))))))(. (?))))) |ET| 
-0.079851231959599491827539452515339  |BT| (ROOT (ROOT (SBARQ (WHNP (WP (what))(RB (else)))(SQ (VBZ (have))(NP (DT (the))(NN (swastika)))(VP (VBD (stand))(PP (IN (for)))))(. (?))))) |ET| 
-0.09353984919683611121143940181355  |BT| (ROOT (ROOT (SBARQ (WHNP (WP (what)))(SQ (VBD (be))(NP (NP (DT (the))(JJ (infamous))(NN (feat)))(PP (IN (of))(NP (NP (NNP (germany))(POS ('s)))(NN (u-2))(NN (submarine))))))(. (?))))) |ET| 
-0.12233760790800944640022152043457  |BT| (ROOT (ROOT (SBARQ (WHNP (WP (what)))(SQ (VBD (be))(NP (NP (DT (the))(VBG (rally))(NN (cry)))(PP (IN (of))(NP (DT (the))(JJ (early))(JJ (american))(NNS (revolutionary))))))(. (?))))) |ET| 
1  |BT| (ROOT (ROOT (SBARQ (WHNP (WHADJP (WRB (how))(JJ (much)))(NN (money)))(SQ (VBZ (do))(NP (DT (a))(NP (RB (back))(NN (injury)))(NN (lawsuit)))(VP (VB (get))))(. (?))))) |ET| 
1  |BT| (ROOT (ROOT (SBARQ (WHNP (WRB (how))(RB (much)))(SQ (MD (would))(NP (PRP (it)))(VP (VB (cost))(S (VP (TO (to))(VP (VB (purchase))(NP (NP (DT (a))(JJ (2-foot-square))(NN (party))(NN (tent)))(, (,))(PP (IN (with))(NP (NNS (side))))(, (,))))))))(. (?))))) |ET| 
0.74357876881557838366632040560944  |BT| (ROOT (ROOT (SBARQ (WHNP (WRB (how))(RB (much)))(SQ (VBZ (do))(NP (DT (a))(JJ (new))(NN (railroad))(NN (coal))(NN (car))(NN (cost))))(. (?))))) |ET| 
1  |BT| (ROOT (ROOT (SBARQ (WHNP (WHADJP (WRB (how))(JJ (much)))(NN (money)))(SQ (VBP (be))(NP (NP (NNP (dumbo))(POS ('s)))(NNS (ear)))(VP (VBN (insure))(PP (IN (for)))))(. (?))))) |ET| 
0.96371997050332625089907878646045  |BT| (ROOT (ROOT (SBARQ (WHNP (WRB (how))(RB (much)))(SQ (MD (would))(NP (DT (a))(JJ (black-and-white))(JJ (1-cent))(NN (stamp)))(VP (VB (be))(UCP (ADJP (JJ (worth)))(, (,))(NP (NP (NNP (thomas))(NNP (jefferson)))(PP (IN (on))(NP (PRP (it)))))(, (,)))))(. (?))))) |ET| 
-1  |BT| (ROOT (ROOT (SBARQ (WHNP (WRB (how))(RB (much)))(SQ (VBZ (do))(NP (DT (a))(NN (poodle)))(VP (VB (weigh))))(. (?))))) |ET| 
-0.67895577527388351057879845029674  |BT| (ROOT (ROOT (SBARQ (WHADVP (WRB (how)))(SQ (VBP (do))(NP (PRP (i)))(VP (VB (know))(SBAR (WHNP (WHADJP (WRB (how))(JJ (much)))(NN (money)))(S (VP (TO (to))(VP (VB (save))(PP (IN (for))(NP (NN (retirement))))))))))(. (?))))) |ET| 
-0.90502739091606310140036839584354  |BT| (ROOT (ROOT (SBARQ (WHNP (WHADJP (WRB (how))(JJ (much)))(NN (waste)))(SQ (VBZ (do))(NP (DT (a))(JJ (average))(NN (dairy))(NN (cow)))(VP (VBP (produce))(PP (IN (in))(NP (DT (a))(NN (day))))))(. (?))))) |ET| 
1  |BT| (ROOT (ROOT (SBARQ (WHNP (WP (what)))(SQ (VBZ (be))(NP (NP (DT (the))(NN (exchange))(NN (rate)))(PP (IN (between))(NP (NP (NNP (england)))(CC (and))(NP (DT (the))(NNP (u.s.)))))))(. (?))))) |ET| 
1  |BT| (ROOT (ROOT (SBARQ (WHNP (WP (what)))(SQ (VBZ (be))(NP (DT (the))(JJ (regular))(NN (price))))(. (?))))) |ET| 
1  |BT| (ROOT (ROOT (SBARQ (WHNP (WP (what)))(SQ (VBD (be))(NP (NP (DT (the))(NN (price)))(PP (IN (of))(NP (NP (NNP (varian))(NNPS (associates))(POS (')))(NN (vacuum))(NNS (product))(NN (division))))))(. (?))))) |ET| 
-0.21469004012729953068117083603283  |BT| (ROOT (ROOT (SBARQ (WHNP (WP (what)))(SQ (VBZ (be))(NP (NN (deadrise))(, (,))(JJ (nautical))(, (,))))(. (?))))) |ET| 
-0.091174794343996917733718987619795  |BT| (ROOT (ROOT (SBARQ (WHNP (WRB (how)))(SQ (VP (VBP (do))(SBAR (S (NP (NP (NNS (website)))(PP (IN (like))(NP (NNP (yahoo))(CC (and))(NNP (excite)))))(VP (VBP (make))(NP (NN (money))))))))(. (?))))) |ET| 
-0.061803543286938808498653941114753  |BT| (ROOT (ROOT (S (NP (NNP (shea))(CC (and))(NNP (gould)))(VP (VBD (have))(NP (NP (DT (a))(NN (office)))(PP (IN (in))(NP (NNP (los))(NNP (angeles)))))(WHPP (IN (for))(WHNP (WRB (how))(JJ (long))))(PP (IN (before))(S (VP (VBG (close))(NP (PRP (it)))))))(. (?))))) |ET| 
1  |BT| (ROOT (ROOT (SBARQ (WHNP (WHNP (WDT (what))(NN (amount)))(PP (IN (of))(NP (NN (money)))))(SQ (VBD (do))(NP (DT (the))(JJ (philippine))(NN (ex-dictator))(NNP (marcos)))(VP (VB (steal))(PP (IN (from))(NP (DT (the))(NN (treasury))))))(. (?))))) |ET| 
1  |BT| (ROOT (ROOT (SBARQ (WHNP (WDT (what))(NNS (debt)))(SQ (VBD (do))(NP (NNP (qintex))(NN (group)))(VP (VB (leave))))(. (?))))) |ET| 
1  |BT| (ROOT (ROOT (SBARQ (WHNP (WHADJP (WRB (how))(JJ (much)))(NN (money)))(SQ (VBZ (do))(NP (DT (each))(NN (player)))(VP (VB (get))(PP (IN (at))(NP (NP (DT (the))(NN (beginning)))(PP (IN (of))(NP (NP (DT (the))(NN (game)))(PP (IN (in))(NP (NNP (monopoly))))))))))(. (?))))) |ET| 
-0.74943015688371406035628297104267  |BT| (ROOT (ROOT (SBARQ (WHNP (WHNP (WRB (how))(RB (much)))(PP (IN (of))(NP (NP (NP (DT (the))(NN (nation))(POS ('s)))(NNS (child)))(PP (IN (between))(NP (NP (DT (the))(NNS (age)))(PP (IN (of))(NP (NP (CD (two)))(CC (and))(NP (NNS (eleven))))))))))(S (VP (VBP (watch))(`` (`))(NP (QP (DT (the)))(NP (NNPS (simpsons))(POS ('))))))(. (?))))) |ET| 
-0.06513129502689388172775863949937  |BT| (ROOT (ROOT (SBARQ (WHNP (WP (what)))(SQ (VBZ (be))(NP (NP (DT (the))(NN (name)))(PP (IN (of))(NP (NP (DT (the))(JJ (rare))(JJ (neurological))(NN (disease)))(PP (IN (with))(NP (NP (NNS (symptom)))(PP (JJ (such))(IN (as))(: (:))(NP (NP (JJ (involuntary))(NNS (movement)))(, (,))(NP (NNS (tic)))(, (,))(NP (NN (swearing)))(, (,))(CC (and))(NP (NP (JJ (incoherent))(NNS (vocalization)))(, (,))(NP (NNS (grunt)))(, (,))(NP (NNS (shout)))(, (,))(FW (etc.)))))))))))(. (?))))) |ET| 
-0.42110730587219696863243711959512  |BT| (ROOT (ROOT (SBARQ (SBARQ (WHNP (WDT (what))(NN (company)))(SQ (VP (VBZ (be))(VP (VBG (be))(VP (VBN (buy))(PP (IN (by))(NP (NNP (yahoo)))))))))(CC (and))(SBARQ (WHADJP (WRB (how))(JJ (much)))(SQ (VBZ (be))(NP (DT (the))(NN (deal))(NN (worth))))(. (?)))))) |ET| 
1  |BT| (ROOT (ROOT (SBARQ (WHNP (WP (what)))(SQ (VBZ (be))(NP (DT (the))(JJ (federal))(JJ (minimum))(NN (wage))))(. (?))))) |ET| 
1  |BT| (ROOT (ROOT (SBARQ (WHNP (WP (what)))(SQ (VBZ (be))(NP (NP (DT (the))(VBG (start))(NN (salary)))(PP (IN (for))(S (VP (VBG (begin))(NP (NNS (lawyer))))))))(. (?))))) |ET| 
1  |BT| (ROOT (ROOT (SBARQ (WHNP (WP (what)))(SQ (VBZ (be))(NP (NP (DT (the))(VBG (start))(NN (salary)))(PP (IN (of))(NP (DT (a))(NN (radiographer))))))(. (?))))) |ET| 
-0.089970039114893846088349960155028  |BT| (ROOT (ROOT (SBARQ (WHNP (WDT (what))(NN (drug)))(SQ (VBD (do))(NP (NNP (sigmund))(NNP (freud)))(VP (VB (become))(VP (VBN (fascinate))(PP (IN (with))(SBAR (IN (while))(S (VP (VBG (experiment))(PP (IN (with))(NP (NP (DT (the))(NN (treatment)))(PP (IN (of))(NP (NNP (neurasthenia)))))))))))))(. (?))))) |ET| 
-0.12260851912574394217969597775664  |BT| (ROOT (ROOT (SBARQ (WHNP (WP (what)))(SQ (VP (VBD (do))(NP (NP (NNP (esquire))(NN (name))(NNP (ash))(NNP (hole)))(PP (IN (of))(NP (NP (DT (the))(NN (year)))(PP (IN (for))(NP (CD (1980)))))))))(. (?))))) |ET| 
-0.070834604844324855488224557120702  |BT| (ROOT (ROOT (SBARQ (WHADJP (WRB (how))(JJ (old)))(SQ (VBZ (be))(ADJP (RB (too))(JJ (old))(PP (IN (for))(NP (DT (a))(NN (child))(S (VP (TO (to))(RB (not))(VP (VB (be))(VP (VBG (talk))))))))))(. (?))))) |ET| 
1  |BT| (ROOT (ROOT (SBARQ (WHNP (WP (what)))(SQ (VBZ (be))(NP (NP (DT (the))(NN (cost)))(PP (IN (of))(NP (DT (the))(NNS (drug)))))(VP (VBN (use))(PP (IN (in))(NP (NN (tuberculosis))(NNS (treatment))))))(. (?))))) |ET| 
1  |BT| (ROOT (ROOT (SBARQ (WHPP (IN (by))(WHNP (WRB (how))(RB (much))))(SQ (MD (will))(VP (NP (DT (the))(NNP (california))(NN (state))(NN (gas)))(NP (NP (NN (tax)))(NP (NN (rise))))(PP (IN (by))(NP (DT (the))(NN (year))(CD (2000))))))(. (?))))) |ET| 
1  |BT| (ROOT (ROOT (SBARQ (WHNP (WP (what)))(SQ (VP (VBZ (do))(NP (NP (DT (each)))(PP (IN (of))(NP (DT (the))(NNS (utility))(NN (cost)))))(PP (IN (in))(NP (NNP (monopoly))))))(. (?))))) |ET| 
-1  |BT| (ROOT (ROOT (SBARQ (WHNP (WRB (how))(RB (much)))(SQ (MD (will))(NP (DT (the))(NNP (california)))(VP (VB (be))(PP (IN (in))(NP (DT (the))(NN (year))(CD (2000))))))(. (?))))) |ET| 
-0.74660357034962721023418907861924  |BT| (ROOT (ROOT (SBARQ (WHNP (WHADJP (WRB (how))(JJ (much)))(NN (electricity)))(SQ (VBZ (do))(NP (DT (the))(NN (brain)))(VP (VB (need))(S (VP (TO (to))(VP (VB (work)))))))(. (?))))) |ET| 
-0.091997562465351984117845063337882  |BT| (ROOT (ROOT (SBARQ (WHNP (WP (what)))(SQ (VBD (be))(NP (NP (DT (the))(JJ (alternate)))(PP (TO (to))(NP (NNP (vhs))))))(. (?))))) |ET| 
1  |BT| (ROOT (ROOT (SBARQ (WHNP (WP (what)))(SQ (VBZ (be))(NP (NP (DT (the))(JJ (average))(NN (salary)))(PP (IN (of))(NP (DT (a))(NN (paleontologist))))))(. (?))))) |ET| 
1  |BT| (ROOT (ROOT (SBARQ (WHNP (WP (what)))(SQ (VBD (be))(NP (NP (NNP (joe))(NNP (namath))(POS ('s)))(JJ (first))(NN (contract))(NN (worth))))(. (?))))) |ET| 
1  |BT| (ROOT (ROOT (SBARQ (WHNP (WP (what)))(SQ (VBZ (be))(NP (NP (DT (the))(JJ (per-capita))(NN (income)))(PP (IN (of))(NP (NNP (colombia))(, (,))(NNP (south))(NNP (america))))))(. (?))))) |ET| 
-0.051612215375287706642382090649335  |BT| (ROOT (ROOT (SBARQ (WHNP (WP (what)))(SQ (VBZ (be))(NP (NP (DT (the))(JJ (medical))(NN (condition)))(PP (IN (of))(NP (NN (hypertension))))))(. (?))))) |ET| 
-0.074819268343304934365534109019791  |BT| (ROOT (ROOT (SBARQ (WHNP (WP (who)))(SQ (VBD (be))(NP (NP (DT (the))(JJ (first))(NN (host)))(PP (IN (of))(NP (NP (NN (person)))(PP (TO (to))(NN (person)))))))(. (?))))) |ET| 
-0.26160902973004912519527920267137  |BT| (ROOT (ROOT (SBARQ (WHNP (WP (what)))(SQ (VBZ (be))(NP (NP (DT (the))(JJ (better-known))(NN (identity)))(PP (IN (of))(NP (NP (NNP (john))(NNP (merrick)))(, (,))(NP (NP (DT (the))(JJ (noble))(NN (ogre)))(PP (IN (of))(NP (JJ (victorian))(NNP (england)))))))))(. (?))))) |ET| 
1  |BT| (ROOT (ROOT (SBARQ (WHADJP (WRB (how))(JJ (much)))(SQ (VBZ (be))(NP (DT (a))(JJ (canadian))(NP (NP (CD (1967))(ADJP (CD (twenty))(NN (dollar)))(NN (gold)))(NP (NN (coin))(NN (worth))))))(. (?))))) |ET| 
1  |BT| (ROOT (ROOT (S (S (VP (VBG (dial))))(, (,))(NP (NP (CD (900)))(, (,))(NP (NP (CD (740-tree)))(SBAR (S (VP (TO (to))(VP (VB (have))(NP (NP (DT (a))(NN (tree)))(VP (VBN (plant))))))))))(VP (MD (will))(VP (VB (cost))(FRAG (WHADJP (WRB (how))(JJ (much))))))(. (?))))) |ET| 
1  |BT| (ROOT (ROOT (SBARQ (WHADJP (WRB (how))(JJ (much)))(SQ (VBZ (be))(NP (NNP (clara))(NNP (peller)))(VP (VBG (be))(VP (VBN (pay))(PP (IN (by))(NP (NNP (wendy))(POS ('s))))(S (VP (TO (to))(VP (VB (say))(`` (``))(SBAR (WHADVP (WRB (where)))(S (VP (VBZ (be))(NP (DT (the))(NN (beef))('' (''))))))))))))(. (?))))) |ET| 
-0.2706118460967608663203520791285  |BT| (ROOT (ROOT (SBARQ (WHADJP (WRB (how))(RB (long)))(SQ (MD (would))(NP (PRP (it)))(VP (VB (take))(S (VP (TO (to))(VP (VB (get))(PP (IN (from))(NP (NNP (earth))))(PP (TO (to))(NP (NNP (mars)))))))))(. (?))))) |ET| 
-0.12824487697680006514922013138857  |BT| (ROOT (ROOT (SBARQ (WHNP (WP (what)))(SQ (VBZ (be))(NP (NP (NP (NNP (mrs.))(NNP (bridges))(POS ('s)))(NN (job)))(PP (IN (on))(NP (NP (NP (NN (tv))(POS ('s)))(NNP (upstairs)))(, (,))(NP (NNP (downstairs)))))))(. (?))))) |ET| 
-0.16479662805028374994442685874674  |BT| (ROOT (ROOT (SBARQ (WHADJP (WRB (how))(JJ (big)))(SQ (VBZ (be))(NP (NP (DT (a))(JJ (normal))(NN (size))(NN (penis)))(PP (IN (for))(NP (DT (a))(JJ (15-year-old))))))(. (?))))) |ET| 
1  |BT| (ROOT (ROOT (SBARQ (WHNP (WP (what)))(SQ (VBZ (be))(NP (NP (DT (the))(JJ (average))(NN (cost)))(PP (IN (for))(NP (NP (CD (four))(NNS (year)))(PP (IN (of))(NP (JJ (medical))(NN (school))))))))(. (?))))) |ET| 
1  |BT| (ROOT (ROOT (SBARQ (WHNP (WP (what)))(SQ (VBZ (be))(NP (NP (DT (the))(NN (salary)))(PP (IN (of))(NP (DT (a))(NNP (u.s.))(NNP (representative))))))(. (?))))) |ET| 
-0.077549353380261448753785202825384  |BT| (ROOT (ROOT (SBARQ (WHNP (WP (what)))(SQ (VBZ (be))(NP (NP (DT (the))(NN (name)))(PP (IN (of))(NP (DT (a))(NN (book)))))(VP (VBN (write))(PP (IN (by))(NP (NNP (aaron))(NNP (hass))))))(. (?))))) |ET| 
-0.11117938348140225801596869814603  |BT| (ROOT (ROOT (SBARQ (WHNP (WP (what)))(SQ (VBZ (be))(NP (NP (DT (the))(NN (name)))(PP (IN (of))(NP (DT (a))(NN (language)))))(VP (VBN (speak))(PP (IN (by))(NP (DT (the))(NNP (sioux))))))(. (?))))) |ET| 
-0.023802603656044456909013362633232  |BT| (ROOT (ROOT (SBARQ (WHNP (WP (what)))(SQ (VBZ (be))(NP (NP (DT (the))(JJ (islamic))(NN (equivalent)))(PP (IN (of))(NP (DT (the))(NNP (red))(NNP (cross))))))(. (?))))) |ET| 
1  |BT| (ROOT (ROOT (SBARQ (WHNP (WP (what)))(SQ (VBZ (be))(NP (DT (the))(JJ (current))(NN (ticket))(NN (fare)))(PP (IN (from))(PP (IN (from))(NP (NP (NNP (cairo)))(PP (TO (to))(NP (NNP (barbados))))))))(. (?))))) |ET| 
1  |BT| (ROOT (ROOT (SBARQ (WHNP (WP (what)))(SQ (MD (will))(NP (DT (the))(NNP (california))(NN (gas))(NN (tax)))(VP (VB (be))(PP (IN (in))(NP (DT (the))(NN (year))(CD (2000))))))(. (?))))) |ET| 
1  |BT| (ROOT (ROOT (SBARQ (WHNP (WP (what)))(SQ (VBZ (be))(NP (NP (DT (the))(JJ (average))(NN (cost)))(PP (IN (for))(NP (NP (CD (four))(NNS (year)))(PP (IN (of))(NP (JJ (medical))(NN (school))))))))(. (?))))) |ET| 
1  |BT| (ROOT (ROOT (SBARQ (WHNP (WP (what)))(SQ (VBZ (be))(NP (DT (the))(JJ (current))(NN (ticket))(NN (fare)))(PP (IN (from))(PP (IN (from))(NP (NP (NNP (cairo)))(PP (TO (to))(NP (NNP (barbados))))))))(. (?))))) |ET| 
-0.21357132271410561585867071698885  |BT| (ROOT (ROOT (SBARQ (WHNP (WP (what)))(SQ (VBD (be))(NP (NP (DT (the))(JJ (first))(NNP (funk))(NNP ('n))(NNP (lata)))(, (,))(NP (JJ (brazilian))(NN (group)))(, (,))(NP (NN (success)))))(. (?))))) |ET| 
-0.24392270543931016124616917295498  |BT| (ROOT (ROOT (SBARQ (WHNP (WDT (what))(NNS (shrub)))(SQ (MD (can))(VP (VB (be))(VP (VBN (plant))(SBAR (S (NP (DT (that)))(VP (MD (will))(VP (VB (be))(ADJP (JJ (safe))(PP (IN (from))(NP (NNS (deer))))))))))))(. (?))))) |ET| 
-0.068657890713078539857150417446974  |BT| (ROOT (ROOT (SBARQ (WHNP (WP (what)))(SQ (VBP (be))(NP (DT (the))(NNS (factor)))(VP (VBG (lead))(PP (TO (to))(NP (NP (DT (the))(JJ (high))(JJ (teen))(NN (pregnancy))(NN (rate)))(PP (IN (in))(NP (NNP (spartanburg))(, (,))(NNP (south))(NNP (carolina))))))))(. (?))))) |ET| 
1  |BT| (ROOT (ROOT (SBARQ (WHNP (WP (what)))(SQ (VBZ (be))(NP (NP (DT (the))(NN (amount)))(PP (IN (of))(NP (NN (money)))))(VP (VBN (owe))(PP (IN (for))(S (ADVP (RB (illegally)))(VP (VBG (have))(NP (NP (DT (a))(NN (dog)))(PP (IN (on))(NP (DT (a))(NN (beach))))))))))(. (?))))) |ET| 
1  |BT| (ROOT (ROOT (SBARQ (WHNP (WP (what)))(SQ (VBZ (be))(NP (NP (DT (the))(NN (fine)))(PP (IN (for))(S (VP (VBG (have))(NP (NP (DT (a))(NN (dog)))(PP (IN (on))(NP (DT (a))(NN (beach))))))))))(. (?))))) |ET| 
0.2771922007215842365113189771364  |BT| (ROOT (ROOT (SBARQ (WHNP (WRB (how))(RB (much)))(SQ (MD (can))(NP (DT (a))(NN (person)))(VP (VB (be))(VP (VBN (fine))(PP (IN (for))(S (VP (VBG (have))(NP (NP (DT (a))(NN (dog)))(PP (IN (on))(NP (DT (a))(NN (beach)))))))))))(. (?))))) |ET| 
-1  |BT| (ROOT (ROOT (SBARQ (WHNP (WP (what)))(SQ (VBZ (be))(NP (NP (DT (the))(JJ (average))(NN (weight)))(PP (IN (for))(NP (DT (a))(NN (man))))))(. (?))))) |ET| 
-0.35184518770373562901454533857759  |BT| (ROOT (ROOT (SBARQ (WHNP (WP (what)))(SQ (VBP (be))(NP (NP (DT (the))(NNS (requirement)))(PP (IN (for))(S (VP (VBG (become))(NP (NP (DT (a))(NN (citizen)))(PP (IN (of))(NP (NNP (australia))))))))))(. (?))))) |ET| 
-0.14548537136196515451302957444568  |BT| (ROOT (ROOT (SBARQ (WHNP (WP (what)))(SQ (VBZ (be))(NP (NP (DT (a))(`` (``))(JJ (usb))('' (''))(NN (port)))(PP (IN (on))(NP (DT (a))(NN (computer))))))(. (?))))) |ET| 
1  |BT| (ROOT (ROOT (SBARQ (WHNP (WRB (how))(RB (much)))(SQ (VBZ (do))(NP (DT (the))(NNP (president)))(VP (VB (get))(VP (VBN (pay)))))(. (?))))) |ET| 
1  |BT| (ROOT (ROOT (SBARQ (WHNP (WRB (how))(RB (much)))(SQ (VBZ (do))(NP (PRP (it)))(VP (VP (VB (cost)))(, (,))(NP (NP (JJ (average)))(CC (or))(SBAR (WHNP (WDT (whatever)))(S (VP (VBZ (be))(ADJP (JJ (available)))(, (,))(S (TO (to))(VP (VB (produce))(CC (and))(VB (send))(NP (NN (junk))(NN (mail))(NNS (catalogue)))(PP (IN (in))(NP (DT (the))(NNP (us))))))))))))(. (?))))(ROOT (PRN (, (,))(NP (NNP (dt))(NNP (cd))(NNP (nn))(NNP (nn)))(, (,))))) |ET| 
1  |BT| (ROOT (ROOT (SBARQ (WHNP (WP (what)))(SQ (VBD (be))(NP (NP (DT (the))(JJ (minimum))(NN (wage)))(PP (IN (in))(NP (CD (1991))))))(. (?))))) |ET| 
-0.10832900816669674415315682836081  |BT| (ROOT (ROOT (FRAG (WHNP (WDT (what))(NNS (school)))(PP (IN (in))(NP (NP (DT (the))(NNP (washington)))(, (,))(NP (NNP (dc))(NNP (nn))(NNP (nn))(NNP (vbp))(NNP (nn))(NNP (nn))(NNP (nn))(NNP (nn)))))(. (.))))) |ET| 
-0.45511073455557204958665806771023  |BT| (ROOT (ROOT (SBARQ (WHADVP (WRB (how)))(SQ (MD (can))(NP (PRP (i)))(VP (VB (find))(PRT (RP (out)))(SBAR (WHADVP (WRB (how))(JJ (much))(NN (income)))(S (NP (NN (tax)))(VP (VBZ (be))(VP (VBN (pay))(PP (IN (on))(NP (NNP (social))(NNP (security))(NN (income))))(PP (IN (on))(NP (DT (the))(CD (1998))(NN (income))(NN (tax))))))))))(. (?))))) |ET| 
-1  |BT| (ROOT (ROOT (SBARQ (WHNP (WRB (how))(RB (much)))(SQ (VBD (do))(NP (NP (DT (a))(NN (knight))(POS ('s)))(NN (armor)))(VP (VB (weigh))))(. (?))))) |ET| 
1  |BT| (ROOT (ROOT (SBARQ (WHNP (WP (what)))(SQ (VBZ (be))(NP (NP (DT (the))(NN (price)))(PP (IN (for))(NP (NP (NNP (aaa))(POS ('s)))(NN (liability))(NN (auto))(NN (insurance))))))(. (?))))) |ET| 
1  |BT| (ROOT (ROOT (SBARQ (WHNP (WP (what)))(SQ (VBZ (be))(NP (NP (DT (the))(NN (price)))(PP (IN (for))(NP (NN (tuberculosis))(NNS (drug))))))(. (?))))) |ET| 
1  |BT| (ROOT (ROOT (SBARQ (WHNP (WP (what)))(SQ (VBP (be))(NP (NP (NN (bottle))(NNS (cap)))(PP (IN (with))(NP (NP (NP (NNS (president))(POS (')))(NNS (picture)))(PP (IN (inside))(NP (NN (worth))))))))(. (?))))) |ET| 
-0.14493704444698543576386384756916  |BT| (ROOT (ROOT (SBARQ (WHNP (WP (what)))(SQ (VBZ (be))(NP (NP (DT (the))(NN (acronym)))(PP (IN (for))(NP (NP (DT (the))(NN (rating))(NN (system)))(PP (IN (for))(NP (NN (air))(NN (conditioner))(NN (efficiency))))))))(. (?))))) |ET| 
-0.22681077708001265436088544902304  |BT| (ROOT (ROOT (SBARQ (WHNP (WP (what)))(SQ (VBZ (be))(NP (NP (DT (the))(NN (temperature)))(PP (IN (for))(S (VP (VBG (bake))(NP (JJ (peachy))(NN (oat))(NNS (muffin))))))))(. (?))))) |ET| 
-0.49688212462588732254431533874595  |BT| (ROOT (ROOT (SBARQ (WHNP (WP (what)))(SQ (VBD (be))(NP (NP (DT (the))(NN (target))(NN (rate)))(PP (IN (for))(NP (NP (NN (m3))(NN (growth)))(PP (IN (in))(NP (CD (1992))))))))(. (?))))) |ET| 
1  |BT| (ROOT (ROOT (SBARQ (WHNP (WRB (how))(RB (much)))(SQ (VBD (do))(NP (NNP (lucy))(NNP (van))(NNP (pelt)))(ADVP (RB (originally)))(VP (VB (charge))(PP (IN (for))(NP (JJ (psychiatric))(NNS (session))))))(. (?))))) |ET| 
1  |BT| (ROOT (ROOT (SBARQ (WHNP (WRB (how))(RB (much)))(SQ (VBD (do))(NP (NNP (varian))(NNP (associates)))(VP (VB (try))(S (VP (TO (to))(VP (VB (sell))(NP (PRP$ (its))(NN (vacuum))(NNS (product))(NN (division)))(PP (TO (to))(NP (DT (the))(NNP (boc))(NN (group))))(PP (IN (for))))))))(. (?))))) |ET| 
0.99876743885381791265842821303522  |BT| (ROOT (ROOT (SBARQ (WHNP (WRB (how))(RB (much)))(SQ (VP (VBD (do))(NP (NP (DT (a))(NNP (mcdonald))(POS ('s)))(NN (hamburger))(NN (cost)))(PP (IN (in))(NP (CD (1963))))))(. (?))))) |ET| 
-0.48528386693086927872187175125873  |BT| (ROOT (ROOT (SBARQ (WHNP (WRB (how))(RB (long)))(SQ (VP (VBZ (do))(NP (NP (NNP (james))(NNP (bond)))(PP (IN (like))(NP (NP (PRP$ (he))(NNS (egg)))(VP (VBN (boil))))))))(. (?))))) |ET| 
-0.9862958619131155790782372605463  |BT| (ROOT (ROOT (SBARQ (WHNP (WRB (how))(RB (long)))(SQ (VP (VBZ (do))(NP (DT (a))(JJ (human))(JJ (live)))))(. (?))))) |ET| 
-0.54600386641882725502483708623913  |BT| (ROOT (ROOT (SBARQ (WHNP (WRB (how))(RB (long)))(SQ (VP (VBD (do))(NP (NNP (shea))(CC (and))(NNP (gould))(NN (practice))(NN (law)))(PP (IN (in))(NP (NNP (los))(NNP (angeles))))))(. (?))))) |ET| 
1  |BT| (ROOT (ROOT (SBARQ (WHNP (WP (what)))(SQ (VBZ (be))(NP (NP (DT (the))(JJ (mean))(NN (income)))(PP (IN (of))(NP (NP (DT (the))(JJ (top))(CD (10))(NN (%)))(, (,))(NP (NP (QP (JJ (top))(CD (5)))(NN (%)))(, (,))(CC (and))(NP (QP (JJ (top))(CD (1)))(NN (%))))))))(. (?))))) |ET| 
1  |BT| (ROOT (ROOT (SBARQ (WHNP (WP (what)))(SQ (VBZ (be))(NP (NP (DT (the))(JJ (per-capita))(NN (income)))(PP (IN (of))(NP (NP (NNP (colombia)))(, (,))(NP (NNP (south))(NNP (america)))(, (,))))))(. (?))))) |ET| 
1  |BT| (ROOT (ROOT (SBARQ (WHNP (WP (what)))(SQ (VBZ (be))(NP (NP (JJ (average))(NN (salary)))(PP (IN (of))(NP (NP (NN (restaurant))(NN (manager)))(PP (IN (in))(NP (NNP (united))(NNPS (states))))))))(. (?))))) |ET| 
-0.25836630591674364376686412470008  |BT| (ROOT (ROOT (SBARQ (WHNP (WP (what)))(SQ (VBZ (be))(NP (NP (DT (the))(NN (meaning)))(PP (IN (of))(NP (NP (FW (caliente)))(, (,))(PP (IN (in))(NP (NNP (english))))(, (,))))))(. (?))))) |ET| 
-0.25584128511572623576597607097938  |BT| (ROOT (ROOT (SBARQ (WHNP (WP (what)))(SQ (VBZ (be))(NP (NP (DT (the))(NNP (us))(NNP (federal))(NNP (government))(NN (website)))(PP (IN (for))(NP (NP (NNP (standard))(NNP (industrial))(NN (classification))(NNS (code)))(, (,))(NP (NNP (sic)))(, (,))))))(. (?))))) |ET| 
-0.022042414720430156260810861112986  |BT| (ROOT (ROOT (SBARQ (WHNP (WP (what)))(SQ (VBD (do))(NP (DT (the))(NNP (gas))(NNP (house))(NN (gang)))(VP (VB (play))))(. (?))))) |ET| 
1  |BT| (ROOT (ROOT (SBARQ (WHNP (WRB (how))(RB (much)))(SQ (VP (VBD (do))(NP (DT (the))(JJ (first))(NNP (barbie))(NN (doll))(NN (sell)))(PP (IN (for))(PP (IN (in))(NP (CD (1959)))))))(. (?))))) |ET| 
1  |BT| (ROOT (ROOT (SBARQ (WHNP (WP (what)))(SQ (VBZ (do))(NP (DT (a))(JJ (average))(NN (daycare))(NN (provider)))(VP (VB (get))(VP (VBN (pay))(PP (IN (in))(NP (NNP (new))(NNP (england)))))))(. (?))))) |ET| 
-0.27842804451360808615234532226168  |BT| (ROOT (ROOT (SBARQ (WHNP (WP (what)))(SQ (VBZ (do))(NP (NNP (inri)))(VP (VB (stand))(PP (IN (for))(SBAR (WHADVP (WRB (when)))(S (VP (VBN (use))(PP (IN (on))(NP (NP (NNP (jesus))(POS (')))(NN (cross))))))))))(. (?))))) |ET| 
-0.2315056532011332546261428433354  |BT| (ROOT (ROOT (SBARQ (WHNP (WP (what)))(SQ (VBZ (be))(NP (DT (a))(JJ (common))(JJ (anti-aids))(NN (drug))))(. (?))))) |ET| 
-0.089321428542509018200235004769638  |BT| (ROOT (ROOT (SBARQ (WHNP (WP (what)))(SQ (VBZ (be))(NP (NP (DT (the))(NN (mascot)))(PP (IN (for))(NP (NNP (notre))(NNP (dame))(NNP (university))))))(. (?))))) |ET| 
1  |BT| (ROOT (ROOT (SBARQ (WHNP (WP (what)))(SQ (VBZ (be))(NP (NP (DT (the))(NN (exchange))(NN (rate)))(PP (IN (for))(NP (ADJP (JJ (australian))(TO (to))(JJ (american)))(NN (money))))))(. (?))))) |ET| 
1  |BT| (ROOT (ROOT (SBARQ (WHNP (WP (what)))(SQ (VBD (be))(NP (NP (DT (the))(CD (1940))(JJ (annual))(NN (salary)))(PP (IN (for))(NP (DT (a))(NN (boilermaker))))))(. (?))))) |ET| 
1  |BT| (ROOT (ROOT (SBARQ (WHNP (WP (what)))(SQ (VBZ (be))(NP (NP (DT (the))(NN (fare))(NN (cost)))(PP (IN (for))(NP (NP (DT (the))(NN (round))(NN (trip)))(PP (IN (between))(NP (NNP (new))(NNP (york))(CC (and))(NNP (london))))(PP (IN (on))(NP (NNP (concorde))))))))(. (?))))) |ET| 
1  |BT| (ROOT (ROOT (SBARQ (WHNP (WP (what)))(SQ (VBZ (do))(NP (DT (a))(JJ (average))(NN (daycare))(NN (provider)))(VP (VB (get))(VP (VBN (pay))(PP (IN (in))(NP (NNP (new))(NNP (england)))))))(. (?))))) |ET| 
-0.086517792544651417330214826506563  |BT| (ROOT (ROOT (SBARQ (WHNP (WP (what)))(SQ (VBZ (be))(NP (NP (DT (the))(JJ (american))(NN (dollar))(NN (equivalent)))(PP (IN (for))(NP (NP (CD (8))(NNS (pound)))(PP (IN (in))(NP (DT (the))(NNP (u.k.))))))))(. (?))))) |ET| 
-0.2630214477961628771751634303655  |BT| (ROOT (ROOT (SBARQ (WHNP (WP (what)))(SQ (VBZ (be))(NP (NP (JJ (new)))(PP (IN (in))(NP (NP (DT (the))(JJ (postal))(NN (world)))(PP (IN (in))(NP (CD (1999))))))))(. (?))))) |ET| 
1  |BT| (ROOT (ROOT (SBARQ (WHNP (WHADJP (WRB (how))(JJ (much)))(NN (money)))(SQ (VBZ (do))(NP (NP (DT (the))(NNP (sultan)))(PP (IN (of))(NP (NNP (brunei)))))(VP (VB (have))))(. (?))))) |ET| 
1  |BT| (ROOT (ROOT (SBARQ (WHNP (WP (what)))(SQ (VBD (be))(NP (DT (the))(JJ (first))(JJ (minimum))(NN (wage))))(. (?))))) |ET| 
-0.16757866625594580733960015095363  |BT| (ROOT (ROOT (SBARQ (WHNP (WP (what)))(SQ (VBZ (be))(NP (NP (DT (the))(JJ (american))(NN (dollar))(NN (equivalent)))(PP (IN (for))(NP (NP (CD (8))(NNS (pound)))(PP (IN (in))(NP (DT (the))(NNP (u.k.))))))))(. (?))))) |ET| 
-0.7062356038124355528395881265169  |BT| (ROOT (ROOT (SBARQ (WHNP (WP (what)))(SQ (VBD (be))(NP (DT (the))(JJ (first))(JJ (domesticated))(NN (bird))))(. (?))))) |ET| 
-0.40006999299495682453908784736996  |BT| (ROOT (ROOT (SBARQ (WHNP (WP (who)))(SQ (VBD (be))(NP (DT (the))(JJ (first))(JJ (taiwanese))(NN (president))))(. (?))))) |ET| 
-1  |BT| (ROOT (ROOT (SBARQ (WHNP (WHNP (WRB (how))(RB (much)))(PP (IN (of))(NP (DT (the))(NN (silver))(NN (production)))))(SQ (VBZ (be))(VP (VBN (manufacture))(PP (IN (by))(NP (JJ (independent))(NNS (silversmith))))))(. (?))))) |ET| 
1  |BT| (ROOT (ROOT (SBARQ (WHNP (WP (what)))(SQ (MD (will))(NP (DT (the))(NN (increase)))(VP (VB (be))(PP (IN (in))(NP (DT (the))(NNP (california))(NN (gas))(NN (tax))))(PP (IN (by))(NP (CD (2000))))))(. (?))))) |ET| 
1  |BT| (ROOT (ROOT (SBARQ (WHNP (WRB (how))(RB (much)))(SQ (VBD (do))(NP (NNP (mercury)))(VP (VB (spend))(PP (IN (on))(NP (NP (NN (advertising)))(PP (IN (in))(NP (CD (1993))))))))(. (?))))) |ET| 
1  |BT| (ROOT (ROOT (SBARQ (WHNP (WRB (how))(RB (much)))(SQ (VBD (do))(NP (NNP (manchester))(NNP (united)))(VP (VB (spend))(PP (IN (on))(NP (NP (NNS (player)))(PP (IN (in))(NP (CD (1993))))))))(. (?))))) |ET| 
-0.30787045650790528794615852348215  |BT| (ROOT (ROOT (SBARQ (WHNP (WHADJP (WRB (how))(JJ (many)))(NP (NP (NNS (dollar)))(NP (DT (a))(NN (day)))))(SQ (VBD (do))(NP (NNP (arthur))(NNP (frommer)))(VP (VBP (say))(SBAR (S (NP (PRP (you)))(VP (MD (could))(VP (VB (get))(PP (IN (by))(PP (IN (on))(PP (IN (in))(NP (NNP (europe))))))(PP (IN (in))(NP (CD (1968))))))))))(. (?))))) |ET| 
-0.20323010361032117776503014283662  |BT| (ROOT (ROOT (SBARQ (WHNP (WHADJP (WRB (how))(JJ (many)))(NNPS (grammys)))(SQ (VBD (do))(NP (NNP (michael))(NNP (jackson)))(VP (VB (win))(PP (IN (in))(NP (CD (1983))))))(. (?))))) |ET| 
-0.084540190130777279065021900805732  |BT| (ROOT (ROOT (SBARQ (WHNP (WHNP (WDT (what))(NN (kind)))(PP (IN (of))(NP (NN (patent)))))(SQ (VBD (do))(NP (NNP (ermal))(NNP (fraze)))(VP (VB (get))(PP (IN (in))(NP (CD (1963))))))(. (?))))) |ET| 
1  |BT| (ROOT (ROOT (SBARQ (WHNP (WRB (how))(RB (much)))(SQ (VP (VBZ (do))(NP (NP (CD (one))(NN (ton)))(PP (IN (of))(NP (NN (cement))(NN (cost)))))))(. (?))))) |ET| 
1  |BT| (ROOT (ROOT (SBARQ (WHNP (WP (what)))(SQ (VBD (be))(NP (DT (the))(JJ (first))(JJ (minimum))(NN (wage))))(. (?))))) |ET| 
-0.85844113405599842270277122224797  |BT| (ROOT (ROOT (SBARQ (WHNP (WHADJP (WRB (how))(JJ (much)))(NN (time)))(SQ (VBZ (do))(NP (NP (DT (the))(RB (blinking)))(PP (IN (of))(NP (DT (a))(NN (eye)))))(VP (VB (take))))(. (?))))) |ET| 
-0.59101263078379839832621200912399  |BT| (ROOT (ROOT (SBARQ (WHNP (WHADJP (WRB (how))(JJ (much)))(NN (calcium)))(SQ (MD (should))(NP (DT (a))(JJ (adult))(NN (female)))(VP (VBP (have))(ADVP (RB (daily)))))(. (?))))) |ET| 
-0.37664707690569398934599121275824  |BT| (ROOT (ROOT (SBARQ (WHNP (WP (what)))(SQ (VBP (be))(NP (NP (DT (the))(JJS (best))(NNS (way)))(S (VP (TO (to))(VP (VB (improve))(NP (NN (employee))(NN (morale)))(PP (IN (at))(NP (JJ (low))(NN (cost)))))))))(. (?))))) |ET| 
1  |BT| (ROOT (ROOT (SBARQ (WHNP (WRB (how))(RB (much)))(SQ (MD (could))(NP (PRP (you)))(VP (VB (rent))(NP (DT (a))(NNP (volkswagen))(NN (bug)))(PP (IN (for))(PP (IN (in))(NP (CD (1966)))))))(. (?))))) |ET| 
1  |BT| (ROOT (ROOT (SBARQ (WHNP (WDT (what)))(SQ (MD (can))(NP (PRP (you)))(VP (VB (be))(VP (VBN (fine))(PP (IN (for))(S (VP (VBG (have))(NP (NP (DT (a))(NN (dog)))(PP (IN (on))(NP (DT (a))(NN (beach)))))))))))(. (?))))) |ET| 
1  |BT| (ROOT (ROOT (SBARQ (WHNP (WHADJP (WRB (how))(JJ (much)))(NN (money)))(SQ (VBD (do))(NP (DT (the))(NNP (marcos)))(VP (VB (steal))(PP (IN (from))(NP (PRP$ (they))(NN (country))))))(. (?))))) |ET| 
-0.18653471576092839345761831282289  |BT| (ROOT (ROOT (SBARQ (WHNP (WP (what)))(SQ (VBD (be))(NP (NP (DT (the))(JJ (average))(NN (life))(NN (expectancy)))(PP (IN (during))(NP (DT (the))(NNP (stone))(NNP (age))))))(. (?))))) |ET| 
-0.30697148069197388586815122835105  |BT| (ROOT (ROOT (SBARQ (WHNP (WP (what)))(SQ (VBD (be))(NP (NP (DT (the))(JJ (great))(NNP (britain))(NN (population)))(PP (IN (from))(NP (CD (1699-172))))))(. (?))))) |ET| 
-0.34228449558259421703354519195273  |BT| (ROOT (ROOT (SBARQ (WHNP (WP (what)))(SQ (VBD (be))(NP (NP (DT (the))(JJ (distinguishing))(NN (mark)))(PP (IN (on))(NP (DT (the))(`` (``))(JJ (little))(NNS (rascal))('' (''))(NN (dog))))))(. (?))))) |ET| 
1  |BT| (ROOT (ROOT (SBARQ (WHNP (WRB (how))(RB (much)))(SQ (VBZ (do))(NP (PRP (it)))(VP (VB (cost))(S (VP (TO (to))(VP (VB (have))(NP (NP (DT (a))(NN (tree)))(VP (VBN (plant))(PP (IN (by))(NP (NP (NN (dialing)))(, (,))(NP (NP (CD (900)))(, (,))(NP (NNP (740-tree)))))))))))))(. (?))))) |ET| 
0.89250789181401035676799438078888  |BT| (ROOT (ROOT (SBARQ (WHNP (WRB (how))(RB (much)))(SQ (VP (VBP (do))(NP (NN (tuberculosis)))(S (VP (VBG (combat))(S (NP (NNS (drug)))(VP (VB (cost))))))))(. (?))))) |ET| 
0.93979972899422115073519989891793  |BT| (ROOT (ROOT (SBARQ (WHNP (WRB (how))(RB (much)))(SQ (VP (VBD (do))(NP (NNP (alaska))(NN (cost)))(SBAR (WHADVP (WRB (when)))(S (VP (VBN (buy))(PP (IN (from))(NP (NNP (russia)))))))))(. (?))))) |ET| 
-0.33603703840408377656601146554749  |BT| (ROOT (ROOT (SBARQ (WHNP (WP (what)))(SQ (VBD (do))(NP (DT (a))(JJ (16th-century))(JJ (aztec))(NN (athlete)))(VP (VB (get))(PP (IN (for))(S (VP (VBG (put))(NP (DT (a))(NN (rubber))(NN (ball)))(PP (IN (through))(NP (DT (a))(NN (ring)))))))))(. (?))))) |ET| 
-0.99395146536444201057491909523378  |BT| (ROOT (ROOT (SBARQ (WHNP (WHNP (WRB (how))(RB (much)))(PP (IN (in))(NP (NNS (mile)))))(SQ (VBZ (be))(NP (NP (DT (a))(CD (ten))(NNP (k)))(S (VP (VB (run))))))(. (?))))) |ET| 
-0.27443711528036890401338609990489  |BT| (ROOT (ROOT (SBARQ (WHNP (WDT (what))(NN (phone))(NN (number)))(SQ (MD (can))(NP (PRP (i)))(VP (VB (call))(S (VP (TO (to))(VP (VB (have))(NP (NP (DT (a))(NN (tree)))(VP (VBN (plant)))))))))(. (?))))) |ET| 
1  |BT| (ROOT (ROOT (SBARQ (WHNP (WHADJP (WRB (how))(JJ (much)))(NN (money)))(SQ (VBD (be))(NP (NP (DT (the))(JJ (minimum))(NN (wage)))(PP (IN (in))(NP (CD (1991))))))(. (?))))) |ET| 
-0.41840782692341910165012563993514  |BT| (ROOT (ROOT (SBARQ (WHADJP (WHADJP (WRB (how))(RB (much)))(JJR (stronger)))(SQ (VBZ (be))(NP (DT (the))(JJ (new))(JJ (vitreous))(NN (carbon))(NN (material)))(VP (VBN (invent))(PP (IN (by))(NP (NP (DT (the))(NNP (tokyo))(NNP (institute)))(PP (IN (of))(NP (NNP (technology))))))(PP (VBN (compare))(PP (IN (with))(NP (NP (DT (the))(NN (material)))(VP (VBN (make))(PP (IN (from))(NP (NN (cellulose))))))))))(. (?))))) |ET| 
-0.49148771196564333685330439038808  |BT| (ROOT (ROOT (SBARQ (WHNP (WHADJP (WRB (how))(JJ (much)))(NN (iron)))(SQ (VBZ (be))(PP (IN (in))(NP (PRP$ (you))(NN (body)))))(. (?))))) |ET| 
-0.51270413437896411590344314390677  |BT| (ROOT (ROOT (SBARQ (WHNP (WHADJP (WRB (how))(JJ (much)))(NN (salt)))(SQ (VBZ (be))(PP (IN (in))(NP (DT (the))(NNS (ocean)))))(. (?))))) |ET| 
0.84387179684006097257764622554532  |BT| (ROOT (ROOT (SBARQ (WHNP (WRB (how))(RB (much)))(SQ (MD (would))(NP (DT (a))(JJ (black-and-white))(JJ (1-cent))(NN (stamp)))(VP (VP (VB (be))(ADJP (JJ (worth))))(, (,))(NP (NP (NNP (thomas))(NNP (jefferson)))(PP (IN (on))(NP (PRP (it)))))))(. (?))))) |ET| 
-0.1669921915931208422634313137678  |BT| (ROOT (ROOT (SBARQ (WHNP (WP (what)))(SQ (VP (VBP (do))(NP (NP (DT (the))(NN (number))(CD (1)))(, (,))(NP (CD (2)))(, (,))(CC (and))(NP (NP (CD (4))(NN (mean)))(PP (IN (on))(NP (NNP (dr.))(NNP (pepper))(NNS (bottle))))))))(. (?))))) |ET| 
-0.22344350979831373305017905295244  |BT| (ROOT (ROOT (SBARQ (WHNP (WDT (what)))(SQ (VP (VBD (blow))(PRT (RP (up)))(PP (IN (at))(NP (NP (NNP (lakehurst)))(, (,))(NP (NNP (new))(NNP (jersey)))(, (,))))(PP (IN (on))(NP (NNP (may))(CD (6))(, (,))(CD (1977))))))(. (?))))) |ET| 
-0.29881669652994158337122598823044  |BT| (ROOT (ROOT (SBARQ (WHNP (WDT (what))(NNP (u.s.))(NN (state)))(SQ (VBZ (do))(NP (DT (the))(NNP (continental)))(VP (VB (divide))(VP (VB (leave))(S (VP (TO (to))(VP (VB (enter))(NP (NNP (canada)))))))))(. (?))))) |ET| 
1  |BT| (ROOT (ROOT (SBARQ (WHNP (WRB (how))(RB (much)))(SQ (MD (will))(NP (NN (gas)))(VP (VB (be))(VP (VBN (tax))(PP (IN (in))(NP (NNP (california))))(PP (IN (by))(NP (DT (the))(NN (year))(CD (2000)))))))(. (?))))) |ET| 
-0.23655217572544856574623395317758  |BT| (ROOT (ROOT (SBARQ (WHADVP (WRB (how))(RB (far)))(SQ (VBZ (be))(NP (PRP (it)))(PP (IN (from))(NP (NP (NNP (phoenix)))(PP (TO (to))(NP (NNP (blythe)))))))(. (?))))) |ET| 
-0.25407667883283480136924481485039  |BT| (ROOT (ROOT (SBARQ (WHNP (WDT (what))(NN (money)))(SQ (VBD (be))(VP (VBN (use))(PP (IN (by))(NP (PRP (they))))))(. (?))))) |ET| 
1  |BT| (ROOT (ROOT (SBARQ (WHNP (WHADJP (WRB (how))(JJ (much)))(NN (money)))(SQ (MD (can))(NP (DT (a))(NN (person)))(VP (VB (be))(VP (VBN (fine))(PP (IN (for))(S (VP (VBG (have))(NP (NP (DT (a))(NN (dog)))(PP (IN (on))(NP (DT (a))(NN (beach)))))))))))(. (?))))) |ET| 
-0.11369144163100064481852768949466  |BT| (ROOT (ROOT (SBARQ (WHNP (WP (what)))(SQ (MD (will))(NP (DT (a))(NN (kid)))(VP (VP (VB (eat))(NP (NP (DT (the))(NN (middle)))(PP (IN (of)))))(, (,))(CC (and))(VP (VB (save))(NP (DT (the))(NN (chocolate)))(PP (IN (on))(NP (NP (DT (the))(JJ (outside)))(PP (IN (for))(NP (JJ (last)))))))))(. (?))))) |ET| 
-0.15661184070872774531935078812239  |BT| (ROOT (ROOT (SBARQ (WHNP (WDT (which))(JJ (large))(NNP (u.s.))(NN (city)))(SQ (VP (VBD (have))(NP (NP (DT (the))(JJS (highest))(NN (murder))(NN (rate)))(PP (IN (for))(NP (CD (1988)))))))(. (?))))) |ET| 
-0.36429929030490987296175831033906  |BT| (ROOT (ROOT (SBARQ (WHNP (WP (what)))(SQ (VP (VBD (do))(NP (NNP (jack))(NN (exchange)))(PP (IN (with))(NP (NP (DT (the))(NN (butcher)))(PP (IN (for))(NP (NP (DT (a))(NN (handful)))(PP (IN (of))(NP (NNS (bean))))))))))(. (?))))) |ET| 
-0.14130510855369479705778701372765  |BT| (ROOT (ROOT (SBARQ (WHNP (WP (what)))(SQ (VP (VBZ (do))(SBAR (S (VP (VBZ (appropriate))(S (NP (NN (money)))(VP (VB (mean)))))))))(. (?))))) |ET| 
-0.40624653437568303271376635166234  |BT| (ROOT (ROOT (SBARQ (WHNP (WP (what)))(SQ (VBZ (be))(NP (NP (DT (the))(JJ (average))(NN (time)))(PP (TO (to))(NP (NN (kiss))(NN (somene))))))(. (?))))) |ET| 
-0.066077835840609722151128835321288  |BT| (ROOT (ROOT (SBARQ (WHNP (WP (what)))(SQ (VBD (do))(NP (NNP (delilah)))(VP (VB (do))(PP (TO (to))(NP (NP (NNP (samson))(POS ('s)))(NN (hair))))))(. (?))))) |ET| 
-0.69777319791777325796999775775475  |BT| (ROOT (ROOT (SBARQ (WHNP (WHNP (WRB (how))(RB (much)))(PP (IN (of))(NP (NP (DT (the))(NN (earth))(POS ('s)))(NN (surface)))))(SQ (VBZ (be))(ADVP (RB (permanently)))(VP (VBN (freeze))))(. (?))))) |ET| 
-0.12370096422743859232440399864572  |BT| (ROOT (ROOT (S (PP (IN (in))(NP (NP (NN (order)))(PP (IN (from))(NP (DT (the))(NN (top))))))(, (,))(NP (NP (DT (the))(CD (four))(NNS (stripe)))(PP (IN (on))(NP (NP (DT (a))(NN (can)))(PP (IN (of))(NP (NNP (pepsi)))))))(VP (VBP (be))(NP (WP (what)))(NP (NNS (color))))(. (?))))) |ET| 
-0.23443328078505071276893545473285  |BT| (ROOT (ROOT (SBARQ (WHNP (WP (what)))(SQ (VBD (be))(NP (NP (NP (NNP (thatcher))(POS ('s)))(NN (approval))(NN (rating)))(PP (IN (after))(NP (NP (CD (10))(NNS (year)))(PP (IN (in))(NP (NN (power))))))))(. (?))))) |ET| 
-0.29358188822400432815840076727909  |BT| (ROOT (ROOT (SBARQ (WHNP (WHADJP (WRB (how))(JJ (much)))(JJ (folic))(NN (acid)))(SQ (MD (should))(NP (DT (a))(JJ (expectant))(NN (mother)))(VP (VB (get))(ADVP (RB (daily)))))(. (?))))) |ET| 
-0.29500419475521921786054235781194  |BT| (ROOT (ROOT (SBARQ (WHNP (WHADJP (WRB (how))(JJ (much)))(JJ (folic))(NN (acid)))(SQ (MD (should))(NP (DT (a))(JJ (pregnant))(NN (woman)))(VP (VB (get))(NP (DT (each))(NN (day)))))(. (?))))) |ET| 
-0.27375431784490295017420180556655  |BT| (ROOT (ROOT (SBARQ (WHADVP (WRB (why)))(SQ (VBP (do))(NP (NN (movie))(CC (and))(NN (tv))(NNS (star)))(VP (VBP (get))(S (VP (VBN (pay))(ADVP (RB (so))(RB (much)))))))(. (?))))) |ET| 
0.45521746812464036757717167347437  |BT| (ROOT (ROOT (SBARQ (WHNP (WRB (how))(RB (much)))(SQ (VP (VBD (do))(NP (DT (the))(JJ (minimum))(NN (wage))(NN (amount)))(PP (TO (to)))(PP (IN (in))(NP (CD (1991))))))(. (?))))) |ET| 
-0.16971864845681727818060835488723  |BT| (ROOT (ROOT (SBARQ (WHNP (WP (what)))(SQ (VBZ (be))(NP (NP (DT (the))(NN (state))(NN (motto)))(PP (IN (of))(NP (NNP (california))))))(. (?))))) |ET| 
-0.20088297818348543888333779250388  |BT| (ROOT (ROOT (SBARQ (WHNP (WP (what)))(SQ (VBZ (be))(NP (NP (DT (the))(NN (quantity)))(PP (IN (of))(NP (NP (JJ (american))(NNS (soldier)))(ADJP (RB (still))(JJ (unaccounted))(PP (IN (for))(PP (IN (from))(NP (DT (the))(NNP (vietnam))(NN (war))))))))))(. (?))))) |ET| 
-0.35368958301782160713599978407728  |BT| (ROOT (ROOT (SBARQ (WHNP (WP (what)))(SQ (VBZ (be))(NP (NP (DT (the))(JJ (seafaring))(NN (name)))(PP (IN (for))(NP (NP (DT (the))(JJ (southern))(NN (tip)))(PP (IN (of))(NP (NNP (south))(NNP (america))))))))(. (?))))) |ET| 
-0.24410034930962110077956594977877  |BT| (ROOT (ROOT (SBARQ (WHNP (WDT (what)))(SQ (MD (can))(VP (VB (be))(VP (VBN (do))(PP (IN (about))(S (VP (VBG (snore))))))))(. (?))))) |ET| 
-0.26205997944817144285067911368969  |BT| (ROOT (ROOT (SBARQ (WHNP (WDT (what))(JJ (european))(NN (country)))(SQ (VP (VBD (abandon))(NP (NN (postage))(NNS (stamp)))(PP (IN (in))(NP (CD (1923))))(PP (IN (because))(S (VP (VBG (print))(S (NP (PRP (they)))(VP (VB (cost))(NP (JJR (more)))(PP (IN (than))(NP (PRP$ (they))(NN (face))(NN (value)))))))))))(. (?))))) |ET| 
-0.22744597289039933385446090596815  |BT| (ROOT (ROOT (SBARQ (WHNP (WHADJP (WRB (how))(JJ (many)))(NNS (time)))(SQ (MD (can))(NP (DT (a))(JJ (nickel-cadmium))(JJ (rechargeable))(NN (battery)))(VP (VB (be))(VP (VBN (recharge)))))(. (?))))) |ET| 
-1  |BT| (ROOT (ROOT (SBARQ (WHNP (WP (what)))(SQ (VBZ (be))(NP (NP (DT (a))(NN (fear)))(PP (IN (of))(NP (NN (money))))))(. (?))))) |ET| 
-0.44434584599713367047968404222047  |BT| (ROOT (ROOT (SBARQ (WHNP (WP (what)))(SQ (VBZ (be))(NP (NN (money)))(VP (VBN (make))(PP (IN (of)))))(. (?))))) |ET| 
-0.24433911517798337365015015620884  |BT| (ROOT (ROOT (SBARQ (WHNP (WP (what)))(SQ (VBZ (be))(NP (NP (PRP (it)))(SBAR (WHNP (IN (that)))(S (VP (VBZ (walk))(PP (PP (IN (on))(NP (CD (four))(NNS (leg))))(, (,))(ADVP (RB (then)))(PP (IN (on))(NP (CD (two))(NNS (leg))))(, (,))(ADVP (RB (then)))(PP (IN (on))(NP (CD (three))))))))))(. (?))))) |ET| 
-0.57099532866394397956355533096939  |BT| (ROOT (ROOT (SBARQ (WHNP (WRB (how))(RB (long)))(SQ (VP (VBD (do))(NP (NP (DT (the))(NNP (charles))(NNP (manson))(NN (murder))(NN (trial)))(JJ (last)))))(. (?))))) |ET| 
-0.2234319323065969975505851152775  |BT| (ROOT (ROOT (SBARQ (WHADVP (WRB (how)))(SQ (VBD (do))(NP (NNP (u.s.a)))(VP (VB (become))(VP (VBN (involve))(PP (IN (in))(NP (DT (the))(NNP (barbary))(NNS (war)))))))))) |ET| 
-0.43621761084142163245047640884877  |BT| (ROOT (ROOT (SBARQ (WHNP (WHADJP (WRB (how))(JJ (much)))(NN (pizza)))(SQ (VBP (do))(NP (NNPS (americans)))(VP (VB (eat))(PP (IN (in))(NP (DT (a))(NN (day))))))(. (?))))) |ET| 
-0.36624036327588804784483045295929  |BT| (ROOT (ROOT (SBARQ (WHNP (WP (what)))(SQ (MD (will))(NP (DT (the))(NN (weather)))(VP (VB (be))(NP (NN (today)))))(. (?))))) |ET| 
-0.37244113865259986795308577711694  |BT| (ROOT (ROOT (SBARQ (WHNP (WP (what)))(SQ (VBD (do))(NP (NNP (louis))(NNP (cartier)))(VP (VB (invent))(PP (IN (for))(NP (NP (NN (aviator))(NNP (santos))(NNP (dumont)))(PP (IN (in))(NP (CD (1940))))))))(. (?))))) |ET| 
-0.2675752061058618846978163219319  |BT| (ROOT (ROOT (SBARQ (WHNP (WP (what)))(SQ (VBZ (do))(NP (NP (DT (a))(NN (man))(NN (suffering)))(PP (IN (from))(NP (JJ (diphallic))(NN (terata)))))(VP (VB (have))))(. (?))))) |ET| 
-0.14562984845073659312397751364188  |BT| (ROOT (ROOT (SBARQ (WHPP (IN (in))(WHNP (WDT (which))(NN (year))))(SQ (VBD (be))(NP (NNP (new))(NNP (zealand)))(VP (VBN (exclude))(PP (IN (from))(NP (DT (the))(NNP (anzus))(NN (alliance))))))(. (?))))) |ET| 
-0.2551087021406627797226462917024  |BT| (ROOT (ROOT (SBARQ (WHNP (WP (who)))(SQ (VBD (be))(NP (NP (DT (the))(NN (captain)))(PP (IN (of))(NP (NP (DT (the))(NN (tanker)))(, (,))(NP (NNP (exxon))(NNP (valdez)))(, (,)))))(VP (VBN (involve))(PP (IN (in))(NP (NP (DT (the))(NN (oil))(NN (spill)))(PP (IN (in))(NP (NP (NNP (prince))(NNP (william))(NNP (sound)))(, (,))(NP (NP (NNP (alaska)))(, (,))(NP (CD (1989))))))))))(. (?))))) |ET| 
-0.4303461992777233846574347353453  |BT| (ROOT (ROOT (SBARQ (WHNP (WHADJP (WRB (how))(JJ (many)))(NNS (mile)))(SQ (VBZ (be))(NP (PRP (it)))(PP (IN (from))(NP (NP (NNP (london))(, (,))(NNP (england)))(PP (TO (to))(NP (NNP (plymouth))(, (,))(NNP (england)))))))(. (?))))) |ET| 
-0.19427270554948508629600212316291  |BT| (ROOT (ROOT (SBARQ (WHNP (WP (whom)))(SQ (VP (VBZ (do))(NP (NP (NP (NNP (uncle))(NNP (duke))(POS ('s)))(NN (girl))(NN (friend)))(, (,))(NP (NP (NNP (honey)))(, (,))(NP (NN (room)))))(PP (IN (with)))))(. (?))))) |ET| 
-0.18931013230862384078001525722357  |BT| (ROOT (ROOT (SBARQ (WHNP (WP (who)))(SQ (MD (would))(NP (PRP (you)))(VP (VB (use))(NP (DT (the))(NNP (heimlich))(NN (maneuver)))(PP (IN (on)))))(. (?))))) |ET| 
-0.15650956283340886066035579915479  |BT| (ROOT (ROOT (SBARQ (WHNP (WP (who)))(SQ (VBZ (do))(NP (NP (NNP (shakespeare))(POS ('s)))(NNP (antonio)))(VP (VB (borrow))(NP (NP (CD (3)))(, (,))(NP (CD (0))(NNS (ducat))))(PP (IN (from)))))(. (?))))) |ET| 
-0.27829380594386604608203583666182  |BT| (ROOT (ROOT (SBARQ (WHNP (WP (what)))(SQ (VBD (do))(NP (NNP (mr.))(NNP (magoo)))(VP (VB (flog))(PP (IN (on))(NP (NP (NN (tv)))(PP (IN (for))(NP (NNP (general))(NNP (electric))))))))(. (?))))) |ET| 
-0.16789895707880406194867362046352  |BT| (ROOT (ROOT (SBARQ (WHNP (WDT (what))(NN (year)))(SQ (VBD (do))(NP (NN (nylon))(NNS (stocking)))(ADVP (RB (first)))(VP (VB (go))(PP (IN (on))(NP (NN (sale))))))(. (?))))) |ET| 
-0.33783603223169245133306048956001  |BT| (ROOT (ROOT (SBARQ (WHADJP (RB (approximately))(WHADJP (WRB (how))(RB (much))))(SQ (VBZ (do))(NP (NP (DT (a))(NN (teaspoon)))(PP (IN (of))(NP (NN (matter)))))(VP (VB (weigh))(PP (IN (in))(NP (DT (a))(JJ (black))(NN (hole))))))(. (?))))) |ET| 
-0.22950452202255167133415625357884  |BT| (ROOT (ROOT (SBARQ (WHNP (WP (what)))(SQ (VBZ (be))(NP (NP (DT (the))(NN (difference)))(PP (IN (between))(NP (NP (DT (the))(NNP (koran)))(CC (and))(NP (DT (the))(NNP (bible)))))))(. (?))))) |ET| 
-0.25680877402981561186123826701078  |BT| (ROOT (ROOT (SBARQ (WHNP (WP (what)))(SQ (VBD (be))(NP (NP (DT (the))(JJ (first))(JJ (u.s.-based))(NN (team)))(PP (IN (in))(NP (DT (the))(NN (nhl))))))(. (?))))) |ET| 
-0.39895428886946693314285994347301  |BT| (ROOT (ROOT (SBARQ (WHNP (WP (what)))(SQ (VBZ (be))(NP (NP (DT (the))(JJ (current))(NN (unemployment))(NN (rate)))(PP (IN (in))(NP (DT (the))(NNP (u.s.))))))(. (?))))) |ET| 
-0.49466699180120893286627392626542  |BT| (ROOT (ROOT (SBARQ (WHNP (WRB (how))(RB (long)))(SQ (VP (VBD (be))(NP (NP (NNP (mao))(POS ('s)))(NNS (1930)))(NP-TMP (JJ (long))(NNP (march)))))(. (?))))) |ET| 
-0.54859913748738142746930179782794  |BT| (ROOT (ROOT (SBARQ (WHNP (WHADJP (WRB (how))(JJ (much)))(NN (snow)))(SQ (VP (VBZ (equal))(NP (NP (DT (a))(NN (inch)))(PP (IN (of))(NP (NN (rain)))))))(. (?))))) |ET| 
-0.30596202462626082008156913616403  |BT| (ROOT (ROOT (SBARQ (WHNP (WHADJP (WRB (how))(JJ (much)))(NN (energy)))(SQ (VBZ (be))(VP (VBN (release))(SBAR (WHADVP (WRB (when)))(S (NP (NP (NN (oxygen)))(CC (and))(NP (NN (hydrogen))(NN (mix))))))))(. (?))))) |ET| 
-0.11085211801419436739024604321457  |BT| (ROOT (ROOT (SBARQ (WHNP (WP (what)))(SQ (VBZ (be))(NP (NP (DT (the))(NN (recipe))(CC (or))(NN (formula)))(PP (IN (for))(NP (NNP (coca-cola))))))(. (?))))) |ET| 
-0.18320026580314396902338103245711  |BT| (ROOT (ROOT (SBARQ (WHNP (WP (what)))(SQ (VBZ (be))(NP (NP (DT (the))(JJS (longest))(JJ (english))(NN (word)))(SBAR (WHNP (WDT (that)))(S (VP (MD (can))(VP (VB (be))(VP (VBN (form))(S (VP (VBG (use))(NP (NP (RB (just))(DT (the))(JJ (first))(NN (row)))(PP (IN (of))(NP (NP (NNS (letter)))(PP (IN (on))(NP (DT (a))(NN (typewriter))))))))))))))))(. (?))))) |ET| 
-0.18437442626250924448960688550869  |BT| (ROOT (ROOT (SBARQ (WHNP (WP (what)))(SQ (VBZ (be))(NP (NP (DT (the))(JJ (common))(NN (name)))(PP (IN (for))(NP (DT (a))(JJ (japanese))(NN (dwarf))(NN (tree))))))(. (?))))) |ET| 
0.29443692700394247241391099123575  |BT| (ROOT (ROOT (SBARQ (WHNP (WRB (how))(RB (much)))(SQ (VP (VBD (do))(NP (DT (the))(NNP (iran-contra))(NN (investigation))(NN (cost)))))(. (?))))) |ET| 
-0.11051499663428683561949839031513  |BT| (ROOT (ROOT (SBARQ (WHNP (WDT (what))(NN (disease)))(SQ (VBD (do))(NP (NNP (august))(NNP (von))(NNP (wassermann)))(VP (VB (develop))(NP (DT (a))(JJ (specific))(NN (test)))(PP (IN (for))(PP (IN (in))(NP (CD (196)))))))(. (?))))) |ET| 
-0.16679362234237568585193400849676  |BT| (ROOT (ROOT (SBARQ (WHNP (WDT (what))(NN (country)))(SQ (VP (VBD (do))(NP (NNP (king))(NNP (gustav))(NNP (v))(NN (reign)))(PP (IN (over))(PP (IN (from))(NP (CD (197)))))(PP (TO (to))(NP (CD (195))))))(. (?))))) |ET| 
-0.089276018419136904391564257821301  |BT| (ROOT (ROOT (SBARQ (WHNP (WDT (what))(NN (country)))(SQ (VBD (do))(NP (DT (the))(NNPS (nazis)))(VP (VBP (occupy))(PP (IN (for))(NP (NP (CD (1)))(, (,))(NP (NP (NNP (cd))(NNP (nns)))(PP (IN (in))(NP (NNP (nnp))(NNP (nnp))(NNP (nnp)))))))))(. (.))))) |ET| 
-0.31295978984705452585757257111254  |BT| (ROOT (ROOT (SBARQ (WHNP (WP (what)))(SQ (VBZ (be))(NP (NP (DT (the))(JJ (average))(JJ (hourly))(NN (rate)))(PP (IN (of))(NP (JJ (american))(NNS (worker))))))(. (?))))) |ET| 
-0.3837316034928670016590501745668  |BT| (ROOT (ROOT (SBARQ (WHNP (WP (what)))(SQ (VBZ (be))(NP (JJ (federal))(NN (income))(NN (tax))))(. (?))))) |ET| 
-0.23139982111619375459987679732876  |BT| (ROOT (ROOT (SBARQ (WHNP (WP (what)))(SQ (VBZ (be))(NP (NP (DT (the))(JJ (second-biggest-selling))(NN (magazine)))(PP (IN (in))(NP (NNP (america))))))(. (?))))) |ET| 
-0.24494315236046926287372116348706  |BT| (ROOT (ROOT (SBARQ (WHNP (WDT (what))(JJ (famed))(NN (library)))(SQ (MD (can))(NP (PRP (you)))(VP (VB (reach))(PP (IN (by))(S (VP (VBG (dial))(NP (CD (22-287-5))))))))(. (?))))) |ET| 
-0.12735167985389406197782591334544  |BT| (ROOT (ROOT (SBARQ (WHNP (WP (what)))(SQ (VBZ (be))(NP (NP (DT (the))(JJ (current))(NN (population)))(PP (IN (for))(NP (DT (these))(NNS (country))))))(: (:))(NP (NP (NNP (france))(, (,))(NNP (spain))(, (,))(NNP (italy))(, (,))(NNP (greece))(, (,))(NNP (austria))(, (,))(NNP (germany))(, (,))(NNP (switzerland))(, (,)))(NP (DT (the))(NNP (netherlands))))(. (?))))) |ET| 
-0.38486532427987180104977937844524  |BT| (ROOT (ROOT (SBARQ (WHADVP (WRB (how)))(SQ (MD (can))(NP (PRP (i)))(VP (VB (find))(PRT (RP (out)))(SBAR (WHADJP (WRB (how))(JJ (much)))(S (NP (PRP (it)))(VP (VBZ (cost))(S (VP (TO (to))(VP (VB (raise))(NP (NP (DT (a))(NN (baby)))(PP (IN (for))(NP (CD (six))(NNS (month)))))))))))))(. (?))))) |ET| 
-0.19233393824821010120729170012055  |BT| (ROOT (ROOT (SBARQ (WHNP (WP (what)))(SQ (VBZ (be))(NP (NP (DT (the))(NN (abbreviation)))(PP (IN (for))(NP (JJ (limited))(NN (partnership))))))(. (?))))) |ET| 
-0.25449114739130851425841228774516  |BT| (ROOT (ROOT (SBARQ (WHNP (WP (what)))(SQ (VBZ (be))(NP (NP (DT (the))(NN (life))(NN (span)))(PP (IN (of))(NP (DT (the))(JJ (average))(NN (monkey))))))(. (?))))) |ET| 
-0.11936475268071047861617728358397  |BT| (ROOT (ROOT (SBARQ (WHNP (WP (what)))(SQ (VBZ (be))(NP (NP (DT (the))(JJS (highest))(NN (number)))(PP (IN (of))(NP (NP (NN (home))(NNS (run)))(PP (IN (on))(NP (NP (NN (record)))(PP (IN (for))(NP (DT (any))(CD (one))(NN (game))))))))))(. (?))))) |ET| 
0.25179316258819917084821327080135  |BT| (ROOT (ROOT (SBARQ (WHNP (WRB (how))(RB (much)))(SQ (VP (VBP (do))(NP (NNS (drug)))(S (VP (TO (to))(VP (VB (treat))(NP (NN (tuberculosis))(NN (cost))))))))(. (?))))) |ET| 
-0.36108903249577428695715752837714  |BT| (ROOT (ROOT (SBARQ (WHNP (WP (what)))(SQ (VBD (do))(NP (NNP (shostakovich)))(VP (VB (write))(PP (IN (for))(NP (NNP (rostropovich))))))(. (?))))) |ET| 
-0.23286894097234028810916584006918  |BT| (ROOT (ROOT (SBARQ (WHNP (WP (what)))(SQ (VBD (do))(NP (NNP (englishman))(NNP (john))(NNP (hawkins)))(VP (VB (begin))(S (VP (VBG (sell))(PP (TO (to))(NP (NP (NNP (new))(NNP (world))(NNS (colonist)))(PP (IN (in))(NP (CD (1562))))))))))(. (?))))) |ET| 
-0.094564249433118099941175671574456  |BT| (ROOT (ROOT (S (PP (IN (in))(NP (CD (139))))(NP (DT (the))(JJ (papal))(NN (court)))(VP (VBD (be))(VP (VBN (force))(S (VP (TO (to))(VP (VB (move))(SBARQ (WHADVP (ADVP (IN (from))(NP (NNP (rome)))(PP (TO (to))))(WRB (where)))))))))(. (?))))) |ET| 
-0.23106649980450760795136488923163  |BT| (ROOT (ROOT (SBARQ (WHNP (WP (what)))(SQ (VBZ (be))(NP (NP (DT (the))(NN (connection)))(PP (IN (between))(NP (NNP (new))(NNP (krypton))(CC (and))(NNP (daxam))))))(. (?))))) |ET| 
-0.16640496367622858997492585331202  |BT| (ROOT (ROOT (SBARQ (WHNP (WP (what)))(SQ (VBZ (be))(NP (NP (DT (the))(JJ (approximate))(NN (population)))(PP (IN (of))(NP (NP (NNP (las))(NNP (vegas)))(, (,))(NP (NNP (n.m)))))))(. (?))))) |ET| 
-0.17624421796733502620924127768376  |BT| (ROOT (ROOT (SBARQ (WHNP (WP (what)))(SQ (VBZ (be))(NP (NP (DT (the))(JJ (main))(NN (language)))(PP (IN (of))(NP (NP (NNP (sao))(NNP (paulo)))(, (,))(NP (NNP (brazil)))))))(. (?))))) |ET| 
-0.46300392522396643935067572783737  |BT| (ROOT (ROOT (SBARQ (WHNP (WP (what)))(SQ (MD (should))(NP (DT (the))(NN (oven)))(VP (VB (be))(VP (VBN (set))(PP (IN (at))(PP (IN (for))(S (VP (VBG (bake))(NP (JJ (peachy))(NN (oat))(NNS (muffin))))))))))(. (?))))) |ET| 
-0.23221118939261189972889098953601  |BT| (ROOT (ROOT (SBARQ (WHNP (WP (what)))(SQ (VBD (be))(NP (NP (NNP (al))(NNP (capone)))(SBAR (S (ADVP (RB (finally)))(VP (VBD (imprison))(PP (IN (for)))(, (,))(PP (IN (in))(NP (CD (1931)))))))))(. (?))))) |ET| 
-0.21002224465147040222134933173948  |BT| (ROOT (ROOT (SBARQ (WHNP (WP (what)))(SQ (VBZ (do))(NP (DT (the))(NN (word))(FW (camaro)))(VP (VB (mean))(, (,))(PP (IN (from))(NP (DT (the))(NNP (gm))(NN (car))))(NP (DT (the))(NNP (camaro)))))(. (?))))) |ET| 
-0.15554627220091221673214931797702  |BT| (ROOT (ROOT (SBARQ (WHNP (WP (what)))(SQ (VBZ (be))(NP (NP (DT (the))(JJS (tallest))(NN (piece)))(PP (IN (on))(NP (DT (a))(NN (chessboard))))))(. (?))))) |ET| 
-0.20146369340670153280647980409412  |BT| (ROOT (ROOT (SBARQ (WHNP (WP (what)))(SQ (VBZ (be))(NP (NP (DT (the))(JJ (average))(NNS (hour)))(PP (IN (per))(NP (NP (NNS (month)))(VP (VBD (spend))(NP (JJ (online)))(PP (IN (by))(NP (NNP (aol))(NNS (user)))))))))(. (?))))) |ET| 
-0.0021518430684555832875515246627174  |BT| (ROOT (ROOT (SBARQ (WHNP (WP (whom)))(SQ (VBD (do))(NP (NNP (friz))(NNP (freleng)))(VP (VB (add))(PP (TO (to))(NP (DT (the))(NNP (warner))(NNP (bros.))(NN (cartoon))(NNS (rank))))))(. (?))))) |ET| 
-0.24971297934372174709416469795542  |BT| (ROOT (ROOT (SBARQ (WHADVP (WRB (how)))(SQ (VBD (do))(NP (DT (the))(JJ (7th))(NN (inning))(NN (stretch)))(VP (VB (get))(VP (VBN (start)))))(. (?))))) |ET| 
-0.21730196062647094690234439440246  |BT| (ROOT (ROOT (SBARQ (WHNP (WRB (how)))(SQ (VP (VBD (do))(SBAR (S (NP (NP (DT (the))(NN (war)))(PP (IN (of))(NP (CD (1812)))))(VP (VBP (affect))(NP (NNP (delaware))))))))(. (?))))) |ET| 
-0.24011598852726828701165118218341  |BT| (ROOT (ROOT (SBARQ (WHNP (WP (what)))(SQ (VBZ (be))(NP (DT (the))(NN (procedure)))(VP (VBN (call))(PP (IN (for))(S (VP (VBG (drill))(NP (NP (DT (a))(NN (hole)))(PP (IN (in))(NP (PRP$ (you))(NN (skull))(S (VP (TO (to))(VP (VB (acheive))(NP (DT (a))(JJR (higher))(NN (consciousness))))))))))))))(. (?))))) |ET| 
-0.18961484226046659840037023059267  |BT| (ROOT (ROOT (SBARQ (WHNP (WP (what)))(SQ (VBZ (be))(NP (NP (NNP (latin)))(PP (IN (for))(NP (JJ (incompetent))))))(. (?))))) |ET| 
-0.15359028532388452337187345619895  |BT| (ROOT (ROOT (SBARQ (WHNP (WP (what)))(SQ (VBZ (be))(NP (DT (a))(NN (gas))(NN (release))(NN (event))))(. (?))))) |ET| 
-0.21200448979947653094235704429593  |BT| (ROOT (ROOT (SBARQ (WHADJP (WRB (how))(JJ (much)))(SQ (NP (NNP (coca))(NNP (cola)))(VP (VBZ (be))(ADJP (JJ (drunk))(PP (IN (in))(NP (NP (CD (one))(NN (day)))(PP (IN (in))(NP (DT (the))(NN (world)))))))))(. (?))))) |ET| 
-0.078221859321676287524205406498368  |BT| (ROOT (ROOT (SBARQ (WHNP (WHADJP (WRB (how))(JJ (many)))(NNS (tile)))(SQ (VBD (do))(NP (DT (the))(NN (space))(NNP (shuttle))(NNP (columbia)))(VP (VB (lose))(PP (IN (on))(NP (PRP$ (its))(JJ (second))(NN (flight))))))(. (?))))) |ET| 
-0.26630134121391185741956064703118  |BT| (ROOT (ROOT (SBARQ (WHNP (WHADJP (WRB (how))(JJ (many)))(NNS (megawatt)))(SQ (MD (will))(NP (NP (NP (DT (the))(NN (power))(NN (project)))(PP (IN (in))(NP (NNP (indonesia)))))(, (,))(VP (VBN (build))(PP (IN (by))(NP (NP (DT (a))(NN (consortium)))(VP (VBN (head))(PP (IN (by))(NP (NP (NNP (mission))(NNP (energy)))(PP (IN (of))(NP (NNP (us))))))))))(, (,)))(VP (VB (produce))))(. (?))))) |ET| 
-0.17398904922093696989726652191166  |BT| (ROOT (ROOT (SBARQ (WHNP (WP (what)))(SQ (VBD (be))(NP (NP (DT (a))(NNP (california))(NN (prayer))(NN (book)))(PP (TO (to))(NP (DT (a))(JJ (old))(NNP (west))(NN (gambler))))))(. (?))))) |ET| 
-0.20461488371438485422970643412555  |BT| (ROOT (ROOT (SBARQ (WHNP (WP (what)))(SQ (VBD (be))(NP (NP (DT (the))(NNP (u.s.))(NN (highway))(NN (death))(NN (toll)))(PP (IN (in))(NP (CD (1969))))))(. (?))))) |ET| 
-0.25019321738804328747463046056509  |BT| (ROOT (ROOT (SBARQ (WHNP (WP (what)))(SQ (VBZ (do))(NP (NP (DT (the))(NN (number)))(`` (``))(NP (CD (5)))('' ('')))(VP (VB (stand))(PP (IN (for))(PP (IN (on))(NP (NNP (fubu))(NN (clothing)))))))(. (?))))) |ET| 
-0.17178624468707098804642896539008  |BT| (ROOT (ROOT (SBARQ (WHNP (WDT (what))(ADJP (JJ (4-foot-9)))(NN (actress)))(SQ (VP (PP (IN (in))(NP (CD (1984))))(VBD (become))(NP (DT (the))(JJ (first))(NN (performer))(S (VP (TO (to))(VP (VB (win))(NP (DT (a))(NNP (oscar)))(PP (IN (for))(S (VP (VBG (play))(NP (NP (DT (a))(NN (character)))(PP (IN (of))(NP (DT (the))(JJ (opposite))(NN (sex))))))))))))))(. (?))))) |ET| 
-0.062356793909602449554885339466637  |BT| (ROOT (ROOT (SBARQ (WHNP (WDT (what))(NNS (effect)))(SQ (VBP (do))(NP (NNS (nitrate)))(VP (VB (have))(PP (IN (on))(NP (DT (the))(NN (environment))))))(. (?))))) |ET| 
-0.15887405464562276424800302265794  |BT| (ROOT (ROOT (SBARQ (WHNP (WP (what)))(SQ (VBD (be))(NP (NP (DT (the))(NN (date)))(PP (IN (of))(NP (NP (NNP (cnn))(POS ('s)))(JJ (first))(NN (broadcast))))))(. (?))))) |ET| 
-0.14402668423758033244830301100592  |BT| (ROOT (ROOT (SBARQ (WHNP (WP (what)))(SQ (VBD (be))(NP (NP (NNP (dwight))(NNP (eisenhower))(POS ('s)))(JJ (favorite))(NN (card))(NN (game))))(. (?))))) |ET| 
-0.2127378862628451494654058251399  |BT| (ROOT (ROOT (SBARQ (WHNP (WP (what)))(SQ (VBD (be))(NP (NP (DT (the))(NN (backup))(NN (singing))(NN (group)))(PP (IN (for))(NP (NNP (roy))(NNP (rogers))))))(. (?))))) |ET| 
-0.18055222405676207841906943940558  |BT| (ROOT (ROOT (SBARQ (WHNP (WDT (what))(NP (NN (anesthetic))))(SQ (VBD (do))(NP (NNP (queen))(NNP (victoria)))(VP (VB (allow))(S (VP (TO (to))(VP (VB (be))(VP (VBN (use))(PP (IN (for))(NP (NP (DT (the))(NN (birth)))(PP (IN (of))(NP (PRP$ (she))(JJ (seventh))(NN (child))))))(, (,))(PP (IN (in))(NP (CD (1853))))))))))(. (?))))) |ET| 
-0.095389534670723960529947760278446  |BT| (ROOT (ROOT (SBARQ (SBAR (WHADVP (WRB (when)))(S (NP (NNP (superman)))(VP (VBZ (need))(S (VP (TO (to))(VP (VB (get))(ADVP (RB (away))(PP (IN (from))(NP (PRP (it)))(ADVP (DT (all)))))))))))(, (,))(WHADVP (WRB (where)))(SQ (VBZ (do))(NP (PRP (he)))(VP (VB (go))))(. (?))))) |ET| 
-0.12479953490161427298588137091429  |BT| (ROOT (ROOT (SBARQ (WHNP (WDT (what))(NN (planet)))(SQ (MD (would))(NP (PRP (you)))(VP (VB (visit))(S (VP (TO (to))(VP (VB (see))(NP (NNP (bebrenia))(, (,))(NNP (arcadia))(, (,))(CC (and))(NNP (amazonis))))))))(. (?))))) |ET| 
-0.14828399358098057203569908324425  |BT| (ROOT (ROOT (SBARQ (WHNP (WP (what)))(SQ (VBP (be))(NP (NP (DT (the))(JJ (top))(CD (ten))(JJ (all-time))(NN (money)))(S (VP (VBG (make))(NP (NNP (nfl))(NNS (team)))))))(. (?))))) |ET| 
-0.13285004012214821078607940307847  |BT| (ROOT (ROOT (SBARQ (WHNP (WP (what)))(SQ (VBP (be))(NP (NP (DT (the))(CD (four))(NNS (railway)))(PP (IN (in))(NP (NNP (monopoly))))))(. (?))))) |ET| 
-0.15765347670110468891735422403144  |BT| (ROOT (ROOT (SBARQ (WHNP (WP (what)))(SQ (VBZ (be))(NP (NP (DT (the))(JJ (northernmost))(NNP (u.s.))(NN (state)))(PP (RB (apart))(IN (from))(NP (NNP (alaska))))))(. (?))))) |ET| 
-0.13285485072665881300935097897309  |BT| (ROOT (ROOT (S (VP (VB (name))(NP (DT (the))(JJ (disposable))(NN (razor)))(PP (IN (that))(`` (``))(NP (NP (NNS (cost)))(PP (IN (about))(NP (CD (19))(NNS (cent)))))))(. (.))('' (''))))) |ET| 
-0.14732684423588773836577558995486  |BT| (ROOT (ROOT (SBARQ (WHADJP (WRB (how))(JJ (hot)))(SQ (VBZ (do))(NP (NP (DT (the))(NN (inside)))(PP (IN (of))(NP (DT (a))(JJ (active))(NN (volcano)))))(VP (VB (get))))(. (?))))) |ET| 
-0.1254312977611541646272286243402  |BT| (ROOT (ROOT (S (NP (NP (DT (the))(JJ (italian))(NN (artist)))(, (,))(NP (NNP (maurizio))(NNP (pellegrin)))(, (,)))(VP (VBZ (be))(WHADJP (WRB (how))(JJ (old))))(. (?))))) |ET| 
-0.15773373295907294755480165804329  |BT| (ROOT (ROOT (SBARQ (WHNP (WP (what)))(SQ (VBZ (do))(NP (NP (DT (the))(NNP (statue)))(PP (IN (of))(NP (NNP (liberty)))))(VP (VB (wear))(PP (IN (on))(NP (PRP$ (she))(NNS (foot))))))(. (?))))) |ET| 
-0.13935131112626913951757501308748  |BT| (ROOT (ROOT (SBARQ (WHNP (WP (what)))(SQ (VBZ (do))(NP (DT (a))(JJ (edentulous))(NN (smile))(NN (lack))))(. (?))))) |ET| 
-0.22371501650578667907964813821309  |BT| (ROOT (ROOT (SBARQ (WHNP (WP (what)))(SQ (VBZ (be))(NP (NP (DT (the))(NN (protection))(NN (rate)))(PP (IN (of))(S (VP (VBG (use))(NP (NNS (condom))))))))(. (?))))) |ET| 
-0.16813838190127072813595532352338  |BT| (ROOT (ROOT (SBARQ (WHNP (WHADJP (WRB (how))(JJ (many)))(NNS (people)))(SQ (VP (VBP (die))(PP (IN (from))(NP (NP (NN (tuberculosis)))(NP (DT (each))(NN (year)))))))(. (?))))) |ET| 
-0.19940058774331209656693886245193  |BT| (ROOT (ROOT (SBARQ (WHNP (WP (what)))(SQ (MD (would))(NP (PRP (you)))(VP (VB (add))(PP (TO (to))(NP (DT (the))(NN (clay))(NN (mixture))))(S (VP (TO (to))(VP (VB (produce))(NP (NN (bone))(NN (china))))))))(. (?))))) |ET| 
-0.10299384493096114256971418399189  |BT| (ROOT (ROOT (SBARQ (WHNP (WDT (what))(NP (NP (JJ (international))(JJ (amateur))(NNS (sport)))(NP (NN (spectacle)))))(SQ (VBD (be))(NP (NP (JJ (first))(NN (telecast)))(PP (IN (in))(NP (CD (1956))))))(. (?))))) |ET| 
-0.14775741820639684553917447829008  |BT| (ROOT (ROOT (SBARQ (WHNP (WP (what)))(SQ (VBZ (be))(NP (NP (DT (the))(JJ (abbreviated))(NN (expression)))(PP (IN (for))(NP (NP (DT (the))(NNP (national))(NNP (bureau)))(PP (IN (of))(NP (NNP (investigation))))))))(. (?))))) |ET| 
-0.28131665120003201963072569924407  |BT| (ROOT (ROOT (SBARQ (WHNP (WP (what)))(SQ (VBZ (be))(NP (NP (DT (the))(NN (name)))(PP (IN (of))(NP (NP (DT (the))(NN (dog)))(PP (IN (on))(NP (DT (the))(NNP (cracker))(NNP (jack))(NN (box))))))))(. (?))))) |ET| 
-0.12046849068953802142090125926188  |BT| (ROOT (ROOT (SBARQ (WHNP (WP (what)))(SQ (VBZ (be))(NP (NP (DT (the))(JJ (legal))(NN (blood))(NN (alcohol))(NN (limit)))(PP (IN (for))(NP (NP (DT (the))(NN (state)))(PP (IN (of))(NP (NNP (california))))))))(. (?))))) |ET| 
-0.16469380268899505570523444930586  |BT| (ROOT (ROOT (SBARQ (WHNP (WRB (how)))(SQ (VP (VBP (do))(S (NP (PRP (they)))(NP (NP (NN (type))(JJ (chinese))(NNS (character)))(PP (IN (on))(NP (DT (a))(NN (keyboard))))))))(. (?))))) |ET| 
-0.085455561812289332346281867103244  |BT| (ROOT (ROOT (SBARQ (WHNP (WDT (what))(CD (1963))(NNP (joseph))(NNP (l.))(NNP (mankiewicz))(NN (film)))(SQ (VP (VBD (cost))(NP (QP ($ ($))(CD (28))(CD (million))))))(. (?))))) |ET| 
-0.15066973523654536570859363564523  |BT| (ROOT (ROOT (SBARQ (WHNP (WP (what)))(SQ (VBZ (be))(NP (NP (DT (the))(NN (symbol)))(PP (IN (for))(NP (DT (the))(JJ (zodiacal))(NN (sign))(NNP (gemini))))))(. (?))))) |ET| 
-0.11282923128702346260432420876896  |BT| (ROOT (ROOT (SBARQ (WHNP (WP (what)))(SQ (VBZ (be))(NP (NP (DT (the))(JJ (organizational))(NN (structure)))(PP (IN (of))(NP (DT (the))(NNP (new))(NNP (delhi))(NNP (indira))(NNP (gandhi))(NN (airport))))))(. (?))))) |ET| 
-0.084314404930099173807178658535122  |BT| (ROOT (ROOT (SBARQ (WHNP (WP (what)))(SQ (VBZ (be))(NP (NP (DT (the))(JJ (geographical))(NN (center)))(PP (IN (of))(NP (NP (DT (the))(NNP (us)))(PP (VBG (include))(NP (NNP (alaska))(CC (and))(NNP (hawaii))))))))(. (?))))) |ET| 
-0.13774741478704052854986628062761  |BT| (ROOT (ROOT (SBARQ (WHADVP (WRB (why)))(SQ (VBZ (do))(NP (NN (cotton)))(VP (VB (get))(VP (VBN (catch))(PP (IN (in))(NP (NN (belly))(NNS (button)))))))(. (?))))) |ET| 
-0.15594399437631017990568693676323  |BT| (ROOT (ROOT (SBARQ (WHNP (WP (what)))(SQ (VBZ (do))(NP (NNP (r.e.m.)))(VP (VB (stand))(PP (IN (for))))(, (,))(PP (IN (as))(PP (IN (in))(NP (DT (the))(NN (rock))(NN (group))(NNP (r.e.m.))))))(. (?))))) |ET| 
-0.13627498477043287206100785624585  |BT| (ROOT (ROOT (SBARQ (SBAR (WHNP (WDT (what)))(FRAG (NP (NN (element)))))(, (,))(PP (IN (from))(NP (DT (the))(NNP (periodic))(NNP (table))))(, (,))(SQ (VBZ (be))(NP (NP (DT (a))(NN (gas)))(CC (or))(NP (NP (DT (a))(ADJP (ADJP (JJ (solid)))(PRN (, (,))(CC (but))(ADVP (RB (never))))))(NP (DT (a))(NN (liquid))))))(. (?))))) |ET| 
-0.1368665779118907188660614338005  |BT| (ROOT (ROOT (SBARQ (WHNP (WP (what)))(SQ (VBZ (be))(NP (NP (NNP (new))(NNP (england))(POS ('s)))(JJS (highest))(NN (mountain))))(. (?))))) |ET| 
-0.14720955961362691688520953903208  |BT| (ROOT (ROOT (SBARQ (WHNP (WP (what)))(SQ (VBZ (be))(NP (JJ (graduate))(NN (school))))(. (?))))) |ET| 
-0.13093091786264532405681393356645  |BT| (ROOT (ROOT (FRAG (WHNP (WDT (what)))(PP (NP (JJ (literary))(JJ (classic))(NNS (center)))(PP (IN (on))(NP (NP (DT (the))(NN (search)))(PP (IN (for))(NP (NP (NP (DT (a))(NN (treasure)))(PP (IN (in))(NP (NP (NN (gold)))(ADJP (JJ (worth))(NP-TMP (CD (7)))))))(, (,))(NP (CD (0))(NNS (pound))))))))(. (?))))) |ET| 
-0.19541295692547044904330277859117  |BT| (ROOT (ROOT (SBARQ (WHNP (WP (what)))(SQ (VBP (be))(NP (NP (DT (the))(CD (7))(NNS (principle)))(PP (IN (of))(S (VP (VBG (learn))(PP (IN (from))(NP (NP (DT (the))(NNP (institute)))(PP (IN (for))(NP (NNP (research))))))(PP (IN (on))(NP (NNP (learning))(, (,))(NNP (irl)))))))))(. (?))))) |ET| 
-0.11892666581209827836307368897906  |BT| (ROOT (ROOT (SBARQ (WHNP (WP (what)))(SQ (VBD (do))(NP (JJ (british))(NNS (company)))(VP (VBP (stick))(NP (NP (CD (175))(, (,))(CD (0))(NNS (ton)))(PP (IN (of))(NP (NN (tea)))))(PP (IN (into))(PP (IN (in))(NP (CD (1982)))))))(. (?))))) |ET| 
-0.11479490667590316888002632822463  |BT| (ROOT (ROOT (SBARQ (WHNP (WP (what)))(SQ (VBZ (be))(NP (NP (RB (p.m.))(DT (a))(NN (abbreviation)))(PP (PP (IN (for)))(, (,))(CONJP (IN (as)))(PP (IN (in))(NP (CD (5))(NN (p.m.)))))))(. (?))))) |ET| 
-0.21236736670040384789004406229651  |BT| (ROOT (ROOT (SBARQ (WHNP (WP (what)))(SQ (VBZ (do))(NP (PRP (it)))(VP (VB (take))(S (VP (TO (to))(VP (VB (be))(NP (DT (a))(NN (hero))))))))(. (?))))) |ET| 
-0.12949314727789712486938356050814  |BT| (ROOT (ROOT (SBARQ (WHNP (WP (what)))(SQ (VBD (be))(NP (NP (NNP (archy)))(, (,))(CC (and))(NP (NNP (mehitabel)))))(. (?))))) |ET| 
-0.1317383243503544854036135802744  |BT| (ROOT (ROOT (SBARQ (WHNP (WP (whom)))(SQ (VBD (do))(NP (DT (the))(NNP (chicago))(NNPS (bulls)))(VP (VB (beat))(PP (IN (in))(NP (DT (the))(CD (1993))(NN (championship))))))(. (?))))) |ET| 
-0.24763650213493562657340874011425  |BT| (ROOT (ROOT (SBARQ (WHNP (WP (what)))(SQ (VBZ (be))(NP (NP (DT (the))(JJ (medical))(NN (term)))(PP (IN (for))(NP (NP (NN (cancer)))(PP (IN (of))(NP (DT (the))(NN (blood))))))))(. (?))))) |ET| 
-0.15945654809669246310122048271296  |BT| (ROOT (ROOT (SBARQ (WHNP (WP (what)))(SQ (VBZ (be))(NP (NP (DT (the))(JJ (economic))(NN (impact)))(PP (IN (of))(NP (NP (NN (unemployment)))(PP (IN (on))(NP (DT (the))(NN (economy))))))))(. (?))))) |ET| 
-0.11873207997681872738482411477889  |BT| (ROOT (ROOT (SBARQ (WHNP (WDT (what))(NNS (state)))(SQ (VP (VBP (do))(RB (not))(VP (VB (have))(NP (NN (state))(NN (income))(NN (tax))))))(. (?))))) |ET| 
-0.15254677672739824778602724109078  |BT| (ROOT (ROOT (SBARQ (WHNP (WP (what)))(SQ (VBD (be))(NP (NP (CD (nine))(NNP (tailors)))(, (,))(NP (DT (the))(NN (television))(NN (show))))(PP (IN (from))(NP (NP (CD (1974)))(, (,))(ADVP (RB (about))))))(. (?))))) |ET| 
-0.11733804182451676445531063563976  |BT| (ROOT (ROOT (SBARQ (WHNP (WDT (what))(NNP (u.s.))(NNP (president)))(SQ (VP (VBD (show))(NP (DT (a))(NN (fondness)))(PP (IN (for))(S (VP (VBG (munch))(PP (IN (on))(NP (NN (bee))(NN (pollen))(NNS (bar)))))))))(. (?))))) |ET| 
-0.15910729124565423098225380726944  |BT| (ROOT (ROOT (SBARQ (WHNP (WP (who)))(SQ (VBD (be))(NP (NP (DT (the))(JJ (first))(NN (king)))(PP (IN (of))(NP (NNP (england))))))(. (?))))) |ET| 
-0.21668972853293694269538605112757  |BT| (ROOT (ROOT (SBARQ (WHNP (WP (what)))(SQ (VBD (be))(NP (NP (DT (the))(JJS (tallest))(NN (building)))(PP (IN (in))(NP (NP (NNP (america)))(PP (IN (in))(NP (CD (1922))))))))(. (?))))) |ET| 
-0.10595206883751831505868779004231  |BT| (ROOT (ROOT (SBARQ (WHADJP (WRB (how))(JJ (high)))(SQ (MD (must))(NP (DT (a))(NN (mountain)))(VP (VB (be))(S (VP (TO (to))(VP (VB (be))(VP (VBN (call))(NP (DT (a))(NN (mountain)))))))))(. (?))))) |ET| 
-0.12045253540055370078398766509054  |BT| (ROOT (ROOT (SBARQ (WHNP (WHNP (WDT (what))(NN (landmark)))(JJ (italian))(NN (restaurant)))(SQ (MD (can))(VP (VB (be))(VP (VBN (find))(PP (IN (at))(NP (NP (CD (239))(NNP (west))(NNP (48th))(NNP (street)))(, (,))(NP (NNP (new))(NNP (york))(NNP (city))))))))(. (?))))) |ET| 
-0.11919822684211897612094332998822  |BT| (ROOT (ROOT (SBARQ (SBARQ (WHADVP (WRB (how)))(SQ (VBZ (do))(NP (NN (marl))(NN (form)))))(CC (and))(SBARQ (WHNP (WP (what))(NN (mineral)))(SQ (VBZ (do))(NP (PRP (it)))(VP (VB (contain))))(. (?)))))) |ET| 
-0.10894555085191220955564972427965  |BT| (ROOT (ROOT (SBARQ (WHNP (WP (what)))(SQ (VBZ (be))(NP (NP (DT (the))(ADJP (RBS (most))(JJ (useful)))(NN (site)))(PP (IN (on))(NP (DT (the))(NN (internet))))))(. (?))))) |ET| 
-0.13865251103322848158505564697407  |BT| (ROOT (ROOT (SBARQ (WHNP (WP (what)))(SQ (VBZ (be))(NP (NP (DT (the))(NN (zodiac))(NN (sign)))(PP (IN (for))(NP (NNP (august))(CD (14))))))(. (?))))) |ET| 
-0.10348776443262891477914422466711  |BT| (ROOT (ROOT (SBARQ (WHNP (WHADJP (WRB (how))(JJ (many)))(NNS (year))(RB (ago)))(SQ (VBD (do))(NP (DT (the))(NN (ship))(NNP (titanic)))(VP (VB (sink))))(. (?))))) |ET| 
-0.11717563537838179832384355449904  |BT| (ROOT (ROOT (SBARQ (WHNP (WP (what)))(SQ (VBP (be))(NP (DT (the))(CD (four))(JJ (natural))(NNS (aid)))(VP (VBN (use))(PP (IN (in))(S (VP (VBG (ride))(NP (DT (a))(NN (horse))))))))(. (?))))) |ET| 
-0.09227679738853415691846038271251  |BT| (ROOT (ROOT (SBARQ (WHNP (WHADJP (WRB (how))(JJ (many)))(JJ (electoral))(NN (college))(NNS (vote)))(SQ (VBZ (do))(NP (NNP (colorado)))(VP (VB (have))))(. (?))))) |ET| 
-0.13531596441026172428223617316689  |BT| (ROOT (ROOT (SBARQ (WHNP (WP (what)))(SQ (VBZ (be))(NP (NP (DT (the))(NN (name)))(PP (IN (of))(NP (NP (DT (the))(JJS (largest))(NN (city)))(PP (IN (in))(NP (NNP (chile))(, (,))(NNP (south))(NNP (america))))))))(. (?))))) |ET| 
-0.101010085610011013379505584453  |BT| (ROOT (ROOT (SBARQ (WHNP (WP (what)))(SQ (VBZ (be))(NP (NP (DT (the))(JJ (poetic))(NN (meter)))(PP (IN (of))(NP (JJ (blank))(NN (verse))))))(. (?))))) |ET| 
-0.12645417254789093064459848392289  |BT| (ROOT (ROOT (SBARQ (WHNP (WP (what)))(SQ (VBZ (be))(NP (NP (DT (the))(NN (death))(NN (toll)))(PP (IN (of))(NP (NP (NNS (people)))(VP (VBG (die))(PP (IN (from))(NP (NN (tuberculosis)))))))))(. (?))))) |ET| 
-0.12559906580133672893140328596928  |BT| (ROOT (ROOT (SBARQ (WHNP (WP (what)))(SQ (VBZ (do))(NP (NNP (nicholas))(NNP (cage)))(VP (VB (do))(PP (IN (for))(NP (DT (a))(NN (living))))))(. (?))))) |ET| 
-0.0630788447600574564422259982166  |BT| (ROOT (ROOT (SBARQ (WHNP (WDT (which))(JJ (soft))(NN (drink)))(SQ (VBZ (do))(NP (NNP (madonna)))(VP (VB (advertise))(PP (IN (for)))))(. (?))))) |ET| 
-0.11286166147470089171633844671305  |BT| (ROOT (ROOT (SBARQ (WHNP (WP (what)))(SQ (VBZ (be))(NP (NP (DT (the))(NN (chance)))(PP (IN (of))(S (VP (VBG (conceive))(NP (NNS (quadruplet))))))))(. (?))))) |ET| 
-0.079836136212866309902480566051963  |BT| (ROOT (ROOT (SBARQ (WHNP (WP (what)))(SQ (VBZ (be))(NP (NP (DT (a))(NN (term)))(PP (IN (for))(NP (NP (NN (behavior))(, (,))(NN (appearance))(, (,))(CC (or))(NN (expression)))(SBAR (WHNP (WDT (that)))(S (VP (VBZ (violate))(NP (NP (DT (the))(VBN (accept))(NNS (standard)))(PP (IN (of))(NP (JJ (sexual))(NN (morality))))))))))))(. (?))))) |ET| 
-0.13086071731320053634917144336214  |BT| (ROOT (ROOT (SBARQ (WHNP (WP (what)))(SQ (VP (VBD (do))(NP (CD (8)))(, (,))(NP (NP (NNP (cd))(NNP (nns))(NNP (vbp)))(VP (TO (to))(NP (NNP (vb))(NNP (nnp))(NNP (pos))(NNP (nn)))))))(. (.))))) |ET| 
-0.1267790674679803997193516806874  |BT| (ROOT (ROOT (SBARQ (WHNP (WP (what)))(SQ (VP (VBZ (do))(NP (DT (a))(JJ (red))(NN (flag))(NN (mean)))(PP (IN (in))(NP (NN (auto))(NN (racing))))))(. (?))))) |ET| 
-0.16330570739058344886807105922344  |BT| (ROOT (ROOT (SBARQ (WHNP (WP (what)))(SQ (VBD (be))(NP (NP (DT (the))(JJ (only))(NN (country)))(SBAR (S (NP (PRP (you)))(VP (VBD (be))(VP (VBN (allow))(S (VP (TO (to))(VP (VB (drive))(PP (IN (into))(NP (NNP (israel))))(PP (IN (from))(PP (IN (in))(NP (CD (1979))))))))))))))(. (?))))) |ET| 
-0.23301440579610860348580558820686  |BT| (ROOT (ROOT (SBARQ (WHNP (WP (what)))(SQ (VBZ (be))(NP (NP (DT (the))(JJ (literary))(NN (term)))(PP (IN (for))(NP (NP (DT (a))(NN (play)))(PP (IN (on))(NP (NNS (word))))))))(. (?))))) |ET| 
-0.12259568311009366725627955929667  |BT| (ROOT (ROOT (SBARQ (WHNP (WP (what)))(SQ (VBZ (be))(NP (NP (DT (the))(JJ (rounded))(NN (part)))(PP (IN (on))(NP (NP (DT (the))(NN (top)))(PP (IN (of))(NP (DT (a))(NN (matchbook)))))))(VP (VBN (call))))(. (?))))) |ET| 
-0.12977217170788377109680311605189  |BT| (ROOT (ROOT (SBARQ (WHNP (WP (what)))(SQ (VBP (be))(NP (NP (DT (the))(JJ (environmental))(NNS (influence)))(PP (IN (on))(NP (NN (plant))(NNS (genetics))))))(. (?))))) |ET| 
-0.12292069415366550788615285227934  |BT| (ROOT (ROOT (SBARQ (WHNP (WDT (which)))(SQ (VBZ (be))(NP (NP (DT (the))(JJS (largest))(NN (clock))(, (,))(ADJP (NN (diameter))(JJ (wise)))(, (,)))(PP (IN (in))(NP (NNP (europe))))))(. (?))))) |ET| 
-0.14962995830668013308439867614652  |BT| (ROOT (ROOT (SBARQ (WHNP (WHADJP (WRB (how))(JJ (much)))(NN (caffeine)))(SQ (VBZ (be))(PP (IN (in))(NP (NP (DT (a))(ADJP (CD (16))(NN (oz)))(NN (cup)))(PP (IN (of))(NP (NN (coffee)))))))(. (?))))) |ET| 
-0.091796576393588874553941536760249  |BT| (ROOT (ROOT (SBARQ (WHNP (WP (what)))(SQ (VBP (be))(NP (NP (DT (the))(RBS (most)))(NP (NNS (album))))(VP (VBN (sell))(PP (IN (by))(NP (NP (CD (one))(NN (artist)))(CC (or))(NP (NN (band)))))))(. (?))))) |ET| 
-0.28747258354400234692249682666443  |BT| (ROOT (ROOT (SBARQ (WHNP (WP (what)))(SQ (VBZ (be))(NP (NP (DT (the))(JJ (average))(NN (life))(NN (expectancy)))(PP (IN (of))(NP (NP (DT (a))(NN (male)))(PP (IN (in))(NP (NP (NNP (ireland)))(PP (IN (in))(NP (CD (1996))))))))))(. (?))))) |ET| 
-0.10769477999366501574929344542397  |BT| (ROOT (ROOT (SBARQ (WHNP (WP (who)))(SQ (VP (VBZ (earn))(NP (PRP$ (they))(NN (money)))(NP (DT (the))(JJ (hard))(NN (way)))))(. (?))))) |ET| 
-0.17862272117063843213102813933801  |BT| (ROOT (ROOT (SBARQ (WHNP (WP (what)))(SQ (MD (will))(NP (DT (a))(NN (compass)))(VP (VBP (do))(PP (IN (in))(NP (JJ (outer))(NN (space))))))(. (?))))) |ET| 
-0.08955476842368445544728672302881  |BT| (ROOT (ROOT (SBARQ (SBAR (WHADVP (WRB (when)))(S (VP (VBG (read))(NP (VBN (classify))(NNS (ad))))))(, (,))(WHNP (WP (what)))(SQ (VP (VBZ (do))(NP (NNP (eenty))))(: (:))(NP (NP (JJ (other))(NN (stand)))(PP (IN (for)))))(. (?))))) |ET| 
-0.089395414562474337372144361779647  |BT| (ROOT (ROOT (SBARQ (WHNP (WP (what)))(SQ (VBZ (be))(NP (NP (DT (the))(NN (origin)))(PP (IN (of))(NP (NP (`` (``))(NN (jiggy))('' ('')))(PP (IN (as))(PP (IN (in))(S (VP (VBG (get))(NP (NN (jiggy)))(PP (IN (with))(NP (PRP (it))))))))))))(. (?))))) |ET| 
-0.21232592170399552933268694232538  |BT| (ROOT (ROOT (SBARQ (WHNP (WP (what)))(SQ (VBZ (be))(NP (NP (DT (the))(JJ (collective))(NN (noun)))(PP (IN (for))(NP (NNS (goose))))))(. (?))))) |ET| 
-0.1167615106564313942616450958667  |BT| (ROOT (ROOT (SBARQ (WHNP (WP (what)))(SQ (VBZ (be))(NP (NP (DT (the))(NN (website)))(PP (IN (for))(NP (DT (the))(NNP (usa))(NN (journal))))))(. (?))))) |ET| 
-0.060375173684738443757868964212321  |BT| (ROOT (ROOT (SBARQ (WHPP (IN (in))(WHNP (WDT (what))(NN (sport))))(SQ (VBP (be))(NP (DT (these)))(VP (VBG (follow))(S (NP (NNS (number)))(ADJP (JJ (relevant))))))(: (:))(NP (NP (CD (118)))(, (,))(NP (CD (126)))(, (,))(NP (CD (134)))(, (,))(NP (CD (142)))(, (,))(NP (CD (15)))(, (,))(NP (CD (158)))(, (,))(NP (CD (167))(, (,))(CD (177))(, (,))(CC (and))(CD (19))))(. (?))))) |ET| 
-0.098155360839133010131263290531933  |BT| (ROOT (ROOT (SBARQ (WHNP (WDT (what))(NN (name)))(SQ (VBD (do))(NP (NP (NN (football))(POS ('s)))(NP (NNP (new))(NNP (york))(NNPS (titans))))(VP (VB (adopt))(PP (IN (in))(NP (CD (1963))))))(. (?))))) |ET| 
-0.080204657899298106848995359996479  |BT| (ROOT (ROOT (SBARQ (WHNP (WDT (what))(NNS (island)))(SQ (VP (VBD (get))(NP (PRP$ (they))(NN (name)))(PP (IN (from))(NP (NP (DT (the))(JJ (spanish))(FW (baja))(FW (mar)))(, (,))(VP (VBG (mean))(NP (JJ (shallow))(NN (water))))))))(. (?))))) |ET| 
-0.11184662422400319659043788078634  |BT| (ROOT (ROOT (SBARQ (WHNP (WP (what)))(SQ (VBD (be))(NP (NP (DT (the))(NN (filling)))(PP (IN (in))(NP (DT (the))(JJ (first))(NN (golf))(NNS (ball))))))(. (?))))) |ET| 
-0.16113552110322659771668440953363  |BT| (ROOT (ROOT (SBARQ (WHNP (WP (what)))(SQ (VBD (do))(NP (NNP (warlock)))(VP (VB (wear))(PP (IN (on))(NP (NP (PRP$ (he))(NN (forehead)))(PP (IN (in))(NP (NNP (marvel))(NNS (comic))))))))(. (?))))) |ET| 
-0.089026094147351020335889870693791  |BT| (ROOT (ROOT (SBARQ (WHNP (WP (what)))(SQ (VBZ (be))(NP (DT (the))(NNP (pennsylvania))(NN (state))(NN (income))(NN (tax))(NN (rate))))(. (?))))) |ET| 
-0.076854366992179415363217742651614  |BT| (ROOT (ROOT (SBARQ (WHNP (WP (what)))(SQ (VBZ (be))(NP (NP (DT (the))(JJ (main))(NN (application)))(PP (IN (of))(NP (NN (sodium))(NN (hydrosulfite))))))(. (?))))) |ET| 
-0.21812879417604869036750869781827  |BT| (ROOT (ROOT (SBARQ (WHNP (WP (what)))(SQ (VBZ (be))(NP (NP (CD (one)))(PP (IN (of))(NP (DT (the))(NNS (language)))))(VP (VBN (speak))(PP (IN (by))(NP (NP (DT (the))(NNP (sioux)))(VP (VBN (call)))))))(. (?))))) |ET| 
-0.043501329126896026711079912274727  |BT| (ROOT (ROOT (SBARQ (WHNP (WHADJP (WRB (how))(JJ (many)))(NN (school))(NNS (district)))(SQ (VBP (be))(NP (EX (there)))(PP (IN (in))(NP (DT (the))(NNP (united))(NNPS (states)))))(. (?))))) |ET| 
-0.056943223705349370333816949596439  |BT| (ROOT (ROOT (SBARQ (WHNP (WDT (what))(CD (two))(JJ (japanese))(NNS (city)))(SQ (VBP (be))(VP (VBN (spell))(PP (IN (with))(NP (NP (DT (the))(NNS (letter))(NN (k)))(, (,))(NP (NN (o))(, (,))(NN (o))(, (,))(NN (t))(CC (and))(NN (y)))))))(. (?))))) |ET| 
-0.10293757351676426081699133874281  |BT| (ROOT (ROOT (SBARQ (WHNP (WP (what)))(SQ (VBZ (be))(NP (NP (DT (the))(NN (sequel)))(PP (TO (to))(NP (NP (NP (NNP (alice))(POS ('s)))(NNS (adventure)))(PP (IN (in))(NP (NNP (wonderland))))))))(. (?))))) |ET| 
-0.12863370998839557257653609667614  |BT| (ROOT (ROOT (SBARQ (WHNP (WP (what)))(SQ (VBZ (be))(NP (NP (DT (the))(NN (term)))(PP (IN (for))(NP (DT (a))(NN (limestone))(NN (deposit)))))(VP (VBG (rise))(PP (IN (from))(NP (NP (DT (the))(NN (floor)))(PP (IN (of))(NP (DT (a))(NN (cave))))))))(. (?))))) |ET| 
-0.068413685966631040957786069611757  |BT| (ROOT (ROOT (SBARQ (WHNP (WP (what)))(SQ (VBD (be))(NP (NP (DT (the))(NN (name)))(PP (IN (of))(NP (NP (NNP (sergeant))(NNP (preston)))(PP (IN (of))(NP (NP (DT (the))(NNP (yukon))(POS ('s)))(NN (lead))(NN (dog))))))))(. (?))))) |ET| 
-0.068353634076376040829003954968357  |BT| (ROOT (ROOT (SBARQ (WHNP (WDT (what))(NN (woman)))(SQ (VP (VBZ (have))(VP (VBN (carry))(NP (NP (DT (the))(ADJP (RBS (most))(JJ (multiple)))(NNS (birth)))(PRN (, (,))(NP (NNS (twin))(, (,))(NNS (triplet))(, (,))(FW (etc.)))(, (,)))))))(. (?))))) |ET| 
-0.044294558739888668930095860787333  |BT| (ROOT (ROOT (SBARQ (WHNP (WDT (what))(NP (JJ (mormon))(NN (leader))))(SQ (VBD (be))(VP (VBN (say))(S (VP (TO (to))(VP (VB (have))(VP (VBN (have))(NP (CD (27))(NNS (wife)))))))))(. (?))))) |ET| 
-0.11462101501896894417686922906796  |BT| (ROOT (ROOT (SBARQ (WHNP (WP (what)))(SQ (VBZ (be))(NP (NP (DT (the))(JJ (average))(NN (age)))(PP (IN (of))(NP (NP (DT (a))(NN (member)))(PP (IN (of))(NP (NP (DT (the))(NN (team)))(SBAR (WHNP (WDT (that)))(S (VP (VBD (work))(PP (IN (on))(NP (DT (the))(NNP (manhatten))(NNP (project)))))))))))))(. (?))))) |ET| 
-0.067826609010231936336410285548482  |BT| (ROOT (ROOT (SBARQ (WHNP (WP (what)))(SQ (VBZ (be))(NP (NP (DT (the))(NN (origin)))(PP (IN (of))(NP (NP (JJ (blue)))(PP (IN (for))(NP (NNS (boy))(CC (and))(NN (pink))))(PP (IN (for))(NP (NNS (girl))))))))(. (?))))) |ET| 
-0.11997050870745792905402993255848  |BT| (ROOT (ROOT (SBARQ (WHNP (WP (what)))(SQ (VBZ (be))(NP (NP (DT (the))(NN (telephone))(NN (number)))(PP (IN (for))(NP (NP (DT (the))(NNP (university)))(PP (IN (of))(NP (NNP (kentucky))))))))(. (?))))) |ET| 
-0.10577097064990229058345505563921  |BT| (ROOT (ROOT (SBARQ (WHNP (WP (what)))(SQ (VBZ (do))(NP (NNP (visine)))(VP (VB (get))(PRT (RP (out)))))(. (?))))) |ET| 
-0.079995674150240891897567507839995  |BT| (ROOT (ROOT (SBARQ (WHNP (WP (what)))(SQ (VBZ (do))(NP (NNP (final))(CD (four)))(VP (VB (refer))(PP (TO (to)))(PP (IN (in))(NP (DT (the))(NNS (sport))(NN (world))))))(. (?))))) |ET| 
-0.065911355946139504879965897998773  |BT| (ROOT (ROOT (SBARQ (WHNP (WP (what)))(SQ (VBD (do))(NP (NNP (cool)))(VP (VB (hand))(S (NP (NNP (luke)))(VP (VB (go))(PP (TO (to))(NP (NN (jail))))(PP (IN (for)))))))(. (?))))) |ET| 
-0.092904762816041389084098511830234  |BT| (ROOT (ROOT (SBARQ (WHNP (WP (what)))(SQ (VBZ (be))(NP (NP (DT (the))(NN (recipe)))(PP (IN (for))(NP (NNP (eggs))(NNP (benedict))))))(. (?))))) |ET| 
-0.095732646753566075226160592137603  |BT| (ROOT (ROOT (SBARQ (WHNP (WP (what)))(SQ (VBZ (be))(NP (NP (DT (another))(NN (term)))(PP (IN (for))(NP (DT (the))(JJ (painful))(NN (wrist))(NN (syndrome))))))(. (?))))) |ET| 
-0.1077449000555257274669429534697  |BT| (ROOT (ROOT (SBARQ (WHNP (WP (what)))(SQ (VBZ (be))(NP (NP (DT (the))(NN (address)))(PP (IN (for))(NP (NP (DT (the))(JJ (main))(NN (government))(NN (office)))(PP (IN (in))(NP (NNP (rome))(, (,))(NNP (italy))))))))(. (?))))) |ET| 
-0.087832823431679724057730140884814  |BT| (ROOT (ROOT (SBARQ (WHNP (WDT (what))(NN (title)))(SQ (VBD (do))(NP (NNP (shevardnadze)))(VP (VB (have))(PP (IN (during))(NP (DT (the))(JJ (soviet))(NN (era))))))(. (?))))) |ET| 
-0.062607786928899983314167343451118  |BT| (ROOT (ROOT (SBARQ (WHNP (WDT (which))(NN (city)))(SQ (VBD (do))(NP (NNP (christian))(NNPS (crusaders)))(VP (VB (fight))(S (VP (TO (to))(VP (VB (recapture))(PP (IN (from))(NP (DT (the))(NNPS (muslims)))))))))(. (?))))) |ET| 
-0.044428067466537095320244787899355  |BT| (ROOT (ROOT (S (VP (VB (name))(S (NP (DT (a))(JJ (canine))(NN (cartoon))(NN (character)))(ADJP (JJ (other))))(SBAR (IN (than))(S (NP (NNP (huckleberry))(NNP (hound)))(VP (TO (to))(VP (VB (have))(NP (DT (a))(NN (voice)))(PP (IN (by))(NP (NNP (daws))(NNP (butler)))))))))(. (.))))) |ET| 
-0.096176535284433845029994358810654  |BT| (ROOT (ROOT (SBARQ (WHNP (WP (what)))(SQ (VBZ (be))(NP (NP (DT (the))(NN (song))(NN (stairway)))(PP (TO (to))(NP (NP (NNP (heaven)))(PP (IN (by))(NP (NP (NNP (led))(NNP (zeppelin)))(ADVP (IN (about)))))))))(. (?))))) |ET| 
-0.12135838642546632748508983468128  |BT| (ROOT (ROOT (SBARQ (WHNP (WP (what)))(SQ (VBZ (be))(NP (NP (DT (the))(JJ (first))(NN (book)))(PP (IN (of))(NP (DT (the))(NNP (old))(NN (testament))))))(. (?))))) |ET| 
-0.066709626200940508322645428052056  |BT| (ROOT (ROOT (SBARQ (WHNP (WP (what)))(SQ (VBD (be))(NP (NP (DT (the))(JJ (non-fiction))(NN (best-seller)))(PP (IN (of))(NP (CD (1952))(, (,))(CD (1953))(CC (and))(CD (1954))))))(. (?))))) |ET| 
-0.11092192173036269364772010703746  |BT| (ROOT (ROOT (SBARQ (WHNP (WP (who)))(SQ (VBD (be))(NP (NP (DT (the))(JJ (first))(JJ (american))(NN (poet)))(S (VP (TO (to))(VP (VB (win))(NP (NP (DT (the))(NNP (nobel))(NNP (prize)))(PP (IN (for))(NP (NN (literature)))))(, (,))(PP (IN (in))(NP (CD (1948)))))))))(. (?))))) |ET| 
-0.073087701378833885845764939404035  |BT| (ROOT (ROOT (SBARQ (WHADVP (WRB (how)))(SQ (VBZ (be))(NP (NN (carbon))(NN (dioxide)))(VP (VBN (remove))(PP (IN (from))(NP (JJ (natural))(NN (gas))))))(. (?))))) |ET| 
-0.049866315370069219659043824321998  |BT| (ROOT (ROOT (SBARQ (WHNP (WHADJP (WRB (how))(JJ (many)))(JJ (american))(NNS (actor)))(SQ (VBD (be))(VP (VBN (nominate))(PP (IN (for))(NP (NP (DT (the))(JJS (best))(NN (actor)))(NNP (oscar))(PP (IN (for))(NP (CD (1983))))))))(. (?))))) |ET| 
-0.16165450632450859003164111982187  |BT| (ROOT (ROOT (SBARQ (WHNP (WP (what)))(SQ (VBZ (be))(NP (NP (DT (the))(NN (capital)))(PP (IN (of))(NP (NNP (california))))))(. (?))))) |ET| 
-0.15123975832983224676375755279878  |BT| (ROOT (ROOT (SBARQ (WHNP (WP (what)))(SQ (VBZ (be))(NP (NP (DT (the))(NN (alphabet)))(PP (IN (for))(NP (NNP (latin))))))(. (?))))) |ET| 
-0.065560021023376338633603666039562  |BT| (ROOT (ROOT (SBARQ (WHNP (WP (what)))(SQ (VBZ (be))(NP (NP (DT (the))(NN (chemical))(NN (composition)))(PP (IN (of))(NP (DT (a))(NNP (barbie))))))(. (?))))) |ET| 
-0.049613266198747105195643314345944  |BT| (ROOT (ROOT (SBARQ (WHPP (IN (on))(WHNP (WDT (what))(NN (t.v.))(NN (show))))(SQ (MD (could))(NP (NNP (tom))(NNP (terrific)))(VP (VB (be))(VP (VBN (find)))))(. (?))))) |ET| 
-0.07147689776979221365493799567048  |BT| (ROOT (ROOT (SBARQ (WHNP (WDT (what))(ADJP (JJ (north))(JJ (american)))(NN (city)))(SQ (MD (would))(NP (PRP (you)))(VP (VB (visit))(S (VP (TO (to))(VP (VB (see))(NP (NP (NNP (cleopatra))(POS ('s)))(NNP (needle))))))))(. (?))))) |ET| 
-0.10678448460659616114920567042645  |BT| (ROOT (ROOT (SBARQ (WHADVP (WRB (how))(RB (far)))(SQ (VBZ (be))(NP (NP (NNP (london))(NNP (uk)))(PP (IN (from))(NP (NNP (california))))))(. (?))))) |ET| 
-0.069783596589436128199146480710624  |BT| (ROOT (ROOT (SBARQ (WHNP (WP (what)))(SQ (VBD (be))(ADVP (RB (originally)))(VP (VBN (define))(PP (IN (as))(NP (NP (CD (one))(NN (1-millionth)))(PP (IN (of))(NP (DT (the))(NN (distance))))))(PP (IN (from))(NP (DT (the))(NN (equator))))(PP (TO (to))(NP (DT (the))(NNP (pole))))))(. (?))))) |ET| 
-0.13495462558868917546384125216719  |BT| (ROOT (ROOT (SBARQ (WHNP (WP (what)))(SQ (VBD (be))(NP (NP (DT (the))(JJ (previous))(NN (name)))(PP (IN (for))(NP (DT (the))(NNP (commonwealth))))))(. (?))))) |ET| 
-0.088281255373818590115320148470346  |BT| (ROOT (ROOT (SBARQ (WHNP (WP (what)))(SQ (VBZ (be))(NP (NP (DT (the))(NN (word)))(PP (IN (for))(NP (NP (JJ (broken))(NN (glass)))(CC (or))(NP (JJ (sharp))(NNS (rock))))))(VP (VBN (embed))(PP (IN (in))(NP (NN (cement))))(PP (IN (on))(NP (NP (NN (top)))(PP (IN (of))(NP (DT (a))(NN (wall))))))))(. (?))))) |ET| 
-0.0784564090758191057251025313235  |BT| (ROOT (ROOT (SBARQ (WHNP (WRB (how)))(SQ (VP (VBP (come))(SBAR (S (NP (DT (a))(NN (doughnut)))(VP (VBZ (have))(NP (NP (DT (a))(NN (hole)))(PP (IN (in))(NP (PRP (it))))))))))(. (?))))) |ET| 
-0.072985600289996857559238208068564  |BT| (ROOT (ROOT (SBARQ (WHNP (WDT (what)))(SQ (MD (can))(NP (PRP (i)))(VP (VB (do))(S (VP (TO (to))(VP (VB (get))(PP (IN (into))(NP (DT (a))(NNP (ivy))(NNP (league))(NN (school)))))))))(. (?))))) |ET| 
-0.064224694976019500169961418123421  |BT| (ROOT (ROOT (SBARQ (WHNP (WP (what)))(SQ (VBD (be))(NP (NP (NNP (baffin))(, (,))(NNP (frobisher))(CC (and))(NNP (franklin)))(VP (VBG (look))(PP (IN (for))))))(. (?))))) |ET| 
-0.091194555612226710361589709918917  |BT| (ROOT (ROOT (SBARQ (WHNP (WP (what)))(SQ (VBZ (be))(NP (NP (DT (the))(JJS (fastest))(JJ (commercial))(NN (automobile)))(SBAR (WHNP (WDT (that)))(S (VP (MD (can))(VP (VB (be))(VP (VBN (buy))(PP (IN (in))(NP (DT (the))(NNP (us)))))))))))(. (?))))) |ET| 
-0.068456076160438028566090906679165  |BT| (ROOT (ROOT (SBARQ (WHNP (WP (what)))(SQ (VBZ (be))(NP (NP (DT (the))(NN (number)))(PP (IN (of))(NP (JJ (american))(NNS (soldier)))))(VP (VBN (deploy))(PP (TO (to))(NP (NNP (south))(NNP (korea))))))(. (?))))) |ET| 
-0.071931302090205956334401093954511  |BT| (ROOT (ROOT (SBARQ (WHNP (WP (what)))(SQ (VBZ (do))(NP (NP (DT (the))(NN (number))(CD (33)))(PP (IN (on))(NP (DT (the))(NNP (rolling))(NNP (rock))(NN (beer))(NN (bottle)))))(VP (VB (mean))))(. (?))))) |ET| 
-0.053214515757601041356927851211367  |BT| (ROOT (ROOT (SBARQ (WHNP (WDT (what))(JJ (late-night))(NN (tv))(NN (show)))(SQ (VBZ (feature))(NP (NP (NNP (larry))(, (,))(NNP (bud))(, (,))(NNP (melman))(CC (and))(NNP (toast)))(PP (IN (on))(NP (DT (a))(NNP (stick))))))(. (?))))) |ET| 
-0.072672879367456352794896190516738  |BT| (ROOT (ROOT (SBARQ (WHNP (WDT (what))(NNS (overalls)))(SQ (VBP (be))(VP (VBN (name))(PP (IN (for))(NP (NP (NNP (dungri)))(, (,))(NP (NP (DT (a))(NN (suburb)))(PP (IN (of))(NP (NNP (bombay)))))))))(. (?))))) |ET| 
-0.051449345623740982968996604540735  |BT| (ROOT (ROOT (SBARQ (WHNP (WP (what)))(SQ (VBP (do))(NP (DT (the))(NNS (letter))(NN (ce)))(VP (VB (stand))(PP (IN (for))(IN (on))(NP (NP (RB (so))(JJ (many))(NNS (product)))(, (,))(ADJP (RB (particularly))(JJ (electrical)))(, (,))(VP (VBN (purchase))(ADVP (RB (now))))))))(. (?))))) |ET| 
-0.072952094314915075234928565350856  |BT| (ROOT (ROOT (SBARQ (WHNP (WP (what)))(SQ (VBD (be))(NP (NP (DT (the))(CD (five))(NN (opening))(NNS (word)))(PP (IN (on))(NP (NNP (ben))(NNP (casey))))))(. (?))))) |ET| 
-0.061636595441651995108678363521904  |BT| (ROOT (ROOT (SBARQ (WHNP (WP (what)))(SQ (VBD (be))(NP (NP (DT (the))(NN (sequel)))(PP (TO (to))(NP (DT (the))(NNP (pink))(NN (panther))))))(. (?))))) |ET| 
-0.053018219433837013299104512498161  |BT| (ROOT (ROOT (SBARQ (WHNP (WP (what)))(SQ (VBD (be))(NP (DT (the))(ADJP (JJ (first))(JJ (frozen)))(NNS (food))))(. (?))))) |ET| 
-0.045563663867905702942184831272243  |BT| (ROOT (ROOT (SBARQ (WHNP (WDT (what))(NP (NP (JJ (12-hour)))(NP (JJ (cold))(NN (medicine)))))(SQ (VP (VBZ (use))(NP (NP (DT (the))(NN (formula)))(`` (``))(NP (CD (6)))(, (,))(NP (CD (6)))(, (,))(NP (CD (12)))('' ('')))(PP (IN (in))(NP (PRP$ (its))(NNS (ad))))))(. (?))))) |ET| 
-0.052232357223464691287073691228215  |BT| (ROOT (ROOT (SBARQ (WHNP (WDT (what))(NN (comedian)))(SQ (VP (VBZ (have))(NP (NP (DT (a))(JJ (legendary))(NN (reputation)))(PP (IN (for))(S (VP (VBG (steal))(NP (NNS (joke)))))))))(. (?))))) |ET| 
-0.0523144899552665798569961452813  |BT| (ROOT (ROOT (SBARQ (WHNP (WDT (what))(NNP (las))(NNP (vegas))(NN (hotel)))(SQ (VP (VBN (burn))(PP (IN (in))(NP (NP (NNP (november)))(, (,))(NP (CD (1980)))(, (,))))(PP (IN (with))(NP (NP (DT (the))(NN (loss)))(PP (IN (of))(NP (CD (84))(NNS (life))))))))(. (?))))) |ET| 
-0.06425390290631356748907165865603  |BT| (ROOT (ROOT (SBARQ (WHNP (WP (what)))(SQ (VBP (be))(NP (NP (DT (some))(JJ (colorful))(NNS (flower)))(SBAR (WHNP (WDT (that)))(S (VP (MD (will))(VP (VB (bloom))(PP (IN (in))(NP (NP (DT (the))(NN (fall)))(PP (IN (in))(NP (NNP (new))(NNP (england))))))))))))(. (?))))) |ET| 
-0.077671359611999696292983230705431  |BT| (ROOT (ROOT (SBARQ (WHNP (WP (what)))(SQ (VBZ (be))(NP (DT (the))(NNP (s&p))(CD (500)))(VP (VBN (use))(PP (IN (for)))))(. (?))))) |ET| 
-0.046539522023007942608252562877169  |BT| (ROOT (ROOT (SBARQ (WHNP (WP (what)))(SQ (VBZ (be))(NP (NP (DT (the))(JJ (traditional))(NN (drink)))(PP (IN (at))(NP (DT (the))(NNP (kentucky))(NNP (derby))))))(. (?))))) |ET| 
-0.042203033024192801447860290409153  |BT| (ROOT (ROOT (SBARQ (WHNP (WHADJP (WRB (how))(JJ (many)))(NNS (year))(RB (ago)))(SQ (VBD (do))(NP (NNP (led))(NNP (zeppelin)))(VP (VB (release))(NP (PRP$ (its))(JJ (last))(NN (album)))))(. (?))))) |ET| 
-0.052942820518069887147927232717848  |BT| (ROOT (ROOT (S (PP (IN (from))(NP (WDT (what))))(NP (NN (cause)))(VP (VBZ (do))(NP (NN (tuberculosis))(NN (stem))))(. (?))))) |ET| 
-0.040221597324663002637201714151161  |BT| (ROOT (ROOT (SINV (PP (IN (with))(NP (WP (whom))))(VBD (do))(NP (NNP (bush)))(VP (VB (compare))(NP (NNP (saddam))(NNP (hussein))))(. (?))))) |ET| 
-0.063856815319911552908394014593796  |BT| (ROOT (ROOT (SBARQ (WHNP (WP (what)))(SQ (VBZ (be))(NP (DT (the))(CD (401))(, (,))(NNP (k))(, (,))(NN (plan))))(. (?))))) |ET| 
-0.081949817890595244573859190495568  |BT| (ROOT (ROOT (SBARQ (WHNP (WP (what)))(SQ (VBZ (be))(NP (NP (DT (the))(NN (weather)))(PP (IN (like))(PP (IN (on))(NP (DT (the))(NN (moon)))))))(. (?))))) |ET| 
-0.046495995351086866209655568127346  |BT| (ROOT (ROOT (SBARQ (WHNP (WP (what)))(SQ (VBD (be))(NP (NP (DT (the))(NN (claim)))(PP (TO (to))(NP (NP (NN (fame)))(PP (IN (of))(NP (NNP (explorer))(NNP (i))))(, (,))(VP (VBD (launch))(NP-TMP (NNP (february))(CD (1))(, (,))(CD (1958))))))))(. (?))))) |ET| 
-0.050619883839838307471037381901624  |BT| (ROOT (ROOT (SBARQ (WHNP (WHADJP (WRB (how))(JJ (many)))(NNS (state)))(SQ (VBD (do))(NP (NNP (richard))(NNP (nixon)))(VP (VB (carry))(PP (IN (in))(NP (CD (1972))))))(. (?))))) |ET| 
-0.053023560347578498064269325595887  |BT| (ROOT (ROOT (SBARQ (WHNP (WDT (what))(JJ (cheery))(NN (fellow)))(SQ (VP (VBD (get))(NP (DT (the))(NN (zip))(NN (code))(CD (9971)))(PP (IN (from))(NP (DT (the))(NNP (u.s.))(NNP (postal))(NNP (service))))(PP (IN (in))(NP (CD (1963))))))(. (?))))) |ET| 
-0.03835825666861559374298806801562  |BT| (ROOT (ROOT (SBARQ (WHNP (WRB (how)))(SQ (VP (VBD (do))(S (NP (NNP (p.t.))(NNP (barnum))(NN (bill)))(NP (DT (the))(JJ (diminutive))(NNP (charles))(NNP (s.))(NNP (stratton))))))(. (?))))) |ET| 
-0.081027171525087732240066884514818  |BT| (ROOT (ROOT (SBARQ (WHNP (WP (what)))(SQ (VBZ (be))(NP (NP (DT (the))(NN (executor)))(PP (IN (in))(NP (DT (a))(NN (will))))))(. (?))))) |ET| 
-0.088995087387683025070828080060892  |BT| (ROOT (ROOT (SBARQ (WHNP (WP (what)))(SQ (VBZ (be))(NP (NP (DT (the))(JJS (farthest))(NN (planet)))(PP (IN (from))(NP (DT (the))(NN (sun))))))(. (?))))) |ET| 
-0.07033898591694892621362100726401  |BT| (ROOT (ROOT (SBARQ (WHNP (WP (what)))(SQ (VBZ (be))(NP (NP (DT (the))(JJ (chemical))(NN (formula)))(PP (IN (for))(NP (NN (napalm))))))(. (?))))) |ET| 
-0.10513795085992466704638559349405  |BT| (ROOT (ROOT (SBARQ (WHNP (WP (who)))(SQ (VBD (be))(NP (NP (NNP (president)))(PP (IN (of))(NP (NP (NNP (afghanistan)))(PP (IN (in))(NP (CD (1994))))))))(. (?))))) |ET| 
-0.052776132693932054085195204606862  |BT| (ROOT (ROOT (SBARQ (WHNP (WP (what)))(SQ (VP (VBZ (do)))(NP (NNP (playboy))(NN (title)))(NP (NP (NP (PRP$ (its)))(VP (`` (``))(VBG (continue))(NP (NN (dialog)))))(PP (IN (on))(NP (NP (JJ (contemporary))(NNS (issue)))(PP (IN (between))(NP (NP (NNP (playboy)))(CC (and))(NP (PRP$ (its))(NNS (reader)))('' (''))))))))(. (?))))) |ET| 
-0.049750429598343748338606928882655  |BT| (ROOT (ROOT (SBARQ (WHNP (WP (what)))(SQ (VBD (do))(NP (NNP (fcc))(NN (chairman))(NNP (newton))(NNP (minow)))(VP (VB (declare))(NP (NN (tv)))(S (VP (TO (to))(VP (VB (be))(PP (IN (on))(NP (NNP (may))(CD (9))(, (,))(CD (1961)))))))))(. (?))))) |ET| 
-0.048231063773082241685763449368096  |BT| (ROOT (ROOT (FRAG (PP (IN (in))(NP (NP (NP (NNP (dana))(POS ('s)))(NX (`` (``))(NP (CD (two))(NNS (year)))(PP (IN (before))(NP (DT (the))(NN (mast))))(, (,))('' (''))))(SBAR (WHNP (WDT (what)))(S (NP (NNS (seafarer)))(VP (VBD (live))(PP (IN (in))(NP (NP (DT (a))(VBN (abandon))(NN (oven)))(PP (IN (on))(NP (NP (DT (the))(NN (beach)))(PP (IN (at))(NP (NNP (san))(NNP (diego)))))))))))))(. (?))))) |ET| 
-0.06254839674762754930803509978432  |BT| (ROOT (ROOT (SBARQ (WHNP (WP (what)))(SQ (VBD (do))(NP (DT (the))(NNP (yalta))(NNP (conference)))(VP (VB (lead))(PP (TO (to)))))(. (?))))) |ET| 
-0.096155569038255742086995780937286  |BT| (ROOT (ROOT (SBARQ (WHNP (WP (what)))(SQ (VBZ (be))(NP (NP (DT (the))(NN (population)))(PP (IN (of))(NP (DT (the))(NNP (united))(NNPS (states))))))(. (?))))) |ET| 
-0.040955844494707585590198561931174  |BT| (ROOT (ROOT (SBARQ (WHNP (WDT (which))(JJ (german))(NN (president)))(SQ (VBD (be))(VP (VBN (pressure))(PP (IN (into))(S (VP (VBG (appoint))(NP (NNP (hitler))(NN (chancellor)))(PP (IN (in))(NP (CD (1933)))))))))(. (?))))) |ET| 
-0.041692062270798316281350537337858  |BT| (ROOT (ROOT (SBARQ (WHNP (WP$ (whose))(NN (funeral))(NN (train)))(SQ (VP (VBD (travel))(PP (IN (from))(NP (NNP (washington))(NNP (d.c.))))(PP (TO (to))(NP (NNP (springfield))(, (,))(NNP (illinois))))))(. (?))))) |ET| 
-0.060124924215775622793334065363524  |BT| (ROOT (ROOT (SBARQ (WHNP (WP (what)))(SQ (VBP (do))(NP (PRP (you)))(VP (VB (get))(PP (IN (by))(S (VP (VBG (mix))(NP (NN (gin))(CC (and))(NN (vermouth))))))))(. (?))))) |ET| 
-0.053330068833998482691338693939542  |BT| (ROOT (ROOT (SBARQ (WHNP (WP (what)))(SQ (VBZ (be))(NP (NP (NP (DT (the))(NN (maximum))(NN (length)))(, (,))(PP (IN (in))(NP (NNS (inch))))(, (,)))(PP (IN (of))(NP (NP (DT (a))(JJ (first))(NN (baseman))(POS ('s)))(NN (glove))))))(. (?))))) |ET| 
-0.058116558109285870736826495885907  |BT| (ROOT (ROOT (SBARQ (WHNP (WP (what)))(SQ (VBZ (be))(NP (NP (DT (the))(JJ (classic))(NN (definition)))(PP (IN (of))(NP (JJ (tragic))(NN (hero))))))(. (?))))) |ET| 
-0.057051077580373074638053765283985  |BT| (ROOT (ROOT (SBARQ (WHNP (WP (what)))(SQ (VBZ (be))(NP (NP (DT (the))(ADJP (JJS (fastest))(VBG (grow)))(NN (state)))(PP (IN (in))(NP (NP (DT (the))(NNP (u.s.a.)))(PP (IN (in))(NP (CD (1998))))))))(. (?))))) |ET| 
-0.05295821925857413514648897034931  |BT| (ROOT (ROOT (SBARQ (WHNP (WP (what)))(SQ (VBZ (do))(NP (NNP (larry))(NNP (king)))(VP (VB (do))(PP (IN (for))(NP (DT (a))(NN (living))))))(. (?))))) |ET| 
-0.02979968673856911789976642523925  |BT| (ROOT (ROOT (SBARQ (WHNP (WP (what)))(SQ (VBZ (be))(NP (NNP (jane))(NNP (goodall)))(VP (VBN (know))(PP (IN (for)))))(. (?))))) |ET| 
-0.029799686738569013816357866630824  |BT| (ROOT (ROOT (SBARQ (WHNP (WP (what)))(SQ (VBZ (be))(NP (NNP (d.b.))(NNP (cooper)))(VP (VBN (know))(PP (IN (for)))))(. (?))))) |ET| 
-0.038281470583017979114615059188509  |BT| (ROOT (ROOT (SBARQ (WHNP (WHADJP (WRB (how))(JJ (many)))(NP (NP (NNS (foot)))(ADJP (QP (RBR (more))(IN (than))(CD (2))))))(SQ (VBZ (be))(NP (NP (DT (the))(JJ (average))(NN (height)))(PP (IN (of))(NP (NP (DT (the))(NNP (great))(NNP (wall)))(PP (IN (of))(NP (NNP (china))))))))(. (?))))) |ET| 
-0.044395286016850124544141920068796  |BT| (ROOT (ROOT (SBARQ (WHNP (WDT (what))(NNP (california))(NN (bridge)))(SQ (VBD (be))(NP (NNP (don))(NNP (brown)))(NP (NP (DT (the))(JJ (first)))(S (VP (TO (to))(VP (VB (cross))(, (,))(PP (IN (on))(NP (NNP (may))(CD (27))(, (,))(CD (1937)))))))))(. (?))))) |ET| 
-0.032626778556612792692170899044868  |BT| (ROOT (ROOT (SBARQ (WHNP (WHADJP (WRB (how))(JJ (many)))(NNS (wife)))(SQ (VBD (do))(NP (NNP (brigham))(NNP (young)))(VP (VB (have))))(. (?))))) |ET| 
-0.044068068809372390459699886378075  |BT| (ROOT (ROOT (SBARQ (WHNP (WP (what)))(SQ (VBZ (be))(NP (NP (NN (usenet)))(PP (IN (for))(NP (DT (the))(NN (internet))))))(. (?))))) |ET| 
-0.046540209025280103449784263602851  |BT| (ROOT (ROOT (SBARQ (WHNP (WP (what)))(SQ (VBP (be))(NP (NP (DT (the))(NN (shoe))(NNS (size)))(PP (IN (of))(NP (NP (NN (o)))(`` (`))(NP (NNP (neal))(, (,))(NNP (jordan)))(, (,))(CC (and))(NP (NNP (mutombo)))(, (,)))))(NP (DT (the))(NNP (nba))(NNS (player))))(. (?))))) |ET| 
-0.031535874137288547047752729213244  |BT| (ROOT (ROOT (SBARQ (WHNP (WDT (which))(JJ (high))(NNS (school)))(SQ (VBP (be))(VP (VBN (include))(PP (IN (in))(NP (DT (the))(NNP (south))(NNP (florida))(NNP (ice))(NN (hockey))(NN (league))))))(. (?))))) |ET| 
-0.022980925179745304715028808573152  |BT| (ROOT (ROOT (SBARQ (WHPP (IN (in))(WHNP (WDT (what))(NN (film))))(SQ (VP (VBD (do))(NP (NP (NNP (steven))(NNP (spielberg))(POS ('s)))(NN (dog))(NN (star)))(PP (IN (as))(NP (NP (DT (the))(JJ (main))(NN (character))(POS ('s)))(NN (dog))))))(. (?))))) |ET| 
-0.048359197245238592921534603874534  |BT| (ROOT (ROOT (SBARQ (WHNP (WP (what)))(SQ (VBD (be))(NP (DT (the))(JJ (first))(NNP (sam))(NNP (spade))(NN (novel))))(. (?))))) |ET| 
-0.036022753372345450717517678640434  |BT| (ROOT (ROOT (SBARQ (WHNP (WP (what)))(SQ (VBZ (be))(NP (NP (NP (NNP (nero))(NNP (wolfe))(POS ('s)))(JJ (favorite))(NN (drink)))(PP (IN (during))(NP (NN (office))(NNS (hour))))))(. (?))))) |ET| 
-0.027375431764611213303339809499448  |BT| (ROOT (ROOT (SBARQ (WHNP (WP (what)))(SQ (VBZ (be))(NP (NP (DT (the))(VBN (recommend))(NN (weight)))(PP (IN (of))(NP (NP (DT (a))(ADJP (CD (15))(JJ (year-old))(NN (male))))(SBAR (WHNP (WDT (that)))(S (VP (VBZ (be))(NP (NP (CD (5)))(, (,))(NP (CD (6)))))))))))(. (?))))) |ET| 
-0.032157597772783805267771128910681  |BT| (ROOT (ROOT (SBARQ (WHNP (WP (what)))(SQ (VBZ (be))(NP (NP (DT (the))(JJ (last))(NN (line)))(PP (IN (of))(NP (NP (NNP (dickens))(POS ('s)))(NP (DT (a))(NX (NNP (christmas))(NNP (carol))))))))(. (?))))) |ET| 
-0.04873538365482960044161586665723  |BT| (ROOT (ROOT (SBARQ (WHNP (WHNP (WHADJP (WRB (how))(JJ (many)))(NNS (people)))(PP (IN (on))(NP (DT (the))(NN (ground)))))(SQ (VBD (be))(VP (VBN (kill))(PP (IN (from))(NP (NP (DT (the))(NN (bombing)))(PP (IN (of))(NP (NNP (pan))(VBP (be))(NN (flight))(CD (103))))))(PP (IN (over))(NP (NP (NNP (lockerbie))(, (,))(NNP (scotland))(, (,))(NNP (december))(CD (21)))(, (,))(NP (NNP (cd)))))))(. (.))))) |ET| 
-0.035956630742746298334822085962514  |BT| (ROOT (ROOT (SBARQ (WHNP (WHADJP (WRB (how))(JJ (many)))(NNPS (russians)))(SQ (VP (VBP (have))(VP (VBN (land))(PP (IN (on))(NP (DT (the))(NN (moon)))))))(. (?))))) |ET| 
-0.051471876390728421579723317336175  |BT| (ROOT (ROOT (SBARQ (WHNP (WP (what)))(SQ (VBD (be))(NP (NP (DT (the))(NN (name)))(PP (IN (of))(NP (NP (DT (the))(JJ (american))(NN (ship)))(VP (VBN (sink))(PP (IN (by))(NP (NP (DT (a))(NN (mine)))(PP (IN (in))(NP (NNP (havana)))))))(VP (VBP (harbor)))(, (,))(VP (VBG (cause))(NP (DT (the))(JJ (spanish-american))(NN (war))))))))(. (?))))) |ET| 
-0.045019956746227191013431934152322  |BT| (ROOT (ROOT (SBARQ (WHNP (WP (what)))(SQ (VBZ (be))(NP (DT (a))(JJ (aortic))(JJ (abdominal))(NN (aneurysm))))(. (?))))) |ET| 
-0.041432387033608068793721912470573  |BT| (ROOT (ROOT (SBARQ (WHADJP (WRB (how))(JJ (tall)))(SQ (VBZ (be))(NP (NP (DT (the))(NN (replica)))(PP (IN (of))(NP (NP (DT (the))(NNP (matterhorn)))(PP (IN (at))(NP (NNP (disneyland))))))))(. (?))))) |ET| 
-0.037344907593175408200281140125298  |BT| (ROOT (ROOT (SBARQ (WHNP (WDT (what))(NNP (boris))(NNP (pasternak))(NN (book)))(SQ (VP (VBD (sell))(NP (NP (CD (5)))(, (,))(NP (CD (0))(NNS (copy))))(S (VP (TO (to))(VP (VB (become))(NP (NP (DT (the))(NN (fiction))(NN (best-seller)))(PP (IN (of))(NP (CD (1958))))))))))(. (?))))) |ET| 
-0.044814550482181941815085224334325  |BT| (ROOT (ROOT (SBARQ (WHNP (WP (what)))(SQ (VBD (be))(NP (DT (the))(JJ (24-disc))(NNP (john))(NNP (gabel))(NNP (entertainer)))(NP (NP (DT (the))(JJ (first))(NN (example)))(PP (PP (IN (of)))(, (,))(PP (IN (in))(NP (CD (1960)))))))(. (?))))) |ET| 
-0.035852449837079643224502234488682  |BT| (ROOT (ROOT (SBARQ (WHNP (WP (what)))(SQ (VBD (do))(NP (NP (DT (the))(JJ (only)))(SBAR (S (VP (VBD (repeal))(NP (NN (amendment)))(PP (TO (to))(NP (DT (the))(NNP (u.s.))(NNP (constitution))))))))(VP (VB (deal))(PP (IN (with)))))(. (?))))) |ET| 
