SVM-light Version V5.01-TK-1.5
5 # kernel type
3 # kernel parameter -d 
1 # kernel parameter -g 
1 # kernel parameter -s 
1 # kernel parameter -r 
empty# kernel parameter -u 
0.4 # kernel parameter -L 
1 # kernel parameter -T 
T # kernel parameter -C 
2 # kernel parameter -F 
1 # kernel parameter -S 
0.400000 # kernel parameter -M 
3 # kernel parameter -N 
S # kernel parameter -V 
S # kernel parameter -W 
0 # kernel parameter -U 
10 # highest feature index 
5451 # number of training documents 
2098 # number of support vectors plus 1 
1.1328301 # threshold b, each following line is a SV (starting with alpha*y)
-0.18029276789192805185990664540441  |BT| (ROOT (ROOT (SBARQ (WHNP (WDT (what)))(SQ (VP (VBZ (turn))(NP (JJ (blue))(NN (litmus))(NN (paper))(NN (red)))))(. (?))))) |ET| 
-0.62629370508120396632278925608261  |BT| (ROOT (ROOT (SBARQ (WHNP (WRB (how))(RB (much)))(SQ (MD (would))(NP (PRP (it)))(VP (VB (cost))(S (VP (TO (to))(VP (VB (purchase))(NP (NP (DT (a))(JJ (2-foot-square))(NN (party))(NN (tent)))(, (,))(PP (IN (with))(NP (NNS (side))))(, (,))))))))(. (?))))) |ET| 
-0.30835819741830033935414689949539  |BT| (ROOT (ROOT (SBARQ (WHNP (WRB (how))(RB (much)))(SQ (VBZ (do))(NP (DT (a))(JJ (new))(NN (railroad))(NN (coal))(NN (car))(NN (cost))))(. (?))))) |ET| 
-0.57488111569704980485795431377483  |BT| (ROOT (ROOT (SBARQ (WHNP (WP (what)))(SQ (VBZ (be))(NP (NP (NNP (maurizio))(NNP (pellegrin))(POS ('s)))(NN (age))))(. (?))))) |ET| 
-0.3244446635879245643963031398016  |BT| (ROOT (ROOT (SBARQ (WHNP (WRB (how))(RB (much)))(SQ (MD (would))(NP (DT (a))(JJ (black-and-white))(JJ (1-cent))(NN (stamp)))(VP (VB (be))(UCP (ADJP (JJ (worth)))(, (,))(NP (NP (NNP (thomas))(NNP (jefferson)))(PP (IN (on))(NP (PRP (it)))))(, (,)))))(. (?))))) |ET| 
0.1524027150042670530893929026206  |BT| (ROOT (ROOT (SBARQ (WHADVP (WRB (how)))(SQ (VBD (do))(NP (NN (serfdom)))(VP (VP (VB (develop))(PP (IN (in))))(CC (and))(ADVP (RB (then)))(VP (VBP (leave))(NP (NNP (russia))))))(. (?))))) |ET| 
1  |BT| (ROOT (ROOT (SBARQ (WHADVP (WRB (how)))(SQ (MD (can))(NP (PRP (i)))(VP (VB (find))(NP (NP (DT (a))(NN (list)))(PP (IN (of))(NP (NP (NNS (celebrity))(POS (')))(JJ (real))(NNS (name)))))))(. (?))))) |ET| 
0.90158908099590062690253944310825  |BT| (ROOT (ROOT (SBARQ (WHNP (WP (what)))(SQ (VBP (be))(NP (NN (liver))(NNS (enzyme))))(. (?))))) |ET| 
0.29437422392581436003666794931632  |BT| (ROOT (ROOT (SBARQ (WHADVP (WRB (how)))(SQ (VBD (do))(NP (DT (the))(NN (bikini))(NN (bathing))(NN (suite)))(VP (VB (get))(NP (PRP$ (its))(NN (name)))))(. (?))))) |ET| 
1  |BT| (ROOT (ROOT (SBARQ (WHNP (WP (what)))(SQ (VBD (do))(NP (NP (DT (the))(JJ (only)))(SBAR (S (VP (VBD (repeal))(NP (NN (amendment)))(PP (TO (to))(NP (DT (the))(NNP (u.s.))(NNP (constitution))))))))(VP (VB (deal))(PP (IN (with)))))(. (?))))) |ET| 
-0.60641268562029615463160325816716  |BT| (ROOT (ROOT (SBARQ (WHADVP (WRB (where)))(SQ (MD (can))(NP (PRP (i)))(VP (VB (find))(NP (NP (DT (the))(NN (history)))(PP (IN (of))(NP (DT (the))(JJ (taiwanese))(NN (language)))))))(. (?))))) |ET| 
-0.37227204738111119297627737978473  |BT| (ROOT (ROOT (SBARQ (WHADVP (WRB (where)))(SQ (MD (can))(NP (PRP (i)))(VP (VB (find))(NP (NP (DT (the))(NN (history)))(PP (IN (of))(NP (DT (the))(JJ (hungarian))(NN (language)))))))(. (?))))) |ET| 
-0.54912205355589638333668744962779  |BT| (ROOT (ROOT (SBARQ (WHADVP (WRB (where)))(SQ (MD (can))(NP (PRP (i)))(VP (VB (find))(NP (NP (DT (the))(NN (status)))(PP (IN (of))(NP (PRP$ (my))(NN (tax))(NN (return)))))))(. (?))))) |ET| 
1  |BT| (ROOT (ROOT (SBARQ (WHNP (WRB (how)))(SQ (VP (VBP (come))(SBAR (S (NP (DT (a))(NN (doughnut)))(VP (VBZ (have))(NP (NP (DT (a))(NN (hole)))(PP (IN (in))(NP (PRP (it))))))))))(. (?))))) |ET| 
1  |BT| (ROOT (ROOT (SBARQ (WHNP (WDT (what))(NN (function)))(SQ (VBZ (do))(NP (NP (DT (a))(NN (community))(POS ('s)))(NN (water))(NN (tower)))(VP (VB (serve))))(. (?))))) |ET| 
1  |BT| (ROOT (ROOT (SBARQ (WHNP (WRB (how)))(SQ (VP (VBP (do))(SBAR (S (NP (VBG (vend))(NNS (machine)))(VP (VBP (tell))(SBAR (IN (if))(S (NP (PRP$ (you))(NN (dollar)))(VP (VBZ (be))(NP (NP (DT (a))(CD (1)))(CC (or))(NP (DT (a))(CD (5))))))))))))(. (?))))) |ET| 
-1  |BT| (ROOT (ROOT (SBARQ (WHNP (WP (what)))(SQ (VP (VBP (do))(SBAR (S (NP (JJ (hasidic))(NNPS (jews)))(VP (VBP (refrain))(PP (IN (from))(SBAR (IN (while))(S (VP (VBG (date)))))))))))(. (?))))) |ET| 
-1  |BT| (ROOT (ROOT (SBARQ (WHNP (WP (what)))(SQ (VP (VBZ (do))(NP (DT (a))(NN (collier))(NN (mine)))))(. (?))))) |ET| 
-1  |BT| (ROOT (ROOT (SBARQ (WHNP (WP (what)))(SQ (VP (VBZ (do))(NP (DT (a))(NN (phobophobe))(NN (fear)))))(. (?))))) |ET| 
0.081188215191181370422590646285244  |BT| (ROOT (ROOT (SBARQ (WHNP (WP (what)))(SQ (VBZ (be))(NP (NN (magnetar))))(. (?))))) |ET| 
0.60558493826390180636565219174372  |BT| (ROOT (ROOT (SBARQ (WHADVP (WRB (how)))(SQ (MD (can))(NP (PRP (i)))(VP (VB (get))(NP (NP (PRP$ (my))(NN (product)))(VP (VBN (license))(PP (IN (by))(NP (DT (the))(NNP (nba))))))))(. (?))))) |ET| 
0.58279983050942751887646409159061  |BT| (ROOT (ROOT (SBARQ (WHADVP (WRB (how)))(SQ (MD (can))(NP (PRP (i)))(VP (VB (search))(PP (IN (for))(NP (NP (DT (a))(NN (word)))(PP (IN (within))(NP (PRP$ (my))(JJ (own))(NN (webpage))))))))(. (?))))) |ET| 
-1  |BT| (ROOT (ROOT (SBARQ (WHADVP (WRB (how)))(SQ (VBP (do))(NP (PRP (you)))(VP (VB (say))(SBAR (S (NP (PRP (i)))(VP (VBP (love))(NP (PRP (you)))(PP (IN (in))(NP (NNP (spanish)))))))))(. (?))))) |ET| 
-1  |BT| (ROOT (ROOT (SBARQ (WHADVP (WRB (how)))(SQ (VBP (do))(NP (PRP (you)))(VP (VB (say))(NP (CD (2)))(PP (IN (in))(NP (NNP (latin))))))(. (?))))) |ET| 
0.09142738595930324785321374747582  |BT| (ROOT (ROOT (SBARQ (WHNP (WP (what)))(SQ (VP (VBZ (do))(NP (JJ (idle))(NN (mean)))))(. (?))))) |ET| 
1  |BT| (ROOT (ROOT (SBARQ (WHNP (WP (what)))(SQ (VP (VBZ (do))(NP (DT (the))(NN (word))(JJ (affiant))(NN (mean)))))(. (?))))) |ET| 
0.08063440468967897345464734826237  |BT| (ROOT (ROOT (SBARQ (WHNP (WP (what)))(SQ (VBZ (be))(NP (NN (limbo))))(. (?))))) |ET| 
-1  |BT| (ROOT (ROOT (SBARQ (WHNP (WP (what)))(SQ (VBP (be))(NP (DT (some))(NN (mythology))(NNS (website))))(. (?))))) |ET| 
-1  |BT| (ROOT (ROOT (SBARQ (WHNP (WP (what)))(SQ (VBP (be))(NP (DT (the))(JJ (nordic))(NNS (nation))))(. (?))))) |ET| 
-1  |BT| (ROOT (ROOT (SBARQ (WHNP (WP (what)))(SQ (VBP (be))(NP (DT (the))(NNP (benelux))(NNS (country))))(. (?))))) |ET| 
-0.040052105818800129433121526290051  |BT| (ROOT (ROOT (SBARQ (WHNP (WDT (what))(NN (game)))(SQ (VBZ (be))(ADJP (JJ (fatal))(PP (TO (to))(NP (NP (NN (anybody)))(PP (IN (over))(NP (CD (21))))))))(. (?))))) |ET| 
0.7133678947135556613901030686975  |BT| (ROOT (ROOT (SBARQ (WHADVP (WRB (how)))(SQ (VBP (do))(NP (PRP (you)))(VP (VB (calculate))(NP (DT (the))(NN (change)))(PP (IN (in))(NP (NP (NN (enthalpy)))(PP (IN (of))(NP (DT (a))(JJ (chemical))(NN (reaction))))))))(. (?))))) |ET| 
0.12443094710647864542529816844763  |BT| (ROOT (ROOT (SBARQ (WHADVP (WRB (how)))(SQ (VBP (do))(NP (PRP (you)))(VP (VB (find))(PRT (RP (out)))(SBAR (WHNP (WP (what)))(S (VP (VBZ (be))(VP (VBN (allow))(S (VP (TO (to))(VP (VB (claim))(PP (IN (as))(NP (NP (DT (a))(NN (contibution)))(PP (IN (for))(NP (NN (income))(NN (tax))(NNS (purpose)))))))))))))))(. (?))))) |ET| 
-1  |BT| (ROOT (ROOT (SBARQ (WHADVP (WRB (how)))(SQ (VBP (do))(NP (PRP (you)))(VP (VB (say))(NP (CD (2)))(PP (IN (in))(NP (NNP (latin))))))(. (?))))) |ET| 
-0.69454521326077767184870026540011  |BT| (ROOT (ROOT (SBARQ (WHADVP (WRB (when)))(SQ (VBD (do))(NP (NN (swimming)))(VP (VBN (become))(NP (NN (commonplace)))))(. (?))))) |ET| 
-1  |BT| (ROOT (ROOT (SBARQ (WHADVP (WRB (when)))(SQ (VBD (do))(NP (NNP (hitler)))(VP (VB (come))(PP (TO (to))(NP (NP (NN (power)))(PP (IN (in))(NP (NNP (germany))))))))(. (?))))) |ET| 
-0.34960441137076292417162903802819  |BT| (ROOT (ROOT (SBARQ (WHADVP (WRB (when)))(SQ (VBD (do))(NP (NP (JJ (rococo))(NN (painting)))(CC (and))(NP (NN (architecture))))(VP (VB (flourish))))(. (?))))) |ET| 
1  |BT| (ROOT (ROOT (SBARQ (WHNP (WP (what)))(SQ (VBP (be))(NP (DT (the))(JJ (low))(NNS (country))))(. (?))))) |ET| 
1  |BT| (ROOT (ROOT (SBARQ (WHNP (WP (what)))(SQ (VBP (be))(NP (DT (the))(JJ (greek))(NNS (numeral))))(. (?))))) |ET| 
1  |BT| (ROOT (ROOT (SBARQ (WHNP (WP (what)))(SQ (VBP (be))(NP (DT (the))(NNP (valdez))(NNS (principle))))(. (?))))) |ET| 
-1  |BT| (ROOT (ROOT (SBARQ (WHNP (WP (what)))(SQ (VBP (be))(NP (NP (DT (the))(JJ (developmental))(NNS (stage)))(PP (IN (of))(NP (DT (a))(NN (swimmer))))))(. (?))))) |ET| 
-1  |BT| (ROOT (ROOT (SBARQ (WHNP (WP (what)))(SQ (VBP (be))(NP (DT (the))(CD (seven))(NNS (sea))))(. (?))))) |ET| 
-1  |BT| (ROOT (ROOT (SBARQ (WHNP (WP (what)))(SQ (VBP (be))(NP (DT (the))(CD (four))(NNS (element))))(. (?))))) |ET| 
1  |BT| (ROOT (ROOT (SBARQ (WHADVP (WRB (where)))(SQ (VBD (do))(NP (NN (marijuana)))(VP (VBN (come))(PP (IN (from)))))(. (?))))) |ET| 
1  |BT| (ROOT (ROOT (SBARQ (WHADVP (WRB (where)))(SQ (VBD (do))(NP (JJ (indian))(NN (pudding)))(VP (VBN (come))(PP (IN (from)))))(. (?))))) |ET| 
1  |BT| (ROOT (ROOT (SBARQ (WHADVP (WRB (where)))(SQ (VBD (do))(NP (DT (the))(NN (term))(NN (fireplug)))(VP (VBN (come))(PP (IN (from)))))(. (?))))) |ET| 
-1  |BT| (ROOT (ROOT (SBARQ (WHADVP (WRB (where)))(SQ (VBD (do))(NP (DT (the))(NN (world)))(VP (VBN (come))(PP (IN (from)))))(. (?))))) |ET| 
-0.915217406614340478476776752359  |BT| (ROOT (ROOT (SBARQ (WHADVP (WRB (where)))(SQ (VBZ (do))(NP (NN (chocolate)))(VP (VB (come))(PP (IN (from)))))(. (?))))) |ET| 
0.057540985386633922149535180778912  |BT| (ROOT (ROOT (SBARQ (WHADVP (WRB (how)))(SQ (VBP (do))(NP (PRP (you)))(VP (VB (determine))(NP (NN (heating))(NNS (requirement)))(PP (IN (for))(NP (PRP$ (you))(NN (home))))))(. (?))))) |ET| 
1  |BT| (ROOT (ROOT (SBARQ (WHNP (WP (what)))(SQ (VBP (be))(NP (DT (the))(CD (seven))(NNS (virtue))))(. (?))))) |ET| 
1  |BT| (ROOT (ROOT (SBARQ (WHNP (WP (what)))(SQ (VBP (be))(NP (NP (DT (the))(NN (living))(NNS (condition)))(PP (IN (in))(NP (NNP (cuba))))))(. (?))))) |ET| 
1  |BT| (ROOT (ROOT (SBARQ (WHNP (WP (what)))(SQ (VBP (be))(NP (NP (NNP (cobol)))(, (,))(NP (NNP (fortran)))(, (,))(CC (and))(NP (NNP (pascal)))))(. (?))))) |ET| 
-1  |BT| (ROOT (ROOT (SBARQ (WHNP (WP (what)))(SQ (VBP (be))(NP (DT (the))(JJS (biggest))(JJ (indian))(NNS (airport))))(. (?))))) |ET| 
-1  |BT| (ROOT (ROOT (SBARQ (WHNP (WP (what)))(SQ (VP (VBZ (be))(NP (DT (the))(ADJP (RBS (most))(RB (widely))(VBN (cultivate)))(NN (plant)))))(. (?))))) |ET| 
-0.38170719128857588664516242715763  |BT| (ROOT (ROOT (SBARQ (WHNP (WP (what)))(SQ (VBP (be))(NP (NP (DT (the))(JJ (top))(NN (boy))(NNS (name)))(PP (IN (in))(NP (DT (the))(NNP (u.s.))))))(. (?))))) |ET| 
1  |BT| (ROOT (ROOT (SBARQ (WHADVP (WRB (where)))(SQ (VBP (do))(NP (NNS (chihuahua)))(VP (VB (come))(PP (IN (from)))))(. (?))))) |ET| 
1  |BT| (ROOT (ROOT (SBARQ (WHADVP (WRB (where)))(SQ (VBP (do))(NP (NNS (rock)))(VP (VB (come))(PP (IN (from)))))(. (?))))) |ET| 
0.52262880592785132538580228356295  |BT| (ROOT (ROOT (SBARQ (WHADVP (WRB (how)))(SQ (VBZ (do))(NP (NNP (belle)))(VP (VB (describe))(NP (PRP$ (she))(NN (life)))(PP (IN (in))(NP (NP (NNP (beauty)))(CC (and))(NP (DT (the))(NN (beast)))))))(. (?))))) |ET| 
-0.14953537733399990816707259000395  |BT| (ROOT (ROOT (SBARQ (WHADVP (WRB (when)))(SQ (VBD (do))(NP (DT (the))(NNP (bounty))(NN (mutiny)))(VP (VB (take))(NP (NN (place)))))(. (?))))) |ET| 
-1  |BT| (ROOT (ROOT (SBARQ (WHADVP (WRB (how))(RB (fast)))(SQ (VBP (do))(NP (NNS (cheetah)))(VP (VB (run))))(. (?))))) |ET| 
-0.50957213540748824698312091641128  |BT| (ROOT (ROOT (SBARQ (WHADVP (WRB (where)))(SQ (MD (can))(NP (PRP (i)))(VP (VB (get))(NP (NN (mailing))(NNS (list)))))(. (?))))) |ET| 
1  |BT| (ROOT (ROOT (SBARQ (WHNP (WP (what)))(SQ (VBZ (be))(NP (NP (DT (the))(NN (history)))(PP (IN (of))(NP (DT (the))(NN (hairdryer))))))(. (?))))) |ET| 
1  |BT| (ROOT (ROOT (SBARQ (WHNP (WP (what)))(SQ (VBZ (be))(NP (NP (DT (the))(NN (history)))(PP (IN (of))(NP (NNP (skateboarding))))))(. (?))))) |ET| 
1  |BT| (ROOT (ROOT (SBARQ (WHNP (WP (what)))(SQ (VBP (be))(NP (NP (DT (the))(JJ (distinct))(JJ (physical))(NNS (characterstic)))(PP (IN (of))(NP (DT (the))(JJ (arabian))(NN (horse))))))(. (?))))) |ET| 
-1  |BT| (ROOT (ROOT (SBARQ (WHNP (WP (what)))(SQ (VBZ (be))(NP (NP (DT (the))(NN (wingspan)))(PP (IN (of))(NP (DT (a))(NN (condor))))))(. (?))))) |ET| 
-1  |BT| (ROOT (ROOT (SBARQ (WHNP (WP (what)))(SQ (VBZ (be))(NP (NP (DT (the))(NN (habitat)))(PP (IN (of))(NP (DT (the))(NN (chickadee))))))(. (?))))) |ET| 
-1  |BT| (ROOT (ROOT (SBARQ (WHNP (WP (what)))(SQ (VBZ (be))(NP (NP (DT (the))(NN (name)))(PP (IN (of))(NP (NP (DT (the))(NN (inventor)))(PP (IN (of))(NP (JJ (silly))(NN (putty))))))))(. (?))))) |ET| 
0.34860828890486916797897265496431  |BT| (ROOT (ROOT (SBARQ (WHADVP (WRB (why)))(SQ (VBP (do))(NP (NNS (rooster)))(VP (VB (sing))(PP (IN (at))(NP (CD (five))(NN (o))))(`` (`))(NP (NP (NN (clock)))(PP (IN (in))(NP (DT (the))(NN (morning)))))))(. (?))))) |ET| 
1  |BT| (ROOT (ROOT (SBARQ (WHNP (WP (what)))(SQ (VP (VBD (happen))(PP (IN (in))(NP (DT (the))(NNP (long))(NNP (march))))))(. (?))))) |ET| 
0.92932351531207446626581258897204  |BT| (ROOT (ROOT (SBARQ (WHADVP (WRB (how)))(SQ (VBP (do))(NP (PRP (you)))(VP (VB (send))(NP (DT (a))(NN (movie))(NN (transcript)))(PP (TO (to))(NP (NNP (hollywood))))(SBAR (IN (so))(IN (that))(S (NP (PRP (it)))(VP (MD (can))(VP (VB (be))(VP (VBN (produce))(PP (IN (into))(NP (DT (a))(NN (film)))))))))))(. (?))))) |ET| 
-1  |BT| (ROOT (ROOT (SBARQ (WHADVP (WRB (how)))(SQ (VBP (do))(NP (PRP (you)))(VP (VB (say))(NP (`` (``))(NP (NNP (grandma)))('' (''))(PP (IN (in))(NP (NNP (irish)))))))(. (?))))) |ET| 
-1  |BT| (ROOT (ROOT (SBARQ (WHADVP (WRB (how)))(SQ (VBP (do))(NP (PRP (you)))(VP (VB (say))(ADJP (`` (``))(JJ (fresh))('' (''))(PP (IN (in))(NP (NNP (spanish)))))))(. (?))))) |ET| 
-0.42435633793163857196972799101786  |BT| (ROOT (ROOT (SBARQ (WHADVP (WRB (how))(NP (JJ (many))(NNS (cullion))))(SQ (VBZ (do))(NP (DT (a))(NN (male)))(VP (VB (have))))(. (?))))) |ET| 
0.020320050565828855215766424180401  |BT| (ROOT (ROOT (SBARQ (WHNP (WP (what)))(SQ (VBZ (be))(NP (NP (DT (the))(NN (origin)))(PP (IN (of))(NP (DT (the))(NN (atom))))))(. (?))))) |ET| 
1  |BT| (ROOT (ROOT (SBARQ (WHNP (WP (what)))(SQ (VBZ (be))(NP (NP (DT (the))(NN (secret)))(PP (IN (of))(NP (DT (the))(NN (universe))))))(. (?))))) |ET| 
1  |BT| (ROOT (ROOT (SBARQ (WHNP (WP (what)))(SQ (VBZ (be))(NP (NP (DT (the))(NN (origin)))(PP (IN (of))(NP (NP (DT (the))(NN (surname)))(PP (IN (of))(NP (NNP (braun))))))))(. (?))))) |ET| 
-1  |BT| (ROOT (ROOT (SBARQ (WHNP (WP (what)))(SQ (VBZ (be))(NP (NP (DT (the))(NN (weight)))(PP (IN (of))(NP (NN (air))))))(. (?))))) |ET| 
-1  |BT| (ROOT (ROOT (SBARQ (WHNP (WP (what)))(SQ (VBZ (be))(NP (NP (DT (the))(NN (plural)))(PP (IN (of))(NP (NN (gulf))))))(. (?))))) |ET| 
-1  |BT| (ROOT (ROOT (SBARQ (WHNP (WP (what)))(SQ (VBZ (be))(NP (NP (DT (the))(NN (home)))(PP (IN (of))(NP (DT (the))(NNPS (rockettes))))))(. (?))))) |ET| 
-0.41864519004255318357365922565805  |BT| (ROOT (ROOT (SBARQ (WHNP (WP (what)))(SQ (VBZ (be))(NP (NP (DT (the))(JJS (oldest))(NN (website)))(PP (IN (on))(NP (DT (the))(NN (internet))))))(. (?))))) |ET| 
1  |BT| (ROOT (ROOT (SBARQ (WHNP (WDT (what))(NN (information)))(SQ (MD (can))(NP (PRP (you)))(VP (VB (get))(NP (PRP (i)))(PP (IN (on))(NP (NP (NNP (fairground))(NNP (park)))(PP (IN (in))(NP (NNP (st.))(NNP (louis))))))))))) |ET| 
0.43664152498258818058118890803598  |BT| (ROOT (ROOT (SBARQ (WHADVP (WRB (how)))(SQ (VBP (do))(NP (PRP (i)))(VP (VB (e-mail))(NP (NN (someone)))(PP (IN (at))(NP (NNP (aol.com))))(PP (IN (from))(NP (NNP (yahoo.com))))))(. (?))))) |ET| 
-1  |BT| (ROOT (ROOT (SBARQ (WHADVP (WRB (how)))(SQ (VBP (do))(NP (PRP (you)))(VP (VB (say))(, (,))(`` (``))(S (NP (PRP (i)))(VP (VBP (love))(NP (PRP (you)))('' (''))(PP (IN (in))(NP (JJ (other))(NNS (language))))))))(. (?))))) |ET| 
0.25126890882650398939546221299679  |BT| (ROOT (ROOT (SBARQ (WHNP (WP (what)))(SQ (VBZ (be))(NP (NP (DT (the))(NN (difference)))(PP (IN (between))(NP (NN (hair))(CC (and))(NN (fur))))))(. (?))))) |ET| 
-1  |BT| (ROOT (ROOT (SBARQ (WHADVP (WRB (where)))(SQ (MD (can))(NP (PRP (i)))(VP (VB (find))(NP (JJ (pictorial))(NNS (direction)))(PP (IN (on))(SBAR (WHADVP (WRB (how)))(S (VP (TO (to))(VP (VB (build))(NP (DT (a))(ADJP (RB (very))(JJ (simple)))(NN (treehouse))))))))))(. (?))))) |ET| 
1  |BT| (ROOT (ROOT (SBARQ (WHNP (WP (what)))(SQ (VBZ (be))(NP (NP (DT (the))(NN (nature)))(PP (IN (of))(NP (NN (learning))))))(. (?))))) |ET| 
1  |BT| (ROOT (ROOT (SBARQ (WHNP (WP (what)))(SQ (VBZ (be))(NP (NP (DT (the))(NN (definition)))(PP (IN (of))(NP (NN (cosmology))))))(. (?))))) |ET| 
1  |BT| (ROOT (ROOT (SBARQ (WHNP (WP (what)))(SQ (VBZ (be))(NP (NP (DT (the))(NN (meaning)))(PP (IN (of))(NP (NN (thalassemia))))))(. (?))))) |ET| 
-0.64658078432060905882394763466436  |BT| (ROOT (ROOT (SBARQ (WHNP (WP (what)))(SQ (VBZ (be))(NP (NP (DT (the))(NN (capital)))(PP (IN (of))(NP (NNP (iowa))))))(. (?))))) |ET| 
-0.64658078432060550611026883416343  |BT| (ROOT (ROOT (SBARQ (WHNP (WP (what)))(SQ (VBZ (be))(NP (NP (DT (the))(NN (capital)))(PP (IN (of))(NP (NNP (seattle))))))(. (?))))) |ET| 
-0.64658078432062326967866283666808  |BT| (ROOT (ROOT (SBARQ (WHNP (WP (what)))(SQ (VBZ (be))(NP (NP (DT (the))(NN (capital)))(PP (IN (of))(NP (NNP (taiwan))))))(. (?))))) |ET| 
1  |BT| (ROOT (ROOT (SBARQ (WHNP (WDT (what))(NN (personality))(NNS (trait)))(SQ (VBP (be))(NP (NNPS (capricorns)))(S (VP (VBD (say))(S (VP (TO (to))(VP (VB (have))))))))(. (?))))) |ET| 
1  |BT| (ROOT (ROOT (SBARQ (WHADVP (WRB (why)))(SQ (VP (VBZ (do))(SBAR (S (NP (NP (DT (a))(NN (wheel)))(, (,))(NP (NP (FW (e.g.)))(NP (DT (a))(NN (car))(NN (tire))))(, (,)))(VP (VBP (appear))(S (VP (TO (to))(VP (VB (spin))(PP (IN (in))(NP (DT (the))(JJ (opposite))(NN (direction))))(SBAR (IN (as))(S (NP (PRP (it)))(VP (VBZ (slow))(PRT (RP (down))))))))))))))(. (?))))) |ET| 
1  |BT| (ROOT (ROOT (SBARQ (WHNP (WDT (what))(NNS (characteristic)))(SQ (VP (VBP (contribute))(PP (TO (to))(NP (PRP$ (its))(`` (``))(NN (intelligence))('' (''))))))(. (?))))) |ET| 
-0.01517376620091352712460519569504  |BT| (ROOT (ROOT (FRAG (SBARQ (WHNP (WHNP (WDT (what))(NN (desert))(NN (country)))(NP (NP (NNS (border))(NNP (saudi))(NNP (arabia))(, (,))(NNP (iraq)))(CC (and))(NP (DT (the))(NNP (persian))(NNP (gulf)))))(. (?)))))) |ET| 
-0.39358050134179345391771676077042  |BT| (ROOT (ROOT (SBARQ (WHNP (WDT (what)))(SQ (VP (VBZ (fossilize))(S (VP (TO (to))(VP (VB (form))(NP (NN (coprolite))))))))(. (?))))) |ET| 
-0.78041368968835578279197306983406  |BT| (ROOT (ROOT (SBARQ (WHNP (WDT (what))(NP (NP (NNS (appointment))(NN (secretary)))(PP (TO (to))(NP (NNP (richard))(NNP (nixon))))))(SQ (VP (VBD (go))(PP (TO (to))(NP (NN (jail))))))(. (?))))) |ET| 
1  |BT| (ROOT (ROOT (SBARQ (WHNP (WP (what)))(SQ (VBZ (be))(NP (NP (DT (the))(NN (hub)))(PP (IN (of))(NP (NNP (london))))))(. (?))))) |ET| 
1  |BT| (ROOT (ROOT (SBARQ (WHNP (WP (what)))(SQ (VBZ (be))(NP (NP (DT (the))(NN (half-life)))(PP (IN (of))(NP (NNP (p-32))))))(. (?))))) |ET| 
1  |BT| (ROOT (ROOT (SBARQ (WHNP (WP (what)))(SQ (VBZ (be))(NP (NP (DT (the))(NN (rathaus)))(PP (IN (in))(NP (NNP (frankfurt))))))(. (?))))) |ET| 
-0.31653168074436394130444227812404  |BT| (ROOT (ROOT (SBARQ (WHNP (WP (what)))(SQ (VBP (be))(NP (NP (DT (some))(JJ (colorful))(NNS (flower)))(SBAR (WHNP (WDT (that)))(S (VP (MD (will))(VP (VB (bloom))(PP (IN (in))(NP (NP (DT (the))(NN (fall)))(PP (IN (in))(NP (NNP (new))(NNP (england))))))))))))(. (?))))) |ET| 
-0.99606851941158214280847005284159  |BT| (ROOT (ROOT (SBARQ (WHNP (WP (what)))(SQ (VBZ (be))(NP (NP (DT (the))(NN (term)))(PP (IN (for))(NP (NP (DT (a))(NN (group)))(PP (IN (of))(NP (NNS (goose))))))))(. (?))))) |ET| 
-1  |BT| (ROOT (ROOT (SBARQ (WHNP (WP (what)))(SQ (VBZ (be))(NP (NP (DT (the))(NN (nickname)))(PP (IN (of))(NP (NNP (pennsylvania))))))(. (?))))) |ET| 
1  |BT| (ROOT (ROOT (SBARQ (WHNP (WDT (what)))(SQ (VP (VBD (make))(S (NP (NNP (jane))(NNP (goodall)))(ADJP (JJ (famous))))))(. (?))))) |ET| 
1  |BT| (ROOT (ROOT (SBARQ (WHNP (WDT (what)))(SQ (MD (can))(NP (PRP (i)))(VP (VB (do))(S (VP (TO (to))(VP (VB (get))(PP (IN (into))(NP (DT (a))(NNP (ivy))(NNP (league))(NN (school)))))))))(. (?))))) |ET| 
1  |BT| (ROOT (ROOT (SBARQ (WHNP (WDT (what))(NP (NN (revelation))))(SQ (VBD (do))(NP (NNP (alexander))(NNP (butterfield)))(VP (VB (make))(PP (TO (to))(NP (DT (the))(NNP (senate))(NNP (watergate))(NN (committee))))))(. (?))))) |ET| 
-0.090392847763332617727627393833245  |BT| (ROOT (ROOT (SBARQ (WHNP (WDT (what))(NN (painter)))(SQ (VP (VBD (popularize))(NP (NP (NN (soup))(NNS (can)))(CC (and))(NP (JJ (brillo))(NN (soap))(NN (pad))(NNS (box))))))(. (?))))) |ET| 
1  |BT| (ROOT (ROOT (SBARQ (WHNP (WP (what)))(SQ (VBZ (be))(NP (NP (DT (the))(NN (definition)))(PP (IN (of))(NP (VBG (spam))))))(. (?))))) |ET| 
0.39436530445533424238391262406367  |BT| (ROOT (ROOT (SBARQ (WHNP (WP (what)))(SQ (VBZ (be))(NP (DT (a))(JJ (mexican))(NN (hairless))))(. (?))))) |ET| 
1  |BT| (ROOT (ROOT (SBARQ (WHNP (WP (what)))(SQ (VBZ (be))(NP (NP (DT (the))(NN (motto)))(PP (IN (for))(NP (NP (DT (the))(NN (state)))(PP (IN (of))(NP (NNP (maryland))))))))(. (?))))) |ET| 
1  |BT| (ROOT (ROOT (SBARQ (WHNP (WP (what)))(SQ (VBZ (be))(NP (NP (DT (the))(NN (theory)))(PP (IN (of))(NP (JJ (equivalence))(NNS (state))))))(. (?))))) |ET| 
1  |BT| (ROOT (ROOT (SBARQ (WHNP (WP (what)))(SQ (VBZ (be))(NP (NP (DT (the))(NN (function)))(PP (IN (of))(NP (NNP (ram))))))(. (?))))) |ET| 
-0.70292079000614826611581520410255  |BT| (ROOT (ROOT (SBARQ (WHNP (WP (what)))(SQ (VBZ (be))(NP (NP (DT (the))(NN (population)))(PP (IN (of))(NP (NNP (ohio))))))(. (?))))) |ET| 
-1  |BT| (ROOT (ROOT (SBARQ (WHNP (WP (what)))(SQ (VBZ (be))(NP (NP (DT (the))(NN (frequency)))(PP (IN (of))(NP (NNP (vhf))))))(. (?))))) |ET| 
-0.7028395862902518942405549751129  |BT| (ROOT (ROOT (SBARQ (WHNP (WP (what)))(SQ (VBZ (be))(NP (NP (DT (the))(NN (population)))(PP (IN (of))(NP (NNP (mozambique))))))(. (?))))) |ET| 
1  |BT| (ROOT (ROOT (SBARQ (WHNP (WDT (what))(NN (excuse)))(SQ (VBD (do))(NP (DT (the))(NNP (nato))(NNS (people)))(VP (VBP (give))(PP (IN (for))(S (VP (VBG (hit))(NP (DT (the))(JJ (chinese))(NN (embassy))))))))(. (?))))) |ET| 
1  |BT| (ROOT (ROOT (SBARQ (WHNP (WHNP (WDT (what))(NN (type)))(PP (IN (of))(NP (NN (childhood)))))(SQ (VBD (do))(NP (NNP (jules))(NNP (verne)))(VP (VB (have))))(. (?))))) |ET| 
1  |BT| (ROOT (ROOT (SBARQ (WHNP (WP (what)))(SQ (VBD (do))(NP (NNP (cool)))(VP (VB (hand))(S (NP (NNP (luke)))(VP (VB (go))(PP (TO (to))(NP (NN (jail))))(PP (IN (for)))))))(. (?))))) |ET| 
-1  |BT| (ROOT (ROOT (SBARQ (WHNP (WP (what)))(SQ (VBD (do))(NP (NNS (people)))(VP (VB (use))(S (VP (TO (to))(VP (VB (freshen))(NP (PRP$ (they))(NN (breath)))(PP (IN (before))(NP (NN (toothpaste)))))))))(. (?))))) |ET| 
-0.36031134914024126603138142854732  |BT| (ROOT (ROOT (SBARQ (WHADJP (WRB (how))(RB (long)))(SQ (VBP (do))(NP (PRP (you)))(VP (VB (have))(S (VP (TO (to))(VP (VB (pay))(PRT (RP (back)))(NP (NN (debt)))(PP (IN (after))(S (VP (VBG (claim))(NP (NN (chapter))(CD (11))(NN (bankruptcy)))))))))))(. (?))))) |ET| 
0.83876679497525241657740480150096  |BT| (ROOT (ROOT (SBARQ (WHNP (WP (what)))(SQ (VBZ (be))(NP (NP (DT (the))(NN (origin)))(PP (IN (of))(NP (DT (the))(NN (word))(VB (assassinate))))))(. (?))))) |ET| 
1  |BT| (ROOT (ROOT (SBARQ (WHNP (WP (what)))(SQ (VBZ (be))(NP (NP (DT (the))(NN (meaning)))(PP (IN (of))(NP (NNP (jesus))))))(. (?))))) |ET| 
1  |BT| (ROOT (ROOT (SBARQ (WHNP (WP (what)))(SQ (VBZ (be))(NP (NP (DT (the))(NN (meaning)))(PP (IN (of))(NP (NNP (uol))))))(. (?))))) |ET| 
1  |BT| (ROOT (ROOT (SBARQ (WHNP (WP (what)))(SQ (VBZ (be))(NP (NP (DT (the))(NN (definition)))(PP (IN (of))(NP (NNP (hazmat))))))(. (?))))) |ET| 
-1  |BT| (ROOT (ROOT (SBARQ (WHNP (WP (what)))(SQ (VBZ (be))(NP (NP (DT (the))(NN (size)))(PP (IN (of))(NP (NNP (argentina))))))(. (?))))) |ET| 
-1  |BT| (ROOT (ROOT (SBARQ (WHNP (WP (what)))(SQ (VBZ (be))(NP (NP (DT (the))(NN (mission)))(PP (IN (of))(NP (NNP (nike))))))(. (?))))) |ET| 
-1  |BT| (ROOT (ROOT (SBARQ (WHNP (WP (what)))(SQ (VBZ (be))(NP (NP (DT (the))(NN (horsepower)))(PP (IN (of))(NP (DT (the))(NN (shuttle))(NNS (booster))))))(. (?))))) |ET| 
1  |BT| (ROOT (ROOT (SBARQ (WHNP (WP (what)))(SQ (VBP (do))(NP (PRP (you)))(VP (VB (need))(S (VP (TO (to))(VP (VB (do))(S (VP (TO (to))(VP (VB (marry))(NP (NN (someone)))(PP (IN (in))(NP (NN (jail))))))))))))(. (?))))) |ET| 
1  |BT| (ROOT (ROOT (SBARQ (WHNP (WDT (what)))(SQ (SQ (VBP (have))(NP (PRP (you)))(VP (RB (not))(VB (let))(NP (DT (a))(NN (tennis))(NN (ball)))))(SQ (VBP (do))(PP (IN (if))(NP (PRP (you)))))(FRAG (NP (NN (volley)))))(. (?))))) |ET| 
1  |BT| (ROOT (ROOT (SBARQ (WHPP (IN (for))(WHNP (WDT (what))(NP (NN (reason)))))(SQ (VBD (do))(NP (DT (some))(NNP (san))(NNP (diego))(NNS (school)))(VP (VB (stop))(S (VP (VBG (serve))(NP (NNS (apple)))))))(. (?))))) |ET| 
-1  |BT| (ROOT (ROOT (SBARQ (WHNP (WP (what)))(SQ (VBP (do))(NP (PRP (you)))(VP (VB (get))(PP (IN (by))(S (VP (VBG (add))(NP (NN (lactobacillus))(NN (bulgaricus)))(PP (TO (to))(NP (NN (milk)))))))))(. (?))))) |ET| 
-1  |BT| (ROOT (ROOT (SBARQ (WHNP (WP (what)))(SQ (VBP (do))(NP (NN (goldfish)))(VP (VBP (lose))(SBAR (IN (if))(S (S (VP (VBN (keep))(PP (IN (in))(NP (NN (dimly-lit))))))(CC (or))(S (VP (VBG (run))(NP (NN (water)))))))))(. (?))))) |ET| 
0.40117987332036042502636519202497  |BT| (ROOT (ROOT (SBARQ (WHADVP (WRB (why)))(SQ (VBZ (do))(NP (DT (the))(NN (sun)))(VP (VB (shine))(NP (RB (only))(DT (a))(JJ (short))(NN (time)))(PP (IN (in))(NP (NNP (alaska))))))(. (?))))) |ET| 
1  |BT| (ROOT (ROOT (SBARQ (WHNP (WP (what)))(SQ (VBZ (be))(NP (NP (DT (the))(NN (purpose)))(PP (IN (of))(NP (NNS (bio))))))(. (?))))) |ET| 
1  |BT| (ROOT (ROOT (SBARQ (WHNP (WP (what)))(SQ (VBZ (be))(NP (NP (DT (the))(NN (motto)))(PP (IN (of))(NP (DT (the))(NN (boy))(NNS (scout))))))(. (?))))) |ET| 
1  |BT| (ROOT (ROOT (SBARQ (WHNP (WP (what)))(SQ (VBZ (be))(NP (NP (DT (the))(NN (history)))(PP (IN (of))(NP (NNS (yo-yo))))))(. (?))))) |ET| 
-1  |BT| (ROOT (ROOT (SBARQ (WHNP (WP (what)))(SQ (VBZ (be))(NP (NP (DT (the))(NN (fear)))(PP (IN (of))(NP (NNS (frog))))))(. (?))))) |ET| 
-1  |BT| (ROOT (ROOT (SBARQ (WHNP (WP (what)))(SQ (VBZ (be))(NP (NP (DT (the))(NN (acreage)))(PP (IN (of))(NP (DT (the))(NNP (chappellet))(NN (vineyard))))))(. (?))))) |ET| 
0.40395048203088412819283803401049  |BT| (ROOT (ROOT (SBARQ (WHNP (WP (what)))(SQ (VBP (be))(NP (NNS (pomegranate))))(. (?))))) |ET| 
1  |BT| (ROOT (ROOT (S (VP (VB (define))(NP (NNP (spumante))))(. (.))))) |ET| 
1  |BT| (ROOT (ROOT (S (VP (VB (define))(NP (NN (cosmology))))(. (.))))) |ET| 
1  |BT| (ROOT (ROOT (SBARQ (WHNP (WP (what)))(SQ (VBD (do))(NP (DT (the))(JJ (confederate))(NNP (constitution)))(VP (VB (say))(PP (IN (about))(NP (NN (slavery))))))(. (?))))) |ET| 
-0.38554528485706496265805753864697  |BT| (ROOT (ROOT (S (VP (VB (name))(NP (CD (11))(JJ (famous))(NNS (martyr))))(. (.))))) |ET| 
-0.35032256787046228696524963197589  |BT| (ROOT (ROOT (S (VP (VB (name))(NP (DT (a))(VBG (fly))(NN (mammal))))(. (.))))) |ET| 
1  |BT| (ROOT (ROOT (SBARQ (WHNP (WP (what)))(SQ (VBZ (be))(NP (NP (DT (the))(NN (origin)))(PP (IN (of))(S (VP (VB (thank))(S (NP (PRP (you)))(NP (NNS (note)))))))))(. (?))))) |ET| 
1  |BT| (ROOT (ROOT (SBARQ (WHNP (WP (what)))(SQ (VBZ (be))(NP (NP (DT (the))(NN (root)))(PP (IN (of))(NP (DT (all))(NN (evil))))))(. (?))))) |ET| 
1  |BT| (ROOT (ROOT (SBARQ (WHNP (WP (what)))(SQ (VBZ (be))(NP (NP (DT (the))(NN (mystery)))(PP (IN (of))(NP (DT (the))(NNP (bermuda))(NNP (triangle))))))(. (?))))) |ET| 
1  |BT| (ROOT (ROOT (SBARQ (WHNP (WP (what)))(SQ (VBZ (be))(NP (NP (DT (the))(NN (design)))(PP (IN (of))(NP (DT (the))(NN (ship))(NNP (titanic))))))(. (?))))) |ET| 
-1  |BT| (ROOT (ROOT (SBARQ (WHNP (WP (what)))(SQ (VBZ (be))(NP (NP (DT (the))(NN (temperature)))(PP (IN (for))(NP (NN (cooking))))))(. (?))))) |ET| 
-1  |BT| (ROOT (ROOT (SBARQ (WHNP (WP (what)))(SQ (VBZ (be))(NP (NP (DT (the))(NN (treatment)))(PP (IN (for))(NP (NN (depression))))))(. (?))))) |ET| 
-0.40197399558476210046364940353669  |BT| (ROOT (ROOT (SBARQ (WHNP (WP (what)))(SQ (VBZ (be))(NP (NP (DT (the))(NN (abbreviation)))(PP (IN (for))(NP (NN (trinitrotoluene))))))(. (?))))) |ET| 
1  |BT| (ROOT (ROOT (S (VP (VB (describe))(NP (DT (the))(JJ (long))(NNP (march))))(. (.))))) |ET| 
1  |BT| (ROOT (ROOT (S (VP (VB (describe))(NP (NP (DT (the))(JJ (finnish))(NN (music))(NN (personality))(NN (salonen))(POS ('s)))(NN (appearance))))(. (.))))) |ET| 
1  |BT| (ROOT (X (WRB (why))(VBP (do))(NNS (people))(VB (get))(NNS (goosebump))(WRB (when))(PRP (they))(VBP (have))(NN (something))(JJ (emotional))(VB (happen))(TO (to))(PRP (they))(, (,))(IN (like))(WRB (when))(PRP (they))(VBP (hear))(DT (a))(JJ (beautiful))(NN (piece))(IN (of))(NN (music))(, (,))(CC (or))(VB (see))(NN (something))(JJ (beautiful))(, (,))(CC (or))(VB (get))(VBN (arouse))(IN (by))(NN (someone))(PRP (they))(VBP (love))(. (?)))) |ET| 
-0.33035223681888709057474784458464  |BT| (ROOT (ROOT (SBARQ (WHNP (WP (what)))(SQ (VBZ (be))(NP (DT (the))(NNP (homelite))(NNP (inc.))(NN (home))(NN (page))))(. (?))))) |ET| 
0.40405157363094978961726155830547  |BT| (ROOT (ROOT (SBARQ (WHNP (WP (what)))(SQ (VBP (be))(NP (NNS (gecko))))(. (?))))) |ET| 
0.114740527183137014377578566382  |BT| (ROOT (ROOT (SBARQ (WHNP (WP (what)))(SQ (VBZ (do))(NP (NNP (inuit))(CC (and))(NNP (eskimo)))(VP (VB (mean))))(. (?))))) |ET| 
1  |BT| (ROOT (ROOT (SBARQ (WHNP (WP (what)))(SQ (VBZ (be))(NP (NP (NN (fiber)))(PP (IN (in))(NP (NN (food))))))(. (?))))) |ET| 
1  |BT| (ROOT (ROOT (SBARQ (WHNP (WP (what)))(SQ (VBZ (be))(NP (NN (time))))(. (?))))) |ET| 
0.088212849259384565336894468146056  |BT| (ROOT (ROOT (SBARQ (WHNP (WP (what)))(SQ (VBZ (be))(NP (NN (ethology))))(. (?))))) |ET| 
-1  |BT| (ROOT (ROOT (SBARQ (WHNP (WP (what)))(SQ (VBZ (be))(NP (NN (sap))))(. (?))))) |ET| 
-1  |BT| (ROOT (ROOT (SBARQ (WHNP (WP (what)))(SQ (VBZ (be))(NP (NN (dsl))))(. (?))))) |ET| 
-1  |BT| (ROOT (ROOT (SBARQ (WHNP (WP (what)))(SQ (VBZ (be))(NP (NNP (bph))))(. (?))))) |ET| 
1  |BT| (ROOT (ROOT (SBARQ (WHADVP (WRB (where)))(SQ (VBD (do))(NP (NP (DT (the))(NN (energy)))(PP (IN (for))(NP (DT (the))(NNP (big))(NNP (bang)))))(VP (VB (come))(PP (IN (from)))))(. (?))))) |ET| 
1  |BT| (ROOT (ROOT (SBARQ (WHNP (WP (what)))(S (VP (VBP (be))(NP (NP (NP (DT (the))(NNS (word)))(PP (TO (to))(NP (NP (NP (DT (the))(NN (cd)))(NP (NNP (eminem))(POS ('s))))(, (,))(CC (or))(NP (ADJP (JJ (slim))(JJ (shady))))(, (,)))))(`` (``))(S (NP (PRP$ (my)))(VP (VB (name))(VP (VBZ (be)))))('' ('')))))(. (?))))) |ET| 
1  |BT| (ROOT (ROOT (SBARQ (WHNP (WP (what)))(SQ (VBP (be))(NP (NP (DT (the))(NNS (word)))(PP (TO (to))(NP (DT (the))(NN (song)))))(VP (VBN (sing))(PP (IN (by))(`` (``))(NP (NP (NNP (banana)))(PP (IN (in))(NP (NNP (pajamas)))))('' ('')))))(. (?))))) |ET| 
-1  |BT| (ROOT (ROOT (SBARQ (WHADVP (WRB (how)))(SQ (ADVP (RB (long))(RB (ago)))(VP (VBD (do))(NP (DT (the))(JJ (anglican))(NN (church))(NN (part)))(PP (IN (from))(NP (DT (the))(NNP (vatican))))))(. (?))))) |ET| 
-1  |BT| (ROOT (ROOT (SBARQ (WHADVP (WRB (when)))(SQ (VBD (do))(NP (NP (DT (the))(NN (use)))(PP (IN (of))(`` (``))(NP (DT (the))(NN (syringe)))('' (''))))(ADVP (RB (first)))(VP (VB (appear))(PP (IN (in))(NP (JJ (medicinal))(NN (history))))))(. (?))))) |ET| 
-0.075058937997716415613247420424159  |BT| (ROOT (ROOT (SBARQ (WHADVP (WRB (where))(PP (IN (on))(NP (DT (the))(NN (internet)))))(SQ (MD (can))(NP (PRP (i)))(VP (VB (get))(NP (NP (NN (information)))(PP (IN (about))(NP (DT (the))(NNP (fifth))(NNP (amendment)))))(PP (IN (on))(NP (NP (DT (the))(JJ (american))(NNP (bill)))(PP (IN (of))(NP (NNPS (rights))))))))(. (?))))) |ET| 
0.088212849259417039360364753974864  |BT| (ROOT (ROOT (SBARQ (WHNP (WP (what)))(SQ (VBZ (be))(NP (NN (titanium))))(. (?))))) |ET| 
0.088212849259378237065654104753776  |BT| (ROOT (ROOT (SBARQ (WHNP (WP (what)))(SQ (VBZ (be))(NP (NN (molybdenum))))(. (?))))) |ET| 
0.088212849259367578924617703250988  |BT| (ROOT (ROOT (SBARQ (WHNP (WP (what)))(SQ (VBZ (be))(NP (NN (viscosity))))(. (?))))) |ET| 
-1  |BT| (ROOT (ROOT (SBARQ (WHNP (WP (what)))(SQ (VBZ (be))(NP (NNP (jell-o)))(VP (VBN (make))(PP (IN (from)))))(. (?))))) |ET| 
-1  |BT| (ROOT (ROOT (SBARQ (WHNP (WP (what)))(SQ (VBZ (be))(NP (NP (NNP (answers.com))(POS ('s)))(NN (address))))(. (?))))) |ET| 
-1  |BT| (ROOT (ROOT (SBARQ (WHNP (WP (what)))(SQ (VBZ (be))(NP (NP (NNP (november))(POS ('s)))(NN (birthstone))))(. (?))))) |ET| 
1  |BT| (ROOT (ROOT (SBARQ (WHADVP (WRB (how)))(SQ (VBD (do))(NP (DT (the))(NNP (u.s.)))(VP (VB (come))(PP (IN (into))(NP (NP (DT (the))(NN (possession)))(PP (IN (of))(NP (NP (DT (a))(NN (empire)))(PP (IN (in))(NP (NP (DT (the))(NN (wake)))(PP (IN (of))(NP (DT (the))(JJ (spanish-american))(NN (war))))))))))))(. (?))))) |ET| 
1  |BT| (ROOT (ROOT (SBARQ (WHADVP (WRB (how)))(SQ (VBZ (do))(NP (NP (DT (the))(NN (speed)))(SBAR (S (NP (DT (the))(NN (magnet)))(VP (VBZ (spin))(PP (IN (in))(NP (DT (a))(NN (generator))))))))(VP (VB (affect))(NP (NP (DT (the))(NN (output)))(PP (IN (of))(NP (DT (the))(NN (generator)))))))(. (?))))) |ET| 
0.95233166340263453175651875426411  |BT| (ROOT (ROOT (SBARQ (WHADVP (WRB (why)))(SQ (VP (VBD (do))(NP (DT (the))(JJ (anglican))(NN (church))(NN (split)))(PP (IN (from))(NP (DT (the))(NNP (vatican))))))(. (?))))) |ET| 
-0.093278248759325194106040157748794  |BT| (ROOT (ROOT (SBARQ (WHADVP (WRB (where)))(SQ (VBD (do))(NP (NP (DT (the))(NN (battle)))(PP (IN (of))(NP (DT (the))(NNP (bulge)))))(VP (VB (take))(NP (NN (place)))))(. (?))))) |ET| 
-0.27942750413828493227796911924088  |BT| (ROOT (ROOT (SBARQ (WHNP (WDT (what))(NN (invention)))(SQ (VP (VBZ (do))(SBAR (S (NP (NP (DT (the))(NN (principle)))(PP (IN (of))(NP (NP (NN (conservation)))(PP (IN (of))(NP (NN (energy)))))))(VP (VBP (make))(ADJP (JJ (impossible))))))))(. (?))))) |ET| 
-0.24460293846984521026755032835354  |BT| (ROOT (ROOT (SBARQ (WHNP (WDT (what)))(SQ (VP (VBZ (determine))(NP (NP (DT (the))(NN (value)))(PP (IN (of))(NP (DT (the))(NN (pearl)))))))(. (?))))) |ET| 
1  |BT| (ROOT (ROOT (SBARQ (WHNP (WP (what)))(SQ (VBZ (be))(NP (NP (NNP (june))(POS ('s)))(NN (birthstone))))(. (?))))) |ET| 
1  |BT| (ROOT (ROOT (SBARQ (WHNP (WP (what)))(SQ (VBZ (be))(NP (NP (NNP (megan))(POS ('s)))(NN (law))))(. (?))))) |ET| 
1  |BT| (ROOT (ROOT (SBARQ (WHNP (WP (what)))(SQ (VBZ (be))(NP (NNP (spaceball)))(VP (VBN (play))(PP (IN (on)))))(. (?))))) |ET| 
-1  |BT| (ROOT (ROOT (SBARQ (WHNP (WP (what)))(SQ (VBZ (be))(NP (NP (NNP (april))(POS ('s)))(NN (gemstone))))(. (?))))) |ET| 
-1  |BT| (ROOT (ROOT (SBARQ (WHNP (WP (what)))(SQ (VBZ (be))(NP (NP (NNP (california))(POS ('s)))(NN (state))(NN (bird))))(. (?))))) |ET| 
-1  |BT| (ROOT (ROOT (SBARQ (WHNP (WP (what)))(SQ (VBZ (be))(NP (NNP (rcd))))(. (?))))) |ET| 
1  |BT| (ROOT (ROOT (SBARQ (WHNP (WDT (what))(NN (incident)))(SQ (VP (VBD (cause))(NP (NP (DT (the))(NN (canning)))(PP (IN (of))(NP (NP (DT (a))(NN (summit))(NN (conference)))(PP (IN (between))(NP (NNP (eisenhower))(CC (and))(NNP (khrushchev)))))))))(. (?))))) |ET| 
1  |BT| (ROOT (ROOT (SBARQ (WHNP (WDT (what))(NNS (current)))(SQ (VP (VBP (affect))(NP (NP (NP (DT (the))(NN (area)))(PP (IN (of))(NP (DT (the))(NNP (shetland))(NNPS (islands)))))(CC (and))(NP (NP (NNP (orkney))(NNPS (islands)))(PP (IN (in))(NP (DT (the))(NNP (north))(NNP (sea))))))))(. (?))))) |ET| 
1  |BT| (ROOT (ROOT (SBARQ (WHNP (WHNP (WDT (what))(NNS (feature)))(PP (IN (of))(NP (DT (the))(JJ (african))(NN (elephant)))))(SQ (VBP (be))(NP (NP (JJR (larger)))(PP (IN (than))(NP (NP (DT (those)))(PP (IN (of))(NP (DT (the))(JJ (indian))(NN (elephant))))))))(. (?))))) |ET| 
-0.67817653463488658527325014802045  |BT| (ROOT (ROOT (SBARQ (WHNP (WP (what)))(SQ (VBP (be))(NP (NP (DT (the))(JJ (top))(CD (10))(NNS (college)))(PP (IN (in))(NP (NP (DT (the))(NNP (united))(NNPS (states)))(PP (IN (in))(NP (NP (DT (the))(NN (field)))(PP (IN (of))(NP (NN (engineering))))))))))(. (?))))) |ET| 
0.26622947333829571903152100276202  |BT| (ROOT (ROOT (SBARQ (WHNP (WP (what)))(SQ (VBZ (be))(NP (NN (dextropropoxyphen))(NN (napsylate))))(. (?))))) |ET| 
-0.21503226966533084407728892983869  |BT| (ROOT (ROOT (FRAG (PP (IN (of))(NP (NP (NP (NNS (child)))(PP (IN (between))(NP (NP (DT (the))(NNS (age)))(PP (IN (of))(NP (NP (CD (two)))(CC (and))(NP (NNS (eleven))))))))(, (,))(SBAR (WHNP (WDT (what)))(S (NP (NN (percentage))(NN (watch)))(NP (`` (``))(DT (the))(NNPS (simpsons))('' ('')))))))(. (?))))) |ET| 
0.96708865506082830609813072442194  |BT| (ROOT (ROOT (SBARQ (WHNP (WP (what)))(SQ (VBZ (be))(NP (NNP (gymnophobia))))(. (?))))) |ET| 
0.96744375602388399393305462581338  |BT| (ROOT (ROOT (SBARQ (WHNP (WP (what)))(SQ (VBZ (be))(NP (NNP (paracetamol))))(. (?))))) |ET| 
0.96713874434324675899432577352854  |BT| (ROOT (ROOT (SBARQ (WHNP (WP (what)))(SQ (VBZ (be))(NP (NNP (olestra))))(. (?))))) |ET| 
-1  |BT| (ROOT (ROOT (SBARQ (WHNP (WP (what)))(SQ (VBZ (be))(NP (NNP (html))))(. (?))))) |ET| 
-1  |BT| (ROOT (ROOT (SBARQ (WHNP (WP (what)))(SQ (VBZ (be))(NP (NNP (afs))))(. (?))))) |ET| 
-1  |BT| (ROOT (ROOT (SBARQ (WHNP (WP (what)))(SQ (VBZ (be))(NP (NNP (deet))))(. (?))))) |ET| 
1  |BT| (ROOT (ROOT (SBARQ (SBAR (WHNP (WDT (what)))(S (PP (VBG (accord))(PP (TO (to))(NP (DT (the))(NNP (kinsey))(NNP (institute)))))))(, (,))(SQ (VBZ (be))(NP (NP (DT (the))(JJ (sexual))(NN (preference)))(PP (IN (of))(NP (NP (CD (four))(NN (percent)))(PP (IN (of))(NP (JJ (american))(NNS (male))))))))(. (?))))) |ET| 
1  |BT| (ROOT (ROOT (FRAG (SBAR (WHNP (WDT (what)))(S (NP (NNS (problem)))(VP (VBD (contribute))(PP (TO (to))(NP (NP (DT (the))(JJ (high))(NN (failure))(NN (rate)))(PP (IN (of))(NP (NNS (plain))(NNS (farmer))))))(PP (IN (in))(NP (DT (the))(CD (1800s)))))))(. (?))))) |ET| 
1  |BT| (ROOT (ROOT (SBARQ (WHNP (WDT (what)))(SQ (VP (VBD (prompt))(NP (NP (DT (the))(NNS (co-pilot)))(PP (IN (of))(NP (DT (the))(JJ (enola))(NNS (gay)))))(S (VP (TO (to))(VP (VB (enter))(ADVP (RB (only)))(NP (`` (``))(NP (PRP$ (my))(NNP (god)))('' (''))(PP (IN (in))(NP (PRP$ (he))(NN (log))))))))))(. (?))))) |ET| 
-0.89108730138765857020644034491852  |BT| (ROOT (ROOT (FRAG (SBAR (WHNP (WDT (what)))(S (`` (``))(VP (VBZ (melt))(PP (IN (in))(NP (PRP$ (you))(NN (mouth)))))))(, (,))(ADVP (RB (not))(PP (IN (in))(NP (PRP$ (you))(NNS (hand))('' ('')))))(. (.))))) |ET| 
-0.085185182356059804820169745198655  |BT| (ROOT (ROOT (SBARQ (WHNP (WP (who)))(SQ (VBZ (be))(NP (NNP (dear))(NNP (abby))))(. (?))))) |ET| 
0.43665837414067931732120086962823  |BT| (ROOT (ROOT (SBARQ (SBARQ (WHNP (WP (what)))(SQ (VBZ (be))(NP (NP (DT (the))(NN (origin)))(PP (IN (of))(NP (DT (the))(NN (term))(`` (``))(JJ (blue))(NN (moon))(, (,))('' ('')))))))(CC (and))(SBARQ (WHADVP (WRB (how))(RB (often)))(SQ (VBP (do))(NP (PRP (they)))(VP (VB (occur))))(. (?)))))) |ET| 
0.96713874434324409445906667315285  |BT| (ROOT (ROOT (SBARQ (WHNP (WP (what)))(SQ (VBZ (be))(NP (NNP (plc))))(. (?))))) |ET| 
0.96713874434323521267486967190052  |BT| (ROOT (ROOT (SBARQ (WHNP (WP (what)))(SQ (VBZ (be))(NP (NNP (hebephrenia))))(. (?))))) |ET| 
0.96708865506082664076359378668712  |BT| (ROOT (ROOT (SBARQ (WHNP (WP (what)))(SQ (VBZ (be))(NP (NNP (tetrinet))))(. (?))))) |ET| 
-1  |BT| (ROOT (ROOT (SBARQ (WHNP (WP (what)))(SQ (VBZ (be))(NP (NNP (dtmf))))(. (?))))) |ET| 
-1  |BT| (ROOT (ROOT (SBARQ (WHNP (WP (what)))(SQ (VBZ (be))(NP (NNP (hdlc))))(. (?))))) |ET| 
-1  |BT| (ROOT (ROOT (SBARQ (WHNP (WP (what)))(SQ (VBZ (be))(NP (NNP (svhs))))(. (?))))) |ET| 
1  |BT| (ROOT (ROOT (S (VP (VB (give))(NP (DT (a))(NN (reason)))(PP (IN (for))(S (NP (JJ (american))(NNPS (indians)))(ADVP (RB (oftentimes)))(VP (VBG (drop))(PRT (IN (out)))(PP (IN (of))(NP (NN (school))))))))(. (.))))) |ET| 
1  |BT| (ROOT (ROOT (S (PP (IN (in))(NP (NP (NP (NNP (waugh))(POS ('s)))(NX (`` (``))(NP (DT (a))(NN (handful)))(PP (IN (of))(NP (NN (dust))))(, (,))('' (''))))(SBAR (WHNP (WP (what)))(S (VP (VBZ (do)))))))(NP (DT (the))(JJ (mad))(JJ (old))(NN (man)))(VP (VB (force))(NP (DT (the))(NN (hero))(S (VP (TO (to))(VP (VB (do))(NP (DT (every))(NN (afternoon))))))))(. (?))))) |ET| 
1  |BT| (ROOT (X (WP (what))(VBZ (be))(DT (the))(NN (origin))(IN (of))(DT (the))(NN (term))(`` (``))(NN (buffalo))(NNS (wing))('' (''))(WDT (that))(VBZ (be))(VBN (use))(IN (as))(DT (a))(NN (menu))(NN (item))(IN (in))(NNS (bar))(IN (across))(DT (the))(NN (nation))(IN (for))(NN (chicken))(NNS (wing))(IN (in))(DT (a))(NN (spicey))(NN (sauce))(. (?)))) |ET| 
-0.5100103065340727548360177934228  |BT| (ROOT (ROOT (SBARQ (WHNP (WDT (what))(CD (six))(NNS (word)))(SQ (VP (VBP (follow))(NP (NP (DT (the))(NN (line)))(: (:))(`` (``))(NP (PP (IN (from))(NP (DT (a))(NN (jack))))(PP (TO (to))(NP (DT (a))(NN (king))))))))(. (.))))(ROOT (NP (. (.))))(ROOT (S (VP (. (.))('' ('')))))(ROOT (NP (. (?))))) |ET| 
-0.45005280292510030371033735718811  |BT| (ROOT (ROOT (SBARQ (SBAR (WHNP (WDT (what)))(FRAG (NP (NN (element)))))(, (,))(PP (IN (from))(NP (DT (the))(NNP (periodic))(NNP (table))))(, (,))(SQ (VBZ (be))(NP (NP (DT (a))(NN (gas)))(CC (or))(NP (NP (DT (a))(ADJP (ADJP (JJ (solid)))(PRN (, (,))(CC (but))(ADVP (RB (never))))))(NP (DT (a))(NN (liquid))))))(. (?))))) |ET| 
-0.053526802609046096603773179367636  |BT| (ROOT (ROOT (S (SBAR (WHADVP (WRB (when)))(S (VP (VBN (call))(PP (IN (upon))(NP (S (VP (TO (to))(VP (VB (surrender)))))(, (,))(SBAR (WHNP (WDT (what)))(S (NP (NNP (american))(JJ (general)))(VP (VBD (reply))(, (,))(S (`` (``))(NP (NNP (sir))))))))))))(, (,))(NP (PRP (i)))(VP (VBP (have))(RB (not))(ADVP (RB (yet)))(VP (VBN (begin))(S (VP (TO (to))(VP (VB (fight)))))))(. (.))('' (''))))(ROOT (NP (. (?))))) |ET| 
0.96708865506083374619095138768898  |BT| (ROOT (ROOT (SBARQ (WHNP (WP (what)))(SQ (VBZ (be))(NP (NNP (zionism))))(. (?))))) |ET| 
0.96708865506083196983411198743852  |BT| (ROOT (ROOT (SBARQ (WHNP (WP (what)))(SQ (VBZ (be))(NP (NNP (java))))(. (?))))) |ET| 
0.96723046343888408049593863324844  |BT| (ROOT (ROOT (SBARQ (WHNP (WP (what)))(SQ (VBZ (be))(NP (NNP (smartnet))))(. (?))))) |ET| 
-1  |BT| (ROOT (ROOT (SBARQ (WHNP (WP (what)))(SQ (VBZ (be))(NP (NNP (lmds))))(. (?))))) |ET| 
1  |BT| (ROOT (ROOT (SBARQ (WHADVP (WRB (how)))(SQ (MD (can))(NP (PRP (i)))(VP (VB (find))(NP (NP (DT (a))(NN (list)))(PP (IN (of))(NP (NP (, (,))(NP (NN (fax))(CC (and))(CC (or))(NN (email)))(, (,))(NNS (address)))(PP (IN (for))(NP (JJ (human))(NN (resource))(NNS (department)))))))(PP (IN (in))(NP (NNP (massachusetts))))))(. (?))))) |ET| 
1  |BT| (ROOT (ROOT (SBARQ (WHNP (WDT (what))(NN (baseball))(NN (expression)))(SQ (VP (VBD (come))(PP (IN (from))(NP (NP (DT (the))(JJ (nautical))(NN (term)))(PP (IN (for))(NP (NNS (ship))))))(S (VP (VBG (sail))(PP (IN (between))(NP (DT (the))(NNP (atlantic))(CC (and))(NNP (pacific))))(PP (IN (before))(NP (DT (the))(NNP (panama))(NNP (canal))))))))(. (?))))) |ET| 
1  |BT| (ROOT (ROOT (SBARQ (WHADVP (WRB (how)))(SQ (MD (can))(NP (PRP (i)))(VP (VB (find))(PRT (RP (out)))(SBAR (WHADJP (WRB (how))(JJ (much)))(S (NP (PRP (it)))(VP (VBZ (cost))(S (VP (TO (to))(VP (VB (raise))(NP (NP (DT (a))(NN (baby)))(PP (IN (for))(NP (CD (six))(NNS (month)))))))))))))(. (?))))) |ET| 
-1  |BT| (ROOT (ROOT (SBARQ (WHADVP (WRB (how)))(SINV (ADVP (RB (far)))(MD (can))(NP (NP (DT (a))(NN (man))(NN (travel)))(PP (IN (in))(NP (JJ (outer))(NN (space))))))(. (?))))) |ET| 
1  |BT| (ROOT (ROOT (SBARQ (WHNP (WDT (what))(NP (JJ (nuclear))(NN (process))))(SQ (VP (VBZ (take))(NP (NN (place)))(PP (IN (in))(NP (DT (a))(NN (h-bomb))))))(. (?))))) |ET| 
-1  |BT| (ROOT (ROOT (SBARQ (WHNP (WP (what)))(SQ (VP (VP (VBP (be))(NP (NP (DT (the))(NNS (conjugation)))(PP (IN (of))(NP (NN (wake))))))(CC (and))(VP (VBD (wake)))))(. (?))))) |ET| 
-0.16822079289851593619786740418931  |BT| (ROOT (ROOT (SBARQ (WHNP (WP (what)))(SQ (VBZ (be))(NP (NP (DT (the))(JJS (fastest))(JJ (commercial))(NN (automobile)))(SBAR (WHNP (WDT (that)))(S (VP (MD (can))(VP (VB (be))(VP (VBN (buy))(PP (IN (in))(NP (DT (the))(NNP (us)))))))))))(. (?))))) |ET| 
1  |BT| (ROOT (ROOT (SBARQ (WHNP (WP (what)))(SQ (VBD (be))(NP (DT (the))(JJ (proper))(NNP (laugh-in)))(VP (VBN (respone))(PP (TO (to))(: (:))(`` (``))(NP (S (VP (VB (say))(NP (NN (goodnight)))(, (,))(NP (NNP (dick))))))('' ('')))))(. (?))))) |ET| 
1  |BT| (ROOT (ROOT (SBARQ (WHNP (WP (what)))(SQ (VBZ (be))(NP (NP (NNP (compaq))(POS ('s)))(NN (mission))(NN (statement))))(. (?))))) |ET| 
-0.014198647865369673493063373825862  |BT| (ROOT (ROOT (SBARQ (WHNP (WP (what)))(SQ (VBZ (be))(NP (NP (DT (the))(JJ (best-selling))(NN (book)))(PP (IN (of))(NP (DT (all))(NN (time))))))(. (?))))) |ET| 
-0.4174694840857116062693421554286  |BT| (ROOT (ROOT (SBARQ (WHNP (WP (what)))(SQ (VBZ (be))(NP (NP (DT (the))(JJ (best-selling))(NN (television))(NN (soundtrack)))(PP (IN (of))(NP (DT (all))(NN (time))))))(. (?))))) |ET| 
-0.83705229438720263335227400602889  |BT| (ROOT (ROOT (SBARQ (WHNP (WHNP (WDT (what))(NN (kind)))(PP (IN (of))(NP (NN (science)))))(SQ (VBZ (be))(NP (NN (cosmology))))(. (?))))) |ET| 
1  |BT| (ROOT (ROOT (SBARQ (WHNP (WP (what)))(SQ (VBD (be))(NP (NP (CD (nine))(NNP (tailors)))(, (,))(NP (DT (the))(NN (television))(NN (show))))(PP (IN (from))(NP (NP (CD (1974)))(, (,))(ADVP (RB (about))))))(. (?))))) |ET| 
0.44131127390122759646118311138707  |BT| (ROOT (ROOT (SBARQ (WHNP (WP (what)))(SQ (VBZ (do))(NP (DT (the))(NN (name))(`` (``))(NNP (justin))('' ('')))(VP (VB (mean))))(. (?))))) |ET| 
0.22612392159325078733189684498939  |BT| (ROOT (ROOT (SBARQ (WHNP (WP (what)))(SQ (VBZ (do))(NP (DT (the))(NN (name))(`` (``))(NNP (anthony))('' ('')))(VP (VB (mean))))(. (?))))) |ET| 
-1  |BT| (ROOT (ROOT (SBARQ (WHNP (WP (what)))(SQ (VBZ (do))(NP (NNP (necrosis)))(VP (VB (mean))))(. (?))))) |ET| 
-1  |BT| (ROOT (ROOT (SBARQ (WHNP (WP (what)))(SQ (VBZ (do))(NP (NNP (lol)))(VP (VB (mean))))(. (?))))) |ET| 
-1  |BT| (ROOT (ROOT (SBARQ (WHNP (WP (what)))(SQ (VBZ (do))(NP (NNP (jessica)))(VP (VB (mean))))(. (?))))) |ET| 
1  |BT| (ROOT (ROOT (SBARQ (WHNP (WP (what)))(SQ (VBZ (be))(NP (NP (DT (the))(NN (orgin)))(PP (IN (of))(NP (NN (xoxoxox))))))(. (?))))) |ET| 
1  |BT| (ROOT (ROOT (SBARQ (WHNP (WP (what)))(SQ (VBZ (be))(NP (NP (DT (the))(NN (use)))(PP (IN (of))(NP (NP (DT (a))(JJ (24-hour))(NN (clock)))(PP (RB (instead))(IN (of))(NP (DT (a))(JJ (12-hour))(NN (clock))))))))(. (?))))) |ET| 
1  |BT| (ROOT (ROOT (SBARQ (WHNP (WP (what)))(SQ (VBZ (be))(NP (NP (DT (the))(JJ (economic))(NN (impact)))(PP (IN (of))(NP (NP (NN (unemployment)))(PP (IN (on))(NP (DT (the))(NN (economy))))))))(. (?))))) |ET| 
-1  |BT| (ROOT (ROOT (SBARQ (WHNP (WP (what)))(SQ (VBZ (be))(NP (NP (DT (the))(NN (length)))(PP (IN (of))(NP (NP (NN (border)))(PP (IN (between))(NP (DT (the))(NNP (ukraine))(CC (and))(NNP (russia))))))))(. (?))))) |ET| 
-0.51725914581460408214752533240244  |BT| (ROOT (ROOT (SBARQ (WHNP (WP (what)))(SQ (VBZ (be))(NP (NP (DT (the))(NN (name)))(PP (IN (of))(NP (NP (DT (the))(NN (dog)))(PP (IN (on))(NP (DT (the))(NNP (cracker))(NNP (jack))(NN (box))))))))(. (?))))) |ET| 
-0.61650039840401671398240068810992  |BT| (ROOT (ROOT (SBARQ (WHNP (WP (what)))(SQ (VBZ (be))(NP (NP (DT (the))(NN (name)))(PP (IN (of))(NP (NP (DT (the))(NN (star)))(PP (IN (of))(NP (NP (DT (the))(NN (cooking))(NN (show)))(, (,))(`` (``))(NP (NNP (galloping))(NNP (gourmet)))('' (''))))))))(. (?))))) |ET| 
0.69161996303145611975082829303574  |BT| (ROOT (ROOT (SBARQ (WHNP (WP (what)))(SQ (VBZ (do))(NP (NNP (robert)))(VP (VB (mean))))(. (?))))) |ET| 
0.6916940155383815014289439204731  |BT| (ROOT (ROOT (SBARQ (WHNP (WP (what)))(SQ (VBZ (do))(NP (NNP (elysium)))(VP (VB (mean))))(. (?))))) |ET| 
0.69169401553838860685630152147496  |BT| (ROOT (ROOT (SBARQ (WHNP (WP (what)))(SQ (VBZ (do))(NP (NNP (tiffany)))(VP (VB (mean))))(. (?))))) |ET| 
-1  |BT| (ROOT (ROOT (SBARQ (WHNP (WP (what)))(SQ (VBZ (do))(NP (NNP (btu)))(VP (VB (mean))))(. (?))))) |ET| 
-1  |BT| (ROOT (ROOT (SBARQ (WHNP (WP (what)))(SQ (VBZ (do))(NP (DT (the))(NN (word))(NN (laser)))(VP (VB (mean))))(. (?))))) |ET| 
-1  |BT| (ROOT (ROOT (SBARQ (WHNP (WP (what)))(SQ (VBZ (do))(NP (NNP (robin))(NNP (williams)))(VP (VB (do))))(. (?))))) |ET| 
1  |BT| (ROOT (ROOT (SBARQ (WHNP (WP (what)))(SQ (VBZ (be))(NP (NP (DT (the))(NN (distinction)))(PP (IN (of))(NP (NP (NNP (erle))(NNP (stanley))(NNP (gardner))(POS ('s)))(NP (NP (DT (the))(NN (case)))(PP (IN (of))(NP (DT (the))(JJ (terrified))(NN (typist)))))))))(. (?))))) |ET| 
1  |BT| (ROOT (ROOT (FRAG (SBAR (WHNP (WDT (what)))(S (ADVP (RB (exactly)))(VP (VBZ (be))(NP (NP (DT (the))(NN (purpose)))(PP (IN (of))(NP (DT (the))(NN (anteater))))))))(. (?))))) |ET| 
0.84772207014712686046209455525968  |BT| (ROOT (ROOT (SBARQ (WHNP (WP (what)))(SQ (VBZ (be))(NP (NP (DT (the))(NN (difference)))(PP (IN (between))(NP (NNP (j.d.))(CC (and))(NNP (ll.m))))))(. (.))))(ROOT (NP (. (?))))) |ET| 
-0.52208606203613727725354465292185  |BT| (ROOT (ROOT (SBARQ (WHNP (WDT (what))(NNP (broadway))(NN (musical)))(SQ (VP (VBD (feature))(NP (NP (DT (the))(NN (song)))(, (,))(`` (``))(SBAR (IN (if))(S (NP (PRP (i)))(VP (VBD (be))(NP (DT (a))(JJ (rich))(NN (man)))))))))(. (?))('' (''))))) |ET| 
-1  |BT| (ROOT (ROOT (S (NP (DT (a))(NN (corgi)))(VP (VBZ (be))(NP (NP (DT (a))(NN (kind)))(PP (IN (of))(NP (WP (what))))))(. (?))))) |ET| 
-0.81765641857698678762744748382829  |BT| (ROOT (ROOT (SBARQ (WHNP (WP (what)))(SQ (VP (VBZ (be)))(NP (NP (DT (the))(NN (time)))(SBAR (S (NP (PRP (it)))(VP (VBZ (take))(NP (DT (a))(NN (typist)))(PP (TO (to))(NP (NN (type))))))))(NP-TMP (NP (DT (a))(NN (screenplay)))(SBAR (WHNP (WDT (that)))(S (VP (VBZ (be))(ADVP (NP (CD (100))(NNS (page)))(RB (long))))))))(. (?))))) |ET| 
1  |BT| (ROOT (ROOT (SBARQ (WHNP (WP (what)))(SQ (VBZ (do))(NP (NNP (aaron)))(VP (VB (mean))))(. (?))))) |ET| 
0.54418249647696648185757339888369  |BT| (ROOT (ROOT (SBARQ (WHNP (WP (what)))(SQ (VBZ (do))(NP (NNP (melissa)))(VP (VB (mean))))(. (?))))) |ET| 
0.68175247729557464371197283981019  |BT| (ROOT (ROOT (SBARQ (WHNP (WP (what)))(SQ (VBZ (do))(NP (NNP (venus))(NNP (retrograde)))(VP (VB (mean))))(. (?))))) |ET| 
-1  |BT| (ROOT (ROOT (SBARQ (WHNP (WP (what)))(SQ (VBZ (do))(NP (DT (the))(NN (acronym))(NNP (cpr)))(VP (VB (mean))))(. (?))))) |ET| 
-1  |BT| (ROOT (ROOT (SBARQ (WHNP (WP (what)))(SQ (VBZ (do))(NP (NNP (knight))(NNP (ridder)))(VP (VB (publish))))(. (?))))) |ET| 
-1  |BT| (ROOT (ROOT (SBARQ (WHNP (WP (what)))(SQ (VBZ (do))(NP (NNP (salk))(NN (vaccine)))(VP (VB (prevent))))(. (?))))) |ET| 
1  |BT| (ROOT (ROOT (SBARQ (WHADVP (WRB (how)))(SQ (MD (can))(NP (PRP (i)))(VP (VB (enforce))(NP (JJ (new))(NNS (rule)))(PP (TO (to))(NP (NP (DT (a))(NN (group)))(PP (IN (of))(NP (NP (NNS (youngster)))(SBAR (WHNP (WP (who)))(S (VP (VBP (have))(VP (VBN (be))(VP (VBN (allow))(S (VP (TO (to))(VP (VB (do))(SBAR (IN (as))(S (NP (PRP (they)))(VP (VBP (please)))))))))))))))))))(. (.))))) |ET| 
1  |BT| (ROOT (ROOT (SBARQ (WHNP (WHNP (WDT (what))(NN (kind)))(PP (IN (of))(NP (VBG (greet)))))(SQ (VP (VBZ (be))(ADJP (JJ (appropriate))(S (VP (TO (to))(VP (VB (send))(PP (IN (on))(NP (NNP (yom))(NNP (kippur))))))))))(. (?))))) |ET| 
0.78735806844600175757875604176661  |BT| (ROOT (ROOT (S (SBAR (WHADVP (WRB (why)))(S (VP (MD (can))(VP ('' ('))(NP-TMP (NN (t)))))))(NP (PRP (you)))(VP (VBP (taste))(NP (NN (anything)))(SBAR (WHADVP (WRB (when)))(S (NP (PRP (you)))(VP (VBP (have))(NP (DT (a))(NN (cold)))))))(. (?))))) |ET| 
-0.81257626210670841349070769865648  |BT| (ROOT (ROOT (SBARQ (WHADVP (WRB (how))(RB (far)))(SQ (VBZ (be))(NP (PRP (it)))(PP (IN (from))(NP (NP (NNP (phoenix)))(PP (TO (to))(NP (NNP (blythe)))))))(. (?))))) |ET| 
-0.60627209501000023372796476905933  |BT| (ROOT (ROOT (S (SBAR (WHNP (WDT (what)))(S (NP (JJ (common))(NN (ailment)))(VP (MD (can))(VP ('' ('))(NP-TMP (NN (t)))))))(NP (PRP (you)))(VP (VBP (catch))(PP (IN (at))(NP (DT (the))(NNP (north))(NNP (pole)))))(. (?))))) |ET| 
0.59633055705970194892984181933571  |BT| (ROOT (ROOT (SBARQ (WHADVP (WRB (how)))(SQ (VBD (do))(NP (DT (the))(NNP (great))(NNP (depression)))(VP (VB (affect))(NP (NP (NNP (japan))(POS ('s)))(NN (history)))))(. (?))))) |ET| 
1  |BT| (ROOT (ROOT (SBARQ (WHNP (WP (what)))(SQ (VBZ (do))(NP (DT (a))(NN (emperor)))(VP (VB (do))))(. (?))))) |ET| 
1  |BT| (ROOT (ROOT (SBARQ (WHNP (WP (what)))(SQ (VBZ (do))(NP (DT (the))(NN (donation))(NN (process)))(VP (VB (entail))))(. (?))))) |ET| 
0.55909245931032647281000436123577  |BT| (ROOT (ROOT (SBARQ (WHNP (WP (what)))(SQ (VBZ (do))(NP (DT (the))(NN (name))(NNP (billie)))(VP (VB (mean))))(. (?))))) |ET| 
-0.6117229493530240702625633275602  |BT| (ROOT (ROOT (SBARQ (WHNP (WP (what)))(SQ (VBZ (do))(NP (DT (a))(NN (spermologer)))(VP (VB (collect))))(. (?))))) |ET| 
-0.61243875247920476212470930477139  |BT| (ROOT (ROOT (SBARQ (WHNP (WP (what)))(SQ (VBZ (do))(NP (DT (a))(NN (philatelist)))(VP (VB (collect))))(. (?))))) |ET| 
0.15180533325878875494652220368152  |BT| (ROOT (ROOT (SBARQ (WHNP (WP (what)))(SQ (VBZ (be))(NP (NP (DT (the))(NN (difference)))(PP (IN (between))(NP (NP (JJ (classical))(NN (conditioning)))(CC (and))(NP (JJ (operant))(NN (conditioning)))))))(. (?))))) |ET| 
1  |BT| (ROOT (ROOT (SBARQ (WHADJP (WRB (how))(ADJP (JJ (effective))))(SQ (VBP (be))(NP (NP (NNS (condom)))(PP (IN (in))(S (VP (VBG (protect))(PP (IN (against))(NP (NNP (aids)))))))))(. (?))))) |ET| 
1  |BT| (ROOT (ROOT (SBARQ (WHADJP (WRB (how))(JJ (successful)))(SQ (VBZ (be))(NP (NN (arometherapy))))(. (?))))) |ET| 
1  |BT| (ROOT (ROOT (SBARQ (WHADVP (WRB (how)))(SINV (VBD (do))(NP (NP (DT (the))(NN (jack-o))('' (')))(PRN (: (-))(NP (NN (lantern)))))(VP (VB (get))(SBAR (S (NP (PRP (it)))(VP (VBZ (be))(NP (NN (name))))))))(. (?))))) |ET| 
-0.82581736998111643366371481533861  |BT| (ROOT (ROOT (SBARQ (WHADJP (WRB (how))(JJ (loud)))(SQ (VBZ (be))(NP (NN (thunder))))(. (?))))) |ET| 
-0.54106291280731244608404040263849  |BT| (ROOT (ROOT (SBARQ (WHADJP (WRB (how))(JJ (fast)))(SQ (VBZ (be))(NP (NN (light))))(. (?))))) |ET| 
-0.18133985130338139968309008054348  |BT| (ROOT (ROOT (SBARQ (WHADJP (WRB (how))(JJ (big)))(SQ (VBZ (be))(NP (NNP (australia))))(. (?))))) |ET| 
1  |BT| (ROOT (ROOT (SBARQ (WHNP (WP (what)))(SQ (VBZ (do))(NP (DT (a))(NN (echidna)))(VP (VB (look))(PP (IN (like)))))(. (?))))) |ET| 
0.2579819043510902520921490577166  |BT| (ROOT (ROOT (SBARQ (WHNP (WP (what)))(SQ (VBZ (be))(NP (DT (a))(NN (cullion))))(. (?))))) |ET| 
1  |BT| (ROOT (ROOT (SBARQ (WHNP (WP (what)))(SQ (VBZ (be))(NP (NP (DT (a))(NN (water)))(S (VP (VB (funnel))))))(. (?))))) |ET| 
-1  |BT| (ROOT (ROOT (SBARQ (WHNP (WP (what)))(SQ (VBZ (be))(NP (NP (DT (the))(JJS (best))(NN (internet))(NN (business)))(S (VP (TO (to))(VP (VB (go))(PP (IN (into))))))))(. (?))))) |ET| 
-1  |BT| (ROOT (ROOT (SBARQ (WHNP (WP (what)))(SQ (VBZ (be))(NP (NP (DT (the))(NNP (taj))(NNP (majal)))(SBAR (S (VP (VBD (make))(PP (IN (of))))))))(. (?))))) |ET| 
-1  |BT| (ROOT (ROOT (SBARQ (WHNP (WP (what)))(SQ (VBP (do))(NP (NNS (peacock)))(VP (VB (mate))(PP (IN (with)))))(. (?))))) |ET| 
1  |BT| (ROOT (ROOT (SBARQ (WHADVP (WRB (how))(NP (RB (close))(DT (a))(NN (cousin))))(SQ (VBD (be))(NP (NP (NNP (franklin))(NNP (d.)))(PP (TO (to))(NP (NNP (theodore))(NNP (roosevelt))))))(. (?))))) |ET| 
1  |BT| (ROOT (ROOT (SBARQ (WHNP (WDT (what))(NN (effect)))(SQ (VBZ (do))(NP (DT (a))(NN (prism)))(VP (VBP (have))(PP (IN (on))(NP (NN (light))))))(. (?))))) |ET| 
1  |BT| (ROOT (ROOT (S (NP (NNP (colin))(NNP (powell)))(VP (VBZ (be))(ADJP (RB (best))(VBN (know))(WHPP (IN (for))(WHNP (WP (what))(NP (NN (achievement)))))))(. (?))))) |ET| 
-0.19889459618193294776489210562431  |BT| (ROOT (ROOT (SBARQ (WHADVP (WRB (where)))(SQ (VBD (do))(NP (NNP (victor))(NNP (hugo)))(VP (VB (spend))(NP (PRP$ (he))(NN (exile)))))(. (?))))) |ET| 
-1  |BT| (ROOT (ROOT (SBARQ (PP (IN (in))(NP (DT (a))(NN (computer))))(, (,))(WHNP (WP (what)))(SQ (VBZ (do))(NP (NNP (scsi)))(VP (VB (mean))))(. (?))))) |ET| 
-0.87150468848961426537869101593969  |BT| (ROOT (ROOT (S (NP (NNP (shea))(CC (and))(NNP (gould)))(VP (VBD (have))(NP (NP (DT (a))(NN (office)))(PP (IN (in))(NP (NNP (los))(NNP (angeles)))))(WHPP (IN (for))(WHNP (WRB (how))(JJ (long))))(PP (IN (before))(S (VP (VBG (close))(NP (PRP (it)))))))(. (?))))) |ET| 
1  |BT| (ROOT (ROOT (SBARQ (WHNP (WP (what)))(SQ (VBZ (be))(NP (DT (the))(NNP (red))(NN (planet))))(. (?))))) |ET| 
1  |BT| (ROOT (ROOT (SBARQ (WHNP (WP (what)))(SQ (VBZ (be))(NP (DT (the))(NN (c))(NN (programming))(NN (language))))(. (?))))) |ET| 
0.92206539998114289691244493951672  |BT| (ROOT (ROOT (SBARQ (WHNP (WP (what)))(SQ (VBZ (be))(NP (DT (the))(NNP (aim-54c))(NNP (phoenix))))(. (?))))) |ET| 
-1  |BT| (ROOT (ROOT (SBARQ (WHNP (WP (what)))(SQ (VBZ (be))(NP (DT (the))(JJ (regular))(NN (price))))(. (?))))) |ET| 
-1  |BT| (ROOT (ROOT (SBARQ (WHNP (WP (what)))(SQ (VBZ (be))(NP (DT (the))(NNP (u.s.))(NNP (navy))(NN (hymn))))(. (?))))) |ET| 
-1  |BT| (ROOT (ROOT (SBARQ (WHNP (WP (what)))(SQ (VBZ (be))(NP (DT (the))(JJ (second-lightest))(NN (element))))(. (?))))) |ET| 
1  |BT| (ROOT (ROOT (SBARQ (WHNP (WP (what)))(SQ (VBP (do))(NP (PRP (you)))(VP (VB (say))(PP (TO (to))(NP (NP (DT (a))(NN (friend)))(SBAR (WHNP (WP (who)))(S (VP (VBZ (ignore))(NP (PRP (you)))(PP (IN (for))(NP (JJ (other))(NNS (friend)))))))))))(. (?))))) |ET| 
0.88783738932258504661376719013788  |BT| (ROOT (ROOT (SBARQ (WHADVP (WRB (how)))(SQ (VBP (do))(NP (PRP (you)))(VP (VB (write))(NP (NP (DT (a))(ADJP (JJ (correct))(JJ (critical)))(NN (analysis)))(PP (IN (of))(NP (DT (a))(NN (poem)))))))(. (?))))) |ET| 
1  |BT| (ROOT (ROOT (SBARQ (SBAR (WHNP (WDT (what)))(FRAG (ADVP (RB (exactly)))))(, (,))(SQ (ADVP (RB (specifically)))(VP (VBZ (do))(S (VP (VB (sleep))(VP (VB (do))(PP (IN (for))(NP (PRP (you)))))))))(. (?))))) |ET| 
-1  |BT| (ROOT (ROOT (SBARQ (WHADVP (WRB (when)))(SQ (VP (VBP (do))(S (NP (PRP (you)))(VP (NN (plant))(NP (NN (winter))(NN (wheat)))))))(. (?))))) |ET| 
-0.66137251847652789304987663854263  |BT| (ROOT (ROOT (SBARQ (WHADVP (WRB (where)))(SQ (MD (can))(NP (PRP (i)))(VP (VB (take))(NP (NP (DT (a))(NN (test)))(SBAR (WHNP (WDT (that)))(S (VP (MD (will))(VP (VB (tell))(NP (PRP (i)))(SBAR (WHNP (WP (what)))(S (NP (PRP (i)))(VP (MD (should))(VP (VB (be))(SBAR (WHADVP (WRB (when)))(S (NP (PRP (i)))(VP (VBP (grow))(PRT (RP (up)))))))))))))))))(. (?))))) |ET| 
-0.13033702660513113436024923430523  |BT| (ROOT (ROOT (SBARQ (WHADVP (WRB (when)))(SQ (VBD (do))(NP (NNP (mount))(NNP (st.))(NNP (helen)))(VP (ADVP (RB (last)))(VP (VBP (have))(NP (DT (a))(JJ (significant))(NN (eruption))))))(. (?))))) |ET| 
0.98472710384743278311248104728293  |BT| (ROOT (ROOT (SBARQ (WHNP (WP (what)))(SQ (VBZ (be))(NP (DT (the))(JJ (amish))(NN (religion))))(. (?))))) |ET| 
1  |BT| (ROOT (ROOT (SBARQ (WHNP (WP (what)))(SQ (VBZ (be))(NP (DT (the))(JJ (immaculate))(NN (conception))))(. (?))))) |ET| 
1  |BT| (ROOT (ROOT (SBARQ (WHNP (WP (what)))(SQ (VBZ (be))(NP (DT (the))(JJ (circumorbital))(NN (hematoma))))(. (?))))) |ET| 
-1  |BT| (ROOT (ROOT (SBARQ (WHNP (WP (what)))(SQ (VBZ (be))(NP (DT (the))(NN (temperature))(NN (today))))(. (?))))) |ET| 
-1  |BT| (ROOT (ROOT (SBARQ (WHNP (WP (what)))(SQ (VBZ (be))(NP (PRP$ (she))(NN (profession))))(. (?))))) |ET| 
-1  |BT| (ROOT (ROOT (SBARQ (WHNP (WP (what)))(SQ (VBZ (be))(NP (DT (the))(JJS (oldest))(NN (profession))))(. (?))))) |ET| 
1  |BT| (ROOT (ROOT (SBARQ (WHADVP (WRB (how)))(SQ (MD (can))(NP (PRP (i)))(VP (VB (call))(NP (DT (a))(NN (friend)))(PP (IN (in))(NP (DT (another))(NN (country))))(SBAR (WHADVP (WRB (when)))(S (NP (PRP (i)))(VP (VBP (do))(RB (not))(VP (VB (know))(NP (DT (the))(NN (telephone))(NN (number)))))))))(. (?))))) |ET| 
1  |BT| (ROOT (ROOT (SBARQ (WHADVP (WRB (where)))(SQ (VBD (do))(NP (DT (the)))(VP (VBG (say))(NP (NP (`` (``))(NP (NN (rule)))(PP (IN (of))(NP (NN (thumb))))('' ('')))(VP (VBN (come))(PP (IN (from)))))))(. (?))))) |ET| 
0.8387705151829423222409332083771  |BT| (ROOT (ROOT (SBARQ (WHADVP (WRB (how)))(SQ (VBP (do))(NP (PRP (i)))(VP (VB (get))(NP (NP (PRP$ (my))(NN (lan))(NN (card)))(VP (VBN (activate))(SBAR (IN (so))(IN (that))(S (NP (PRP (it)))(VP (MD (can))(VP (NP (NN (hook)))(ADVP (IN (up))(PP (TO (to))(NP (DT (another))(NN (computer)))))))))))(PP (IN (without))(S (VP (VBG (use))(NP (DT (a))(NN (hub))))))))(. (?))))) |ET| 
-1  |BT| (ROOT (ROOT (SBARQ (WHADVP (WRB (how)))(SQ (VBP (do))(NP (PRP (you)))(VP (VB (say))(VP (`` (``))(VB (eat))(NP (DT (the))(NN (day)))('' (''))(PP (IN (in))(NP (NNP (latin)))))))(. (?))))) |ET| 
-0.61500398577583070824914557306329  |BT| (ROOT (ROOT (SBARQ (WHADVP (WRB (where)))(SQ (VBP (do))(NP (PRP (i)))(VP (VB (find))(NP (NP (NN (information)))(PP (IN (for))(NP (NN (foreclosure))(NNS (property)))))(PP (IN (on))(NP (DT (the))(NN (internet))))))(. (?))))) |ET| 
-0.0053207083197945870267631107708439  |BT| (ROOT (ROOT (SBARQ (WHADVP (WRB (where)))(SQ (MD (can))(NP (PRP (i)))(VP (VB (find))(NP (NP (DT (a))(NN (review)))(PP (IN (of))(NP (NN (nightmare)))))(PP (IN (on))(NP (NP (NNP (elm))(NNP (street)))(PP (IN (in))(NP (DT (a))(NN (film))(NN (journal))))))))(. (?))))) |ET| 
0.85844801936466430536398775075213  |BT| (ROOT (ROOT (SBARQ (WHNP (WP (what)))(SQ (VBZ (be))(NP (DT (a))(NN (plant))(NN (supplement))))(. (?))))) |ET| 
0.62795081433420629757335973408772  |BT| (ROOT (ROOT (SBARQ (WHNP (WP (what)))(SQ (VBZ (be))(NP (NN (home))(NN (banking))))(. (?))))) |ET| 
0.1767737885150192922445455678826  |BT| (ROOT (ROOT (SBARQ (WHNP (WP (what)))(SQ (VBZ (be))(NP (NN (power))(NN (steering))))(. (?))))) |ET| 
-1  |BT| (ROOT (ROOT (SBARQ (WHNP (WP (what)))(SQ (VBZ (be))(NP (PRP$ (you))(JJ (favorite))(NN (color))))(. (?))))) |ET| 
-0.49874804211505641138302280523931  |BT| (ROOT (ROOT (SBARQ (WHNP (WP (what)))(SQ (VBZ (be))(NP (NP (NNP (columbia))(NNP (tristar))(POS ('s)))(NN (phone))(NN (number))))(. (?))))) |ET| 
1  |BT| (ROOT (ROOT (SBARQ (WHADVP (WRB (how)))(SQ (VBP (do))(NP (PRP (you)))(VP (VB (make))(NP (JJ (panoramic))(NN (sugar))(NNS (egg)))(PP (IN (for))(NP (NNP (easter))))))(: (-))(NP (NP (DT (the))(NNS (one)))(PP (IN (with))(NP (NP (DT (the))(NN (scene)))(PP (IN (inside))))))(. (?))))) |ET| 
0.31516740632885176243149771835306  |BT| (ROOT (ROOT (SBARQ (WHADVP (WRB (how)))(SQ (VBP (do))(NP (PRP (i)))(VP (VB (find))(NP (NN (info)))(PP (IN (about))(NP (NP (NN (rice))(NNS (importer)))(PP (IN (in))(NP (DT (the))(NN (world))))))))(. (?))))) |ET| 
1  |BT| (ROOT (ROOT (SBARQ (WHADVP (WRB (how)))(SQ (VBP (do))(NP (PRP (you)))(VP (VB (exterminate))(NP (NP (NNS (bee)))(SBAR (WHNP (WDT (that)))(S (VP (VBP (be))(PP (IN (in))(NP (NP (DT (the))(NNS (wall)))(PP (IN (of))(NP (PRP$ (you))(NN (home))))))))))))(. (?))))(ROOT (S (S (VP (MD (will))))(NP (NN (bee))(NNS (egg)))(VP (VBP (remain))(PP (IN (over))(NP (NN (winter)))))(. (?))))) |ET| 
-0.4905361234914071832946547147003  |BT| (ROOT (ROOT (SBARQ (WHNP (WP (what)))(SQ (VBZ (do))(NP (NNP (nicholas))(NNP (cage)))(VP (VB (do))(PP (IN (for))(NP (DT (a))(NN (living))))))(. (?))))) |ET| 
-1  |BT| (ROOT (ROOT (SBARQ (WHNP (WP (what)))(SQ (VBD (do))(NP (DT (the))(CD (seven))(NNS (dwarf)))(VP (VBP (do))(PP (IN (for))(NP (DT (a))(NN (living))))))(. (?))))) |ET| 
-0.95645290115736814051672354253242  |BT| (ROOT (ROOT (SBARQ (WHNP (WP (what)))(SQ (VBZ (do))(NP (NNP (larry))(NNP (king)))(VP (VB (do))(PP (IN (for))(NP (DT (a))(NN (living))))))(. (?))))) |ET| 
1  |BT| (ROOT (ROOT (SBARQ (WHNP (WP (what)))(SQ (VBZ (do))(NP (NNP (choo))(NNP (choo))(NNP (charlie)))(VP (VB (say))))(. (?))))) |ET| 
0.91394986669279443258773198976996  |BT| (ROOT (ROOT (SBARQ (WHNP (WP (what)))(SQ (VBZ (be))(NP (NNP (australia))(NNP (day))))(. (?))))) |ET| 
0.70758611862139986214970122091472  |BT| (ROOT (ROOT (SBARQ (WHNP (WP (what)))(SQ (VBZ (be))(NP (NP (NN (remembrance))(NN (day)))(ADVP (DT (all))(IN (about)))))(. (?))))) |ET| 
-1  |BT| (ROOT (ROOT (SBARQ (WHNP (WP (what)))(SQ (VBZ (be))(NP (NP (NNP (columbia))(NNP (tristar))(POS ('s)))(NN (phone))(NN (number))))(. (?))))) |ET| 
-0.51354037788267214992288245412055  |BT| (ROOT (ROOT (SBARQ (WHNP (WP (what)))(SQ (VBZ (be))(NP (NP (DT (the))(NN (protection))(NN (rate)))(PP (IN (of))(S (VP (VBG (use))(NP (NNS (condom))))))))(. (?))))) |ET| 
-1  |BT| (ROOT (ROOT (SBARQ (WHNP (WP (what)))(SQ (VBZ (be))(NP (NP (DT (the))(JJ (average))(NN (time)))(PP (TO (to))(NP (NN (kiss))(NN (somene))))))(. (?))))) |ET| 
-1  |BT| (ROOT (ROOT (SBARQ (WHNP (WP (what)))(SQ (VBZ (be))(NP (DT (the))(JJ (federal))(JJ (minimum))(NN (wage))))(. (?))))) |ET| 
1  |BT| (ROOT (ROOT (SBARQ (WHNP (WDT (what))(NN (function)))(SQ (VBZ (do))(NP (NN (homeostasis)))(VP (VB (have))(PP (IN (on))(NP (NP (DT (the))(NN (existence)))(PP (IN (of))(NP (DT (a))(NN (organism))))))))(. (?))))) |ET| 
1  |BT| (ROOT (ROOT (SBARQ (WHNP (WP (what)))(SQ (MD (will))(NP (DT (a))(NN (compass)))(VP (VBP (do))(PP (IN (in))(NP (JJ (outer))(NN (space))))))(. (?))))) |ET| 
1  |BT| (ROOT (ROOT (SBARQ (WHNP (WDT (what))(NN (effect)))(SQ (VBZ (do))(NP (NNP (lsd)))(VP (VB (have))(PP (IN (on))(NP (DT (the))(NN (brain))))))(. (?))))) |ET| 
0.92891321660484771349786115024472  |BT| (ROOT (ROOT (SBARQ (WHNP (WP (what)))(SQ (VBZ (be))(NP (NP (DT (the))(NN (definition)))(PP (IN (of))(`` (`))(NP (JJ (graphic))(NP (NNS (detail))(POS (')))))))(. (?))))) |ET| 
-0.025090811395558871438327130931611  |BT| (ROOT (ROOT (SBARQ (WHNP (WP (what)))(SQ (VBZ (be))(NP (NP (DT (the))(NN (name)))(PP (IN (of))(NP (DT (the))(JJ (jewish))(NN (alphabet))))))(. (?))))) |ET| 
0.2884217716890735694335035077529  |BT| (ROOT (ROOT (SBARQ (WHNP (WP (what)))(SQ (VBZ (be))(NP (DT (a))(NN (bone))(NN (marrow))(NN (transplant))))(. (?))))) |ET| 
1  |BT| (ROOT (ROOT (SBARQ (WHNP (WP (what)))(SQ (VBZ (be))(NP (NP (NN (usenet)))(PP (IN (for))(NP (DT (the))(NN (internet))))))(. (?))))) |ET| 
1  |BT| (ROOT (ROOT (SBARQ (WHNP (WP (what)))(SQ (VBZ (be))(NP (NP (`` (`))(JJ (last))(NN (chance)))(PP (IN (for))(NP (NNS (animal))(POS ('))))))(. (?))))) |ET| 
1  |BT| (ROOT (ROOT (SBARQ (WHNP (WP (what)))(SQ (VBZ (be))(NP (NP (DT (the))(VBN (recommend))(JJ (daily))(NN (requirement)))(PP (IN (for))(NP (NP (JJ (folic))(NN (acid)))(PP (IN (for))(NP (JJ (pregnant))(NNS (woman))))))))(. (?))))) |ET| 
-1  |BT| (ROOT (ROOT (SBARQ (WHNP (WP (what)))(SQ (VBZ (be))(NP (NP (DT (the))(NN (country)))(PP (IN (of))(NP (NP (NN (origin)))(PP (IN (for))(NP (DT (the))(NN (name))(NNP (thomas))))))))(. (?))))) |ET| 
-1  |BT| (ROOT (ROOT (SBARQ (WHNP (WP (what)))(SQ (VBZ (be))(NP (NP (DT (another))(NN (word)))(PP (IN (for))(NP (NN (diet))))))(. (?))))) |ET| 
-0.63715772663678571507972492327099  |BT| (ROOT (ROOT (SBARQ (WHNP (WP (what)))(SQ (VBZ (be))(NP (NP (DT (the))(JJ (medical))(NN (term)))(PP (IN (for))(NP (NP (NN (cancer)))(PP (IN (of))(NP (DT (the))(NN (blood))))))))(. (?))))) |ET| 
1  |BT| (ROOT (ROOT (SBARQ (WHNP (WP (what)))(SQ (VBZ (do))(NP (NNP (freddy))(NNP (freeman)))(VP (VBP (say))(S (VP (TO (to))(VP (VB (become))(NP (NNP (captain))(NNP (marvel))(NNP (jr.))))))))(. (?))))) |ET| 
1  |BT| (ROOT (ROOT (SBARQ (WHNP (WDT (what)))(SQ (VP (VBD (make))(NP (DT (the))(NNP (finger))(NNP (lakes)))(PP (IN (in))(NP (JJ (western))(NNP (new))(NNP (york))(NN (state))))))(. (?))))) |ET| 
1  |BT| (ROOT (ROOT (SBARQ (WHNP (WDT (what))(NN (motto)))(SQ (VP (VBD (end))(NP (NNP (merrie))(NNP (melodies))(NNS (cartoon)))))(. (?))))) |ET| 
-0.21472667978817455702866823230579  |BT| (ROOT (ROOT (SBARQ (WHNP (WDT (what))(NNS (state)))(SQ (VP (VBP (do))(RB (not))(VP (VB (have))(NP (NN (state))(NN (income))(NN (tax))))))(. (?))))) |ET| 
-0.98901294056076161087531772864168  |BT| (ROOT (ROOT (SBARQ (WHNP (WDT (what))(JJ (famous))(NNS (event)))(SQ (VP (VBP (have))(VP (VBN (happen))(PP (IN (on))(NP (NNP (march))(CD (27)))))))(. (?))))) |ET| 
-0.02915751902654852359408899076243  |BT| (ROOT (ROOT (SBARQ (WHNP (WP (what)))(SQ (VBZ (be))(NP (DT (a))(JJ (female))(NN (rabbit)))(VP (VBN (call))))(. (?))))) |ET| 
1  |BT| (ROOT (ROOT (SBARQ (WHNP (WP (what)))(SQ (VBZ (be))(NP (NP (DT (the))(JJ (cultural))(NN (origin)))(PP (IN (of))(NP (NP (DT (the))(NN (ceremony)))(PP (IN (of))(NP (NNP (potlatch))))))))(. (?))))) |ET| 
1  |BT| (ROOT (ROOT (SBARQ (WHNP (WP (what)))(SQ (VBZ (be))(NP (NP (DT (the))(NN (origin)))(PP (IN (of))(NP (NP (DT (the))(NN (candy))(NN (cane)))(PP (IN (at))(NP (NNP (christmas))))))))(. (?))))) |ET| 
1  |BT| (ROOT (ROOT (SBARQ (WHNP (WP (what)))(SQ (VBZ (be))(`` (``))(NP (NP (DT (the))(NN (computer)))(PP (IN (for))(NP (NP (DT (the))(NN (rest)))(PP (IN (of))(NP (PRP (we)))))))('' ('')))(. (?))))) |ET| 
-0.26242465853311114365453704522224  |BT| (ROOT (ROOT (SBARQ (WHNP (WRB (how))(RB (much)))(SQ (VP (VBP (do))(NP (NNS (drug)))(S (VP (TO (to))(VP (VB (treat))(NP (NN (tuberculosis))(NN (cost))))))))(. (?))))) |ET| 
-0.21288923441493956545400578761473  |BT| (ROOT (ROOT (SBARQ (WHNP (WP (what)))(SQ (VBZ (be))(NP (NP (DT (the))(NN (abbreviation)))(PP (IN (of))(NP (NP (DT (the))(NNP (national))(NNP (bureau)))(PP (IN (of))(NP (NNP (investigation))))))))(. (?))))) |ET| 
-0.36027249378848891225857187237125  |BT| (ROOT (ROOT (SBARQ (WHNP (WP (what)))(SQ (VBD (be))(NP (NP (DT (the))(NN (name)))(PP (IN (of))(NP (NP (DT (the))(NN (director)))(PP (IN (of))(NP (DT (the))(NN (movie))(`` (``))(NNP (jaws))('' (''))))))))(. (?))))) |ET| 
1  |BT| (ROOT (ROOT (SBARQ (WHNP (WDT (what))(NNS (step)))(SQ (MD (can))(VP (VB (be))(VP (VBN (take))(S (VP (TO (to))(VP (VB (prevent))(NP (NN (diabetes)))))))))(. (?))))) |ET| 
1  |BT| (ROOT (ROOT (SBARQ (WHNP (WDT (what))(NNS (qualification)))(SQ (VP (VBP (be)))(NP (EX (there)))(PP (IN (for))(S (NP (NNS (individual)))(VP (VBG (donate))(NP (NN (blood)))))))(. (?))))) |ET| 
1  |BT| (ROOT (ROOT (SBARQ (WHNP (WDT (what)))(SQ (MD (can))(VP (VB (be))(VP (VBN (do))(PP (IN (about))(S (VP (VBG (snore))))))))(. (?))))) |ET| 
-0.10731946866365267567733354781012  |BT| (ROOT (ROOT (SBARQ (WHNP (WDT (what))(NNS (shrub)))(SQ (MD (can))(VP (VB (be))(VP (VBN (plant))(SBAR (S (NP (DT (that)))(VP (MD (will))(VP (VB (be))(ADJP (JJ (safe))(PP (IN (from))(NP (NNS (deer))))))))))))(. (?))))) |ET| 
-1  |BT| (ROOT (ROOT (SBARQ (WHNP (WP (what)))(SQ (VBZ (do))(NP (PRP (it)))(VP (VB (take))(S (VP (TO (to))(VP (VB (be))(NP (DT (a))(NN (hero))))))))(. (?))))) |ET| 
-1  |BT| (ROOT (ROOT (SBARQ (WHNP (WP (what)))(SQ (VBZ (be))(NP (NP (DT (the))(NN (formula)))(S (VP (TO (to))(VP (VB (calculate))(NP (NN (pi))))))))(. (?))))) |ET| 
1  |BT| (ROOT (ROOT (SBARQ (WHNP (WP (what)))(SQ (VP (VBD (cause))(NP (NP (DT (a))(NN (adjournment)))(PP (IN (of))(NP (NP (DT (the))(JJ (25th))(NN (anniversary))(NN (session)))(PP (IN (of))(NP (DT (the))(NNP (united))(NNP (nations))(NNP (general))(NNP (assembly)))))))))(. (?))))) |ET| 
1  |BT| (ROOT (ROOT (SBARQ (WHNP (WP (what)))(SQ (VBZ (be))(NP (NP (DT (the))(NN (order)))(PP (IN (of))(NP (NP (DT (the))(NNP (arrow)))(PP (IN (in))(NP (NNP (boy))(NNS (scout))))))))(. (?))))) |ET| 
1  |BT| (ROOT (ROOT (SBARQ (WHNP (WP (what)))(SQ (VP (VBD (happen))(PP (IN (during))(NP (NP (DT (the))(NNP (blackhawk))(NNP (indian))(NN (war)))(PP (IN (of))(NP (CD (1832))))))))(. (?))))) |ET| 
-0.28616366725401953807761401549214  |BT| (ROOT (ROOT (SBARQ (WHNP (WP (what)))(SQ (VBP (be))(NP (NP (DT (the))(NNS (statistics)))(PP (IN (for))(NP (NP (JJ (drunken))(NNS (driver)))(PP (IN (in))(NP (NNP (maryland))))))))(. (?))))) |ET| 
-1  |BT| (ROOT (ROOT (SBARQ (WHNP (WP (what)))(SQ (VBP (be))(NP (NP (NN (bottle))(NNS (cap)))(PP (IN (with))(NP (NP (NP (NNS (president))(POS (')))(NNS (picture)))(PP (IN (inside))(NP (NN (worth))))))))(. (?))))) |ET| 
-1  |BT| (ROOT (ROOT (SBARQ (WHNP (WP (what)))(SQ (VBZ (be))(`` (``))(NP (NP (DT (the))(NN (bear)))(PP (IN (of))(NP (NNS (beer)))))('' ('')))(. (?))))) |ET| 
1  |BT| (ROOT (ROOT (SBARQ (WHNP (WP (what)))(SQ (VBP (do))(NP (PRP (you)))(VP (VB (do))(SBAR (WHADVP (WRB (when)))(S (NP (PRP$ (you))(NN (mouse)))(VP (VBZ (be))(RB (not))(VP (VBG (work))(ADVP (ADVP (RB (as))(RB (fast)))(SBAR (IN (as))(S (NP (PRP (it)))(VP (VBZ (be))(VP (VBN (suppose))(S (VP (TO (to)))))))))))))))(. (?))))) |ET| 
1  |BT| (ROOT (ROOT (SBARQ (WHNP (WP (what)))(SQ (VBZ (do))(NP (NP (NNP (lloyd))(POS ('s)))(NP (NNP (lutine))(NNP (bell))))(VP (VB (announce))))(. (?))))) |ET| 
1  |BT| (ROOT (ROOT (SBARQ (WHNP (WP (what)))(SQ (VBZ (be))(NP (NP (NNP (franz))(NNP (kafka))(POS ('s)))(NP (NP (JJ (short))(NN (story)))(NP (`` (``))(DT (a))(NN (country))(NN (doctor))('' ('')))))(VP (VBG (try))(S (VP (TO (to))(VP (VB (tell))(NP (PRP (we))))))))(. (?))))) |ET| 
-1  |BT| (ROOT (ROOT (SBARQ (WHNP (WP (what)))(SQ (VBZ (be))(NP (NNP (shirley))(NNP (maclaine)))(VP (VBN (know))(PP (IN (as)))))(. (?))))) |ET| 
-1  |BT| (ROOT (ROOT (SBARQ (WHNP (WP (what)))(SQ (VBZ (do))(NP (NNP (visine)))(VP (VB (get))(PRT (RP (out)))))(. (?))))) |ET| 
-1  |BT| (ROOT (ROOT (SBARQ (WHNP (WP (what)))(SQ (VBZ (do))(NP (NN (saliva)))(VP (VBP (consist))(PP (IN (of)))))(. (?))))) |ET| 
1  |BT| (ROOT (ROOT (SBARQ (WHNP (WP (what)))(SQ (VBP (be))(NP (NP (DT (the))(RBS (most))(JJ (common))(NNS (cause)))(PP (IN (of))(NP (NP (NN (death)))(PP (IN (in))(NP (DT (the))(NNP (u.s.))))))))(. (?))))) |ET| 
1  |BT| (ROOT (ROOT (SBARQ (WHNP (WP (what)))(SQ (VBP (be))(NP (NP (DT (the))(NNS (cookie)))(PP (IN (in))(NP (NN (internet))))))(. (?))))) |ET| 
1  |BT| (ROOT (ROOT (SBARQ (WHNP (WP (what)))(SQ (VBP (be))(NP (NP (DT (those))(JJ (little))(JJ (blue))(NNS (reflector)))(PP (IN (in))(NP (NP (DT (the))(NN (middle)))(PP (IN (of))(NP (NP (DT (the))(NN (road)))(PP (IN (for)))))))))(. (?))))) |ET| 
-0.85789287634152144867982769937953  |BT| (ROOT (ROOT (SBARQ (WHNP (WP (what)))(SQ (VBP (be))(NP (NP (DT (the))(JJS (largest))(NNS (library)))(PP (IN (in))(NP (DT (the))(NNP (us))))))(. (?))))) |ET| 
-0.0456993712131640791862530193157  |BT| (ROOT (ROOT (SBARQ (WHADVP (WRB (where)))(SQ (MD (can))(NP (PRP (i)))(VP (VB (get))(NP (NN (information))(CC (and))(NNS (statistics)))(PP (IN (on))(NP (NNS (country))(CC (and))(NNS (nation))))))(. (?))))) |ET| 
0.023548389383309834693713824549377  |BT| (ROOT (ROOT (SBARQ (WHADVP (WRB (how)))(SQ (VBD (do))(NP (JJ (former))(NP (NNP (wwf))(NN (wrestler))(NNP (rick))(NNP (rude))))(VP (VB (die))))(. (?))))) |ET| 
1  |BT| (ROOT (ROOT (SBARQ (WHNP (WP (what)))(SQ (VBZ (do))(NP (NN (laser)))(VP (VB (stand))(PP (IN (for)))))(. (?))))) |ET| 
1  |BT| (ROOT (ROOT (SBARQ (WHNP (WP (what)))(SQ (VBZ (do))(NP (NNP (hazmat)))(VP (VB (stand))(PP (IN (for)))))(. (?))))) |ET| 
1  |BT| (ROOT (ROOT (SBARQ (WHNP (WP (what)))(SQ (VBZ (be))(NP (NNP (d.b.))(NNP (cooper)))(VP (VBN (know))(PP (IN (for)))))(. (?))))) |ET| 
-0.84606018846760733254086517263204  |BT| (ROOT (ROOT (SBARQ (WHNP (WP (what)))(SQ (VBZ (do))(NP (NN (hiv)))(VP (VB (stand))(PP (IN (for)))))(. (?))))) |ET| 
-0.36290549188258225399295042734593  |BT| (ROOT (ROOT (SBARQ (WHNP (WP (what)))(SQ (VBZ (do))(NP (NN (snafu)))(VP (VB (stand))(PP (IN (for)))))(. (?))))) |ET| 
-0.36304490490900143129238131223246  |BT| (ROOT (ROOT (SBARQ (WHNP (WP (what)))(SQ (VBZ (do))(NP (NN (ph)))(VP (VB (stand))(PP (IN (for)))))(. (?))))) |ET| 
1  |BT| (ROOT (ROOT (SBARQ (WHNP (WP (what)))(SQ (VBP (be))(NP (NP (DT (the))(JJ (current))(NN (immigration))(NNS (law)))(PP (IN (in))(NP (NNP (us))))))(. (?))))) |ET| 
1  |BT| (ROOT (ROOT (SBARQ (WHNP (WP (what)))(SQ (VBP (be))(NP (NP (DT (the))(JJ (environmental))(NNS (influence)))(PP (IN (on))(NP (NN (plant))(NNS (genetics))))))(. (?))))) |ET| 
1  |BT| (ROOT (ROOT (SBARQ (WHNP (WP (what)))(SQ (VBP (be))(NP (NP (NNS (fault)))(PP (IN (in))(NP (NP (DT (the))(NN (earth))(POS ('s)))(NN (crust))))))(. (?))))) |ET| 
-1  |BT| (ROOT (ROOT (SBARQ (WHNP (WP (what)))(SQ (VBP (be))(NP (NP (NN (tourist))(NNS (attraction)))(PP (IN (in))(NP (NNP (reims))))))(. (?))))) |ET| 
-0.83757574777978271995948489347938  |BT| (ROOT (ROOT (SBARQ (WHNP (WP (what)))(SQ (VBP (be))(NP (NP (DT (the))(NNS (snake)))(PP (IN (of))(NP (NNP (new))(NNP (england))))))(. (?))))) |ET| 
-0.66439726943758881105850377934985  |BT| (ROOT (ROOT (SBARQ (WHNP (WP (what)))(SQ (VBP (be))(NP (NP (PDT (all))(DT (the))(NNS (river)))(PP (IN (in))(NP (NNP (europe))))))(. (?))))) |ET| 
1  |BT| (ROOT (ROOT (SBARQ (WHNP (WP (what)))(SQ (VBZ (do))(NP (DT (a))(NNP (nihilist)))(VP (VB (believe))(PP (IN (in)))))(. (?))))) |ET| 
1  |BT| (ROOT (ROOT (SBARQ (WHNP (WP (what)))(SQ (VBZ (do))(NP (NNP (esa-pekka))(NN (salonen)))(VP (VB (look))(PP (IN (like)))))(. (?))))) |ET| 
1  |BT| (ROOT (ROOT (SBARQ (WHNP (WP (what))(RB (else)))(SQ (VBZ (have))(NP (DT (the))(NN (swastika)))(VP (VBD (stand))(PP (IN (for)))))(. (?))))) |ET| 
-0.12043963934128443238336103604524  |BT| (ROOT (ROOT (SBARQ (WHNP (WDT (what))(NP (NP (NNP (president))(POS ('s)))(NP (NP (JJ (favorite)))(NP (JJ (biblical))(NN (quotation))))))(SQ (VBD (be))(: (:))(S (VP (`` (``))(VB (come))(ADVP (RB (now))))(, (,))(CC (and))(VP (VB (let))(NP (PRP (we))(NN (reason)))(ADVP (RB (together))('' (''))))))(. (.))))) |ET| 
-0.30599992308889906178492879007536  |BT| (ROOT (ROOT (SBARQ (WHNP (WP (what)))(SQ (VBZ (be))(NP (NP (DT (the))(JJ (hungarian))(NN (word)))(PP (IN (for))(NP (NN (pepper))))))(. (?))))) |ET| 
-0.21293230428085341277011366400984  |BT| (ROOT (ROOT (SBARQ (WHNP (WDT (what))(NP (JJ (creative))(NN (genius))))(SQ (VP (VBD (say))(: (:))(`` (``))(SBAR (S (NP (NN (everything)))(VP (VBZ (come))(PP (TO (to))(NP (NP (PRP (he)))(SBAR (WHNP (WP (who)))(S (VP (VBZ (hustle))(SBAR (IN (while))(S (NP (PRP (he)))(VP (VBZ (wait)))))))))))))('' (''))))(. (?))))) |ET| 
1  |BT| (ROOT (ROOT (SBARQ (WHNP (WP (what)))(SQ (VBP (be))(NP (NP (DT (the))(NNS (benefit)))(PP (IN (of))(NP (NN (home))(NN (school))))))(. (?))))) |ET| 
1  |BT| (ROOT (ROOT (SBARQ (WHNP (WP (what)))(SQ (VBP (be))(NP (NP (DT (the))(NNS (benefit)))(PP (IN (of))(NP (DT (a))(NN (rowing))(NN (machine))))))(. (?))))) |ET| 
1  |BT| (ROOT (ROOT (SBARQ (WHNP (WP (what)))(SQ (VBP (be))(NP (NP (DT (some))(NN (chemical))(NNS (property)))(PP (IN (of))(NP (NN (mendelevium))))))(. (?))))) |ET| 
-1  |BT| (ROOT (ROOT (SBARQ (WHNP (WP (what)))(SQ (VBP (be))(NP (NP (DT (the))(NNS (component)))(PP (IN (of))(NP (NN (polyester))))))(. (?))))) |ET| 
-1  |BT| (ROOT (ROOT (SBARQ (WHNP (WP (what)))(SQ (VBP (be))(NP (NP (DT (the))(NNS (dimension)))(PP (IN (of))(NP (DT (a))(NN (ice))(NN (hockey))(NN (goal))))))(. (?))))) |ET| 
-1  |BT| (ROOT (ROOT (SBARQ (WHNP (WP (what)))(SQ (VBZ (be))(NP (NP (DT (the))(NN (shape)))(PP (IN (of))(NP (NP (DT (a))(NN (camel))(POS ('s)))(NN (spine))))))(. (?))))) |ET| 
1  |BT| (ROOT (ROOT (S (NP (NNP (shea))(CC (and))(NNP (gould)))(VP (VBD (close))(NP (NP (PRP$ (they))(NNP (los))(NNP (angeles))(NN (office)))(WHPP (IN (for))(WHNP (WP (what))(NP (NN (reason)))))))(. (?))))) |ET| 
1  |BT| (ROOT (ROOT (SBARQ (WHADVP (WRB (where)))(SQ (VP (VBZ (do))(ADJP (`` (``))(JJ (bovine))('' (''))(SBAR (S (VP (VBN (come))(PP (IN (from)))))))))(. (?))))) |ET| 
1  |BT| (ROOT (X (WP (what))(VBZ (be))(DT (the))(NN (origin))(IN (of))(DT (the))(NN (typing))(NN (practice))(NN (sentence))(`` (``))(RB (now))(VBZ (be))(DT (the))(NN (time))(IN (for))(DT (all))(JJ (good))(NNS (man))(TO (to))(VB (come))(TO (to))(DT (the))(NN (aid))(IN (of))(PRP$ (they))(NN (country))('' (''))(. (?)))) |ET| 
-1  |BT| (ROOT (ROOT (SBARQ (WHADVP (WRB (how))(RB (far)))(SQ (VBP (do))(NP (PRP (you)))(VP (VB (have))(S (VP (TO (to))(VP (VB (run))(SBAR (IN (if))(S (NP (PRP (you)))(VP (VBD (hit))(S (NP (DT (a))(NN (home)))(VP (VB (run))))))))))))(. (?))))) |ET| 
-1  |BT| (ROOT (ROOT (S (NP (NNP (madonna)))(VP (VBZ (advertise))(WHPP (IN (for))(WHNP (WP (what))(NP (JJ (soft))(NN (drink))))))(. (?))))) |ET| 
-0.13142681824632301834654413141834  |BT| (ROOT (ROOT (SBARQ (WHNP (WHADJP (WRB (how))(JJ (many)))(NNS (question)))(SQ (VBP (do))(NP (PRP (you)))(VP (VB (have))(PP (IN (on))(NP (PRP$ (you))(NN (database))))))(. (?))))) |ET| 
1  |BT| (ROOT (ROOT (SBARQ (WHNP (WP (what)))(SQ (VBZ (be))(NP (NP (DT (the))(JJS (largest))(NN (variety)))(PP (IN (of))(NP (NN (cactus))))))(. (?))))) |ET| 
1  |BT| (ROOT (ROOT (SBARQ (WHNP (WP (what)))(SQ (VBD (be))(NP (NP (DT (the))(NN (importance)))(PP (IN (of))(NP (NNP (magellan))))))(. (?))))) |ET| 
1  |BT| (ROOT (ROOT (SBARQ (WHNP (WP (what)))(SQ (VBZ (be))(NP (NP (DT (the))(NN (state))(NN (motto)))(PP (IN (of))(NP (NNP (california))))))(. (?))))) |ET| 
-0.069799807661154900095823450101307  |BT| (ROOT (ROOT (SBARQ (WHNP (WHNP (WDT (what))(NN (percentage)))(PP (IN (of))(NP (DT (the))(NN (body)))))(SQ (VBZ (be))(NP (NN (muscle))))(. (?))))) |ET| 
-0.50743566611980617242494417951093  |BT| (ROOT (ROOT (SBARQ (WHADVP (WRB (how))(RB (often)))(SQ (VBP (be))(NP (NNS (quadruplet)))(VP (VBN (bear))))(. (?))))) |ET| 
1  |BT| (ROOT (ROOT (SBARQ (WHNP (WDT (what))(NP (JJ (good))))(SQ (VBP (be))(NP (NNS (mosquito))))(. (?))))) |ET| 
1  |BT| (ROOT (ROOT (SBARQ (WHNP (WDT (what))(NNS (effect)))(SQ (VBP (do))(NP (NNS (nitrate)))(VP (VB (have))(PP (IN (on))(NP (DT (the))(NN (environment))))))(. (?))))) |ET| 
1  |BT| (ROOT (ROOT (SBARQ (WHNP (WP (what)))(SQ (VBP (be))(NP (PRP (you)))(VP (VBG (hear))(SBAR (WHADVP (WRB (when)))(S (NP (PRP (you)))(VP (VBD (put))(NP (DT (a))(NN (seashell)))(PP (TO (to))(NP (PRP$ (you))(NN (ear)))))))))(. (?))))) |ET| 
-0.91724966158641663138695321322302  |BT| (ROOT (ROOT (SBARQ (WHNP (WP (what)))(SQ (VBZ (be))(NP (NP (DT (the))(NN (chemical))(NN (reactivity)))(PP (IN (of))(NP (NN (neon))))))(. (?))))) |ET| 
-1  |BT| (ROOT (ROOT (SBARQ (WHNP (WP (what)))(SQ (VBD (be))(NP (NP (NNP (baffin))(, (,))(NNP (frobisher))(CC (and))(NNP (franklin)))(VP (VBG (look))(PP (IN (for))))))(. (?))))) |ET| 
-0.53398616910840568383633808480226  |BT| (ROOT (ROOT (SBARQ (WHNP (WP (what)))(SQ (VBD (be))(NP (NP (DT (the))(NN (ceremony))(NNS (tradition)))(PP (IN (like))(PP (IN (during))(NP (DT (the))(JJ (elizabethian))(NNS (time)))))))(. (?))))) |ET| 
-0.23182017677118937903912865294842  |BT| (ROOT (ROOT (SBARQ (WHNP (WHNP (WDT (what))(NNS (type)))(PP (IN (of))(NP (NN (water))(NN (pollution)))))(SQ (VBP (be))(NP (EX (there))))(. (?))))) |ET| 
1  |BT| (ROOT (ROOT (SBARQ (WHNP (WP (what)))(SQ (VBD (do))(NP (NNP (richard))(NNP (feynman)))(VP (VBP (say))(PP (IN (upon))(NP (NP (NN (hearing)))(SBAR (S (NP (PRP (he)))(VP (MD (would))(VP (VB (receive))(NP (NP (DT (the))(NNP (nobel))(NNP (prize)))(PP (IN (in))(NP (NN (physics)))))))))))))(. (?))))) |ET| 
1  |BT| (ROOT (ROOT (SBARQ (WHNP (WP (what)))(SQ (VBZ (be))(NP (NP (DT (the))(NN (vdrl))(NN (test)))(PP (IN (of))(NP (NN (blood))))))(. (?))))) |ET| 
1  |BT| (ROOT (ROOT (SBARQ (WHNP (WP (what)))(SQ (VBZ (be))(NP (NP (JJ (new)))(PP (IN (in))(NP (NP (DT (the))(JJ (postal))(NN (world)))(PP (IN (in))(NP (CD (1999))))))))(. (?))))) |ET| 
-1  |BT| (ROOT (ROOT (SBARQ (WHNP (WP (what)))(SQ (VBZ (be))(NP (NP (JJ (bottled)))(PP (IN (in))(NP (NNS (jeroboam))))))(. (?))))) |ET| 
0.024101232811728934279926761519164  |BT| (ROOT (ROOT (SBARQ (WHNP (WP (what)))(SQ (VBZ (be))(NP (DT (a))(JJ (green))(NN (bog))))(. (?))))) |ET| 
0.29840388679778456770819161647523  |BT| (ROOT (ROOT (SBARQ (WHNP (WP (what)))(SQ (VP (VBZ (cause))(NP (DT (a))(NN (earthquake)))))(. (?))))) |ET| 
1  |BT| (ROOT (ROOT (S (NP (NNP (hazmat)))(VP (VBZ (stand))(WHPP (IN (for))(WHNP (WP (what)))))(. (?))))) |ET| 
1  |BT| (ROOT (ROOT (SBARQ (WHNP (WP (what)))(SQ (VBD (be))(NP (NP (NNP (archy)))(, (,))(CC (and))(NP (NNP (mehitabel)))))(. (?))))) |ET| 
1  |BT| (ROOT (ROOT (SBARQ (WHNP (WP (what)))(SQ (VBD (be))(NP (NP (DT (the))(CD (three))(NNS (prophecy)))(SBAR (S (NP (DT (the))(NNS (witch)))(VP (VBP (make))(PP (TO (to))(NP (NNP (macbeth)))))))))(. (?))))) |ET| 
-0.018681547903222194689787372112733  |BT| (ROOT (ROOT (SBARQ (WHNP (WP (what)))(SQ (VBZ (do))(NP (NNP (s.o.s.)))(VP (VB (stand))(PP (IN (for)))))(. (?))))) |ET| 
-0.018681547903221972645182447081424  |BT| (ROOT (ROOT (SBARQ (WHNP (WP (what)))(SQ (VBZ (do))(NP (NNP (nasdaq)))(VP (VB (stand))(PP (IN (for)))))(. (?))))) |ET| 
-0.018681547903215481309935341869277  |BT| (ROOT (ROOT (SBARQ (WHNP (WP (what)))(SQ (VBZ (do))(NP (NNP (g.m.t.)))(VP (VB (stand))(PP (IN (for)))))(. (?))))) |ET| 
1  |BT| (ROOT (ROOT (SBARQ (WHNP (WP (what)))(SQ (VBZ (be))(NP (NP (DT (the))(JJ (medical))(NN (condition)))(PP (IN (of))(NP (NN (hypertension))))))(. (?))))) |ET| 
1  |BT| (ROOT (ROOT (SBARQ (WHNP (WP (what)))(SQ (VBZ (be))(NP (NP (DT (a))(NN (specimen)))(PP (IN (of))(NP (NNS (basidiomycete))))))(. (?))))) |ET| 
1  |BT| (ROOT (ROOT (SBARQ (WHNP (WP (what)))(SQ (VBZ (be))(NP (NP (DT (the))(NNS (contents)))(PP (IN (of))(NP (NN (proposition))(CD (98))))))(. (?))))) |ET| 
0.18239298522284327908060674872104  |BT| (ROOT (ROOT (SBARQ (WHNP (WP (what)))(SQ (VBZ (be))(`` (``))(NP (NN (bloodhound)))('' ('')))(. (?))))) |ET| 
-1  |BT| (ROOT (ROOT (SBARQ (WHNP (WP (what)))(SQ (VBZ (be))(NP (NP (DT (the))(NN (salary)))(PP (IN (of))(NP (DT (a))(NNP (u.s.))(NNP (representative))))))(. (?))))) |ET| 
-1  |BT| (ROOT (ROOT (SBARQ (WHNP (WP (what)))(SQ (VBZ (be))(NP (NP (DT (the))(NN (weight)))(PP (IN (of))(NP (NP (DT (a))(NN (teaspoon)))(PP (IN (of))(NP (NP (NN (matter)))(PP (IN (in))(NP (DT (a))(JJ (black))(NN (hole))))))))))(. (?))))) |ET| 
1  |BT| (ROOT (ROOT (SBARQ (WHNP (WP (what)))(SQ (VBZ (do))(NP (NN (storm))(NN (wave)))(VP (VB (mean))(PP (IN (in))(NP (NNP (japanese))))))(. (?))))) |ET| 
1  |BT| (ROOT (ROOT (SBARQ (WHNP (WP (what)))(SQ (VBZ (do))(NP (DT (the))(JJ (double-o)))(VP (VBP (indicate))(PP (IN (in))(NP (CD (007))))))(. (?))))) |ET| 
1  |BT| (ROOT (ROOT (SBARQ (WHNP (WP (what)))(SQ (VBZ (do))(NP (DT (the))(NN (word))(NN (terrorism)))(VP (VB (mean))))(. (?))))) |ET| 
-1  |BT| (ROOT (ROOT (SBARQ (WHNP (WP (what)))(SQ (VBZ (do))(`` (``))(NP (NNP (b.y.o.b.)))('' (''))(VP (VB (mean))))(. (?))))) |ET| 
-1  |BT| (ROOT (ROOT (SBARQ (WHNP (WP (what)))(SQ (VBP (do))(NP (NNPS (italians)))(VP (VB (call))(NP (NNP (florence)))))(. (?))))) |ET| 
-1  |BT| (ROOT (ROOT (SBARQ (WHNP (WP (what)))(SQ (VP (VBZ (do))(S (NP (QP (CD (7847))(CD (+5943))))(VP (JJ (equal))))))(. (?))))) |ET| 
1  |BT| (ROOT (ROOT (SBARQ (WHNP (WP (what)))(SQ (VBZ (be))(NP (NP (DT (the))(NN (difference)))(PP (IN (between))(NP (NP (DT (a))(NN (board)))(PP (IN (of))(NP (NP (NNS (director)))(CC (and))(NP (DT (a))(JJ (advisory))(NN (board)))))))))(. (?))))) |ET| 
1  |BT| (ROOT (ROOT (SBARQ (WHNP (WP (what)))(SQ (VBZ (be))(NP (NP (DT (a))(NN (example)))(PP (IN (of))(NP (NP (DT (a))(JJ (actual))(NN (case)))(PP (IN (of))(S (VP (VBG (use))(NP (DT (the))(JJ (fourteenth))(NN (amendment))))))))))(. (?))))) |ET| 
1  |BT| (ROOT (ROOT (SBARQ (WHNP (WP (what)))(SQ (VBZ (be))(NP (NP (DT (a))(NN (pig)))(PP (IN (in))(NP (DT (a))(NN (poke))))))(. (?))))) |ET| 
-0.0064251903238736474133219189752708  |BT| (ROOT (ROOT (S (VP (VB (name))(NP (DT (a))(JJ (french))(JJ (fascist))(NN (party))))(. (.))))) |ET| 
-1  |BT| (ROOT (ROOT (SBARQ (WHNP (WP (what)))(SQ (VBZ (be))(NP (NP (DT (a))(NN (example)))(PP (IN (of))(NP (DT (a))(JJ (natural))(NN (acid-base))(NN (indicator))))))(. (?))))) |ET| 
-1  |BT| (ROOT (ROOT (SBARQ (WHNP (WP (what)))(SQ (VBZ (be))(NP (NP (DT (a))(NN (example)))(PP (IN (of))(NP (NP (DT (a))(JJ (famous))(NN (rock))(NN (band)))(PP (IN (from))(NP (DT (the))(NNS (sixty))))))))(. (?))))) |ET| 
0.4788483530492165241021496058238  |BT| (ROOT (ROOT (SBARQ (WHNP (WP (what)))(SQ (VBZ (do))(`` (``))(NP (NNP (janelle)))('' (''))(VP (VB (mean))))(. (?))))) |ET| 
0.12924012484690142188448191973293  |BT| (ROOT (ROOT (SBARQ (WHNP (WP (what)))(SQ (VBZ (do))(`` (``))(NP (FW (semper))(FW (fidelis)))('' (''))(VP (VB (mean))))(. (?))))) |ET| 
1  |BT| (ROOT (ROOT (SBARQ (WHNP (WP (what)))(SQ (VBP (do))(NP (NNPS (mormons)))(VP (VB (believe))))(. (?))))) |ET| 
-1  |BT| (ROOT (ROOT (SBARQ (WHNP (WP (what)))(SQ (VBZ (do))(NP (DT (a))(JJ (resurrectionist)))(VP (VB (steal))))(. (?))))) |ET| 
-0.91139351026410819756051751028281  |BT| (ROOT (ROOT (SBARQ (WHNP (WP (what)))(SQ (VBZ (do))(NP (DT (the))(NNP (peugeot))(NN (company)))(VP (VB (manufacture))))(. (?))))) |ET| 
-1  |BT| (ROOT (ROOT (SBARQ (WHNP (WP (what)))(SQ (VBD (do))(NP (NNP (aaron))(NNP (hass)))(VP (VB (write))))(. (?))))) |ET| 
1  |BT| (ROOT (ROOT (SBARQ (WHNP (WP (what)))(SQ (VBZ (be))(NP (NP (DT (the))(NN (setting)))(PP (IN (of))(NP (NP (NNP (john))(NNP (le))(NNP (carre))(POS ('s)))(NP (NP (DT (a))(JJ (small))(NN (town)))(PP (IN (in))(NP (NNP (germany)))))))))(. (?))))) |ET| 
1  |BT| (ROOT (ROOT (SBARQ (WHNP (WP (what)))(SQ (VBZ (be))(NP (NP (DT (a))(NN (cake)))(PP (IN (of))(NP (NN (soap))))))(. (?))))) |ET| 
1  |BT| (ROOT (ROOT (SBARQ (WHNP (WP (what)))(SQ (VBZ (be))(NP (NP (DT (the))(NN (origin)))(PP (IN (of))(NP (NP (DT (the))(NN (rock))(NN (band))(NNP (led))(NNP (zeppelin))(POS ('s)))(NN (name))))))(. (?))))) |ET| 
-0.79889989566064434356462697905954  |BT| (ROOT (ROOT (SBARQ (WHNP (WP (what)))(SQ (VBZ (be))(NP (NP (DT (the))(JJ (main))(NN (ingredient)))(PP (IN (of))(NP (NN (yogurt))))))(. (?))))) |ET| 
-0.96839474035590755729430156861781  |BT| (ROOT (ROOT (SBARQ (WHNP (WP (what)))(SQ (VBZ (be))(NP (NP (DT (the))(JJ (main))(NN (vegetable)))(PP (IN (in))(NP (NN (vichyssoise))))))(. (?))))) |ET| 
-1  |BT| (ROOT (ROOT (SBARQ (WHNP (WP (what)))(SQ (VBZ (be))(NP (NP (DT (the))(JJ (highest-ranking))(NN (suit)))(PP (IN (in))(NP (NN (bridge))))))(. (?))))) |ET| 
1  |BT| (ROOT (ROOT (SBARQ (WHNP (WP (what)))(SQ (VBP (do))(NP (NP (DT (the))(JJ (red-and-white))(NNS (stripe)))(PP (IN (on))(NP (DT (a))(NN (barbershop))(NN (pole)))))(VP (VB (stand))(PP (IN (for)))))(. (?))))) |ET| 
1  |BT| (ROOT (ROOT (SBARQ (WHNP (WP (what)))(SQ (VBZ (be))(NP (NNP (black))(NNP (hills))))(, (,))(FRAG (NP (NP (NNP (south))(NNP (dakota)))(ADJP (RBS (most))(JJ (famous))))(PP (IN (for))))(. (?))))) |ET| 
1  |BT| (ROOT (ROOT (SBARQ (WHNP (WP (what)))(SQ (VBD (do))(NP (NNP (john))(NNP (hinckley)))(VP (VBP (do))(S (VP (TO (to))(VP (VB (impress))(NP (NNP (jodie))(NNP (foster))))))))(. (?))))) |ET| 
-0.59432122367388173778124382806709  |BT| (ROOT (ROOT (SBARQ (WHNP (WP (what)))(SQ (VBP (be))(NP (JJ (common))(NNS (method)))(VP (VBN (use))(S (VP (TO (to))(VP (VB (regulate))(NP (NNS (monopoly))))))))(. (?))))) |ET| 
-1  |BT| (ROOT (ROOT (SBARQ (WHNP (WP (what)))(SQ (VBD (be))(NP (NNP (mark))(NNP (johnson)))(VP (VBG (refer))(PP (TO (to))(SBAR (WHADVP (WRB (when)))(S (S (NP (PRP (he)))(VP (VP (VBD (say))(: (:))(`` (``))(SBAR (S (NP (PRP (i)))(ADVP (RB (still)))(VP (MD (can)))))('' (')))(NP (NP (NN (t)))(SBAR (S (VP (VBP (believe))(NP (PRP (it)))))))))(: (-))(S (NP (PRP (we)))(VP (VBD (beat))(NP (DT (the))(NNPS (russians))))))))))(. (?))('' (''))))) |ET| 
-0.70504892708080879604182200637297  |BT| (ROOT (ROOT (SBARQ (WHNP (WP (what)))(SQ (VBD (be))(NP (NP (NNP (john))(NNP (f.))(NNP (kennedy))(POS ('s)))(NP (CD (1960))(NN (campaign))(NN (song)))))(. (?))))) |ET| 
1  |BT| (ROOT (ROOT (SBARQ (WHNP (WP (what)))(SQ (VBZ (be))(NP (NP (DT (the))(JJ (main))(NN (application)))(PP (IN (of))(NP (NN (sodium))(NN (hydrosulfite))))))(. (?))))) |ET| 
1  |BT| (ROOT (ROOT (SBARQ (WHNP (WP (what)))(SQ (VBZ (be))(NP (NP (DT (the))(JJ (poetic))(NN (meter)))(PP (IN (of))(NP (JJ (blank))(NN (verse))))))(. (?))))) |ET| 
1  |BT| (ROOT (ROOT (SBARQ (WHNP (WP (what)))(SQ (VBZ (be))(NP (NP (DT (the))(JJ (classic))(NN (definition)))(PP (IN (of))(NP (JJ (tragic))(NN (hero))))))(. (?))))) |ET| 
-1  |BT| (ROOT (ROOT (SBARQ (WHNP (WP (what)))(SQ (VBZ (be))(NP (NP (DT (the))(NN (date)))(PP (IN (of))(NP (NNP (boxing))(NNP (day))))))(. (?))))) |ET| 
-1  |BT| (ROOT (ROOT (SBARQ (WHNP (WP (what)))(SQ (VBZ (be))(NP (NP (DT (the))(NN (date)))(PP (IN (of))(NP (NNP (bastille))(NNP (day))))))(. (?))))) |ET| 
-1  |BT| (ROOT (ROOT (SBARQ (WHNP (WP (what)))(SQ (VBZ (be))(NP (NP (DT (the))(NN (location)))(PP (IN (of))(NP (NNP (mccarren))(NN (airport))))))(. (?))))) |ET| 
1  |BT| (ROOT (ROOT (SBARQ (WHNP (WDT (what))(NN (category)))(SQ (VP (VBZ (do))(NP (NP (DT (the))(NN (color))(JJ (pink))(NN (denote)))(PP (IN (in))(NP (DT (the))(JJ (trivial))(NN (pursuit))(NNP (baby))(NNP (boomer))(NNP (edition)))))))(. (?))))) |ET| 
1  |BT| (ROOT (ROOT (SBARQ (WHNP (WP (what)))(SQ (VP (MD (would))(VP (VB (happen))(PP (TO (to))(NP (NNP (canada))))(SBAR (IN (if))(S (NP (NNP (quebec)))(VP (VBN (separate))))))))(. (?))))) |ET| 
1  |BT| (ROOT (ROOT (SBARQ (WHNP (WP (what)))(SQ (VBZ (be))(PP (IN (in))(NP (NP (NN (baby))(NN (powder))(CC (and))(NN (baby))(NN (lotion)))(SBAR (WHNP (WDT (that)))(S (VP (VBZ (make))(S (NP (PRP (it)))(VP (VB (smell))(NP (NP (DT (the))(NN (way)))(SBAR (S (NP (PRP (it)))(VP (VBZ (do))))))))))))))(. (?))))) |ET| 
-0.18674312578568930121036828495562  |BT| (ROOT (ROOT (SBARQ (WHNP (WDT (what))(NN (color))(NNS (bottle)))(SQ (VBP (do))(NP (JJ (good))(NNP (rhine))(NNS (wine)))(VP (VBP (come))(PP (IN (in)))))(. (?))))) |ET| 
-0.34570361698531909544485074547993  |BT| (ROOT (ROOT (SBARQ (WHNP (WDT (what))(NP (NN (trade))))(SQ (VBD (do))(NP (NP (DT (the))(JJ (15th))(CC (and))(JJ (16th))(NN (century)))(NP (NNP (portuguese))))(VP (NN (hope))(S (VP (TO (to))(VP (VB (control))(PP (IN (between))(NP (NNP (asia))(CC (and))(NNP (europe)))))))))(. (?))))) |ET| 
-0.3277178624057894840149174342514  |BT| (ROOT (ROOT (SBARQ (WHNP (WDT (what))(NN (actor)))(SQ (VP (VBD (come))(PP (TO (to))(NP (NN (dinner))))(PP (IN (in))(S (VP (VB (guess))(SBAR (WHNP (WP (who)))(S (VP (VBZ (be))(VP (VBG (come))(PP (TO (to))(NP (NNP (dinner)))))))))))))(. (?))))) |ET| 
1  |BT| (ROOT (ROOT (SBARQ (WHNP (WP (what)))(SQ (VBZ (be))(NP (NP (DT (the))(NN (origin)))(PP (IN (of))(NP (NNP (boxing))(NNP (day))))))(. (?))))) |ET| 
1  |BT| (ROOT (ROOT (SBARQ (WHNP (WP (what)))(SQ (VBZ (be))(NP (JJ (federal))(NN (income))(NN (tax))))(. (?))))) |ET| 
1  |BT| (ROOT (ROOT (SBARQ (WHNP (WP (what)))(SQ (VBZ (be))(NP (NP (DT (the))(NN (executor)))(PP (IN (in))(NP (DT (a))(NN (will))))))(. (?))))) |ET| 
-1  |BT| (ROOT (ROOT (SBARQ (WHNP (WP (what)))(SQ (VBZ (be))(NP (NP (DT (the))(JJ (full))(NN (classification)))(PP (IN (of))(NP (DT (a))(NN (lady))(NN (bug))))))(. (?))))) |ET| 
-1  |BT| (ROOT (ROOT (SBARQ (WHNP (WP (what)))(SQ (VBZ (be))(NP (NP (NNP (ram)))(PP (IN (in))(NP (DT (the))(NN (computer))))))(. (?))))) |ET| 
-0.53887120972637836402441280370113  |BT| (ROOT (ROOT (SBARQ (WHNP (WP (what)))(SQ (VBZ (do))(NP (NP (DT (a))(NN (teaspoon)))(PP (IN (of))(NP (NN (matter)))))(VP (VB (weigh))(PP (IN (in))(NP (DT (a))(JJ (black))(NN (hole))))))(. (?))))) |ET| 
1  |BT| (ROOT (ROOT (SBARQ (WHNP (WDT (what))(JJ (facial))(NN (feature)))(SQ (VP (VBD (do))(NP (NP (NNP (walt))(NNP (disney))(NN (sport)))(SBAR (WHNP (WDT (that)))(S (NP (NP (NN (none)))(PP (IN (of))(NP (NP (NNP (disney))(POS ('s)))(NNS (employee)))))(VP (VBZ (be))(VP (VBN (allow))(S (VP (TO (to)))))))))))(. (?))))) |ET| 
1  |BT| (ROOT (ROOT (SBARQ (WHNP (WP (what)))(SQ (VBP (do))(NP (PRP (i)))(VP (VB (need))(S (VP (TO (to))(VP (VB (do))(S (VP (TO (to))(VP (VB (take))(NP (PRP$ (my))(NN (dog)))(PP (IN (with))(NP (PRP (i))))(S (VP (TO (to))(VP (VB (live))(PP (IN (in))(NP (NP (NNP (dominica)))(, (,))(NP (NP (NNP (west))(NNP (indies)))(PP (IN (for))(NP (DT (a))(NN (year))))))))))))))))))(. (?))))) |ET| 
1  |BT| (ROOT (ROOT (SBARQ (WHNP (WP (what)))(SQ (VBP (do))(NP (PRP (i)))(VP (VB (need))(S (VP (TO (to))(VP (VB (learn))(S (VP (TO (to))(VP (VB (design))(NP (NN (web))(NNS (page)))))))))))(. (?))))) |ET| 
-0.021372848547828768306366953311226  |BT| (ROOT (ROOT (SBARQ (WHNP (WHNP (WDT (what))(NN (kind)))(PP (IN (of))(NP (NN (education)))))(SQ (VBP (do))(NP (PRP (i)))(VP (VB (need))(S (VP (TO (to))(VP (VB (become))(NP (DT (a))(NN (flight))(NN (attendant))))))))(. (?))))) |ET| 
-0.095951577681942346043086899953778  |BT| (ROOT (ROOT (SBARQ (WHNP (WDT (what))(NN (program)))(SQ (VBP (do))(NP (PRP (i)))(VP (VB (need))(S (VP (TO (to))(VP (VB (run))(NP (DT (a))))))))(. (.))))(ROOT (S (NP (NN (tbk)))(VP (NN (file)))(. (?))))) |ET| 
-1  |BT| (ROOT (ROOT (SBARQ (SBAR (WHNP (WP (what)))(S (VP (VBZ (be))(NP (DT (a))(NN (movie))))))(WHNP (WDT (that))(NNP (kevin))(NNP (costner)))(SQ (VP (VBD (make))(PP (IN (about))(NP (NNP (sioux))(NNPS (indians))))))(. (?))))) |ET| 
1  |BT| (ROOT (ROOT (SBARQ (WHNP (WP (what)))(SQ (VBZ (be))(NP (NP (DT (the))(NN (text)))(PP (IN (of))(NP (DT (the))(NNP (fifth))(NNP (amendment))))))(. (?))))) |ET| 
1  |BT| (ROOT (ROOT (SBARQ (WHNP (WP (what)))(SQ (VBZ (be))(NP (DT (the))(NN (virus))(NN (hiv))))(. (?))))) |ET| 
1  |BT| (ROOT (ROOT (SBARQ (WHNP (WP (what)))(SQ (VBZ (be))(NP (NP (DT (the))(NN (history)))(PP (IN (of))(`` (``))(NP (DT (the))(NN (toast)))('' ('')))))(. (?))))) |ET| 
-0.65068343248683757629180490766885  |BT| (ROOT (ROOT (SBARQ (WHNP (WP (what)))(SQ (VBZ (be))(NP (NP (DT (the))(NN (speed)))(PP (IN (of))(NP (DT (the))(NNP (mississippi))(NNP (river))))))(. (?))))) |ET| 
1  |BT| (ROOT (ROOT (SBARQ (WHNP (WDT (what))(NN (effect)))(SQ (VBZ (do))(NP (NN (friction)))(VP (VB (have))(PP (IN (on))(NP (JJ (perpetual))(NN (motion))))))(. (?))))) |ET| 
1  |BT| (ROOT (ROOT (S (PP (IN (from))(NP (WDT (what))))(NP (NN (cause)))(VP (VBZ (do))(NP (NN (tuberculosis))(NN (stem))))(. (?))))) |ET| 
0.90845404789314032623082084683119  |BT| (ROOT (ROOT (SBARQ (WHNP (WRB (how)))(SQ (VP (VBD (do))(S (NP (NNP (peabody))(CC (and))(NNP (sherman)))(ADJP (NN (travel))(PP (IN (through))(NP (NN (time))))))))(. (?))))) |ET| 
-1  |BT| (ROOT (ROOT (SBARQ (WHNP (WP (what)))(SQ (VBZ (be))(NP (NP (DT (the))(NN (speed)))(PP (IN (of))(NP (DT (the))(NNP (mississippi))(NNP (river))))))(. (?))))) |ET| 
-1  |BT| (ROOT (ROOT (SBARQ (WHNP (WP (what)))(SQ (VBZ (be))(NP (NP (DT (another))(NN (word)))(SBAR (WHNP (WDT (that)))(S (VP (VBZ (mean))(`` (``))(SBAR (S (VP (VBZ (know))(NP (DT (all))))))('' ('')))))))(. (?))))) |ET| 
-1  |BT| (ROOT (ROOT (SBARQ (WHNP (WP (what)))(SQ (VP (VBD (happen))(PP (IN (on))(NP (NNP (january))(CD (15))(, (,))(CD (1969))))))(. (?))))) |ET| 
-1  |BT| (ROOT (ROOT (SBARQ (WHNP (WP (what)))(SQ (VBZ (be))(NP (NP (DT (the))(CD (one))(NN (thing)))(SBAR (S (NP (PRP (you)))(VP (VBP (need))(SBAR (IN (before))(S (NP (PRP (you)))(VP (MD (can))(VP (VB (purchase))(NP (NN (life))(NN (insurance))))))))))))(. (?))))) |ET| 
1  |BT| (ROOT (ROOT (SBARQ (WHNP (WP (what)))(SQ (VBP (be))(NP (NP (PRP$ (my))(JJ (legal))(NNS (rights)))(PP (IN (in))(NP (NP (DT (a))(NN (automobile))(NN (repossession)))(PP (IN (in))(NP (NNP (california))))))))(. (?))))) |ET| 
1  |BT| (ROOT (ROOT (SBARQ (WHNP (WP (what)))(SQ (VBZ (be))(NP (NP (DT (a))(`` (``))(NN (node))('' ('')))(PP (IN (in))(NP (NN (computer))(NNS (term))))))(. (?))))) |ET| 
1  |BT| (ROOT (ROOT (SBARQ (WHNP (WP (what)))(SQ (VBZ (be))(NP (DT (a))(FW (auberge)))(PP (IN (in))(NP (NNP (france)))))(. (?))))) |ET| 
-0.83855890403604349536692552646855  |BT| (ROOT (ROOT (SBARQ (WHNP (WP (what)))(SQ (VBD (do))(NP (NNP (warlock)))(VP (VB (wear))(PP (IN (on))(NP (NP (PRP$ (he))(NN (forehead)))(PP (IN (in))(NP (NNP (marvel))(NNS (comic))))))))(. (?))))) |ET| 
-0.14007484284476448554990213324345  |BT| (ROOT (ROOT (SBARQ (WHADVP (WRB (when)))(SQ (VP (VBD (do))(NP (JJ (communist))(NN (control))(NN (end)))(PP (IN (in))(NP (NNP (hungary))))))(. (?))))) |ET| 
-1  |BT| (ROOT (ROOT (SBARQ (WHNP (WP (what)))(SQ (VBP (be))(VP (VBN (push))(CC (and))(VBN (couple))(PP (IN (in))(NP (NN (hump))(NNS (yard))))))(. (?))))) |ET| 
1  |BT| (ROOT (ROOT (SBARQ (WHNP (WP (what)))(SQ (VBZ (be))(NP (NP (DT (the))(JJ (proud))(NN (claim)))(PP (TO (to))(NP (NP (NN (fame)))(PP (IN (of))(NP (NP (DT (the))(JJ (young))(NNS (woman)))(SBAR (WHNP (WP (who)))(S (VP (VBD (form))(NP (NNP (kappa))(NNP (alpha))(NNP (theta))))))))))))(. (?))))) |ET| 
1  |BT| (ROOT (ROOT (SBARQ (WHNP (WP (what)))(SQ (VBZ (be))(NP (NP (DT (the))(NN (history)))(PP (IN (of))(NP (DT (the))(JJ (soft))(NN (drink))(NNP (mr.))(NNP (pibb))))))(. (?))))) |ET| 
1  |BT| (ROOT (ROOT (SBARQ (WHNP (WP (what)))(SQ (VBZ (be))(NP (NP (DT (the))(NN (proof)))(SBAR (IN (that))(S (NP (NNS (houseplant)))(VP (VBP (metabolize))(NP (NNS (carcinogen))))))))(. (?))))) |ET| 
-1  |BT| (ROOT (ROOT (SBARQ (WHNP (WP (what)))(SQ (VBZ (be))(NP (NP (DT (the))(NN (speed)))(PP (IN (of))(NP (DT (the))(NNP (mississippi))(NNP (river))))))(. (?))))) |ET| 
-1  |BT| (ROOT (ROOT (SBARQ (WHNP (WP (what)))(SQ (VBZ (be))(NP (NP (DT (the))(JJ (singular)))(PP (IN (of))(NP (NNS (dice))))))(. (?))))) |ET| 
-0.99764041963572203108867597620701  |BT| (ROOT (ROOT (SBARQ (WHNP (WP (what)))(SQ (VBZ (be))(NP (NP (DT (the))(JJ (only))(NN (primate)))(PP (TO (to))(NP (NP (NN (lack))(NN (pigment)))(PP (IN (in))(NP (NP (DT (the))(NNS (palm)))(PP (IN (of))(NP (PRP$ (its))(NNS (hand))))))))))(. (?))))) |ET| 
-1  |BT| (ROOT (ROOT (SBARQ (WHNP (WP (what)))(SQ (VBZ (be))(NP (NP (DT (the))(NN (chance)))(PP (IN (of))(S (VP (VBG (conceive))(NP (NNS (quadruplet))))))))(. (?))))) |ET| 
