SVM-light Version V5.01-TK-1.5
5 # kernel type
3 # kernel parameter -d 
1 # kernel parameter -g 
1 # kernel parameter -s 
1 # kernel parameter -r 
empty# kernel parameter -u 
0.4 # kernel parameter -L 
1 # kernel parameter -T 
T # kernel parameter -C 
2 # kernel parameter -F 
1 # kernel parameter -S 
0.400000 # kernel parameter -M 
3 # kernel parameter -N 
S # kernel parameter -V 
S # kernel parameter -W 
0 # kernel parameter -U 
10 # highest feature index 
5451 # number of training documents 
2915 # number of support vectors plus 1 
0.45978534 # threshold b, each following line is a SV (starting with alpha*y)
-0.06980266808025896441147750692835  |BT| (ROOT (ROOT (SBARQ (WHNP (WDT (what))(NN (tv))(NN (sitcom))(NN (character)))(SQ (VP (VBD (have))(NP (DT (the))(JJ (maiden))(NN (name))(NNP (ethel))(NNP (potter)))))(. (?))))) |ET| 
-0.63359543730044975973214604891837  |BT| (ROOT (ROOT (SBARQ (WHNP (WRB (how))(RB (much)))(SQ (MD (would))(NP (PRP (it)))(VP (VB (cost))(S (VP (TO (to))(VP (VB (purchase))(NP (NP (DT (a))(JJ (2-foot-square))(NN (party))(NN (tent)))(, (,))(PP (IN (with))(NP (NNS (side))))(, (,))))))))(. (?))))) |ET| 
0.29901646993632335913559927575989  |BT| (ROOT (ROOT (SBARQ (WHNP (WDT (what))(NNP (j.r.r.))(NNP (tolkien))(NN (book)))(SQ (VBZ (feature))(NP (NP (NNP (bilbo))(NNP (baggins)))(PP (IN (as))(NP (DT (the))(JJ (central))(NN (character))))))(. (?))))) |ET| 
-0.5750366032501408319888014375465  |BT| (ROOT (ROOT (SBARQ (WHNP (WHADJP (WRB (how))(JJ (much)))(NN (iron)))(SQ (VBZ (be))(PP (IN (in))(NP (PRP$ (you))(NN (body)))))(. (?))))) |ET| 
-0.35889139244515450011263624219282  |BT| (ROOT (ROOT (SBARQ (WHNP (WDT (what))(JJ (cheery))(NN (fellow)))(SQ (VP (VBD (get))(NP (DT (the))(NN (zip))(NN (code))(CD (9971)))(PP (IN (from))(NP (DT (the))(NNP (u.s.))(NNP (postal))(NNP (service))))(PP (IN (in))(NP (CD (1963))))))(. (?))))) |ET| 
1  |BT| (ROOT (ROOT (SBARQ (WHNP (WDT (what))(NNS (film)))(SQ (VP (VBD (feature))(S (NP (DT (the))(NN (character)))(NP (NNP (popeye))(NNP (doyle))))))(. (?))))) |ET| 
1  |BT| (ROOT (ROOT (SBARQ (WHNP (WDT (what))(NN (fowl)))(SQ (VP (VBZ (grab))(NP (DT (the))(NN (spotlight)))(PP (IN (after))(NP (NP (DT (the))(JJ (chinese))(NN (year)))(PP (IN (of))(NP (DT (the))(NNP (monkey))))))))(. (?))))) |ET| 
1  |BT| (ROOT (ROOT (SBARQ (WHNP (WP (what)))(SQ (VBZ (be))(VP (VBN (consider))(NP (NP (DT (the))(JJS (costliest))(NN (disaster)))(SBAR (S (NP (DT (the))(NN (insurance))(NN (industry)))(VP (VBZ (have))(ADVP (RB (ever)))(VP (VBN (face)))))))))(. (?))))) |ET| 
1  |BT| (ROOT (ROOT (SBARQ (WHNP (WHNP (WDT (what))(NNS (article)))(PP (IN (of))(NP (NN (clothing)))))(SQ (VBP (be))(NP (NP (NNS (token)))(PP (IN (in))(NP (NNP (monopoly))))))(. (?))))) |ET| 
1  |BT| (ROOT (ROOT (SBARQ (WHNP (WP (what)))(SQ (VBZ (be))(NP (NP (DT (the))(JJ (second-most-used))(NN (vowel)))(PP (IN (in))(NP (NNP (english))))))(. (?))))) |ET| 
-1  |BT| (ROOT (ROOT (SBARQ (WHNP (WP (what)))(SQ (VBZ (be))(NP (NP (DT (the))(NN (name)))(PP (IN (of))(NP (NP (DT (the))(JJS (tallest))(NN (mountain)))(PP (IN (in))(NP (DT (the))(NN (world))))))))(. (?))))) |ET| 
-0.17922363514571426623689376356197  |BT| (ROOT (ROOT (SBARQ (WHNP (WP (what)))(SQ (VBZ (be))(NP (NP (DT (the))(NN (name)))(PP (IN (of))(NP (NP (DT (the))(JJS (highest))(NN (mountain)))(PP (IN (in))(NP (NNP (africa))))))))(. (?))))) |ET| 
-0.096136366698288622245627266238444  |BT| (ROOT (ROOT (SBARQ (WHNP (WP (what)))(SQ (VBZ (be))(NP (NP (DT (the))(JJ (second-largest))(NN (island)))(PP (IN (in))(NP (DT (the))(NN (world))))))(. (?))))) |ET| 
1  |BT| (ROOT (ROOT (S (VP (VB (name))(NP (DT (a))(NNP (sioux))(NN (language))))(. (.))))) |ET| 
1  |BT| (ROOT (ROOT (S (VP (VB (name))(NP (DT (a))(VBG (fly))(NN (mammal))))(. (.))))) |ET| 
1  |BT| (ROOT (ROOT (S (VP (VB (name))(NP (DT (a))(ADJP (JJ (american))(VBN (make)))(NN (motorcycle))))(. (.))))) |ET| 
-0.32679630627990990943132487700495  |BT| (ROOT (ROOT (S (VP (VB (name))(NP (CD (11))(JJ (famous))(NNS (martyr))))(. (.))))) |ET| 
-1  |BT| (ROOT (ROOT (S (VP (VB (define))(NP (NN (cosmology))))(. (.))))) |ET| 
-0.072563741582429092114026047966036  |BT| (ROOT (ROOT (S (VP (VB (name))(NP (NP (DT (the))(NN (creator)))(PP (IN (of))(`` (``))(NP (DT (the))(NNPS (muppets)))('' ('')))))(. (.))))) |ET| 
1  |BT| (ROOT (ROOT (SBARQ (WHNP (WP (what)))(SQ (VBZ (be))(NP (NP (DT (the))(JJS (largest))(NN (snake)))(PP (IN (in))(NP (DT (the))(NN (world))))))(. (?))))) |ET| 
1  |BT| (ROOT (ROOT (SBARQ (WHNP (WP (what)))(SQ (VBZ (be))(NP (NP (DT (the))(JJS (fastest))(NN (fish)))(PP (IN (in))(NP (DT (the))(NN (world))))))(. (?))))) |ET| 
1  |BT| (ROOT (ROOT (SBARQ (WHNP (WP (what)))(SQ (VBZ (be))(NP (NP (DT (the))(JJS (largest))(NN (sculpture)))(PP (IN (in))(NP (DT (the))(NN (world))))))(. (?))))) |ET| 
0.44464413302341176947862777524278  |BT| (ROOT (ROOT (SBARQ (WHNP (WDT (what))(NN (field))(NN (sport)))(SQ (VBD (do))(NP (NN (dentist))(NNP (william))(NNP (beers)))(VP (VB (promote))(CC (and))(VB (write))(NP (NP (DT (a))(JJ (standard))(NN (book)))(PP (IN (of))(NP (NNS (rule)))))(PP (IN (for)))))(. (?))))) |ET| 
-1  |BT| (ROOT (ROOT (SBARQ (WHNP (WP (what)))(SQ (VBZ (be))(NP (NP (DT (the))(JJS (largest))(NN (museum)))(PP (IN (in))(NP (DT (the))(NN (world))))))(. (?))))) |ET| 
-0.2543389871483050512779300333932  |BT| (ROOT (ROOT (SBARQ (WHNP (WP (what)))(SQ (VBZ (be))(NP (NP (DT (the))(JJS (longest))(NN (river)))(PP (IN (in))(NP (DT (the))(NN (world))))))(. (?))))) |ET| 
1  |BT| (ROOT (ROOT (S (VP (VB (name))(NP (CD (four))(JJ (famous))(NN (cartoon))(NNS (cat))))(. (.))))) |ET| 
1  |BT| (ROOT (ROOT (S (VP (VB (name))(S (NP (NP (NNP (li))(POS (')))(NP (NP (NN (l)))(NP (NP (NNP (abner))(POS ('s)))(JJ (favorite))(JJ (indian))(NN (drink)))))))(. (.))))) |ET| 
1  |BT| (ROOT (ROOT (FRAG (SBAR (WHNP (WDT (which)))(S (NP (NP (NN (mosquito))(POS ('s)))(NN (bite)))(VP (VBZ (draw))(NP (NP (NN (blood)))(, (,))(NP (NNP (dt))(NNP (nn))(NN (cc))(NNP (dt))(NNP (nn)))))))(. (.))))) |ET| 
-0.59675144714390115918689616592019  |BT| (ROOT (ROOT (S (VP (VB (name))(NP (DT (a))(JJ (female))(NN (figure))(NN (skater))))(. (.))))) |ET| 
-1  |BT| (ROOT (ROOT (S (VP (VB (name))(NP (DT (a))(JJ (civil))(NN (war))(NN (battlefield))))(. (.))))) |ET| 
-1  |BT| (ROOT (ROOT (S (VP (VB (name))(NP (DT (a))(JJ (french))(JJ (fascist))(NN (party))))(. (.))))) |ET| 
1  |BT| (ROOT (ROOT (SBARQ (WHNP (WP (what)))(SQ (VBZ (be))(NP (NP (DT (the))(JJS (weakest))(NN (bone)))(PP (IN (in))(NP (DT (the))(NN (body))))))(. (?))))) |ET| 
1  |BT| (ROOT (ROOT (SBARQ (WHNP (WP (what)))(SQ (VBZ (be))(NP (NP (DT (the))(ADJP (RBS (most))(JJ (expensive)))(NN (car)))(PP (IN (in))(NP (DT (the))(NN (world))))))(. (?))))) |ET| 
-0.041687674788619372145959118824976  |BT| (ROOT (ROOT (SBARQ (WHNP (WP (what)))(SQ (VBZ (do))(NP (NNP (venus))(NNP (retrograde)))(VP (VB (mean))))(. (?))))) |ET| 
-0.66332078996382248803342918108683  |BT| (ROOT (ROOT (SBARQ (WHNP (WP (what)))(SQ (VBZ (be))(NP (NP (DT (the))(ADJP (RBS (most))(JJ (populated)))(NN (city)))(PP (IN (in))(NP (DT (the))(NN (world))))))(. (?))))) |ET| 
-0.21369847637010538909940748908411  |BT| (ROOT (ROOT (SBARQ (WHNP (WHNP (WHADJP (WRB (how))(JJ (many)))(NNS (type)))(PP (IN (of))(NP (NP (NNS (dog))(POS (')))(NNS (tail)))))(SQ (VP (VBP (be))(NP (NP (EX (there)))(: (-))(NP (CD (three))))))))) |ET| 
1  |BT| (ROOT (ROOT (S (VP (VB (name))(NP (DT (a))(ADJP (NNP (salt))(NNP (lake)))(NNP (city))(NN (newspaper))))(. (.))))) |ET| 
1  |BT| (ROOT (ROOT (S (VP (VB (name))(NP (DT (a))(JJ (gaelic))(NN (language))))(. (.))))) |ET| 
0.65512168538165815867557739693439  |BT| (ROOT (ROOT (S (VP (VB (name))(NP (NP (DT (a))(JJ (novel)))(VP (VBN (write))(PP (IN (by))(NP (NNP (john))(NNP (steinbeck)))))))(. (.))))) |ET| 
-0.12744515557741012412584780122415  |BT| (ROOT (ROOT (S (VP (VB (name))(NP (NP (NNP (randy))(NNP (craft))(POS ('s)))(NN (lawyer))))(. (.))))) |ET| 
1  |BT| (ROOT (ROOT (SBARQ (WHNP (WDT (what))(NP (NN (class))(PP (IN (of))(NP (NNS (animal))))))(SQ (VP (VBZ (make))(PRT (RP (up)))(NP (NP (QP (JJR (more))(IN (than))(NNS (two-third))))(PP (IN (of))(NP (JJ (known))(NNS (species)))))))(. (?))))) |ET| 
-0.7719851232814698427375788014615  |BT| (ROOT (ROOT (S (VP (VB (name))(NP (NP (NNP (dondi))(POS ('s)))(JJ (adoptive))(NN (grandfather))))(. (.))))) |ET| 
1  |BT| (ROOT (ROOT (SBARQ (WHNP (WP (what)))(SQ (VBZ (be))(NP (NP (DT (the))(ADJP (RBS (most))(JJ (advanced)))(JJ (handheld))(NN (calculator)))(PP (IN (in))(NP (DT (the))(NN (world))))))(. (?))))) |ET| 
1  |BT| (ROOT (ROOT (SBARQ (WHNP (WP (what)))(SQ (VBZ (be))(NP (NP (DT (the))(RBS (most))(JJ (common))(JJ (non-contagious))(NN (disease)))(PP (IN (in))(NP (DT (the))(NN (world))))))(. (?))))) |ET| 
1  |BT| (ROOT (ROOT (SBARQ (WHNP (WP (what)))(SQ (VBZ (be))(NP (NP (DT (the))(NN (alphabet)))(PP (IN (for))(NP (NNP (latin))))))(. (?))))) |ET| 
-1  |BT| (ROOT (ROOT (SBARQ (WHNP (WP (what)))(SQ (VBP (be))(NP (NP (DT (the))(CD (four))(NNS (railway)))(PP (IN (in))(NP (NNP (monopoly))))))(. (?))))) |ET| 
-0.15078462826321847867205860893591  |BT| (ROOT (ROOT (SBARQ (WHADVP (WRB (why)))(SQ (VBD (be))(NP (NP (JJ (red))(NN (m&m))(NNS (s)))(VP (VBN (discontinue))(ADVP (RB (then)))))(VP (VBN (bring))(ADVP (RB (back)))))(. (?))))) |ET| 
-0.4437858820031028717068011246738  |BT| (ROOT (ROOT (SBARQ (WHNP (WP (what)))(SQ (VBZ (be))(NP (NP (DT (the))(NN (rathaus)))(PP (IN (in))(NP (NNP (frankfurt))))))(. (?))))) |ET| 
1  |BT| (ROOT (ROOT (S (VP (VB (name))(NP (NP (DT (a))(NN (tiger)))(SBAR (WHNP (WDT (that)))(S (VP (VBZ (be))(ADJP (JJ (extinct))))))))(. (.))))) |ET| 
1  |BT| (ROOT (ROOT (S (VP (VB (name))(NP (NP (DT (the))(JJ (only))(JJ (extant))(NN (trilogy)))(PP (IN (of))(NP (JJ (classical))(JJ (greek))(NNS (play))))))(. (.))))) |ET| 
1  |BT| (ROOT (ROOT (S (VP (VB (name))(NP (CD (four))(JJ (comic))(NNS (strip)))(PP (IN (about))(NP (NNS (pilot)))))(. (.))))) |ET| 
-1  |BT| (ROOT (ROOT (S (VP (VB (name))(NP (NP (DT (the))(NN (organization)))(SBAR (WHNP (WDT (that)))(S (VP (VBZ (be))(VP (VBN (preside))(PP (IN (by))(NP (DT (a))(NNP (security))(NNP (council))))))))))(. (.))))) |ET| 
-0.26621363417182836164087689212465  |BT| (ROOT (ROOT (S (VP (VB (name))(S (NP (DT (a))(JJ (canine))(NN (cartoon))(NN (character)))(ADJP (JJ (other))))(SBAR (IN (than))(S (NP (NNP (huckleberry))(NNP (hound)))(VP (TO (to))(VP (VB (have))(NP (DT (a))(NN (voice)))(PP (IN (by))(NP (NNP (daws))(NNP (butler)))))))))(. (.))))) |ET| 
-1  |BT| (ROOT (ROOT (S (VP (VB (name))(NP (NP (DT (the))(NN (food))(NN (company)))(SBAR (WHNP (WDT (that)))(S (VP (VBD (travel))(PP (TO (to))(NP (JJ (soviet))(NNP (georgia))))(PP (TO (to))(NP (NN (film))))(NP (NP (DT (a))(NN (series)))(PP (IN (of))(NP (NNS (ad))))))))))(. (.))))) |ET| 
1  |BT| (ROOT (ROOT (SBARQ (WHNP (WP (what)))(SQ (VBZ (be))(NP (NP (DT (the))(NN (sequel)))(PP (TO (to))(NP (NP (NP (NNP (alice))(POS ('s)))(NNS (adventure)))(PP (IN (in))(NP (NNP (wonderland))))))))(. (?))))) |ET| 
1  |BT| (ROOT (ROOT (SBARQ (WHNP (WP (what)))(SQ (VBZ (be))(NP (NP (DT (the))(ADJP (RBS (most))(JJ (powerful)))(NN (card)))(PP (IN (in))(NP (NNP (euchre))))))(. (?))))) |ET| 
1  |BT| (ROOT (ROOT (SBARQ (WHNP (WP (what)))(SQ (VBZ (be))(NP (NP (DT (the))(JJS (largest))(NN (letter)))(PP (IN (in))(NP (NP (NNP (salvador))(NNP (dali))(POS ('s)))(NN (signature))))))(. (?))))) |ET| 
-1  |BT| (ROOT (ROOT (SBARQ (WHNP (WP (what)))(SQ (VBZ (be))(NP (NP (DT (the))(JJS (largest))(NN (variety)))(PP (IN (of))(NP (NN (cactus))))))(. (?))))) |ET| 
-1  |BT| (ROOT (ROOT (SBARQ (WHNP (WP (what)))(SQ (VBZ (be))(NP (NP (DT (the))(JJS (largest))(NN (lake)))(PP (IN (in))(NP (NNP (north))(NNP (america))))))(. (?))))) |ET| 
-0.22096211629357642713955556246219  |BT| (ROOT (ROOT (SBARQ (WHNP (WP (what)))(SQ (VP (VBD (happen))(PP (TO (to))(NP (NNP (pepsi))(NNP (clear))))))(. (?))))) |ET| 
1  |BT| (ROOT (ROOT (S (VP (VB (name))(NP (NP (DT (the))(NN (operating))(NN (system)))(SBAR (WHNP (WDT (that)))(S (VP (VBZ (run))(PP (IN (on))(NP (JJ (ibm-compatible))(NNS (machine)))))))))(. (.))))) |ET| 
-0.17445372206258763503328168553708  |BT| (ROOT (ROOT (SBARQ (WHNP (WHNP (WDT (what))(JJ (european))(NN (country))(POS ('s)))(NN (monarchy)))(SQ (VBD (be))(VP (VBN (restore))(PP (IN (in))(NP (CD (1975))))))(. (?))))) |ET| 
1  |BT| (ROOT (ROOT (S (VP (VB (name))(NP (DT (a))(NN (movie)))(SBAR (IN (that))(S (NP (NP (DT (the))(NN (actress)))(, (,))(NP (NNP (sandra))(NNP (bullock)))(, (,)))(VP (VBD (have))(NP (DT (a))(NN (role)))(PP (IN (in)))))))(. (.))))) |ET| 
-0.30319668381208186858088993176352  |BT| (ROOT (ROOT (S (VP (VB (name))(NP (NP (DT (the))(NN (university)))(SBAR (WHPP (IN (of))(WHNP (WDT (which))))(S (NP (NNP (woodrow))(NNP (wilson)))(VP (VBD (be))(NP (NN (president))))))))(. (.))))) |ET| 
-1  |BT| (ROOT (ROOT (S (VP (VB (name))(NP (NP (DT (a))(NN (band)))(SBAR (WHNP (WDT (which)))(S (VP (VBD (be))(ADJP (JJ (famous))(PP (IN (in))(NP (NP (DT (the)))(NP (CD (1960))(POS ('s)))))))))))(. (.))))) |ET| 
-0.056980542873262901570896588054893  |BT| (ROOT (ROOT (SBARQ (WHNP (WP (who)))(SQ (VBZ (be))(NP (NP (DT (the))(NN (nebbish)))(SBAR (WHNP (WDT (that)))(S (VP (VBZ (be))(NP (NP (NNP (marvel))(POS ('s)))(JJ (official))(NN (mascot))))))))(. (?))))) |ET| 
1  |BT| (ROOT (ROOT (SBARQ (WHNP (WP (what)))(SQ (VBZ (be))(NP (NP (DT (the))(JJS (highest))(NN (hand)))(PP (IN (in))(NP (JJ (straight))(NN (poker))))))(. (?))))) |ET| 
1  |BT| (ROOT (ROOT (SBARQ (WHNP (WP (what)))(SQ (VBZ (be))(NP (NP (DT (the))(NN (plural)))(PP (IN (of))(NP (NN (gulf))))))(. (?))))) |ET| 
1  |BT| (ROOT (ROOT (SBARQ (WHNP (WP (what)))(SQ (VBZ (be))(NP (NP (DT (the))(NN (fear)))(PP (IN (of))(NP (NNS (frog))))))(. (?))))) |ET| 
-1  |BT| (ROOT (ROOT (SBARQ (WHNP (WP (what)))(SQ (VBZ (be))(NP (NP (DT (a))(NN (specimen)))(PP (IN (of))(NP (NNS (basidiomycete))))))(. (?))))) |ET| 
-1  |BT| (ROOT (ROOT (SBARQ (WHNP (WP (what)))(SQ (VBZ (be))(NP (NP (DT (the))(NN (history)))(PP (IN (of))(NP (NNS (yo-yo))))))(. (?))))) |ET| 
-1  |BT| (ROOT (ROOT (SBARQ (WHNP (WP (what)))(SQ (VBZ (be))(NP (NP (DT (the))(NN (purpose)))(PP (IN (of))(NP (NNS (bio))))))(. (?))))) |ET| 
1  |BT| (ROOT (ROOT (S (VP (VB (name))(NP (NP (DT (the))(NN (ship)))(SBAR (S (NP (NNP (beany))(CC (and))(NNP (cecil)))(VP (VBD (sail)))))))(. (.))))) |ET| 
1  |BT| (ROOT (ROOT (S (VP (VB (name))(NP (NP (DT (the))(NNS (man))(POS ('s)))(NN (cologne))(SBAR (WHNP (WDT (that)))(S (VP (VBZ (be))(VP (VBN (associate))(PP (IN (with))(NP (DT (the))(NN (sea))))))))))(. (.))))) |ET| 
1  |BT| (ROOT (ROOT (S (VP (VB (name))(NP (NP (DT (the))(CD (two))(JJ (mystical))(NNS (raven)))(SBAR (S (NP (NNP (odin)))(VP (VBZ (have))(VP (PP (IN (at))(NP (PRP$ (he))(NN (command))))))))))(. (.))))) |ET| 
-1  |BT| (ROOT (ROOT (S (VP (VB (name))(NP (NP (DT (the))(NN (cartoon))(NN (genie)))(VP (VBN (conjure))(PP (IN (by))(NP (NP (DT (the))(JJ (magic))(NN (ring)))(VP (VBN (share))(PP (IN (by))(NP (NNP (nancy))(CC (and))(NNP (chuck))))))))))(. (.))))) |ET| 
-0.97717810808106886355517417541705  |BT| (ROOT (ROOT (FRAG (WHNP (WDT (what))(NNS (school)))(PP (IN (in))(NP (NP (DT (the))(NNP (washington)))(, (,))(NP (NNP (dc))(NNP (nn))(NNP (nn))(NNP (vbp))(NNP (nn))(NNP (nn))(NNP (nn))(NNP (nn)))))(. (.))))) |ET| 
-1  |BT| (ROOT (ROOT (S (VP (VB (name))(NP (NP (DT (the))(CD (two))(NNS (youngster)))(VP (VBN (save))(PP (IN (by))(NP (DT (the))(JJ (animated))(NNP (moby))(NNP (dick)))))))(. (.))))) |ET| 
-0.24892528649490625047846492634562  |BT| (ROOT (ROOT (SBARQ (WHNP (WP (what)))(SQ (VP (VBD (happen))(PP (TO (to))(NP (NNP (phillip))(NNP (taylor))(NNP (kramer))))))(. (?))))) |ET| 
-0.074469924180566304805495292384876  |BT| (ROOT (ROOT (SBARQ (WHNP (WDT (what))(JJ (famous))(JJ (male))(NN (vocalist)))(SQ (VP (VBZ (have))(NP (NP (DT (the))(JJ (same))(NN (name)))(PP (IN (as))(NP (NP (DT (the))(NN (composer)))(PP (IN (of))(NP (NP (DT (the))(NN (opera)))(NP (NNP (hansel))(CC (and))(NNP (gretel))))))))))(. (?))))) |ET| 
-0.13997982940914605043403184936324  |BT| (ROOT (ROOT (SBARQ (WHNP (WDT (what))(ADJP (JJ (south))(JJ (american)))(NN (country)))(SQ (VP (VBD (win))(NP (PRP$ (its))(JJ (first))(NNP (world))(NNP (cup))(NN (soccer))(NN (title)))(PP (IN (in))(NP (CD (1978))))))(. (?))))) |ET| 
-1  |BT| (ROOT (ROOT (SBARQ (WHNP (WP (what)))(SQ (VBZ (be))(NP (NP (DT (a))(NN (cake)))(PP (IN (of))(NP (NN (soap))))))(. (?))))) |ET| 
-0.15078102731856146689892739232164  |BT| (ROOT (ROOT (SBARQ (WHNP (WP (what)))(SQ (VBZ (be))(NP (DT (a))(NN (caldera))))(. (?))))) |ET| 
-0.15002635931671903790629585273564  |BT| (ROOT (ROOT (SBARQ (WHNP (WP (what)))(SQ (VBZ (be))(NP (DT (a))(NN (transistor))))(. (?))))) |ET| 
1  |BT| (ROOT (ROOT (S (VP (VB (name))(NP (NP (DT (the))(NN (vessel)))(VP (VBN (use))(PP (IN (by))(NP (NP (DT (the))(NNP (atari))(NNP (force)))(PP (IN (in))(NP (DT (the))(NN (dc))(NNS (comic)))))))))(. (.))))) |ET| 
1  |BT| (ROOT (ROOT (S (VP (VB (name))(NP (NP (DT (the))(CD (four))(NNS (story)))(VP (VBN (contain))(PP (IN (in))(NP (NP (NNP (edith))(NNP (wharton))(POS ('s)))(`` (``))(NP (NNP (old))(NNP (new))(NNP (york))))))))(. (.))('' (''))))) |ET| 
1  |BT| (ROOT (ROOT (SBARQ (WHADVP (WRB (how)))(SQ (VBP (do))(NP (PRP (you)))(VP (VB (say))(NP (`` (``))(NP (NNP (grandma)))('' (''))(PP (IN (in))(NP (NNP (irish)))))))(. (?))))) |ET| 
-1  |BT| (ROOT (ROOT (S (VP (VB (name))(NP (DT (the))(JJ (blind))(NN (sculptress)))(PP (IN (in))(NP (NP (NN (love)))(PP (IN (with))(NP (NP (DT (the))(NNP (fantastic))(NNP (four))(POS ('s)))(NN (thing)))))))(. (.))))) |ET| 
-0.23976524235047214084204370010411  |BT| (ROOT (ROOT (S (VP (VB (name))(NP (NP (DT (the))(CD (two))(NN (actress))(NNS (daughter)))(PP (IN (of))(NP (NNP (john))(NNP (mills))))))(. (.))))) |ET| 
-1  |BT| (ROOT (ROOT (S (VP (VB (name))(NP (NP (DT (the))(CD (four))(NNPS (horsemen)))(PP (IN (of))(NP (DT (the))(NNP (apocalypse))))))(. (.))))) |ET| 
1  |BT| (ROOT (ROOT (SBARQ (WHNP (WP (what)))(SQ (VBZ (be))(NP (NP (NNP (mississippi))(POS ('s)))(NN (state))(NN (animal))))(. (?))))) |ET| 
1  |BT| (ROOT (ROOT (SBARQ (WHNP (WP (what)))(SQ (VBZ (be))(NP (NP (NNP (california))(POS ('s)))(NN (state))(NN (bird))))(. (?))))) |ET| 
1  |BT| (ROOT (ROOT (SBARQ (WHNP (WP (what)))(SQ (VBZ (be))(NP (NP (NNP (november))(POS ('s)))(NN (birthstone))))(. (?))))) |ET| 
-0.56324572625445057383331004530191  |BT| (ROOT (ROOT (SBARQ (WHNP (WP (what)))(SQ (VBZ (be))(NP (NP (NNP (june))(POS ('s)))(NN (birthstone))))(. (?))))) |ET| 
0.45467759778265681713804724495276  |BT| (ROOT (ROOT (SBARQ (WHNP (WDT (what))(JJ (musical))(NN (instrument)))(SQ (VBD (do))(NP (NNP (prewitt)))(VP (VB (play))(PP (IN (in))(NP (NNP (james))(NNP (jones))(POS ('s))))(PP (IN (from))(NP (RB (here))))(PP (TO (to))(NP (NN (eternity))))))(. (?))))) |ET| 
-0.13663060905599871963644886818656  |BT| (ROOT (ROOT (SBARQ (WHNP (WP (what)))(SQ (VBZ (be))(NP (NP (NNP (megan))(POS ('s)))(NN (law))))(. (?))))) |ET| 
1  |BT| (ROOT (ROOT (S (VP (VB (name))(NP (NP (CD (one)))(PP (IN (of))(NP (NP (DT (the))(CD (seven))(NNS (wonder)))(PP (IN (of))(NP (DT (the))(NNP (ancient))(NNP (world))))))))(. (.))))) |ET| 
1  |BT| (ROOT (ROOT (S (VP (VB (name))(NP (DT (the))(JJ (french))(JJ (historical))(NN (period)))(PP (IN (during))(NP (NP (DT (the))(NN (reign)))(PP (IN (of))(NP (NNP (napoleon))(NNP (iii)))))))(. (.))))) |ET| 
1  |BT| (ROOT (ROOT (S (VP (VB (name))(NP (DT (the))(JJ (islamic))(NN (counterpart)))(PP (TO (to))(NP (DT (the))(NNP (red))(NNP (cross)))))(. (.))))) |ET| 
-1  |BT| (ROOT (ROOT (S (VP (VB (name))(NP (NP (CD (one)))(PP (IN (of))(NP (NP (DT (the))(JJ (major))(NNS (god)))(PP (IN (of))(NP (NNP (hinduism))))))))(. (.))))) |ET| 
-1  |BT| (ROOT (ROOT (S (VP (VB (name))(SBAR (S (NP (DT (the))(NN (child)))(VP (VBD (leave))(PP (IN (on))(NP (DT (a))(NN (doorstep))))(PP (IN (at))(NP (NP (DT (the))(NN (beginning)))(PP (IN (of))(NP (NN (gasoline))(NNP (alley))))))))))(. (.))))) |ET| 
-1  |BT| (ROOT (ROOT (S (VP (VB (name))(NP (NP (DT (the))(NN (designer)))(PP (IN (of))(NP (NP (DT (the))(NN (shoe)))(SBAR (WHNP (WDT (that)))(S (VP (VBD (spawn))(NP (NP (NNS (million)))(PP (IN (of))(NP (NP (JJ (plastic))(NNS (imitation)))(, (,))(VP (VBN (know))(PP (IN (as))(`` (`))(NP (NNS (jelly))))))))(S (NP (POS (')))))))))))(. (.))))) |ET| 
1  |BT| (ROOT (ROOT (SBARQ (WHNP (WP (what)))(SQ (VBZ (be))(NP (NP (NNP (april))(POS ('s)))(NN (gemstone))))(. (?))))) |ET| 
1  |BT| (ROOT (ROOT (SBARQ (WHNP (WP (what)))(SQ (VBZ (be))(NP (DT (the))(JJ (longest-running))(NN (television))(NN (series))))(. (?))))) |ET| 
1  |BT| (ROOT (ROOT (SBARQ (WHNP (WP (what)))(SQ (VBZ (be))(NP (NP (DT (the))(JJS (best))(NN (way)))(S (VP (TO (to))(VP (VB (remove))(NP (NN (wallpaper))))))))(. (?))))) |ET| 
-0.030747122047307340331201430672081  |BT| (ROOT (ROOT (SBARQ (WHNP (WP (what)))(SQ (VBZ (be))(NP (JJ (greek))(NN (pita))))(. (?))))) |ET| 
-0.66615467036021325242245438857935  |BT| (ROOT (ROOT (SBARQ (WHNP (WP (what)))(SQ (VBZ (be))(NP (NNS (multimedia))))(. (?))))) |ET| 
-0.66416877829085363416083964693826  |BT| (ROOT (ROOT (SBARQ (WHNP (WP (what)))(SQ (VBZ (be))(NP (NNS (infomatic))))(. (?))))) |ET| 
0.77836437552782034021703339021769  |BT| (ROOT (ROOT (S (VP (VB (name))(NP (NP (DT (a))(NN (product)))(SBAR (WHNP (WDT (that)))(S (VP (VBZ (control))(NP (NP (DT (the))(JJ (ripening)))(PP (IN (of))(NP (NNS (apple))))))))))(. (.))))) |ET| 
1  |BT| (ROOT (ROOT (S (VP (VB (name))(NP (NP (DT (the))(CD (5))(NNS (word)))(SBAR (WHNP (WDT (that)))(S (VP (VBP (use))(NP (NP (DT (all)))(PP (IN (of))(NP (NP (DT (the))(NNS (letter)))(PP (IN (in))(NP (NP (DT (the))(NN (alphabet)))(, (,))(PP (IN (except))(NP (NNP (q))))(, (,)))))))(PP (IN (with))(NP (DT (no))(NNS (repeat)))))))))(. (.))))) |ET| 
1  |BT| (ROOT (ROOT (SBARQ (WHNP (WP (what)))(SQ (VBD (be))(NP (NP (DT (the))(NN (name)))(PP (IN (of))(NP (NP (DT (the))(JJ (protestant))(NN (revolt)))(PP (IN (against))(NP (NP (DT (the))(NN (supremacy)))(PP (IN (of))(NP (DT (the))(NNP (pope))))))))))(. (?))))) |ET| 
-1  |BT| (ROOT (ROOT (SBARQ (WHNP (WDT (what))(NN (baseball))(NN (expression)))(SQ (VP (VBD (come))(PP (IN (from))(NP (NP (DT (the))(JJ (nautical))(NN (term)))(PP (IN (for))(NP (NNS (ship))))))(S (VP (VBG (sail))(PP (IN (between))(NP (DT (the))(NNP (atlantic))(CC (and))(NNP (pacific))))(PP (IN (before))(NP (DT (the))(NNP (panama))(NNP (canal))))))))(. (?))))) |ET| 
-1  |BT| (ROOT (ROOT (SQ (VP (VB (name))(NP (NP (DT (the))(NN (company)))(SBAR (WHNP (WDT (that)))(S (VP (VBD (use))(NP (DT (the))(NN (line)))(, (,))(`` (``))(S (SBAR (RB (even))(S (NP (PRP$ (you))(JJS (best))(NN (friend)))(VP (VBD (win))(S (NP (POS (')))))))(NP (NN (t)))(VP (VBP (tell))(NP (PRP (you)))('' (''))(PP (IN (in))(NP (PRP$ (its))(NN (ad)))))))))))(. (?))))) |ET| 
-0.71186360434210460557125088598696  |BT| (ROOT (ROOT (SBARQ (WHNP (WP (what)))(SQ (VBD (be))(NP (NP (DT (the))(JJS (largest))(NN (city)))(PP (IN (in))(NP (DT (the))(NN (world))(S (VP (TO (to))(VP (VB (declare))(NP (JJ (martial))(NN (law)))(PP (IN (in))(NP (CD (1989)))))))))))(. (?))))) |ET| 
1  |BT| (ROOT (ROOT (SBARQ (WHNP (WP (what)))(SQ (VBZ (be))(NP (DT (a))(JJ (common))(JJ (anti-aids))(NN (drug))))(. (?))))) |ET| 
1  |BT| (ROOT (ROOT (SBARQ (WHNP (WP (what)))(SQ (VBZ (be))(NP (PRP$ (you))(JJ (favorite))(NN (color))))(. (?))))) |ET| 
1  |BT| (ROOT (ROOT (SBARQ (WHNP (WP (what)))(SQ (VBZ (be))(NP (NP (NNP (bella))(NNP (abzug))(POS ('s)))(JJ (sartorial))(NN (trademark))))(. (?))))) |ET| 
-1  |BT| (ROOT (ROOT (SBARQ (WHNP (WP (what)))(SQ (VBZ (be))(NP (DT (a))(JJ (common))(NN (dolphin))))(. (?))))) |ET| 
-0.9575117892541098463254911621334  |BT| (ROOT (ROOT (SBARQ (WHNP (WP (what)))(SQ (VBZ (be))(NP (DT (a))(JJ (auto-commentary))))(. (?))))) |ET| 
-0.82132552481587328685463944566436  |BT| (ROOT (ROOT (SBARQ (WHNP (WP (what)))(SQ (VBZ (be))(NP (NP (NNP (compaq))(POS ('s)))(NN (mission))(NN (statement))))(. (?))))) |ET| 
1  |BT| (ROOT (ROOT (S (PP (IN (in))(NP (NP (NN (order)))(PP (IN (from))(NP (DT (the))(NN (top))))))(, (,))(NP (NP (DT (the))(CD (four))(NNS (stripe)))(PP (IN (on))(NP (NP (DT (a))(NN (can)))(PP (IN (of))(NP (NNP (pepsi)))))))(VP (VBP (be))(NP (WP (what)))(NP (NNS (color))))(. (?))))) |ET| 
1  |BT| (ROOT (ROOT (NP (NP (NNS (name)))(PP (IN (of))(NP (NP (NNS (book)))(PP (IN (by))(NP (NP (NNP (james))(NNP (a.))(NNP (michener)))(VP (VBN (set))(PP (IN (in))(NP (DT (the))(VBG (follow))(NNS (location)))))))))(. (?))))) |ET| 
1  |BT| (ROOT (ROOT (FRAG (WHNP (WDT (what)))(PP (NP (JJ (literary))(JJ (classic))(NNS (center)))(PP (IN (on))(NP (NP (DT (the))(NN (search)))(PP (IN (for))(NP (NP (NP (DT (a))(NN (treasure)))(PP (IN (in))(NP (NP (NN (gold)))(ADJP (JJ (worth))(NP-TMP (CD (7)))))))(, (,))(NP (CD (0))(NNS (pound))))))))(. (?))))) |ET| 
-0.39023077111527704197158072929597  |BT| (ROOT (ROOT (SBARQ (WHNP (WP (what)))(SQ (VBP (be))(NP (NP (DT (the))(NN (capital))(NNS (city)))(PP (IN (of))(NP (NP (DT (the))(CD (two))(JJ (large))(NNS (country)))(SBAR (WHNP (WDT (that)))(S (VP (VBP (occupy))(NP (DT (the))(NNP (iberian))(NN (peninsula)))(PP (IN (in))(NP (NNP (europe)))))))))))(. (?))))) |ET| 
1  |BT| (ROOT (ROOT (SBARQ (WHNP (WHNP (WDT (what))(NN (kind)))(PP (IN (of))(NP (NN (meat)))))(SQ (VBZ (be))(NP (NNP (fray))(NNP (bentos)))(ADJP (JJ (synonymous))(PP (IN (with)))))(. (?))))) |ET| 
-1  |BT| (ROOT (ROOT (SBARQ (WHNP (WHNP (WDT (what))(NN (author)))(PP (IN (of))(NP (NP (DT (the))(NNS (day)))(PP (IN (of))(NP (PRP$ (we))(NNS (life))(NN (cookbook)))))))(SQ (VP (VBN (sign))(PP (IN (on))(PP (IN (in))(NP (CD (198)))))(PP (IN (as))(NP (NP (NNP (liz))(NNP (chandler)))(PP (IN (in))(NP (NP (NP (NNP (tv))(POS ('s)))(NNS (day)))(PP (IN (of))(NP (PRP$ (we))(NNS (life))))))))))(. (?))))) |ET| 
1  |BT| (ROOT (ROOT (SBARQ (WHNP (WP (what)))(SQ (VBZ (be))(NP (DT (the))(JJ (second-lightest))(NN (element))))(. (?))))) |ET| 
1  |BT| (ROOT (ROOT (SBARQ (WHNP (WP (what)))(SQ (VBZ (be))(NP (DT (the))(JJS (rarest))(NN (coin))))(. (?))))) |ET| 
1  |BT| (ROOT (ROOT (SBARQ (WHNP (WP (what)))(SQ (VBZ (do))(NP (DT (a))(JJ (edentulous))(NN (smile))(NN (lack))))(. (?))))) |ET| 
-0.15406459758522222935894774309418  |BT| (ROOT (ROOT (SBARQ (WHNP (WP (what)))(SQ (VBZ (be))(NP (DT (the))(JJS (highest))(NN (continent))))(. (?))))) |ET| 
-1  |BT| (ROOT (ROOT (SBARQ (WHNP (WP (what)))(SQ (VBZ (be))(NP (NN (color))))(. (?))))) |ET| 
-1  |BT| (ROOT (ROOT (SBARQ (WHNP (WP (what)))(SQ (VBZ (be))(NP (DT (the))(NN (c))(NN (programming))(NN (language))))(. (?))))) |ET| 
1  |BT| (ROOT (ROOT (SBARQ (WHNP (WHNP (WDT (which)))(PP (IN (of))(NP (JJ (many)))))(SQ (VP (VBD (number))(SBAR (S (NP (NP (NNS (vat)))(PP (IN (of))(NP (NNP (scotch)))))(VP (VBD (be))(VP (VBN (judge))(ADVP (RB (best)))(PP (IN (by))(NP (NP (DT (a))(NN (panel)))(PP (IN (of))(NP (NP (NNS (expert)))(PP (IN (in))(NP (CD (1863))))))))))))))(. (?))))) |ET| 
1  |BT| (ROOT (ROOT (SBARQ (WHPP (IN (in))(WHNP (WDT (which))(NNP (tennessee))(NNP (williams))(NN (play))))(SQ (VBZ (be))(NP (NP (CD (one)))(PP (IN (of))(NP (DT (the))(NNS (character)))))(VP (VBN (kill))(CC (and))(VBN (devour))(PP (IN (by))(NP (NP (DT (a))(NN (mob)))(PP (IN (of))(NP (VBG (starve))(NNS (child))))))))(. (?))))) |ET| 
1  |BT| (ROOT (ROOT (SBARQ (WHNP (WHNP (WDT (which))(NN (side)))(PP (IN (of))(NP (DT (the))(NN (face)))))(SQ (VBP (do))(NP (JJS (most))(NNS (artist)))(VP (VBP (tend))(S (VP (TO (to))(VP (VB (show))(NP (NP (JJR (more)))(PP (IN (of))(PP (IN (in))(NP (NNS (self-portrait)))))))))))(. (?))))) |ET| 
-1  |BT| (ROOT (ROOT (SBARQ (WHNP (WDT (what))(NN (actor)))(SQ (VP (VBD (learn))(S (VP (TO (to))(VP (VP (VB (play))(NP (DT (the))(NN (saxophone))))(CC (and))(VP (VB (speak))(NP (NP (NNP (russian)))(PP (IN (for))(NP (NP (DT (a))(NN (role)))(PP (IN (in))(NP (DT (a))(NN (movie)))))))))))))(. (?))))) |ET| 
-1  |BT| (ROOT (ROOT (SBARQ (WHNP (WDT (what))(NN (role)))(SQ (VBP (do))(NP (NNS (fruit)))(VP (VB (play))(PP (IN (in))(NP (NP (DT (the))(NN (survival)))(PP (IN (of))(NP (NNS (plant))))))))(. (?))))) |ET| 
-0.18995958485847683205882674428722  |BT| (ROOT (ROOT (SBARQ (WHADVP (WRB (how)))(SQ (VBP (do))(NP (PRP (you)))(VP (VB (write))(NP (NP (DT (a))(ADJP (JJ (correct))(JJ (critical)))(NN (analysis)))(PP (IN (of))(NP (DT (a))(NN (poem)))))))(. (?))))) |ET| 
1  |BT| (ROOT (ROOT (SBARQ (WHNP (WP (what)))(SQ (VBZ (be))(NP (DT (the))(NNP (u.s.))(NNP (navy))(NN (hymn))))(. (?))))) |ET| 
1  |BT| (ROOT (ROOT (SBARQ (WHNP (WP (what)))(SQ (VBZ (be))(NP (DT (the))(JJS (fastest))(NN (computer))))(. (?))))) |ET| 
1  |BT| (ROOT (ROOT (SBARQ (WHNP (WP (what)))(SQ (VBZ (be))(NP (DT (the))(JJ (second))(JJS (hardest))(NN (substance))))(. (?))))) |ET| 
-1  |BT| (ROOT (ROOT (SBARQ (WHNP (WP (what)))(SQ (VBZ (be))(NP (DT (the))(ADJP (RBS (most))(JJ (common)))(NN (name))))(. (?))))) |ET| 
-1  |BT| (ROOT (ROOT (SBARQ (WHNP (WP (what)))(SQ (VBZ (be))(NP (DT (the))(JJS (oldest))(NN (profession))))(. (?))))) |ET| 
-0.11296822608142745303361209607829  |BT| (ROOT (ROOT (SBARQ (WHNP (WP (what)))(SQ (VBZ (be))(NP (DT (the))(JJ (feudal))(NN (system))))(. (?))))) |ET| 
1  |BT| (ROOT (ROOT (SBARQ (WHNP (WDT (what))(NP (NN (food))))(SQ (MD (can))(NP (PRP (i)))(VP (VB (use))(S (VP (TO (to))(VP (VB (catch))(NP (DT (a))(NN (possum))))))))(. (?))))) |ET| 
0.83850351375781306817458471414284  |BT| (ROOT (ROOT (SBARQ (WHNP (WHNP (WDT (what))(NN (kind)))(PP (IN (of))(NP (NN (education)))))(SQ (MD (would))(NP (PRP (you)))(VP (VB (need))(S (VP (TO (to))(VP (VB (become))(NP (NP (DT (a))(JJ (athletic))(NN (trainer)))(PP (IN (for))(NP (DT (the))(NNP (nfl))))))))))(. (?))))) |ET| 
1  |BT| (ROOT (ROOT (SBARQ (WHADVP (WRB (how)))(SQ (VBP (do))(NP (PRP (you)))(VP (VB (say))(SBAR (S (NP (PRP (i)))(VP (VBP (love))(NP (PRP (you)))(PP (IN (in))(NP (NNP (spanish)))))))))(. (?))))) |ET| 
-0.41117299364539039441268641894567  |BT| (ROOT (ROOT (SBARQ (WHNP (WP (what)))(SQ (VBZ (be))(NP (NP (DT (the))(NN (history)))(PP (IN (of))(NP (NNP (buffalo))(NN (chicken))(NNS (wing))))))(. (?))))) |ET| 
-1  |BT| (ROOT (ROOT (S (SBAR (WHADVP (WRB (when)))(S (VP (VBN (call))(PP (IN (upon))(NP (S (VP (TO (to))(VP (VB (surrender)))))(, (,))(SBAR (WHNP (WDT (what)))(S (NP (NNP (american))(JJ (general)))(VP (VBD (reply))(, (,))(S (`` (``))(NP (NNP (sir))))))))))))(, (,))(NP (PRP (i)))(VP (VBP (have))(RB (not))(ADVP (RB (yet)))(VP (VBN (begin))(S (VP (TO (to))(VP (VB (fight)))))))(. (.))('' (''))))(ROOT (NP (. (?))))) |ET| 
-0.38162875977213933653686694924545  |BT| (ROOT (ROOT (S (SBAR (WHADVP (WRB (why)))(S (VP (MD (can))(VP ('' ('))(NP-TMP (NN (t)))))(NP (NNS (ostrich)))))(VP (VB (fly)))(. (?))))) |ET| 
1  |BT| (ROOT (ROOT (SBARQ (WHNP (WP (what)))(SQ (VBZ (be))(NP (DT (the))(ADJP (RBS (most))(JJ (common)))(NN (cancer))))(. (?))))) |ET| 
1  |BT| (ROOT (ROOT (SBARQ (WHNP (WP (what)))(SQ (VBZ (be))(NP (DT (the))(ADJP (RBS (most))(JJ (radioactive)))(NN (food))))(. (?))))) |ET| 
1  |BT| (ROOT (ROOT (SBARQ (WHNP (WP (what)))(SQ (VBZ (be))(NP (NP (DT (the))(NN (treatment)))(PP (IN (for))(NP (NN (depression))))))(. (?))))) |ET| 
-0.3001957629441744934695179836126  |BT| (ROOT (ROOT (SBARQ (WHNP (WDT (what))(NN (author)))(SQ (VBD (be))(VP (VBN (appoint))(NP (NNP (u.s.))(NN (ambassador)))(PP (TO (to))(NP (NNP (spain))))(PP (IN (in))(NP (NNP (1842))))))(. (?))))) |ET| 
0.54363712703207600629440321426955  |BT| (ROOT (ROOT (SBARQ (WHNP (WDT (what))(NN (magazine)))(SQ (VP (VBD (pay))(NP ($ ($))(CD (5)))(, (,))(NP (NP (CD (000)))(PP (IN (for))(NP (NP (DT (a))(JJ (eight-millimeter))(NN (film)))(PP (IN (of))(NP (NP (NNP (john))(NNP (f.))(NNP (kennedy))(POS ('s)))(NN (assassination)))))))))(. (?))))) |ET| 
1  |BT| (ROOT (ROOT (SBARQ (WHNP (WDT (what))(NN (sport)))(SQ (VBZ (be))(VP (VBN (know))(PP (IN (for))(NP (NNS (hooligan))))))(. (?))))) |ET| 
1  |BT| (ROOT (ROOT (SBARQ (WHADVP (WRB (how)))(SQ (VBP (do))(NP (PRP (you)))(VP (VB (say))(, (,))(`` (``))(S (NP (PRP (i)))(VP (VBP (love))(NP (PRP (you)))('' (''))(PP (IN (in))(NP (JJ (other))(NNS (language))))))))(. (?))))) |ET| 
1  |BT| (ROOT (ROOT (SBARQ (WHADVP (WRB (how)))(SQ (VBP (do))(NP (PRP (you)))(VP (VB (say))(ADJP (`` (``))(JJ (fresh))('' (''))(PP (IN (in))(NP (NNP (spanish)))))))(. (?))))) |ET| 
1  |BT| (ROOT (ROOT (SBARQ (WHADVP (WRB (how)))(SQ (VBP (do))(NP (PRP (you)))(VP (VB (say))(NP (CD (2)))(PP (IN (in))(NP (NNP (latin))))))(. (?))))) |ET| 
-0.31951867462263056074434075526369  |BT| (ROOT (ROOT (SBARQ (WHNP (WHADJP (WRB (how))(JJ (many)))(NNS (game)))(SQ (VBP (be))(VP (VBN (play))(PP (IN (in))(NP (DT (a))(JJ (five-team))(NN (round-robin))(NN (tournament))))))(. (?))))) |ET| 
0.38308017549097611587072265137977  |BT| (ROOT (ROOT (SBARQ (WHNP (WDT (what))(NN (drink)))(SQ (VBZ (be))(VP (VBN (make))(PRT (RP (up)))(PP (IN (of))(NP (NN (rum))(, (,))(NN (coconut))(NN (milk))(CC (and))(NN (pineapple))))))(. (?))))) |ET| 
1  |BT| (ROOT (ROOT (SBARQ (WHNP (WHNP (WDT (what)))(ADJP (JJ (russian))(JJ (novel))))(S (VP (VBG (embrace))(NP (NP (RBR (more)))(SBAR (S (NP (DT (the))(CD (5))(NNS (character)))(VP (VBZ (be))(VP (VBN (set))(PP (IN (in))(NP (DT (the))(NNP (napoleonic))(NNS (war)))))))))))(. (?))))) |ET| 
1  |BT| (ROOT (ROOT (SBARQ (WHNP (WP (what)))(SQ (VBZ (be))(NP (NP (DT (the))(NN (mission)))(PP (IN (of))(NP (NNP (nike))))))(. (?))))) |ET| 
1  |BT| (ROOT (ROOT (SBARQ (WHNP (WP (what)))(SQ (VBZ (be))(NP (NP (DT (the))(NN (name)))(PP (IN (of))(NP (NP (DT (the))(NN (art)))(PP (IN (of))(NP (VBG (grow))(JJ (miniature))(NNS (tree))))))))(. (?))))) |ET| 
1  |BT| (ROOT (ROOT (SBARQ (WHNP (WP (what)))(SQ (VBZ (be))(NP (NP (DT (the))(NN (term)))(PP (IN (for))(NP (NP (DT (a))(NN (group)))(PP (IN (of))(NP (NNS (goose))))))))(. (?))))) |ET| 
-0.1160178070562689484068741307965  |BT| (ROOT (ROOT (SBARQ (WHNP (WDT (what))(NN (country)))(SQ (VP (VBZ (boast))(NP (NP (NNP (cawdor))(NNP (castle)))(, (,))(NP (NNP (glamis))(NNP (castle)))(, (,))(CC (and))(NP (NNP (blair))(NNP (castle))))))(. (?))))) |ET| 
-1  |BT| (ROOT (ROOT (SBARQ (WHNP (WP (what)))(SQ (VBZ (be))(NP (NP (DT (the))(ADJP (JJS (fastest))(VBG (grow)))(NN (state)))(PP (IN (in))(NP (NP (DT (the))(NNP (u.s.a.)))(PP (IN (in))(NP (CD (1998))))))))(. (?))))) |ET| 
1  |BT| (ROOT (ROOT (SBARQ (WHNP (WDT (what)))(SQ (VP (VBD (take))(NP (JJ (first))(NN (prize)))(PP (IN (in))(NP (NP (NNP (omni))(NN (magazine))(POS ('s)))(NN (contest))(S (VP (TO (to))(VP (VB (find))(NP (DT (the))(`` (``))(JJ (ultimate))(JJ (unanswerable))(NN (question))('' (''))))))))))(. (?))))) |ET| 
1  |BT| (ROOT (ROOT (SBARQ (WHNP (WDT (what))(NN (explosive)))(SQ (VBP (do))(NP (PRP (you)))(VP (VB (get))(PP (IN (by))(S (VP (VBG (mix))(NP (NN (charcoal))(, (,))(NN (sulfur))(CC (and))(NN (saltpeter))))))))(. (?))))) |ET| 
0.93735571797498529189596183641697  |BT| (ROOT (ROOT (S (SBAR (WHNP (WDT (what))(NN (beer)))(S (VP (VBZ (tell))(NP (PRP (we)))(, (,))(`` (``))(S (VP (VB (grab))(NP (PDT (all))(DT (the))(NN (gusto))))))))(NP (PRP (you)))(VP (MD (can))(VP (VB (get))))(. (.))('' (''))))(ROOT (NP (. (?))))) |ET| 
1  |BT| (ROOT (ROOT (SBARQ (WHNP (WDT (what))(NN (program)))(SQ (VBP (do))(NP (PRP (i)))(VP (VB (need))(S (VP (TO (to))(VP (VB (run))(NP (DT (a))))))))(. (.))))(ROOT (S (NP (NN (tbk)))(VP (NN (file)))(. (?))))) |ET| 
-1  |BT| (ROOT (ROOT (SBARQ (WHNP (WDT (what)))(SQ (MD (can))(NP (PRP (i)))(VP (VB (do))(S (VP (TO (to))(VP (VB (get))(PP (IN (into))(NP (DT (a))(NNP (ivy))(NNP (league))(NN (school)))))))))(. (?))))) |ET| 
-1  |BT| (ROOT (ROOT (SBARQ (WHNP (WDT (what))(NN (planet)))(SQ (MD (would))(NP (PRP (you)))(VP (VB (visit))(S (VP (TO (to))(VP (VB (see))(NP (NNP (bebrenia))(, (,))(NNP (arcadia))(, (,))(CC (and))(NNP (amazonis))))))))(. (?))))) |ET| 
-1  |BT| (ROOT (ROOT (SBARQ (WHNP (WHNP (WDT (what))(NN (lake)))(PP (IN (in))(NP (NNP (scotland)))))(SQ (VBZ (be))(VP (VBN (say))(S (VP (TO (to))(VP (VB (hold))(NP (QP (CD (one))(CC (or))(JJR (more)))(NNS (monster))))))))(. (?))))) |ET| 
1  |BT| (ROOT (ROOT (SBARQ (WHNP (WP (what)))(SQ (VBZ (be))(NP (NP (DT (the))(NN (name)))(PP (IN (of))(NP (NP (DT (the))(NN (vaccine)))(PP (IN (for))(NP (NN (chicken))(NN (pox))))))))(. (?))))) |ET| 
1  |BT| (ROOT (ROOT (SBARQ (WHNP (WP (what)))(SQ (VBZ (be))(NP (NP (DT (the))(NN (nickname)))(PP (IN (of))(NP (DT (the))(NNP (cleveland))(NNPS (indians))))))(. (?))))) |ET| 
1  |BT| (ROOT (ROOT (SBARQ (WHNP (WP (what)))(SQ (VBZ (be))(NP (NP (DT (the))(NN (name)))(PP (IN (of))(NP (NP (DT (a))(NN (golf))(NN (course)))(PP (IN (in))(NP (NNP (myrtle))(NNP (beach))))))))(. (?))))) |ET| 
-1  |BT| (ROOT (ROOT (SBARQ (WHNP (WP (what)))(SQ (VBZ (be))(NP (NP (DT (the))(NN (name)))(PP (IN (of))(NP (NP (DT (the))(NN (inventor)))(PP (IN (of))(NP (JJ (silly))(NN (putty))))))))(. (?))))) |ET| 
0.12218732220849326530753842234844  |BT| (ROOT (ROOT (SBARQ (WHNP (WP (what)))(SQ (VBZ (be))(NP (NP (DT (a))(NN (fear)))(PP (IN (of))(NP (NN (sourness))))))(. (?))))) |ET| 
-1  |BT| (ROOT (ROOT (SBARQ (WHNP (WP (what)))(SQ (VBZ (be))(NP (NP (DT (the))(NN (name)))(PP (IN (of))(NP (NP (DT (the))(VBG (manage))(NN (director)))(PP (IN (of))(NP (NNP (apricot))(NNP (computer))))))))(. (?))))) |ET| 
1  |BT| (ROOT (ROOT (SBARQ (SBAR (WHADVP (WRB (when)))(S (NP (PRP (it)))(VP (VBZ (be))(NP (NN (time))(S (VP (TO (to))(VP (VB (relax)))))))))(, (,))(WHNP (WDT (what))(CD (one))(NN (beer)))(SQ (VP (VBZ (stand))(ADJP (JJ (clear)))))(. (?))))) |ET| 
1  |BT| (ROOT (ROOT (SBARQ (WHNP (WDT (what))(NP (JJ (shape-shifting))(NN (menace))))(SQ (VBD (do))(NP (NNP (rom)))(VP (VB (come))(PP (TO (to))(NP (NNP (earth))))(S (VP (TO (to))(VP (VB (fight)))))))(. (?))))) |ET| 
1  |BT| (ROOT (ROOT (SBARQ (WHNP (WDT (what))(CD (two))(NNS (color)))(SQ (VBP (be))(NP (PRP (you)))(ADJP (JJ (blind))(TO (to)))(SBAR (IN (if))(S (NP (PRP (you)))(VP (VBP (suffer))(PP (IN (from))(NP (NNP (protanopia))))))))(. (?))))) |ET| 
-1  |BT| (ROOT (ROOT (SBARQ (WHNP (WDT (what))(NNS (characteristic)))(SQ (VP (VBP (contribute))(PP (TO (to))(NP (PRP$ (its))(`` (``))(NN (intelligence))('' (''))))))(. (?))))) |ET| 
1  |BT| (ROOT (ROOT (SBARQ (WHNP (WP (what)))(SQ (VBZ (be))(NP (NP (DT (the))(NN (name)))(PP (IN (of))(NP (NP (DT (the))(NN (dog)))(PP (IN (on))(NP (DT (the))(NNP (cracker))(NNP (jack))(NN (box))))))))(. (?))))) |ET| 
-1  |BT| (ROOT (ROOT (SBARQ (WHNP (WP (what)))(SQ (VBP (do))(NP (PRP (you)))(VP (VB (say))(PP (TO (to))(NP (NP (DT (a))(NN (friend)))(SBAR (WHNP (WP (who)))(S (VP (VBZ (ignore))(NP (PRP (you)))(PP (IN (for))(NP (JJ (other))(NNS (friend)))))))))))(. (?))))) |ET| 
-0.16933431938930923466024580648082  |BT| (ROOT (ROOT (SBARQ (WHNP (WDT (what))(NN (country)))(SQ (VP (VBZ (have))(NP (DT (the))(JJS (most))(NN (time))(NNS (zone)))(, (,))(PP (IN (with))(NP (CD (11))))))(. (?))))) |ET| 
1  |BT| (ROOT (ROOT (SBARQ (WHNP (WP (what)))(SQ (VBZ (be))(NP (NP (DT (the))(NN (name)))(PP (IN (of))(NP (NP (DT (the))(JJS (largest))(NN (water))(NN (conservancy))(NN (project)))(PP (IN (in))(NP (NNP (china))))))))(. (?))))) |ET| 
1  |BT| (ROOT (ROOT (SBARQ (WHNP (WP (what)))(SQ (VBZ (be))(NP (NP (DT (the))(NN (name)))(PP (IN (of))(NP (NP (DT (the))(NNP (family))(NNP (circus))(POS ('s)))(NN (dog))))))(. (?))))) |ET| 
-0.83358082183837178824603597604437  |BT| (ROOT (ROOT (SBARQ (WHNP (WDT (what))(NP (JJ (natural))(NNS (attraction))))(SQ (VP (VBP (draw))(NP (DT (the))(RBS (most)))(PP (NP (NNS (visitor)))(IN (in))(NP (DT (the))(NNP (united))(NNPS (states))))))(. (?))))) |ET| 
-1  |BT| (ROOT (ROOT (SBARQ (WHNP (WHNP (WDT (what))(NN (time)))(PP (IN (of))(NP (NN (year)))))(SQ (VBP (do))(NP (JJS (most))(NNS (people)))(VP (VB (fly))))(. (?))))) |ET| 
-0.16260042025574839019697037656442  |BT| (ROOT (ROOT (SBARQ (WHPP (IN (in))(WHNP (WDT (what))(NN (year))))(SQ (VBD (be))(NP (NP (DT (the))(NNP (berlin))(NNP (wall)))(SBAR (S (VP (VBD (erect)))))))(. (?))))) |ET| 
1  |BT| (ROOT (ROOT (SBARQ (WHNP (WP (what)))(SQ (VBZ (be))(NP (NP (DT (the))(NN (chemical))(NN (composition)))(PP (IN (of))(NP (DT (a))(NNP (barbie))))))(. (?))))) |ET| 
1  |BT| (ROOT (ROOT (SBARQ (WHNP (WP (what)))(SQ (VBZ (be))(VP (VBN (know))(PP (IN (as))(NP (NP (DT (the))(NN (queen)))(PP (IN (of))(NP (NNPS (drinks))))))))(. (?))))) |ET| 
1  |BT| (ROOT (ROOT (SBARQ (WHNP (WP (what)))(SQ (VBP (be))(NP (NP (DT (the))(NNS (sign)))(PP (IN (of))(NP (NP (DT (a))(NN (country)))(VP (VBG (go))(PP (IN (into))(NP (DT (a))(NN (recession)))))))))(. (?))))) |ET| 
-1  |BT| (ROOT (ROOT (SBARQ (WHNP (WP (what)))(SQ (VBZ (be))(NP (NP (DT (the))(NN (name)))(PP (IN (of))(NP (NP (DT (a))(NN (hotel)))(PP (IN (in))(NP (NNP (indianapolis))))))))(. (?))))) |ET| 
-1  |BT| (ROOT (ROOT (SBARQ (WHNP (WP (what)))(SQ (VBZ (be))(NP (NP (DT (the))(NN (wingspan)))(PP (IN (of))(NP (DT (a))(NN (condor))))))(. (?))))) |ET| 
-0.088313443673722735738351730105933  |BT| (ROOT (ROOT (SBARQ (WHNP (WP (what)))(SQ (VBZ (be))(NP (NP (DT (the))(NN (definition)))(PP (IN (of))(NP (DT (a))(NN (cascade))))))(. (?))))) |ET| 
1  |BT| (ROOT (ROOT (SBARQ (WHNP (WDT (what))(NN (soap)))(SQ (VBD (be))(VP (VBN (tout))(PP (IN (as))(S (VP (VBG (be))(`` (``))(PP (IN (for))(NP (NNS (people)))))))(SBAR (WHNP (WP (who)))(S (VP (VBP (like))(NP (NNS (people))('' (''))))))))(. (?))))) |ET| 
1  |BT| (ROOT (ROOT (SBARQ (WHNP (WDT (what))(NN (flag)))(SQ (VP (VBZ (fly))(SBAR (IN (over))(S (VP (VBP (wake))(NP (NN (island))))))))(. (?))))) |ET| 
0.36649832375381424798277407717251  |BT| (ROOT (ROOT (SBARQ (WHNP (WDT (what))(NN (fuel)))(SQ (VBP (do))(NP (NNS (airplane)))(VP (VB (use))))(. (?))))) |ET| 
-1  |BT| (ROOT (ROOT (SBARQ (WHNP (WDT (what))(NN (constellation)))(SQ (VBZ (be))(VP (VBN (know))(PP (IN (as))(NP (DT (the))(NN (water))(NNP (bearer))))))(. (?))))) |ET| 
-0.45504234637109808314647807492292  |BT| (ROOT (ROOT (SBARQ (WHNP (WDT (what))(NN (city)))(SQ (VBZ (be))(VP (VBN (serve))(PP (IN (by))(NP (NNP (logan))(NNP (international))(NNP (airport))))))(. (?))))) |ET| 
-0.5507057632361689325506404202315  |BT| (ROOT (ROOT (SBARQ (WHNP (WDT (what))(NN (river)))(SQ (VP (VBZ (run))(PP (IN (through))(NP (NNP (liverpool))))))(. (?))))) |ET| 
1  |BT| (ROOT (ROOT (SBARQ (WHNP (WP (what)))(SQ (VBZ (be))(NP (NP (DT (the))(NN (term)))(PP (IN (for))(NP (NP (DT (the))(NN (sum)))(PP (IN (of))(NP (NP (DT (all))(JJ (genetic))(NN (material)))(PP (IN (in))(NP (DT (a))(VBN (give))(NN (organism))))))))))(. (?))))) |ET| 
1  |BT| (ROOT (ROOT (SBARQ (WHNP (WP (what)))(SQ (VBZ (be))(NP (NP (DT (the))(NN (name)))(PP (IN (of))(NP (NP (DT (the))(NN (game)))(SBAR (WHNP (WDT (that)))(S (NP (NNP (garry))(NNP (kasparov)))(VP (VBZ (play)))))))))(. (?))))) |ET| 
1  |BT| (ROOT (ROOT (SBARQ (WHNP (WP (what)))(SQ (VBZ (be))(NP (NP (DT (the))(NN (name)))(PP (IN (of))(NP (NP (DT (the))(NN (song)))(SBAR (WHNP (WDT (that)))(S (NP (NNP (dracula)))(VP (VBZ (play))(PP (IN (on))(NP (DT (the))(NN (organ)))))))))))(. (?))))) |ET| 
-1  |BT| (ROOT (ROOT (SBARQ (WHNP (WP (what)))(SQ (VBZ (be))(NP (NP (DT (the))(NN (name)))(PP (IN (of))(NP (NP (DT (the))(NN (firm)))(SBAR (WHNP (WDT (that)))(S (VP (VBZ (make))(NP (NNP (spumante))))))))))(. (?))))) |ET| 
-1  |BT| (ROOT (ROOT (SBARQ (WHNP (WP (what)))(SQ (VBZ (be))(NP (NP (DT (the))(NN (name)))(PP (IN (of))(NP (NP (DT (the))(NN (company)))(SBAR (WHNP (WDT (that)))(S (VP (VBZ (manufacture))(NP (DT (the))(`` (``))(JJ (american))(NNP (girl))('' (''))(NN (doll))(NN (collection))))))))))(. (?))))) |ET| 
-1  |BT| (ROOT (ROOT (SBARQ (WHNP (WP (what)))(SQ (VBZ (be))(NP (NP (DT (the))(NN (name)))(PP (IN (of))(NP (NP (DT (the))(NN (temple)))(SBAR (WHNP (WDT (that)))(S (VP (VBZ (be))(ADJP (JJ (located))(PP (IN (near))(NP (NP (DT (the))(NN (capital))(NN (city)))(PP (IN (of))(NP (NNP (laos))))))))))))))(. (?))))) |ET| 
1  |BT| (ROOT (ROOT (SBARQ (WHNP (WDT (what))(CD (two))(JJ (major))(NN (world))(NNS (religion)))(SQ (VP (VBD (begin))(PP (IN (in))(NP (NNP (india))))))(. (?))))) |ET| 
1  |BT| (ROOT (ROOT (SBARQ (WHNP (WDT (what))(NN (type)))(SQ (VBZ (be))(NP (DT (a))(NN (snail))))(. (?))))) |ET| 
1  |BT| (ROOT (ROOT (SBARQ (WHNP (WDT (what))(NN (gender)))(SQ (VP (VBZ (be))(RB (not))(VP (VBN (allow))(S (VP (TO (to))(VP (VB (vote))(PP (IN (in))(NP (NNP (kuwait))))))))))(. (?))))) |ET| 
-0.82607714388501718438817533751717  |BT| (ROOT (ROOT (SBARQ (WHNP (WDT (what))(NN (comedian)))(SQ (VP (VBZ (have))(NP (NP (DT (a))(JJ (legendary))(NN (reputation)))(PP (IN (for))(S (VP (VBG (steal))(NP (NNS (joke)))))))))(. (?))))) |ET| 
-1  |BT| (ROOT (ROOT (S (VP (VB (name))(NP (DT (a))(NN (art))(NN (gallery)))(PP (IN (in))(NP (NNP (new))(NNP (york)))))(. (.))))) |ET| 
-0.13818430276833193470764626908931  |BT| (ROOT (ROOT (SBARQ (WHNP (WP (what)))(SQ (VBZ (be))(NP (NP (DT (the))(NN (name)))(PP (IN (of))(NP (NP (NP (NNP (tom))(NNP (sawyer))(POS ('s)))(NN (aunt)))(PP (IN (with))(SBAR (WHNP (WP (whom)))(S (NP (PRP (he)))(VP (VBZ (live))))))))))(. (?))))) |ET| 
1  |BT| (ROOT (ROOT (SBARQ (WHNP (WP (what)))(SQ (VBZ (be))(NP (NP (DT (the))(JJS (softest))(NN (part)))(PP (IN (of))(NP (DT (the))(NN (body))))))(. (?))))) |ET| 
1  |BT| (ROOT (ROOT (SBARQ (WHNP (WP (what)))(SQ (VBZ (be))(NP (NP (DT (the))(NN (name)))(PP (IN (of))(NP (DT (the))(NNP (tokyo))(NNP (stock))(NNP (exchange))))))(. (?))))) |ET| 
1  |BT| (ROOT (ROOT (SBARQ (WHNP (WP (what)))(SQ (VBZ (be))(NP (NP (DT (the))(NN (term)))(PP (IN (for))(NP (NP (DT (the))(NN (side)))(PP (IN (of))(NP (NP (DT (the))(NN (mountain)))(SBAR (WHNP (WDT (that)))(S (VP (VBZ (face))(NP (DT (the))(VBG (prevail))(NNS (wind))))))))))))(. (?))))) |ET| 
-1  |BT| (ROOT (ROOT (SBARQ (WHNP (WP (what)))(SQ (VBZ (be))(NP (NP (DT (the))(NN (website)))(PP (IN (for))(NP (DT (the))(NNP (usa))(NN (journal))))))(. (?))))) |ET| 
-1  |BT| (ROOT (ROOT (SBARQ (WHNP (WP (what)))(SQ (VBZ (be))(NP (NP (DT (the))(NN (temperature)))(PP (IN (for))(NP (NN (cooking))))))(. (?))))) |ET| 
-1  |BT| (ROOT (ROOT (SBARQ (WHNP (WP (what)))(SQ (VBZ (be))(NP (NP (DT (the))(NN (abbreviation)))(PP (IN (for))(NP (NN (trinitrotoluene))))))(. (?))))) |ET| 
1  |BT| (ROOT (ROOT (S (VP (VB (name))(NP (DT (a))(NN (golf))(NN (course)))(PP (IN (in))(NP (NNP (myrtle))(NNP (beach)))))(. (.))))) |ET| 
1  |BT| (ROOT (ROOT (SBARQ (WHNP (WDT (what))(NN (film)))(SQ (VP (VBD (have))(NP (NP (NNP (bette))(NNP (davis)))(VP (VBG (create))(NP (DT (a))(NN (scandal)))(PP (IN (by))(S (VP (VBG (wear))(NP (DT (a))(ADJP (JJ (daring))(JJ (red)))(NN (gown)))(PP (TO (to))(NP (DT (a))(NN (society))(NN (ball)))))))))))(. (?))))) |ET| 
1  |BT| (ROOT (ROOT (SBARQ (WHNP (WDT (which))(NN (leg)))(SQ (VP (VBZ (do))(NP (DT (a))(NN (cat))(NN (move)))(PP (IN (with))(NP (NP (PRP$ (its))(JJ (left))(JJ (front))(NN (leg)))(SBAR (WHADVP (WRB (when)))(S (VP (VBG (walk)))))))))(: (-))(NP (NP (PRP$ (its))(JJ (left))(NN (rear)))(CC (or))(NP (JJ (right))(JJ (rear))(NN (leg))))(. (?))))) |ET| 
-1  |BT| (ROOT (ROOT (S (VP (VB (name))(NP (DT (the))(JJ (fast))(NN (food))(NN (chain)))(PP (IN (with))(NP (DT (the))(JJ (golden))(NNS (arch)))))(. (.))))) |ET| 
-0.19457760829224723941877073229989  |BT| (ROOT (ROOT (SBARQ (WHNP (WP (what)))(SQ (VBZ (be))(NP (DT (a))(JJ (annotated))(NN (bibliography))))(. (?))))) |ET| 
-0.24374285241761162179585653575487  |BT| (ROOT (ROOT (SBARQ (WHADVP (WRB (why)))(SQ (VP (VBZ (do))(SBAR (S (NP (NP (DT (a))(NN (wheel)))(, (,))(NP (NP (FW (e.g.)))(NP (DT (a))(NN (car))(NN (tire))))(, (,)))(VP (VBP (appear))(S (VP (TO (to))(VP (VB (spin))(PP (IN (in))(NP (DT (the))(JJ (opposite))(NN (direction))))(SBAR (IN (as))(S (NP (PRP (it)))(VP (VBZ (slow))(PRT (RP (down))))))))))))))(. (?))))) |ET| 
1  |BT| (ROOT (ROOT (SBARQ (WHNP (WP (what)))(SQ (VBZ (be))(NP (NP (DT (another))(NN (word)))(PP (IN (for))(NP (NN (diet))))))(. (?))))) |ET| 
1  |BT| (ROOT (ROOT (SBARQ (WHNP (WP (what)))(SQ (VBZ (be))(NP (NP (DT (the))(NN (recipe)))(PP (IN (for))(NP (NNP (eggs))(NNP (benedict))))))(. (?))))) |ET| 
1  |BT| (ROOT (ROOT (SBARQ (WHNP (WP (what)))(SQ (VBZ (be))(NP (NP (DT (another))(NN (name)))(PP (IN (for))(NP (NN (aspartame))))))(. (?))))) |ET| 
-0.10992900804311836471249819169316  |BT| (ROOT (ROOT (SBARQ (WHNP (WP (what)))(SQ (VBZ (be))(NP (DT (a))(NN (neurosurgeon))))(. (?))))) |ET| 
-0.74361358750626083136125998862553  |BT| (ROOT (ROOT (SBARQ (WHNP (WP (what)))(SQ (VBZ (be))(NP (NP (DT (the))(NN (price)))(PP (IN (for))(NP (NN (tuberculosis))(NNS (drug))))))(. (?))))) |ET| 
-1  |BT| (ROOT (ROOT (SBARQ (WHNP (WP (what)))(SQ (VBZ (be))(NP (NP (DT (the))(NN (name)))(PP (IN (of))(NP (NP (NNP (joan))(NNP (jett))(POS ('s)))(NN (band))))))(. (?))))) |ET| 
1  |BT| (ROOT (ROOT (SBARQ (WHADVP (WRB (where)))(SQ (VBZ (do))(NP (PRP$ (you))(NN (hair)))(VP (VB (grow))(NP (DT (the))(JJS (fastest)))))(. (?))))) |ET| 
1  |BT| (ROOT (ROOT (SBARQ (WHNP (WDT (what))(JJ (indoor))(NN (sport)))(SQ (VP (VBD (see))(S (NP (DT (the))(NNP (phoenix))(NNP (inferno)))(VP (VB (become))(NP (DT (the))(NNP (phoenix))(NN (pride)))(PP (IN (on))(NP (NP (NNP (july))(CD (14))(, (,))(CD (1983)))(, (,))(SBAR (WHADVP (WRB (when)))(S (NP (DT (the))(NN (temperature)))(VP (VBD (hit))(NP (CD (111))(NNS (degree))))))))))))(. (?))))) |ET| 
1  |BT| (ROOT (ROOT (SBARQ (WHADVP (WRB (where)))(SQ (VBZ (be))(NP (NP (DT (the))(JJ (human))(NN (skin)))(ADJP (JJS (least))(JJ (sensitive)))))(. (?))))) |ET| 
0.22331195398072722912985454968293  |BT| (ROOT (ROOT (SBARQ (WHNP (WP (what)))(SQ (VBZ (be))(NP (DT (a))(NN (softball)))(VP (VBN (make))(PP (IN (of)))))(. (?))))) |ET| 
-0.32072972753189094019532490165147  |BT| (ROOT (ROOT (SBARQ (WHNP (WDT (what))(NN (ocean)))(SQ (VBD (be))(NP (NNP (amelia))(NNP (earhart)))(VP (VBG (fly))(PP (IN (over))(SBAR (WHADVP (WRB (when)))(S (NP (PRP (she)))(VP (VBD (disappear))))))))(. (?))))) |ET| 
-0.72276863045837480559185905804043  |BT| (ROOT (ROOT (SBARQ (WHADVP (WRB (how)))(SQ (VBP (do))(NP (PRP (i)))(VP (VB (get))(NP (NP (PRP$ (my))(NN (lan))(NN (card)))(VP (VBN (activate))(SBAR (IN (so))(IN (that))(S (NP (PRP (it)))(VP (MD (can))(VP (NP (NN (hook)))(ADVP (IN (up))(PP (TO (to))(NP (DT (another))(NN (computer)))))))))))(PP (IN (without))(S (VP (VBG (use))(NP (DT (a))(NN (hub))))))))(. (?))))) |ET| 
1  |BT| (ROOT (ROOT (SBARQ (WHNP (WP (what)))(SQ (VBZ (be))(NP (NP (DT (the))(NN (shape)))(PP (IN (of))(NP (NP (DT (a))(NN (camel))(POS ('s)))(NN (spine))))))(. (?))))) |ET| 
1  |BT| (ROOT (ROOT (SBARQ (WHNP (WP (what)))(SQ (VBZ (be))(NP (NP (DT (the))(NN (name)))(PP (IN (of))(NP (NNP (jamiroquai))(JJ (new))(NN (album))))))(. (?))))) |ET| 
1  |BT| (ROOT (ROOT (SBARQ (WHNP (WP (what)))(SQ (VBZ (be))(NP (NP (DT (the))(NN (name)))(PP (IN (of))(NP (NP (NNP (david))(NNP (letterman))(POS ('s)))(NN (dog))))))(. (?))))) |ET| 
-1  |BT| (ROOT (ROOT (SBARQ (WHNP (WP (what)))(SQ (VBZ (be))(NP (NP (DT (the))(NN (name)))(PP (IN (of))(NP (NNP (miss))(NNP (india))(CD (1994))))))(. (?))))) |ET| 
-1  |BT| (ROOT (ROOT (SBARQ (WHNP (WP (what)))(SQ (VBZ (be))(NP (NP (DT (the))(NN (name)))(PP (IN (of))(NP (NP (DT (the))(JJ (deranged))(JJ (super-criminal))(NNP (otto))(NNP (octavius)))(VP (VBZ (use)))))))(. (?))))) |ET| 
-1  |BT| (ROOT (ROOT (SBARQ (WHNP (WP (what)))(SQ (VBZ (be))(NP (NP (DT (the))(NN (name)))(PP (IN (of))(NP (NP (DT (the))(NN (gulf)))(PP (IN (between))(NP (NNP (sweden))(CC (and))(NNP (finland))))))))(. (?))))) |ET| 
1  |BT| (ROOT (ROOT (SBARQ (WHNP (WP (what)))(SQ (VBD (be))(NP (NNP (mark))(NNP (johnson)))(VP (VBG (refer))(PP (TO (to))(SBAR (WHADVP (WRB (when)))(S (S (NP (PRP (he)))(VP (VP (VBD (say))(: (:))(`` (``))(SBAR (S (NP (PRP (i)))(ADVP (RB (still)))(VP (MD (can)))))('' (')))(NP (NP (NN (t)))(SBAR (S (VP (VBP (believe))(NP (PRP (it)))))))))(: (-))(S (NP (PRP (we)))(VP (VBD (beat))(NP (DT (the))(NNPS (russians))))))))))(. (?))('' (''))))) |ET| 
1  |BT| (ROOT (ROOT (SBARQ (WHNP (WDT (what)))(SQ (MD (can))(NP (PRP (one)))(VP (VB (see))(PP (IN (in))(NP (NNP (reims))))))(. (?))))) |ET| 
1  |BT| (ROOT (ROOT (SBARQ (WHNP (WDT (what))(NN (cereal)))(S (VP (VBZ (go))(`` (``))(SBAR (S (VP (VB (snap))(, (,))(VB (crackle))(, (,))(VB (pop)))))('' (''))))(. (?))))) |ET| 
-1  |BT| (ROOT (ROOT (SBARQ (WHNP (WDT (what))(JJ (classical))(JJ (spanish))(NN (writer)))(SQ (VP (VBD (warn))(: (:))(`` (``))(SBAR (S (NP (NP (DT (all)))(SBAR (WHNP (WDT (that)))(S (VP (VBZ (glitter))))))(VP (VBZ (be))(RB (not))(NP (JJ (gold))))))('' (''))))(. (?))))) |ET| 
-0.93493253100799633692474799318006  |BT| (ROOT (ROOT (SBARQ (WHNP (WDT (which))(JJ (classical))(JJ (spanish))(NN (writer)))(SQ (VP (VBD (say))(`` (``))(SBAR (S (NP (NP (DT (all)))(SBAR (WHNP (WDT (that)))(S (VP (VBZ (glitter))))))(VP (VBZ (be))(RB (not))(NP (JJ (gold))))))('' (''))))(. (?))))) |ET| 
-0.78221838095399653933981198861147  |BT| (ROOT (ROOT (SBARQ (WHNP (WDT (what))(NP (NP (NNP (president))(POS ('s)))(NP (NP (JJ (favorite)))(NP (JJ (biblical))(NN (quotation))))))(SQ (VBD (be))(: (:))(S (VP (`` (``))(VB (come))(ADVP (RB (now))))(, (,))(CC (and))(VP (VB (let))(NP (PRP (we))(NN (reason)))(ADVP (RB (together))('' (''))))))(. (.))))) |ET| 
1  |BT| (ROOT (ROOT (SBARQ (WHNP (WP (what)))(SQ (VBZ (be))(NP (NP (DT (the))(NN (name)))(PP (IN (of))(NP (DT (the))(NNP (tampa))(NN (newspaper))))))(. (?))))) |ET| 
1  |BT| (ROOT (ROOT (SBARQ (WHNP (WP (what)))(SQ (VBZ (be))(NP (NP (DT (the))(NN (name)))(PP (IN (of))(NP (DT (the))(JJ (second))(NN (space))(NN (shuttle))))))(. (?))))) |ET| 
1  |BT| (ROOT (ROOT (SBARQ (WHNP (WP (what)))(SQ (VBZ (be))(NP (NP (DT (the))(NN (name)))(PP (IN (of))(NP (DT (the))(JJ (jewish))(NN (alphabet))))))(. (?))))) |ET| 
-1  |BT| (ROOT (ROOT (SBARQ (WHNP (WP (what)))(SQ (VBZ (be))(NP (NP (DT (the))(NN (name)))(PP (IN (of))(NP (NP (DT (the))(NNP (wilkes))(NN (plantation)))(PP (IN (in))(ADJP (VBN (go))(PP (IN (with))(NP (DT (the))(NN (wind))))))))))(. (?))))) |ET| 
0.086782289324144057385268524740241  |BT| (ROOT (ROOT (NP (NP (NNP (madonna)))(NP (NP (NNS (hock)))(SBAR (WHNP (WDT (which))(JJ (soft))(NN (drink)))))(. (?))))) |ET| 
1  |BT| (ROOT (ROOT (SBARQ (WHNP (WDT (what))(NN (gaming))(NNS (device)))(SQ (VBD (be))(VP (VBN (dub))(S (`` (``))(NP (NP (NNP (mississippi))(NNS (marble)))('' (''))(CC (and))(`` (``))(NP (NNP (memphis))(NNS (domino)))('' (''))))))(. (?))))) |ET| 
1  |BT| (ROOT (ROOT (SBARQ (WHNP (WDT (what))(JJ (civil))(NN (war)))(SQ (VBD (be))(VP (VBN (fight))(PP (IN (between))(NP (CD (1936))(CC (and))(CD (1939))))))(. (?))))) |ET| 
1  |BT| (ROOT (ROOT (SBARQ (WHNP (WDT (what))(NNP (stephen))(NNP (sondheim))(NN (ballad)))(SQ (VP (VBZ (end))(: (:))(FRAG (INTJ (`` (``))(UH (well)))(, (,))(RB (maybe))(NP (JJ (next))(NN (year)))(. (.)))))))(ROOT (NP (. (.))))(ROOT (S (VP (. (.))('' ('')))))(ROOT (NP (. (?))))) |ET| 
-0.59961368933309211470827904122416  |BT| (ROOT (ROOT (SBARQ (WHNP (WDT (what))(JJ (terrorist))(NN (group)))(SQ (VBD (be))(VP (VBN (head))(PP (IN (by))(NP (NNP (donald))(NNP (defreeze))))))(. (?))))) |ET| 
-0.64094968818758268902513464126969  |BT| (ROOT (ROOT (SBARQ (WHNP (WDT (what))(JJ (mexican))(NN (leader)))(SQ (VBD (be))(VP (VBN (shoot))(ADJP (JJ (dead)))(PP (IN (in))(NP (CD (1923))))))(. (?))))) |ET| 
-0.48110590933084601550362435773422  |BT| (ROOT (ROOT (SBARQ (WHNP (WDT (what))(JJ (english))(NN (queen)))(SQ (VP (VBD (have))(NP (CD (seventeen))(NNS (child)))))(. (?))))) |ET| 
1  |BT| (ROOT (ROOT (SBARQ (WHNP (WP (what)))(SQ (VBZ (be))(NP (NP (DT (the))(JJS (tallest))(NN (piece)))(PP (IN (on))(NP (DT (a))(NN (chessboard))))))(. (?))))) |ET| 
1  |BT| (ROOT (ROOT (SBARQ (WHNP (WP (what)))(SQ (VBZ (be))(NP (NP (DT (the))(JJ (legal))(NN (blood))(NN (alcohol))(NN (limit)))(PP (IN (for))(NP (NP (DT (the))(NN (state)))(PP (IN (of))(NP (NNP (california))))))))(. (?))))) |ET| 
1  |BT| (ROOT (ROOT (SBARQ (WHNP (WP (what)))(SQ (VBD (be))(NP (NP (DT (the))(NN (tragedy)))(SBAR (WHNP (WDT (that)))(S (VP (VBD (strike))(NP (NP (DT (the))(NN (city)))(PP (IN (of))(NP (NNP (dogtown)))))(PP (IN (in))(NP (CD (1899)))))))))(. (?))))) |ET| 
-0.64473315593412827695374289760366  |BT| (ROOT (ROOT (SBARQ (WHNP (WP (what)))(SQ (VBZ (be))(NP (NP (DT (the))(NN (horsepower)))(PP (IN (of))(NP (DT (the))(NN (shuttle))(NNS (booster))))))(. (?))))) |ET| 
-1  |BT| (ROOT (ROOT (SBARQ (WHNP (WP (what)))(SQ (VBD (be))(NP (NP (DT (the))(NN (name)))(PP (IN (of))(NP (NP (DT (the))(NN (cook)))(PP (IN (on))(NP (NNP (rawhide))))))))(. (?))))) |ET| 
-1  |BT| (ROOT (ROOT (SBARQ (WHNP (WP (what)))(SQ (VBD (be))(NP (NP (DT (the))(NN (name)))(PP (IN (of))(NP (NP (DT (the))(NN (director)))(PP (IN (of))(NP (DT (the))(NN (movie))(`` (``))(NNP (jaws))('' (''))))))))(. (?))))) |ET| 
-1  |BT| (ROOT (ROOT (SBARQ (WHNP (WP (what)))(SQ (VBZ (be))(NP (NP (DT (the))(NN (name)))(PP (IN (of))(NP (NP (DT (the))(NN (pop))(NN (singer)))(SBAR (WHNP (WP$ (whose))(NN (song)))(S (VP (VBD (become))(NP (DT (the))(NN (theme))(NN (song)))(PP (IN (for))(NP (NP (DT (a))(NN (brand)))(PP (IN (of))(NP (NN (catsup)))))))))))))(. (?))))) |ET| 
1  |BT| (ROOT (ROOT (SBARQ (WHNP (WDT (what))(JJ (new))(NN (year)))(SQ (VBZ (be))(VP (VBN (celebrate))(PP (IN (on))(NP (NNP (february))(JJ (16th))))))(. (?))))) |ET| 
1  |BT| (ROOT (ROOT (SBARQ (WHNP (WDT (what))(NP (NP (NN (snack)))(NP (NN (food)))))(SQ (VP (VBZ (have))(NP (NNS (ridge)))))(. (?))))) |ET| 
1  |BT| (ROOT (ROOT (SBARQ (WHNP (WDT (what))(JJ (stringed))(NN (weapon)))(SQ (VP (VBZ (fire))(NP (DT (a))(NN (bolt)))))(. (?))))) |ET| 
-1  |BT| (ROOT (ROOT (SBARQ (WHNP (WDT (what)))(SQ (VP (VBZ (attract))(NP (NNS (tourist)))(PP (TO (to))(NP (NNP (reims))))))(. (?))))) |ET| 
-1  |BT| (ROOT (ROOT (SBARQ (WHNP (WDT (what))(NP (NP (NN (television)))(NP (NN (network)))))(SQ (VP (VBD (flog))(NP (PRP$ (its))(NNS (sport))(NN (programming)))(PP (IN (on))(NP (NP (NNP (inga))(NNP (nielsen))(POS ('s)))(NN (body))))(PP (IN (in))(NP (CD (197))))))(. (?))))) |ET| 
-0.84746805317442741589673005364602  |BT| (ROOT (ROOT (SBARQ (WHNP (WDT (what))(NP (NP (JJ (six-foot))(NN (temperance)))(NP (NN (advocate)))))(SQ (VP (VBD (wield))(NP (PRP$ (she))(NN (hatchet)))(PP (IN (on))(NP (NNS (saloon))))))(. (?))))) |ET| 
1  |BT| (ROOT (ROOT (SBARQ (WHNP (WP (what)))(SQ (VBD (be))(NP (NP (DT (the))(NN (name)))(PP (IN (of))(NP (NP (DT (the))(JJ (famous))(NN (battle)))(PP (IN (between))(NP (NNP (texas))(CC (and))(NNP (mexico))))))))(. (?))))) |ET| 
1  |BT| (ROOT (ROOT (SBARQ (WHNP (WP (what)))(SQ (VBD (be))(NP (NP (DT (the))(NN (name)))(PP (IN (of))(NP (NP (NNP (sergeant))(NNP (preston)))(PP (IN (of))(NP (NP (DT (the))(NNP (yukon))(POS ('s)))(NN (lead))(NN (dog))))))))(. (?))))) |ET| 
1  |BT| (ROOT (ROOT (SBARQ (WHNP (WP (what)))(SQ (VBZ (be))(NP (NP (DT (the))(NN (lens)))(PP (IN (behind))(NP (NP (DT (the))(NN (iris)))(PP (IN (in))(NP (DT (the))(NN (eye)))))))(VP (VBN (call))))(. (?))))) |ET| 
-1  |BT| (ROOT (ROOT (SBARQ (WHNP (WP (what)))(SQ (VBD (be))(NP (NP (DT (the))(NN (name)))(PP (IN (of))(NP (NP (DT (the))(NNP (titanic))(POS ('s)))(NN (captain))))))(. (?))))) |ET| 
-1  |BT| (ROOT (ROOT (SBARQ (WHNP (WP (what)))(SQ (VBD (be))(NP (NP (DT (the))(NN (name)))(PP (IN (of))(NP (`` (``))(DT (the))(NNPS (muppets))('' (''))(NN (creator))))))(. (?))))) |ET| 
-1  |BT| (ROOT (ROOT (SBARQ (WHNP (WP (what)))(SQ (VBD (be))(NP (NP (DT (the))(NN (role)))(PP (IN (of))(NP (DT (the))(JJ (medieval))(NN (guild))))))(. (?))))) |ET| 
1  |BT| (ROOT (ROOT (SBARQ (WHNP (WDT (what)))(SQ (VP (VBZ (fossilize))(S (VP (TO (to))(VP (VB (form))(NP (NN (coprolite))))))))(. (?))))) |ET| 
1  |BT| (ROOT (ROOT (SBARQ (WHNP (WDT (what))(NN (tv))(NN (station)))(SQ (VP (VBD (do))(NP (NNP (mary))(NNP (richards))(NN (work)))(PP (IN (for)))))(. (?))))) |ET| 
1  |BT| (ROOT (ROOT (SBARQ (WHNP (WDT (what)))(SQ (VP (VBD (kill))(NP (NNP (bob))(NNP (marley)))))(. (?))))) |ET| 
-1  |BT| (ROOT (ROOT (SBARQ (WHNP (WDT (what))(NN (radio))(NN (station)))(SQ (VP (VBD (do))(NP (NNP (paul))(NNP (harvey))(NN (work)))(PP (IN (for)))))(. (?))))) |ET| 
-0.53949676432816895399469103722367  |BT| (ROOT (ROOT (SBARQ (WHNP (WDT (what))(NN (character)))(SQ (VP (VBZ (narrate))(NP (NNP (treasure))(NNP (island)))))(. (?))))) |ET| 
-1  |BT| (ROOT (ROOT (SBARQ (WHNP (WDT (what))(NN (tv))(NN (character)))(SQ (VP (VBD (sire))(NP (NP (DT (a))(NN (horse)))(VP (VBN (name))(NP (NNP (thunder)))))))(. (?))))) |ET| 
1  |BT| (ROOT (ROOT (SBARQ (WHNP (WP (what)))(SQ (VBD (be))(NP (NP (DT (the))(NN (name)))(PP (IN (of))(NP (NP (NNP (baretta))(POS ('s)))(NN (cockatoo))))))(. (?))))) |ET| 
1  |BT| (ROOT (ROOT (SBARQ (WHNP (WP (what)))(SQ (VBD (be))(NP (NP (DT (the))(NN (name)))(PP (IN (of))(NP (NP (NNP (aristotle))(NNP (onassis))(POS ('s)))(NN (yacht))))))(. (?))))) |ET| 
1  |BT| (ROOT (ROOT (SBARQ (WHNP (WP (what)))(SQ (VBD (be))(NP (NP (DT (the))(NN (name)))(PP (IN (of))(NP (NP (NNP (captain))(NNP (bligh))(POS ('s)))(NN (ship))))))(. (?))))) |ET| 
-1  |BT| (ROOT (ROOT (SBARQ (WHNP (WP (what)))(SQ (VBD (be))(NP (NP (DT (the))(NN (name)))(PP (IN (of))(NP (NP (NNP (darth))(NNP (vader))(POS ('s)))(NN (son))))))(. (?))))) |ET| 
-1  |BT| (ROOT (ROOT (SBARQ (WHNP (WP (what)))(SQ (VBD (be))(NP (NP (DT (the))(NN (name)))(PP (IN (of))(NP (NP (NP (NNP (humphrey))(NNP (bogart))(POS ('s)))(NN (club)))(PP (IN (in))(NP (NNP (casablanca))))))))(. (?))))) |ET| 
-1  |BT| (ROOT (ROOT (SBARQ (WHNP (WP (what)))(SQ (VBP (be))(NP (NP (DT (the))(NNS (name)))(PP (IN (of))(NP (NP (NNP (jacques))(NNP (cousteau))(POS ('s)))(CD (two))(NNS (son))))))(. (?))))) |ET| 
1  |BT| (ROOT (ROOT (SBARQ (WHNP (WDT (what))(NN (line)))(SQ (VP (VBD (divide))(NP (DT (the))(NNP (north))(CC (and))(NNP (south)))(PP (IN (in))(NP (DT (the))(NNP (u.s.))(NNP (civil))(NNP (war))))))(. (?))))) |ET| 
1  |BT| (ROOT (ROOT (SBARQ (WHNP (WDT (what))(NN (scale)))(SQ (VP (VBZ (measure))(NP (NNS (earthquake)))))(. (?))))) |ET| 
1  |BT| (ROOT (ROOT (SBARQ (WHNP (WDT (what))(NN (age)))(SQ (VP (VBD (follow))(NP (DT (the))(NN (bronze))(NN (age)))))(. (?))))) |ET| 
-1  |BT| (ROOT (ROOT (SBARQ (WHNP (WDT (what))(NN (sea)))(SQ (VP (VBZ (separate))(NP (NNP (naples))(CC (and))(NNP (algiers)))))(. (?))))) |ET| 
-0.99025064570963639010159340614337  |BT| (ROOT (ROOT (SBARQ (WHNP (WDT (what))(NN (university)))(SQ (VP (VBD (fire))(NP (NNP (angela))(NNP (davis)))))(. (?))))) |ET| 
-1  |BT| (ROOT (ROOT (SBARQ (WHNP (WDT (what))(NN (sea)))(SQ (VP (VBZ (surround))(NP (DT (the))(NNP (cayman))(NNPS (islands)))))(. (?))))) |ET| 
1  |BT| (ROOT (ROOT (SBARQ (WHNP (WP (what)))(SQ (VBD (be))(NP (NP (DT (the))(NN (name)))(PP (IN (of))(NP (NP (DT (the))(NN (orca)))(SBAR (WHNP (WDT (that)))(S (VP (VBD (die))(PP (IN (of))(NP (DT (a))(JJ (fungal))(NN (infection)))))))))))(. (?))))) |ET| 
1  |BT| (ROOT (ROOT (SBARQ (WHNP (WP (what)))(SQ (VBD (be))(NP (NP (DT (the))(NN (bridge)))(PP (IN (of))(NP (NP (NNP (san))(NNP (luis))(NNP (rey)))(VP (VBD (make))(PP (IN (of))))))))(. (?))))) |ET| 
1  |BT| (ROOT (ROOT (SBARQ (WHNP (WP (what)))(SQ (VBD (be))(NP (NP (DT (the))(NN (name)))(PP (IN (of))(NP (NP (DT (the))(NN (horse)))(SBAR (WHNP (WDT (that)))(S (VP (VBD (fall))(PP (IN (on))(NP (NP (NNP (queen))(NNP (elizabeth)))(, (,))(NP (NP (NNP (prince))(NNP (albert))(POS ('s)))(NN (wife))))))))))))(. (?))))) |ET| 
-1  |BT| (ROOT (ROOT (SBARQ (WHNP (WP (what)))(SQ (VBD (be))(NP (NP (DT (the))(NN (name)))(PP (IN (of))(NP (NP (DT (the))(NN (daughter)))(PP (IN (of))(NP (DT (the))(NNP (virginia))(NN (chief))(NNP (powhatan))))(SBAR (WHNP (WDT (that)))(S (VP (VBD (marry))(NP (NNP (john))(NNP (rolfe))))))))))(. (?))))) |ET| 
-0.89351057371637998549829262628919  |BT| (ROOT (ROOT (SBARQ (WHNP (WP (what)))(SQ (VBZ (be))(NP (NP (DT (the))(JJ (average))(NN (age)))(PP (IN (of))(NP (NP (DT (a))(NN (member)))(PP (IN (of))(NP (NP (DT (the))(NN (team)))(SBAR (WHNP (WDT (that)))(S (VP (VBD (work))(PP (IN (on))(NP (DT (the))(NNP (manhatten))(NNP (project)))))))))))))(. (?))))) |ET| 
-1  |BT| (ROOT (ROOT (SBARQ (WHNP (WP (what)))(SQ (VBZ (be))(NP (NP (DT (the))(JJ (correct))(NN (way)))(S (VP (TO (to))(VP (VB (abbreviate))(NP (NN (cc))))))))(. (.))))(ROOT (FRAG (PP (IN (at))(NP (NP (DT (the))(NN (bottom)))(PP (IN (of))(NP (DT (a))(NN (business))(NN (letter))))))(. (?))))) |ET| 
1  |BT| (ROOT (ROOT (SBARQ (WHNP (WDT (what))(NN (playing))(NN (card)))(SQ (VP (VBZ (symbolize))(NP (NN (death)))))(. (?))))) |ET| 
0.79317430842316771766320471215295  |BT| (ROOT (ROOT (SBARQ (WHNP (WDT (what))(NN (color)))(SQ (VP (VBZ (be))(`` (``))(ADJP (JJ (ash)))('' (''))))(. (?))))) |ET| 
1  |BT| (ROOT (ROOT (SBARQ (WHNP (WDT (what))(NN (novel)))(SQ (VP (VBZ (have))(NP (JJ (big))(NNP (brother)))(VBG (watch))))(. (?))))) |ET| 
-1  |BT| (ROOT (ROOT (SBARQ (WHNP (WDT (what)))(SQ (VP (VBD (make))(S (NP (NNP (jane))(NNP (goodall)))(ADJP (JJ (famous))))))(. (?))))) |ET| 
-1  |BT| (ROOT (ROOT (SBARQ (WHNP (WDT (what))(NN (day)))(SQ (VP (VBZ (be))(NP (NNP (august))(CD (13))(, (,))(CD (1971)))))(. (?))))) |ET| 
-1  |BT| (ROOT (ROOT (SBARQ (WHNP (WDT (what))(NNP (u.s.))(NN (government))(NN (agency)))(SQ (VP (VBZ (register))(NP (NNS (trademark)))))(. (?))))) |ET| 
1  |BT| (ROOT (ROOT (SBARQ (WHNP (WP (what)))(SQ (VBP (be))(NP (NP (DT (some)))(PP (IN (of))(NP (NP (DT (the))(JJ (significant))(JJ (historical))(NNS (event)))(PP (IN (of))(NP (DT (the))(CD (1990s))))))))(. (?))))) |ET| 
1  |BT| (ROOT (ROOT (SBARQ (WHNP (WP (what)))(SQ (VBZ (be))(NP (NP (CD (one)))(PP (IN (of))(NP (NP (DT (the))(NNS (language)))(PP (IN (of))(NP (DT (the))(NNP (sioux))))))))(. (?))))) |ET| 
1  |BT| (ROOT (ROOT (SBARQ (WHNP (WP (what)))(SQ (VBZ (be))(NP (NP (DT (the))(NN (brand))(NN (name)))(PP (IN (of))(NP (DT (the))(NN (chemical))(NNP (daminozide))))))(. (?))))) |ET| 
-0.84455004121043009135405554843601  |BT| (ROOT (ROOT (SBARQ (WHNP (WP (what)))(SQ (VBZ (be))(NP (NP (DT (the))(NN (chemical))(NN (reactivity)))(PP (IN (of))(NP (NN (neon))))))(. (?))))) |ET| 
-1  |BT| (ROOT (ROOT (SBARQ (WHNP (WP (what)))(SQ (VBZ (be))(NP (NP (DT (the))(NN (vdrl))(NN (test)))(PP (IN (of))(NP (NN (blood))))))(. (?))))) |ET| 
1  |BT| (ROOT (ROOT (SBARQ (WHNP (WDT (what))(JJ (famous))(NNS (event)))(SQ (VP (VBP (have))(VP (VBN (happen))(PP (IN (on))(NP (NNP (march))(CD (27)))))))(. (?))))) |ET| 
1  |BT| (ROOT (ROOT (SBARQ (WHNP (WDT (what))(NN (spider)))(SQ (VP (VBZ (make))(NP (NP (DT (a))(ADJP (JJ (superb)))(NN (pet)))(, (,))(SBAR (RB (even))(S (VP (VBD (say))(S (VP (TO (to))(VP (VB (recognize))(NP (PRP$ (its))(NN (master))))))))))))(. (?))))) |ET| 
1  |BT| (ROOT (ROOT (SBARQ (WHNP (WDT (what))(NN (movie)))(SQ (VP (VBD (do))(NP (NNP (madilyn))(NNP (kahn))(NN (star)))(PP (IN (in))(PP (IN (with))(NP (NNP (gene))(NNP (wilder)))))))(. (?))))) |ET| 
-1  |BT| (ROOT (ROOT (SBARQ (SBAR (WHNP (WDT (what)))(FRAG (ADVP (RB (exactly)))))(, (,))(SQ (ADVP (RB (specifically)))(VP (VBZ (do))(S (VP (VB (sleep))(VP (VB (do))(PP (IN (for))(NP (PRP (you)))))))))(. (?))))) |ET| 
-1  |BT| (ROOT (ROOT (FRAG (SBAR (WHNP (WDT (what)))(S (NP (NP (CD (two))(JJ (historical))(NNS (figure)))(, (,))(SBAR (WHNP (WP (who)))(S (VP (VBD (fight))(NP (DT (each))(JJ (other)))(PP (IN (in))(NP (DT (a))(JJ (famous))(NN (battle)))))))(, (,)))(NP (DT (each)))(VP (VBP (have))(NP (NP (DT (a))(NN (food)))(VP (VBN (name))(PP (IN (after))(NP (PRP (they)))))))))(. (?))))) |ET| 
-1  |BT| (ROOT (ROOT (SBARQ (WHNP (WDT (what))(NN (court)))(SQ (VBZ (do))(NP (NNP (bob))(NNP (woodward)))(VP (VBP (describe))(PP (IN (in))(NP (DT (the))(NNS (brethren))))))(. (?))))) |ET| 
1  |BT| (ROOT (ROOT (SBARQ (WHNP (WP (what)))(SQ (VBZ (be))(NP (NP (DT (the))(JJ (main))(NN (ingredient)))(PP (IN (of))(NP (NN (yogurt))))))(. (?))))) |ET| 
1  |BT| (ROOT (ROOT (SBARQ (WHNP (WP (what)))(SQ (VBZ (be))(NP (NP (DT (the))(NN (chemical))(NN (symbol)))(PP (IN (for))(NP (NN (nitrogen))))))(. (?))))) |ET| 
1  |BT| (ROOT (ROOT (SBARQ (WHNP (WP (what)))(SQ (VBZ (be))(NP (NP (DT (the))(JJ (full))(NN (classification)))(PP (IN (of))(NP (DT (a))(NN (lady))(NN (bug))))))(. (?))))) |ET| 
-1  |BT| (ROOT (ROOT (SBARQ (WHNP (WP (what)))(SQ (VBZ (be))(NP (NP (DT (the))(NN (chemical))(NN (reactivity)))(PP (IN (of))(NP (NN (neon))))))(. (?))))) |ET| 
-1  |BT| (ROOT (ROOT (SBARQ (WHNP (WP (what)))(SQ (VBZ (be))(NP (NP (DT (the))(JJ (full))(NN (name)))(PP (IN (of))(NP (DT (the))(NNP (plo))))))(. (?))))) |ET| 
-1  |BT| (ROOT (ROOT (SBARQ (WHNP (WP (what)))(SQ (VBZ (be))(NP (NP (DT (the))(JJ (main))(NN (application)))(PP (IN (of))(NP (NN (sodium))(NN (hydrosulfite))))))(. (?))))) |ET| 
-1  |BT| (ROOT (ROOT (SBARQ (WHNP (WP (what)))(SQ (VBZ (be))(NP (NP (DT (the))(JJ (medical))(NN (condition)))(PP (IN (of))(NP (NN (hypertension))))))(. (?))))) |ET| 
1  |BT| (ROOT (ROOT (SBARQ (WHADVP (WRB (how)))(SQ (VBP (do))(NP (PRP (you)))(VP (VB (say))(VP (`` (``))(VB (eat))(NP (DT (the))(NN (day)))('' (''))(PP (IN (in))(NP (NNP (latin)))))))(. (?))))) |ET| 
1  |BT| (ROOT (ROOT (SBARQ (WHNP (WDT (what))(NN (book)))(SQ (VBZ (do))(NP (NNP (holden))(NNP (caulfield)))(VP (VBP (appear))(PP (IN (in)))))(. (?))))) |ET| 
1  |BT| (ROOT (ROOT (SBARQ (WHPP (IN (in))(WHNP (WDT (what))(NN (religion))))(SQ (VBD (be))(NP (NNP (isis)))(NP (DT (the))(NN (nature))(NN (goddess))))(. (?))))) |ET| 
-1  |BT| (ROOT (ROOT (SBARQ (WHNP (WDT (what))(NN (room)))(SQ (VBD (do))(NP (NNP (w.c.))(NNP (fields)))(VP (VB (keep))(NP (PRP$ (he))(NN (library)))(PP (IN (in)))))(. (?))))) |ET| 
0.31383744112894346178777027489559  |BT| (ROOT (ROOT (SBARQ (WHNP (WDT (what))(NN (sport)))(SQ (VBZ (be))(VP (VBN (play))(PP (IN (on))(NP (DT (the))(JJS (largest))(NN (field))))))(. (?))))) |ET| 
-0.33184745934814197099171906302217  |BT| (ROOT (ROOT (SBARQ (WHNP (WDT (what))(NN (century)))(SQ (VBZ (do))(NP (NNP (captain))(NNP (video)))(VP (VB (live))(PP (IN (in)))))(. (?))))) |ET| 
1  |BT| (ROOT (ROOT (SBARQ (WHNP (WP (what)))(SQ (VBZ (be))(NP (NP (DT (the))(JJ (former))(NN (name)))(PP (IN (of))(NP (NNP (zimbabwe))))))(. (?))))) |ET| 
1  |BT| (ROOT (ROOT (SBARQ (WHNP (WP (what)))(SQ (VBZ (be))(NP (NP (DT (the))(JJ (best-selling))(NN (book)))(PP (IN (of))(NP (DT (all))(NN (time))))))(. (?))))) |ET| 
1  |BT| (ROOT (ROOT (SBARQ (WHNP (WP (what)))(SQ (VBZ (be))(NP (NP (DT (the))(NN (name)))(PP (IN (of))(NP (NP (NNP (jacques))(NNP (cousteau))(POS ('s)))(NN (research))(NN (ship))))))(. (?))))) |ET| 
-1  |BT| (ROOT (ROOT (SBARQ (WHNP (WP (what)))(SQ (VBZ (be))(NP (NP (DT (the))(NN (name)))(PP (IN (of))(NP (DT (a))(JJ (greek))(NN (god))))))(. (?))))) |ET| 
-0.38307462718122753386751355719753  |BT| (ROOT (ROOT (SBARQ (WHNP (WDT (what))(JJ (sprawling))(NNP (u.s.))(NN (state)))(SQ (VP (VBZ (boast))(NP (NP (DT (the))(RBS (most)))(NP (NNS (airport))))))(. (?))))) |ET| 
-0.26144521671539588947297261256608  |BT| (ROOT (ROOT (SBARQ (WHNP (WHNP (WRB (how))(RB (long)))(PP (IN (after))(NP (NN (intercourse)))))(SQ (VBZ (do))(NP (PRP (it)))(VP (VB (take))(S (VP (TO (to))(VP (VB (find))(PRT (RP (out)))(SBAR (IN (if))(S (NP (PRP (you)))(VP (VBP (be))(ADJP (JJ (pregnant)))))))))))(. (?))))) |ET| 
1  |BT| (ROOT (ROOT (SBARQ (WHNP (WDT (what))(NN (novel)))(SQ (VBD (do))(NP (NNP (ian))(NNP (fleming)))(VP (VB (introduce))(NP (NNP (james))(NNP (bond)))(PP (IN (in)))))(. (?))))) |ET| 
1  |BT| (ROOT (ROOT (SBARQ (WHNP (WDT (what))(NN (movie)))(SQ (VBD (do))(NP (NNP (steven))(NNP (spielberg)))(VP (VB (direct))(PP (IN (in))(NP (CD (1975))))))(. (?))))) |ET| 
1  |BT| (ROOT (ROOT (SBARQ (WHNP (WDT (what))(NN (war)))(SQ (VBD (do))(NP (NNP (florence))(NNP (nightingale)))(VP (VB (tend))(NP (DT (the))(NNS (troops)))(PP (IN (in)))))(. (?))))) |ET| 
-1  |BT| (ROOT (ROOT (SBARQ (WHNP (WDT (what))(NN (count)))(SQ (VBD (do))(NP (NNP (alexandre))(NNP (dumas)))(VP (VB (write))(PP (IN (about)))))(. (?))))) |ET| 
-0.22976930614001611630214938486461  |BT| (ROOT (ROOT (SBARQ (WHNP (WDT (what))(NN (year)))(SQ (VBD (do))(NP (NNP (hitler)))(VP (VB (die))))(. (?))))) |ET| 
-1  |BT| (ROOT (ROOT (SBARQ (WHNP (WDT (what))(NN (planet)))(SQ (VBD (do))(NP (NNP (percival))(NNP (lovell)))(VP (VB (discover))))(. (?))))) |ET| 
1  |BT| (ROOT (ROOT (SBARQ (WHNP (WP (what)))(SQ (VBZ (be))(NP (NP (DT (the))(NN (name)))(PP (IN (of))(NP (NP (DT (the))(JJ (medical))(NN (condition)))(SBAR (WHPP (IN (in))(WHNP (WDT (which))))(S (NP (DT (a))(NN (baby)))(VP (VBZ (be))(VP (VBN (bear))(PP (IN (without))(NP (DT (a))(NN (brain))))))))))))(. (?))))) |ET| 
1  |BT| (ROOT (ROOT (SBARQ (WHNP (WP (what)))(SQ (VBZ (be))(NP (NP (DT (the))(NN (name)))(PP (IN (of))(NP (NP (DT (the))(NNP (michelangelo))(NN (painting)))(SBAR (WHNP (WDT (that)))(S (VP (VBZ (show))(NP (CD (two))(NNS (hand)))(PP (IN (with))(NP (NP (NNS (finger)))(VP (VBG (touch))))))))))))(. (?))))) |ET| 
1  |BT| (ROOT (ROOT (SBARQ (WHNP (WP (what)))(SQ (VBZ (be))(NP (NP (DT (the))(NN (name)))(PP (IN (of))(NP (NP (DT (the))(JJ (american))(JJ (literary))(NN (era)))(SBAR (WHNP (WDT (that)))(S (VP (VBZ (include))(NP (CD (1896))))))))))(. (?))))) |ET| 
-1  |BT| (ROOT (ROOT (SBARQ (WHNP (WP (what)))(SQ (VBZ (be))(NP (NP (DT (the))(VBN (recommend))(NN (weight)))(PP (IN (of))(NP (NP (DT (a))(ADJP (CD (15))(JJ (year-old))(NN (male))))(SBAR (WHNP (WDT (that)))(S (VP (VBZ (be))(NP (NP (CD (5)))(, (,))(NP (CD (6)))))))))))(. (?))))) |ET| 
-1  |BT| (ROOT (ROOT (S (NP (NP (DT (the))(NN (name)))(PP (IN (of))(NP (NP (DT (the))(NN (actor)))(SBAR (WHNP (WP (who)))(S (VP (VBD (play))(NP (DT (the))(NN (detective)))(PP (IN (in))(NP (DT (the))(NN (film))(NNP (kindergarden))(NNP (cop))))))))))(VP (VBZ (be))(WHNP (WP (what))))(. (?))))) |ET| 
-0.80745881108829609118515691079665  |BT| (ROOT (ROOT (SBARQ (WHNP (WP (what)))(SQ (VBP (be))(NP (NP (DT (the))(CD (five))(ADJP (RBS (most))(JJ (expensive)))(NNS (city)))(PP (IN (in))(NP (DT (the))(NN (world))))))(. (?))))) |ET| 
1  |BT| (ROOT (ROOT (SBARQ (WHNP (WDT (what))(NN (horse)))(SQ (VBD (do))(NP (NNP (zorro)))(VP (VB (ride))))(. (?))))) |ET| 
-0.32545077653436238485085141292075  |BT| (ROOT (ROOT (SQ (VP (VB (name))(NP (NP (DT (the))(NN (poet)))(PP (IN (of))(NP (NP (DT (the))(NN (poem)))(SBAR (WHNP (WDT (which)))(S (VP (VP (VBZ (begin))(: (:))(S (S (NP (PRP (i)))(VP (VBP (do))(RB (not))(VP (VB (know))(ADJP (JJ (much)))(PP (IN (about))(NP (NNS (god)))))))(: (;))(CC (but))(S (NP (PRP (i)))(VP (VBP (think))(SBAR (IN (that))(S (NP (DT (the))(NN (river)))(VP (VBZ (be))(NP (DT (a))(JJ (strong))(JJ (brown))(NN (god-sullen))))))))))(, (,))(CC (and))(VP (VBZ (untame))))))))))(. (?))))) |ET| 
1  |BT| (ROOT (ROOT (SBARQ (WHNP (WDT (what))(NN (instrument)))(SQ (VBZ (do))(NP (NNP (benny))(NNP (carter)))(VP (VB (play))))(. (?))))) |ET| 
-1  |BT| (ROOT (ROOT (SBARQ (WHNP (WDT (what))(NN (age)))(SQ (VBZ (be))(NP (NNP (benny))(NNP (carter))))(. (?))))) |ET| 
-0.3048215828269019711527221261349  |BT| (ROOT (ROOT (SBARQ (WHNP (WHNP (WDT (what))(NN (country)))(PP (IN (in))(NP (CD (1998)))))(SQ (VP (VBD (have))(NP (DT (the))(JJS (most))(NNS (suicide)))(ADVP (RB (regardless))(PP (IN (of))(NP (NN (population))(NN (size)))))))(. (?))))) |ET| 
-0.63735973151528169111657007306349  |BT| (ROOT (ROOT (SBARQ (WHNP (WDT (what))(NN (college)))(SQ (VBD (do))(NP (NNP (joe))(NNP (namath)))(VP (VB (play))(NP (NN (football)))(PP (IN (for)))))(. (?))))) |ET| 
1  |BT| (ROOT (ROOT (SBARQ (WHNP (WP (what)))(SQ (VP (VBZ (be))(NP (NP (DT (the))(NNP (scotch)))(`` (``))(PP (IN (for))(NP (NP (NNS (people)))(SBAR (WHNP (WP (who)))(S (VP (VBP (know))(NP (DT (the))(NN (difference))('' ('')))))))))))(. (?))))) |ET| 
1  |BT| (ROOT (ROOT (SBARQ (WHNP (WP (what)))(SQ (VBD (be))(NP (NP (DT (the))(NN (food)))(PP (IN (of))(NP (DT (the))(JJ (greek))(NNS (god)))))(VP (VBN (call))))(. (?))))) |ET| 
1  |BT| (ROOT (ROOT (SBARQ (PP (IN (in))(NP (DT (the))(NNP (miller))(NNP (lite))(NN (tv))(NN (commercial))))(, (,))(WHNP (WP (who)))(SQ (VBZ (be))(NP (DT (the))(NN (creature))))(. (?))))) |ET| 
-0.70401597942795346440902903850656  |BT| (ROOT (ROOT (SBARQ (WHNP (WP (what)))(SQ (VBD (be))(NP (NP (DT (the))(JJ (only))(NN (country)))(SBAR (S (NP (PRP (you)))(VP (VBD (be))(VP (VBN (allow))(S (VP (TO (to))(VP (VB (drive))(PP (IN (into))(NP (NNP (israel))))(PP (IN (from))(PP (IN (in))(NP (CD (1979))))))))))))))(. (?))))) |ET| 
-1  |BT| (ROOT (ROOT (SBARQ (WHNP (WP (what)))(SQ (VP (VBD (happen))(PP (IN (in))(NP (NNP (dogtown))))(PP (IN (in))(NP (CD (1899))))(S (VP (TO (to))(VP (VB (make))(NP (NP (DT (that))(NN (year)))(VP (VBN (remember)))))))))(. (?))))) |ET| 
-1  |BT| (ROOT (ROOT (SBARQ (WHNP (WP (what)))(SQ (VBP (be))(NP (NP (DT (the))(NNS (limit)))(S (VP (TO (to))(`` (``))(VP (VB (self-defense)))))))(. (?))('' (''))))) |ET| 
1  |BT| (ROOT (ROOT (SBARQ (WHNP (WHNP (WDT (what))(NN (kind)))(PP (IN (of))(NP (NN (science)))))(SQ (VBZ (be))(NP (NN (cosmology))))(. (?))))) |ET| 
1  |BT| (ROOT (ROOT (SBARQ (WHNP (WDT (what))(NN (film)))(SQ (VBD (do))(NP (NNP (lee))(NNP (marvin)))(VP (VB (win))(NP (DT (the))(CD (1965))(JJS (best))(NN (actor))(NNP (oscar)))(PP (IN (for)))))(. (?))))) |ET| 
1  |BT| (ROOT (ROOT (SBARQ (WHNP (WDT (what))(NN (race)))(SQ (VBZ (be))(NP (NP (CD (1))(, (,))(CD (137))(NNS (mile)))(ADVP (RB (long)))))(. (?))))) |ET| 
-1  |BT| (ROOT (ROOT (SBARQ (WHNP (WHNP (WDT (what))(NN (percentage)))(PP (IN (of))(NP (DT (the))(NN (body)))))(SQ (VBZ (be))(NP (NN (muscle))))(. (?))))) |ET| 
-1  |BT| (ROOT (ROOT (SBARQ (WHNP (WHNP (WDT (what))(NN (kind)))(PP (IN (of))(NP (NN (business)))))(SQ (VBZ (be))(NP (NNP (7-eleven))))(. (?))))) |ET| 
-1  |BT| (ROOT (ROOT (SBARQ (WHNP (WHNP (WDT (what))(NN (kind)))(PP (IN (of))(NP (NN (company)))))(SQ (VBZ (be))(NP (NNP (7-eleven))))(. (?))))) |ET| 
1  |BT| (ROOT (ROOT (SBARQ (WHNP (WDT (what))(NN (device)))(SQ (VP (VBD (provide))(NP (DT (a))(JJ (new))(NN (way)))(S (VP (TO (to))(VP (VB (listen))(PP (TO (to))(NP (NP (NN (music)))(PP (IN (in))(NP (CD (1963)))))))))))(. (?))))) |ET| 
1  |BT| (ROOT (ROOT (SBARQ (WHNP (WP (what)))(SQ (VBP (be))(NP (NP (DT (some))(JJ (good))(NNS (exercise)))(PP (IN (for))(NP (NNS (kid))(S (VP (TO (to))(VP (VB (do)))))))))(. (?))))) |ET| 
1  |BT| (ROOT (ROOT (SBARQ (WHNP (WP (what)))(SQ (VBP (be))(NP (NP (DT (the))(JJS (best))(NNS (way)))(S (VP (TO (to))(VP (VB (improve))(NP (NN (employee))(NN (morale)))(PP (IN (at))(NP (JJ (low))(NN (cost)))))))))(. (?))))) |ET| 
-1  |BT| (ROOT (ROOT (SBARQ (WHNP (WP (what)))(SQ (VBP (do))(NP (PRP (i)))(VP (VB (need))(S (VP (TO (to))(VP (VB (learn))(S (VP (TO (to))(VP (VB (design))(NP (NN (web))(NNS (page)))))))))))(. (?))))) |ET| 
-1  |BT| (ROOT (ROOT (SBARQ (WHNP (WP (what)))(SQ (VBZ (do))(NP (NNP (choo))(NNP (choo))(NNP (charlie)))(VP (VB (say))))(. (?))))) |ET| 
-1  |BT| (ROOT (ROOT (SBARQ (WHNP (WP (what)))(SQ (VBZ (do))(NP (NNP (freddy))(NNP (freeman)))(VP (VBP (say))(S (VP (TO (to))(VP (VB (become))(NP (NNP (captain))(NNP (marvel))(NNP (jr.))))))))(. (?))))) |ET| 
1  |BT| (ROOT (ROOT (SBARQ (WHNP (WHNP (WDT (what))(NN (kind)))(PP (IN (of))(NP (NN (wine)))))(SQ (VBZ (be))(NP (NNP (spumante))))(. (?))))) |ET| 
0.97415092826586158203383547515841  |BT| (ROOT (ROOT (SBARQ (WHNP (WHNP (WDT (what))(NN (type)))(PP (IN (of))(NP (NN (animal)))))(SQ (VBZ (be))(NP (NP (DT (the))(JJS (easiest)))(SBAR (S (VP (VBD (keep))(NP (NP (NN (pet)))(SBAR (S (NP (EX (there)))(VP (VBZ (be)))))))))))(. (?))))) |ET| 
0.35676963968015240613596006369335  |BT| (ROOT (ROOT (SBARQ (WHNP (WHNP (WDT (what))(NN (kind)))(PP (IN (of))(NP (NN (creature)))))(SQ (VBZ (be))(NP (DT (a))(NN (coot))))(. (?))))) |ET| 
-1  |BT| (ROOT (ROOT (SBARQ (WHNP (WHNP (WDT (what))(NN (kind)))(PP (IN (of))(NP (NN (organization)))))(SQ (VBZ (be))(NP (NP (`` (`))(JJ (last))(NN (chance)))(PP (IN (for))(NP (NNS (animal))(POS ('))))))(. (?))))) |ET| 
-1  |BT| (ROOT (ROOT (SBARQ (WHNP (WHNP (WDT (what))(NN (kind)))(PP (IN (of))(NP (NNS (woman)))))(SQ (VP (VBD (give))(NP (NNP (sigmund))(NNP (freud)))(NP (JJ (erotic))(NNS (dream)))))(. (?))))) |ET| 
-1  |BT| (ROOT (ROOT (SBARQ (WHNP (WHNP (WDT (which)))(PP (IN (of))(NP (DT (the))(VBG (follow))(NNS (people)))))(SQ (VP (VBZ (be))(RB (not))(VP (VBN (associate))(PP (IN (with))(NP (NNP (andy))(NNP (warhol)))))))(. (?))))) |ET| 
1  |BT| (ROOT (ROOT (SBARQ (WHNP (WP (what)))(SQ (VBZ (do))(NP (PRP (it)))(VP (VB (take))(S (VP (TO (to))(VP (VB (become))(NP (DT (a))(NN (lawyer))))))))(. (?))))) |ET| 
1  |BT| (ROOT (ROOT (SBARQ (WHNP (WP (what)))(SQ (VBZ (do))(NP (PRP (it)))(VP (VB (take))(S (VP (TO (to))(VP (VB (be))(NP (DT (a))(NN (hero))))))))(. (?))))) |ET| 
1  |BT| (ROOT (ROOT (SBARQ (WHNP (WP (what)))(SQ (VBZ (do))(NP (DT (the))(NNP (peugeot))(NN (company)))(VP (VB (manufacture))))(. (?))))) |ET| 
-1  |BT| (ROOT (ROOT (SBARQ (WHNP (WP (what)))(SQ (VBZ (do))(NP (DT (a))(NN (emperor)))(VP (VB (do))))(. (?))))) |ET| 
-0.031984177620088330429304335211782  |BT| (ROOT (ROOT (SBARQ (WHNP (WHNP (WDT (which)))(PP (IN (of))(NP (DT (the))(VBG (follow)))))(SQ (VP (VBD (do))(RB (not))(VP (VB (receive))(NP (DT (a))(CD (1983))(`` (``))(JJ (outstanding))(NN (mother))(NN (award))('' ('')))(PP (IN (from))(NP (NP (DT (the))(NNP (national))(NNP (mother))(POS ('s)))(NNP (day))(NNP (committee)))))))(. (?))))) |ET| 
-1  |BT| (ROOT (ROOT (SBARQ (WHNP (WDT (what))(NN (function)))(SQ (VBZ (do))(NP (NP (DT (a))(NN (community))(POS ('s)))(NN (water))(NN (tower)))(VP (VB (serve))))(. (?))))) |ET| 
1  |BT| (ROOT (ROOT (SBARQ (WHNP (WHNP (WDT (which)))(PP (IN (of))(NP (DT (the))(CD (five))(NNS (sens)))))(SQ (VP (VBZ (develop))(ADVP (RB (first)))))(. (?))))) |ET| 
1  |BT| (ROOT (ROOT (SBARQ (WHNP (WHNP (WDT (which))(NN (type)))(PP (IN (of))(NP (NN (soda)))))(SQ (VP (VBZ (have))(NP (NP (DT (the))(JJS (greatest))(NN (amount)))(PP (IN (of))(NP (NN (caffeine)))))))(. (?))))) |ET| 
1  |BT| (ROOT (ROOT (SBARQ (WHNP (WDT (what))(NP (NP (NNP (george))(NNP (harrison)))(NP (NN (tune)))))(SQ (VP (VBD (sound))(ADVP (RB (too))(RB (much)))(SBAR (IN (like))(S (NP (PRP (he)))(VP (VBZ (be))(ADJP (RB (so))(JJ (fine))(PP (IN (by))(NP (DT (the))(NNPS (chiffons))))))))))(. (?))))) |ET| 
-1  |BT| (ROOT (ROOT (SBARQ (WHNP (WHNP (WDT (which)))(PP (IN (of))(NP (DT (the))(CD (seven))(NN (dwarfs)))))(SQ (VP (VBZ (come))(PP (RB (first))(ADVP (RB (alphabetically))))))(. (?))))) |ET| 
-1  |BT| (ROOT (ROOT (SBARQ (WHNP (WHNP (WDT (what))(NNS (feature)))(PP (IN (of))(NP (DT (the))(JJ (african))(NN (elephant)))))(SQ (VBP (be))(NP (NP (JJR (larger)))(PP (IN (than))(NP (NP (DT (those)))(PP (IN (of))(NP (DT (the))(JJ (indian))(NN (elephant))))))))(. (?))))) |ET| 
-0.80626067031321513312036586285103  |BT| (ROOT (ROOT (SBARQ (WHNP (WHNP (WDT (what))(NN (chapter)))(PP (IN (of))(NP (DT (the))(NNP (bible)))))(SQ (VP (VBZ (have))(ADVP (DT (the))(RBS (most)))(NP (NNS (verse)))))(. (?))))) |ET| 
1  |BT| (ROOT (ROOT (SBARQ (WHNP (WP (what)))(SQ (VBZ (do))(NP (DT (a))(NN (woman)))(VP (VB (want))))(. (?))))) |ET| 
1  |BT| (ROOT (ROOT (SBARQ (WHNP (WP (what)))(SQ (VBZ (do))(NP (DT (a))(NN (spermologer)))(VP (VB (collect))))(. (?))))) |ET| 
1  |BT| (ROOT (ROOT (SBARQ (WHNP (WP (what)))(SQ (VBZ (do))(NP (DT (a))(NN (philatelist)))(VP (VB (collect))))(. (?))))) |ET| 
-0.30788595196868673298240537405945  |BT| (ROOT (ROOT (SBARQ (WHNP (WP (what)))(SQ (VBZ (do))(NP (NN (ouija)))(VP (VB (mean))))(. (?))))) |ET| 
-0.30788595196868850933924477430992  |BT| (ROOT (ROOT (SBARQ (WHNP (WP (what)))(SQ (VBZ (do))(NP (NN (seccession)))(VP (VB (mean))))(. (?))))) |ET| 
0.36255452294289880477151655213675  |BT| (ROOT (ROOT (SBARQ (WHNP (WP (what)))(SQ (VBZ (be))(NP (DT (a))(JJ (female))(NN (rabbit)))(VP (VBN (call))))(. (?))))) |ET| 
1  |BT| (ROOT (ROOT (SBARQ (WHNP (WHNP (WDT (what))(NN (mammal)))(PP (IN (of))(NP (NNP (north))(NNP (america)))))(SQ (VBZ (be))(NP (NP (NP (DT (the))(NN (world))(POS ('s)))(JJ (longest-lived)))(PP (IN (for))(NP (PRP$ (its))(NN (size))))))(. (?))))) |ET| 
0.38643375765774257146745185309555  |BT| (ROOT (ROOT (SBARQ (WHNP (WP (what)))(SQ (VBZ (be))(ADVP (RB (widely)))(VP (VBN (use))(S (VP (TO (to))(VP (VB (detect))(NP (JJ (prenatal))(NN (birth))(NNS (defect))))))))(. (?))))) |ET| 
0.6211556468523731222575179344858  |BT| (ROOT (ROOT (SBARQ (WHNP (WHNP (WDT (what))(NN (kind)))(PP (IN (of))(NP (NNS (creature)))))(SQ (VBP (be))(NP (DT (the))(NNP (canary))(NNP (islands)))(VP (VBN (name))(PP (IN (for)))))(. (?))))) |ET| 
-1  |BT| (ROOT (ROOT (SBARQ (WHNP (WP (what)))(SQ (VBZ (be))(NP (NP (DT (the))(NN (amount)))(PP (IN (of))(NP (NN (money)))))(VP (VBN (owe))(PP (IN (for))(S (ADVP (RB (illegally)))(VP (VBG (have))(NP (NP (DT (a))(NN (dog)))(PP (IN (on))(NP (DT (a))(NN (beach))))))))))(. (?))))) |ET| 
-0.73798805746164675145593037086655  |BT| (ROOT (ROOT (SBARQ (WHNP (WP (what)))(SQ (VBZ (be))(NP (NP (DT (the))(NN (fine)))(PP (IN (for))(S (VP (VBG (have))(NP (NP (DT (a))(NN (dog)))(PP (IN (on))(NP (DT (a))(NN (beach))))))))))(. (?))))) |ET| 
-1  |BT| (ROOT (ROOT (SBARQ (WHNP (WDT (what)))(SQ (MD (can))(NP (PRP (you)))(VP (VB (be))(VP (VBN (fine))(PP (IN (for))(S (VP (VBG (have))(NP (NP (DT (a))(NN (dog)))(PP (IN (on))(NP (DT (a))(NN (beach)))))))))))(. (?))))) |ET| 
1  |BT| (ROOT (ROOT (SBARQ (WHNP (WP (what)))(SQ (VBZ (do))(NP (NNP (knight))(NNP (ridder)))(VP (VB (publish))))(. (?))))) |ET| 
1  |BT| (ROOT (ROOT (SBARQ (WHNP (WP (what)))(SQ (VBZ (do))(NP (NNP (visine)))(VP (VB (get))(PRT (RP (out)))))(. (?))))) |ET| 
1  |BT| (ROOT (ROOT (SBARQ (WHNP (WP (what)))(SQ (VBZ (do))(NP (NNP (ribavirin)))(VP (VB (consist))(PP (IN (of)))))(. (?))))) |ET| 
0.52530702487456826244027752181864  |BT| (ROOT (ROOT (S (VP (VB (name))(NP (NP (DT (the))(NN (product)))(SBAR (WHNP (WDT (that)))(S (VP (VBZ (be))(`` (``))(PP (IN (at))(NP (NP (PRP$ (you)))(NP (NN (grocer))(POS ('s)))))(, (,))(PP (IN (at))(NP (PRP$ (you))(NNS (fingertip)))))))))(. (.))('' (''))))) |ET| 
-0.45652860542967294010807677295816  |BT| (ROOT (ROOT (SBARQ (WHNP (WDT (what))(JJ (19th-century))(NN (painter)))(SQ (VP (VBD (die))(PP (IN (in))(NP (DT (the))(NNP (marquesas))(NNPS (islands))))))(. (?))))) |ET| 
-0.38438026065339669923304199983249  |BT| (ROOT (ROOT (SBARQ (WHNP (WP (what)))(SQ (VBP (be))(NP (NNS (dingo))))(. (?))))) |ET| 
1  |BT| (ROOT (ROOT (SBARQ (WHNP (WDT (what)))(SQ (VP (VBD (develop))(NP (NP (DT (a))(NN (crack)))(PP (IN (in))(NP (NNP (1835)))))(PP (IN (while))(S (VP (VBG (toll))(NP (NP (DT (the))(NN (death)))(PP (IN (of))(NP (NNP (u.s.))(NNP (chief))(NNP (justice))(NNP (john))(NNP (marshall))))))))))(. (?))))) |ET| 
0.41709211886326102991517927875975  |BT| (ROOT (ROOT (SQ (VP (VB (name))(NP (NP (DT (a))(NN (technique)))(VP (ADVP (RB (widely)))(VBN (use))(S (VP (TO (to))(VP (VB (detect))(NP (NN (birth))(NNS (defect)))))))))(. (?))))) |ET| 
0.950591666167231119644043246808  |BT| (ROOT (ROOT (SQ (VP (VB (name))(NP (NP (DT (a))(NN (medicine)))(VP (ADVP (RB (commonly)))(VBN (use))(S (VP (TO (to))(VP (VB (combat))(NP (NN (aids)))))))))(. (?))))) |ET| 
-1  |BT| (ROOT (ROOT (SBARQ (WHNP (WDT (what))(NN (building)))(SQ (VP (VBD (build))(PP (IN (in))(NP (NP (CD (18)))(SBAR (S (VP (VBZ (contain))(NP (NP (CD (327))(NNS (mile)))(PP (IN (of))(NP (NN (book))(NNS (shelf))))))))))))(. (?))))) |ET| 
-0.73133423459690738432925627421355  |BT| (ROOT (ROOT (SBARQ (WHPP (IN (in))(WHNP (WHNP (WDT (what))(NN (area)))(PP (IN (of))(NP (DT (the))(NN (world))))))(SQ (VBD (be))(NP (DT (the))(CD (six))(NNP (day))(NNP (war)))(VP (VBN (fight))))(. (?))))) |ET| 
-1  |BT| (ROOT (ROOT (SBARQ (WHNP (WDT (what)))(SQ (VP (VBD (prompt))(NP (NP (DT (the))(NNS (co-pilot)))(PP (IN (of))(NP (DT (the))(JJ (enola))(NNS (gay)))))(S (VP (TO (to))(VP (VB (enter))(ADVP (RB (only)))(NP (`` (``))(NP (PRP$ (my))(NNP (god)))('' (''))(PP (IN (in))(NP (PRP$ (he))(NN (log))))))))))(. (?))))) |ET| 
1  |BT| (ROOT (ROOT (SBARQ (WHNP (WDT (which))(JJ (soft))(NN (drink)))(SQ (VBZ (do))(NP (NNP (madonna)))(VP (VB (advertise))(PP (IN (for)))))(. (?))))) |ET| 
1  |BT| (ROOT (ROOT (SBARQ (WHNP (WP (what)))(SQ (VBP (do))(NP (NNS (peacock)))(VP (VB (mate))(PP (IN (with)))))(. (?))))) |ET| 
1  |BT| (ROOT (ROOT (SBARQ (WHNP (WP (what)))(SQ (VBZ (do))(NP (NP (DT (the))(NNP (statue)))(PP (IN (of))(NP (NNP (liberty)))))(VP (VB (wear))(PP (IN (on))(NP (PRP$ (she))(NNS (foot))))))(. (?))))) |ET| 
-1  |BT| (ROOT (ROOT (SBARQ (WHNP (WP (what)))(SQ (VBZ (do))(NP (DT (a))(NN (echidna)))(VP (VB (look))(PP (IN (like)))))(. (?))))) |ET| 
-0.052156616092283232533066694713852  |BT| (ROOT (ROOT (SBARQ (WHNP (WHNP (WDT (what))(NN (company))(POS ('s)))(NN (logo)))(SQ (VBZ (be))(NP (NP (DT (a))(`` (``))(NN (w))('' ('')))(PP (IN (in))(NP (DT (a))(NN (circle))))))(. (?))))) |ET| 
-1  |BT| (ROOT (ROOT (SBARQ (WHNP (WP (what)))(SQ (VBP (do))(NP (NNS (economist)))(VP (VB (do))))(. (?))))) |ET| 
1  |BT| (ROOT (ROOT (SBARQ (WHNP (WDT (what)))(SQ (VP (VBZ (dangle))(PP (IN (over))(NP (NP (DT (the))(NN (tongue)))(PP (IN (from))(NP (DT (the))(NN (palate))))))))(. (?))))) |ET| 
1  |BT| (ROOT (ROOT (SBARQ (WHNP (WDT (what))(NN (phenomenon)))(SQ (MD (would))(NP (PRP (you)))(VP (VB (expect))(S (VP (TO (to))(VP (VB (read))(ADVP (RB (about))(PP (IN (in))(NP (DT (the))(JJ (monthly))(NN (publication)))))(NP (DT (the))(NNP (bigfoot))(NNP (news))))))))(. (?))))) |ET| 
1  |BT| (ROOT (ROOT (SBARQ (WHNP (WDT (what)))(SQ (VP (VBZ (determine))(NP (NP (DT (the))(NN (value)))(PP (IN (of))(NP (DT (the))(NN (pearl)))))))(. (?))))) |ET| 
-0.53032317761553016133291293954244  |BT| (ROOT (ROOT (SBARQ (WHNP (WDT (what))(NP (JJ (democratic))(NN (prankster))))(SQ (VP (VBD (wave))(NP (DT (the))(NN (train)))(ADVP (IN (out))(PP (IN (of))(NP (DT (the))(NN (station)))))(SBAR (IN (while))(S (NP (NNP (richard))(NNP (nixon)))(VP (VBD (speak))(PP (IN (from))(NP (DT (the))(NN (caboose)))))))))(. (?))))) |ET| 
-0.041460883338706192025036045833986  |BT| (ROOT (ROOT (SBARQ (WHNP (WDT (what))(NN (comedian)))(SQ (VBD (be))(NP (DT (the))(NNP (perfect))(NNP (fool))))(. (?))))) |ET| 
-0.52914128956988404350880728088669  |BT| (ROOT (ROOT (SBARQ (WHNP (WDT (what))(NN (detective)))(SQ (VP (VP (VBZ (live))(PP (IN (on))(NP (NNP (punchbowl))(NNP (hill)))))(CC (and))(VP (VBZ (have))(NP (CD (11))(NNS (child))))))(. (?))))) |ET| 
1  |BT| (ROOT (ROOT (SBARQ (WHNP (WP (what)))(SQ (VBP (do))(NP (NN (river))(NNS (otter)))(VP (VB (eat))))(. (?))))) |ET| 
1  |BT| (ROOT (ROOT (SBARQ (WHNP (WP (what)))(SQ (VBP (do))(NP (NN (goldfish)))(VP (VBP (lose))(SBAR (IN (if))(S (S (VP (VBN (keep))(PP (IN (in))(NP (NN (dimly-lit))))))(CC (or))(S (VP (VBG (run))(NP (NN (water)))))))))(. (?))))) |ET| 
1  |BT| (ROOT (ROOT (SBARQ (WHNP (WP (what)))(SQ (VBZ (do))(NP (DT (a))(JJ (resurrectionist)))(VP (VB (steal))))(. (?))))) |ET| 
-1  |BT| (ROOT (ROOT (SBARQ (WHNP (WP (what)))(SQ (VBP (do))(NP (NNPS (mormons)))(VP (VB (believe))))(. (?))))) |ET| 
-0.77526243693321905681159478262998  |BT| (ROOT (ROOT (SBARQ (WHNP (WP (what)))(SQ (VBP (be))(NP (NNS (value))))(. (?))))) |ET| 
-1  |BT| (ROOT (ROOT (SBARQ (WHNP (WP (what)))(SQ (VBZ (be))(NP (DT (a))(JJ (chinese)))(VP (`` (``))(VBG (spout))('' (''))(NP (NN (bowl)))))(. (?))))) |ET| 
1  |BT| (ROOT (ROOT (S (NP (DT (the))(NN (corpus))(NN (callosum)))(VP (VBZ (be))(PP (IN (in))(NP (NP (WP (what))(NN (part)))(PP (IN (of))(NP (DT (the))(NN (body)))))))(. (?))))) |ET| 
1  |BT| (ROOT (ROOT (SBARQ (WHNP (WP (what)))(SQ (VBD (be))(ADVP (RB (originally)))(VP (VBN (define))(PP (IN (as))(NP (NP (CD (one))(NN (1-millionth)))(PP (IN (of))(NP (DT (the))(NN (distance))))))(PP (IN (from))(NP (DT (the))(NN (equator))))(PP (TO (to))(NP (DT (the))(NNP (pole))))))(. (?))))) |ET| 
1  |BT| (ROOT (ROOT (SBARQ (WHNP (WP (what)))(SQ (VP (VBD (do))(NP (NP (NNP (esquire))(NN (name))(NNP (ash))(NNP (hole)))(PP (IN (of))(NP (NP (DT (the))(NN (year)))(PP (IN (for))(NP (CD (1980)))))))))(. (?))))) |ET| 
-1  |BT| (ROOT (ROOT (SBARQ (WHNP (WDT (what))(NN (part)))(SQ (VBD (do))(NP (NNP (john))(NNP (peter))(NNP (zenger)))(VP (VB (play))(PP (IN (in))(NP (NP (DT (the))(NN (deveopment)))(PP (IN (of))(NP (NP (DT (the))(NN (newspaper)))(PP (IN (in))(NP (NNP (america))))))))))(. (?))))) |ET| 
-0.95129798037809742972115145676071  |BT| (ROOT (ROOT (SBARQ (WHNP (WDT (what))(NN (part)))(SQ (VBD (do))(NP (NNP (benjamin))(NNP (franklin)))(VP (VB (play))(PP (IN (in))(NP (NP (DT (the))(NN (development)))(PP (IN (of))(NP (NP (DT (the))(NN (newspaper)))(PP (IN (in))(NP (NNP (america))))))))))(. (?))))) |ET| 
-0.38538026978483386209006766875973  |BT| (ROOT (ROOT (SQ (VP (VB (name))(PP (IN (of))(NP (NP (DT (the))(JJ (powerful))(JJ (white))(NN (trader)))(PP (IN (in))(NP (NP (NNP (conrad))(POS ('s)))(`` (``))(NP (NP (NNP (heart)))(PP (IN (of))(NP (NN (darkness)))))('' ('')))))))(. (?))))) |ET| 
1  |BT| (ROOT (ROOT (SBARQ (WHNP (WP (what)))(SQ (VBZ (be))(NP (NNP (shirley))(NNP (maclaine)))(VP (VBN (know))(PP (IN (as)))))(. (?))))) |ET| 
1  |BT| (ROOT (ROOT (SBARQ (WHNP (WP (who)))(SQ (VBD (be))(NP (NP (NNP (john))(NNP (f.))(NNP (kennedy))(POS ('s)))(NNS (dog))))(. (?))))) |ET| 
1  |BT| (ROOT (ROOT (SBARQ (WHNP (WP (what)))(SQ (VBD (be))(`` (``))(NP (NP (NNP (america))(POS ('s)))(JJ (recessed-filter))(NN (cigarette)))('' ('')))(. (?))))) |ET| 
-1  |BT| (ROOT (ROOT (SBARQ (WHNP (WP (what)))(SQ (VBD (be))(NP (NP (NNP (mao))(POS ('s)))(JJ (second))(NN (name))))(. (?))))) |ET| 
-0.77689596288403617307949389214627  |BT| (ROOT (ROOT (SBARQ (WHNP (WP (what)))(SQ (VBD (be))(NP (NP (NNP (william))(NNP (f.))(NNP (cody))(POS ('s)))(JJ (better-known))(NN (name))))(. (?))))) |ET| 
-0.90501276779926009830035127379233  |BT| (ROOT (ROOT (SBARQ (WHNP (WP (what)))(SQ (VBD (be))(NP (NP (NNP (fred))(NNP (astaire))(POS ('s)))(NN (dancing))(NP (NN (partner))(POS ('s)))(NN (name))))(. (?))))) |ET| 
1  |BT| (ROOT (ROOT (SBARQ (WHNP (WDT (what))(NN (wheel)))(SQ (VBD (do))(NP (NNP (blaise))(NNP (pascal)))(VP (VB (invent))(PP (IN (in))(NP (NP (DT (a))(NN (search)))(PP (IN (for))(NP (JJ (perpetual))(NN (motion))))))))(. (?))))) |ET| 
1  |BT| (ROOT (ROOT (SBARQ (WHNP (WDT (what))(NN (invention)))(SQ (VP (VBZ (do))(SBAR (S (NP (NP (DT (the))(NN (principle)))(PP (IN (of))(NP (NP (NN (conservation)))(PP (IN (of))(NP (NN (energy)))))))(VP (VBP (make))(ADJP (JJ (impossible))))))))(. (?))))) |ET| 
1  |BT| (ROOT (ROOT (SBARQ (WHNP (WDT (what))(NN (tragedy)))(SQ (VP (VBD (befall))(NP (NP (DT (the))(NN (city)))(PP (IN (of))(NP (NNP (dogtown)))))(PP (IN (in))(NP (CD (1899))))))(. (?))))) |ET| 
-1  |BT| (ROOT (ROOT (SBARQ (WHNP (WDT (what))(NN (company)))(SQ (VP (VBZ (use))(NP (NP (DT (the))(JJ (unfamiliar))(NNS (face)))(PP (IN (of))(NP (PRP$ (its))(NN (celebrity))(NNS (spokespeople)))))(S (VP (TO (to))(VP (VB (promote))(NP (NP (DT (the))(NN (use)))(PP (IN (of))(NP (PRP$ (its))(NN (product))))))))))(. (?))))) |ET| 
-1  |BT| (ROOT (ROOT (SBARQ (WHNP (WDT (what))(NN (culture)))(SQ (VP (VBD (develop))(NP (NP (DT (the))(NN (idea)))(PP (IN (of))(NP (NNP (potlatch)))))))(. (?))))) |ET| 
-0.80594752757747722959891234495444  |BT| (ROOT (ROOT (SBARQ (WHNP (WDT (what))(NP (NN (director))))(SQ (VP (VBD (make))(NP (NP (NP (CD (one)))(ADJP (JJ (silent))))(CC (and))(NP (NP (CD (one))(NN (sound))(NN (version)))(PP (IN (of))(NP (DT (the))(CD (ten))(NNS (commandment))))))))(. (?))))) |ET| 
1  |BT| (ROOT (ROOT (SBARQ (WHNP (WP (what)))(SQ (VBD (be))(NP (NP (NNP (hitler))(POS ('s)))(JJ (favorite))(NN (movie))))(. (?))))) |ET| 
1  |BT| (ROOT (ROOT (SBARQ (WHNP (WP (what)))(SQ (VBD (be))(NP (NP (NNP (mel))(NNP (gibson))(POS ('s)))(JJ (first))(NN (movie))))(. (?))))) |ET| 
1  |BT| (ROOT (ROOT (SBARQ (WHNP (WP (what)))(SQ (VBD (be))(NP (NP (NP (NNP (paul))(NNP (bunyan))(POS ('s)))(NN (ox))(POS ('s)))(NN (name))))(. (?))))) |ET| 
-0.63489890054965147925258861505426  |BT| (ROOT (ROOT (SBARQ (WHNP (WP (what)))(SQ (VBD (be))(NP (NP (NNP (al))(NNP (capone))(POS ('s)))(NN (nickname))))(. (?))))) |ET| 
-0.85270681522800706453324437461561  |BT| (ROOT (ROOT (SBARQ (WHNP (WP (what)))(SQ (VBD (be))(NP (NP (NNP (einstein))(POS ('s)))(NN (birthplace))))(. (?))))) |ET| 
-0.56282624025521077459899288442102  |BT| (ROOT (ROOT (SBARQ (WHNP (WP (what)))(SQ (VBD (be))(NP (NP (NNP (babe))(NNP (ruth))(POS ('s)))(NP (NNP (christian))(NNS (name)))))(. (?))))) |ET| 
1  |BT| (ROOT (ROOT (SBARQ (WHNP (WP (what)))(SQ (VBZ (do))(NP (NNP (god)))(VP (VB (create))(PP (IN (in))(NP (NP (DT (the))(JJ (first))(NN (sentence)))(PP (IN (of))(NP (DT (the))(NNP (bible))))))))(. (?))))) |ET| 
1  |BT| (ROOT (ROOT (SBARQ (WHNP (WDT (what))(NN (album)))(SQ (VP (VBD (put))(NP (DT (the))(NNPS (beatles)))(PP (IN (on))(NP (NP (DT (the))(NN (cover)))(PP (IN (of))(NP (NNP (time))))))(PP (IN (in))(NP (CD (1967))))))(. (?))))) |ET| 
1  |BT| (ROOT (ROOT (SBARQ (WHPP (IN (in))(WHNP (WDT (what))(NN (book))))(SQ (MD (can))(NP (PRP (i)))(VP (VB (find))(NP (NP (DT (the))(NN (story)))(PP (IN (of))(NP (NNP (aladdin)))))))(. (?))))) |ET| 
-1  |BT| (ROOT (ROOT (SBARQ (WHNP (WDT (what))(NN (country)))(SQ (VP (VBD (be))(ADJP (JJ (first))(S (VP (TO (to))(VP (VB (use))(NP (DT (the))(NN (airplane)))(PP (IN (as))(NP (NP (DT (a))(NN (weapon)))(PP (IN (of))(NP (NN (war))))))(, (,))(PP (IN (against))(NP (DT (the))(NNPS (turks))))))))(PP (IN (in))(NP (NNP (libya))))))(. (?))))) |ET| 
-0.50645467483250405926753501262283  |BT| (ROOT (ROOT (SBARQ (WHNP (WDT (what))(JJ (heavyweight))(NN (boxer)))(SQ (VBD (be))(VP (VBN (know))(PP (IN (as))(NP (NP (DT (the))(NNP (wild))(NNP (bull)))(PP (IN (of))(NP (DT (the))(NNPS (pampas))))))))(. (?))))) |ET| 
-1  |BT| (ROOT (ROOT (SBARQ (WHNP (WP (what)))(SQ (VBZ (be))(NP (DT (the))(JJ (abbreviated))(NN (term)))(VP (VBN (use))(PP (IN (for))(NP (NP (DT (the))(NNP (national))(NNP (bureau)))(PP (IN (of))(NP (NNP (investigation))))))))(. (?))))) |ET| 
1  |BT| (ROOT (ROOT (SBARQ (WHNP (WP (what)))(SQ (VBD (be))(NP (NP (NNP (jimmy))(NNP (durante))(POS ('s)))(NN (theme))(NN (song))))(. (?))))) |ET| 
1  |BT| (ROOT (ROOT (SBARQ (WHNP (WP (what)))(SQ (VBD (be))(NP (NP (NNP (baffin))(, (,))(NNP (frobisher))(CC (and))(NNP (franklin)))(VP (VBG (look))(PP (IN (for))))))(. (?))))) |ET| 
1  |BT| (ROOT (ROOT (SBARQ (WHNP (WP (what)))(SQ (VBD (be))(NP (NP (NNP (john))(NNP (f.))(NNP (kennedy))(POS ('s)))(NP (CD (1960))(NN (campaign))(NN (song)))))(. (?))))) |ET| 
-1  |BT| (ROOT (ROOT (SBARQ (WHNP (WDT (what))(NN (actor)))(SQ (VP (VBD (marry))(NP (NP (NNP (john))(NNP (f.))(NNP (kennedy))(POS ('s)))(NN (sister)))))(. (?))))) |ET| 
-1  |BT| (ROOT (ROOT (SBARQ (WHNP (WP (what)))(SQ (VBZ (be))(NP (PRP (he)))(VP (VBG (do))(ADVP (RB (now)))))(. (?))))) |ET| 
-1  |BT| (ROOT (ROOT (SBARQ (WHNP (WDT (what))(NN (actor)))(SQ (VP (ADVP (RB (first)))(VBD (portray))(NP (NNP (james))(NNP (bond)))))(. (?))))) |ET| 
1  |BT| (ROOT (ROOT (SBARQ (WHNP (WP (what)))(SQ (VBP (be))(NP (NP (DT (the))(NNS (name)))(PP (IN (of))(NP (DT (the))(JJ (different))(NNS (toe))))))(. (?))))) |ET| 
1  |BT| (ROOT (ROOT (SBARQ (WHNP (WDT (what))(NP (NN (layer))(PP (IN (of))(NP (DT (the))(NN (atmosphere))))))(SQ (VP (VBZ (contain))(NP (NP (JJS (most)))(PP (IN (of))(NP (DT (the))(NN (ozone))(NN (layer)))))))(. (?))))) |ET| 
1  |BT| (ROOT (ROOT (SBARQ (WHNP (WDT (what))(JJ (jewish))(NN (holiday)))(SQ (VP (VBD (see))(NP (NP (DT (the))(NN (start)))(PP (IN (of))(NP (DT (the))(CD (1973))(NNP (mideast))(NNP (war)))))))(. (?))))) |ET| 
-1  |BT| (ROOT (ROOT (SBARQ (WHNP (WP (what)))(SQ (VBD (be))(NP (NP (DT (the))(NN (name)))(PP (IN (of))(NP (NP (DT (the))(NNP (us))(NN (helicopter))(NN (pilot)))(VP (VBD (shoot))(ADVP (RB (down)))(PP (IN (over))(NP (NNP (north))(NNP (korea)))))))))(. (?))))) |ET| 
-0.19514901431081499438846549310256  |BT| (ROOT (ROOT (SBARQ (WHNP (WP (what)))(SQ (VBD (be))(NP (NP (DT (the))(NN (reason)))(PP (IN (for))(NP (NP (DT (the))(NN (partition)))(PP (IN (of))(NP (DT (the))(JJ (anglican))(CC (and))(NNP (vatican))(NNS (church))))))))(. (?))))) |ET| 
-0.51283824155848045656114209123189  |BT| (ROOT (ROOT (SBARQ (WHNP (WP (what)))(SQ (VBD (be))(NP (NP (DT (the))(NN (death))(NN (toll)))(PP (IN (at))(NP (NP (DT (the))(NN (eruption)))(PP (IN (of))(NP (NNP (mount))(NNP (pinatubo))))))))(. (?))))) |ET| 
1  |BT| (ROOT (ROOT (SBARQ (WHNP (WDT (what))(NN (money)))(SQ (VBD (be))(VP (VBN (use))(PP (IN (by))(NP (PRP (they))))))(. (?))))) |ET| 
1  |BT| (ROOT (ROOT (SBARQ (WHNP (WDT (what))(NN (kennedy)))(SQ (VBD (be))(VP (VBN (marry))(PP (TO (to))(NP (NNP (ethel))))))(. (?))))) |ET| 
1  |BT| (ROOT (ROOT (SBARQ (WHNP (WDT (what))(NN (money)))(SQ (VBD (be))(VP (VBN (use))(ADVP (RB (here)))))(. (?))))) |ET| 
-1  |BT| (ROOT (ROOT (SBARQ (WHNP (WDT (what))(NN (organization)))(SQ (VBD (be))(VP (VBN (found))(PP (IN (by))(NP (DT (the))(NNP (rev.))(NNP (jerry))(NNP (falwell))))))(. (?))))) |ET| 
-1  |BT| (ROOT (ROOT (SBARQ (WHNP (WDT (what))(NN (president)))(SQ (VBD (be))(VP (VBN (assassinate))(PP (IN (by))(NP (NNP (charles))(NNP (j.))(NNP (guiteau))))))(. (?))))) |ET| 
-0.37074375145766613748321560706245  |BT| (ROOT (ROOT (SBARQ (WHNP (WDT (what))(NN (comedian)))(SQ (VBD (be))(VP (VBN (bear))(NP (NNP (allen))(NNP (stewart))(NNP (konigsberg)))))(. (?))))) |ET| 
1  |BT| (ROOT (ROOT (SBARQ (WHNP (WP (what)))(SQ (VBD (be))(NP (NP (DT (the))(NN (name)))(PP (IN (of))(NP (NP (DT (the))(NN (computer)))(PP (IN (in))(`` (`))(NP (NP (CD (2001)))(: (:))(NP (DT (a))(NN (space))(NN (odyssey))))('' (')))))))(. (?))))) |ET| 
1  |BT| (ROOT (ROOT (SBARQ (WHNP (WP (what)))(SQ (VBD (be))(NP (NP (DT (the))(NN (education))(NN (system)))(PP (IN (in))(NP (NP (DT (the)))(NP (CD (1960))(POS ('s)))))))(. (?))))) |ET| 
1  |BT| (ROOT (ROOT (SBARQ (WHNP (WP (what)))(SQ (VBD (be))(NP (NP (DT (the))(NNS (achievement)))(PP (IN (of))(NP (NNP (richard))(NNP (nixon))))))(. (?))))) |ET| 
