SVM-light Version V5.01-TK-1.5
5 # kernel type
3 # kernel parameter -d 
1 # kernel parameter -g 
1 # kernel parameter -s 
1 # kernel parameter -r 
empty# kernel parameter -u 
0.4 # kernel parameter -L 
1 # kernel parameter -T 
T # kernel parameter -C 
2 # kernel parameter -F 
1 # kernel parameter -S 
0.400000 # kernel parameter -M 
3 # kernel parameter -N 
S # kernel parameter -V 
S # kernel parameter -W 
0 # kernel parameter -U 
10 # highest feature index 
5451 # number of training documents 
1849 # number of support vectors plus 1 
0.81057441 # threshold b, each following line is a SV (starting with alpha*y)
1  |BT| (ROOT (ROOT (SBARQ (WHADVP (WRB (where)))(SQ (VBZ (do))(NP (NP (JJS (most)))(PP (IN (of))(NP (NP (DT (the))(NN (marijuana)))(VP (VBG (enter))(NP (DT (the))(NNP (united))(NNPS (states)))))))(VP (VB (come))(PP (IN (from)))))(. (?))))) |ET| 
-0.33647804978398870856537428153388  |BT| (ROOT (ROOT (SBARQ (WHNP (WP (what)))(SQ (VBZ (be))(NP (NP (DT (the))(JJ (american))(NN (dollar))(NN (equivalent)))(PP (IN (for))(NP (NP (CD (8))(NNS (pound)))(PP (IN (in))(NP (DT (the))(NNP (u.k.))))))))(. (?))))) |ET| 
1  |BT| (ROOT (ROOT (SBARQ (WHNP (WDT (what))(NN (river)))(SQ (VBZ (be))(NP (NNP (pocahontas)))(VP (VBN (bury))(ADVP (IN (along)))))(. (?))))) |ET| 
1  |BT| (ROOT (ROOT (SBARQ (WHNP (WDT (what))(NN (state)))(SQ (VP (VBZ (produce))(S (NP (DT (the))(JJS (best))(NN (lobster)))(VP (TO (to))(VP (VB (eat)))))))(. (?))))) |ET| 
0.31476022729188879445416660018964  |BT| (ROOT (ROOT (SBARQ (WHNP (WDT (what))(NN (city)))(SQ (VBZ (be))(ADVP (RB (sometimes)))(VP (VBN (call))(NP (NP (DT (the))(NNP (athens)))(PP (IN (of))(NP (NNP (switzerland)))))))(. (?))))) |ET| 
0.92593997705330577385751666952274  |BT| (ROOT (ROOT (SBARQ (WHNP (WDT (what))(JJ (sprawling))(NNP (u.s.))(NN (state)))(SQ (VP (VBZ (boast))(NP (NP (DT (the))(RBS (most)))(NP (NNS (airport))))))(. (?))))) |ET| 
1  |BT| (ROOT (ROOT (SBARQ (WHNP (WP (what)))(SQ (VBZ (be))(NP (NP (DT (the))(JJS (highest))(NN (waterfall)))(PP (IN (in))(NP (DT (the))(NNP (united))(NNPS (states))))))(. (?))))) |ET| 
1  |BT| (ROOT (ROOT (SBARQ (WHNP (WDT (which))(CD (two))(NNS (state)))(SQ (VP (VB (enclose))(NP (NNP (chesapeake))(NNP (bay)))))(. (?))))) |ET| 
1  |BT| (ROOT (ROOT (SBARQ (WHADVP (WRB (where)))(SQ (VBP (do))(NP (NP (DT (the))(NNS (adventure)))(PP (IN (of))(`` (``))(NP (DT (the))(JJ (swiss))(NNP (family))(NNP (robinson)))('' (''))))(VP (VB (take))(NP (NN (place)))))(. (?))))) |ET| 
0.37141570183626437806623243886861  |BT| (ROOT (ROOT (SBARQ (WHNP (WDT (what))(NN (country)))(SQ (VP (MD (will))(VP (VB (hit))(S (NP (DT (the))(NN (year)))(ADJP (CD (2))(JJ (first)))))))(. (?))))) |ET| 
-1  |BT| (ROOT (ROOT (SBARQ (WHNP (WP (what)))(SQ (VBZ (be))(NP (NP (DT (the))(NN (population)))(PP (IN (of))(NP (DT (the))(NNP (united))(NNPS (states))))))(. (?))))) |ET| 
-1  |BT| (ROOT (ROOT (SBARQ (WHNP (WP (what)))(SQ (VBZ (be))(NP (NP (DT (the))(JJS (best))(NN (college)))(PP (IN (in))(NP (DT (the))(NN (country))))))(. (?))))) |ET| 
-1  |BT| (ROOT (ROOT (SBARQ (WHNP (WP (what)))(SQ (VBZ (be))(NP (NP (DT (the))(JJS (largest))(NN (snake)))(PP (IN (in))(NP (DT (the))(NN (world))))))(. (?))))) |ET| 
0.52876797384075868713182444480481  |BT| (ROOT (ROOT (SBARQ (WHADVP (WRB (where)))(SQ (MD (could))(NP (PRP (i)))(VP (VB (go))(S (VP (TO (to))(VP (VB (take))(NP (DT (a))(NN (ride)))(PP (IN (on))(NP (DT (a))(NN (steam))(NN (locomotive)))))))))(. (?))))) |ET| 
1  |BT| (ROOT (ROOT (SBARQ (SBAR (WHADVP (WRB (when)))(S (NP (NNP (superman)))(VP (VBZ (need))(S (VP (TO (to))(VP (VB (get))(ADVP (RB (away))(PP (IN (from))(NP (PRP (it)))(ADVP (DT (all)))))))))))(, (,))(WHADVP (WRB (where)))(SQ (VBZ (do))(NP (PRP (he)))(VP (VB (go))))(. (?))))) |ET| 
0.14079926858999158856278199891676  |BT| (ROOT (ROOT (SBARQ (WHADVP (WRB (where)))(SQ (MD (can))(NP (PRP (i)))(VP (VB (look))(PP (IN (at))(NP (DT (a))(JJ (perpetual))(NN (calendar))))))(. (?))))) |ET| 
-1  |BT| (ROOT (ROOT (SBARQ (WHADVP (WRB (where)))(SQ (VBP (do))(NP (NNS (chihuahua)))(VP (VB (come))(PP (IN (from)))))(. (?))))) |ET| 
-1  |BT| (ROOT (ROOT (SBARQ (WHADVP (WRB (where)))(SQ (VBP (do))(NP (NNS (rock)))(VP (VB (come))(PP (IN (from)))))(. (?))))) |ET| 
-0.28321786996259984414692212340015  |BT| (ROOT (ROOT (SBARQ (WHNP (WDT (what))(NN (group)))(SQ (VP (VBD (ask))(SBAR (S (NP (DT (the))(JJ (musical))(NN (question)))(VP (VBP (do))(S (NP (PRP (you)))(VP (VB (believe))(PP (IN (in))(NP (NNP (magic)))))))))))(. (?))))) |ET| 
-0.42937472381773467144938649653341  |BT| (ROOT (ROOT (SBARQ (WHNP (WDT (what))(NN (cocktail)))(SQ (VP (VBD (inspire))(S (NP (NNP (john))(NNP (doxat)))(VP (TO (to))(VP (VB (write))(NP (NP (DT (the))(NN (book))(NNP (stirred-not)))(VP (VBN (shake)))))))))(. (?))))) |ET| 
1  |BT| (ROOT (ROOT (SBARQ (WHNP (WP (what)))(SQ (VBZ (be))(NP (NP (DT (the))(JJS (largest))(NN (museum)))(PP (IN (in))(NP (DT (the))(NN (world))))))(. (?))))) |ET| 
1  |BT| (ROOT (ROOT (SBARQ (WHNP (WP (what)))(SQ (VBZ (be))(NP (NP (DT (the))(JJS (longest))(NN (river)))(PP (IN (in))(NP (DT (the))(NN (world))))))(. (?))))) |ET| 
-1  |BT| (ROOT (ROOT (SBARQ (WHNP (WP (what)))(SQ (VBZ (be))(NP (NP (DT (the))(JJS (largest))(NN (sculpture)))(PP (IN (in))(NP (DT (the))(NN (world))))))(. (?))))) |ET| 
-1  |BT| (ROOT (ROOT (SBARQ (WHNP (WP (what)))(SQ (VBZ (be))(NP (NP (DT (the))(JJS (fastest))(NN (fish)))(PP (IN (in))(NP (DT (the))(NN (world))))))(. (?))))) |ET| 
-1  |BT| (ROOT (ROOT (SBARQ (WHNP (WP (who)))(SQ (VBZ (be))(NP (NP (DT (the))(JJS (richest))(NN (person)))(PP (IN (in))(NP (DT (the))(NN (world))))))(. (?))))) |ET| 
0.14539248128570064766407199385867  |BT| (ROOT (ROOT (SBARQ (WHADVP (WRB (where)))(SQ (VBZ (do))(NP (NN (chocolate)))(VP (VB (come))(PP (IN (from)))))(. (?))))) |ET| 
0.16794091824020221381807971283706  |BT| (ROOT (ROOT (SBARQ (WHADVP (WRB (where)))(SQ (VBZ (do))(NP (NN (tuberculosis)))(VP (VB (come))(PP (IN (from)))))(. (?))))) |ET| 
0.14539248128571824469901230258984  |BT| (ROOT (ROOT (SBARQ (WHADVP (WRB (where)))(SQ (VBZ (do))(NP (NN (dew)))(VP (VB (come))(PP (IN (from)))))(. (?))))) |ET| 
-0.40006720220808844601378950756043  |BT| (ROOT (ROOT (SBARQ (WHADVP (WRB (when)))(SQ (VBZ (do))(NP (NN (menstruation)))(VP (VB (begin))))(. (?))))) |ET| 
-1  |BT| (ROOT (ROOT (SBARQ (WHADVP (WRB (where)))(SQ (VBZ (do))(NP (PRP$ (you))(NN (hair)))(VP (VB (grow))(NP (DT (the))(JJS (fastest)))))(. (?))))) |ET| 
-1  |BT| (ROOT (ROOT (SBARQ (WHADVP (WRB (where)))(SQ (VP (VBZ (do))(ADJP (`` (``))(JJ (bovine))('' (''))(SBAR (S (VP (VBN (come))(PP (IN (from)))))))))(. (?))))) |ET| 
1  |BT| (ROOT (ROOT (SBARQ (WHNP (WP (what)))(SQ (VBZ (be))(NP (NP (DT (the))(JJS (best))(NN (hospital)))(PP (IN (for))(NP (NP (NNS (orthopedic)))(PP (IN (in))(NP (DT (the))(NN (country))))))))(. (?))))) |ET| 
1  |BT| (ROOT (ROOT (SBARQ (WHNP (WP (what)))(SQ (VBZ (be))(NP (NP (DT (the))(NN (location)))(PP (IN (of))(NP (NNP (edinburgh))(, (,))(NNP (scotland))))))(. (?))))) |ET| 
1  |BT| (ROOT (ROOT (SBARQ (WHNP (WP (what)))(SQ (VBZ (be))(NP (NP (DT (the))(NN (habitat)))(PP (IN (of))(NP (DT (the))(NN (chickadee))))))(. (?))))) |ET| 
-1  |BT| (ROOT (ROOT (SBARQ (WHNP (WP (what)))(SQ (VBZ (be))(NP (NP (DT (the))(NN (motto)))(PP (IN (for))(NP (NP (DT (the))(NN (state)))(PP (IN (of))(NP (NNP (maryland))))))))(. (?))))) |ET| 
-0.019877279664391712954429891624386  |BT| (ROOT (ROOT (SBARQ (WHNP (WP (what)))(SQ (VBZ (be))(NP (NP (DT (the))(NN (nickname)))(PP (IN (of))(NP (NN (oddsmaker))(NNP (jimmy))(NNP (snyder))))))(. (?))))) |ET| 
-0.062488330406984489429067508581284  |BT| (ROOT (ROOT (FRAG (SBAR (WHNP (WP$ (whose))(NNS (husband)))(S (VP (VBP (have))(VP (VBN (include))(NP (NP (NNP (conrad))(NNP (hilton))(NNP (jr.)))(, (,))(CC (and))(NP (NNP (michael))(NNP (wilding))))))))(. (?))))) |ET| 
0.51058291817292378311776701593772  |BT| (ROOT (ROOT (SBARQ (WHADVP (WRB (where))(PP (IN (in))(NP (DT (the))(NNP (united))(NNPS (states)))))(SQ (VBP (do))(NP (NNS (people)))(VP (VB (live))(NP (DT (the))(JJS (longest)))))(. (?))))) |ET| 
0.35664070164588507205749579043186  |BT| (ROOT (ROOT (SBARQ (WHADVP (WRB (where)))(SQ (VBP (do))(NP (NN (quality))(NNS (drink)))(VP (VB (begin))))(. (?))))) |ET| 
0.056186732158735153142004037363222  |BT| (ROOT (ROOT (SBARQ (WHADVP (WRB (where)))(SQ (MD (can))(NP (PRP (i)))(VP (VB (find))(NP (DT (a))(`` (``))(JJ (fifth))(NN (element))('' (''))(NN (screensaver)))))(. (?))))) |ET| 
-1  |BT| (ROOT (ROOT (SBARQ (WHADVP (WRB (where)))(SQ (VBD (do))(NP (NN (marijuana)))(VP (VBN (come))(PP (IN (from)))))(. (?))))) |ET| 
-1  |BT| (ROOT (ROOT (SBARQ (WHADVP (WRB (where)))(SQ (VBD (do))(NP (JJ (indian))(NN (pudding)))(VP (VBN (come))(PP (IN (from)))))(. (?))))) |ET| 
-0.37534417078460824424013253519661  |BT| (ROOT (ROOT (SBARQ (WHADVP (WRB (where)))(SQ (VBD (do))(NP (NP (DT (the))(NN (term)))(`` (``))(NP (CD (69)))('' ('')))(VP (VBN (come))(PP (IN (from)))))(. (?))))) |ET| 
1  |BT| (ROOT (ROOT (SBARQ (WHNP (WP (what)))(SQ (VBZ (be))(NP (NP (DT (the))(NN (nickname)))(PP (IN (for))(NP (NP (DT (the))(NN (state)))(PP (IN (of))(NP (NNP (mississippi))))))))(. (?))))) |ET| 
1  |BT| (ROOT (ROOT (SBARQ (WHNP (WP (what)))(SQ (VBZ (be))(NP (NP (DT (the))(NN (capital)))(PP (IN (of))(NP (NNP (iowa))))))(. (?))))) |ET| 
1  |BT| (ROOT (ROOT (SBARQ (WHNP (WP (what)))(SQ (VBZ (be))(NP (NP (DT (the))(NN (capital)))(PP (IN (of))(NP (NNP (seattle))))))(. (?))))) |ET| 
-0.088503842381854824772347001271555  |BT| (ROOT (ROOT (SBARQ (WHNP (WP (what)))(SQ (VBZ (be))(NP (NP (DT (the))(NN (telephone))(NN (number)))(PP (IN (for))(NP (NP (DT (the))(NNP (university)))(PP (IN (of))(NP (NNP (kentucky))))))))(. (?))))) |ET| 
-0.56551423000805978169580612302525  |BT| (ROOT (ROOT (SBARQ (WHNP (WP (what)))(SQ (VBZ (be))(NP (NP (DT (the))(NN (frequency)))(PP (IN (of))(NP (NNP (vhf))))))(. (?))))) |ET| 
-0.60965510816258960957725321350154  |BT| (ROOT (ROOT (SBARQ (WHNP (WP (what)))(SQ (VBZ (be))(NP (NP (DT (the))(NN (size)))(PP (IN (of))(NP (NNP (argentina))))))(. (?))))) |ET| 
1  |BT| (ROOT (ROOT (SBARQ (WHADVP (WRB (where)))(SQ (VBD (do))(NP (DT (the))(NN (world)))(VP (VBN (come))(PP (IN (from)))))(. (?))))) |ET| 
-0.2849882751093424926303043775988  |BT| (ROOT (ROOT (SBARQ (WHNP (WP (what)))(SQ (VBZ (be))(NP (NP (DT (the))(NN (name)))(PP (IN (of))(NP (NP (NP (NNP (tom))(NNP (sawyer))(POS ('s)))(NN (aunt)))(PP (IN (with))(SBAR (WHNP (WP (whom)))(S (NP (PRP (he)))(VP (VBZ (live))))))))))(. (?))))) |ET| 
0.62965315187546455621969698768225  |BT| (ROOT (ROOT (SBARQ (WHADVP (WRB (where)))(SQ (VBD (do))(NP (NP (DT (the))(NN (myth)))(PP (IN (of))(NP (NNP (santa))(NNP (claus)))))(VP (VB (originate))))(. (?))))) |ET| 
-0.21268629512883160948000238477107  |BT| (ROOT (ROOT (SBARQ (WHNP (WDT (what))(ADJP (JJ (international)))(NN (sport)))(SQ (VBD (be))(ADVP (RB (originally)))(VP (VBN (call))(NP (NN (hurley)))))(. (?))))) |ET| 
0.012137163896289299147568385706109  |BT| (ROOT (ROOT (SBARQ (WHNP (WDT (what))(NNP (colorado))(NN (city)))(SQ (VP (VBZ (own))(NP (PRP$ (its))(JJ (own))(NN (glacier)))))(. (?))))) |ET| 
-1  |BT| (ROOT (ROOT (SBARQ (WHADVP (WRB (where)))(SQ (VBD (do))(NP (DT (the))(NN (term))(NN (fireplug)))(VP (VBN (come))(PP (IN (from)))))(. (?))))) |ET| 
1  |BT| (ROOT (ROOT (SBARQ (WHNP (WP (what)))(SQ (VBZ (be))(NP (NP (DT (the))(NN (nickname)))(PP (IN (of))(NP (NNP (pennsylvania))))))(. (?))))) |ET| 
1  |BT| (ROOT (ROOT (SBARQ (WHNP (WP (what)))(SQ (VBZ (be))(NP (NP (DT (the))(NN (home)))(PP (IN (of))(NP (DT (the))(NNPS (rockettes))))))(. (?))))) |ET| 
1  |BT| (ROOT (ROOT (SBARQ (WHNP (WP (what)))(SQ (VBZ (be))(NP (NP (DT (the))(NN (name)))(PP (IN (of))(NP (NP (DT (a))(NN (hotel)))(PP (IN (in))(NP (NNP (indianapolis))))))))(. (?))))) |ET| 
-1  |BT| (ROOT (ROOT (SBARQ (WHNP (WP (what)))(SQ (VBZ (be))(NP (NP (DT (the))(NN (nickname)))(PP (IN (of))(NP (DT (the))(NNP (cleveland))(NNPS (indians))))))(. (?))))) |ET| 
-0.015212840798357581476030198075478  |BT| (ROOT (ROOT (SBARQ (WHNP (WP (what)))(SQ (VBZ (be))(NP (JJ (carpal))(NN (tunnel))(NN (syndrome))))(. (?))))) |ET| 
-0.0092338150577882735503543187860487  |BT| (ROOT (ROOT (SBARQ (WHNP (WP (what)))(SQ (VBZ (be))(NP (NP (DT (the))(JJ (average))(JJ (hourly))(NN (rate)))(PP (IN (of))(NP (JJ (american))(NNS (worker))))))(. (?))))) |ET| 
-0.11055898285942845904461506734151  |BT| (ROOT (ROOT (SBARQ (WHNP (WDT (which))(NNP (doonesbury))(NN (character)))(SQ (VP (VBD (be))(ADJP (JJ (likely))(S (VP (TO (to))(VP (VB (turn))(PP (IN (into))(NP (DT (a))(NN (werewolf))))))))))(. (?))))) |ET| 
-0.21340426291307926232043712388986  |BT| (ROOT (ROOT (SBARQ (WHNP (WP (what)))(SQ (VBP (be))(NP (NP (DT (the))(JJ (distinct))(JJ (physical))(NNS (characterstic)))(PP (IN (of))(NP (DT (the))(JJ (arabian))(NN (horse))))))(. (?))))) |ET| 
0.24931618282423428922811581287533  |BT| (ROOT (ROOT (SBARQ (WHADVP (WRB (where)))(SQ (VBD (do))(NP (NNP (ty))(NNP (cobb)))(VP (VB (grow))(PRT (RP (up)))))(. (?))))) |ET| 
-1  |BT| (ROOT (ROOT (SBARQ (WHADVP (WRB (where)))(SQ (VBZ (be))(NP (NP (DT (the))(JJ (human))(NN (skin)))(ADJP (JJS (least))(JJ (sensitive)))))(. (?))))) |ET| 
-1  |BT| (ROOT (ROOT (SBARQ (WHADVP (WRB (where)))(SQ (VBZ (do))(NP (NP (DT (the))(NNP (u.s.))(NN (rank)))(PP (IN (among))(NP (NP (NN (world))(NNS (country)))(PP (IN (in))(NP (NN (area))))))))(. (?))))) |ET| 
1  |BT| (ROOT (ROOT (SBARQ (WHNP (WP (what)))(SQ (VBZ (be))(NP (NP (DT (the))(NN (web))(NN (address)))(PP (IN (of))(NP (NP (DT (the))(NN (list)))(PP (IN (of))(NP (NP (JJ (e-mail))(NNS (address)))(PP (IN (of))(NP (NP (NNS (member)))(PP (IN (of))(NP (NP (DT (the))(NNP (house)))(PP (IN (of))(NP (NNPS (representatives))))))))))))))(. (?))))) |ET| 
1  |BT| (ROOT (ROOT (SBARQ (WHNP (WP (what)))(SQ (VBZ (be))(NP (NP (DT (the))(NN (name)))(PP (IN (of))(NP (NP (DT (the))(NN (gulf)))(PP (IN (between))(NP (NNP (sweden))(CC (and))(NNP (finland))))))))(. (?))))) |ET| 
1  |BT| (ROOT (ROOT (SBARQ (WHNP (WP (what)))(SQ (VBZ (be))(NP (NP (DT (the))(NN (country)))(PP (IN (of))(NP (NP (NN (origin)))(PP (IN (for))(NP (DT (the))(NN (name))(NNP (thomas))))))))(. (?))))) |ET| 
-0.08490723324304769170645101894479  |BT| (ROOT (ROOT (SBARQ (WHNP (WP (what)))(SQ (VBD (be))(NP (NP (DT (the))(NN (name)))(PP (IN (of))(NP (NP (NP (NNP (humphrey))(NNP (bogart))(POS ('s)))(NN (club)))(PP (IN (in))(NP (NNP (casablanca))))))))(. (?))))) |ET| 
-0.33528251818543447493325970754086  |BT| (ROOT (ROOT (SBARQ (WHNP (WP (what)))(SQ (VBZ (be))(NP (NP (DT (the))(NN (name)))(PP (IN (of))(NP (NP (DT (the))(NN (art)))(PP (IN (of))(NP (VBG (grow))(JJ (miniature))(NNS (tree))))))))(. (?))))) |ET| 
-0.12823369900517017638819083913404  |BT| (ROOT (ROOT (SBARQ (WHNP (WDT (what))(NN (color)))(SQ (VP (VBZ (fly))(NP (NP (JJS (closest)))(PP (TO (to))(NP (DT (the))(NN (staff)))))(PP (IN (on))(NP (NP (NNP (belgium))(POS ('s)))(NN (flag))))))(. (?))))) |ET| 
1  |BT| (ROOT (ROOT (SBARQ (WHNP (WDT (which))(NN (way)))(SQ (VBP (do))(NP (PRP (you)))(VP (VB (turn))(NP (PRP$ (you))(NN (bic))(S (VP (TO (to))(VP (VB (increase))(NP (DT (the))(NN (flame)))))))))(: (-))(ADJP (JJ (clockwise))(CC (or))(JJ (counterclockwise)))(. (?))))) |ET| 
1  |BT| (ROOT (ROOT (SBARQ (WHNP (WHNP (WDT (what))(JJ (colorful))(NN (sea))(POS ('s)))(NN (region)))(SQ (VBZ (do))(NP (JJ (greek))(NN (legend)))(VP (VBP (say))(SBAR (S (NP (DT (the))(NNPS (amazons)))(VP (VBD (live))(PP (IN (near))))))))(. (?))))) |ET| 
-0.023416825133829019534026372184599  |BT| (ROOT (ROOT (SBARQ (WHNP (WHNP (WDT (what))(JJ (former))(NN (president))(POS ('s)))(NN (daughter)))(SQ (VP (VBZ (have))(VP (VBN (write))(NP (NP (DT (a))(NN (book))(VBN (title))(NN (murder)))(PP (IN (in))(NP (DT (the))(NNP (white))(NNP (house))))))))(. (?))))) |ET| 
-0.65323403982795924527238184964517  |BT| (ROOT (ROOT (SBARQ (WHNP (WDT (what))(NN (company)))(SQ (VP (VBZ (produce))(NP (NNP (spumante)))))(. (?))))) |ET| 
-1  |BT| (ROOT (ROOT (SBARQ (WHNP (WDT (what))(NN (year)))(SQ (VBD (be))(NP (NP (DT (the))(NNP (olympic))(NNPS (games)))(SBAR (S (VP (VBD (play))(PP (IN (in))(SBAR (WHADVP (WRB (where)))(S (NP (NNP (nadia))(NNP (comaneci)))(VP (VBD (become))(ADJP (JJ (popular))))))))))))(. (?))))) |ET| 
-0.74305396454179462040201542549767  |BT| (ROOT (ROOT (SBARQ (WHNP (WDT (what))(NN (handicraft)))(SQ (VP (VBZ (require))(S (NP (PRP (you)))(VP (TO (to))(VP (VB (interlace))(NP (PRP$ (you))(NN (warp))(CC (and))(NN (weft))))))))(. (?))))) |ET| 
1  |BT| (ROOT (ROOT (SBARQ (WHNP (WP (what)))(SQ (VBZ (be))(NP (NP (DT (the))(NN (name)))(PP (IN (of))(NP (NP (DT (the))(JJS (tallest))(NN (mountain)))(PP (IN (in))(NP (DT (the))(NN (world))))))))(. (?))))) |ET| 
1  |BT| (ROOT (ROOT (SBARQ (WHNP (WP (what)))(SQ (VBZ (be))(NP (NP (DT (the))(NN (name)))(PP (IN (of))(NP (NP (DT (the))(NNP (wilkes))(NN (plantation)))(PP (IN (in))(ADJP (VBN (go))(PP (IN (with))(NP (DT (the))(NN (wind))))))))))(. (?))))) |ET| 
1  |BT| (ROOT (ROOT (SBARQ (WHNP (WP (what)))(SQ (VBZ (be))(NP (NP (DT (the))(NN (name)))(PP (IN (of))(NP (NP (DT (the))(JJS (highest))(NN (mountain)))(PP (IN (in))(NP (NNP (africa))))))))(. (?))))) |ET| 
-0.54074264574749797418462549103424  |BT| (ROOT (ROOT (SBARQ (WHNP (WP (what)))(SQ (VBZ (be))(NP (NP (DT (the))(NN (name)))(PP (IN (of))(NP (NP (DT (the))(NN (dog)))(PP (IN (on))(NP (DT (the))(NNP (cracker))(NNP (jack))(NN (box))))))))(. (?))))) |ET| 
-1  |BT| (ROOT (ROOT (SBARQ (WHNP (WP (what)))(SQ (VBZ (be))(NP (NP (DT (the))(NN (name)))(PP (IN (of))(NP (NP (DT (the))(JJS (largest))(NN (water))(NN (conservancy))(NN (project)))(PP (IN (in))(NP (NNP (china))))))))(. (?))))) |ET| 
-0.040163057583848915665925005669123  |BT| (ROOT (ROOT (SBARQ (WHNP (WP (what)))(SQ (VBZ (be))(NP (NP (DT (the))(NN (difference)))(PP (IN (between))(NP (NP (DT (the))(NN (anus)))(CC (and))(NP (DT (the))(NN (rectum)))))))(. (?))))) |ET| 
1  |BT| (ROOT (ROOT (SBARQ (WHNP (WDT (what))(NN (ocean)))(SQ (VBD (be))(NP (NNP (amelia))(NNP (earhart)))(VP (VBG (fly))(PP (IN (over))(SBAR (WHADVP (WRB (when)))(S (NP (PRP (she)))(VP (VBD (disappear))))))))(. (?))))) |ET| 
1  |BT| (ROOT (ROOT (SBARQ (WHNP (WDT (what))(NN (planet)))(SQ (MD (would))(NP (PRP (you)))(VP (VB (visit))(S (VP (TO (to))(VP (VB (see))(NP (NNP (bebrenia))(, (,))(NNP (arcadia))(, (,))(CC (and))(NNP (amazonis))))))))(. (?))))) |ET| 
1  |BT| (ROOT (ROOT (SBARQ (WHNP (WDT (what))(NN (nationality)))(SQ (VBD (be))(NP (NNP (jackson))(NNP (pollock))))(. (?))))) |ET| 
-1  |BT| (ROOT (ROOT (SBARQ (WHADVP (WRB (where)))(SQ (VBZ (do))(NP (NP (DT (the))(NNP (u.s.))(NN (rank)))(PP (IN (among))(NP (NP (NN (world))(NNS (country)))(PP (IN (in))(NP (NN (area))))))))(. (?))))) |ET| 
0.15960591659370959582986415625783  |BT| (ROOT (ROOT (SBARQ (WHNP (WP (what)))(SQ (VBP (be))(NP (NP (DT (the))(NN (capital))(NNS (city)))(PP (IN (of))(NP (NP (DT (the))(CD (two))(JJ (large))(NNS (country)))(SBAR (WHNP (WDT (that)))(S (VP (VBP (occupy))(NP (DT (the))(NNP (iberian))(NN (peninsula)))(PP (IN (in))(NP (NNP (europe)))))))))))(. (?))))) |ET| 
-0.052996870217936892233367984772485  |BT| (ROOT (ROOT (SBARQ (WHNP (WDT (what))(NN (company)))(SQ (VBZ (sell))(NP (DT (the))(RBS (most))(JJ (greeting))(NNS (card))))(. (?))))) |ET| 
-0.88763438726193832906119496328756  |BT| (ROOT (ROOT (SBARQ (WHNP (WDT (what))(JJ (caribbean))(NN (cult)))(SQ (VBD (do))(NP (NNP (marcus))(NNP (garvey)))(VP (VB (originate))))(. (?))))) |ET| 
1  |BT| (ROOT (ROOT (SBARQ (WHNP (WP (what)))(SQ (VBZ (be))(NP (NP (DT (the))(NN (website)))(PP (IN (for))(NP (DT (the))(NNP (usa))(NN (journal))))))(. (?))))) |ET| 
1  |BT| (ROOT (ROOT (SBARQ (WHNP (WP (what)))(SQ (VBZ (be))(NP (NP (DT (the))(NN (name)))(PP (IN (of))(NP (NP (DT (the))(NN (temple)))(SBAR (WHNP (WDT (that)))(S (VP (VBZ (be))(ADJP (JJ (located))(PP (IN (near))(NP (NP (DT (the))(NN (capital))(NN (city)))(PP (IN (of))(NP (NNP (laos))))))))))))))(. (?))))) |ET| 
1  |BT| (ROOT (ROOT (SBARQ (WHNP (WP (what)))(SQ (VBZ (be))(NP (NP (DT (the))(NN (location)))(PP (IN (of))(NP (NNP (mccarren))(NN (airport))))))(. (?))))) |ET| 
-0.12027004033300592311661603162065  |BT| (ROOT (ROOT (SBARQ (WHNP (WP (what)))(SQ (VBZ (be))(NP (NP (DT (the))(NN (meaning)))(PP (IN (of))(NP (DT (the))(NN (name))(NNP (ella))))))(. (?))))) |ET| 
-0.12027004033302723939868883462623  |BT| (ROOT (ROOT (SBARQ (WHNP (WP (what)))(SQ (VBZ (be))(NP (NP (DT (the))(NN (meaning)))(PP (IN (of))(NP (DT (the))(NN (name))(NNP (kathryn))))))(. (?))))) |ET| 
-0.12062138277507106209895937354304  |BT| (ROOT (ROOT (SBARQ (WHNP (WP (what)))(SQ (VBZ (be))(NP (NP (DT (the))(NN (meaning)))(PP (IN (of))(NP (DT (the))(NN (name))(NNP (tatiana))))))(. (?))))) |ET| 
1  |BT| (ROOT (ROOT (SBARQ (WHNP (WDT (what))(NN (planet)))(SQ (VBD (do))(NP (NNP (percival))(NNP (lovell)))(VP (VB (discover))))(. (?))))) |ET| 
-0.3742540511603005271012989396695  |BT| (ROOT (ROOT (SBARQ (WHNP (WP (what)))(SQ (VBZ (be))(NP (NP (DT (the))(NN (distinction)))(PP (IN (of))(NP (NNP (u.s.))(NNP (supreme))(NNP (court))(NNP (justice))(NNP (thurgood))(NNP (marshall))))))(. (?))))) |ET| 
1  |BT| (ROOT (ROOT (SBARQ (WHNP (WDT (what))(NN (room)))(SQ (VBD (do))(NP (NNP (w.c.))(NNP (fields)))(VP (VB (keep))(NP (PRP$ (he))(NN (library)))(PP (IN (in)))))(. (?))))) |ET| 
-0.50988132026371824068178284505848  |BT| (ROOT (ROOT (SBARQ (WHNP (WDT (what))(NN (novel)))(SQ (VBD (do))(NP (NNP (ian))(NNP (fleming)))(VP (VB (introduce))(NP (NNP (james))(NNP (bond)))(PP (IN (in)))))(. (?))))) |ET| 
-0.19273092307664071998196675394865  |BT| (ROOT (ROOT (SBARQ (WHNP (WDT (what))(NN (product)))(SQ (VBD (do))(NP (NNP (robert))(NNP (conrad)))(VP (VB (dare))(S (NP (NNS (people)))(VP (TO (to))(VP (VB (knock))(PRT (RP (off)))(NP (PRP$ (he))(NN (shoulder))))))))(. (?))))) |ET| 
-0.085357177647270104925425471265044  |BT| (ROOT (ROOT (SBARQ (WHNP (WP (what)))(SQ (VBD (be))(NP (DT (the))(ADJP (JJ (first))(JJ (frozen)))(NNS (food))))(. (?))))) |ET| 
1  |BT| (ROOT (ROOT (SBARQ (WHNP (WP (what)))(SQ (VBZ (be))(NP (NP (DT (the))(JJ (second-largest))(NN (island)))(PP (IN (in))(NP (DT (the))(NN (world))))))(. (?))))) |ET| 
1  |BT| (ROOT (ROOT (SBARQ (WHNP (WP (what)))(SQ (VBZ (be))(NP (NP (DT (the))(JJ (seafaring))(NN (name)))(PP (IN (for))(NP (NP (DT (the))(JJ (southern))(NN (tip)))(PP (IN (of))(NP (NNP (south))(NNP (america))))))))(. (?))))) |ET| 
1  |BT| (ROOT (ROOT (SBARQ (WHNP (WP (what)))(SQ (VBZ (be))(NP (NP (DT (the))(JJS (largest))(NN (shopping))(NN (mall)))(PP (IN (in))(NP (DT (the))(NN (world))))))(. (?))))) |ET| 
-1  |BT| (ROOT (ROOT (SBARQ (WHNP (WP (what)))(SQ (VBZ (be))(NP (NP (DT (the))(JJS (longest))(NN (word)))(PP (IN (in))(NP (DT (the))(NNP (english))(NN (language))))))(. (?))))) |ET| 
-1  |BT| (ROOT (ROOT (SBARQ (WHNP (WP (what)))(SQ (VBZ (be))(NP (NP (DT (the))(JJS (weakest))(NN (bone)))(PP (IN (in))(NP (DT (the))(NN (body))))))(. (?))))) |ET| 
-1  |BT| (ROOT (ROOT (SBARQ (WHNP (WP (what)))(SQ (VBZ (be))(NP (NP (DT (the))(JJ (second-biggest-selling))(NN (magazine)))(PP (IN (in))(NP (NNP (america))))))(. (?))))) |ET| 
0.4432313345636260670801220840076  |BT| (ROOT (ROOT (SBARQ (WHNP (WDT (what))(NN (state)))(SQ (VBD (do))(NP (NNP (helen))(NNP (keller)))(VP (VB (call))(NP (NN (home)))))(. (?))))) |ET| 
0.83727988208090831090402161862585  |BT| (ROOT (ROOT (SBARQ (WHNP (WDT (what))(NN (state)))(SQ (VBZ (do))(NP (NNP (charles))(NNP (robb)))(VP (VB (represent))))(. (?))))) |ET| 
1  |BT| (ROOT (ROOT (SBARQ (WHNP (WDT (what))(NN (ocean)))(SQ (VBD (do))(NP (DT (the))(NNP (titanic)))(VP (VB (sink))(PP (IN (in)))))(. (?))))) |ET| 
-0.17149204438535214922723071140354  |BT| (ROOT (ROOT (SBARQ (WHNP (WDT (what))(NN (instrument)))(SQ (VBZ (do))(NP (NNP (benny))(NNP (carter)))(VP (VB (play))))(. (?))))) |ET| 
-0.055990217955421424378403827404327  |BT| (ROOT (ROOT (SBARQ (WHNP (WDT (what))(NN (game)))(SQ (VBZ (do))(NP (NNP (garry))(NNP (kasparov)))(VP (VB (play))))(. (?))))) |ET| 
-0.0030038639907075605391117978371085  |BT| (ROOT (ROOT (SBARQ (WHNP (WDT (what))(NN (president)))(SQ (ADVP (RB (once)))(VP (VBD (tell))(NP (NP (NNP (gene)))(NNP (autry)))(: (:))(`` (``))(SBAR (S (S (INTJ (VB (please)))(VP (VB (give))(NP (PRP$ (my)))))(VP (VBZ (regard))(PP (TO (to))(NP (NP (PRP$ (you))(NN (wife)))(NP (NNP (dale))))))))('' (''))))(. (?))))) |ET| 
1  |BT| (ROOT (ROOT (SBARQ (WHNP (WP (what)))(SQ (VBZ (be))(NP (NP (DT (the))(JJS (largest))(NN (county)))(PP (IN (in))(NP (NP (NN (size)))(PP (IN (in))(NP (NNP (massachusetts))))))))(. (?))))) |ET| 
1  |BT| (ROOT (ROOT (SBARQ (WHNP (WP (what)))(SQ (VBZ (be))(NP (NP (DT (the))(JJS (oldest))(NN (building)))(PP (IN (in))(NP (DT (the))(NNP (united))(NNPS (states))))))(. (?))))) |ET| 
1  |BT| (ROOT (ROOT (SBARQ (WHNP (WP (what)))(SQ (VBZ (be))(NP (NP (DT (the))(JJS (oldest))(NN (website)))(PP (IN (on))(NP (DT (the))(NN (internet))))))(. (?))))) |ET| 
-1  |BT| (ROOT (ROOT (SBARQ (WHNP (WP (what)))(SQ (VBZ (be))(NP (NP (DT (the))(JJS (highest))(NN (number)))(PP (IN (of))(NP (NP (NN (home))(NNS (run)))(PP (IN (on))(NP (NP (NN (record)))(PP (IN (for))(NP (DT (any))(CD (one))(NN (game))))))))))(. (?))))) |ET| 
-0.47642762356162315917629257455701  |BT| (ROOT (ROOT (SBARQ (WHNP (WP (what)))(SQ (VBZ (be))(NP (NP (DT (the))(JJ (economic))(NN (impact)))(PP (IN (of))(NP (NP (NN (unemployment)))(PP (IN (on))(NP (DT (the))(NN (economy))))))))(. (?))))) |ET| 
-1  |BT| (ROOT (ROOT (SBARQ (WHNP (WP (what)))(SQ (VBZ (be))(NP (NP (DT (the))(JJS (highest))(NN (hand)))(PP (IN (in))(NP (JJ (straight))(NN (poker))))))(. (?))))) |ET| 
-0.20800975376320118837014661039575  |BT| (ROOT (ROOT (SBARQ (WHNP (WDT (what))(NP (NP (NNS (business)))(PP (IN (in))(NP (NNP (alaska))))))(SQ (VBD (be))(VP (VBN (affect))(PP (IN (by))(NP (DT (the))(NNP (exxon))(NNP (valdez))(NN (oil))(NN (spill))))))(. (?))))) |ET| 
1  |BT| (ROOT (ROOT (SBARQ (WHNP (WDT (what))(NN (ocean)))(SQ (VBZ (do))(NP (NNP (mauritania)))(VP (VB (border))))(. (?))))) |ET| 
0.91011375171008179751908073740196  |BT| (ROOT (ROOT (SBARQ (WHNP (WDT (what))(NNS (country)))(SQ (VBZ (do))(NP (DT (the))(NNP (mont))(NNP (blanc))(NN (tunnel)))(VP (VB (join))))(. (?))))) |ET| 
-0.34589280208674438865656952657446  |BT| (ROOT (ROOT (SBARQ (WHNP (WDT (what))(NN (horse)))(SQ (VBD (do))(NP (NNP (zorro)))(VP (VB (ride))))(. (?))))) |ET| 
-0.15423722664145284033665461720375  |BT| (ROOT (ROOT (SBARQ (WHNP (WP (what))(RB (else)))(SQ (VBZ (have))(NP (DT (the))(NN (swastika)))(VP (VBD (stand))(PP (IN (for)))))(. (?))))) |ET| 
1  |BT| (ROOT (ROOT (SBARQ (WHNP (WP (what)))(SQ (VBZ (be))(NP (NP (NN (website)))(PP (IN (of))(NP (NP (DT (the))(NNP (international))(NNP (court)))(PP (IN (of))(NP (NNP (justice))))))))(. (?))))) |ET| 
1  |BT| (ROOT (ROOT (SBARQ (WHNP (WP (what)))(SQ (VBZ (be))(NP (NP (DT (the))(JJS (deepest))(NN (area)))(PP (IN (of))(NP (DT (the))(NNP (arctic))(NNP (ocean))))))(. (?))))) |ET| 
1  |BT| (ROOT (ROOT (SBARQ (WHNP (WP (what)))(SQ (VBZ (be))(NP (NP (DT (the))(JJ (sacred))(NN (river)))(PP (IN (of))(NP (NNP (india))))))(. (?))))) |ET| 
-1  |BT| (ROOT (ROOT (SBARQ (SBARQ (WHNP (WP (what)))(SQ (VBZ (be))(NP (NP (DT (the))(JJ (all-time))(NN (stock))(NN (high)))(PP (IN (of))(NP (NNP (apple))(NNP (computer)))))))(, (,))(CC (and))(SBARQ (WHADVP (WRB (where)))(SQ (MD (can))(NP (PRP (i)))(VP (VB (find))(NP (DT (this))(NN (information)))))(. (?)))))) |ET| 
-1  |BT| (ROOT (ROOT (SBARQ (WHNP (WP (what)))(SQ (VBZ (be))(NP (NP (DT (the))(NN (state))(NN (motto)))(PP (IN (of))(NP (NNP (california))))))(. (?))))) |ET| 
-1  |BT| (ROOT (ROOT (SBARQ (WHNP (WP (what)))(SQ (VBD (be))(NP (NP (DT (the))(NN (tragedy)))(SBAR (WHNP (WDT (that)))(S (VP (VBD (strike))(NP (NP (DT (the))(NN (city)))(PP (IN (of))(NP (NNP (dogtown)))))(PP (IN (in))(NP (CD (1899)))))))))(. (?))))) |ET| 
1  |BT| (ROOT (ROOT (SBARQ (WHNP (WDT (what))(NN (gate)))(SQ (VP (VBD (open))(PP (IN (on))(NP (NNP (east))(CC (and))(NNP (west))(NNP (berlin))))))(. (?))))) |ET| 
1  |BT| (ROOT (ROOT (SBARQ (WHNP (WDT (which))(NN (area)))(SQ (VP (VBZ (produce))(NP (DT (the))(JJS (least))(JJ (acidic))(NN (coffee)))))(. (?))))) |ET| 
1  |BT| (ROOT (ROOT (SBARQ (WHNP (WDT (what))(NN (direction)))(SQ (VP (VBP (do))(SBAR (S (NP (JJS (most))(NN (baseball))(NNS (pitcher)))(VP (VBP (pitch))(PP (IN (toward))))))))(. (?))))) |ET| 
-0.52045280003596838813706426662975  |BT| (ROOT (ROOT (SBARQ (WHNP (WDT (what))(NN (corporation)))(SQ (VBZ (do))(NP (NNP (madonna)))(VP (VB (advertise))(PP (IN (for)))))(. (?))))) |ET| 
-1  |BT| (ROOT (ROOT (SBARQ (WHNP (WDT (what))(NN (plant)))(SQ (VP (VBZ (have))(NP (DT (the))(JJS (largest))(NN (seed)))))(. (?))))) |ET| 
-1  |BT| (ROOT (ROOT (SBARQ (WHNP (WDT (what))(NN (flag)))(SQ (VP (VBZ (fly))(SBAR (IN (over))(S (VP (VBP (wake))(NP (NN (island))))))))(. (?))))) |ET| 
-0.37644996209857517488472922195797  |BT| (ROOT (ROOT (SBARQ (WHNP (WDT (which))(NN (gender)))(SQ (VP (VBZ (have))(NP (JJR (bigger))(NNS (thigh)))))(. (?))))) |ET| 
1  |BT| (ROOT (ROOT (SBARQ (WHNP (WP (what)))(SQ (VBZ (be))(NP (NP (DT (the))(NN (capital)))(PP (IN (of))(NP (NNP (california))))))(. (?))))) |ET| 
1  |BT| (ROOT (ROOT (S (VP (VB (name))(S (NP (NP (DT (the))(NN (country)))(PP (IN (of))(NP (NP (NNS (giant)))(NP-TMP (CD (twelve))(NNS (time))))))(NP (NP (DT (the))(NN (size)))(PP (IN (of))(NP (NP (NN (man)))(PP (IN (in))(`` (``))(NP (NP (NNP (gulliver))(POS ('s)))(NNS (travels)))))))))(. (.))('' (''))))) |ET| 
1  |BT| (ROOT (ROOT (SBARQ (WHNP (WP (what)))(SQ (VBZ (be))(NP (NP (DT (the))(NN (address)))(PP (IN (for))(NP (NP (DT (the))(JJ (main))(NN (government))(NN (office)))(PP (IN (in))(NP (NNP (rome))(, (,))(NNP (italy))))))))(. (?))))) |ET| 
-0.4027170284654397192092289969878  |BT| (ROOT (ROOT (SBARQ (WHNP (WP (what)))(SQ (VBZ (be))(NP (NP (DT (the))(NN (abbreviation)))(PP (IN (of))(NP (NP (DT (the))(NNP (national))(NNP (bureau)))(PP (IN (of))(NP (NNP (investigation))))))))(. (?))))) |ET| 
-0.23701967622501562971137900603935  |BT| (ROOT (ROOT (SBARQ (WHNP (WP (what)))(SQ (VBZ (be))(NP (NP (DT (the))(NN (acronym)))(PP (IN (for))(NP (NP (DT (the))(NNP (national))(NNP (bureau)))(PP (IN (of))(NP (NNP (investigation))))))))(. (?))))) |ET| 
-0.17632781327488597500341427348758  |BT| (ROOT (ROOT (SBARQ (WHNP (WP (what)))(SQ (VBZ (be))(NP (NP (DT (the))(JJ (abbreviated))(NN (form)))(PP (IN (of))(NP (NP (DT (the))(NNP (national))(NNP (bureau)))(PP (IN (of))(NP (NNP (investigation))))))))(. (?))))) |ET| 
1  |BT| (ROOT (ROOT (SBARQ (WHNP (WDT (what))(NN (desert)))(SQ (VP (VBZ (have))(NP (DT (the))(JJS (highest))(NN (sand))(NNS (dune)))))(. (?))))) |ET| 
1  |BT| (ROOT (ROOT (SBARQ (WHNP (WDT (what))(NN (park)))(SQ (VP (VBZ (contain))(NP (NP (NNP (firehole))(NNP (river)))(CC (and))(NP (NNP (fairy))(NNP (falls))))))(. (?))))) |ET| 
1  |BT| (ROOT (ROOT (SBARQ (WHNP (WDT (what))(NN (bay)))(SQ (VP (VBZ (divide))(NP (NP (NP (NNP (maryland))(POS ('s)))(NNP (eastern)))(CC (and))(NP (NNP (western))(NNP (shores))))))(. (?))))) |ET| 
-0.18972849121680387951549562330911  |BT| (ROOT (ROOT (SBARQ (WHNP (WDT (what))(NN (disease)))(SQ (VP (VBD (plague))(NP (NNP (europe))(, (,))(NNP (africa))(CC (and))(NNP (asia)))))(. (?))))) |ET| 
-0.55121083898948819435048562809243  |BT| (ROOT (ROOT (SBARQ (WHNP (WDT (what))(NN (shampoo)))(SQ (VP (VBZ (prevent))(NP (NN (eczema))(, (,))(NN (seborrhea))(, (,))(CC (and))(NN (psoriasis)))))(. (?))))) |ET| 
-0.4519209470463876887613707822311  |BT| (ROOT (ROOT (SBARQ (WHNP (WDT (what))(NN (ocean))(NN (liner)))(SQ (VP (VP (VBD (burn)))(CC (and))(VP (VBD (sink))(PP (IN (in))(NP (NNP (hong))(NNP (kong))(NN (harbor)))))))(. (?))))) |ET| 
1  |BT| (ROOT (ROOT (SBARQ (WHNP (WP (what)))(SQ (VBZ (be))(NP (NP (CD (one)))(PP (IN (of))(NP (NP (DT (the))(NNS (city)))(SBAR (IN (that))(S (NP (NP (DT (the))(NNP (university)))(PP (IN (of))(NP (NNP (minnesota)))))(VP (VBZ (be))(ADJP (JJ (located))(PP (IN (in)))))))))))(. (?))))) |ET| 
1  |BT| (ROOT (ROOT (SBARQ (WHNP (WP (what)))(SQ (VBZ (be))(NP (NP (DT (the))(JJ (principal))(NN (river)))(PP (IN (of))(NP (NNP (ireland))))))(. (?))))) |ET| 
1  |BT| (ROOT (ROOT (SBARQ (WHNP (WP (what)))(SQ (VBZ (be))(NP (NP (DT (the))(NNP (u.s.))(NN (location)))(PP (IN (of))(NP (NNP (procter))(CC (&))(NNP (gamble))(JJ (corporate))(NNS (office))))))(. (?))))) |ET| 
-0.20453590797546317148203343094792  |BT| (ROOT (ROOT (SBARQ (WHNP (WP (what)))(SQ (VBZ (be))(NP (NP (DT (the))(JJ (primary))(NN (language)))(PP (IN (of))(NP (DT (the))(NNPS (philippines))))))(. (?))))) |ET| 
-0.68334970546060902485407950734952  |BT| (ROOT (ROOT (SBARQ (WHNP (WP (what)))(SQ (VBZ (be))(NP (NP (DT (the))(JJ (full))(NN (name)))(PP (IN (of))(NP (DT (the))(NNP (plo))))))(. (?))))) |ET| 
-1  |BT| (ROOT (ROOT (SBARQ (WHNP (WP (what)))(SQ (VBZ (be))(NP (NP (DT (the))(NN (speed)))(PP (IN (of))(NP (DT (the))(NNP (mississippi))(NNP (river))))))(. (?))))) |ET| 
1  |BT| (ROOT (ROOT (SBARQ (WHNP (WDT (what))(NN (sound)))(SQ (VBZ (do))(NP (NP (NNP (olympia)))(, (,))(NP (NNP (washington)))(, (,)))(VP (VB (overlook))))(. (?))))) |ET| 
1  |BT| (ROOT (ROOT (SBARQ (WHNP (WDT (what))(ADJP (JJ (celestial)))(NN (body)))(SQ (VP (VBZ (have))(NP (NP (DT (a))(NN (diameter)))(PP (IN (of))(NP (NP (CD (864)))(, (,))(NP (CD (000))(NNS (mile))))))))(. (?))))) |ET| 
1  |BT| (ROOT (ROOT (SBARQ (WHNP (WDT (what))(NN (island))(NN (group)))(SQ (VP (VBZ (contain))(NP (NNP (jersey))(, (,))(NNP (guernsey))(, (,))(NNP (sark))(CC (and))(NNP (herm)))))(. (?))))) |ET| 
-0.24248611102575268194669888544013  |BT| (ROOT (ROOT (SBARQ (WHNP (WDT (what))(NN (number)))(SQ (VBZ (be))(PP (IN (at))(NP (NP (CD (12))(NN (o)))(`` (`))(NP (NP (NN (clock)))(PP (IN (on))(NP (DT (a))(NN (dartboard))))))))(. (?))))) |ET| 
0.51824680790982968758839888323564  |BT| (ROOT (ROOT (SBARQ (WHNP (WDT (what))(NN (state)))(SQ (VP (VBZ (have))(NP (DT (the))(ADJP (JJS (longest))(JJ (great)))(NNS (lake))(NN (shoreline)))))(. (?))))) |ET| 
-0.12941631933726155390118606192118  |BT| (ROOT (ROOT (SBARQ (WHNP (WHNP (WDT (what))(NN (product))(POS ('s)))(NNS (ad)))(SQ (VP (VBP (claim))(SBAR (IN (that))(S (NP (PRP (it)))(`` (``))(VP (VP (VBZ (eliminate))(NP (NNS (odor))))(, (,))(VP (VBZ (kill))(NP (NP (NN (household))(NNS (germ)))(, (,))(NP (NN (mold)))(, (,))(CC (and))(NP (NN (mildew))))))('' (''))))))(. (?))))) |ET| 
1  |BT| (ROOT (ROOT (SBARQ (WHNP (WP (what)))(SQ (VBZ (be))(NP (NP (DT (the))(JJ (geographical))(NN (center)))(PP (IN (of))(NP (NP (DT (the))(NNP (us)))(PP (VBG (include))(NP (NNP (alaska))(CC (and))(NNP (hawaii))))))))(. (?))))) |ET| 
1  |BT| (ROOT (ROOT (SBARQ (WHNP (WP (what)))(SQ (VBZ (be))(NP (NP (DT (the))(JJS (farthest))(NN (planet)))(PP (IN (from))(NP (DT (the))(NN (sun))))))(. (?))))) |ET| 
1  |BT| (ROOT (ROOT (SBARQ (WHNP (WP (what)))(SQ (VBZ (be))(NP (NP (DT (the))(JJ (second-highest))(NN (mountain)))(PP (IN (in))(NP (DT (the))(NN (world))))))(. (?))))) |ET| 
-1  |BT| (ROOT (ROOT (SBARQ (WHNP (WP (what)))(SQ (VBZ (be))(NP (NP (DT (the))(ADJP (RBS (most))(JJ (expensive)))(NN (car)))(PP (IN (in))(NP (DT (the))(NN (world))))))(. (?))))) |ET| 
-1  |BT| (ROOT (ROOT (SBARQ (WHNP (WP (what)))(SQ (VBZ (be))(NP (NP (DT (the))(ADJP (RBS (most))(JJ (advanced)))(JJ (handheld))(NN (calculator)))(PP (IN (in))(NP (DT (the))(NN (world))))))(. (?))))) |ET| 
-1  |BT| (ROOT (ROOT (SBARQ (WHNP (WP (what)))(SQ (VBZ (be))(NP (NP (DT (the))(ADJP (RBS (most))(JJ (abundant)))(NN (element)))(PP (IN (in))(NP (DT (the))(NN (sun))))))(. (?))))) |ET| 
1  |BT| (ROOT (ROOT (S (VP (VB (name))(NP (DT (a))(JJ (civil))(NN (war))(NN (battlefield))))(. (.))))) |ET| 
1  |BT| (ROOT (ROOT (S (VP (VB (name))(NP (DT (a))(NN (art))(NN (gallery)))(PP (IN (in))(NP (NNP (new))(NNP (york)))))(. (.))))) |ET| 
1  |BT| (ROOT (X (WDT (what))(JJ (former))(NN (royal))(NN (palace))(VBZ (have))(VBN (serve))(IN (as))(DT (a))(NN (granary))(, (,))(NN (prison))(, (,))(NN (arsenal))(, (,))(JJR (leper))(NN (colony))(, (,))(NN (mint))(, (,))(NN (telegraph))(NN (station))(CC (and))(NN (whorehouse))(IN (before))(VBG (become))(DT (a))(NN (art))(NN (museum))(. (?)))) |ET| 
-0.28266920009748996989173974725418  |BT| (ROOT (ROOT (S (VP (VB (name))(NP (DT (a))(NN (golf))(NN (course)))(PP (IN (in))(NP (NNP (myrtle))(NNP (beach)))))(. (.))))) |ET| 
0.18475044770341744748698431521916  |BT| (ROOT (ROOT (SBARQ (WHADVP (WRB (where)))(SQ (MD (can))(NP (PRP (i)))(VP (VB (find))(SBAR (S (NP (DT (a))(NN (world)))(VP (VBZ (atla))(NP (NN (map)))(PP (NN (online))(PP (IN (at))(NP (DT (no))(NN (charge))))))))))(. (?))))) |ET| 
0.21650033647682559445613037496514  |BT| (ROOT (ROOT (SBARQ (WHNP (WDT (what))(NN (country)))(SQ (VP (VBZ (buy))(NP (NP (CD (25))(NN (percent)))(PP (IN (of))(NP (NP (DT (the))(NN (world))(POS ('s)))(NN (tea))(NNS (export)))))))(. (?))))) |ET| 
1  |BT| (ROOT (ROOT (SBARQ (WHNP (WP (what)))(SQ (VBZ (be))(NP (NP (DT (the))(ADJP (RBS (most))(JJ (populated)))(NN (city)))(PP (IN (in))(NP (DT (the))(NN (world))))))(. (?))))) |ET| 
1  |BT| (ROOT (ROOT (SBARQ (WHNP (WP (what)))(SQ (VBZ (be))(NP (NP (DT (the))(ADJP (RBS (most))(JJ (useful)))(NN (site)))(PP (IN (on))(NP (DT (the))(NN (internet))))))(. (?))))) |ET| 
0.94398828924985977995021357855876  |BT| (ROOT (ROOT (SBARQ (WHNP (WP (what)))(SQ (VBZ (be))(NP (NP (DT (the))(ADJP (RBS (most))(JJ (powerful)))(NN (country)))(PP (IN (in))(NP (DT (the))(NN (world))))))(. (?))))) |ET| 
-1  |BT| (ROOT (ROOT (SBARQ (WHNP (WP (what)))(SQ (VBZ (be))(NP (NP (DT (the))(JJS (tallest))(NN (piece)))(PP (IN (on))(NP (DT (a))(NN (chessboard))))))(. (?))))) |ET| 
-1  |BT| (ROOT (ROOT (SBARQ (WHNP (WP (what)))(SQ (VBZ (be))(NP (NP (DT (the))(ADJP (RBS (most))(JJ (powerful)))(NN (card)))(PP (IN (in))(NP (NNP (euchre))))))(. (?))))) |ET| 
-1  |BT| (ROOT (ROOT (SBARQ (WHNP (WP (what)))(SQ (VBZ (be))(NP (DT (the))(JJS (oldest))(NN (profession))))(. (?))))) |ET| 
1  |BT| (ROOT (ROOT (S (VP (VB (name))(NP (DT (the))(JJS (highest))(NN (mountain))))(. (.))))) |ET| 
1  |BT| (ROOT (ROOT (SBARQ (WHNP (WDT (what))(NNP (u.s.))(NN (state)))(SQ (VBZ (have))(NP (DT (a))(NN (element)))(VP (VBN (name))(PP (IN (for))(NP (PRP (it))))))(. (?))))) |ET| 
0.61663515548304981273020075605018  |BT| (ROOT (ROOT (S (VP (VB (name))(NP (NP (DT (the))(NN (country)))(SBAR (WHNP (WDT (which)))(S (NP (NNP (honecker)))(VP (VBD (live))(PP (IN (in))))))))(. (.))))) |ET| 
-0.36094854220395117261332984526234  |BT| (ROOT (ROOT (S (VP (VB (name))(NP (NP (DT (the))(JJ (various))(NNS (super-team)))(SBAR (WHPP (TO (to))(WHNP (WDT (which))))(S (NP (DT (the))(NNP (angel)))(VP (VBZ (have))(VP (VBN (belong))))))))(. (.))))) |ET| 
-0.39534437494986734984436793638451  |BT| (ROOT (ROOT (S (VP (VB (name))(NP (NP (DT (the))(NN (ship)))(SBAR (S (NP (NNP (beany))(CC (and))(NNP (cecil)))(VP (VBD (sail)))))))(. (.))))) |ET| 
-0.054401014068641090348776856444601  |BT| (ROOT (ROOT (SBARQ (WHNP (WP (what)))(SQ (VBZ (be))(PP (IN (in))(NP (NP (NN (baby))(NN (powder))(CC (and))(NN (baby))(NN (lotion)))(SBAR (WHNP (WDT (that)))(S (VP (VBZ (make))(S (NP (PRP (it)))(VP (VB (smell))(NP (NP (DT (the))(NN (way)))(SBAR (S (NP (PRP (it)))(VP (VBZ (do))))))))))))))(. (?))))) |ET| 
1  |BT| (ROOT (ROOT (SBARQ (WHNP (WP (what)))(SQ (VBZ (be))(NP (NP (NNP (answers.com))(POS ('s)))(NN (address))))(. (?))))) |ET| 
1  |BT| (ROOT (ROOT (SBARQ (WHNP (WP (what)))(SQ (VBZ (be))(NP (NP (DT (the))(ADJP (RBS (most))(JJ (common)))(NN (street))(NN (name)))(PP (IN (in))(NP (NNP (america))))))(. (?))))) |ET| 
1  |BT| (ROOT (ROOT (SBARQ (WHNP (WP (what)))(SQ (VBZ (be))(NP (NP (DT (the))(JJS (best)))(PP (NN (online))(NP (NNS (game))(NN (site))))))(. (?))))) |ET| 
-1  |BT| (ROOT (ROOT (SBARQ (WHNP (WP (what)))(SQ (VBZ (be))(NP (NP (NN (state))(NN (tree)))(PP (IN (of))(NP (NNP (nebraska))))))(. (?))))) |ET| 
-0.8631363108308985898631249256141  |BT| (ROOT (ROOT (SBARQ (WHNP (WP (what)))(SQ (VBZ (be))(NP (NP (DT (the))(RBS (most))(JJ (common))(NN (surname)))(PP (IN (in))(NP (NNP (america))))))(. (?))))) |ET| 
-1  |BT| (ROOT (ROOT (SBARQ (WHNP (WP (what)))(SQ (VBZ (be))(NP (NP (NN (usenet)))(PP (IN (for))(NP (DT (the))(NN (internet))))))(. (?))))) |ET| 
0.45973921696755687404944978879939  |BT| (ROOT (ROOT (SBARQ (WHADVP (WRB (where)))(SQ (VBZ (be))(NP (NP (NNP (hearst))(NNP (castle)))(, (,))(VP (VBN (build))(PP (IN (by))(NP (NN (publisher))(NNP (william))(NNP (randolph))(NNP (hearst)))))))(. (?))))) |ET| 
1  |BT| (ROOT (ROOT (SQ (VP (VB (name))(NP (NP (DT (a))(NN (country)))(SBAR (WHNP (WDT (that)))(S (VP (VBZ (be))(VP (VBG (develop))(NP (DT (a))(JJ (magnetic))(NN (levitation))(NN (railway))(NN (system)))))))))(. (?))))) |ET| 
1  |BT| (ROOT (X (WRB (where))(VBZ (be))(PRP (it))(VBD (plan))(TO (to))(VB (berth))(DT (the))(NN (merchant))(NN (ship))(, (,))(NNP (lane))(NNP (victory))(, (,))(WDT (which))(NNP (merchant))(NNP (marine))(NNS (veteran))(VBP (be))(VBG (convert))(IN (into))(DT (a))(VBG (float))(NN (museum))(. (?)))) |ET| 
-0.22152981004372362949794705855311  |BT| (ROOT (ROOT (SQ (VP (VB (name))(NP (DT (a))(ADJP (JJ (south))(JJ (african)))(NN (diamond))(NN (producer))))(. (?))))) |ET| 
-1  |BT| (ROOT (ROOT (SBARQ (WHNP (WDT (what))(NNP (u.s.))(NN (university)))(SQ (VP (VBZ (boast))(NP (DT (the))(JJS (largest))(NN (library)))))(. (?))))) |ET| 
-0.93932679381066730428528899210505  |BT| (ROOT (ROOT (SBARQ (S (VP (TO (to))(VP (VB (get))(NP (DT (the))(JJS (most))(NN (caffeine))))))(, (,))(WHNP (WDT (what))(NN (soda)))(SQ (MD (should))(NP (PRP (i)))(VP (VB (drink))))(. (?))))) |ET| 
1  |BT| (ROOT (ROOT (SBARQ (WHNP (WP (what)))(SQ (VBZ (be))(NP (NP (DT (the))(NN (state))(NN (nickname)))(PP (IN (of))(NP (NNP (mississippi))))))(. (?))))) |ET| 
1  |BT| (ROOT (ROOT (SBARQ (WHNP (WDT (what))(JJ (caribbean))(NN (island)))(SQ (VBZ (be))(NP (NP (NN (northeast)))(PP (IN (of))(NP (NNP (trinidad))))))(. (?))))) |ET| 
1  |BT| (ROOT (ROOT (SBARQ (WHNP (WP (what)))(SQ (VBZ (be))(NP (NP (DT (the))(JJS (nearest))(NN (star)))(PP (TO (to))(NP (NNP (earth))))))(. (?))))) |ET| 
-0.034183987297439384633879200237061  |BT| (ROOT (ROOT (SBARQ (WHNP (WP (what)))(SQ (VBZ (be))(NP (NP (DT (the))(NN (salary)))(PP (IN (of))(NP (DT (a))(NNP (u.s.))(NNP (representative))))))(. (?))))) |ET| 
-0.018778730321824310678380243189167  |BT| (ROOT (ROOT (SBARQ (WHNP (WP (who)))(SQ (VBZ (be))(NP (NP (NNP (king)))(PP (IN (in))(NP (NP (NP (NNP (alley))(NNP (oop))(POS ('s)))(NN (home)))(PP (IN (of))(NP (NNP (moo))))))))(. (?))))) |ET| 
-0.79120948153615278108929942391114  |BT| (ROOT (ROOT (SBARQ (WHNP (WP (what)))(SQ (VBZ (be))(NP (NP (DT (the))(JJ (former))(NN (name)))(PP (IN (of))(NP (NNP (zimbabwe))))))(. (?))))) |ET| 
1  |BT| (ROOT (ROOT (SBARQ (WHNP (WDT (which))(NN (continent)))(SQ (VP (VBZ (have))(ADVP (DT (the))(RBS (most)))(NP (NNS (rose)))))(. (?))))) |ET| 
1  |BT| (ROOT (ROOT (SBARQ (WHNP (WDT (what)))(SQ (VP (VBZ (erupt))(NP (DT (every))(NN (hour)))(PP (IN (at))(NP (NNP (yellowstone))(NNP (national))(NNP (park))))))(. (?))))) |ET| 
1  |BT| (ROOT (ROOT (SBARQ (WHADVP (WRB (where)))(SQ (MD (can))(NP (PRP (i)))(VP (VB (find))(NP (DT (a))(NN (tape))(CC (or))(NN (book)))(S (VP (TO (to))(VP (VB (help))(S (NP (PRP (i)))(VP (VP (VB (say)))(, (,))(VP (VB (write)))(CC (and))(VP (VB (understand))(NP (JJ (japanese)))))))))))(. (?))))) |ET| 
-1  |BT| (ROOT (ROOT (SBARQ (WHNP (WDT (what))(NN (religion)))(SQ (VP (VBZ (have))(ADVP (DT (the))(RBS (most)))(NP (NNS (member)))))(. (?))))) |ET| 
-0.38282917904079927229332724891719  |BT| (ROOT (ROOT (SBARQ (WHNP (WDT (which))(NN (language)))(SQ (VP (VBZ (have))(ADVP (DT (the))(RBS (most)))(NP (NNS (word)))))(. (?))))) |ET| 
-1  |BT| (ROOT (ROOT (SBARQ (WHNP (WDT (what))(NN (occupation)))(SQ (VP (VBZ (have))(NP (DT (the))(JJS (highest))(NN (divorce))(NN (rate)))))(. (?))))) |ET| 
1  |BT| (ROOT (ROOT (SBARQ (WHNP (WP (what)))(SQ (VBZ (be))(NP (NP (NP (NNP (britain))(POS ('s)))(NN (possession)))(PP (IN (on))(NP (DT (the))(JJ (chinese))(NN (mainland))))))(. (?))))) |ET| 
1  |BT| (ROOT (ROOT (SBARQ (WHNP (WP (what)))(SQ (VBZ (be))(NP (NP (DT (the))(JJS (longest))(NN (place))(NN (name)))(PP (IN (in))(NP (DT (the))(NNP (u.s.))))))(. (?))))) |ET| 
1  |BT| (ROOT (ROOT (SBARQ (WHNP (WP (what)))(SQ (VBZ (be))(NP (NP (DT (the))(JJS (tallest))(NN (building)))(PP (IN (in))(NP (NNP (japan))))))(. (?))))) |ET| 
-1  |BT| (ROOT (ROOT (SBARQ (WHNP (WP (what)))(SQ (VBD (be))(NP (NP (DT (the))(JJS (longest))(NN (war)))(PP (IN (in))(NP (NNP (u.s.))(NN (history))))))(. (?))))) |ET| 
1  |BT| (ROOT (ROOT (SBARQ (WHNP (WDT (what))(NN (state)))(SQ (VP (VBZ (have))(ADVP (DT (the))(RBS (most)))(NP (NNPS (indians)))))(. (?))))) |ET| 
-0.32341134385938929973747235635528  |BT| (ROOT (ROOT (SBARQ (WHNP (WP (what)))(SQ (VBZ (be))(NP (NP (DT (the))(NN (sequel)))(PP (TO (to))(NP (NP (NP (NNP (alice))(POS ('s)))(NNS (adventure)))(PP (IN (in))(NP (NNP (wonderland))))))))(. (?))))) |ET| 
-1  |BT| (ROOT (ROOT (SBARQ (WHNP (WP (what)))(SQ (VBZ (be))(NP (NP (DT (the))(JJS (largest))(NN (letter)))(PP (IN (in))(NP (NP (NNP (salvador))(NNP (dali))(POS ('s)))(NN (signature))))))(. (?))))) |ET| 
1  |BT| (ROOT (ROOT (SBARQ (WHNP (WDT (what))(NN (canal)))(SQ (VP (VBZ (do))(S (NP (DT (the))(NNP (thatcher))(NN (ferry)))(NP (NNP (bridge))(NN (span))))))(. (?))))) |ET| 
1  |BT| (ROOT (ROOT (SBARQ (WHNP (WDT (what))(NN (sea)))(SQ (VP (VBZ (separate))(NP (NNP (naples))(CC (and))(NNP (algiers)))))(. (?))))) |ET| 
-1  |BT| (ROOT (ROOT (SBARQ (WHNP (WP (what)))(SQ (VBZ (be))(NP (DT (a))(JJ (first))(NNP (world))(NN (country))))(. (?))))) |ET| 
-1  |BT| (ROOT (ROOT (SBARQ (WHNP (WDT (what)))(SQ (VP (VBD (make))(NP (DT (the))(NNP (finger))(NNP (lakes)))(PP (IN (in))(NP (JJ (western))(NNP (new))(NNP (york))(NN (state))))))(. (?))))) |ET| 
-1  |BT| (ROOT (ROOT (SBARQ (WHNP (WP (what)))(SQ (VBZ (be))(NP (NP (NNP (california))(POS ('s)))(NN (state))(NN (bird))))(. (?))))) |ET| 
1  |BT| (ROOT (ROOT (SBARQ (WHNP (WP (what)))(SQ (VBD (be))(NP (NP (DT (the))(NN (birthplace)))(PP (IN (of))(NP (NNP (edgar))(NNP (allen))(NNP (poe))))))(. (?))))) |ET| 
1  |BT| (ROOT (ROOT (SBARQ (WHNP (WP (what)))(SQ (VBD (be))(NP (NP (DT (the))(JJ (first))(CD (three))(NNS (city)))(S (VP (TO (to))(VP (VB (have))(NP (NP (DT (a))(NN (population)))(PP (IN (of))(NP (QP (JJR (more))(IN (than))(DT (a))(CD (million)))))))))))(. (?))))) |ET| 
-1  |BT| (ROOT (ROOT (SBARQ (WHNP (WDT (what))(NN (organ)))(SQ (VP (VBZ (contain))(NP (NP (DT (the))(NNS (island)))(PP (IN (of))(NP (NN (langerhans)))))))(. (?))))) |ET| 
-1  |BT| (ROOT (ROOT (SBARQ (WHNP (WDT (what))(JJ (19th-century))(NN (writer)))(SQ (VP (VBD (have))(NP (NP (DT (a))(NN (country))(NN (estate)))(PP (IN (on))(NP (NP (DT (the))(NNP (hudson)))(VP (VBN (dub))(NP (NNP (sunnyside)))))))))(. (?))))) |ET| 
-1  |BT| (ROOT (ROOT (SBARQ (WHNP (WDT (what))(NN (president)))(SQ (VBD (be))(VP (VBN (bury))(PP (IN (at))(NP (PRP$ (he))(JJ (ancestral))(NN (home))))(S (VP (VBG (overlook))(NP (DT (the))(NNP (hudson))(NNP (river)))(PP (IN (at))(NP (NP (NNP (hyde))(NNP (park)))(, (,))(NP (NNP (new))(NNP (york)))))))))(. (?))))) |ET| 
1  |BT| (ROOT (ROOT (SBARQ (WHNP (WP (what)))(SQ (VBZ (be))(NP (NP (NNP (bill))(NNP (gross))(POS ('s)))(NN (email))(NN (address))))(. (?))))) |ET| 
1  |BT| (ROOT (ROOT (SBARQ (WHNP (WP (what)))(SQ (VBZ (be))(NP (NP (NNP (drew))(NNP (barrymore))(POS ('s)))(NN (email))(NN (address))))(. (?))))) |ET| 
1  |BT| (ROOT (ROOT (SBARQ (WHNP (WP (what)))(SQ (VBZ (be))(NP (NP (DT (the))(NN (world))(POS ('s)))(JJS (largest))(NN (cathedral))))(. (?))))) |ET| 
-0.0098911402541057291681880769829149  |BT| (ROOT (ROOT (SBARQ (WHNP (WP (what)))(SQ (VBZ (be))(NP (NP (NNP (june))(POS ('s)))(NN (birthstone))))(. (?))))) |ET| 
-0.21478428097952978470530638333003  |BT| (ROOT (ROOT (SBARQ (WHNP (WP (what)))(SQ (VBZ (be))(NP (NP (NNP (november))(POS ('s)))(NN (birthstone))))(. (?))))) |ET| 
-0.14474643185794822120016078770277  |BT| (ROOT (ROOT (SBARQ (WHNP (WP (what)))(SQ (VBZ (be))(NP (NP (NNP (april))(POS ('s)))(NN (gemstone))))(. (?))))) |ET| 
1  |BT| (ROOT (ROOT (SBARQ (WHNP (WHNP (WDT (which))(NN (city)))(PP (IN (in))(NP (NNP (china)))))(SQ (VP (VBZ (have))(NP (NP (DT (the))(JJS (largest))(NN (number)))(PP (IN (of))(NP (JJ (foreign))(JJ (financial))(NNS (company)))))))(. (?))))) |ET| 
1  |BT| (ROOT (ROOT (SBARQ (WHNP (WDT (what))(JJ (russian))(NN (seaport)))(SQ (VP (VBZ (have))(S (NP (DT (a))(NN (name))(NN (meaning)))(`` (``))(NP (NP (NNP (lord)))(PP (IN (of))(NP (DT (the))(NNP (east)))))('' ('')))))(. (?))))) |ET| 
-0.10916429241542605077519567657873  |BT| (ROOT (ROOT (SBARQ (WHNP (WHNP (WDT (which))(NNS (president)))(PP (IN (of))(NP (DT (the))(NNP (usa)))))(SQ (VBD (be))(NP (NNPS (masons))))(. (?))))) |ET| 
-0.77398920277524152488979325426044  |BT| (ROOT (ROOT (SBARQ (WHADVP (WRB (how)))(SQ (MD (can))(NP (PRP (i)))(VP (VB (look))(PRT (RP (up)))(NP (NP (NP (NN (someone))(POS ('s)))(NN (e-mail))(NN (address)))(PP (IN (on))(NP (DT (the))(NN (internet)))))))(. (?))))) |ET| 
-1  |BT| (ROOT (ROOT (SBARQ (WHNP (WDT (what))(JJ (english))(NN (playwright)))(SQ (VP (VBN (pen))(: (:))(`` (``))(SBAR (WHADVP (WRB (where)))(S (NP (DT (the))(NN (bee)))(VP (VBZ (suck))(, (,))(SBAR (RB (so))(S (VP (MD (shall))(VP (NP (PRP (i))('' (''))))))))))))(. (?))))) |ET| 
1  |BT| (ROOT (ROOT (SBARQ (WHNP (WP (what)))(SQ (VBZ (be))(NP (NP (NNP (california))(POS ('s)))(NN (capital))))(. (?))))) |ET| 
1  |BT| (ROOT (ROOT (SBARQ (WHNP (WP (what)))(SQ (VBP (be))(NP (NP (DT (some))(JJ (good))(JJ (medical))(NNS (site)))(PP (IN (for))(NP (NN (information))))))(. (?))))) |ET| 
1  |BT| (ROOT (ROOT (SBARQ (WHNP (WP (what)))(SQ (VBP (be))(NP (NP (NN (tourist))(NNS (attraction)))(PP (IN (in))(NP (NNP (reims))))))(. (?))))) |ET| 
1  |BT| (ROOT (ROOT (SBARQ (WHNP (WDT (what))(JJ (russian))(NN (seaport)))(SQ (VP (VBZ (have))(S (NP (DT (a))(NN (name))(NN (meaning)))(`` (``))(NP (NP (NNP (lord)))(PP (IN (of))(NP (DT (the))(NNP (east)))))('' ('')))))(. (?))))) |ET| 
-0.058897741995261668201955274071224  |BT| (ROOT (ROOT (SBARQ (WHADVP (WRB (why)))(SQ (VP (VBZ (do))(S (NP (PRP (it)))(NP (NN (snow))))))(. (?))))) |ET| 
-0.053662360073743919919309064425761  |BT| (ROOT (ROOT (SBARQ (WHNP (WP (what)))(SQ (VBP (be))(NP (NNPS (bellworts))))(. (?))))) |ET| 
0.81596353193745785326029817952076  |BT| (ROOT (ROOT (SBARQ (WHADVP (WRB (where)))(SQ (MD (can))(NP (PRP (i)))(VP (VB (find))(NP (NP (PDT (all))(DT (the))(NN (information)))(SBAR (S (NP (PRP (i)))(VP (VBP (need))(S (VP (TO (to))(VP (VB (know))(PP (IN (about))(NP (NP (DT (the))(NNP (english))(NNP (civil))(NNP (war)))(, (,))(NP (CD (1642-1649)))(, (,)))))))))))))(. (?))))) |ET| 
1  |BT| (ROOT (ROOT (SBARQ (WHADVP (WRB (where)))(SQ (MD (can))(NP (DT (a))(JJ (individual)))(VP (VB (get))(NP (NP (DT (a))(NN (contact))(NN (lens)))(VP (VBN (test))(SBAR (IN (that))(S (VP (VBN (burn))(NP (NP (DT (the))(JJ (entire))(NN (surface)))(PP (IN (of))(NP (NN (eye))))))))))))(FRAG (WHADVP (WRB (when)))(ADJP (JJ (new))))(. (?))))) |ET| 
1  |BT| (ROOT (ROOT (SBARQ (WHNP (WDT (what))(NNS (island)))(SQ (VP (VBD (get))(NP (PRP$ (they))(NN (name)))(PP (IN (from))(NP (NP (DT (the))(JJ (spanish))(FW (baja))(FW (mar)))(, (,))(VP (VBG (mean))(NP (JJ (shallow))(NN (water))))))))(. (?))))) |ET| 
-0.65946332905938587209959678148152  |BT| (ROOT (ROOT (SBARQ (WHNP (WP (who)))(SQ (VBD (be))(VP (VBN (name))(NP (NP (NN (admiral)))(PP (IN (of))(NP (NP (DT (the))(NNP (ocean))(NNS (sea))(CC (and))(NN (viceroy)))(CC (and))(NP (NP (NN (governor))(NNP (general)))(PP (IN (of))(NP (NP (PDT (all))(DT (the))(NNS (island)))(SBAR (S (NP (PRP (he)))(VP (MD (might))(VP (VB (discover)))))))))))))(, (,))(CC (and))(ADVP (RB (also)))(VP (VBN (grant))(NP (NP (CD (10)))(: (-))(NP (CD (??))))))))(ROOT (FRAG (PP (IN (of))(NP (NP (DT (all))(NNS (profit)))(PP (IN (of))(NP (PRP$ (he))(NN (voyage))))))(. (.))))) |ET| 
-0.94637270655115279804903138938244  |BT| (ROOT (ROOT (SBARQ (WHADVP (WRB (how)))(SQ (MD (can))(NP (PRP (i)))(VP (VB (find))(NP (NP (DT (a))(NN (list)))(PP (IN (of))(NP (NP (, (,))(NP (NN (fax))(CC (and))(CC (or))(NN (email)))(, (,))(NNS (address)))(PP (IN (for))(NP (JJ (human))(NN (resource))(NNS (department)))))))(PP (IN (in))(NP (NNP (massachusetts))))))(. (?))))) |ET| 
-1  |BT| (ROOT (ROOT (SBARQ (WHNP (WDT (what))(NNS (current)))(SQ (VP (VBP (affect))(NP (NP (NP (DT (the))(NN (area)))(PP (IN (of))(NP (DT (the))(NNP (shetland))(NNPS (islands)))))(CC (and))(NP (NP (NNP (orkney))(NNPS (islands)))(PP (IN (in))(NP (DT (the))(NNP (north))(NNP (sea))))))))(. (?))))) |ET| 
1  |BT| (ROOT (ROOT (SBARQ (WHNP (WP (what)))(SQ (VBD (be))(NP (NP (NNP (einstein))(POS ('s)))(NN (birthplace))))(. (?))))) |ET| 
1  |BT| (ROOT (ROOT (SBARQ (WHNP (WP (what)))(SQ (VBP (be))(NP (DT (the))(JJ (nordic))(NNS (nation))))(. (?))))) |ET| 
1  |BT| (ROOT (ROOT (SBARQ (WHNP (WP (what)))(SQ (VBP (be))(NP (DT (some))(NN (mythology))(NNS (website))))(. (?))))) |ET| 
-1  |BT| (ROOT (ROOT (SBARQ (WHNP (WP (what)))(SQ (VBP (be))(NP (DT (the))(JJ (low))(NNS (country))))(. (?))))) |ET| 
-0.015995528899927946575587611732772  |BT| (ROOT (ROOT (SBARQ (WHNP (WP (what)))(SQ (VBD (be))(NP (NP (DT (the))(NN (name)))(PP (IN (of))(NP (NP (DT (the))(NN (cook)))(PP (IN (on))(NP (NNP (rawhide))))))))(. (?))))) |ET| 
-0.040220196627397286626148797950009  |BT| (ROOT (ROOT (SBARQ (WHNP (WP (what)))(SQ (VBP (be))(NP (JJ (shooting))(NNS (star))))(. (?))))) |ET| 
1  |BT| (ROOT (ROOT (SBARQ (WHNP (WDT (what))(NN (lake)))(SQ (VBZ (be))(NP (NP (DT (the))(NN (source)))(PP (IN (of))(NP (DT (the))(NNP (white))(NNP (nile))))))(. (?))))) |ET| 
1  |BT| (ROOT (ROOT (SBARQ (WHNP (WHNP (WHNP (WDT (what))(NN (state)))(ADJP (JJ (full))))(PP (IN (of))(NP (NN (milk))(CC (and))(NN (honey)))))(SQ (VBD (be))(NP (NP (DT (the))(NN (destination)))(PP (IN (in))(NP (NP (DT (the))(NNS (grape)))(PP (IN (of))(NP (NN (wrath))))))))(. (?))))) |ET| 
1  |BT| (ROOT (ROOT (SBARQ (WHADVP (WRB (where))(PP (IN (on))(NP (DT (the))(NN (internet)))))(SQ (MD (can))(NP (PRP (i)))(VP (VB (get))(NP (NP (NN (information)))(PP (IN (about))(NP (DT (the))(NNP (fifth))(NNP (amendment)))))(PP (IN (on))(NP (NP (DT (the))(JJ (american))(NNP (bill)))(PP (IN (of))(NP (NNPS (rights))))))))(. (?))))) |ET| 
-1  |BT| (ROOT (ROOT (SBARQ (WHNP (WDT (what))(ADJP (JJ (bestselling))(JJ (modern)))(NN (poet)))(SQ (VBD (be))(NP (NP (DT (the))(NN (co-founder)))(PP (IN (of))(NP (NP (DT (the))(JJ (famous))(NNP (city))(NNP (lights))(NNP (bookshop)))(PP (IN (in))(NP (NNP (san))(NNP (francisco))))))))(. (?))))) |ET| 
-1  |BT| (ROOT (ROOT (SBARQ (WHNP (WDT (what))(NN (information)))(SQ (MD (can))(NP (PRP (you)))(VP (VB (get))(NP (PRP (i)))(PP (IN (on))(NP (NP (NNP (fairground))(NNP (park)))(PP (IN (in))(NP (NNP (st.))(NNP (louis))))))))))) |ET| 
-1  |BT| (ROOT (ROOT (SBARQ (WHADVP (WRB (where)))(SQ (VBD (do))(NP (NP (DT (the))(NN (energy)))(PP (IN (for))(NP (DT (the))(NNP (big))(NNP (bang)))))(VP (VB (come))(PP (IN (from)))))(. (?))))) |ET| 
1  |BT| (ROOT (ROOT (SBARQ (WHNP (WP (what)))(SQ (VBP (be))(NP (DT (the))(CD (seven))(NNS (sea))))(. (?))))) |ET| 
1  |BT| (ROOT (ROOT (SBARQ (WHNP (WP (what)))(SQ (VBP (be))(NP (DT (the))(NNP (benelux))(NNS (country))))(. (?))))) |ET| 
1  |BT| (ROOT (ROOT (SBARQ (WHNP (WP (what)))(SQ (VBP (be))(NP (NP (NNP (britain))(POS ('s)))(CD (two))(JJS (longest))(NNS (river))))(. (?))))) |ET| 
-0.2422801111167847687433152259473  |BT| (ROOT (ROOT (SBARQ (WHNP (WP (what)))(SQ (VBP (be))(NP (DT (the))(CD (seven))(NNS (virtue))))(. (?))))) |ET| 
-0.25314915848897312500298539816868  |BT| (ROOT (ROOT (SBARQ (WHNP (WP (what)))(SQ (VBP (be))(NP (DT (the))(CD (four))(NNS (element))))(. (?))))) |ET| 
-0.51351280914496677532099511154229  |BT| (ROOT (ROOT (SBARQ (WHNP (WP (what)))(SQ (VBP (be))(NP (DT (the))(NNP (valdez))(NNS (principle))))(. (?))))) |ET| 
0.80186150172873571495557598609594  |BT| (ROOT (ROOT (SBARQ (WHADVP (WRB (where)))(SQ (VP (VBD (do))(NP (NN (cable))(NNS (car)))(NP (JJ (first))(NN (roll)))(PP (IN (down))(NP (NP (NNP (clay))(NNP (street)))(PP (IN (in))(NP (NNP (1873))))))))(. (?))))) |ET| 
0.092168492062561863109593218723603  |BT| (ROOT (ROOT (SBARQ (WHADVP (WRB (where)))(SQ (MD (can))(NP (PRP (i)))(VP (VB (find))(NP (NP (DT (a))(NN (case)))(PP (IN (on))(NP (NNPS (americans)))))(PP (IN (with))(NP (NP (NNP (disabilities))(NNP (act)))(PP (IN (of))(NP (CD (199))))))))(. (?))))) |ET| 
0.67828183520792695304635344655253  |BT| (ROOT (ROOT (SBARQ (WHADVP (WRB (where)))(SQ (MD (can))(NP (PRP (i)))(VP (VB (get))(NP (NP (DT (a))(JJ (complete))(NN (listing)))(PP (IN (of))(NP (NP (NNS (showtime)))(PP (IN (in))(NP (PRP$ (my))(NN (area)))))))))(. (?))))) |ET| 
-0.050028976145840356459792985788226  |BT| (ROOT (ROOT (SBARQ (WHADVP (WRB (how)))(SQ (MD (can))(NP (PRP (i)))(VP (VB (find))(NP (NP (DT (a))(NN (phone))(NN (number)))(PP (IN (of))(NP (NN (someone)))))(SBAR (IN (if))(S (NP (PRP (i)))(ADVP (RB (only)))(VP (VBP (know))(NP (PRP$ (they))(NN (email))(NN (address))))))))(. (?))))) |ET| 
-0.5532277982445501507413609942887  |BT| (ROOT (ROOT (SBARQ (WHADVP (WRB (how)))(SQ (MD (can))(NP (PRP (i)))(VP (VB (find))(NP (NP (DT (a))(NN (list)))(PP (IN (of))(NP (NP (NNS (celebrity))(POS (')))(JJ (real))(NNS (name)))))))(. (?))))) |ET| 
0.31331805377874377693814267331618  |BT| (ROOT (ROOT (SBARQ (WHNP (WDT (what))(NNS (country)))(SQ (VP (VBP (have))(NP (NP (DT (the))(JJS (largest))(JJ (armed))(NNS (force)))(PP (IN (in))(NP (DT (the))(NN (world)))))))(. (?))))) |ET| 
1  |BT| (ROOT (ROOT (SBARQ (WHNP (WP (what)))(SQ (VBP (be))(NP (DT (the))(JJS (biggest))(JJ (indian))(NNS (airport))))(. (?))))) |ET| 
1  |BT| (ROOT (ROOT (SBARQ (WHNP (WP (what)))(SQ (VBZ (be))(NP (DT (the))(NNP (homelite))(NNP (inc.))(NN (home))(NN (page))))(. (?))))) |ET| 
-1  |BT| (ROOT (ROOT (SBARQ (WHNP (WP (what)))(SQ (VBZ (be))(NP (DT (the))(NNP (west))(NNP (virginia))(NN (state))(NN (animal))))(. (?))))) |ET| 
-0.58220104624925050895711819975986  |BT| (ROOT (ROOT (SBARQ (WHNP (WP (what)))(SQ (VBZ (be))(NP (NP (DT (the))(NN (world))(POS ('s)))(JJS (best))(NN (selling))(NN (cookie))))(. (?))))) |ET| 
-0.36907158959280839116701145030675  |BT| (ROOT (ROOT (SBARQ (WHNP (WP (what)))(SQ (VBZ (be))(NP (NP (DT (the))(JJS (best))(NN (way)))(S (VP (TO (to))(VP (VB (travel))(PP (IN (in))(NP (NNP (japan)))))))))(. (?))))) |ET| 
1  |BT| (ROOT (ROOT (SBARQ (WHNP (WDT (what))(NNP (georgia))(NN (town)))(SQ (VBD (do))(NP (NP (NNP (scarlett))(NNP (o)))(NP (`` (`))(NNP (hara))))(VP (VB (condemn))(PP (IN (as))(S (VP (VBG (be))(ADJP (JJ (full))(PP (IN (of))(NP (JJ (pushy))(NNS (people))))))))))(. (?))))) |ET| 
1  |BT| (ROOT (ROOT (SBARQ (WHNP (WDT (what))(JJ (asian))(NN (country)))(SQ (VP (VBZ (have))(NP (NP (DT (a))(NN (bill)))(PP (IN (of))(NP (NP (NNS (rights)))(PP (IN (for))(NP (NNS (cow)))))))))(. (?))))) |ET| 
1  |BT| (ROOT (ROOT (SBARQ (WHNP (WDT (what))(JJ (asian))(NN (country)))(SQ (VP (ADVP (RB (once)))(VBD (thrill))(PP (TO (to))(NP (NP (DT (the))(NN (sport)))(PP (IN (of))(NP (NN (cricket))(NN (fighting))))))))(. (?))))) |ET| 
1  |BT| (ROOT (ROOT (SBARQ (WHNP (WP (what)))(SQ (VBZ (be))(NP (DT (the))(NNP (homelite))(NNP (inc.))(NN (home))(NN (page))))(. (?))))) |ET| 
-0.034315726837634841217550274450332  |BT| (ROOT (ROOT (SBARQ (WHNP (WHNP (WDT (what))(NN (chapter)))(PP (IN (of))(NP (NP (VBN (go)))(PP (IN (with))(NP (DT (the))(NN (wind)))))))(SQ (VP (VBZ (have))(NP (NP (NNP (rhett))(NNP (butler)))(VP (VBG (leave))(NP (NNP (scarlett))(NNP (o)))(`` (`))(NP (NNP (hara)))))))(. (?))))) |ET| 
0.14513576067739916708454472882295  |BT| (ROOT (ROOT (SBARQ (WHADVP (WRB (where)))(SQ (MD (can))(NP (PRP (i)))(VP (VB (buy))(NP (DT (a))(NN (pony)))(PP (IN (on))(NP (NP (DT (the))(NNP (big))(NNP (island)))(PP (IN (for))(NP (PRP$ (my))(NN (daughter))))))))(. (?))))) |ET| 
1  |BT| (ROOT (ROOT (SBARQ (WHNP (WP (what)))(SQ (VBZ (be))(NP (DT (the))(JJS (highest))(NN (continent))))(. (?))))) |ET| 
1  |BT| (ROOT (ROOT (SBARQ (WHNP (WP (what)))(SQ (VBZ (be))(NP (NP (DT (the))(NN (world))(POS ('s)))(JJS (longest))(NN (suspension))(NN (bridge))))(. (?))))) |ET| 
1  |BT| (ROOT (ROOT (SBARQ (WHNP (WP (what)))(SQ (VBZ (be))(NP (NP (DT (the))(JJS (greatest)))(S (VP (VBG (hike))(NP (NN (web))(NN (site)))))))(. (?))))) |ET| 
-1  |BT| (ROOT (ROOT (SBARQ (WHNP (WDT (what))(JJ (infectious))(NN (disease)))(SQ (VBZ (be))(NP (NP (DT (the))(NN (world))(POS ('s)))(JJS (deadliest))))(. (?))))) |ET| 
-1  |BT| (ROOT (ROOT (SBARQ (WHNP (WDT (what))(NN (store)))(SQ (VP (VBZ (claim))(S (VP (TO (to))(VP (VB (be))(NP (NP (DT (the))(NN (world))(POS ('s)))(JJS (largest))(NN (department))(NN (store))))))))(. (?))))) |ET| 
-1  |BT| (ROOT (ROOT (SBARQ (WHNP (WP (what)))(SQ (VBZ (be))(NP (DT (the))(NNP (red))(NN (planet))))(. (?))))) |ET| 
1  |BT| (ROOT (ROOT (SBARQ (WHNP (WHNP (WDT (which))(NN (one)))(PP (IN (of))(NP (DT (the))(NNP (great))(NNP (lakes)))))(SQ (VP (VBZ (be))(ADVP (RB (entirely)))(PP (IN (within))(NP (NNP (u.s.))(NN (territory))))))(. (?))))) |ET| 
1  |BT| (ROOT (ROOT (SBARQ (WHNP (WDT (what))(NN (prison)))(SQ (VBZ (be))(VP (VBN (find))(PP (IN (in))(NP (NP (NNP (ossining)))(, (,))(NP (NNP (new))(NNP (york)))))))(. (?))))) |ET| 
1  |BT| (ROOT (ROOT (SBARQ (WHNP (WDT (what))(NNP (las))(NNP (vegas))(NN (hotel)))(SQ (VP (VBN (burn))(PP (IN (in))(NP (NP (NNP (november)))(, (,))(NP (CD (1980)))(, (,))))(PP (IN (with))(NP (NP (DT (the))(NN (loss)))(PP (IN (of))(NP (CD (84))(NNS (life))))))))(. (?))))) |ET| 
-0.51917458303386099238707629410783  |BT| (ROOT (ROOT (SBARQ (WHNP (WHNP (WDT (what))(NN (chapter)))(PP (IN (of))(NP (NP (VBN (go)))(PP (IN (with))(NP (DT (the))(NN (wind)))))))(SQ (VP (VBZ (have))(NP (NP (NNP (rhett))(NNP (butler)))(VP (VBG (leave))(NP (NNP (scarlett))(NNP (o)))(`` (`))(NP (NNP (hara)))))))(. (?))))) |ET| 
-0.3508181839140591673498192903935  |BT| (ROOT (ROOT (SBARQ (WHNP (WDT (what)))(SQ (VP (VBD (blow))(PRT (RP (up)))(PP (IN (at))(NP (NP (NNP (lakehurst)))(, (,))(NP (NNP (new))(NNP (jersey)))(, (,))))(PP (IN (on))(NP (NNP (may))(CD (6))(, (,))(CD (1977))))))(. (?))))) |ET| 
-1  |BT| (ROOT (ROOT (SBARQ (WHNP (WDT (what))(NP (NP (NNP (pulitzer)))(NP (JJ (prize-winning))(NN (novelist)))))(SQ (VP (VBD (run))(PP (IN (for))(NP (NP (NN (mayor)))(PP (IN (of))(NP (NNP (new))(NNP (york))(NNP (city))))))))(. (?))))) |ET| 
-0.10325188948595867555191318842844  |BT| (ROOT (ROOT (SBARQ (PP (IN (in))(NP (NN (ad))(CD (999))))(, (,))(WHNP (WDT (what))(NP (NN (sort))(PP (IN (of))(NP (NP (NNS (celebration)))(, (,))(NP (NNS (fear)))(, (,))))))(SQ (VBD (be))(NP (EX (there))))(. (?))))) |ET| 
1  |BT| (ROOT (ROOT (SBARQ (WHNP (WP (what)))(SQ (VBP (be))(NP (NP (DT (the))(NN (world))(POS ('s)))(CD (four))(NNS (ocean))))(. (?))))) |ET| 
1  |BT| (ROOT (ROOT (SBARQ (WHNP (WP (what)))(SQ (VBZ (be))(NP (NP (NNP (george))(NNP (lucas))(POS ('s)))(JJ (e-mail))(NN (address))))(. (?))))) |ET| 
1  |BT| (ROOT (ROOT (SBARQ (WHNP (WP (what)))(SQ (VBZ (be))(NP (NP (NNP (mark))(NNP (mcgwire))(POS ('s)))(JJ (e-mail))(NN (address))))(. (?))))) |ET| 
-0.053426553261010312212420103605837  |BT| (ROOT (ROOT (SBARQ (WHNP (WP (what)))(SQ (VBP (be))(NP (NNPS (maid-rites))))(. (?))))) |ET| 
-0.40828806323986083226529331113852  |BT| (ROOT (ROOT (SBARQ (WHNP (WP (what)))(SQ (VBZ (be))(NP (NP (NNP (drew))(NNP (barrymore))(POS ('s)))(JJ (middle))(NN (name))))(. (?))))) |ET| 
-0.26949929020592844342019134273869  |BT| (ROOT (ROOT (SBARQ (WHNP (WP (what)))(SQ (VBZ (be))(NP (NP (NNP (michael))(NNP (jackson))(POS ('s)))(JJ (middle))(NN (name))))(. (?))))) |ET| 
-0.13519385371968942188836138029728  |BT| (ROOT (ROOT (SBARQ (WHNP (WP (what)))(SQ (VBZ (be))(NP (NP (NNP (jimmy))(NNP (olsen))(POS ('s)))(JJ (full))(NN (name))))(. (?))))) |ET| 
1  |BT| (ROOT (ROOT (SBARQ (WHNP (WDT (what))(NP (NP (NNP (new))(NNP (hampshire)))(NP (NN (hamlet)))))(SQ (VP (VBZ (rise))(ADVP (RB (early))(S (VP (TO (to))(VP (VB (vote))(ADVP (RB (first)))(PP (IN (in))(NP (NNP (u.s.))(JJ (presidential))(NNS (election))))))))))(. (?))))) |ET| 
1  |BT| (ROOT (ROOT (SBARQ (WHNP (WHNP (WDT (what))(NN (part)))(PP (IN (of))(NP (NNP (britain)))))(SQ (VP (VBZ (comprise))(NP (NP (DT (the))(NNPS (highlands)))(, (,))(NP (NNP (central))(NNPS (lowlands)))(, (,))(CC (and))(NP (NNP (southern))(NNPS (uplands))))))(. (?))))) |ET| 
1  |BT| (ROOT (ROOT (SBARQ (WHNP (WDT (what))(NN (river)))(SQ (VP (VBZ (run))(PP (IN (through))(NP (NNP (colorado))(, (,))(NNP (kansas))(, (,))(CC (and))(NNP (oklahoma))))))(. (?))))) |ET| 
-0.56789086636541363795060988195473  |BT| (ROOT (ROOT (SBARQ (WHNP (WHNP (WDT (what))(NN (deck)))(PP (IN (of))(NP (NNS (card)))))(SQ (VP (VBZ (include))(NP (NP (DT (the))(NN (wheel)))(PP (IN (of))(NP (NP (NNP (fortune)))(, (,))(NP (DT (the))(NNPS (lovers)))(, (,))(CC (and))(NP (NNP (death))))))))(. (?))))) |ET| 
-0.77497591146223554492422636030824  |BT| (ROOT (ROOT (SBARQ (WHNP (WDT (what))(NN (line)))(SQ (VP (VBD (divide))(NP (DT (the))(NNP (north))(CC (and))(NNP (south)))(PP (IN (in))(NP (DT (the))(NNP (u.s.))(NNP (civil))(NNP (war))))))(. (?))))) |ET| 
-0.80937966951942297288979943914455  |BT| (ROOT (ROOT (SBARQ (WHNP (WHNP (WDT (what))(NN (percentage)))(PP (IN (of))(NP (DT (all))(NN (world))(NNS (tornado)))))(SQ (VP (VBP (touch))(PRT (RP (down)))(PP (IN (in))(NP (DT (the))(NNP (us))))))(. (?))))) |ET| 
1  |BT| (ROOT (ROOT (SBARQ (WHNP (WP (what)))(SQ (VBZ (be))(NP (NP (DT (a))(JJ (reliable))(NN (site)))(SBAR (IN (that))(S (NP (PRP (i)))(VP (MD (can))(VP (VB (download))(NP (NNP (heretic))(CD (2)))))))))(. (?))))) |ET| 
1  |BT| (ROOT (ROOT (SBARQ (WHNP (WP (what)))(SQ (VBD (be))(NP (DT (the))(JJ (first))(NNS (body)))(VP (VBN (visit))(PP (IN (by))(NP (NN (spacecraft))))))(. (?))))) |ET| 
0.80970077616319469093753014021786  |BT| (ROOT (ROOT (SBARQ (WHNP (WP (what)))(SQ (VBZ (be))(NP (NP (NNP (stefan))(NNP (edberg))(POS ('s)))(JJ (native))(NN (country))))(. (?))))) |ET| 
-1  |BT| (ROOT (ROOT (SBARQ (WHNP (WP (what)))(SQ (VBZ (be))(VP (VBN (mean))(PP (IN (by))(`` (``))(NP (NN (capital))(NN (market)))('' ('')))))(. (?))))) |ET| 
-1  |BT| (ROOT (ROOT (SBARQ (WHNP (WP (what)))(SQ (VBP (do))(NP (NN (river))(NNS (otter)))(VP (VB (eat))))(. (?))))) |ET| 
-0.62380720394092392666607338469476  |BT| (ROOT (ROOT (SBARQ (WHNP (WP (what)))(SQ (VBZ (be))(NP (DT (a))(JJ (virtual))(NNP (ip))(NN (address))))(. (?))))) |ET| 
1  |BT| (ROOT (ROOT (SBARQ (WHNP (WDT (what))(NN (nationality)))(SQ (VBD (be))(NP (NP (DT (the))(CD (123))(NNS (people)))(SBAR (WHNP (WP (who)))(S (VP (VBD (die))(PP (IN (in))(NP (NP (DT (the))(JJ (black))(NN (hole)))(PP (IN (of))(NP (NNP (calcutta)))))))))))(. (?))))) |ET| 
1  |BT| (ROOT (ROOT (SBARQ (WHNP (WDT (what))(CD (two))(JJ (european))(NNS (country)))(SQ (VP (VBD (enter))(NP (NP (DT (the))(NN (war)))(PP (IN (of))(NP (JJ (american))(NN (independence)))))(PP (IN (against))(NP (DT (the))(NNP (british))))))(. (?))))) |ET| 
1  |BT| (ROOT (ROOT (FRAG (PP (IN (in))(NP (NP (NP (NNP (sinclair))(NNP (lewis))(POS (')))(`` (``))(NNP (main))(NNP (street)))(, (,))('' (''))(SBAR (WHNP (WP (what)))(S (VP (VBD (be))(NP (NP (DT (the))(NN (name)))(PP (IN (of))(NP (DT (the))(JJ (typical))(JJ (american))(NN (town))))))))))(. (?))))) |ET| 
-0.20147043480344759003308752198791  |BT| (ROOT (ROOT (SBARQ (WHADVP (WRB (when)))(SQ (VBD (be))(NP (NP (DT (the))(JJ (first))(NN (railroad)))(PP (IN (from))(NP (NP (DT (the))(JJ (east))(NN (coast)))(PP (TO (to))(NP (DT (the))(NN (west))(NN (coast)))))))(VP (VBN (complete))))(. (?))))) |ET| 
-0.43690845522860355387706476903986  |BT| (ROOT (ROOT (SBARQ (WHNP (WP (what)))(SQ (VBD (be))(NP (NP (DT (the))(NN (name)))(PP (IN (of))(NP (NP (DT (the))(JJ (protestant))(NN (revolt)))(PP (IN (against))(NP (NP (DT (the))(NN (supremacy)))(PP (IN (of))(NP (DT (the))(NNP (pope))))))))))(. (?))))) |ET| 
0.8728425057413902177216868949472  |BT| (ROOT (ROOT (SBARQ (WHNP (WP (what)))(SQ (VBZ (be))(NP (NP (DT (the))(JJS (snowiest))(NN (city)))(PP (IN (in))(NP (DT (the))(NNP (u.s.))))))(. (?))))) |ET| 
1  |BT| (ROOT (ROOT (SBARQ (WHNP (WDT (what)))(SQ (VP (VBZ (attract))(NP (NNS (tourist)))(PP (TO (to))(NP (NNP (reims))))))(. (?))))) |ET| 
1  |BT| (ROOT (ROOT (SBARQ (WHNP (WDT (what))(NP (JJ (botanical))))(SQ (VP (VBP (marvel))(SBAR (SINV (VBD (do))(NP (NNP (nebuchadnezzar)))(VP (VB (build)))))))(. (?))))) |ET| 
1  |BT| (ROOT (ROOT (SBARQ (WHNP (WDT (what))(NN (building)))(SQ (VBP (be))(NP (JJ (british))(NNS (monarch)))(VP (VBN (crown))(PP (IN (in)))))(. (?))))) |ET| 
1  |BT| (ROOT (ROOT (SBARQ (WHNP (WP (what)))(SQ (VBD (be))(NP (NP (DT (the))(JJ (first))(CD (three))(NNS (city)))(S (VP (TO (to))(VP (VB (have))(NP (NP (DT (a))(NN (population)))(PP (IN (of))(NP (QP (JJR (more))(IN (than))(DT (a))(CD (million)))))))))))(. (?))))) |ET| 
-0.52487683015454256185705617099302  |BT| (ROOT (ROOT (SBARQ (WHNP (WDT (what))(CD (two))(JJ (major))(NN (world))(NNS (religion)))(SQ (VP (VBD (begin))(PP (IN (in))(NP (NNP (india))))))(. (?))))) |ET| 
-1  |BT| (ROOT (ROOT (SBARQ (WHNP (WDT (what))(CD (2))(NNS (statue)))(SQ (VBD (do))(NP (NNP (france)))(VP (VB (give))(PP (TO (to))(NP (JJ (other))(NNS (country))))))(. (?))))) |ET| 
-1  |BT| (ROOT (ROOT (SBARQ (WHNP (WDT (what))(NN (newspaper)))(SQ (VP (VBZ (serve))(S (ADJP (NNP (salt))(NNP (lake))(NNP (city))))))(. (?))))) |ET| 
1  |BT| (ROOT (ROOT (SBARQ (WHNP (WP (what)))(SQ (VBP (do))(NP (PRP (we)))(VP (VB (call))(NP (DT (the))(JJ (imaginary))(NN (line)))(PP (IN (along))(NP (NP (DT (the))(NN (top)))(PP (IN (of))(NP (DT (the))(NNP (rocky))(NNPS (mountains))))))))(. (?))))) |ET| 
1  |BT| (ROOT (ROOT (SBARQ (WHNP (WP (what)))(SQ (VBD (be))(NP (NP (DT (the))(JJ (former))(NN (residence)))(PP (IN (of))(NP (NP (JJ (scottish))(NNS (king)))(PP (IN (in))(NP (NNP (edinburgh))))))))(. (?))))) |ET| 
1  |BT| (ROOT (ROOT (SBARQ (WHNP (WP (what)))(SQ (VBZ (be))(NP (NP (DT (the))(NN (web))(NN (address)))(SBAR (WHPP (IN (at))(WHNP (WDT (which))))(S (NP (PRP (i)))(VP (MD (can))(VP (VB (find))(NP (NP (DT (the))(JJ (e-mail))(NN (address)))(PP (IN (of))(NP (NP (DT (a))(NN (member)))(PP (IN (of))(NP (NP (DT (the))(NNP (us))(NNP (house)))(PP (IN (of))(NP (NNPS (representatives)))))))))))))))(. (?))))) |ET| 
-0.28634621562799084104611324619327  |BT| (ROOT (ROOT (FRAG (WHNP (WDT (what))(NNS (school)))(PP (IN (in))(NP (NP (DT (the))(NNP (washington)))(, (,))(NP (NNP (dc))(NNP (nn))(NNP (nn))(NNP (vbp))(NNP (nn))(NNP (nn))(NNP (nn))(NNP (nn)))))(. (.))))) |ET| 
-1  |BT| (ROOT (ROOT (SBARQ (WHNP (WP (what)))(SQ (VBP (be))(NP (NP (DT (the))(NNS (sign)))(PP (IN (of))(NP (NP (DT (a))(NN (country)))(VP (VBG (go))(PP (IN (into))(NP (DT (a))(NN (recession)))))))))(. (?))))) |ET| 
-0.58066398781611683332926077127922  |BT| (ROOT (ROOT (SBARQ (WHNP (WP (what)))(SQ (VBD (be))(NP (NP (DT (the))(NNP (ventura))(NNP (county))(NN (police))(NN (department)))(SBAR (WHNP (WDT (that)))(S (VP (VBD (seize))(NP (NP (NP (DT (the))(NN (county))(POS ('s)))(JJS (largest))(NN (amount)))(PP (IN (of))(NP (NN (cocaine)))))(ADVP (RB (ever))))))))(. (?))))) |ET| 
1  |BT| (ROOT (ROOT (SBARQ (WHPP (IN (on))(WHNP (WDT (what))(NN (avenue))))(SQ (VBZ (be))(NP (NP (DT (the))(JJ (original))(NNP (saks))(NN (department))(NN (store)))(VP (VBN (locate)))))(. (?))))) |ET| 
1  |BT| (ROOT (ROOT (SBARQ (WHNP (WDT (what))(NN (city)))(SQ (VP (VBD (gain))(NP (NN (renown)))(PP (IN (for))(NP (PRP$ (its))(JJ (pea-soup))(NNS (fog))))))(. (?))))) |ET| 
1  |BT| (ROOT (ROOT (SBARQ (WHNP (WDT (what))(CD (four))(NNP (u.s.))(NNS (state)))(SQ (VP (VBP (have))(NP (JJ (active))(NNS (volcano)))))(. (?))))) |ET| 
-1  |BT| (ROOT (ROOT (SBARQ (WHPP (IN (in))(WHNP (WDT (what))(NN (medium))))(SQ (VBZ (be))(NP (NNP (stuart))(NNP (hamblen)))(VP (VBN (consider))(S (VP (TO (to))(VP (VB (be))(NP (DT (the))(JJ (first))(NN (singing))(NN (cowboy))))))))(. (?))))) |ET| 
-0.66368381698251144307221238705097  |BT| (ROOT (ROOT (SBARQ (WHNP (WDT (what))(JJ (astronomical))(NN (phenomenon)))(SQ (VP (VBZ (take))(NP (NN (place)))(PP (IN (in))(NP (NNP (jan.))(CD (1999))))))(. (?))))) |ET| 
0.042763524661611693189477989562874  |BT| (ROOT (ROOT (SBARQ (WHNP (WDT (what))(ADJP (JJ (north))(JJ (american)))(NN (city)))(SQ (VP (VBZ (sprout))(NP (DT (the))(JJS (most))(NN (parking))(NNS (meter)))))(. (?))))) |ET| 
1  |BT| (ROOT (ROOT (SBARQ (WHNP (WP (what)))(SQ (VBD (be))(NP (NP (DT (the))(NN (nationality)))(PP (IN (of))(NP (NNP (jackson))(NNP (pollock))))))(. (?))))) |ET| 
1  |BT| (ROOT (ROOT (SBARQ (WHNP (WP (what)))(SQ (VBP (be))(NP (NP (DT (the))(JJS (largest))(NNS (brewery)))(PP (IN (in))(NP (DT (the))(NN (world))))))(. (?))))) |ET| 
1  |BT| (ROOT (ROOT (SBARQ (WHNP (WP (what)))(SQ (VBP (be))(NP (NP (DT (the))(JJS (largest))(NNS (desert)))(PP (IN (in))(NP (DT (the))(NN (world))))))(. (?))))) |ET| 
-1  |BT| (ROOT (ROOT (SBARQ (WHNP (WP (what)))(SQ (VBP (be))(NP (NP (DT (the))(JJ (top))(NN (vegetable))(NNS (crop)))(PP (IN (in))(NP (DT (the))(NN (world))))))(. (?))))) |ET| 
-1  |BT| (ROOT (ROOT (SBARQ (WHNP (WP (what)))(SQ (VBP (be))(NP (NP (DT (the))(CD (seven))(NNS (wonder)))(PP (IN (of))(NP (DT (the))(NN (world))))))(. (?))))) |ET| 
-0.76872572054016852227675826725317  |BT| (ROOT (ROOT (SBARQ (WHNP (WP (what)))(SQ (VBP (be))(NP (NP (DT (the))(CD (three))(NN (winter))(NNS (month)))(PP (IN (in))(NP (DT (the))(JJ (southern))(NN (hemisphere))))))(. (?))))) |ET| 
1  |BT| (ROOT (ROOT (SBARQ (WHNP (WHNP (WDT (what))(NN (body)))(PP (IN (of))(NP (NN (water)))))(SQ (VBZ (do))(NP (DT (the))(NNP (yukon))(NNP (river)))(VP (VB (empty))(PP (IN (into)))))(. (?))))) |ET| 
1  |BT| (ROOT (ROOT (SBARQ (WHNP (WDT (what))(NN (constellation)))(SQ (VP (VBZ (represent))(NP (DT (a))(NN (hunter)))(PP (IN (with))(NP (NN (club))(CC (and))(NN (shield))))))(. (?))))) |ET| 
1  |BT| (ROOT (ROOT (SBARQ (WHNP (WDT (what))(JJ (african))(NN (capital)))(SQ (VBZ (be))(VP (VBN (name))(PP (IN (for))(NP (DT (a))(NNP (u.s.))(NN (president))))))(. (?))))) |ET| 
-0.44258031959576360492292224080302  |BT| (ROOT (ROOT (SBARQ (WHNP (WDT (what))(NN (basketball))(NN (player)))(SQ (VBZ (be))(VP (VBN (credit))(PP (IN (with))(NP (NP (CD (23)))(, (,))(NP (CD (924))(NNS (rebound)))))))(. (?))))) |ET| 
-0.17673840915875574375526468884345  |BT| (ROOT (ROOT (SBARQ (WHNP (WDT (what))(NN (effect)))(SQ (VBZ (do))(NP (DT (a))(NN (prism)))(VP (VBP (have))(PP (IN (on))(NP (NN (light))))))(. (?))))) |ET| 
-0.069717319926124177165149831125746  |BT| (ROOT (ROOT (SBARQ (WHNP (WDT (what))(NN (cancer)))(SQ (VBZ (be))(ADVP (RB (commonly)))(VP (VBN (associate))(PP (IN (with))(NP (NN (aids))))))(. (?))))) |ET| 
1  |BT| (ROOT (ROOT (SBARQ (WHNP (WP (what)))(SQ (VBP (be))(NP (NP (DT (the))(CD (five))(JJS (richest))(NNS (country)))(PP (IN (in))(NP (DT (the))(NN (world))))))(. (?))))) |ET| 
1  |BT| (ROOT (ROOT (SBARQ (WHNP (WP (what)))(SQ (VBP (be))(NP (NP (DT (the))(JJ (top))(CD (5))(JJS (tallest))(NNS (building)))(PP (IN (in))(NP (DT (the))(NN (world))))))(. (?))))) |ET| 
1  |BT| (ROOT (ROOT (SBARQ (WHNP (WP (what)))(SQ (VBP (be))(NP (NP (DT (the))(CD (five))(ADJP (RBS (most))(JJ (expensive)))(NNS (city)))(PP (IN (in))(NP (DT (the))(NN (world))))))(. (?))))) |ET| 
-0.5817834549469124150178345189488  |BT| (ROOT (ROOT (SBARQ (WHNP (WP (who)))(SQ (VBP (be))(NP (NP (DT (the))(JJ (top))(CD (ten))(JJS (richest))(NNS (people)))(PP (IN (in))(NP (DT (the))(NN (world))))))(. (?))))) |ET| 
-0.35305499002598639268768465626636  |BT| (ROOT (ROOT (SBARQ (WHNP (WP (who)))(SQ (VBP (be))(NP (NP (DT (the))(JJ (top))(CD (10))(JJS (richest))(NNS (people)))(PP (IN (in))(NP (DT (the))(NN (world))))))(. (?))))) |ET| 
-0.60305204142739810002638023433974  |BT| (ROOT (ROOT (SBARQ (WHNP (WP (what)))(SQ (VBP (be))(NP (NP (DT (the))(ADJP (RBS (most))(JJ (common)))(NN (breeding))(NNS (bird)))(PP (IN (in))(NP (DT (the))(NNP (u.s.))))))(. (?))))) |ET| 
1  |BT| (ROOT (ROOT (SBARQ (WHNP (WDT (what))(NNP (london))(NN (museum)))(SQ (VBZ (feature))(NP (NP (DT (a))(NNP (chamber)))(PP (IN (of))(NP (NNP (horrors))))))(. (?))))) |ET| 
1  |BT| (ROOT (ROOT (SBARQ (WHNP (WDT (what))(NN (lake)))(SQ (VBZ (be))(NP (NNP (sheboygan)))(PP (IN (on))))(. (?))))) |ET| 
1  |BT| (ROOT (ROOT (FRAG (SBARQ (WHNP (WDT (what))(NP (NP (NN (volcano))(NNS (shower)))(ADJP (JJ (ash))(PP (IN (on))(NP (NNP (sicily)))))))(. (?)))))) |ET| 
-0.34067497112380329404857093322789  |BT| (ROOT (ROOT (SBARQ (WHNP (WDT (what))(NNS (predator)))(SQ (VBP (exist))(PP (IN (on))(NP (NNP (antarctica)))))(. (?))))) |ET| 
-0.038836845034691147571237479496631  |BT| (ROOT (ROOT (SBARQ (WHNP (WDT (what))(NP (NNP (pope))))(SQ (VBD (inaugurate))(NP (NNP (vatican)))(NP (NNP (international))(NNP (radio))))(. (?))))) |ET| 
1  |BT| (ROOT (ROOT (SBARQ (WHNP (WP (what)))(SQ (VBZ (be))(NP (NP (DT (the))(JJS (best))(NN (place)))(S (VP (TO (to))(VP (VB (live))(PP (IN (in))(NP (NP (DT (the))(NN (world)))(, (,))(NP (NP (VBG (consider))(NN (climate)))(, (,))(NP (NN (civilization)))))))))))(. (?))))) |ET| 
1  |BT| (ROOT (ROOT (SBARQ (WHNP (WP (what)))(SQ (VBZ (be))(NP (NP (DT (the))(ADJP (JJS (fastest))(VBG (grow)))(NN (state)))(PP (IN (in))(NP (NP (DT (the))(NNP (u.s.a.)))(PP (IN (in))(NP (CD (1998))))))))(. (?))))) |ET| 
1  |BT| (ROOT (ROOT (SBARQ (WHNP (WP (what)))(SQ (VBP (be))(NP (NP (DT (the))(JJ (only))(CD (two))(NNS (state)))(SBAR (WHNP (WDT (that)))(S (VP (VBP (incorporate))(NP (NP (DT (the))(JJ (confederate))(NN (battle))(NN (flag)))(PP (IN (in))(NP (PRP$ (they))(NNS (flag))))))))))(. (?))))) |ET| 
-1  |BT| (ROOT (ROOT (SBARQ (WHNP (WP (what)))(SQ (VBZ (be))(NP (NP (DT (the))(JJS (lowest))(NN (level)))(PP (IN (of))(NP (DT (the))(JJ (american))(NN (judiciary))))))(. (?))))) |ET| 
-1  |BT| (ROOT (ROOT (SBARQ (WHNP (WP (what)))(SQ (VBZ (be))(NP (NP (DT (the))(NN (population)))(PP (IN (of))(NP (DT (the))(JJS (largest))(JJ (chilean))(NN (city))))))))) |ET| 
-1  |BT| (ROOT (ROOT (SBARQ (WHNP (WP (what)))(SQ (VBZ (be))(NP (NP (DT (the))(NN (no.))(CD (1))(NN (killer)))(PP (IN (in))(NP (JJ (industrialized))(NNS (country))))))(. (?))))) |ET| 
1  |BT| (ROOT (ROOT (SBARQ (WHNP (WDT (what))(JJ (caribbean))(NN (island)))(SQ (VBZ (be))(ADVP (RB (sometimes)))(VP (VBN (call))(NP (NNP (little))(NNP (england)))))(. (?))))) |ET| 
0.60064881798958547065581115020905  |BT| (ROOT (ROOT (SBARQ (WHNP (WHNP (WDT (what))(NN (country))(POS ('s)))(NNS (people)))(SQ (VBP (be))(NP (DT (the))(JJ (top))(NN (television))(NNS (watcher))))(. (?))))) |ET| 
0.4352441325813779515740975512017  |BT| (ROOT (ROOT (SBARQ (WHNP (WDT (what))(NN (city)))(SQ (VBZ (be))(NP (NNP (wiener))(NNP (schnitzel)))(VP (VBN (name))(PP (IN (for)))))(. (?))))) |ET| 
-0.38025720593066619779065717921185  |BT| (ROOT (ROOT (SBARQ (WHNP (WDT (what))(NP (NNP (pope))))(SQ (VBD (inaugurate))(NP (NNP (vatican)))(NP (NNP (international))(NNP (radio))))(. (?))))) |ET| 
-0.51196598805656201580660535910283  |BT| (ROOT (ROOT (SBARQ (WHNP (WDT (what))(CD (1915))(NN (film)))(SQ (VBD (be))(NP (NP (DT (the))(JJ (first)))(S (VP (TO (to))(VP (VB (gross))(NP (QP ($ ($))(CD (5))(CD (million)))))))))(. (?))))) |ET| 
-0.749627093985467451986437481537  |BT| (ROOT (ROOT (SBARQ (WHNP (WDT (what))(JJ (american))(NN (actress)))(SQ (VBD (be))(NP (NP (DT (the))(JJ (first)))(S (VP (TO (to))(VP (VB (be))(VP (VBN (call))(NP (DT (a))(`` (``))(NN (vamp))('' ('')))))))))(. (?))))) |ET| 
-0.47661173146159524494080983458844  |BT| (ROOT (ROOT (SBARQ (WHNP (WDT (what))(NNP (u.s.))(NNP (president)))(SQ (VBD (be))(NP (NP (DT (the))(JJ (first)))(S (VP (TO (to))(VP (VB (breed))(NP (NNS (mule))))))))(. (?))))) |ET| 
1  |BT| (ROOT (ROOT (SBARQ (WHNP (WP (what)))(SQ (VBZ (be))(NP (NP (DT (the))(NN (address)))(PP (IN (of))(NP (DT (the))(JJ (famous))(JJ (mexican))(NN (star))(`` (``))(NNP (thalia))('' (''))))))(. (?))))) |ET| 
1  |BT| (ROOT (ROOT (SBARQ (WHNP (WP (what)))(SQ (VBZ (be))(NP (NP (DT (the))(NN (name)))(PP (IN (of))(NP (NP (DT (the))(JJS (largest))(NN (city)))(PP (IN (in))(NP (NNP (chile))(, (,))(NNP (south))(NNP (america))))))))(. (?))))) |ET| 
1  |BT| (ROOT (ROOT (SBARQ (WHNP (WP (what)))(SQ (VBZ (be))(NP (NP (DT (the))(NN (name)))(PP (IN (of))(NP (NP (DT (the))(NN (planet)))(SBAR (IN (that))(S (NP (DT (the))(NNPS (ewoks)))(VP (VBP (live))(PP (IN (on))))))))))(. (?))))) |ET| 
-1  |BT| (ROOT (ROOT (SBARQ (WHNP (WP (what)))(SQ (VBZ (be))(NP (NP (DT (the))(NN (theory)))(PP (IN (of))(NP (JJ (equivalence))(NNS (state))))))(. (?))))) |ET| 
-1  |BT| (ROOT (ROOT (SBARQ (WHNP (WP (what)))(SQ (VBZ (be))(NP (DT (the))(NN (music)))(VP (VBN (use))(PP (IN (in))(NP (NP (DT (the))(JJ (new))(NNP (vw))(NNP (beetle))(JJ (commercial)))(SBAR (WHADVP (WRB (where)))(S (NP (DT (the))(NN (car)))(VP (VBZ (spin))(CC (and))(VBZ (change))(NP (NNS (color))))))))))(. (?))))) |ET| 
-1  |BT| (ROOT (ROOT (SBARQ (WHNP (WP (what)))(SQ (VBZ (be))(NP (NP (DT (the))(NN (term)))(PP (IN (for))(NP (NP (DT (the))(NN (side)))(PP (IN (of))(NP (NP (DT (the))(NN (mountain)))(SBAR (WHNP (WDT (that)))(S (VP (VBZ (face))(NP (DT (the))(VBG (prevail))(NNS (wind))))))))))))(. (?))))) |ET| 
1  |BT| (ROOT (ROOT (SBARQ (WHNP (WP (what)))(SQ (VBD (be))(NP (NP (DT (the))(JJ (first))(NN (town)))(S (VP (TO (to))(VP (VB (be))(ADJP (VBN (charter))(PP (IN (in))(NP (NNP (vermont))))))))))(. (?))))) |ET| 
1  |BT| (ROOT (ROOT (SBARQ (WHNP (WDT (what))(NNP (california))(NN (bridge)))(SQ (VBD (be))(NP (NNP (don))(NNP (brown)))(NP (NP (DT (the))(JJ (first)))(S (VP (TO (to))(VP (VB (cross))(, (,))(PP (IN (on))(NP (NNP (may))(CD (27))(, (,))(CD (1937)))))))))(. (?))))) |ET| 
-1  |BT| (ROOT (ROOT (SBARQ (WHNP (WDT (what))(NNP (michelangelo))(NN (sculpture)))(SQ (VBZ (be))(PP (IN (in))(NP (NP (NP (NNP (saint))(NNP (peter))(POS ('s)))(NNP (cathedral)))(, (,))(NP (NN (basilica)))(, (,)))))(. (?))))) |ET| 
-0.53921621332868574505425840470707  |BT| (ROOT (ROOT (SBARQ (WHNP (WP (what)))(SQ (VBZ (be))(NP (NP (PRP (it)))(SBAR (WHNP (IN (that)))(S (VP (VBZ (walk))(PP (PP (IN (on))(NP (CD (four))(NNS (leg))))(, (,))(ADVP (RB (then)))(PP (IN (on))(NP (CD (two))(NNS (leg))))(, (,))(ADVP (RB (then)))(PP (IN (on))(NP (CD (three))))))))))(. (?))))) |ET| 
-0.91703893373891853801893603304052  |BT| (ROOT (ROOT (SBARQ (WHNP (WDT (what))(NN (creature)))(SQ (VBZ (be))(NP (NP (DT (the))(JJ (absolute))(JJS (fastest)))(PP (IN (in))(S (VP (VBG (move))(PP (IN (in))(NP (NP (DT (the))(NN (world)))(PRN (, (,))(NP (NNS (bird))(, (,))(NNS (mammal))(, (,))(FW (etc.)))(, (,))))))))))(. (?))))) |ET| 
1  |BT| (ROOT (ROOT (SBARQ (WHNP (WDT (what))(JJ (french))(NN (seaport)))(SQ (VP (VBZ (claim))(S (VP (TO (to))(VP (VB (be))(NP (NP (DT (the))(NN (home)))(PP (IN (of))(NP (NNS (wine))))))))))(. (?))))) |ET| 
1  |BT| (ROOT (ROOT (SBARQ (WHNP (WP (what)))(SQ (VBP (be))(NP (NP (PDT (all))(DT (the))(JJ (southern))(NNS (state)))(PP (IN (of))(NP (DT (the))(NNP (u.s.))))))(. (?))))) |ET| 
1  |BT| (ROOT (ROOT (SBARQ (WHNP (WP (what)))(SQ (VBP (be))(NP (NP (DT (the))(CD (ten))(JJS (safest))(JJ (american))(NNS (city)))(PP (IN (for))(NP (NNS (pedestrian))))))(. (?))))) |ET| 
1  |BT| (ROOT (ROOT (SBARQ (WHNP (WDT (what))(NNP (california))(NN (bridge)))(SQ (VBD (be))(NP (NNP (don))(NNP (brown)))(NP (NP (DT (the))(JJ (first)))(S (VP (TO (to))(VP (VB (cross))(, (,))(PP (IN (on))(NP (NNP (may))(CD (27))(, (,))(CD (1937)))))))))(. (?))))) |ET| 
-1  |BT| (ROOT (ROOT (SBARQ (WHNP (WP (what)))(SQ (VBP (be))(NP (NP (DT (the))(JJ (first))(CD (six))(NNS (word)))(PP (IN (of))(NP (NP (NNP (dickens))(POS ('s)))(NP (NP (DT (a))(NN (tale)))(PP (IN (of))(NP (CD (two))(NNS (city)))))))))(. (?))))) |ET| 
-0.455142918838413346183102703435  |BT| (ROOT (ROOT (SBARQ (WHNP (WP (what)))(SQ (VBP (be))(NP (NP (DT (some)))(PP (IN (of))(NP (NP (DT (the))(JJ (significant))(JJ (historical))(NNS (event)))(PP (IN (of))(NP (DT (the))(CD (1990s))))))))(. (?))))) |ET| 
-0.60167161346458031268014110537479  |BT| (ROOT (ROOT (SBARQ (WHNP (WP (what)))(SQ (VBP (be))(NP (NP (PDT (all))(DT (the))(JJ (different))(NNS (kind)))(PP (IN (of))(NP (NNS (contraceptive))))))(. (?))))) |ET| 
1  |BT| (ROOT (ROOT (SBARQ (WHADVP (WRB (where)))(SQ (VBD (do))(NP (NP (NNP (freidreich))(NNP (wilhelm))(NNP (ludwig))(NNP (leichhardt)))(, (,))(NP (JJ (prussian))(VBN (bear))(NN (explorer)))(, (,)))(VP (VB (go))(PP (TO (to))(NP (NN (school))))))(. (?))))) |ET| 
1  |BT| (ROOT (ROOT (SBARQ (WHADVP (WRB (where)))(SQ (VP (VBD (do)))(NP (NP (NNP (king))(NNP (francis)))(SBAR (S (NP (PRP (i)))(VP (VBP (hang))))))(NP-TMP (NP (DT (the))(`` (``))(NNP (mona))(NNP (lisa))('' ('')))(SBAR (WHADVP (WRB (when)))(S (NP (PRP (he)))(VP (VBD (own))(NP (PRP (it))))))))(. (?))))) |ET| 
1  |BT| (ROOT (ROOT (SBARQ (WHADVP (WRB (where)))(SQ (VBD (be))(NP (NNP (richard))(NNP (nixon)))(SBAR (WHADVP (WRB (when)))(S (NP (NNP (gerald))(NNP (ford)))(VP (VBD (become))(NP (NN (president)))))))(. (?))))) |ET| 
-0.9880136717809039348381361378415  |BT| (ROOT (ROOT (SBARQ (WHNP (WDT (what))(JJ (french))(NN (leader)))(SQ (VP (VBD (sell))(NP (NNP (louisiana)))(PP (TO (to))(NP (DT (the))(NNP (united))(NNPS (states))))))(. (?))))) |ET| 
-0.51139777631094374132914026631624  |BT| (ROOT (ROOT (SBARQ (WHNP (WP (what)))(SQ (VBP (do))(NP (PRP (i)))(VP (VB (need))(S (VP (TO (to))(VP (VB (learn))(S (VP (TO (to))(VP (VB (design))(NP (NN (web))(NNS (page)))))))))))(. (?))))) |ET| 
-1  |BT| (ROOT (ROOT (SBARQ (WHADVP (WRB (where)))(SQ (VBZ (do))(NP (NP (DT (the))(NN (expression)))(`` (``))(NP (NN (cloud))(CD (nine)))('' ('')))(VP (VBN (come))(PP (IN (from)))))(. (?))))) |ET| 
1  |BT| (ROOT (ROOT (SBARQ (WHNP (WP (what)))(SQ (VBD (be))(NP (NP (DT (the))(NNS (city)))(PP (IN (of))(NP (NP (NNP (dickens))(POS ('s)))(NP (NP (DT (a))(NN (tale)))(PP (IN (of))(NP (CD (two))(NNS (city)))))))))(. (?))))) |ET| 
1  |BT| (ROOT (ROOT (SBARQ (WHNP (WP (what)))(SQ (VBP (be))(NP (NP (DT (the))(NNS (name)))(PP (IN (of))(NP (NP (DT (the))(NN (tourist))(NNS (attraction)))(PP (IN (in))(NP (NNP (reims))))))))(. (?))))) |ET| 
1  |BT| (ROOT (ROOT (SBARQ (WHNP (WP (what)))(SQ (VBP (be))(NP (NP (DT (the))(CD (two))(NNS (city)))(PP (IN (in))(NP (NP (NNP (dicken))(POS ('s)))(`` (``))(NP (NP (DT (a))(NN (tale)))(PP (IN (of))(NP (CD (two))(NNS (city)))))('' (''))))))(. (?))))) |ET| 
-0.22084125234081508626360346170259  |BT| (ROOT (ROOT (SBARQ (WHNP (WP (what)))(SQ (VBP (be))(NP (NP (PRP$ (my))(JJ (legal))(NNS (rights)))(PP (IN (in))(NP (NP (DT (a))(NN (automobile))(NN (repossession)))(PP (IN (in))(NP (NNP (california))))))))(. (?))))) |ET| 
-0.20696006330036603726441057915508  |BT| (ROOT (ROOT (SBARQ (WHNP (WP (what)))(SQ (VBP (be))(NP (NP (DT (the))(NNS (statistics)))(PP (IN (for))(NP (NP (JJ (drunken))(NNS (driver)))(PP (IN (in))(NP (NNP (maryland))))))))(. (?))))) |ET| 
-1  |BT| (ROOT (ROOT (SBARQ (WHNP (WDT (what))(JJ (japanese))(NNS (electronics))(NN (company)))(SQ (VBD (be))(VP (VBN (name))(PP (IN (for))(NP (NP (DT (a))(JJ (coastal))(NN (city))(NN (northeast)))(PP (IN (of))(NP (NNP (tokyo))))))))(. (?))))) |ET| 
1  |BT| (ROOT (ROOT (SBARQ (WHNP (WDT (what))(NN (bay)))(SQ (VP (VBZ (sparkle))(ADVP (JJ (next)))(PP (TO (to))(NP (NNP (miami))(, (,))(NNP (florida))))))(. (?))))) |ET| 
1  |BT| (ROOT (ROOT (SBARQ (WHNP (WDT (what))(NN (river)))(SQ (VBZ (do))(NP (DT (the))(NNP (grand))(NNP (coulee))(NN (dam))(NN (dam))))(. (?))))) |ET| 
1  |BT| (ROOT (ROOT (SBARQ (WHNP (WDT (what))(JJ (famed))(NN (wall)))(SQ (VP (VBZ (support))(NP (DT (the))(NNP (badaling))(NN (turret)))))(. (?))))) |ET| 
-1  |BT| (ROOT (ROOT (SBARQ (WHNP (WDT (what))(ADJP (JJ (non-mechanical)))(NN (sport)))(SQ (VP (VBZ (achieve))(NP (DT (the))(JJS (highest))(NNS (speed)))))(. (?))))) |ET| 
-1  |BT| (ROOT (ROOT (SBARQ (WHNP (WDT (what))(NN (character)))(SQ (VP (VBZ (narrate))(NP (NNP (treasure))(NNP (island)))))(. (?))))) |ET| 
-0.44163272552699461837022454346879  |BT| (ROOT (ROOT (SBARQ (WHNP (WDT (what))(NN (group)))(SQ (VP (VBD (kidnap))(NP (NNP (patricia))(NNP (hearst)))))(. (?))))) |ET| 
1  |BT| (ROOT (ROOT (SBARQ (WHNP (WP (what)))(SQ (VBP (be))(NP (NP (PDT (all))(DT (the))(NNS (river)))(PP (IN (in))(NP (NNP (europe))))))(. (?))))) |ET| 
1  |BT| (ROOT (ROOT (SBARQ (WHNP (WP (what)))(SQ (VBZ (be))(ADJP (JJ (worth))(S (VP (VBG (see))(PP (IN (in))(NP (NNP (reims))))))))(. (?))))) |ET| 
1  |BT| (ROOT (ROOT (SBARQ (WHNP (WP (what)))(SQ (VBP (be))(NP (NP (NP (DT (the))(NN (world))(POS ('s)))(CD (three))(JJS (largest))(NNS (ocean)))(, (,))(PP (IN (in))(NP (NP (NN (order)))(PP (IN (of))(NP (NN (size))))))))(. (?))))) |ET| 
-1  |BT| (ROOT (ROOT (SBARQ (WHNP (WP (what)))(SQ (VBP (be))(NP (NP (DT (the))(CD (two))(JJS (largest))(NNS (bird)))(PP (IN (on))(NP (NN (earth))))))(. (?))))) |ET| 
-0.72210707982040012176128129794961  |BT| (ROOT (ROOT (SBARQ (WHNP (WP (what)))(SQ (VBP (be))(NP (NP (DT (the))(NN (living))(NNS (condition)))(PP (IN (in))(NP (NNP (cuba))))))(. (?))))) |ET| 
-0.070647502911714871176585006651294  |BT| (ROOT (ROOT (SBARQ (WHNP (WP (what)))(SQ (VBD (be))(NP (NP (DT (the))(JJ (long))(NNP (march)))(PP (IN (in))(NP (NNP (china))))))(. (?))))) |ET| 
1  |BT| (ROOT (ROOT (SBARQ (WHNP (WDT (what))(NN (sea)))(SQ (VP (VBZ (surround))(NP (DT (the))(NNP (cayman))(NNPS (islands)))))(. (?))))) |ET| 
1  |BT| (ROOT (ROOT (SBARQ (WHNP (WDT (what))(NN (building)))(SQ (VP (VBD (build))(PP (IN (in))(NP (NP (CD (18)))(SBAR (S (VP (VBZ (contain))(NP (NP (CD (327))(NNS (mile)))(PP (IN (of))(NP (NN (book))(NNS (shelf))))))))))))(. (?))))) |ET| 
1  |BT| (ROOT (ROOT (SBARQ (WHNP (WDT (what))(NNP (tokyo))(NN (street)))(SQ (VP (VBZ (glitter))(PP (IN (with))(NP (JJ (famed))(NN (department))(NNS (store))(CC (and))(NNS (nightclub))))))(. (?))))) |ET| 
-0.87884669971056494919281476541073  |BT| (ROOT (ROOT (FRAG (SBARQ (WHNP (WHNP (WHNP (WDT (what))(NN (type)))(PP (IN (of))(NP (NP (NN (exercise))(NNS (burn)))(NP (DT (the))(RBS (most))))))(NNS (calorie)))(. (?)))))) |ET| 
-0.56554151319119572161042697189259  |BT| (ROOT (ROOT (SBARQ (WHNP (WDT (what))(NNP (president)))(SQ (VP (VBD (live))(PP (IN (at))(NP (NP (CD (219)))(ADJP (JJ (north))(NP-TMP (NP (NNP (delaware))(NNP (street)))(, (,))(NP (NNP (independence))(, (,))(NNP (missouri)))))))))(. (?))))) |ET| 
-1  |BT| (ROOT (ROOT (SBARQ (WHNP (WDT (what)))(SQ (MD (can))(NP (PRP (one)))(VP (VB (see))(PP (IN (in))(NP (NNP (reims))))))(. (?))))) |ET| 
1  |BT| (ROOT (ROOT (SBARQ (WHNP (WP (what)))(SQ (VBD (be))(VP (VBN (know))(PP (IN (as))(NP (DT (the))(NN (spice))(NN (island))))))(. (?))))) |ET| 
1  |BT| (ROOT (ROOT (SBARQ (WHNP (WP (what)))(SQ (VBZ (be))(NP (DT (the))(JJS (closest))(NN (g2))(NN (spectrum))(NP (NP (JJ (yellow))(NN (dwarf)))(PP (TO (to))(NP (NNP (earth)))))))(. (?))))) |ET| 
1  |BT| (ROOT (ROOT (SBARQ (WHNP (WP (what)))(SQ (VBP (be))(NP (NP (DT (the))(JJS (largest))(NNS (library)))(PP (IN (in))(NP (DT (the))(NNP (us))))))(. (?))))) |ET| 
-0.9799114887015819563842455863778  |BT| (ROOT (ROOT (SBARQ (WHNP (WP (what)))(SQ (VBZ (be))(NP (NP (DT (the))(JJ (second-most-used))(NN (murder))(NN (weapon)))(PP (IN (in))(NP (DT (the))(NNP (u.s.))))))(. (?))))) |ET| 
-0.28744418728094589532418012822745  |BT| (ROOT (ROOT (SBARQ (WHNP (WP (what)))(SQ (VBP (be))(NP (NP (DT (the))(JJS (shortest)))(CC (and))(NP (DT (the))(JJS (longest))(NNS (song))))(VP (ADVP (RB (ever)))(VBN (produce))))(. (?))))) |ET| 
-0.56377287251106344978524020916666  |BT| (ROOT (ROOT (SBARQ (WHNP (WP (what)))(SQ (VBZ (be))(NP (DT (the))(NNP (home))(NNP (rule))(NNP (act))))(. (?))))) |ET| 
1  |BT| (ROOT (ROOT (SBARQ (WHNP (WDT (what))(NN (arch)))(SQ (MD (can))(NP (PRP (you)))(VP (VB (see))(PP (IN (from))(NP (DT (the))(NNP (place))(FW (de))(FW (la))(NNP (concorde))))))(. (?))))) |ET| 
1  |BT| (ROOT (ROOT (SBARQ (WHPP (IN (in))(WHNP (WHNP (WDT (what))(NN (part)))(PP (IN (of))(NP (NNP (africa))))))(SQ (VBZ (be))(NP (NNP (mozambique)))(VP (VBN (locate))))(. (?))))) |ET| 
1  |BT| (ROOT (ROOT (FRAG (SBARQ (WHNP (WDT (what))(NP (NP (NN (nation))(NNS (boarder)))(NP (NNP (mozambique)))))(. (?)))))) |ET| 
-0.69602837069055656371574514196254  |BT| (ROOT (ROOT (SBARQ (WHPP (IN (on))(WHNP (WDT (what))(NN (day))))(SQ (VBD (be))(NP (NP (NNP (john))(NN (f)))(CC (and))(NP (NNP (jackie))(NNP (kennedy))))(VP (VBN (marry))))(. (?))))) |ET| 
-0.48611602828398281506139255725429  |BT| (ROOT (ROOT (SBARQ (WHPP (IN (in))(WHNP (WDT (what))(NNS (way))))(SQ (VP (VBD (do))(S (NP (NNP (ivan)))(NP (CD (iv))(NN (support))(JJ (russian))(NN (expansion))))))(. (?))))) |ET| 
-1  |BT| (ROOT (ROOT (SBARQ (WHNP (WDT (what))(NNP (california))(NN (governor)))(SQ (VP (VBD (say))(: (:))(`` (``))(SBAR (S (NP (NNP (inaction)))(VP (MD (may))(VP (VB (be))(NP (NP (DT (the))(JJS (highest))(NN (form)))(PP (IN (of))(NP (NN (action)))))))))('' (''))))(. (?))))) |ET| 
1  |BT| (ROOT (ROOT (SBARQ (WHNP (WP (what)))(SQ (VBZ (be))(NP (NP (DT (the))(ADJP (RBS (most))(JJ (important)))(NN (nation)))(PP (IN (in))(NP (NP (DT (the))(NN (world)))(, (,))(ADVP (RB (historically)))))))(. (?))))) |ET| 
1  |BT| (ROOT (ROOT (SBARQ (WHNP (WP (what)))(SQ (VBZ (be))(NP (NP (DT (the))(ADJP (JJS (largest))(CC (and))(ADJP (RBS (most))(JJ (expensive))))(NN (freeway))(NN (construction))(NN (project)))(PP (IN (in))(NP (NP (DT (the))(NNP (u.s.))(NN (right)))(ADVP (RB (now)))))))(. (?))))) |ET| 
1  |BT| (ROOT (ROOT (SBARQ (WHNP (WP (what)))(SQ (VBZ (be))(NP (NP (DT (the))(JJS (oldest))(JJ (ethnological))(NN (museum)))(PP (IN (in))(NP (DT (the))(NN (world))))))(. (?))))) |ET| 
-1  |BT| (ROOT (ROOT (SBARQ (WHNP (WP (what)))(SQ (VBZ (be))(NP (NP (DT (the))(JJS (best))(NN (art))(CC (and))(NN (design))(NN (school)))(PP (IN (in))(NP (DT (the))(NN (world))))))(. (?))))) |ET| 
-0.86174647100588364079243319793022  |BT| (ROOT (ROOT (SBARQ (WHNP (WP (what)))(SQ (VBZ (be))(NP (NP (DT (the))(RBS (most))(JJ (common))(JJ (non-contagious))(NN (disease)))(PP (IN (in))(NP (DT (the))(NN (world))))))(. (?))))) |ET| 
-0.57446588635707218628567716223188  |BT| (ROOT (ROOT (SBARQ (WHNP (WP (what)))(SQ (VBZ (be))(NP (NP (DT (the))(NN (goat))(NN (population)))(PP (IN (of))(NP (DT (the))(NN (world))))))(. (?))))) |ET| 
1  |BT| (ROOT (ROOT (SBARQ (WHPP (IN (on))(WHNP (WDT (which))(JJ (hawaiian))(NN (island))))(SQ (VBZ (be))(NP (NNP (pearl))(NNP (harbor))))(. (?))))) |ET| 
1  |BT| (ROOT (ROOT (SBARQ (WHPP (IN (in))(WHNP (WDT (what))(NN (county))))(SQ (VBZ (be))(NP (NNP (eckley))(NNP (colorado))))(. (?))))) |ET| 
1  |BT| (ROOT (ROOT (SBARQ (WHNP (WHNP (WDT (what))(NN (landmark)))(JJ (italian))(NN (restaurant)))(SQ (MD (can))(VP (VB (be))(VP (VBN (find))(PP (IN (at))(NP (NP (CD (239))(NNP (west))(NNP (48th))(NNP (street)))(, (,))(NP (NNP (new))(NNP (york))(NNP (city))))))))(. (?))))) |ET| 
-1  |BT| (ROOT (ROOT (SBARQ (WHPP (IN (on))(WHNP (WDT (which))(NN (date))))(SQ (VBZ (be))(NP (NP (DT (the))(NNPS (ukrainians))(POS (')))(NNP (christmas))))(. (?))))) |ET| 
-0.67479966056461371248786917931284  |BT| (ROOT (ROOT (SBARQ (WHNP (WDT (what))(NN (journalist)))(SQ (MD (can))(VP (VB (be))(VP (VBN (find))(PP (IN (in))(CC (and))(IN (around))(NP (NNP (walden))(NNP (puddle)))))))(. (?))))) |ET| 
-0.35519037488675403446691802855639  |BT| (ROOT (ROOT (S (NP (NNP (boxing))(NNP (day)))(VP (VBZ (be))(VP (VBN (celebrate))(WHPP (IN (on))(WHNP (WDT (what))(NN (date))))))(. (?))))) |ET| 
1  |BT| (ROOT (ROOT (SBARQ (WHNP (WP (what)))(SQ (VBZ (be))(NP (NP (DT (the))(NN (capital)))(PP (IN (of))(NP (NNP (taiwan))))))(. (?))))) |ET| 
1  |BT| (ROOT (ROOT (SBARQ (WHNP (WP (what)))(SQ (VBZ (be))(NP (NP (DT (the))(NN (capital)))(PP (IN (of))(NP (NNP (uruguay))))))(. (?))))) |ET| 
1  |BT| (ROOT (ROOT (SBARQ (WHNP (WP (what)))(SQ (VBZ (be))(NP (NP (DT (the))(NN (capital)))(PP (IN (of))(NP (NNP (monaco))))))(. (?))))) |ET| 
-1  |BT| (ROOT (ROOT (SBARQ (WHNP (WP (what)))(SQ (VBZ (be))(NP (NP (DT (the))(NN (hub)))(PP (IN (of))(NP (NNP (london))))))(. (?))))) |ET| 
-1  |BT| (ROOT (ROOT (SBARQ (WHNP (WP (what)))(SQ (VBZ (be))(NP (NP (DT (the))(NN (population)))(PP (IN (of))(NP (NNP (mozambique))))))(. (?))))) |ET| 
-0.56551423000805400853607807221124  |BT| (ROOT (ROOT (SBARQ (WHNP (WP (what)))(SQ (VBZ (be))(NP (NP (DT (the))(NN (half-life)))(PP (IN (of))(NP (NNP (p-32))))))(. (?))))) |ET| 
1  |BT| (ROOT (ROOT (SBARQ (WHPP (IN (in))(WHNP (WHNP (WDT (what))(NN (area)))(PP (IN (of))(NP (DT (the))(NN (world))))))(SQ (VBD (be))(NP (DT (the))(CD (six))(NNP (day))(NNP (war)))(VP (VBN (fight))))(. (?))))) |ET| 
1  |BT| (ROOT (ROOT (SBARQ (WHNP (WDT (what))(NP (JJ (natural))(NNS (attraction))))(SQ (VP (VBP (draw))(NP (DT (the))(RBS (most)))(PP (NP (NNS (visitor)))(IN (in))(NP (DT (the))(NNP (united))(NNPS (states))))))(. (?))))) |ET| 
1  |BT| (ROOT (ROOT (SBARQ (WHNP (WDT (what))(CD (two))(NNS (country)))(SQ (VP (VBD (fight))(NP (NP (DT (the))(NNP (hundred))(NNS (year))(POS (')))(NN (war)))))(. (?))))) |ET| 
-0.84344540101024745304414409474703  |BT| (ROOT (ROOT (SBARQ (WHPP (IN (in))(WHNP (WDT (what))(NN (year))))(SQ (VBD (be))(NP (DT (the))(NNP (wall)))(VP (VBN (build))))(. (?))))) |ET| 
-0.45081317666546460998233669670299  |BT| (ROOT (ROOT (SBARQ (WHNP (WDT (what))(CD (two))(NNP (us))(NNS (biochemist)))(SQ (VP (VBD (win))(NP (DT (the))(NNP (nobel))(NNP (prize)))(PP (IN (in))(NP (NN (medicine))))(PP (IN (in))(NP (CD (1992))))))(. (?))))) |ET| 
-0.67282869976944259526874247967498  |BT| (ROOT (ROOT (SBARQ (WHPP (IN (in))(WHNP (WDT (what))(NN (war))))(SQ (VBD (be))(NP (DT (the))(JJ (first))(NN (submarine)))(VP (VBN (use))))(. (?))))) |ET| 
1  |BT| (ROOT (ROOT (SBARQ (WHNP (WP (what)))(SQ (VBZ (be))(NP (NP (DT (the))(JJS (oldest))(NN (website)))(PP (IN (on))(NP (DT (the))(NN (internet))))))(. (?))))) |ET| 
1  |BT| (ROOT (ROOT (SBARQ (WHNP (WP (what)))(SQ (VBZ (be))(NP (NP (DT (the))(JJS (highest))(NN (peak)))(PP (IN (in))(NP (NNP (africa))))))(. (?))))) |ET| 
-1  |BT| (ROOT (ROOT (S (NP (NNP (italy)))(VP (VBZ (be))(NP (NP (DT (the))(JJS (largest))(NN (producer)))(PP (IN (of))(NP (WP (what))))))(. (?))))) |ET| 
-1  |BT| (ROOT (ROOT (SBARQ (WHNP (WP (what)))(SQ (VBZ (be))(NP (NP (DT (the))(JJS (largest))(NN (variety)))(PP (IN (of))(NP (NN (cactus))))))(. (?))))) |ET| 
-1  |BT| (ROOT (ROOT (SBARQ (WHNP (WP (what)))(SQ (VBZ (be))(NP (NP (DT (the))(JJS (highest))(JJ (possible))(NN (bid)))(PP (IN (in))(NP (NNP (contract))(NNP (bridge))))))(. (?))))) |ET| 
1  |BT| (ROOT (ROOT (SBARQ (WHPP (IN (in))(WHNP (WDT (what))(NNP (u.s.))(NN (state))))(SQ (VBD (be))(NP (DT (the))(JJ (first))(NN (woman))(NN (governor)))(VP (VBN (elect))))(. (?))))) |ET| 
0.82882122124587143119356369425077  |BT| (ROOT (ROOT (SBARQ (WHPP (IN (in))(WHNP (WDT (what))(NN (state))))(SQ (VBD (be))(NP (DT (the))(JJ (first))(JJ (co-educational))(NN (college)))(VP (VBN (establish))))))) |ET| 
1  |BT| (ROOT (ROOT (SBARQ (WHPP (IN (in))(WHNP (WDT (what))(NN (state))))(SQ (VBD (be))(NP (EX (there)))(NP (DT (a))(ADJP (QP (CD (11))(CD (million)))(NN (gallon)))(NN (oil))(NN (spill))))(. (?))))) |ET| 
1  |BT| (ROOT (ROOT (SBARQ (WHNP (WP (what)))(SQ (VBZ (be))(NP (NP (DT (the))(JJS (oldest))(NN (website)))(PP (IN (on))(NP (DT (the))(NN (internet))))))(. (?))))) |ET| 
-0.57363289436313114055820960857091  |BT| (ROOT (ROOT (SBARQ (WHNP (WDT (what))(NN (president)))(SQ (VBD (be))(VP (VP (VBN (mean))(PP (IN (for))))(, (,))(CC (but))(VP (ADVP (RB (never)))(VBN (place))(PP (IN (in)))(, (,))(NP (DT (the))(JJ (empty))(NN (crypt)))(PP (IN (beneath))(NP (NP (DT (the))(NN (capital))(POS ('s)))(NN (rotunda)))))))(. (?))))) |ET| 
-0.90767866171042854706030311717768  |BT| (ROOT (ROOT (SBARQ (WHPP (IN (in))(WHNP (WDT (what))(NN (movie))))(SQ (VBZ (be))(NP (DT (the))(NN (number))(NP (CD (nine))))(VP (VBN (find))(PP (IN (in))(NP (DT (the))(NN (title))))))(. (?))))) |ET| 
-0.1918959225626081233073705334391  |BT| (ROOT (ROOT (SBARQ (WHNP (WDT (which))(CD (two))(NNS (product)))(SQ (VP (VBP (use))(NP (DT (a))(NN (tiger)))(PP (IN (as))(NP (PRP$ (they))(NN (symbol))))))(. (?))))) |ET| 
1  |BT| (ROOT (ROOT (SBARQ (WHNP (WP (what)))(SQ (VBZ (be))(NP (NP (DT (the))(JJS (largest))(NN (lake)))(PP (IN (in))(NP (NNP (north))(NNP (america))))))(. (?))))) |ET| 
1  |BT| (ROOT (ROOT (SBARQ (WHNP (WP (what)))(SQ (VBZ (be))(NP (NP (NNP (bill))(NNP (gates)))(PP (IN (of))(NP (NNP (microsoft))(NN (e-mail))(NN (address))))))(. (?))))) |ET| 
1  |BT| (ROOT (ROOT (SBARQ (WHNP (WP (what)))(SQ (VBZ (be))(NP (NP (DT (the))(JJS (largest))(JJ (natural))(NN (lake)))(PP (IN (in))(NP (NNP (pennsylvania))))))(. (?))))) |ET| 
-1  |BT| (ROOT (ROOT (SBARQ (WHNP (WP (what)))(SQ (VBZ (be))(NP (DT (the))(NNP (pennsylvania))(NN (state))(NN (income))(NN (tax))(NN (rate))))(. (?))))) |ET| 
-0.44837505117614961935856854324811  |BT| (ROOT (ROOT (SBARQ (WHNP (WP (what)))(SQ (VBZ (be))(NP (DT (the))(NNP (u.s.))(NNP (navy))(NN (hymn))))(. (?))))) |ET| 
-0.30824121687214689480072138394462  |BT| (ROOT (ROOT (SBARQ (WHNP (WP (what)))(SQ (VBZ (be))(NP (DT (the))(ADJP (RBS (most))(JJ (radioactive)))(NN (food))))(. (?))))) |ET| 
1  |BT| (ROOT (ROOT (SBARQ (WHNP (WDT (what))(NN (mountain))(NN (range)))(SQ (VP (VBZ (mark))(NP (NP (DT (the))(NN (border)))(PP (IN (of))(NP (NNP (france))(CC (and))(NNP (spain)))))))(. (?))))) |ET| 
1  |BT| (ROOT (ROOT (SBARQ (WHNP (WDT (what))(NN (town)))(SQ (VBD (be))(NP (NP (DT (the))(NN (setting)))(PP (IN (for))(NP (DT (the))(NN (music))(NN (man))))))(. (?))))) |ET| 
